1000 100
HES4 0.94680518 -0.40562766 0.255064819 -0.023888203 0.64707165 0.08973367500000001 0.341521205 0.521090105 0.36797363 0.77037301 0.178002665 -0.025460134999999995 -0.443900095 -0.305906675 -0.008148855000000003 -0.540625575 0.279843045 0.6602845749999999 -0.36071467 0.35551498 0.62929887 -0.104765485 0.5214552 -0.2476417835 -0.6288567 -0.50766886 0.36817616 -0.6088504699999999 0.290146075 -0.18924351 -0.39511107999999995 0.2108026117 0.815594935 0.5320137 0.158742495 0.291301445 -1.2044381 -0.16880772 -0.61827404 0.128356335 0.141532795 -0.30813864999999996 -0.33996989499999997 -0.43280922 -0.221896025 0.499002475 -0.47151423 0.7667157 0.03474859500000001 -0.035764235000000005 0.266574635 0.17740627 0.611873565 0.5677211950000001 -0.58217436 -0.046889190000000004 -0.46294017000000004 -0.54696122 0.547011895 -0.20017517499999998 0.600625875 0.3826572015 -0.349915623 0.011890769999999995 0.9768854299999999 0.314020965 0.2598322505 -0.13134932295 -0.264112493 0.121788381 -0.0453091 -0.5400124 0.53444195 0.36252931 0.033776664999999984 -0.8832345699999999 -0.45777393 0.023223700000000003 0.21068135500000001 0.552968665 -0.01434357 -0.55174645 -0.68756479 0.34238271 -0.5146467800000001 0.559131225 0.28994137999999997 0.1977821065 -0.66807224 -0.11712652500000001 -0.37484861999999997 -0.46899797 0.068695454 0.06986638 0.25061371 0.2527485215 0.10544054000000001 -0.043458300000000005 0.7484867 -0.5966201250000001
ISG15 0.352406085 0.054666015500000005 0.46445559000000003 -0.55786833 0.5557232000000001 -0.09850644 1.11303275 0.668851375 -0.20310842500000004 1.3725552 1.85941395 0.529967255 -0.230934122 0.07821594999999992 -0.875605545 -1.9016020500000002 -0.8090898990000001 0.75673626 -0.737546335 -0.524214655 2.20953035 -0.81065659 1.5412265500000002 -0.30343471 -0.285813535 -0.9927659 -0.694328495 0.382972175 -0.49438795000000013 -1.363961 -1.59195395 1.178217235 0.5641656949999999 1.4397607 0.784071535 -0.15747752000000004 -1.45671577 -1.4811337999999998 -1.7425456000000001 -0.17764817 0.26492184999999996 0.580210385 -1.42818815 -1.71707665 0.91521453 0.462559175 0.34326375 2.2871238500000004 -0.25324469999999993 0.83947172 0.40732467 -0.915684375 0.125670865 0.28268947499999997 -0.53162056 0.22532326000000003 0.42660025000000007 -1.156475 0.99059032 -1.3610611000000001 0.05259032500000002 1.2830475 -0.8995876999999999 0.7572237414999999 0.42548845 0.5837622600000001 0.12182140500000002 0.82789615 -0.56482937 -0.20554837000000004 0.36392195 -0.5882277850000001 0.32899965 -1.59875845 0.15114109999999997 -0.6803257500000001 -0.29510458000000006 -0.303617638 -0.33759952000000004 0.2501855 0.34300410000000003 0.12383759 0.7256676950000001 1.5066386999999999 -0.8649259 -0.12343214 1.2140890500000001 -0.619186125 0.4041831 0.36733010499999996 -0.34973568 0.456557825 1.114664902 -0.5442021000000001 -0.6363155 -0.48528276 -0.8966599500000001 0.411484 0.292367595 -1.04130465
TNFRSF18 0.56437958 -0.54677944 -0.52720184 -0.001685137499999996 -0.020811319 -0.261222275 0.45724412000000003 -0.502184485 0.06585088 0.5275274449999999 -0.06050198 -0.013294199999999999 0.19003141499999998 -0.7316109 -0.071225835 -0.434611175 0.14623534 -0.084705126 -0.33484771999999996 -0.2317462285 0.36845839 0.29903188999999997 0.6352030750000001 -0.1731222325 -0.201375725 0.057496195 -0.42826058 0.025466765000000016 -0.055212559999999994 -0.19283725499999999 -0.61316211 0.29424058000000003 0.292164235 0.08747922500000001 0.5546161199999999 0.09904097500000002 -0.630559385 0.010240903999999999 -0.34471318500000003 0.189826725 0.620322795 -0.09922086499999999 0.04175452 0.08872347500000001 0.005869684999999986 0.247401405 -0.1732933755 0.28602666250000003 -0.15033149500000004 0.298347265 0.63350409 -0.124715195 0.05911477 0.357777244 -0.1859169 -0.42438200000000004 -0.277319038 -0.11505569999999998 -0.14136067 -0.1427179902 -0.08876103075 -0.19788887500000002 -0.355000042 -0.33274113 0.032033165 0.114220965 -0.377793755 0.039697199999999995 0.36219359500000003 -0.374237263 0.057566923500000006 -0.06918631 -0.059370259 -0.160589525 -0.15917207500000002 0.17539944999999998 0.05295408 0.16949549999999997 -0.273963265 0.0006461999999999996 -0.029559984999999983 -0.19274522 -0.27275415000000003 0.062139215000000005 0.1114750155 0.160329495 0.807672835 0.09759571499999999 -0.296708605 0.32957889500000004 0.385287135 -0.3843503115 0.05795196499999998 0.08713454999999998 -0.51039541 0.546039505 -0.7920573 0.480440145 0.23177799999999998 -0.3635912
TNFRSF4 0.4739446565 -0.8154078499999999 -0.03571299 0.0338442655 0.33508731 -0.07445368 0.360237725 -0.280971125 -0.29004284 0.7444013199999999 0.224253321 0.006208760000000001 0.04975861349999999 -0.802861245 0.153309435 -0.386620045 -0.465342775 -0.001817520000000003 0.12522305 0.535785285 -0.244105165 0.129596775 0.6181374000000001 -0.065803685 -0.5751883 -0.573490455 0.2816950525 -0.06635457500000003 -0.124370915 0.08956176500000002 -0.30533433000000004 0.60339351 0.84400255 0.77857393 0.507500675 0.103086435 -0.244916896 -0.5743525 -0.0980624625 0.255586221 -0.020506261499999998 -0.473986715 -0.5285788324999999 -0.005677745000000012 0.39156973500000003 0.220338305 -0.18263617634999998 0.6080461 0.36740853 0.70166489 0.91533425 0.021553959999999997 -0.08712536430000001 -0.081045065 -0.027814479499999996 0.04514177500000001 0.831835865 -0.05933544 -0.023174795000000012 -0.31523818000000003 0.16719906499999998 -0.13655618500000002 -0.629369335 -0.41698794000000006 -0.005871275000000002 0.0711016935 -0.7252269 0.65105265 0.5311408449999999 0.13457378 -0.43644638 -0.476115035 0.582917535 0.12056996975 -0.04556418000000001 -0.11606839500000002 -0.149946725 -0.22596978 0.15404130800000002 -0.41445150999999997 0.35129891999999996 0.0914906025 0.464335425 -0.10655837499999998 -0.051581125000000005 0.43091568 0.86745025 0.40468356 0.011692115 -0.467801425 0.23105504 -0.64718847 -0.27275721 -0.742390278 -0.311343225 0.186358252 -0.26344365000000003 -0.34635997500000004 0.52426577 0.1120544225
PRKCZ -0.128015662 0.09371291999999999 0.30848347 0.055113225000000016 -0.24823656 -0.0316043005 0.32935907 -0.112810424 -0.055012296 0.343668245 0.34196407 -0.09354580000000001 -0.06611265499999999 0.10891558 -0.01796222 0.0535339725 -0.1567823998 0.07423853999999999 -0.113824485 -0.09796306499999999 0.113361435 -0.09725893999999999 0.04389865 -0.07980214499999999 -0.0024726549999999903 -0.11692292500000001 0.055657206 0.04652167500000001 0.1241767185 -0.1372196375 -0.286797735 0.08158636799999999 -0.010403099999999998 0.226290785 0.06577838 0.022598118 -0.1176994325 -0.331958905 -0.2294193365 -0.00018313000000000357 -0.164894635 0.168219191 -0.091930243 -0.05698983999999999 0.05290492575 0.0431088641 0.133068045 0.244396955 0.10156612999999999 0.021610384999999996 -0.066557695 -0.1309490025 -0.133333311 -0.008098223000000002 -0.17932844999999997 0.20460343 0.29028949000000004 0.21314762 0.015430010000000008 0.048245280000000015 0.23673329650000002 -0.2004744825 -0.169367725 -0.071719402 -0.33465857 0.039273055 0.079830785 -0.009026045000000003 -0.14455762 0.0257443573 -0.133646995 -0.057626353 -0.15868375 -0.372867155 -0.004622249999999994 0.122243665 0.060968329999999994 0.206144295 0.1606517125 -0.03735778499999999 0.042454715000000004 -0.0039294075000000026 -0.1134684 0.0808678615 -0.17083279 0.06370234999999999 0.18254894500000002 -0.253693805 0.35537887 0.24468806499999998 -0.0204171895 0.157304691 -0.08640560500000001 -0.042836191499999995 -0.2313770975 -0.110754317 0.0841012175 -0.112487645 0.10564552 -0.106286582
FAM213B -0.08854010500000001 -0.0567320905 -0.0075323550000000045 0.03552308 -0.004441849999999997 0.0413186085 0.10595190500000001 -0.013441536999999996 -0.08351896500000001 0.203156315 0.051998455 0.1635667175 0.061424305 -0.23211832 -0.263333065 -0.15160115300000002 -0.02082264999999999 0.387309875 -0.2082061655 0.0005129499999999981 0.29358846 -0.181178145 0.007571660000000008 0.17861554600000001 0.17361990500000002 -0.07017063850000001 0.092438919 0.225794815 0.32116578 -0.347244515 -0.048476782999999996 0.14986119599999997 -0.24776700499999998 0.03722237 -0.092719304428 -0.079316313 0.052361085 -0.400350175 -0.219807515 -0.16190915 -0.01633810999999999 0.13684701000000002 -0.37034568 -0.066867275 0.2014067525 -0.204996053 0.023741634999999997 0.30299928800000003 0.0024023800000000026 0.133194137 -0.260050045 -0.366290165 0.0235624506 -0.13929658 -0.061145584999999995 0.404419005 0.394968145 0.09078630500000001 -0.10018231 -0.167262847 0.09450940000000001 0.07723918199999999 -0.067321762 -0.17854419500000002 -0.3811569 0.20409962 -0.003402649999999993 0.189109127 0.102641945 0.125493045 0.28531378 -0.252558305 0.002107875000000009 -0.008065939999999994 -0.016264127 -0.02166887995 0.18962593 0.202770438 -0.235282785 0.026775329 -0.0245901495 0.032326339999999995 -0.118247815 -0.0865160215 -0.099370235 -0.198410975 0.09044469499999999 0.2579821173 0.40964755500000005 0.178152725 0.11824382 -0.05764978500000001 0.20409802500000002 0.006565544999999992 0.1124171277 -0.19682108 0.144314375 -0.26329302000000004 0.16158892 -0.20636538999999998
TNFRSF9 0.11348763 -0.44809891 -0.176105619 -0.426599905 0.30810952 -0.112766795 0.444998275 0.12218857500000001 0.13233655 0.24414353149999998 0.540727725 -0.009966591499999998 0.03502599000000001 -0.2007820185 -0.19217137 -0.13134884675000003 0.0248429085 0.55991005 -0.039850705 0.231571445 0.05059775500000001 -0.006008520000000003 0.2142280595 0.26039971 -0.137128802 -0.350242455 -0.08796578999999999 -0.070954 -0.45341615 -0.32977907 -0.18722073 0.312244295 0.05156525149999999 0.008371795000000001 0.426641495 -0.020748514999999995 -0.1957831345 0.13002544500000002 -0.2395681305 0.129564785 0.0830766275 -0.10933309999999999 -0.290132345 -0.007579490000000008 0.10277939500000001 0.363618265 -0.04479448 0.16874499199999998 0.129020615 0.43809485 0.20307798500000002 -0.280199476 0.41423008 -0.11930354 0.20123490000000002 -0.013910630000000007 -0.08050526165 -0.044711924999999986 -0.0007119299999999995 -0.222800445 -0.03071754 0.04642589499999998 -0.15555613000000001 -0.175714131 -0.0035053099999999976 0.060327485 0.17045708825 -0.105812135 0.04309110499999999 -0.010451050000000017 0.460127929 -0.18124199530000001 0.21378373750000002 0.0172107315 -0.11402132499999998 0.30091626 0.046148422 0.0801165375 -0.20026481500000004 -0.2702210865 0.23254124 0.186115792 0.18895931 0.10433155 0.07821043999999999 0.034161595 0.29628517825 0.20348358500000002 0.12864356 -0.19072411 0.0902779565 -0.262869932 0.12875545700000002 -0.25658184500000003 -0.34704952 0.08397528000000001 -0.5952216699999999 0.25307908500000004 0.523181785 -0.04876059455
GPR157 0.030601984999999998 -0.069851835 -0.1519509735 0.003091759999999999 0.145627235 -0.18232771199999998 0.2367301275 0.460628445 -0.044253802 0.027177725 0.10856024 0.2975772115 -0.132926185 0.118699685 0.31358074999999996 -0.6447835 -0.283317928 0.13218795 -0.10347286 -0.0429349 -0.009013779999999999 0.18555327649999998 0.3152675 0.09702129200000001 -0.42589774999999996 -0.08392083650000001 -0.409225928 0.20609057925000002 -0.43485478499999997 -0.0395250953 -0.148783393 0.19722667 0.08098533499999999 0.276179675 0.221400405 0.20218808500000002 0.07392876 0.10729808795 -0.40092930000000004 0.12968943 0.22094564849999998 -0.41441821 -0.383568865 -0.0696359515 -0.03994499500000001 0.469842895 0.188790262 0.2500788335 0.039701057 0.2955728475 -0.13512531 0.08567542500000001 0.224073032 0.227893513 0.246707935 0.217382415 0.5872319175 -0.732877 -0.267215279 -0.52953426 -0.17458497 0.12139760000000001 -0.166242860825 -0.218180085 0.21772869500000003 0.61297047 -0.304489005 0.037695519999999996 0.38032987399999996 0.15298752999999998 0.196069675 -0.26650411 0.25780048 -0.16335174849999998 0.18068981 0.021342940000000005 -0.2425602175 0.022293720000000003 -0.16291906000000003 0.451779995 -0.04950758999999999 0.30427742999999996 0.16140364 -0.1854719225 -0.12640975999999998 -0.138412277 -0.20799088500000001 0.12175876 0.338146885 0.263625605 -0.268050598 -0.51897267 0.197353277 0.08789154999999998 0.13812195500000002 -0.250285095 0.2002587545 0.131755385 0.45023473999999997 -0.356328155
RBP7 -0.041704649999999996 0.19028385849999999 -0.12427434200000001 0.27174581 -0.12440734749999999 0.247814625 0.13994689 0.48894994999999997 0.24911185000000002 0.0637072863 0.18585074000000001 0.0686835415 0.054645860000000004 -0.146931203 -0.0984651315 -0.243146825 0.26141532 0.0201102405 -0.385920645 0.40475992 0.385206385 0.084903377 0.210195047 -0.149471195 -0.0961226375 -0.08562921000000001 -0.22425667 0.195015995 -0.49972855 0.136637245 0.28214244499999996 -0.126150968 -0.061047793499999996 -0.379751135 0.6373978849999999 0.08633643500000002 -0.347497685 0.05687749 0.008408134999999997 0.195902815 -0.1808526425 0.153736285 -0.35491006 -0.18870127999999997 0.347100765 0.10267350000000003 -0.32206044 0.17466429 -0.21015371 0.025512024 0.213261235 -0.1621899 0.0356797514 -0.07546073 0.062021576 -0.20918336499999998 0.0380797325 -0.41165097 0.037066970000000005 -0.320460935 -0.14745467 0.28860255 0.12302745 0.08618877999999999 0.04663708 0.03255080500000001 -0.17558951499999997 0.086661102 -0.11633114500000001 0.0014242019999999994 -0.04591586000000002 -0.024995912000000002 -0.14586664500000002 -0.24829679500000001 0.211728955 -0.14875286999999998 0.21159644 -0.0447048965 0.22786053 -0.320404105 0.252072955 0.033411485 0.16317607 0.42915249 0.03844012499999999 -0.08427554999999998 -0.037814445 0.09898378999999999 0.164513945 -0.13552144 0.081557795 0.0008734300000000084 0.154654542 0.11315573000000001 -0.0036857 -0.024377639999999992 -0.183681346 -0.0711234 -0.040984119999999985 -0.14226503499999998
SRM 0.45614675499999996 -0.286687225 -0.04565024000000001 -0.06931460199999999 0.6435518 -0.38047577499999996 0.17857035 -0.14307560924999999 0.33023982999999996 0.9740546 0.173154795 -0.9402469499999999 0.59882005 -0.631599635 -0.07306531799999999 -0.3323113775 -0.25485254 -0.04732319 -0.1074701 0.14776096 -0.133226289 0.0603627575 0.48638955 -0.054358474999999996 -0.11894336299999998 -0.12192917299999999 0.261106587 0.19855104 -0.61997056 -0.1569010628 -0.24840767000000002 0.94075155 0.9157373499999999 -0.1074515335 0.595333125 -0.09271024 -0.53006799 -0.590200625 -0.09356170499999997 -0.23607409 -0.19614576500000003 -0.25866100000000003 -0.416696503 -0.21105216999999998 0.327352085 -0.336010385 0.410124 0.26529313 0.6066575350000001 0.916659725 0.28695993000000003 -0.311818845 0.11592717350000001 0.311044835 -0.0037625099999999967 -0.5643968 -0.7946591 -0.110645905 -0.285765002 -0.40880797999999996 -0.15514958 0.5894721 -0.311394245 0.1480792345 -0.24970578999999998 -0.368268095 0.1122018165 0.23826037500000002 0.410373538 -0.235716745 -0.25800675500000003 -0.47130302 0.24239345 0.2215928385 -0.137152965 -0.27288348 -0.19063867499999998 -0.34901118 -0.32916985249999997 0.0010474699999999948 0.23834925999999998 -0.135238325 0.17695987 -0.13164148000000003 0.12191289999999999 0.11761183849999998 0.34239065 0.233936345 0.29121603 -0.035406115 -0.12516402 -0.357526975 0.159537077 0.04538854999999997 -0.7063879 0.62842485 -0.526193675 -0.297230141 0.1280647 -0.058541069999999994
CLCN6 0.05553173 0.36271860499999997 0.157768532 0.44098485 -0.118727457 -0.19834544099999998 -0.16538461799999998 0.289860275 -0.040358029 -0.06721396 0.06601367 0.17070977999999998 0.370346925 -0.006791034999999999 -0.14375889 -0.14730155 0.160553033 0.209007312 -0.15740438999999998 0.08181010749999999 0.19419610999999998 0.152212934 0.24715837000000002 0.222426045 0.222823755 -0.411839155 -0.2674230875 0.09156892999999999 -0.221044595 0.11644167250000001 0.13620051049999998 -0.1435777485 -0.259809615 -0.13306242000000001 0.3418806699 -0.06827049499999999 -0.095686485 -0.08644359499999998 -0.09449831824999999 0.361686855 0.08277000499999998 -0.0008048200000000116 0.076703925 -0.17854555100000002 0.412586825 -0.058934669999999995 0.07264529 0.25982447025 -0.294235651 0.16112065000000003 -0.19977961500000002 -0.32987 0.204939315 0.0950929975 0.0091705805 -0.065559165 0.10615424700000001 -0.7413767 0.233541465 -0.4894597025 -0.19765809499999998 0.30868986 -0.075961473 0.44540785000000005 -0.15812452 0.28270395 -0.0458314075 0.08196709000000002 0.329252535 -0.09464033999999999 0.29115635 -0.2588121 -0.373255355 -0.12304617500000001 -0.03000754 0.01969130999999999 -0.226873675 0.020211688999999998 -0.34522816 0.074151405 0.23485444 -0.2342289225 0.22606409500000002 0.29274289 -0.38119108999999995 0.09424167 -0.03485503115 -0.02091312 0.043384494999999995 -0.1036994075 0.317972025 -0.29178316000000004 0.22847255 0.11530047500000001 -0.31206478499999996 -0.23140343000000002 -0.1601288425 -0.14688431999999998 0.24890857149999998 -0.6908576200000001
RP11-169K16.9 -0.06432962 0.1189808 -0.3229465025 -0.28170677 0.11497965300000001 -0.023320305000000006 -0.3108054435 0.588684205 0.028960345000000012 0.3687838775 0.5355101600000001 0.125939725 0.252583775 -0.11556517499999999 -0.07655977 -0.029859830000000004 0.1727178765 0.25871320999999997 -0.38690394 0.490852275 0.12740584000000002 -0.255736093 0.51014666 -0.47042211 0.05040277499999998 -0.2820075955 0.079686305 -0.11650807000000002 -0.43305017999999995 0.6226111649999999 0.0938602795 0.083400006 -0.1486990547 -0.35764018 0.40377066500000003 0.07078527500000001 -0.19674150499999998 -0.10575693 0.015345708 0.35073882 -0.05256607999999999 -0.09220557499999998 -0.071077935 -0.6701212999999999 0.30984593 0.13967703065 -0.028344434999999994 0.24623498 0.10034264500000001 0.189410614 0.27697205575 -0.478195025 -0.138046122 0.465040055 0.20667705 0.28905947499999995 -0.1600666 -0.12281922499999999 0.18426446999999999 -0.07877492 0.291459235 0.2073062 -0.175183592 0.24061864500000002 0.447411915 -0.18796148000000001 -0.6977803 -0.04432162499999999 -0.018848299999999985 0.2238244 -0.161085575 0.062449097499999995 -0.134834665 -0.47620741 0.30557290000000004 0.162317345 -0.032803269999999995 0.25166294499999997 -0.31278967 -0.16408305 0.22268664999999999 -0.30081713 -0.257807315 0.723569095 -0.07726051 -0.38059294 -0.16376438999999998 -0.2113524675 0.29671674 -0.016125215 0.11684462600000001 -0.129077868 -0.16425368 0.16291068499999997 -0.153141327 0.029805752500000005 -0.18856511 0.022267010000000004 0.1337524 -0.261406175
RCC2 -0.22933362000000002 -0.190503735 -0.002517095999999998 0.06995932 0.07057799 0.2102537 0.734426485 -0.05293130500000001 -0.19528477 -0.04478983 0.12845941 0.250778685 0.23926331499999998 -0.09779692499999998 -0.1836339375 -0.23856857999999997 -0.034859517 0.164235037 -0.147806935 -0.06781716 0.14757882500000002 0.065433201 0.054793569999999986 0.326533915 -0.400205075 -0.242047865 -0.23025525 -0.022545965 -0.152413175 0.31114937 -0.22165754 0.303334995 -0.12726490000000001 0.28029666 0.08114565999999998 0.0057316771499999995 -0.28715919 0.300899655 -0.40576727 0.337497445 0.17838576 0.04895311499999999 -0.21865807000000004 -0.18064155499999998 0.25692461 -0.029183359500000002 0.105094635 0.441363155 0.163000795 0.6555301099999999 -0.22158418500000002 -0.13040970500000001 -0.38462393 0.27149630999999996 0.17833822 0.262289495 0.22553519 -0.190005123 0.27572233 -0.5639345 -0.051227533 0.12650467950000002 -0.16064424 -0.44410754 0.33177893999999997 0.35443302 -0.035883231 -0.09879789500000001 0.620731605 -0.182477395 0.12932361999999997 -0.007227575 0.190492904 -0.37301449500000006 0.19428226 0.1995431385 -0.50419347 0.16538154 -0.558799505 -0.1568749985 -0.12317136000000001 0.10402171500000001 -0.24354969999999998 -0.07570527499999999 0.064175585 0.153719155 -0.150824813 -0.250924125 -0.026083364999999997 -0.21304748 0.23955938499999999 -0.13454979849999998 -0.05355807999999998 0.41959852500000006 -0.18187943500000003 -0.33035944500000003 -0.06180762999999999 -0.40002294 0.21468584500000001 -0.34759496
TMCO4 0.21433168500000002 0.384359563 0.247695335 0.091780323 0.256958565 0.29364954499999996 0.039535585 0.43208386800000004 -0.18106082 0.036330185 0.237673745 0.20567414 0.22961871500000003 -0.169879365 0.1304060025 -0.026810370499999996 0.32939005499999996 0.07096488999999999 -0.24542672085 -0.031259138500000005 0.033612260500000005 -0.228454485 0.44701912 0.086700475 0.0005720534999999992 -0.004085585000000003 -0.208537252 -0.103261885 -0.14529950000000003 -0.050252437 -0.33705348 0.09806277999999999 0.0071878249000000005 -0.42206276 0.12129785499999998 0.360714845 -0.198213625 -0.4075746 0.04795369499999999 0.10787733299999999 0.3603318725 -0.07022326855000001 -0.1153526865 -0.25352869 0.375349162 0.39973128 -0.03178837500000001 0.280629865 -0.249502498 -0.14379431150000002 0.02869722000000001 -0.337214376 0.7066186050000001 0.111690643 0.0030106349999999837 0.0978959785 0.03540619500000001 -0.161948831 -0.053218625 -0.34142113 0.078588715 0.09634224050000001 -0.028974645000000007 -0.02005739999999999 0.1594496745 0.22521516 0.06142115 0.12077669199999999 0.14733807999999998 -0.09132487750000001 0.08212207499999999 -0.097974515 0.015302879999999998 -0.0077395745000000005 0.190168215 0.100912702 0.04045206499999998 -0.026718500000000006 0.021105135 0.19362274000000002 -0.26150302999999997 -0.050161845 0.33948042 0.398132935 0.10692184575000001 -0.23098651750000002 0.1071262465 -0.260281195 0.28274806 0.171628915 0.07049068 -0.162728776 0.095512285 -0.12311493500000001 -0.060137430000000006 -0.1288431675 -0.16226845 0.14830777 -0.0029852379999999994 -0.3231531725
PINK1 -0.10191840499999999 -0.168673735 -0.0811988995 0.27819555 0.08248457999999999 0.090411764 0.211481585 0.239871005 -0.21926160499999997 -0.07763284 -0.08759959999999999 -0.23928631 0.0011796949999999806 -0.26344493 0.1764664135 -0.3467357 0.028416455000000007 0.10322965525 -0.16300432 0.023494244999999997 0.20051629499999998 -0.008239424999999995 -0.004846519999999993 0.640255955 -0.011012777000000001 -0.169249577 -0.0033134499999999956 0.028021432 -0.42095204500000005 0.43313475 0.0606676685 0.19392283 -0.13691041 -0.383001235 -0.038635600000000006 -0.07461931999999999 -0.02721444 -0.149793225 -0.0052090750000000074 0.1138765155 -0.1864055 0.169746155 0.176748752 -0.21165188000000001 0.27622026 0.1414341 0.15252407499999998 0.309199355 -0.3218547575 0.022259059999999997 -0.14086653 -0.209809622 -0.011644034999999997 0.325695275 -0.301779378 0.25981228 0.17892933500000002 -0.19505355225 0.17207673 -0.25593874 -0.060351434999999995 0.193178585 -0.321997445 0.019415784999999998 0.25925412999999997 0.312538395 -0.294450125 0.064098292 -0.155906426 -0.27040336 -0.069798861 -0.141521813 -0.215979115 -0.68501875 0.03188432500000002 -0.0709018745 0.06320575 0.52488598 0.037191345 -0.059558784999999996 -0.086068368 0.09563419000000001 0.047457795 0.20787481 0.11718768000000002 0.35630171 0.24735986000000001 -0.016588382 0.017881326500000003 0.0006339600000000167 0.44791268500000003 0.40029294 -0.16406846 0.0823341725 -0.14569395 -0.060623303700000006 -0.138705435 -0.17368570500000002 -0.199342035 -0.07605797
C1QA 0.23638672335 -0.08361019000000003 0.123870195 -0.27260217 0.75584228 -0.13432240499999998 -0.107531426 0.619779025 0.31290307 -0.049990215000000005 0.3224383 0.095627605 -0.227950855 -0.19821711 -0.022925821149999998 -0.39533128 -0.537643615 0.3821152625 -0.32119432000000003 0.199337005 0.61370584 -0.10861341 0.03507568 -0.301402665 -0.33839552 -0.2059221 0.454981745 -0.1781336575 0.11561536999999998 0.165713597 0.368950755 0.050141870000000005 0.26840756 0.309681657 -0.08461032500000001 0.05508750499999998 -0.692323535 -0.42087979000000003 -0.12353887999999999 0.465141735 0.30198343 -0.167714657 -0.43701377350000004 -0.38975982 -0.07945235 0.60336572 0.1763767725 0.0759079415 0.60360564 0.252129495 0.47689963999999996 -0.43338378 0.92759785 0.62943255 -0.40753439 0.7011952539999999 -0.1228178485 -0.41718695000000006 0.883938235 -0.26937136 -0.085913405 0.085517635 -0.351217585 0.6038531 0.13984928 -0.23106704150000001 -0.08352787 0.7736111 -0.53651394 0.17603768999999997 0.07721465 -0.5445034835 0.07501618 -0.0178481375 0.464487955 -0.24947924999999999 0.11828021000000001 -0.043740395 0.232552945 0.054069702 -0.1549093325 -0.159507715 -0.19168205 0.3462257145 -0.385509655 0.320697495 -0.071116345 -0.029590015 -0.61831983 0.07625762750000001 0.164952242 0.5093180900000001 0.10139324499999999 0.1589430075 0.28855486 -0.02656751000000001 0.498445765 0.1379461655 0.10802075 -0.340214668
C1QC 0.3852341895 0.19799464149999998 -0.1946025965 -0.087399555 0.59904749 0.05520483500000001 0.03395221 0.595304712 -0.0813360825 -0.18942192 0.27622665999999996 0.43896541 -0.16052937 -0.38926256 5.9012499999996915e-05 -0.2261522935 -0.329675795 0.077259805 -0.158749505 0.0030901600000000085 0.621895665 -0.1712505675 0.22380250499999998 -0.354355695 -0.377335175 -0.157975945 0.05425845 -0.48982952 0.34338671 0.149307884 0.008826590000000002 0.059531387 -0.314912825 -0.29429916 0.19403452000000002 0.14003589000000002 -0.60298314 -0.35331518500000003 -0.470208375 0.83525627 0.18312589999999998 -0.05655507 -0.33443602 -0.247660615 -0.14268594 0.32286005 -0.259662662 -0.02746357000000002 0.034032517 0.06143125199999999 0.3512777 -0.16158012500000002 0.7338073300000001 0.280475735 -0.263771755 0.14707346500000001 -0.07757334499999999 -0.699768455 0.327842965 -0.70285064 0.057092359999999995 0.160420965 -0.05531848 0.357504453 0.39212899 -0.034152616999999996 0.252462195 0.38080748000000003 0.045456830000000004 0.05274069000000001 0.010103345 0.3652396 0.135807385 -0.04417423499999998 0.296563935 -0.102944591 0.012868859999999996 0.14040495349999998 -0.190422035 0.042392365 -0.070431478 -0.09326087250000001 0.017848099999999978 0.24317159 -0.05198172499999999 0.06721549000000002 -0.25134635 0.074061147 -0.36079104500000003 0.415565775 0.09847220000000001 0.7295359349999999 0.24148553250000002 0.28527726 0.324095405 0.1261827125 0.21725535499999998 0.412315505 0.016745835000000042 -0.331769645
C1QB 0.39067273 -0.09592550999999996 0.16838765 -0.165049985 0.4568901 -0.0637274355 -0.04865354 0.547770365 0.268923865 -0.16395192865 0.424897805 0.051854703499999995 0.061178085 -0.2200623445 -0.009889689999999993 -0.22205612999999996 -0.09512656999999998 0.219447158 -0.6101588600000001 -0.18958608999999998 0.829956375 0.159236487 0.28655918999999996 -0.14567808 -0.6227176000000001 -0.273843695 0.46169098 -0.60243965 0.9177836500000001 0.31546338 -0.148583815 -0.034015251999999996 0.37763309500000003 0.083978635 0.25220954 0.36114173 -0.74351685 -0.280641925 -0.44545792500000003 0.44678050999999996 0.569856285 -0.2520011 -0.689700995 -0.364498368 -0.034490035 0.43508806 0.144435395 -0.056672555 0.17645185 0.198109435 0.072664723 -0.67793596 0.95263655 0.9511683000000001 -0.40508217 0.39033372835 -0.016119013 -0.5504450078500001 0.906482875 -0.71186678 0.214636106 0.110636755 -0.30507549 0.306432755 0.529856885 -0.05836587 0.22127752 0.62112011 -0.32461414 0.46848007500000005 -0.19876165500000004 -0.1618461225 0.07355876500000003 -0.30596292 0.160061781 -0.617783275 0.19059293 0.16029169100000001 0.09175603 0.018475485 -0.22515835750000002 -0.47238531500000003 -0.41317915 0.478003585 -0.332127785 0.5543351 0.09005539999999998 -0.433652065 -0.6344460000000001 0.396306895 0.2176255465 0.329863475 -0.163590844 0.07294989999999998 0.3091608275 -0.05489118500000001 0.701856275 0.370877835 -0.043548285 -0.5638444300000001
TCEA3 0.071532285 0.12454373199999999 0.08843909500000001 -0.07612643699999999 -0.1624636285 0.056036555000000016 0.0004996800000000023 0.33107542 -0.08843034000000001 0.0647920465 -0.1351282855 -0.004999219999999999 -0.1821124305 -0.041995802 -0.07504232 -0.22003537199999998 -0.132616265 0.208764425 -0.16527953450000002 0.1870079705 -0.09345743000000001 -0.131052092 -0.05906299849999999 -0.13277634 0.007739587000000006 0.10365835649999999 -0.08554726600000001 -0.218428075 -0.10976356500000001 -0.1976533235 -0.12185796 0.0723457925 -0.22522609500000002 -0.11358925 0.013878487000000002 0.0160566 -0.111954215 -0.3116566825 -0.2134359375 0.06872033250000001 0.03704826 0.11812529685 0.094177865 -0.07500582 0.20977156 -0.219045025 -0.024409824999999996 0.064302081 -0.06956377999999999 0.011558262500000001 0.035569964999999995 -0.268105395 -0.198947875 0.071216792 -0.0223921875 -0.0980298575 0.10832423499999999 0.168826135 -9.296000000000304e-05 -0.21797803999999998 0.10480689699999998 0.0053407250000000045 -0.075433465 0.15129335700000002 -0.0005048250000000004 0.13390332 0.098895524 0.06851922199999999 -0.044847418 -0.269336475 0.0326399375 -0.06429368399999999 -0.03371583 -0.39105155 0.13723673 0.0813814 0.174705028 0.125533595 0.054088617500000005 -0.23174240499999998 -0.018830990000000006 0.23488366500000002 0.1361501725 0.150840565 -0.190182715 -0.18345188499999998 0.254090335 0.087126322 -0.09158508 0.2243965825 -0.031178356 -0.05388119499999999 -0.1142493995 0.05087733999999999 0.023979359999999998 0.07623677150000001 0.11890034499999999 0.04234086499999999 0.185158655 -0.1622721175
ID3 0.6258812250000001 -0.579200065 -0.43825569 -0.080173512 0.15090093394999998 -0.43893135 -0.25383309 -0.0507250805 0.28645247 0.83366518 1.13652858 -0.629797715 0.202402254 -0.366112159 0.18701447499999999 -0.5471665099999999 -0.185862285 -0.35163189499999997 0.03865183500000001 0.49963943 0.8261395 -0.077525575 0.161585415 0.6272792 0.214702005 -0.33704674 -0.10009209999999999 0.330940425 -0.11237804700000001 -0.016363834999999993 -0.771374725 0.18043051999999998 0.8416706650000001 0.06938014499999999 0.4217678 -0.05744317499999999 -1.1006868 -0.496056775 -0.688920985 -0.102797075 -0.390610175 0.023903770000000005 -0.73643205 -0.14562165000000002 0.30494367 -0.378150835 0.351079344 0.236410018 0.124104645 0.061054095 0.19028886 -0.44737345500000003 -0.394180763 -0.228633478 0.12250892 -0.07291401 -1.38723655 -0.1367810125 -0.04497846 -0.8950654849999999 -0.04926749999999999 1.2637386 -0.977751775 -0.10668370199999999 -0.09460455899999999 0.049874845 0.454827255 0.22799586 -0.026661664999999973 0.44342458500000004 0.022414290000000003 0.14762938099999998 0.634991615 0.253226345 -0.1604922363 -0.9309312200000001 -0.12399874100000001 -0.22901439999999998 -0.303761005 0.43502444 0.0479155815 0.15949827 0.04733210749999999 0.089932765 -0.400815395 0.678229355 1.3003957499999999 0.228203665 -0.31597412999999996 -0.256494525 -0.337116485 -0.065193475 0.388276265 0.04015250000000001 -0.47399735 0.37290372800000005 -1.0781311 0.30387884 0.744323475 0.40105164
FUCA1 0.2258116 -0.288396745 -0.422346085 0.207623625 0.29036257 0.585936025 0.0104328215 0.8090380500000001 0.22176087499999997 0.20070762949999998 0.81772155 -0.23743961000000002 0.05303413 0.21219558 -0.06521686500000001 -0.5531731400000001 0.277925705 -0.2243483535 -0.046200174999999996 0.3137575025 0.28050060499999996 -0.6629046249999999 -0.6385620350000001 0.2676231555 0.544158205 -0.73364065 0.0634852625 -0.351287554 0.2328955 0.233754135 -0.94561392 -0.32809108 0.38086635 0.54010794 0.60363585 -0.541927425 -0.8449902 -0.6298436000000001 -0.05632036 0.383988155 0.44483175500000005 0.091356908 -0.05533434999999999 -0.487269525 0.10032933 0.086641535 0.176135315 0.5257921154999999 -0.24105117499999998 -0.0298876908 0.28425623 -0.42079769 -0.080241247 0.02458705500000001 -0.552902785 -0.08632933000000001 -0.47538135 -0.1176098825 0.476535305 -0.5296838 0.056503584999999995 -0.066633782 -0.24520237225000002 0.46583925000000004 0.65694767 0.208340585 -0.30432842 0.11361346300000001 -0.540112645 -0.09944286000000002 0.46170612 0.14358092 0.203984 0.001990080000000005 0.1014190715 -0.645728925 -0.512272635 -0.152512035 0.32956665 0.501464335 -0.007414234999999991 -0.3344576015 -0.28329551799999997 0.6042827 -0.26767757000000003 0.60144419 0.66213395 0.65318908 -0.35061158000000003 -0.337660465 -0.50235501 0.15124993 -0.053690390000000005 -0.16588996299999997 -0.529523255 -0.5095199499999999 -0.615065155 -0.08957237500000001 0.18335854999999998 -0.132085747
STMN1 0.36849588 -0.29995914149999997 -0.5627688799999999 -0.50693561 0.27194324750000004 -0.157778329 0.104429615 -0.30109452000000003 0.09943046 0.65958784 0.3260686 -0.47310149999999995 0.016020249999999986 -0.514193625 0.38498396830000003 -0.087919686 -0.4613622815 0.40856738000000004 0.013867974499999998 0.0708970225 -0.25136592999999996 -0.10654620999999997 0.71004903 -0.37989048000000003 -0.464442385 -0.59996925 0.352103365 0.08987917499999998 -0.41078778000000005 0.017136328 -0.452977855 0.57920763 0.7225935649999999 0.3308528775 0.623404635 -0.099341555 0.35381869299999996 -0.26352514 -0.08105790500000001 0.43086595 -0.028907165000000012 -0.181956194 -0.018321075 -0.0020930850000000015 0.6528273250000001 -0.02395886 0.01774152000000001 0.136987795 0.0807400125 0.1063990995 0.36434561499999996 -0.805568165 -0.31065706 -0.031074405000000027 -0.17155989 0.044982965000000014 -0.12831447 -0.16771604 -0.07473617999999999 0.04894960000000001 -0.487328815 0.37474525000000003 -0.9675659999999999 0.62810407 -0.03135678 -0.32865812 -0.6755869999999999 0.572355525 0.5443472300000001 -0.758683445 -0.58988456 0.080947145 0.48521753999999995 -0.41327097999999995 0.38686761999999997 -0.377053515 -0.21435243000000004 -0.08487736 -0.11355333549999999 0.43970546 0.09543497000000001 -0.4612961925 -0.0003615049999999842 -0.179913125 -0.25411112999999996 0.167712975 0.8401470849999999 0.058168022 -0.16858343 -0.2555402905 -0.24560470499999998 -0.040757109999999985 0.3280461145 -0.432268251 -0.18432190999999998 -0.061058299999999996 -0.64781595 -0.23275517999999998 0.476275965 0.15155531049999998
SNHG12 0.2592651855 -0.296836692 -0.24995081249999998 -0.67657702 0.1047824485 0.026760115 0.277700835 -0.0077461024999999975 -0.449605955 0.293235249 0.313878985 0.328027265 0.09106094399999999 0.05193971 -0.075391612 0.29193126 -0.586439265 0.435538855 0.275886865 0.00854079499999999 0.224966925 0.08558464000000002 -0.03741145 -0.148396095 -0.285794385 -0.5118274 -0.19386971 0.0019933905 -0.287298595 -0.273931395 0.05099065999999999 0.42477951999999997 0.255538475 0.20662571300000002 0.327061615 -0.20995836499999998 -0.16241324299999998 -0.17986298850000002 -0.019176025000000003 0.07637544499999999 -0.233709465 0.381901175 -0.15718736500000002 0.041811570000000006 0.42538047 0.0019013155000000004 -0.08236439499999999 0.267184472 -0.290153615 -0.307010695 0.381517043 -0.047057235 -0.25090529250000004 -0.60776175 -0.052342868 -0.201400445 0.052467120000000006 0.1278555585 0.10309186399999999 0.28263101 0.085732167 0.7268559800000001 -0.036012553 -0.021089230000000014 0.298321107 -0.048312709999999995 -0.090609665 -0.15449502099999998 0.14298641299999998 0.040724360000000015 0.204768725 -0.27886664499999997 0.062750398 -0.3022719285 0.406251615 -0.35906561000000004 -0.03616293500000001 -0.04686723500000001 -0.5565260000000001 -0.09747608 0.2991821505 -0.126326985 -0.24927622800000002 0.23961506500000002 -0.09520503 0.193370355 -0.0289374275 -0.41106566 0.20666917 0.08719987 0.04505653500000001 -0.280989086 0.1881864 -0.0022657499999999553 0.17416843000000004 0.35407617 -0.46077626499999996 0.57399555 0.8062733799999999 0.04644815000000002
MARCKSL1 0.9363022999999999 -0.82514857 -0.40616825 -0.4986361 -0.12225295 0.03757878499999999 -0.08378167 0.8563078049999999 0.288142145 0.647818385 0.69832285 0.12150915000000001 -0.34891394499999995 -0.5897943 -0.661716325 -0.803908985 -0.12090632000000001 0.9795209 0.063870275 0.452845775 0.092670115 -0.09238422500000001 0.39527268 0.3246659885 -0.5731725 -0.79976771 -0.24874983499999997 -0.20372522 -0.9736594700000001 0.632050925 -0.66906974 0.7084546899999999 0.309486185 0.509246805 0.5941592 -0.0969179 -0.74948427 -0.0331863 -0.6002710149999999 0.65529086 -0.19274710150000002 0.019150075000000016 -1.051590225 -0.28377268 0.27870565 0.75761282 -0.006522964999999992 0.7068824600000001 -0.84702765 0.7053803799999999 0.50529465 -0.68718627 0.28829787 -0.26465471 -0.49984811 -0.164041335 -0.27714075 -0.7642777000000001 1.0518723300000001 -0.829121 -0.312939685 0.338435685 -0.7967644700000001 -0.47393352499999997 0.867358865 0.63838622 -0.438970505 -0.13076898 -0.06997124249999999 0.69335417 0.309771 -0.53877297 0.83649375 -0.013810797500000003 0.3923759 -0.544713615 -0.12634647499999999 -0.17339899999999997 -0.75790588 -0.071288855 0.10943774999999997 -0.029583274999999992 -0.3573354235 0.9610299200000001 -0.55245459 0.63430029 1.0258696 0.531920175 -0.37742119199999996 -0.70045775 -0.0741535175 -1.5043959 0.11382459 -0.017493380000000003 -0.4277898 -0.57170449 -0.35383881500000003 -0.562782825 0.782247155 -0.56350115
S100PBP 0.0358783705 -0.367342187 -0.07307886 -0.254093715 0.007228004999999996 -0.07737812999999999 0.63335161 -0.18052401 0.26351813 0.2428684725 0.555722665 0.205499195 -0.44906027 -0.14088223 -0.375034065 -0.07056046275 -0.257964095 0.5877051600000001 -0.039977895 -0.186733325 0.10927412 -0.408692635 0.37473361 -0.063304815 0.1113589924 -0.50141557 -0.26023385 -0.08335036 0.266926455 -0.3622956675 -0.15539856 0.56924444 0.322886319 -0.08636118500000001 0.132980072 -0.0020318000000000003 0.205872865 -0.136249855 -0.24524390299999999 0.265397635 -0.09238405499999999 -0.030688005000000018 -0.11570517000000001 0.306809975 0.09423480499999999 0.6066547250000001 0.43300259500000005 0.31417006000000003 -0.0058030358 0.35686295 0.180061 -0.323788863 -0.395970555 -0.363960135 0.29504171500000004 -0.34151617999999995 0.20614383000000003 0.1491927385 0.0836057357 0.167483365 -0.036138989999999996 -0.104216785 -0.222164675 0.08296239500000002 -0.081292147 0.32398949499999996 -0.10803963999999999 -0.562889575 -0.271611 -0.0619648835 -0.04452159500000001 0.11267156499999999 0.08667652499999998 -0.26663447500000004 -0.030774595000000016 0.14346471500000002 0.341188975 0.13417736500000002 -0.13906522999999998 -0.27529779 0.2204039625 -0.013442040000000016 -0.01762337 -0.130409355 -0.228045975 -0.212155935 0.255096665 0.07317369500000001 -0.150993641 0.268119583 0.84445477 0.191771165 0.27257902999999994 0.15157627399999998 -0.12957729999999998 -0.012536147899999999 0.07338064949999999 -0.08455895000000001 -0.011763727500000001 -0.2170042085
TRIM62 0.014287375000000019 -0.12894056 -0.08900166500000001 0.2533395169 -0.017458934999999995 0.21101469 0.0007789485000000013 0.14223554 -0.054331528 0.0662230325 -0.10861216500000001 -0.179884825 -0.092941092 -0.0479737075 0.15770339 -0.349938565 -0.14335763 0.044376050000000014 -0.21916659 0.02330409 0.014500765000000013 0.04541434700000001 -0.011881696999999997 -0.022391892499999996 0.10483264 -0.10084406100000001 -0.14145599 0.02804726 -0.200020215 -0.1784707465 -0.2193968 0.034288525000000014 -0.2356314749 0.030951240000000005 0.32812315999999997 0.285497522 -0.048903955 -0.281594915 0.1190930285 -0.262120215 -0.13205302075 0.17187931499999998 -0.164871044 -0.13114515999999998 0.194027483 0.226497335 0.056481895000000004 0.18084656999999998 -0.25662039000000003 0.023436976499999998 -0.13217267500000002 -0.270458474 0.39506495 0.1128445475 0.22402567 0.10482773699999999 0.12219882499999998 -0.33990036 0.184550045 -0.112673255 -0.14367010000000002 0.164127945 -0.10813305000000001 0.03548370000000001 0.17494385 0.1998639995 -0.40902043 0.17408089999999998 0.13495029050000001 0.053637385 -0.042753929 -0.00011393499999999557 -0.2942734375 -0.354673817 0.139772255 -0.03813872249999999 0.037777409999999984 0.106802383 0.066106135 0.008149870000000004 0.042463365 0.14608136 0.23522024 0.18061226 0.15092339999999999 0.1079234325 0.076937205 -0.214498625 -0.155147385 0.40965801999999996 0.280064075 0.007989125 0.11205873999999999 0.215572575 -0.25867203 -0.165179117 -0.29145699 0.210825983 -0.147110592 -0.17541779999999998
ZMYM1 0.252267355 -0.0943137835 -0.1234869625 0.13261033500000002 -0.03875788999999999 0.182955645 0.33387352000000003 0.410552235 0.047313546000000005 0.0948183235 -0.04468413 0.36382072499999996 0.27473550999999996 -0.372008785 -0.11740358000000001 -0.35651659999999996 -0.162080695 0.10073086179999999 -0.31381344 -0.119275325 -0.29228121 -0.28571243 -0.06116656999999999 0.058106386499999996 -0.005444035 0.13265684265 0.133977795 0.138377585 0.012537270000000003 0.20704622500000003 -0.07788256499999999 0.129283485 -0.0441397185 -0.16338239249999997 0.279910795 0.20615809499999999 -0.27946322 -0.24969307 -0.12481182 -0.02070657999999999 0.102604165 0.066640159 -0.251609745 -0.37680106 0.48391738500000003 0.0032760499999999956 0.39006772500000003 -0.09503375 0.09974305000000001 0.02674273 -0.150376089 -0.420155775 -0.04226796499999999 -0.14801983500000002 0.20083284 0.060604795 -0.049589296500000005 -0.6861996 0.137461225 -0.14493558 0.433178863 0.3897187 0.1141962685 0.240580545 0.18382658 0.09181375499999998 -0.029738110000000012 0.20920505499999997 0.3863896 -0.04856114 0.252067305 0.043267778 -0.3019841505 -0.24515209 0.1128210375 -0.057853415000000005 -0.065608975 0.010592870000000004 0.1015040525 0.19700792999999997 -0.238213805 0.084763755 0.23487345 0.010115715000000011 0.11750518500000001 -0.051721196500000004 -0.18089867499999998 0.02955576 0.08312620285000001 0.10182324050000001 0.219600215 0.209125206 0.227019255 0.223422925 -0.03943203000000001 0.026776659999999994 0.148449325 0.07715069199999999 -0.12146707150000001 -0.28511577
ZMYM4 0.11426190950000001 0.330185345 -0.29820484 -0.047031445000000005 0.045692764149999995 0.2278672315 0.3673487 0.1155518025 0.689686 0.03483657500000001 0.073292066 0.47968335500000003 0.22416893799999998 -0.2841628945 -0.04317934000000001 -0.6688080000000001 0.29248360500000004 0.6157851649999999 0.05504025499999998 -0.16074001499999999 -0.10773384999999996 -0.028298419999999998 -0.07848487500000001 0.44688926500000004 -0.163722085 -0.05990089500000001 -0.335253635 -0.2957435535 -0.326682065 0.24577218 -0.3048120185 0.008828510000000005 -0.180408546 0.23524227199999997 0.14076549 -0.132602415 -0.37823985000000004 -0.4048066015 0.18570253 0.0887432675 -0.16684494 0.146960115 -0.47474866499999996 -0.13652671 -0.08986567499999998 -0.07058572 0.21774249499999998 0.33626393499999996 -0.22273661 0.126287215 -0.124823641 0.04493745 0.264421589 -0.12215766499999998 -0.25901991999999996 0.22504978 0.043084185 -0.34104188 -0.014959884999999992 -0.2921042185 -0.19308509499999998 0.3735694 0.028325729999999993 0.12173628 0.314648865 0.2266724744 -0.3452916575 -0.115785935 -0.09902776999999999 0.17373626885000001 0.37785662 -0.1958411 0.07198307 -0.16153044 -0.1358282825 0.1242549925 -0.32706688500000003 0.220182022 -0.149190695 0.10769802999999999 0.2897702675 0.05624248999999999 0.070575345 0.219561302 0.0450998465 0.252492065 0.251778595 -0.10533029999999999 -0.12125913999999999 -0.16130352 0.016072955 -0.11333247199999999 0.22520572649999998 0.209381435 -0.27568690500000004 -0.475665625 -0.44629457 0.006855699999999992 0.19136353 -0.09318832
CCDC30 -0.129958832 0.128698342 0.059030965000000005 0.067490824 -0.27420643 -0.060284988000000005 0.211072075 0.26924829 0.10741918 -0.04076815 0.18549828000000002 0.229054335 -0.106767431 0.07604783749999999 -0.27764742 -0.1622968325 -0.0501758525 -0.1265847755 -0.071900202 -0.29244015084999997 0.284923255 -0.014596452499999996 0.1886359675 0.0038737059999999976 -0.146317697 -0.29593859 -0.039677245 -0.214057475 0.10887166 -0.165013745 -0.086495 0.346199975 -0.194608805 -0.091858689 0.18238251500000002 -0.137475415 0.062652736 -0.109785645 -0.18339434999999998 -0.009452849999999999 -0.14108646025 0.11305667500000001 0.232557105 0.152047585 -0.06803458000000001 -0.21369181 0.14709378 0.10303034 0.18045917 0.24274000499999998 -0.011675195 -0.08170446499999999 -0.22016952 -0.12893875 0.006704444 0.21580036200000002 0.170267205 0.210194895 0.03767411000000001 -0.088831853 0.08894481750000001 -0.083214108 0.156394705 -0.117758715 -0.09678852 0.23323880000000002 0.018325134999999992 0.1004585378 -0.142816781 -0.109902568 -0.095238485 -0.110579135 0.18623526699999998 -0.377451895 -0.10813576250000001 -0.0822708 -0.18143746 0.0772822588 -0.2564467 -0.062428291000000004 0.138053033 0.18436546 -0.015325287 0.266080167 -0.192062395 -0.24957719500000003 0.164812293 -0.102588375 0.048478240000000006 0.24228394200000003 -0.04425762500000001 0.148028125 -0.093893945 0.0862308325 0.010630516 0.0366260435 0.0485657735 -0.06606838300000001 0.078535033 -0.071940105
ERMAP 0.2152881985 0.214652175 0.115578918 -0.003186049999999996 0.267252565 0.21433119 0.323923435 0.412704555 -0.18988096399999999 0.21160471600000003 -0.173685245 0.17444333 0.129998855 -0.24131409999999998 -0.047215074999999995 -0.2001284955 0.1339995525 0.34674106000000005 -0.10915457500000002 -0.25786037 0.17554904000000002 -0.29375142 0.0328197107 0.10146716 0.35572242 -0.2047902805 -0.16530312500000002 -0.028931816000000003 -0.308985385 0.18825689 0.08910041 0.04769387 -0.11906604700000001 -0.026593014999999998 0.16851246 -0.009879330000000006 -0.174347175 -0.290228305 -0.0627446325 -0.024246047000000003 0.029092930000000003 0.124324503 -0.163834328 0.0223693515 0.200428225 -0.0443510835 -0.011232178499999999 0.08901251 -0.10762811 0.1964901135 -0.23527676200000003 -0.39921976 -0.060324180500000005 0.19132636649999998 0.085424697 0.086174258 0.15987352000000002 0.09625462499999998 -0.17317414 -0.211438327 0.119566645 0.063732802 0.16758309999999998 0.20304203499999998 -0.134536835 0.17293018799999998 -0.12255275399999999 0.216117315 0.20352446000000002 -0.023302653 0.211088195 -0.23874997999999997 -0.0931327 -0.28273661 0.038139695 0.1675184 -0.06223094000000001 0.2496699 0.12433932 0.155122391 -0.13780333000000003 0.06349783 0.029416120000000018 0.003060460000000001 -0.105847742 -0.367262435 0.25821190000000005 -0.017654215 0.28103322 0.162400812 0.35156766 -0.31773109 0.09913927 0.024411595000000008 0.042697832 -0.289675785 -0.027361485999999997 -0.03094237999999999 0.013343361000000001 -0.23860660499999997
CDC20 -0.119204746 -0.141178571 -0.161968815 -0.3393311395 -0.04438006 -0.003652744999999999 0.044739814749999995 0.06977944 -0.12522974 0.292799525 0.36558756000000003 -0.113278314 -0.0700466855 0.45031120999999996 0.14268418 -0.07532597 -0.41599743 -0.03638196000000002 -0.136511111 -0.356512445 0.228948375 -0.3072741825 0.004791784 -0.24841291999999998 0.09390787349999999 0.020439230000000003 -0.07904497499999999 -0.0710992815 -0.193466382 -0.18852327 -0.09833046275 0.2267216575 -0.330871955 0.014811822000000002 -0.07854175899999999 0.09277498749999999 0.38541563 0.15171231000000002 -0.43348378 0.133031367 -0.138315365 0.254461565 -0.0772473013 0.13782861700000001 0.07130872999999999 0.3604152 0.146422905 0.06767477 0.043924004999999995 -0.0008151950000000047 -0.23983818 -0.32254148 -0.2538294 0.15176412 -0.268071805 0.057140815 0.19054358999999998 -0.159776977 0.058761545 -0.28174749 0.005488580000000007 -0.127141115 -0.32132322 0.31481611 -0.186730595385 -0.0035543650000000038 0.179450167 0.15241693750000002 -0.10439623165 -0.18493736000000002 0.009512515 0.285797285 0.030711575000000005 -0.31132328499999995 0.1002369 -0.328079725 0.22143202999999997 0.15006140499999998 -0.2810493015 0.012340274999999998 -0.118884515 0.16106543 0.17231587 -0.1620717555 -0.49734069 0.2093585525 0.029594637499999993 0.016504124999999994 0.04732634000000002 0.39103814000000003 0.0970608625 0.10243840650000001 0.20723341499999998 -0.2455261385 -0.15889308 -0.260184818 0.19265521000000002 -0.09833410500000002 0.21524775 -0.261794875
TMEM53 -0.26062977 -0.07693394999999999 0.34478707999999997 0.397264735 -0.05468014 0.20808904500000003 0.2652464 -0.002644430000000003 -0.3842961 0.467648775 0.13694287500000002 -0.03220758 0.10261409 0.33226606000000003 -0.362974185 -0.264866335 -0.230053628 0.07685376 0.119591965 -0.15043539500000003 0.11936801650000001 0.15699329499999998 -0.204664455 -0.06745602435 -0.17450856 0.136055007 0.106102465 0.19643046 0.033906115 0.007122524999999998 -0.129919302 0.211858795 -0.063436695 -0.182772545 -0.0228707925 0.013737214999999997 -0.12121457499999999 -0.21688575999999998 -0.19339758499999998 0.04139814 -0.335754575 0.020759514999999992 -0.022554204999999994 -0.10148456650000001 0.28291009699999997 0.10835200999999997 0.334696655 0.30639084 0.116013859 0.04035675 -0.07247595499999998 -0.1914789275 -0.205050455 -0.1549612075 -0.10038841999999999 -0.08195596 0.37156652 0.0497385415 0.281301125 -0.07947743500000004 0.19306614 0.152181137 0.24187474 0.1327122335 -0.13057672250000002 0.015184729999999994 0.1732362215 0.14069620500000002 -0.148302645 -0.165833065 0.1121642615 -0.035026655000000004 -0.045111974999999985 -0.408553685 -0.15853473499999998 0.002989729999999996 0.12006361799999998 -0.005754845000000008 -0.022451580000000006 -0.10107126 0.142455835 0.20546996 0.195114305 0.17729783 -0.26075613000000003 -0.0327700965 -0.023364985500000005 -0.24722457 0.275275045 0.11575866000000001 0.08179776 0.212108 -0.060205689 -0.07746488500000001 -0.177776167 0.06543015 -0.097749022 -0.490317915 0.185060015 0.188207142
PDZK1IP1 -0.0756180325 -0.235377429 0.10674395999999998 0.166397215 0.021447095 0.133394243 0.3144283 0.179055193 -0.26360848 0.103077416 0.13748895 0.045855514 -0.14545237500000002 -0.02598507 -0.19434265 -0.226734457 0.009115190000000002 -0.15794735499999998 -0.021259432499999995 0.052592169999999994 0.027227164000000005 0.16754386999999998 -0.022038729999999992 0.0078014595 -0.10533778075 -0.054805073499999996 -0.232576215 0.06863865 0.06968596499999999 -0.0984331 0.17385413 0.19618260999999998 0.094583075 -0.102878345 -0.077946825 0.073534565 0.026357209 -0.1084438144 -0.266795795 0.10830744499999999 -0.41656475 0.28603323 0.0180012295 -0.15503731999999998 0.127453018 0.138070405 0.31691319799999995 0.144818435 -0.040709889 -0.06328641 0.1134570815 -0.13980424 -0.12117840499999999 0.0343711656 -0.040847575 -0.192585165 0.28135969 0.11657144500000001 -0.0024916000000000105 -0.20699382 0.0764159925 0.0358828885 0.22888315 0.10146470199999999 -0.11232655999999999 0.0016335110000000007 0.226598415 0.158550076 0.224476765 -0.0350844975 0.017452545000000003 0.1967699 -0.2329387605 -0.477579085 -0.052905635 -0.0178685325 0.046581294999999995 0.143288985 0.119485187 0.1752859 -0.08730094 0.186862845 -0.0737031045 -0.103459737 0.0392433185 -0.23437656499999998 0.196192116 -0.09257556 0.039973775 -0.125519205 0.04572491285 0.238585181 -0.11772307799999998 0.18558830499999998 0.060546180000000005 0.06773345 0.08218063 -0.13318464000000002 0.17164169499999998 -0.15696802999999998
KTI12 0.082001273 0.20117561 -0.186465375 -0.17449787500000002 0.107142307 -0.026277439999999985 -0.314547165 0.061741540000000004 0.27710233 -0.1425852015 0.462262775 -0.15565834499999998 -0.273517338 -0.003628157 0.095563306 -0.45526901 -0.2000661078 0.12479917000000001 -0.216117735 0.09785119 0.005916864999999993 -0.19902351000000001 0.16624933749999998 0.28724315 0.35104959 -0.11860804000000001 0.20506326 0.35951272700000003 -0.2643584 0.324537125 -0.39954539 -0.0004635649999999991 -0.387703165 -0.182594875 0.40602153249999995 0.5286787 -0.5917792749999999 -0.1912949775 -0.19233585000000003 0.270312141 -0.1323037 -0.159221685 -0.45175135 -0.41789079 0.207479668 -0.0959417175 0.359853155 -0.06038968 -0.08606656500000001 0.30129573 0.41572136000000004 -0.642143535 0.062241185000000004 0.04400467000000001 0.42865433500000005 0.26760002250000003 -0.5890596385 -0.38756414499999997 0.25261846 -0.08157486 0.260178715 0.52341623 0.073675135 -0.11786872 0.04826791465 0.011159390000000005 -0.367258329 -0.14895661999999998 0.203678625 -0.21114748700000002 0.079637293 -0.044373869999999996 0.02001573000000001 -0.6863785849999999 -0.08009058499999999 -0.126787935 -0.23617653349999998 0.1856744715 0.032016859999999994 0.148731 0.2315182225 -0.0287897 -0.18520898000000002 0.2066604575 0.209114978 0.1410593175 0.49667946500000004 -0.178708737 0.022517747350000002 -0.221852738 -0.050478663 -0.08012071999999998 -0.21669608 0.12989913 -0.026119485 0.26245514999999997 -0.0014977750000000067 -0.13250538 0.22290929999999998 -0.42041434499999997
ZFYVE9 -0.21758334499999998 0.10661495500000001 0.0922266085 0.27063830499999997 0.24383438000000002 -0.210787375 0.070684095 -0.049008435 -0.4366078 -0.060753065 0.26163747000000004 0.25266573 -0.324372815 0.023754945 -0.080936726 -0.024098220000000004 -0.23186774500000001 -0.26798874 -0.01809677500000001 -0.14778012000000001 0.148954 0.28949362 0.08978819499999999 -0.07488816200000001 0.160488464 -0.065628093 -0.1114050915 0.019637445000000003 -0.08207472 -0.297958005 -0.0024745850000000014 0.15151026 -0.137441985 0.29410671 -0.12287724 0.09058835300000001 -0.033815735 -0.15126793314999998 -0.135009608 -0.03519158 -0.10668266999999998 0.27214225999999997 0.027806065000000005 0.138071605 0.09502645000000001 -0.16458205 -0.10036258999999997 0.107981307 0.10511245 0.045946417 0.1740474275 -0.21201911 0.0436460525 -0.13211161500000002 -0.28967342 0.017349434999999996 0.27040621 0.002595252499999999 -0.06813737 -0.033409999999999995 0.13215396435 0.133174975 0.185784658 -0.080961905 0.14415768499999998 0.244540525 0.20812661999999998 0.07012212500000001 -0.030497043 -0.095561695 -0.06548437000000001 0.040643929999999995 -0.15566472650000002 -0.2492638665 -0.25870477999999997 0.191632537 0.0951474244 -0.190514868 -0.011993834999999994 0.21304067999999998 0.065334621 0.11383828300000001 -0.13778302 -0.083872365 0.009729059999999998 0.045531002 0.1171632065 0.14076164 -0.086240948 0.13598538999999998 -0.27774811 0.33111179 0.234441665 0.10714304999999999 -0.019760605 0.013015227170000001 0.329707615 -0.26853501 0.087175845 -0.15868004
RP11-117D22.2 -0.020096194999999997 0.0469888075 0.168708305 0.055508525 -0.13835015 0.1624198375 -0.032100605000000004 -0.19517692 -0.24249629 0.074877145 0.10795980349999999 0.17950483 -0.255902315 -0.11316361000000001 -0.24205428499999998 0.06589344995 -0.13073459799999998 0.07423001 -0.10507935 -0.06488628299999999 -0.18118666 -0.11470583300000001 0.35465480499999996 -0.067724357 0.0835519175 -0.18753122093000002 0.07616191499999998 -0.118507025 0.23772571750000002 0.09637000500000001 -0.214324945 0.075091205 -0.15720607 -0.047465254000000005 0.09833614999999998 0.06397818250000001 0.19115775499999998 -0.50119529 -0.37742211 -0.06431062000000001 -0.10574221500000001 0.0073259900000000044 -0.32246185 -0.020493444 0.051304112799999996 -0.0089733175 0.28105203 -0.166257827 -0.088263698 -0.31552250000000004 0.076879303 -0.19114641 -0.12390708949999998 0.0446625975 0.094289735 0.11490939 0.40906315000000004 -0.31669429 0.040360599999999996 -0.1120442335 0.166218497 0.13540899 0.1043833575 -0.029008595000000012 0.24041266 -0.099711027 -0.1884732615 0.0608460715 -0.019662829 0.085043578 -0.08216153 -0.03115140999999999 0.1091408 -0.100820613 -0.184716175 0.11137268 -0.463290925 -0.19296822 -0.294129985 -0.124818745 0.2116444465 0.05680325500000001 0.227304675 0.1542171535 -0.2532926 -0.058710785 0.39040973 -0.144827535 0.334153905 0.32685737 -0.16443563 0.200243825 0.32430048 -0.05320577999999998 0.07489048499999999 -0.11929329 -0.32642642 0.07016395 0.110977095 -0.090803747
JUN 1.0932802 -0.42079398999999995 -0.364183615 -0.38573842 0.235615507 0.295229755 -0.23965688 -0.09300489 0.21753530499999998 0.36029477499999996 0.61099929 -0.24179380749999999 -0.35813626499999995 -0.29212333500000004 0.236370945 -0.39441821499999996 -0.17392409 0.2391723 -0.036288755000000006 -0.499820545 0.25272711 -0.0032923400000000047 0.25962337635 0.54179684 0.223396985 -0.628449865 0.17323075000000002 0.278080985 -0.030097689999999983 0.078084047 -0.78577845 -0.15699826500000003 0.243815105 0.30126734 0.351546723 -0.3840184225 -0.813588435 -0.439479635 0.1452671185 -0.029750929999999995 -0.1117824365 0.175493535 -0.11220349999999998 -0.063131440485 0.13642459229999998 -0.013277092499999997 0.2929176635 0.6118245 -0.7389232 -0.155558765 0.76750182 0.021887842499999997 0.029153620000000005 -0.7185381200000001 -0.04554430499999999 -0.29840254 -0.860950575 0.2028751005 0.062306315000000015 0.0429512955 0.09152498000000003 1.35560265 -0.6744355 -0.121530018 0.445263325 -0.090106366 0.0649138 0.16099058 0.006249091000000002 -0.38283726500000004 0.35699675 0.030980772 0.29314812 -0.40695410750000005 0.28280613 -0.9217456500000001 -0.44928539 -0.166697465 -0.264925275 0.39055744000000003 0.72223078 -0.5235042400000001 -0.82645586 0.45490096999999996 0.357402525 0.38117093 0.9709844999999999 -0.39035563 -0.624476955 -0.38104731 -0.30353505999999997 -0.32314291399999995 0.10954025499999999 -0.25293687 -0.141895877 -0.21944255499999998 -0.45350739 0.69373749 0.6441879549999999 -0.360339431
L1TD1 0.434378655 0.101064233 -0.049292 0.041387137000000004 0.39956663 -0.125183215 -0.12428439 0.399121865 -0.2200734495 0.110655655 0.32393764 0.389257015 -0.08460422849999999 -0.0171061285 0.08667396000000001 -0.338275915 -0.07017435 0.02796559 -0.0949036535 0.0013819700000000032 0.23860355 -0.134765315 -0.06188847 -0.41091129000000004 -0.01873669 0.14439681199999999 -0.14549225699999999 0.053283139 0.005438949999999998 -0.24343910000000002 -0.343365555 0.19980717199999998 -0.0928299185 -0.12071348000000001 0.27733102 0.242354145 0.01981289 0.04933021 -0.1811980315 0.09978034300000001 -0.15634176 0.012630990035000001 -0.11886000999999999 -0.40039445500000004 0.268396605 0.044223497 0.019816345 -0.16440032999999998 0.033705571000000004 0.15535550865 0.14935892 -0.167380975 -0.16125991 0.35968734 -0.09258928 -0.020433684 0.0680494595 -0.615982935 -0.15272270999999998 -0.218307015 0.182502585 0.340769025 -0.0035506349999999964 0.37022999 0.29152880800000003 0.225963145 -0.15237775 0.38767152 0.026017890000000002 0.27322149 0.1650435 0.063836535 -0.24104645600000002 -0.30322591499999996 0.024214514 -0.018417645000000003 0.10863303999999999 -0.0029125795 0.06533554 -0.15084645000000002 -0.16080671800000002 0.050587715 -0.02661231 -0.0066251815000000006 0.15942162199999999 0.034397072 -0.005186355000000004 -0.25697132500000003 -0.030184049999999997 0.21986828 0.090566058 0.13832286500000002 -0.289230645 0.153465789 -0.08347635000000002 0.10774157000000001 0.17993515999999998 0.1427286911 -0.35896949699999997 -0.06718240000000002
GADD45A 0.36543739 0.0418575025 -0.3414582565 -0.0920035 -0.20189900500000002 0.18149378 0.392348885 0.028842515 -0.327204525 0.28521796 0.32648862 0.20524477000000002 -0.0316748025 -0.35700007 0.146265365 -0.321055945 -0.13598852000000003 0.0501006388 -0.1484736225 -0.24949412 -0.044452765 0.1339083265 0.11280169999999999 0.179249296 -0.46598947 -0.34070398 -0.241622775 0.06486061500000001 -0.05121363400000001 0.204886865 -0.1488912125 0.35285573000000003 0.276515097 0.2866438415 0.21087350000000002 0.24474827999999998 -0.44280866 0.0983742979 -0.2157265 -0.4506621685 0.252729085 -0.017581436 0.06584336149999999 -0.09663137499999999 0.265020088 -0.057811829499999995 0.36831486 0.311644255 0.1578459665 0.30762327500000003 0.1582824185 0.05386192499999999 0.05758746499999999 0.1558102242 -0.005549347 -0.284047045 0.10481037499999998 -0.29751018 -0.0026306144999999996 -0.6881166999999999 0.25075549 0.21490484 -0.266654485 -0.237743555 0.268374585 0.490860925 0.19347598 -0.0592638975 0.46375800500000003 0.33076377 -0.04958724999999999 -0.256289655 0.19211810599999998 -0.17265027200000002 0.029699249999999983 -0.120594915 -0.21971525 0.003704189999999996 -0.212958725 -0.0004370900000000011 0.337583875 0.078854227 -0.033671150000000004 -0.0578059015 -0.10363449999999999 0.221882745 -0.055108527 -0.144604235 0.29957649 0.2377776 -0.030939495000000004 -0.501565085 0.10539158500000001 0.0698857 0.0483569215 0.012757771999999999 -0.107634825 0.25022257 0.6319625 -0.181922518
CTH 0.10995492500000001 -0.06550214 0.235674315 0.059654066500000005 -0.205345765 0.113003145 0.0589520185 -0.24976218 -0.310161715 -0.062299284999999996 -0.21488323 0.0237069275 -0.014803007499999993 -0.06396737 -0.14601502 -0.132333725 -0.072424262 -0.19540831 -0.207529855 0.023171382500000004 0.04077510000000001 -0.148738115 0.035326811 0.26007799600000003 -0.17105225000000002 0.04441613 -0.020711948999999997 0.016298049999999994 0.11778517 -0.11681496699999999 -0.36936489 -0.011039654999999999 -0.014904525000000002 0.065755377 -0.0883003825 -0.03407668999999999 -0.021966213500000005 -0.24047658 -0.08601604199999999 -0.07888766000000001 -0.094393397 0.0996071735 -0.240390275 -0.131922462 0.1285360065 -0.13981563 0.08259813499999999 0.26745703 0.1125868635 0.113152521 0.1392636125 -0.28135197 -0.060714997 0.046575765000000005 -0.056389344999999994 0.050892204999999996 0.0832886585 0.060265107 -0.014554257999999999 0.065082535 0.2793738065 0.226632315 0.08912672999999999 0.097078896 -0.06002964399999999 0.13719985 0.1023862845 -0.064797835 -0.0441508565 -0.0035152519999999965 0.06103757500000001 -0.10976097300000001 0.057864734 -0.258238654 -0.013434639600000001 -0.153673395 0.065160305 0.194687675 -0.03832407349999999 -0.008019092499999998 -0.183029675 0.14092376499999998 -0.0072201350000000025 0.248051255 -0.1467381355 -0.135856935 -0.1370915225 -0.08294336999999999 0.19853926 0.32840819 0.0875698115 0.050008475 0.171046177 -0.07867665000000001 -0.194890555 0.021454230499999997 0.10714918 0.022335665000000005 0.050926369999999985 -0.1361439615
FPGT 0.1246491975 0.125784935 0.058126361999999994 -0.11520301000000001 -0.257435425 0.305717855 0.255459645 -0.07496383699999999 -0.0436005915 0.028452349999999987 0.261316965 0.147910345 -0.030479369999999992 0.09405975999999999 -0.004176876499999999 -0.22380017000000002 -0.094352485 -0.1742298375 -0.27580696 0.041996599999999995 0.026382759999999998 0.206142601 0.37404903 0.136234633 -0.0673464525 -0.043387340000000024 0.004656672000000001 -0.15798535 0.0001950999999999481 -0.489942165 -0.400471935 0.17590008000000001 0.12104845 -0.162840135 0.21304346000000002 0.14237111300000002 0.032783722 -0.31397343 0.015336170000000003 -0.24507852 0.015364500000000003 -0.1483788225 -0.0020802575000000018 -0.1384304 -0.009857345000000017 -0.044734714999999994 -0.12774598999999998 0.07090600999999999 -0.226179885 0.09402458999999999 -0.108258785 -0.48211239 0.10318854000000001 0.057593420000000006 -0.179233837 0.1662115075 0.1187908675 -0.37347560999999996 0.22457598 0.041984305000000006 -0.060928713 0.17565023915 -0.235351785 0.11945021 0.07719410800000001 0.299641085 0.1076496575 0.35870877 0.0063229900000000006 0.011466629999999998 0.136692865 -0.11872458699999999 0.02135799499999999 -0.3358578775 -0.1586333637 -0.072430679 -0.10169766000000002 0.131732843 -0.142070436 -0.026719871000000003 -0.214449805 -0.014509042000000002 0.1844228975 0.36408379 0.103523756 -0.2352454 0.14519956 0.014301325000000004 0.207271655 0.32736759000000004 -0.19613331 0.202348575 0.19568692 0.1143816 -0.25626700999999996 0.064024665 -0.19281020499999998 -0.08233399999999999 -0.30986508999999995 -0.64303165
TYW3 0.4202421115 -0.029969475000000002 0.10739870500000001 -0.23701439 0.27346281 -0.376197505 0.24526411499999998 -0.22999059500000002 -0.006973330000000014 0.2644352 0.093571059 -0.19177968 0.005851587499999998 -0.222641135 0.191442115 -0.53593432 -0.12901701699999998 -0.35924727 0.11252726999999998 -0.237460336 -0.338826085 -0.26844279499999996 0.66393223 0.23031635 -0.156524885 -0.229085012 0.09427719650000001 0.04280005500000002 -0.09739141000000001 0.039493604999999994 -0.701499425 0.192918183 0.28637920085 -0.1162637175 0.29973643 -0.10003140500000002 -0.41581399799999996 -0.502810295 -0.10639125999999999 0.106174935 0.11869821 -0.01885855 -0.4122214485 -0.43144264 0.032871115000000006 -0.026404926500000002 0.24200025999999997 0.31461395 -0.07683571750000001 0.36004038 0.1420635035 -0.12448311000000001 -0.13237535 0.21470875 0.078120975 -0.2771260225 -0.3417039 -0.28716567 0.340048745 -0.033317545000000004 0.03045925299999999 -0.0010918350000000132 -0.358913735 0.08215408500000002 -0.19718262499999997 -0.15047496500000002 -0.47089424999999996 0.30024078 -0.189711093 -0.23297266500000002 -0.008076904999999995 -0.2733208275 0.322427645 0.048109463 0.12199144000000003 0.008893187000000004 -0.11213606500000001 -0.466616825 -0.422122905 -0.1986471205 0.07950406499999998 0.07045474474999999 0.17704112 0.36976623150000004 0.07180713 0.155626365 0.37890484 0.148397719 -0.237120065 -0.28238049 0.199250665 -0.15844376999999998 0.0297917925 -0.035760120000000006 -0.128790346 0.0223299415 -0.335971275 -0.34967075000000003 -0.09368896 -0.49005924
NEXN 0.162842253 0.0575118395 0.426317627 -0.578895285 0.77366565 -0.194375835 -0.08320775 0.240782825 0.1523916635 0.31707633 0.362275785 -0.3383269415 -0.0794435785 -0.09398104999999998 -0.133558485 -0.11538852499999999 -0.13681278 0.689153175 0.126662665 0.029241766999999995 0.6621832649999999 -0.072928115 0.290571185 -0.07286979499999999 0.12991471500000001 -0.304703135 -0.0063341905 -0.06599946000000001 -0.14946507 -0.05761216500000001 -0.56307302 0.310806017 0.59512846 -0.10190141999999999 0.286716972 0.192218245 -0.33997614 -1.02358835 -0.369810208 0.23820329499999998 -0.2816328 -0.18569778499999998 -0.383222763 -0.49206102500000004 -0.009237809999999985 0.48141456000000005 -0.182486945 0.23981745 0.050479679999999985 -0.053690655000000004 0.32591285000000003 0.15598615 0.2868854145 0.63091257 -0.15501756 0.01574144000000001 -0.1773337375 0.08008586000000001 0.46730878 0.171907397 0.249485695 0.2223047 -0.16726645999999998 0.17976075 0.452996968 0.107273332 0.03412100500000001 -0.1460779925 -0.51509878 -0.08529726500000001 -0.315158565 -0.127556485 0.3603915213 -0.41729809 0.0594663065 -0.035036876 -0.28913427999999997 -0.420346925 -0.01722945499999999 0.1642718 -0.06859838000000001 -0.30197661 -0.10970353999999999 0.41475346 -0.04602845 -0.11348072264999999 0.47680658499999995 0.327347055 -0.041678255000000004 -0.223368935 -0.167390395 -0.22774332499999997 -0.058440447000000006 0.245271843 0.3084959 0.078672145 0.018925239999999996 -0.269253537 0.0523686 -0.10470823999999998
DNAJB4 0.8207469000000001 -0.7281248 -0.029292790000000006 -0.28274618 0.10830996000000001 0.6586027 0.34867762 0.36664334 0.07472617000000001 0.250740015 0.10025513000000001 -0.278739525 -0.45501515 -0.075408766 0.043144178 -0.33951116000000003 -0.360439805 0.5940570350000001 0.36155450499999997 -0.07240807500000002 0.7250244499999999 0.16664955455 -0.0345272095 0.124499265 -0.199344335 -0.040173062999999995 -0.0431261 -0.013786969999999996 0.365587685 -0.20721526 -0.31664772500000005 0.140583955 0.17572416 0.36288168 0.261489095 0.340968165 -0.54788757 -0.1609637575 -0.30730091 0.20553324 0.08616932 -0.098914545 -0.342590895 -0.062529313 -0.02649433000000001 0.041620122 -0.267776615 0.9587385500000001 -0.25852074999999997 0.019129135 0.4465769 0.14579535 0.020013134999999987 0.245030825 -0.37610215 -0.2585420275 0.44214373500000004 -0.24135235499999996 0.35809003500000003 -0.16053958499999998 0.16747487 0.610391685 -0.40142008 0.578469725 0.440459015 0.2124391495 0.4108881903 0.054352870000000005 -0.037905305 0.22318682 0.08390202500000002 -0.1355094425 0.488256515 0.014416916999999998 0.2439750585 -0.89596455 -0.473663615 -0.06065151 -0.5209752400000001 0.58257805 -0.09796347000000001 -0.128008555 -0.29550672499999997 0.44782495499999997 -0.23233627 0.540283375 0.09471473799999999 0.041649876 -0.14600152 -0.62822453 -0.2078712 -0.40095934050000004 -0.0705626615 0.021450075000000013 0.5751207 -0.1205272875 -0.02093244999999999 -0.13784729 0.5813379000000001 -0.206953995
RP5-887A10.1 0.1257509 -0.0829603025 -0.29177390999999997 0.054123422 -0.10437744999999998 0.0666345975 0.057953635 0.103138163 -0.160015983 -0.0032013650000000116 0.122091175 -0.046531125000000007 0.04758271 0.1751140588 -0.0847634515 0.12161541249999999 -0.36743284499999995 -0.036962104999999995 -0.10587495599999999 -0.15547097499999998 0.1452845 -0.097671045 -0.061646054000000006 -0.25870781 0.18142152422500002 0.12239346699999999 -0.01817856 -0.09460219430000001 0.143267054 -0.10741679950000001 -0.128467318 0.0481078115 -0.143356745 -0.018091815000000004 0.19970682499999998 0.04766605 -0.099984903 -0.1026450615 0.012376815 -0.11456826500000002 0.1258380075 -0.010179559999999997 -0.03735897800000001 -0.188564475 -0.09382251 -0.18187568999999998 0.22606347 0.0055465575 -0.111072915 -0.262049525 0.06721179399999999 0.1467244955 -0.161492065 -0.22477764500000003 -0.10163615499999999 0.0774703695 -0.014954867000000004 -0.230006675 -0.000602109 -0.243879015 -0.23457738 -0.055112065 0.0228156715 0.11072227 0.07986804750000001 -0.22291414 -0.01031707145 -0.1324172225 0.076072658 0.0820825625 0.081030255 -0.1576949335 0.09979583 -0.25945555 -0.15372703999999998 0.139320575 -0.28100982500000005 0.015777307 -0.15626344055 -0.2407477331 0.02946741 0.101491762985 0.26696538000000003 0.16305817150000002 -0.2580248145 -0.21465701 -0.011903114999999992 0.08586679150000001 -0.0458342035 0.07870592499999998 -0.017939384000000003 0.210384905 0.12003978 0.137634743 0.175711015 0.071439455 0.0439749415 0.068202362 -0.026439162499999995 -0.21607278000000002
MCOLN3 -0.05674044 -0.0752954375 0.055785065 0.11509375349999999 -0.18190695 -0.14567712 0.1974451305 0.1489835765 -0.129275547 -0.027650448999999997 -0.077505235 0.21185251249999998 0.2000492915 0.081845979 -0.011679099999999998 -0.075313885 -0.20559835 0.014179343000000004 -0.093384985 -0.021705290000000016 0.102539625 0.16488986 -0.20354213499999999 -0.19806042499999998 -0.030227150500000004 0.016853605 0.0036782300000000046 0.0229113725 -0.10061598849999999 -0.42062969 0.018934384999999984 0.07804477000000001 -0.13706636049999998 0.239968505 0.065277109 0.0815827855 -0.054774754999999994 -0.11204843499999997 -0.09532627 -0.19574481999999999 -0.06580383895 0.042907385000000006 0.220746235 0.06447732075 0.18773703 -0.0604981928 0.001829330000000004 0.10527089649999999 -0.050314620000000004 0.08842419000000001 -0.29457672 -0.002247070000000004 -0.045273115 0.040801102000000006 -0.29905538899999995 0.06577501349999999 0.07945245 0.03979606000000001 0.5051706650000001 -0.11280012499999999 -0.25653276999999997 0.22611522499999998 -0.02772875999999999 0.2480695585 -0.05233633175 0.120459898 0.18728992500000002 0.19332741750000002 -0.129612745 -0.20737717 0.098638633 0.20225779 -0.077800086 -0.285592305 -0.009533550000000002 0.28638848 0.075657695 -0.0202493933 0.020395349999999993 0.03238105499999999 0.168313946 0.018659445250000004 0.029026522 0.0158981875 0.06312625 -0.10714048799999999 -0.095971276115 -0.11280312649999999 -0.15687200599999998 0.0718231355 -0.26381508 -0.041628889999999995 0.030651757 -0.10374784249999999 -0.28169586 -0.057476044950000006 -0.06855276999999999 -0.03844942499999998 0.023631865000000002 -0.03141200999999999
GBP1 1.1488241 -0.13210968499999998 0.09157209999999999 -0.29946925999999996 0.95086797 0.0690517 -0.047944025000000015 0.5954316949999999 -0.10646192500000001 0.593287385 0.9270494 0.51528143 -0.496071445 0.30415738999999997 0.050320669999999984 -0.3575695475 0.0011933585 0.38646394 -0.14974461 -0.16751947700000003 0.9059619999999999 -0.19038051250000002 0.08996219999999999 0.26718215 -0.499204875 -0.5071734 -0.069319933 0.005937714999999996 -0.63981767 0.560150415 -1.012472915 0.763384335 0.437535165 0.7095973 0.387251622 0.52049278 -0.6744163999999999 -0.44025664999999997 -0.56172605 0.16918599 0.3026578685 -0.5454290150000001 -1.003701515 -0.671373235 0.459581395 0.62001437 -0.24922516749999998 0.583033315 0.23442683 0.48257575499999994 0.96427035 -0.9014274 0.7879984 0.75127875 -0.58409956 -0.44906219999999997 -0.7967141295 -0.76996238 0.41382118999999995 -0.7035364500000001 -0.023753600000000014 1.6922386 -0.394253295 0.6201023649999999 -0.074173807 -0.02918582 0.26152196499999997 0.639884115 -0.15550864 0.113456173 0.362009845 -0.36250321 0.47182717 -0.661530215 -0.14956612 -0.878649225 0.54045005 -0.318290185 -0.523902175 0.59086025 -0.31820201000000004 -0.8223051100000001 0.12923052000000002 0.744126 -0.07298425 0.6714544 0.56597341 -0.29078497400000003 -0.56659302 -0.39262580999999996 -0.652718025 -0.6755692799999999 0.402185085 -0.23393194999999997 -0.059532408 -0.20632002500000002 -0.06051820000000002 -0.12412505 0.1501255375 -0.615365925
GBP5 0.6325393 -0.56742075 -0.166086345 -0.043502404999999994 0.87714415 0.14381993 -0.23532656799999999 0.83796515 0.355770865 0.09384330999999999 0.735040245 -0.0618860665 -0.31089984 -0.20961814499999998 0.056593759 -0.261949879 -0.0007571595 0.539557446 -0.171268405 -0.06398522000000001 0.813220995 -0.56375171 -0.0018709799999999943 0.043423626 -0.0007669730000000002 -0.17051854 0.09849164699999999 -0.59525737 0.731646295 0.0474066447 -0.53893889 0.73780547 0.69007677 0.49197098499999997 0.180228125 0.50433757 -0.6064731999999999 0.1417685824 -0.414259705 0.55037115 -0.24555275999999998 -0.1644664 -0.050753685 -0.48705886499999995 0.16406931 0.46636337000000005 -0.03596036500000001 0.357558365 -0.13942228 0.08853899000000001 0.44628809999999997 -0.12309399000000001 0.17128045 0.53640365 -0.4503547 0.24221884249999998 -0.7609418000000001 -0.40440776 1.0754356999999999 -0.1528772785 0.50552197 1.13251283 -0.7113523150000001 0.49066345 0.44953543 -0.23194991 -0.028225200199999998 0.287971185 0.041088542 0.21846854499999996 -0.24123837 -0.50998481 0.249309448 -0.030619880000000002 -0.078217375 -0.7586160200000001 -0.22638099499999997 -0.34034322 0.1045624 0.3371133 0.120653645 -0.702745675 -0.714924965 0.48814464 -0.54075837 -0.168356865 0.40836715 -0.274034615 -0.42002245000000005 -0.4299247 0.0006777500000000047 0.263429957 0.014634702 -0.024740084999999995 0.317257345 0.28676769 0.31286153 -0.232840194 0.25535104 -0.0844400615
CCDC18 -0.131596892 -0.05253482499999999 -0.086130295 -0.21480612000000002 0.36504108 0.095798065 0.386172681 -0.1058399335 0.094071642 0.20216418 0.1030236995 0.148872075 -0.161448325 -0.24074445500000002 -0.23401283499999997 -0.32347248500000003 -0.073610291 0.0210316165 -0.31144977 -0.23980337000000002 0.207216605 0.009290989999999999 0.231134875 0.154423365 -0.07189602 -0.14389627 -0.45428197000000003 0.055523197999999996 0.132922725 -0.59505372 0.012060799999999983 0.26514747099999997 0.1783259075 0.007451835000000004 0.05453436000000002 0.0633666775 0.08217532050000001 -0.30206095 -0.43820245 -0.0831074235 -0.082200486 -0.059651124999999985 0.011275964999999999 -0.26210994499999996 0.338142365 0.0995170815 -0.049000455049999996 0.2661825925 -0.0989219955 0.20380148999999997 0.0069072899999999965 0.041899624999999996 -0.22353705499999998 -0.16023852 -0.2013637 0.17981024499999998 0.4238207 -0.131938818 0.13483402499999997 -0.0068606875000000005 -0.002187734999999996 0.12443584999999999 -0.160906135 0.294795075 -0.46874503 0.080817095 0.1092852655 0.09748375 0.07892816999999999 -0.21229437499999998 -0.04135443 0.05734862 -0.287123145 -0.176915985 -0.101891625 0.24642677 0.07448672 0.06277941000000004 -0.067376135 0.017559670000000006 0.04838556000000001 0.226266656 -0.2571261 -0.010527986 0.056624931499999996 -0.021988485000000002 -0.0044633599999999996 0.09261805799999999 -0.019078424999999996 -0.0405236115 0.18528050000000001 0.07908441199999999 -0.11615101000000001 -0.037137772 -0.13681282 0.06777082375 -0.017563230000000006 -0.157598405 0.17763162 0.0628977
GCLM 0.055149844499999996 -0.34589168 0.12471345 -0.191670083 0.47837226 -0.06795071 0.037186505 0.6153446499999999 0.1723004306 0.70585493 0.14866528499999998 0.134223425 -0.013741185000000003 0.06277903000000001 -0.422183835 -0.42963289 0.58306368 0.44800299 0.139691685 -0.20855414300000003 0.405079675 -0.128880172 0.43291358999999996 -0.18275710250000002 -0.0493544975 -0.675086055 0.1930341975 -0.40798929 0.23879193099999999 0.003285764 -0.8166835 -0.31635687 0.49080409 0.7607748649999999 0.27703142999999997 0.338921715 -0.348633425 -0.81194518 -0.12472506 -0.4467559565 -0.096321727 -0.21024272400000002 -0.30992886999999997 -0.314663275 -0.07729538999999999 0.20914583 0.10824520499999998 0.653185525 -0.563859165 0.427241905 0.20790345 -0.220031935 0.0698490145 0.3712816 -0.379395825 0.05361544999999998 0.0533024694 0.13053599999999999 0.8590063299999999 0.09595657 0.082445617 0.1589307665 0.08195722 0.20321874499999998 0.49091427800000004 0.15539816 0.221053075 -0.184828575 -0.45572626000000005 0.3861568325 0.16704899 -0.1277927465 0.287582845 -0.23188963350000003 0.026837312000000002 -0.141947647 -0.43918724 -0.39096567499999996 0.18057544 0.5347630999999999 -0.072081495 -0.22504605 -0.14997843000000002 0.51944664 0.15062471 0.6697511 0.80094585 0.23505938499999998 -0.6006699 -0.539079475 -0.298030115 -0.7557645500000001 -0.149945341 -0.299015444 -0.014292479999999996 -0.37144625 -0.65340133 -0.24428371000000002 0.19025189 0.0034110650000000187
PTBP2 0.04098574000000001 -0.06922360999999999 -0.033778394999999996 0.25195003 -0.092166375 -0.018131350000000004 0.2972321 0.1427579447 -0.23317746499999997 0.03514921145 0.04051882999999999 -0.1150430125 0.028260134 -0.275757131 0.010574519999999997 -0.1878590615 0.06859538425 0.06828400000000001 -0.2348966 -0.153570497 0.2550232 -0.1280160625 -0.05009707499999999 0.114318612 -0.014022229999999997 -0.102923863 0.005450150000000001 0.20706459 0.28008773 0.056337605 -0.12210017050000001 0.05321813 -0.164942033 -0.09760196499999998 0.004622653499999999 0.221432925 -0.319107715 -0.22071067 -0.03661158 -0.0490071435 0.028417819999999996 0.286105175 0.18760918499999998 -0.295151815 0.24645910999999998 0.0792249635 0.15305312 -0.09520023 -0.12135682 0.134560004 0.05005501725 0.14755144 0.07075364 -0.06421597 -0.036085283 0.236970785 0.1408098605 0.0068321699999999985 -0.089687836 -0.06580282000000001 0.15864937500000004 0.032147668 0.075985955 -0.207085535 -0.033731044 0.120035288 -0.020422145000000017 0.15209455000000002 -0.02177504999999999 -0.073276445 0.057139589 0.09978169249999999 -0.17844792399999998 -0.0437470525 -0.18670919 0.064508389 -0.1697065048 0.1475391475 -0.2359307 0.04824071 0.09778171499999999 0.28975391500000003 -0.021710494499999997 0.145681671 -0.0037747049 -0.154093745 0.2573577065 0.044618045 0.188419903 0.130632287 0.14542852 0.10921582499999999 0.23959319 0.16501837 0.027039114999999996 -0.09966789499999999 0.018202064999999996 0.051194624999999994 0.1286397615 -0.078415227
RP11-421L21.2 -0.22675316 -0.172064925 0.08225355000000001 0.09978616 0.00021990500000000635 -0.037604565000000006 0.0074254640000000005 -0.180421075 -0.227765195 0.0730770125 0.176124777 0.17622837 0.0254261235 0.050643126 -0.171877898 -0.04294754499999999 -0.230753455 0.04841217 -0.135130365 -0.008565484999999998 0.29249464000000003 -0.11157421000000001 -0.15363488 -0.031504183 0.310343864 -0.27590424 0.178660265 0.060295084999999984 0.08387177999999999 -0.051416837 -0.07837650700000001 0.24253266350000002 -0.08116121500000001 -0.0384760675 -0.07419706 -0.0380566065 0.07489633475 -0.200246775 -0.38607161 0.07246753049999999 -0.290374583 -0.17888041 0.169319288 -0.039796225000000005 0.1043084255 -0.021460287999999994 0.007675345 -0.05458748999999999 -0.10572887999999998 0.00433652000000001 -0.150509056 0.15461761000000002 -0.105185947 0.18456605450000002 0.081795495 0.339601655 0.13126129 0.005562629999999999 0.10199657999999999 0.0328646295 0.185656285 0.333421095 0.191971155 0.24477059499999998 -0.05196086999999999 0.402203055 -0.140898915 0.077862435 0.246037355 -0.056062207499999996 0.15713704 -0.10617663 -0.077644335 -0.272628315 -0.327259955 0.012188560000000001 -0.16959481299999998 0.13699019 -0.052941395 -0.003805785000000006 0.295488185 0.33117457 0.1450228375 0.31462139 -0.03809002 -0.12257704 0.223969885 -0.0329573435 0.308403035 0.04335244 0.34896744999999996 -0.004243419999999998 0.08737059450000001 -0.033586660000000004 0.0429865 0.09008784 0.12624187 0.12409349 0.147113535 0.03286156
S1PR1 -0.14810552999999999 -0.16326747800000002 0.209536299 -0.13898623999999998 -0.295849495 0.043823940000000006 0.33921068499999996 -0.003031326000000001 -0.17083179 0.24711829999999999 0.154894415 -0.07605360600000001 -0.06694731999999999 -0.08469294000000001 0.0024712499999999804 -0.09544836000000001 0.024887384999999998 0.2370885485 -0.124060565 -0.369131804 -0.017132210000000002 -0.25765201 -0.124792469 0.09116493 -0.00630196999999999 -0.15100308499999998 -0.098281317 0.28886889 0.07113834299999999 -0.415544455 -0.32059222 -0.023265967499999998 0.211972595 0.036622144999999995 0.39701778 0.10045999 -0.24196772 -0.35712197 0.010439545000000008 -0.18373005750000002 -0.005593725000000008 0.22917575 -0.15660435749999999 -0.2562169825 0.165668662 0.05724642999999999 0.0217680405 0.5538116 -0.244144165 0.0540220825 -0.00280391499999999 -0.07034395500000001 -0.01998808 -0.187740635 0.155212515 0.0036965200000000017 0.5415328699999999 0.026583839999999997 -0.0033457749999999953 -0.170774255 0.01650023500000003 0.111497525 -0.198042033 -0.009408925000000012 -0.239754005 0.317656165 -0.133297835 -0.07763046 0.2028577225 0.031312695 -0.16568143999999999 0.115673803 -0.213736735 -0.21900621999999997 0.17363340900000002 0.016028692499999997 0.105604395 -0.20279639000000002 -0.1533141325 0.09416714 0.1710665 0.20601066499999998 0.03543326000000002 0.0989536525 0.158909466 -0.143813857 0.02797313 -0.185462175 -0.28238405499999997 0.045509774999999995 0.30504117999999997 -0.13486426 0.24402526 -0.05456921000000001 -0.0527313 -0.042557514000000005 0.327803215 -0.005038762000000002 0.10476677949999999 -0.023549899999999985
VAV3-AS1 0.308493315 0.42688775999999995 0.20748714000000001 -0.013483204000000002 0.40541856 0.39451087 0.17643572 0.09239259999999999 -0.126442958 -0.1436292 0.20586740250000002 0.41176294999999996 -0.332682539 -0.24392025 -0.35142633500000003 -0.37914205 -0.23263264500000003 -0.027520495000000006 0.034855525 0.12385218499999999 0.349077472 0.10964781499999998 0.12826626000000002 -0.046426179999999984 -0.003652609500000001 0.16965045499999998 -0.070737505 -0.03157245 -0.47083655 -0.7361826899999999 0.16838895 0.27740196 0.058457617499999996 -0.102728388 -0.363225385 -0.079579176 -0.0022992450000000053 -0.366010675 -0.20106603499999998 0.2331767125 0.07618274000000001 -0.055567200500000004 -0.217169042 -0.168742646 0.09393343500000001 0.24712582 -0.7626609 0.50107801 -0.563344375 0.12618207 -0.23482076 -0.04331531499999999 0.1888145426 0.04084332 -0.027921885000000007 -0.356396805 0.13073552500000002 -0.209843492 0.20858955 -0.19917602 -0.38868782 0.5859702925 -0.02810404999999999 0.22313792999999998 0.54085834 0.39225889999999997 0.20028451 0.33377851999999997 -0.53472665 -0.16454423 0.04186012 0.18658693 0.034550698000000005 -0.41832716999999997 0.15878399 0.08841191649999999 0.418902385 0.0885792145 0.312838695 -0.16570006199999998 -0.3191442625 -0.04034135 0.20074725499999999 0.31069422 0.21164372 0.17091785 0.05518532499999999 0.055035975000000015 0.22112346 0.16032922 -0.21957118650000002 0.084288195 0.2543861 -0.0717176015 0.31285372499999997 -0.13959739499999999 -0.06600816500000001 -0.09702323499999999 -0.010793694999999992 -0.21081560500000002
WDR47 0.29953711 -0.086921901 -0.011550725000000005 -0.0198936325 -0.271543175 0.26918308999999996 0.079259512 -0.13939329499999997 -0.22210264500000002 -0.073560665 0.09304267 0.17241211 -0.216807695 0.082644 -0.15972251850000002 -0.33302799 0.008751079999999994 -0.030694442500000002 0.24240788000000002 -0.22631499 0.28415096500000003 0.006909996500000001 -0.02582521 -0.18196946 -0.273139545 0.054539629000000006 -0.35592982 0.1812955 -0.1176859405 -0.274198612 -0.10208909499999996 0.2722213165 -0.06548812000000001 0.38839168999999996 0.1813044 0.13861101500000003 -0.08417427 -0.33455762 -0.45346971 -0.100295218 -0.025480500000000003 0.35795046 -0.242397185 -0.21402842 0.17206995 0.022250090000000007 -0.10613445499999999 0.14922585 -0.287197165 0.1899917991 0.16199098 -0.130256425 -0.078954825 0.16872742 0.0668203255 -0.26962043 0.15323408 -0.152576893 -0.1830668513 -0.190920935 0.13355128500000002 0.150959445 0.1324644225 0.27753102 0.047074324999999986 0.2694464775 0.042051070000000024 -0.163964612 -0.05343330499999999 -0.018167765000000002 0.06943358000000001 0.2723296215 -0.190867365 -0.458759845 -0.1484682875 -0.045389308 0.076235915 0.01698419000000001 -0.325180645 0.243428135 -0.0952784955 -0.15801371649999998 0.014722510000000001 0.17461649 0.03643003500000001 0.007823884999999996 -0.07252563 -0.25098745 0.541009015 0.2467750625 -0.11690858700000001 0.30342245 0.21056664 0.135087915 -0.192366749 -0.226858585 -0.079263555 0.04868619000000002 0.11817067499999999 -0.014783878500000004
ADORA3 0.238312874 0.186148735 -0.26757388 0.017835370000000003 -0.031947818 0.08673086999999999 0.49543398499999997 -0.008169883999999999 0.07773841500000003 0.07984916469999999 0.20436899000000003 -0.20221510000000004 -0.21849492999999998 -0.08896512300000001 -0.1339294135 -0.41105548 -0.26074229 0.12248455 -0.17241604500000002 0.287839055 0.1451770395 0.005411090000000007 -0.14018892 0.16134802250000002 0.153135185 -0.17792566999999998 -0.11815910999999998 -0.19143277167 -0.54955037 0.096667615 0.042165965 -0.224481634435 -0.22602016 -0.12662286 0.279841085 0.10175096500000001 0.010083675 -0.1232387675 0.22623749399999998 0.12806747 0.12722227875 0.0948920675 -0.10402333500000001 -0.60527865 0.36735427 0.0010834199999999738 0.07691145499999999 0.1513234295 -0.55553964 -0.11111253 0.04211139 0.10667214999999997 0.40015502999999997 0.022516146999999993 -0.24023799 0.010842274 0.136047505 -0.700849965 0.075858943 -0.364561625 -0.298124053 0.41310268 0.021382611500000002 0.120758243 -0.145748655 0.56728343 -0.23841568000000002 -0.068604813 -0.135197568 -0.44695451 0.075679125 -0.26425753525 -0.27291174 0.09144760000000002 -0.365654435 0.2602519 -0.04671261500000001 0.126707138 0.123048638 0.24673641 0.139803238 0.14611797799999998 0.056387110000000004 0.58852398 0.047245333 0.00922141500000001 0.46228393500000003 0.02037896 -0.24904587 -0.310607195 0.3487523 -0.20837773 0.271833625 0.021738238499999996 -0.008588524999999986 -0.118617125 -0.018375910000000002 -0.30618793 -0.101854655 -0.024971149999999998
RHOC 0.514083565 -0.70625189 -0.04668051000000001 -0.012903079999999997 0.47429458999999996 0.07538745999999999 0.08311674 0.541507665 0.287854415 0.39415595000000003 0.04816560300000001 0.6325931499999999 -0.62990177 -0.06097792499999999 -0.10216008500000001 -0.819670825 -0.1080914765 0.380759345 -0.53945963 0.08139798 0.32432585999999997 -0.12737858 0.09824432899999999 0.169581225 -0.21950656999999998 -0.255270135 0.22868909450000002 0.044547728999999994 0.267524575 0.130594105 -0.66598398 0.007684469999999999 0.6241409499999999 0.7225747 0.30947923499999996 -0.03503002500000002 -0.5722951199999999 -0.084719033 -0.45157017 0.34092896 0.276363325 -0.60357625 -0.26845283999999997 -0.40832457 -0.0057091850000000055 0.450564275 0.014146765000000006 0.9164348499999999 -0.1447747425 0.17562578499999998 0.010583979999999993 -0.222813767 0.054436229999999995 0.4896937 -0.469357015 0.11661445000000001 -0.110365608 -0.079802617 0.47528852499999996 -0.545141235 0.0382321945 -0.008043220000000004 -0.576284665 0.14116897 0.22273427 0.27546080149999996 0.35401246 -0.07766785849999999 -0.06934560749999999 -0.132706035 0.32485955699999997 -0.247844498 0.34327748999999996 0.23680311 0.03544264500000001 -0.184555637 -0.22454448500000002 -0.21411818999999999 0.4954959 0.44476277499999994 0.10235904000000001 -0.11546975649999999 -0.2244856625 0.161076182 -0.21093062 0.13168836 0.584404245 0.28115579500000004 -0.836161555 -0.538264335 -0.15860115 -0.20084337149999998 -0.295270918 -0.028078579999999992 0.08904357000000002 -0.196371355 -0.015229919999999994 -0.45931301999999996 0.60485972 -0.29706984999999997
MAGI3 0.085013639 0.10687862000000001 0.099884165 -0.020590630000000006 -0.029032554999999998 0.08588942 0.12854165 -0.027500156499999998 -0.115949268 -0.045412954 0.027831994999999998 -0.08704691249999999 0.06412941 -0.13938445 0.08548059 0.01877654 0.004268885000000007 0.0903676385 -0.113606625 -0.067712867 -0.170357773 -0.035248684 -0.06751062599999999 -0.026453495 0.15214323000000002 -0.0193145175 0.16302489 -0.0006628200000000084 0.026888500000000003 0.16349397100000002 -0.02643154999999999 0.0249234699 0.06327369085 0.049068415649999995 -0.141043572 -0.0004031349999999989 0.0935146335 0.054721506 0.031641039999999995 -0.0734229665 0.04904565079999999 0.1075083975 -0.081199525 -0.12799257697 0.0631735225 0.002280246999999999 0.038910886500000005 0.232396385 0.0251513755 -0.086854532 0.058178892 -0.089497787 0.04216475299999999 0.13314378 0.0415120215 0.055647705 0.0447013265 0.172230019 -0.0355703825 0.001235647000000003 0.235240445 -0.1365369863 -0.076687698 -0.0578821715 0.0317740575 -0.01584696 0.083547388 0.007964291999999998 -0.05478543300000001 0.1512963 -0.09949238699999999 -0.1660831 0.069486638 -0.01719776 0.037721536 0.0971867925 -0.0188994 0.13619718749999998 0.09036166500000001 0.146140809 -0.019452995 -0.12007009000000002 0.17498142500000002 -0.1405322045 0.245765733 -0.0554949 0.0700314915 0.043562814000000005 -0.097073941 0.06420013299999999 -0.026886234999999998 0.09349610035 -0.030438292500000002 -0.026096322 0.1009782225 -0.022235235 0.015287604000000003 0.13428128 0.070956001 -0.0023150425000000004
AP4B1 0.1207108025 -0.063510685 -0.06480808500000002 -0.17084112 -0.280685257 0.1790508925 0.168010766 0.210108315 -0.09112935850000001 0.292552465 0.374539855 0.3451983 0.232193444 -0.28326372 -0.18129978 -0.09620789000000002 0.018038145000000005 0.26175289 0.095696587 0.033044279999999995 -0.19168975500000002 -0.17537614999999998 0.161547435 -0.01647373 -0.367942575 0.1021287875 -0.141985693 0.173806785 0.11517001000000002 -0.06062609999999999 -0.48788901 0.3044818 -0.17235195999999997 0.095521495 -0.17750539999999998 -0.25191759999999996 0.0380525725 -0.14831242500000003 -0.1647318415 0.10061218 0.09309160500000001 -0.23134032149999997 -0.365485665 0.093805325 0.18766734 -0.02114314 0.082959145 0.25059793 0.10005053750000001 -0.004203204999999995 -0.303199865 -0.2883228 0.23123623000000001 0.009182505 0.041457935 0.201268965 0.4118582 -0.34309484 0.09470498999999999 -0.51128037 -0.126565605 0.133706562 -0.293277055 0.091201887 0.18509245500000002 -0.04662388 -0.030133705000000004 0.11126940699999999 0.27800423 -0.006885999999999989 0.044555765 -0.37965597 0.101857315 -0.238380335 0.10758083 -0.12672537 -0.09821972300000001 0.18081122 -0.256345625 0.05362346999999999 0.031672275 -0.04789544500000001 -0.190618805 0.015451514999999999 0.179394745 -0.087787438 0.188272088 0.12299674449999999 0.24989695 0.16118850599999998 0.021696890000000003 -0.277899545 0.3185931915 -0.299490625 -0.218607525 -0.08720183999999999 -0.09560165000000001 0.23678188 0.11249828 -0.310710355
DENND2C 0.041035827500000004 0.07361491599999999 0.32376840500000004 0.0268204675 -0.07551897499999999 0.08261339 -0.028947227750000002 -0.0981482335 -0.12143868 -0.0011896080000000017 0.03240802 0.0029001300000000008 0.006142022500000004 -0.010689342500000004 0.169880511 -0.051741422999999995 0.089119975 0.08688274 0.013443980349999999 0.08133946 -0.1301585315 -0.053306925000000005 0.01703835425 0.152212174 0.11473926500000001 0.056936446999999994 0.077170846 0.07682338 0.0109433892 0.0382020755 -0.03941179 -0.13912269 0.033280055 -0.12408705650000001 -0.04029312 0.158995165 -0.267943595 -0.0694143995 0.0618154945 0.096812775 0.06191282100000001 -0.064855874 0.105485945 -0.09472912 -0.044111536 0.13154111000000002 -0.045847336499999995 -0.0024542455000000005 0.021741630499999998 0.010836535000000001 0.017812904999999997 -0.048925784 0.066799169 0.088949305 -0.0679057485 -0.08101369274999999 0.122107505 0.009411905000000002 -0.18554559225 -0.017080325000000004 0.107300007 -0.056235841999999994 -0.1115325565 -0.2086551325 -0.071435166 -0.12877506 -0.014747608500000002 0.146532337 -0.0121581349 -0.0183862515 0.092897637 -0.057836085 0.03412092 0.124435045 -0.05078986499999999 0.08957917500000001 -0.163908693 0.07151072950000001 0.002447811000000001 0.04544783999999999 0.055297638 -0.22485370500000001 -0.048618065 -0.07962968999999999 0.039420235000000005 0.071325515 0.105198735 -0.1814831915 0.1980090185 0.091649483 -0.13594694000000002 0.056452279 -0.01743641 -0.03342806499999999 -0.214961055 -0.0415047425 -0.106644451 -0.003621940000000004 -0.01984175 -0.14062412000000002
TSPAN2 -0.1645360555 0.26420127 0.05552700000000002 -0.0340784135 0.019151042000000004 -0.11962834000000003 0.380334935 -0.23045101299999998 0.09412698 -0.275451775 0.1333288645 0.18294419 -0.372708245 -0.0518781865 -0.176549775 -0.053994420000000015 -0.15332983499999997 0.42613423500000003 0.14155938 0.008393935000000005 0.20629441199999998 -0.5822678 0.42465526 -0.39367382 0.14381718000000002 -0.1790291535 -0.26392747 0.39680054 -0.2327547625 -0.49418901000000004 -0.55793382 0.06650838999999999 0.22109222 0.23758173500000002 0.254409965 0.07269155 -0.06427513000000001 -0.07647527949999999 -0.055060729999999974 -0.34190017 -0.210549375 -0.0052045850000000116 -0.04421294499999999 -0.1460262575 0.2072475925 0.03128563000000001 -0.024867655000000002 0.49714483 0.11717925000000001 0.1522205585 -0.003830708000000002 -0.45795037 -0.256761028 -0.18554669499999998 -0.255386515 -0.268985411 -0.015454140000000005 -0.346566245 0.221568773 -0.1475584135 0.254550185 -0.19598304000000003 -0.23003120999999999 -0.085766063 -0.170647607 0.074952147 -0.260696745 0.164810982 -0.15051568999999998 0.25536132 -0.013579300000000002 -0.301141945 0.1293482785 0.17616298 0.031247570000000002 -0.28929229 -0.062399695000000005 -0.175999619 0.289624175 0.039816117 -0.2366769975 0.0887786685 -0.18268624 0.35999638 0.108927635 -0.103133015 -0.39408424 0.28132761500000003 0.47168527000000005 0.1259050335 -0.017083875 -0.041549474999999975 0.65059303 0.24275223 -0.15623821 -0.310337935 0.021504715 0.05664597 -0.09427752499999997 -0.022696385
REG4 0.001382574999999997 -0.049370069 0.01880105500000001 -0.030831513 0.0031269199999999914 -0.54187851 0.22964236500000001 0.07973249125 -0.16575473000000002 -0.13992123499999998 -0.08967983 -0.0871671425 -0.25627836 0.143597775 0.09562200499999998 -0.113371785 -0.0904495125 0.061458689999999996 -0.08597090000000002 0.27468621 0.269349665 0.06918856500000001 -0.038721353 -0.42431582 -0.042700884999999994 -0.19170286 0.213912905 0.250591535 -0.026271149999999993 -0.12747509199999998 0.04033768 0.10258248449999999 -0.25294464 -0.06754090700000001 0.26464987 0.10338068239999999 -0.2241155225 -0.2262059715 0.06260172 -0.019412327 -0.19900995999999999 0.299901555 0.17459395249999998 -0.15823126399999998 0.054972285 0.2309513275 -0.138427365 0.22012622 -0.33099614 -0.0691888915 0.184535995 0.22436533 -0.09239546 -0.305361885 -0.11722333 -0.0009251250000000058 0.2785132 0.2072702435 0.293743635 0.11849379 -0.16965158000000002 -0.07020114350000001 -0.21002389249999998 -0.11048001000000002 -0.24570250500000002 -0.05532519 -0.22674338500000002 0.162633028 -0.1666424385 -0.03185365000000001 0.40951519999999997 -0.25075682 0.009064840000000005 -0.154400884 0.033830139999999995 -0.256161215 0.09249763500000001 -0.372501845 -0.27035612 0.074635306 0.432613775 0.06635972 0.23163598000000002 0.5891616 0.32680325 -0.254018055 0.329562835 -0.141438335 -0.09700937750000001 0.094478425 -0.03597262500000001 0.28014905 0.47224349499999996 0.040340354999999994 0.12425722 0.025116774999999994 0.084443748 0.061584129999999994 0.08404296000000001 -0.25656993
BCL9 -0.011438187170000001 -0.12148111 0.053368221 -0.1051272585 -0.243121155 -0.048690492 0.12651669 0.01532712 -0.29028272499999996 0.15321071 0.107835242 -0.1086240665 -0.2970608 -0.0710820925 -0.18960987 0.23972703899999998 -0.101043745 -0.162877994 -0.21099869999999998 0.032855255 0.253964455 0.028537410500000002 0.11566792000000001 0.048225025 0.2418075425 0.009593329999999997 -0.0069575149999999975 0.10446124174999999 0.2568348325 -0.366865985 -0.10338671 0.140067725 -0.06811749 0.243924025 -0.087923077 -0.031144070000000003 -0.0015576750000000084 0.04050464999999999 -0.05010106999999999 -0.32260973000000004 -0.0566886675 0.138334475 -0.212635215 -0.21610434 -0.03185470000000001 -0.08316403000000001 0.11655170000000001 0.04304518 0.057980050000000005 0.15353002500000001 0.06867875000000001 0.034898579999999985 0.10419569499999999 0.0324403765 0.0548893275 0.26444921 0.1374298575 -0.019014135 -0.13029747 0.018949435 -0.013204560000000004 0.009969290000000006 -0.28113203000000003 0.149375003 -0.036974252 0.20015003 -0.10977251500000001 0.1110057605 -0.083159772 -0.0366389625 -0.088664375 0.175725835 -0.211584235 -0.24336805799999997 -0.10785031 0.160997165 0.263957585 0.154430825 -0.266883235 0.0957087525 -0.06922746999999999 0.27207112 -0.13297729652499998 0.25609171 -0.044239640000000004 -0.040559643 0.25416609 -0.10556454500000001 -0.059677115 0.07796866300000001 -0.102989185 0.0849772835 0.1781114565 0.05844026249999999 -0.053595775 -0.16908024500000002 0.257445865 -0.04842738499999999 -0.06892916997000001 -0.25274239
FCGR1A 0.132708275 0.25105472 -0.055768155 -0.14085815000000002 0.37467585000000003 0.198278448 -0.21864779 0.4352237 0.52429218 0.013276192500000002 0.160203705 0.348193455 -0.11751089999999999 0.23292664 -0.10603846500000001 -0.274942615 0.11975464200000001 0.2865744775 -0.094463877 -0.33239693000000003 0.634776365 0.11727211 0.250171965 0.23156955 -0.5629158599999999 -0.05773613 0.085840607 -0.295864185 -0.005861169999999999 -0.2919653 -0.07361468499999999 0.280315855 0.01973736 0.17484476000000002 0.31967449 0.10482880000000001 -0.29838144 -0.35925753000000005 -0.10249913000000001 0.146630777 0.17596642 -0.113806445 -0.250856505 -0.623018995 -0.16202868 0.60402526 0.11659620500000001 0.198925933 -0.12019424000000001 0.231864878 -0.019190609999999997 -0.34133959 0.688843325 0.49587913499999997 -0.21893258000000002 0.023693775 -0.05964867500000001 -0.28291678 0.8020567000000001 -0.26198931000000003 -0.037683234999999995 0.31126042724999997 -0.18643164 0.47718878 0.34055274 0.3404842225 0.339742652 0.257167105 -0.178435265 0.05844742 0.157882185 0.041407150000000004 -0.08938041000000002 -0.230450825 0.2100946035 -0.1224333025 0.055130276 -0.00893033 0.06872523 0.154885303 0.15548808 -0.61094384 -0.06830722500000003 0.25977719 -0.012795180000000003 0.31858989 0.230382524 -0.099504315 -0.2053868735 0.050290608300000005 -0.13242913 0.22593768500000003 0.066978585 0.33166832 0.030299060000000003 0.029833205 0.24358099 -0.116097265 -0.28210795 -0.22765530499999997
SETDB1 -0.094633278 0.19981826 -0.119790635 0.103483573 0.05313625499999999 -0.22024083500000002 0.33429193 0.255003645 0.07553185250000001 0.004688282499999998 0.241696645 0.17053751500000003 0.13819315999999998 -0.002926640000000001 -0.29893978499999996 -0.39549044 -0.07484494500000002 0.31343744 0.0065912149999999975 0.27983747999999997 0.308700575 0.147086586 0.08739305 0.24865935250000004 0.016354714999999992 0.035367152500000006 -0.06520330000000002 0.133886199 -0.45406270000000004 0.48432759999999997 -0.25019889 -0.0983720625 -0.218854835 0.0604757885 0.10517762000000001 0.21965427 -0.034582380999999995 0.04984418999999998 -0.024302420000000005 0.04363246999999999 -0.04689797500000001 0.122328992 -0.047154562000000004 -0.16864551500000002 0.45812202999999996 -0.22510023999999998 0.030077509999999988 0.15332549 0.137062572 -0.0031461500000000003 -0.05229777999999999 -0.2531039085 -0.016196167500000004 -0.15023619500000002 0.018735700000000008 0.25146099 0.237707008 -0.54301579 0.013796379999999997 -0.135705808 -0.07354267 0.34688594165000003 -0.22374623999999999 0.0256282905 0.014622720000000006 0.17037654000000002 -0.023714329999999992 0.302241825 0.11386733 0.0903144725 -0.03202605 -0.2142368 -0.054544640000000005 -0.49664808000000005 0.15796127000000001 0.084677322 0.05094520499999999 0.22982163849999998 0.04682108149999999 0.08710606500000001 -0.009937250000000009 -0.048769300000000015 -0.14842323699999999 0.30599716 -0.264164385 0.242458403 0.180222178 -0.11619340750000001 0.39515505 -0.21837934 -0.05199585275 0.04524007499999999 0.107492375 0.2139223275 -0.232493095 -0.26368145 -0.20978245499999998 -0.28674539 -0.156412934 0.0017757499999999926
