1000 100
HES4 1.315884 -0.15463816 0.037446808 -0.069308914 0.5370564 -0.08497641 0.37598753 0.73772043 0.09511901 0.44735122 0.16044353 -0.1920299 -0.27894405 -0.2109047 0.12083617 -0.6087572 0.20125645 0.91378045 -0.5235739 0.22340764 0.5151918 0.2184243 0.7273496 -0.032258417 -0.6446814 -0.21206845 0.49653047 -0.6550437 0.39215073 -0.30135098 -0.59959537 -0.0040151766 0.48843697 0.8135082 0.11716385 0.07860849 -1.1666647 -0.15728045 -0.8298886 0.14699233 -0.24657041 -0.35658985 -0.48480162 -0.4339287 -0.9297607 0.4013131 -0.53280336 0.8079502 0.3097383 -0.14851505 0.28771314 -0.09281444 0.7821055 0.13626379 -0.73599267 -0.21442235 -0.23665674 -0.58631414 0.73146844 0.2334228 0.3916722 0.71097153 -0.8045433 0.31321672 1.3902335 0.11113519 0.023079501 0.0011231041 0.094918214 0.28512377 -0.16116111 -0.5464822 0.8103666 0.41288412 -0.35204497 -0.8213103 -0.3579839 0.063166015 0.03851741 0.44231033 -0.10007695 -0.5572291 -0.83047974 0.3004572 -0.23699386 0.6702256 0.08419849 0.3853325 -0.36182824 -0.11991612 -0.46640074 -0.38269058 0.019783963 0.25018814 0.36174625 0.034673993 -0.08798312 -0.37638608 0.6220338 -0.6193839
ISG15 -0.60824573 0.12059888 1.379307 -0.25564116 0.8680482 0.26990908 0.6872752 1.1768624 0.56800115 1.5889808 1.9449745 1.2534903 -0.40792486 -1.2995521 -1.5959668 -1.3001419 -1.6271762 0.14976582 -0.68960977 -0.59383446 2.7858434 -0.15099758 1.0117527 -0.835263 -0.96066797 -1.5793399 -1.4996631 -0.47806025 -2.167797 -1.5455358 -2.12533 0.63531387 1.2951806 1.0604061 0.49149027 0.5424294 -0.73891294 -1.2924592 -1.953419 -0.7956759 1.1694797 0.06613147 -1.6317323 -1.9170691 1.4097849 0.37879655 1.7046634 2.257979 -1.0323101 0.47258654 -0.08152206 0.05676595 0.36217716 0.8257335 -0.75015366 0.6684318 -0.8009162 -1.0299543 0.74600774 -0.4510377 0.5078392 1.1182557 -1.1625556 1.5638553 -0.6439404 0.58426756 -0.28002393 0.4561195 -1.0250516 0.80607206 1.3558979 0.20578273 -0.5203194 -1.9414682 0.8428273 -1.0163565 -1.0361085 -0.039233826 -1.4872228 -0.7620405 1.0541446 0.6537919 0.20216009 0.8427981 -0.6402943 -0.42032704 1.3242126 -0.9386851 -0.1045047 0.34872854 -0.78819066 0.70284474 2.1471741 -2.260972 0.3042003 -0.18318152 -1.114481 -0.5876441 0.44716552 -1.4348242
TNFRSF18 0.78225726 -0.7255871 -1.1310506 0.06555629 0.028348522 -0.17912905 0.5780607 -0.45879707 -0.2032503 0.80900747 -0.30515954 -0.13279441 0.5106333 -0.4696085 -0.17046206 -0.38599145 0.4941479 -0.027349062 -0.54039544 -0.025231257 0.26513398 0.2814701 0.77322215 -0.038088985 -0.17278385 -0.06537478 -0.31073013 0.27578676 0.3072279 -0.18044414 -0.8446128 -0.09560624 0.23215777 0.36041307 0.4656099 0.4270783 -0.68906087 -0.029902617 -0.29254857 0.04142457 0.49846792 -0.4417101 0.28834754 0.31859985 -0.37262917 -0.08180589 0.015530689 0.031351525 -0.5021191 0.31371716 0.68599635 -0.53135604 0.3674496 -0.047353912 -0.15312262 -0.53461784 -0.082959816 -0.44579768 -0.15443632 0.0037563196 -0.17162637 -0.12993045 -0.7701757 -0.0177919 -0.14435512 -0.17841807 -0.6767538 0.18607901 0.6011256 -0.7168302 0.061448857 -0.34794787 -0.09171824 -0.37861386 -0.8736808 0.29539466 0.27274796 -0.6824594 -0.16676863 -0.21094558 -0.30393085 -0.2426424 -0.18757883 0.20646226 0.22863969 0.21852367 0.7157367 -0.19936843 -0.22754867 0.41572773 0.30994734 -0.75239486 -0.19893835 0.7135285 -0.64253366 0.45429626 -0.7685647 0.72421616 0.24433082 -0.5099226
TNFRSF4 0.88728315 -0.6901724 -0.45023108 0.010732184 0.47163692 -0.46638602 1.1331027 -0.352222 -0.63021654 0.6545631 -0.017500978 0.09300815 0.15605934 -0.70945823 0.6143373 -0.5908706 -0.23001765 -0.07184807 -0.1750063 0.40622663 -0.8153042 -0.23558775 0.2480416 -0.360026 -0.5456489 -0.90035963 0.6822564 -0.52604413 -0.16685972 -0.09425761 -0.76918006 0.36187682 0.9880139 0.42474586 0.28454155 -0.44262153 -0.041520692 -0.5435059 0.017783925 0.4911955 -0.071348205 -0.29593617 0.006764935 0.32705966 0.30616513 0.24745263 0.0034240473 0.524784 0.21399769 0.9931198 0.9953411 -0.07293705 -0.0051556486 0.22105329 0.042593297 0.22341704 1.0047791 -0.08929281 0.24722281 -0.25332272 0.11850163 0.24681693 -0.92517495 -0.65446526 -0.05672399 -0.028238853 -0.7130599 0.65380406 0.35516074 -0.09383439 -0.80895877 -0.5668518 1.050627 0.0060810195 -0.4573896 -0.35357037 -0.02853773 -0.06853224 0.41874343 -0.12921122 0.33340344 0.048323475 0.57670647 0.07426535 0.2741727 0.3611313 0.5378782 0.6860698 -0.04681624 -0.37794265 -0.29925972 -0.53803194 -0.29734585 -0.084136456 -0.50563675 0.29721317 -0.38080043 -0.25588185 0.25009444 0.19074842
PRKCZ -0.1827464 0.21369427 0.04398719 -0.2063793 -0.36417136 -0.081352234 0.49017727 0.020153662 0.017640078 0.48171586 0.40111664 -0.10032235 -0.26806325 0.10985623 0.14500862 0.118492834 -0.0016229996 0.13874365 -0.25610727 -0.36354253 -0.07771659 0.12780964 -0.14634496 -0.272462 0.23836903 -0.15597072 0.05084084 -0.37532875 0.25908086 -0.087482765 -0.27680445 0.1531284 -0.19898605 0.19403715 0.08343346 -0.051058114 -0.048473235 -0.31962898 -0.48975694 0.06436932 -0.11562878 0.32977945 0.028214814 0.07739094 0.0954954 0.086669356 0.08333435 0.5451608 0.3840764 -0.17022398 0.10045076 -0.18661599 -0.26130688 -0.11641279 -0.0664872 0.24767458 0.28797176 0.16191538 0.13678475 -0.22144054 -0.030931877 -0.060694125 -0.25153112 -0.04143403 -0.07323474 -0.16872497 0.12629507 -0.1016572 -0.22470997 0.0016903976 -0.4240337 -0.05085289 0.09820893 -0.27084905 -0.3177442 0.4550785 0.20563821 0.07692452 0.21597783 -0.22850272 -0.14318986 0.123004355 -0.0428968 0.2225117 -0.15963854 0.2437589 -0.06563305 -0.25586417 0.43971714 0.14867893 -0.051250987 0.2606025 -0.40459904 -0.12694575 -0.34286764 -0.053275764 0.14666197 0.08958181 0.23729831 -0.23529889
FAM213B -0.10654527 -0.10198736 0.1252433 -0.08861294 -0.19844946 0.016981037 0.14530207 -0.13922535 -0.3062115 0.16711524 -0.13801193 -0.029326165 0.05709347 -0.12756634 -0.40485027 -0.3356216 0.11444252 0.28174305 -0.43776804 -0.19234729 0.19897112 -0.07940932 0.15585534 0.3002944 0.25884685 -0.026570737 0.14407103 0.2645755 0.12978806 -0.2734631 -0.13314573 -0.035149768 -0.36170325 -0.09327211 -5.4608856e-05 -0.015360096 0.30709544 -0.20359975 -0.30482644 0.14713618 -0.29332927 0.43848002 -0.38728052 0.16176285 -0.035337295 0.036516774 -0.10137115 0.5473786 0.092546314 0.18462564 0.08555278 -0.5207532 0.0026906782 0.03058177 -0.23658615 0.49011987 0.20307119 -0.26153094 -0.06639293 -0.35982558 -0.22329296 0.23849988 -0.23472163 -0.21351929 -0.1488738 0.26302457 0.22474414 0.124838434 -0.16728528 -0.16691853 0.06968386 -0.13065061 0.36737195 0.38658604 -0.013687656 -0.0019212749 0.5201275 0.29176867 -0.06611739 0.10745778 -0.030110821 0.23251052 -0.11979181 -0.12723826 0.03922633 -0.29661596 -0.16358551 -0.0038999654 0.29400325 -0.21346255 0.0562019 0.14804931 0.04136558 0.19482718 0.0073519754 0.13009314 0.48387972 0.15620072 0.19691741 -0.4934781
TNFRSF9 0.46430933 -0.42382652 -0.3645045 -0.45308313 0.55089736 -0.15621074 0.37588885 0.11648384 -0.2187983 -0.011951177 0.36221355 0.021965291 0.29322034 0.007922103 -0.23257716 0.0036667665 0.097088724 0.5083474 -0.014585496 0.19161512 -0.21742514 -0.22388245 0.4204237 0.22511347 0.080401696 -0.15039381 0.11386254 0.24539857 -0.3926715 -0.24530526 -0.2717543 0.16049716 -0.028407177 0.11441368 0.36463133 -0.3757642 -0.36797023 0.09644668 -0.49567476 0.14000353 0.25122958 0.3239941 -0.37149695 0.21309982 -0.12597476 0.58014864 0.31218514 0.23676677 0.09024577 0.92574525 -0.10257003 -0.5056564 0.5437018 -0.05625185 -0.24813963 0.13724628 -0.0038228533 0.25067675 0.21213844 -0.19332363 -0.24011706 0.2698074 -0.5305001 -0.38072762 -0.06483499 0.27970526 0.0152103165 -0.06802491 -0.35138544 -0.52334446 -0.014500302 -0.36412185 0.45134157 -0.015977867 -0.64716285 0.24288149 -0.093211256 -0.099330105 0.22118467 -0.47840554 0.10486241 0.037281014 0.59681374 0.0678072 -0.05904231 0.10024018 -0.0054164035 0.25573367 0.45510402 -0.15911932 0.2046936 -0.47400263 -0.077621266 0.43892395 -0.33856714 -0.15855564 -0.5937059 0.47186407 0.40442017 -0.0018509191
GPR157 0.34370747 -0.47327617 -0.24883044 -0.3420402 0.10082037 -0.017443554 -0.073119245 0.19422899 -0.19419073 0.2916856 -0.13612299 0.031757493 0.07436883 0.41011578 0.36431637 -0.7404037 -0.078633316 0.5298668 -0.10283306 0.0291496 -0.3615929 -0.038738407 0.7695934 0.10588683 -0.49914998 -0.1855033 -0.7251083 0.41023752 -0.3431194 -0.07145497 -0.3119083 0.1174519 -0.27574757 0.30257177 0.12169291 0.1534748 0.2629531 0.21290971 -0.534752 0.1510403 0.44563642 -0.24317522 -0.4388985 -0.1290384 0.17074686 0.43217555 0.283859 -0.002232733 -0.096298136 0.5721346 -0.5251627 -0.24246155 0.057854164 0.052427966 0.21315265 0.5215997 1.0509655 -0.9512543 0.025433842 -0.26571792 -0.06682062 0.30586234 0.00077490835 -0.65260065 0.17322434 0.46054548 -0.09132085 -0.10005969 -0.052538402 -0.14700787 -0.08805459 -0.2942031 0.6011948 -0.055726297 -0.26196283 -0.38249862 -0.108920895 -0.14096844 0.35429445 0.92410797 0.25156736 0.23145612 0.7358056 0.029713575 0.39178908 -0.24239215 -0.05645442 0.17732385 0.24695447 0.290092 -0.071133696 -0.52556384 0.006349004 0.8306233 0.40749404 -0.14609216 0.37751654 0.4592865 0.80028826 -0.15807721
RBP7 0.12643524 0.014403267 -0.12886594 0.31197536 -0.21281977 0.15278003 0.13580748 0.4520804 -0.180488 -0.0066041774 -0.07607084 0.015050683 -0.09013726 -0.111034766 -0.15415604 0.08149715 0.337133 0.042469192 -0.59735787 0.16543144 0.31497797 0.22218473 0.49022186 -0.07796749 -0.057411745 0.34449235 -0.36765715 0.14156754 -0.341464 0.06632935 0.28657895 -0.29059678 -0.058767717 -0.60846084 0.54830533 -0.3150475 -0.53495866 -0.37189627 -0.24813728 0.22111033 -0.2627627 0.23157436 -0.22911322 -0.5574376 0.19625789 0.61791426 -0.5562569 -0.12798896 -0.1651363 -0.023549052 0.2805633 -0.8554424 0.0016604688 -0.46125993 0.1452206 -0.06715813 -0.108673275 -0.49913517 0.2504949 -0.10555967 -0.44307056 0.6217728 0.28005248 -0.25681576 0.16022687 0.14056502 0.18665573 0.18170848 0.12750989 0.08639432 0.20589158 0.045447506 -0.4509671 -0.2969679 -0.10363353 -0.1912979 0.19837496 0.025763383 0.32591763 -0.21853788 0.43603724 -0.08777433 0.40238625 0.28676242 -0.16724953 0.5324257 -0.18671913 -0.08560465 0.45292073 -0.51168483 -0.14666241 -0.16228652 0.19104382 0.46439508 -0.08803626 -0.17561115 -0.34819382 -0.21372521 -0.2505727 -0.09727515
SRM 0.80797815 -0.18870775 -0.3768691 0.005102286 0.7991269 -0.38423488 0.29613572 0.0136189815 0.12474 0.5294626 0.1717784 -0.9625642 0.704823 -0.4522472 0.072516024 -0.109707505 -0.0317532 0.18612532 0.244065 -0.12962358 -0.25385228 -0.021380285 0.53438133 -0.20433706 0.030537844 0.040356684 0.41219127 0.2939713 -0.47154176 -0.31667036 -0.08104248 0.9452477 0.8607187 -0.19872746 0.4873833 -0.6147142 -0.7328779 -0.66115695 -0.55875605 0.31603882 -0.28256804 -0.26209727 -0.093039066 -0.20966768 0.2453547 -0.48129857 0.42835405 0.2670192 0.72384614 1.1717793 0.20250174 -0.20798121 0.19027662 0.3537897 -0.32745364 -0.3887495 -0.6505922 -0.05060548 -0.6238404 -0.18210036 -0.1906383 0.9271771 -0.5398028 0.31252214 -0.15243724 -0.56558496 0.25353724 0.3085972 0.7945161 -0.30067286 -0.17784265 -0.67945564 0.28548494 0.46179798 -0.34582335 -0.47045413 -0.22812822 -0.39011136 -0.047059745 0.18631576 0.42277274 -0.1174319 0.62880814 0.5911141 0.31419036 -0.061870523 0.45907384 0.23910275 0.44216314 -0.13309872 -0.08617521 -0.8538322 0.062363204 0.629686 -1.1434939 0.7855297 -0.546238 0.024945468 -0.1897088 0.05424305
CLCN6 0.24162889 0.19541901 0.26026276 0.1649566 0.012307066 -0.010063002 -0.123117216 0.17966565 -0.11733967 -0.32543355 -0.23459446 -0.15896334 0.4248416 0.030114155 -0.64146435 -0.20236439 0.102180526 -0.043647196 -0.36468986 0.24718995 0.32313326 0.3108843 0.60897714 0.15991244 0.2568339 -0.35091084 -0.5487734 0.30578065 -0.07472335 0.064923465 0.27508435 -0.30234748 -0.45557195 -0.05273233 0.68729085 -0.32847327 -0.40406007 -0.27196717 -0.17527637 0.6158764 -0.31416532 0.18697682 0.36490726 -0.043945402 0.2598646 0.33082888 -0.03730533 -0.0152201895 -0.017608652 0.5361101 0.04150677 -0.6189927 0.17100877 -0.049418945 -0.038619045 -0.04332234 0.161009 -1.0801067 0.24615867 -0.122795545 -0.49053514 0.6721904 0.041516624 0.273109 -0.08376584 0.0639655 0.103747465 -0.25492465 0.22509094 -0.05816338 0.47249871 -0.29356942 -0.45604917 -0.07224393 -0.43215972 -0.30910778 0.15067345 0.07391471 -0.20512407 0.18571948 0.7143292 -0.058618955 0.2520196 0.29539534 -0.18614271 0.37470144 0.0059273527 -0.13892114 0.42147014 -0.2327793 0.44025072 -0.4580156 0.08947233 0.76190835 0.11186353 -0.66521215 -0.3293527 0.16099836 0.053847563 -0.5785017
RP11-169K16.9 0.14020643 -0.23346516 -0.66583985 -0.37009424 -0.089428574 0.08438706 -0.056960057 0.27622867 -0.24486664 0.64497983 0.6427962 0.22449756 -0.06635085 -0.14888571 0.05508135 0.13009708 0.37430066 0.6568833 -0.2892873 0.27699465 -0.37246412 -0.028572546 0.5722939 -0.71333086 0.37643537 0.015944509 -0.16586705 -0.48323184 -0.11656496 0.62243253 0.080832064 0.18270692 -0.0056944694 -0.28055736 0.6613763 -0.40846935 -0.57028174 -0.19878551 -0.041949004 0.29878917 -0.41452414 0.2995631 0.19859393 -0.9030271 0.1727172 -0.0038256687 0.10448164 0.15661114 0.1118809 0.041995108 0.0119080115 -0.6398865 -0.100934714 0.39044535 0.04122225 0.7966135 0.1909482 -0.42697734 -0.05080536 0.23553976 -0.18189073 0.5960508 -0.30885085 0.23129289 0.7906142 -0.65965706 -0.3156179 -0.28742534 0.23381507 0.28006226 0.24480805 -0.067969635 -0.481689 -0.73672485 0.25930676 -0.20601998 0.25121748 0.20908977 -0.22236572 0.1576164 0.27782235 -0.9697369 0.38375357 0.72284603 -0.42762852 0.15977097 -0.513949 -0.084180035 0.8358909 -0.21626581 -0.038870648 -0.29714224 -0.5265685 0.54023165 -0.3587512 -0.0564909 -0.44188282 -0.14120658 -0.5162885 -0.06640485
RCC2 0.0136495 -0.31903225 -0.03278526 -0.1400833 -0.14095137 0.6966659 0.9298186 0.24596119 -0.7202276 0.14778954 0.45792472 0.31536004 0.36769038 -0.26396674 -0.46764916 -0.2128029 -0.12454957 0.054889914 -0.10230532 -0.16980611 -0.16835587 0.006810132 0.5081237 0.16587353 -0.1987552 -0.36654973 -0.29956076 -0.16200818 -0.11891878 0.21123289 -0.10031398 0.49090657 -0.4110147 0.3713232 -0.30192286 -0.0073717157 -0.25810552 0.20105377 -0.50869644 0.35544357 0.07517158 0.36556268 0.15811382 -0.02751507 0.12832826 -0.08370874 0.37894744 0.29050815 0.16698499 0.8925215 -0.29814357 -0.56395346 -0.42406988 0.26824185 0.16738367 0.67213464 0.36472848 -0.28240016 0.36533722 -0.6192664 -0.09614752 0.26689905 -0.38424492 -0.5473765 0.15364848 0.1733037 -0.06204547 -0.42203748 0.23917271 -0.26644802 -0.25766546 -0.1183455 -0.008061162 -0.14427759 -0.40836853 0.041287847 -0.25424668 -0.40848032 -0.18672305 -0.26985273 0.1935749 -0.12207025 -0.25360402 -0.48299083 0.2975442 0.34466937 -0.31701356 -0.28070384 -0.41728666 -0.6175899 0.30280945 -0.31050095 -0.38404718 1.2725024 0.13344873 -0.23719132 0.15339652 0.04548042 0.6502782 -0.26063648
TMCO4 0.8611077 0.097933166 -0.18615769 -0.011178334 0.27291104 0.39619097 -0.022567125 0.016113436 0.13639498 -0.14559601 0.07713997 0.23846924 0.26023737 0.20232047 0.32804033 0.039811775 0.4206174 0.35719195 -0.49587312 0.008739773 -0.006609384 -0.7169891 0.7713326 0.23652317 0.033502072 0.25652805 -0.4921966 -0.27447495 0.0682304 -0.07329358 -0.23224473 -0.11777756 0.012190344 -0.40689182 0.3845954 -0.07158835 -0.22205395 -0.5545845 -0.17375106 -0.041551854 0.045966145 0.0029364629 0.039430927 -0.16524568 0.094953924 0.4608889 -0.16151981 0.07273497 -0.008184296 -0.030044043 0.23497158 -0.6330543 0.69389176 -0.055166814 -0.32670763 -0.015842993 0.15755092 -0.36063012 0.04498845 -0.33884898 -0.23141329 0.206079 0.18375802 -0.171949 0.028988529 0.29615945 0.07173122 0.098519534 0.07439645 -0.3021729 0.2312041 -0.31270862 0.10542473 0.019550743 0.32791063 -0.084191196 0.44874218 -0.37006462 -0.03628562 0.13836041 -0.1373241 0.24036755 0.5707974 0.53291774 0.2080072 -0.118512355 0.057653863 -0.35472062 0.63812095 0.07559176 0.01114872 0.009055908 0.06486777 0.45322353 -0.29451302 -0.19523124 -0.07614225 -0.1504437 -0.022283522 0.014033305
PINK1 0.20619209 -0.29716337 -0.16906367 0.1255612 -0.09865682 -0.015348712 0.35764775 0.64561576 -0.27792457 -0.3659979 0.17009978 -0.22531442 0.62912494 -0.46686888 -0.032900523 -0.28546157 0.24034436 0.1917024 -0.7210963 -0.10016322 0.08083236 -0.20657624 0.22878 0.57227826 -0.11519832 0.042154886 -0.16620524 -0.007205276 -0.20921074 0.261375 0.052651297 0.15105143 -0.32521755 -0.4880501 0.1281164 -0.35369363 -0.15120105 -0.22267765 0.28406715 -0.026987119 -0.4437614 0.46855432 0.37259945 -0.09784466 0.18531822 0.40668133 -0.16929488 0.3867771 -0.019972475 -0.21059223 -0.21519005 -0.47824952 -0.21073975 0.21772675 -0.029723506 0.49267143 0.1686999 -0.0057794545 0.24064176 -0.41598225 -0.2592098 0.32312152 -0.46492314 0.15131602 0.61267513 0.22668903 -0.5074109 -0.012142716 0.051152248 -0.4405744 0.025000518 -0.29120728 -0.29866728 -0.3463607 -0.25783098 -0.055861324 0.509397 0.25644892 0.15202224 0.04400559 0.090847544 0.08548137 0.33448642 -0.0626473 -0.33121824 0.8579188 0.30749848 0.067668036 0.02750564 -0.28073138 0.37856257 0.28344408 0.15370116 0.2455474 0.1413357 0.0030818726 0.24617893 -0.18061186 -0.07192619 0.2260024
C1QA 0.47815353 -0.53900915 -0.19198331 -0.18520492 0.5574313 -0.4143569 -0.015885822 0.22898875 0.03948294 -0.24108589 0.3630877 0.12201382 -0.281525 -0.24316816 -0.05233905 -0.4953956 -0.29024518 0.71656215 -0.19698158 0.2398036 0.38731828 -0.4862261 -0.3032929 -0.15054423 -0.29548737 -0.7344902 0.52969396 -0.077737495 0.46985024 -0.056977306 0.21347207 -0.129325 0.4487344 0.118330784 -0.2814087 -0.65570015 -1.0259316 -0.23477413 -0.51489544 0.39810067 0.16461259 0.063757956 0.037094153 -0.49129736 -0.6764304 0.95288604 -0.028028855 0.056441393 0.43785813 0.45024553 0.48623306 -0.7306978 1.1328089 0.5687369 -0.40801734 1.4383594 -0.18997923 -0.5225338 0.8729138 -0.57859707 -0.30981448 0.2661497 0.19675937 0.5832628 0.36812562 -0.48725653 0.3531953 0.66391087 -0.68382645 -0.41698402 -0.4399183 -1.0546077 -0.1563975 -0.105136745 0.45467445 -0.17070186 0.2712586 0.19458424 0.14291257 0.17067352 -0.4140991 -0.15202637 0.8606519 0.6980391 -0.37189123 0.17308404 -0.19802606 0.01163276 -0.76080656 0.034278855 0.39081627 0.10177448 0.11161388 0.19593784 0.4653315 0.0980735 0.5830352 -0.011231169 -0.3175027 -0.119811036
C1QC 0.7859586 -0.013755277 -0.3998524 -0.08243833 0.39923638 0.42401662 -0.04735534 0.040301524 0.026538905 0.18518876 0.39269656 0.39157844 -0.21843044 -0.3860994 -0.104359455 -0.46656185 -0.35451892 0.22853862 -0.180719 0.4797937 0.5575416 -0.2497217 0.610227 -0.07375969 -0.5066483 -0.14210379 0.02960754 -0.3306758 0.96739405 0.2693332 -0.08478941 0.14827372 -0.20688385 -0.25830624 0.05853834 -0.03845729 -0.8857526 -0.10296327 -0.26553172 0.95879734 -0.35994467 0.15112676 0.09181501 -0.12132933 -0.45139876 0.3873122 -0.5409205 -0.32551497 0.012656204 -0.031228736 0.4048859 -0.9867601 0.8297071 -0.02536883 -0.13894784 0.24795927 0.21663746 -0.73071265 0.4605094 -0.82428885 -0.07144338 0.20268233 0.54786634 0.077375606 0.34093258 -0.16627645 0.91438127 0.6267869 -0.31407544 -0.25039706 -0.21605498 -0.2886841 -0.13467287 -0.47732314 0.52798563 -0.19729735 0.15555258 0.013488737 -0.21912622 0.26032302 0.008772274 -0.005468675 0.5926846 0.27219358 -0.18223467 0.31073534 -0.40122047 0.24596913 -0.28021953 0.5647409 -0.3335988 0.29333767 0.013474845 0.6495124 0.18113093 -0.025797175 0.68580997 0.33781797 -0.52885133 -0.40234974
C1QB 0.8560046 -0.6261315 -0.553269 -0.40942773 0.3353256 -0.11609575 0.07460228 0.27041763 0.44784364 0.0073452727 0.47208208 0.08506752 0.18791157 -0.41325447 -0.26136747 -0.52200836 0.13363978 0.3160315 -0.7979671 0.30512246 0.83154595 -0.065915726 0.23985033 0.09918006 -0.6767155 -0.6076593 0.4783941 -1.0154424 1.302127 0.42199606 -0.16872536 -0.038401272 0.64949816 0.2181043 0.27344564 -0.17011414 -0.967801 0.15623805 -1.0958406 0.18114437 0.38539767 -0.1935406 0.08226231 0.054630414 -0.45423982 0.43301222 -0.39400586 -0.20172007 -0.09478607 0.26977867 0.16848692 -1.1524161 0.8413794 0.4785565 -0.32398129 0.7761765 0.085919924 -1.0955653 0.87149495 -0.7838144 0.025765842 0.36124948 -0.13515146 0.30674705 0.28057817 -0.17891999 0.75277686 0.8341212 -0.6187859 -0.09734415 -0.65195787 -0.20871525 -0.6400794 -0.22541782 0.35619417 -0.17736945 0.5787445 0.052428782 0.07996622 0.17584334 -0.53189903 -0.41707483 0.2922515 0.74616176 -0.19163287 0.676357 -0.0970247 -0.4809791 -0.5598371 0.61203146 -0.038016107 -0.04716425 -0.34448275 0.5386934 0.5106424 -0.570254 1.1345794 0.3930024 -0.1614437 -0.5350248
TCEA3 0.22061877 0.104068644 -0.12096261 -0.13375352 -0.3791562 0.29616055 0.04014444 0.36451784 -0.3762088 0.07866928 -0.29141492 -0.20481971 -0.37006027 0.109632656 0.10931108 -0.074364744 -0.14206849 0.23221388 -0.30569422 -0.020638779 -0.10473083 -0.14747116 -0.1621694 0.07391242 0.13751435 0.23307614 -0.19630378 -0.27930632 -0.06570304 0.031443033 -0.2509577 0.20556161 -0.17905171 0.06272222 0.13198477 -0.02205053 -0.0902381 -0.5069129 -0.080581345 0.14139882 -0.10250248 0.23771332 0.0172101 -0.07385049 -0.07663778 -0.23471394 -0.1835229 0.14795622 0.08735495 0.043122843 0.20359005 -0.4069993 -0.1727353 0.016428234 0.039587185 -0.16943842 0.0928392 -0.08108323 0.21460836 -0.5022405 -0.063837446 -0.17662366 0.18391617 0.028439054 -0.052061263 -0.14143972 0.17183992 0.17691869 0.105963804 -0.31552827 0.02724475 -0.051709488 0.22678524 -0.36151353 0.09368581 0.2801518 0.224564 0.20550841 0.020461105 -0.08376972 0.06447233 0.21683928 0.31078687 0.07587233 -0.32027668 -0.08502927 0.2526698 0.05125162 0.13321678 0.33544895 -0.009908775 0.11563808 -0.24237289 0.2381672 -0.10034901 0.1425009 0.32775187 0.30700752 0.23716639 -0.123459265
ID3 0.6472463 -0.49104533 -0.20539771 0.036285166 0.3030266 -0.4779897 -0.15699348 -0.11686035 0.18422164 0.68874526 0.89100516 -0.32215983 0.38755402 -0.69743353 0.48985964 -0.69994116 -0.42612046 -0.97156733 0.29565465 0.6148902 0.5235728 -0.11202989 0.38945246 0.5118576 -0.18263985 -0.44549477 -0.6270294 0.19506185 0.043788206 -0.45287007 -0.23632355 0.04892842 0.86682177 -0.20823158 0.50217277 -0.19010127 -1.1198326 -0.53603995 -0.83672607 -0.36758193 -0.20709805 -0.18933395 -0.6092875 -0.6375836 0.4592871 -0.20779452 -0.014921662 0.039021906 -0.11131609 -0.43060145 0.4555677 -1.0821114 -0.7635518 -0.015220996 0.2958067 -0.07864285 -1.3922439 -0.099391565 -0.3239129 -0.87707937 -0.50392514 1.3694499 -0.71430665 -0.27458298 -0.020787388 -0.33954495 0.8628382 0.27503556 -0.39590728 0.37279117 0.22927985 -0.054431498 0.9124459 0.21116547 -0.31874132 -1.0108185 -0.050976552 0.1666053 -0.23138961 0.7254262 -0.048417967 0.25936595 0.12588038 0.25719577 -0.7048659 1.141736 1.6327797 0.04154708 -0.3432281 -0.39542022 -0.52665615 0.05743086 0.0976294 0.5128353 -0.7167946 -0.008691504 -1.0524223 0.31178936 1.0155203 0.10475428
FUCA1 0.7447408 -0.49229294 -0.6659558 0.13373615 0.29933664 0.54481655 0.04614355 0.8297749 -0.19261901 0.38157597 1.0501077 -0.60947293 0.03282675 0.22966091 0.3233907 -0.25451854 0.38507968 -0.007742137 0.04636001 0.637884 0.28300607 -0.73877275 -0.77841663 -0.013402189 0.74644583 -0.6176942 0.08833235 -0.6905141 0.19666855 0.37117988 -0.952084 -0.38386086 0.40247265 0.41863883 0.465003 -0.4308387 -0.9280771 -0.6724251 -0.07909203 0.6992647 0.38655376 0.044581186 0.23019417 -0.39591438 -0.31758884 -0.13372007 0.3187171 0.030830631 0.0625134 -0.058110155 0.67089427 -0.5739057 -0.05212502 -0.20166682 -0.58984643 0.11112214 0.0648026 -0.1469489 0.21617721 -0.39786905 -0.3227437 0.029028386 -0.47513175 0.5985793 0.7862423 0.18858919 -0.16743566 -0.047407974 -0.67122555 -0.26259542 0.5367432 0.10719521 0.23300648 -0.6024242 -0.021092007 -0.631857 -0.5487855 -0.47027317 0.7216804 0.6585246 0.3434338 -0.61458266 -0.025243536 0.9546134 -0.32872474 0.7884794 0.7112542 0.53867346 -0.12804952 -0.482175 -0.47144532 -0.1551632 -0.3784183 0.111941814 -0.8623405 -0.8763523 -0.79109275 -0.0711238 -0.1451136 0.102366306
STMN1 0.25929764 -0.58535284 -0.99113464 -0.59957415 -0.016416205 -0.2728831 0.597846 -0.41618237 -0.28708246 0.26558328 0.48640382 -0.6993054 0.3293387 -0.45907575 0.7727085 -0.031338852 0.017078437 0.26483896 -0.029277086 0.03430811 -0.17861599 -0.5988313 0.72275126 -0.6205502 -0.62357223 -0.3862299 0.48745853 -0.09122982 -0.25259426 -0.063127294 -0.7285885 0.4948808 0.57211673 -0.078038245 0.44361937 -0.67495584 0.045700286 -0.09029008 -0.26402068 0.5942896 -0.19870612 -0.38570613 0.03625778 -0.09041651 0.55912715 -0.14251147 0.22379866 0.32995838 0.080604285 -0.010997041 0.3291649 -0.58829963 -0.11660047 -0.50273186 -0.10216377 0.5071172 0.28871846 -0.50841874 -0.27969056 0.33956856 -0.4805787 0.4404167 -1.218432 0.7037967 0.28277707 -0.3745547 -0.7938394 0.44052145 0.32425216 -0.78498346 -0.94230074 -0.25215763 0.60231125 -0.45035198 0.19039844 -0.64825225 -0.51076907 -0.17477125 0.002287429 0.76985145 -0.20321234 -0.8371905 0.26349157 -0.23493715 -0.3015594 0.11648581 0.86722267 0.16336897 -0.10802813 -0.025326751 -0.20542996 -0.5067778 0.014721729 0.048117198 -0.21143678 0.1797696 -0.9210991 0.0151682 0.48255017 0.3073721
SNHG12 -0.029224329 -0.040111884 -0.41814408 -0.85370904 0.19354564 -0.28481367 0.36943585 -0.048335325 -1.0394154 0.015176698 0.26559395 0.487402 0.019846858 0.46258706 0.114208676 0.24866112 -0.18899743 0.41305494 -0.22547662 0.22637543 0.08884101 0.5025197 0.22304696 -0.14532822 -0.37794647 -0.4001064 -0.0768677 -0.009145055 -0.08516831 -0.11918061 0.34129643 0.34318438 0.3850636 0.30970085 0.11547993 -0.17570269 -0.30772984 -0.3553566 0.031748645 0.28510156 -0.26517314 0.5732992 -0.473335 -0.17785451 0.24364534 -0.049140733 0.24180661 0.44103152 -0.40758446 -0.11106609 0.051726386 0.09648587 -0.54999083 -0.6818273 -0.036688656 -0.27998325 0.19781771 0.22580487 0.23720053 0.35092187 -0.056954406 0.851248 -0.117232166 0.32311448 0.69148064 -0.02949982 0.2071716 -0.2725293 0.010090026 -0.21307558 -0.38361925 -0.33440802 0.10170228 -0.65469015 0.3700429 -0.2779317 -0.5410224 -0.35954297 -0.4151458 -0.00971125 0.5904623 -0.6413797 -0.079403386 0.41149056 -0.22457157 0.09003594 -0.08679686 -0.31103432 0.5742863 0.098551 0.23326118 -0.580644 -0.10149456 0.64064527 -0.15280648 0.27878964 -0.85775346 0.7693246 0.92017686 0.4424408
MARCKSL1 1.0673989 -0.7760425 -0.1687383 -0.2829976 -0.5289026 0.30903134 -0.31477386 0.78603834 0.19899002 0.60939187 0.5434452 -0.22859627 -0.17381175 -0.5658885 -0.24730855 -1.3229567 -0.19937134 1.3508811 -0.26429185 -0.06915665 0.49062705 0.10499968 0.6871588 0.5904037 -0.18455575 -1.2072892 0.44561777 -0.0996089 -1.0700244 1.0851101 -0.27345958 1.0246716 0.8541336 1.0933125 1.0353878 0.5419221 -0.56373 0.4509885 0.08877437 0.90081847 -0.42346916 0.2936207 -1.7285702 -0.6851777 0.253172 0.49739614 -0.30336493 0.29120022 -1.206314 0.10187526 0.61755836 -0.47907534 0.13142444 -0.07537292 -0.8055801 -0.8533756 -0.25111708 -1.0883372 0.95831496 -1.0034356 -0.09893372 -0.45667273 -0.25980824 -0.5628363 0.87941957 0.8984381 0.08732069 0.45748964 0.028516795 0.8985815 0.3550897 -0.3574357 0.649773 -0.0772739 0.90190625 -0.55848026 -0.36816296 0.6425796 -1.1586801 0.07728937 -0.37583026 0.12791978 -0.6855309 1.4605448 -0.6601887 0.34636903 0.8753282 0.8531907 -0.079980984 -0.366387 -0.1242378 -1.171947 0.08225065 -0.8626931 -0.7178057 -0.46473953 -0.2332299 -0.69018805 0.64430976 -0.6032241
S100PBP -0.012154639 -0.096458934 -0.24905287 -0.29635382 0.21753938 -0.4502445 1.1758518 0.40045878 -0.16810204 0.028200815 0.45717603 0.08329062 -0.3192661 -0.13652554 -0.37248337 -0.0041358755 -0.34098008 0.8030852 -0.21468614 -0.43021575 -0.10119673 -0.7044449 0.58093315 0.11472853 4.77148e-05 -0.51867574 -0.2279683 -0.10416554 0.80001396 0.029683365 -0.15858106 0.33730438 0.58963746 0.44247183 0.118804514 0.23152608 0.4589701 -0.01437111 -0.101064436 0.3849519 -0.1196595 0.32253116 0.18719114 0.37877482 0.42069027 0.9078732 0.41042832 0.45627612 -0.013880942 -0.0854735 0.25023976 -0.6345655 -0.63703305 -0.24364537 -0.05076507 -0.14481476 0.27925438 0.3571894 0.1706267 -0.10038857 -0.2687634 0.18915248 -0.17729875 0.43389142 0.030502036 0.16084841 0.06685247 -0.5897035 -0.2710613 -0.097913325 -0.2811347 -0.24886674 0.55540395 -0.09595197 -0.61569184 0.7855826 0.2326202 -0.42759997 -0.35952803 -0.28935546 -0.038961675 0.32644045 0.15687183 -0.22860453 0.12076931 -0.31786537 -0.12691297 -0.17304607 0.015639048 0.50622195 0.81584424 0.13313669 -0.53371024 0.32978904 -0.636323 -0.028680215 0.019185299 0.1849028 0.032178815 -0.049742397
TRIM62 0.42636895 -0.02720213 0.02089811 0.0054219738 -0.22249153 -0.03908655 0.017743561 -0.07647732 -0.049843702 -0.038496185 -0.09247325 -0.19023965 0.032775186 -0.11356828 0.17906427 -0.5205773 0.12049992 0.3281606 -0.60554063 0.17852956 0.24113975 -0.059350666 0.08606408 -0.08524607 0.44836354 -0.24779886 -0.17747818 -0.035178676 -0.08021559 0.045343187 -0.26455924 -0.27478513 -0.46818006 0.18849735 0.5267185 0.50107557 -0.22508128 -0.3685859 0.22008285 -0.44893906 -0.27522385 0.08761485 -0.056002308 -0.18802643 0.016727896 0.27883774 -0.32937694 0.14621006 -0.2617262 0.10076813 0.01727165 -0.49897668 0.1973462 -0.009442745 0.26447102 0.20851587 0.32708496 -0.45961875 0.2016178 0.11127537 -0.6884913 0.20780987 -0.0912387 -0.2935315 0.4752829 0.39405122 -0.44068286 0.5799369 0.2769996 -0.12325193 -0.0789102 -0.12909481 -0.5195272 -0.076328434 -0.32166114 0.102233365 0.34055734 0.074444786 0.07031815 0.13191372 0.34018797 0.17252411 0.32993478 0.13314857 -0.14808175 0.2463119 0.05814425 -0.14529452 -0.07533496 0.5793432 0.14377269 -0.15841277 0.08018246 0.5722636 -0.19766262 -0.102184884 -0.16505153 0.3848388 -0.056277484 0.2407803
ZMYM1 0.6950758 -0.17345075 -0.117126055 -0.03833243 -0.4772416 0.08647609 0.1614113 0.5094795 -0.058241688 0.012227477 0.24371244 0.19588895 0.36904696 -0.24939549 0.1022071 -0.45609677 0.08444505 0.2056206 -0.20938985 -0.19083734 -0.29334152 -0.3080049 0.19836372 0.08234424 0.24230179 0.27269962 -0.11192881 0.1023508 0.19940121 0.57091707 0.13643725 0.1897424 -0.15067273 -0.042842615 0.40463987 0.23687671 -0.27110106 -0.38779026 -0.47692463 0.13230926 -0.26333484 0.18879804 -0.06387482 -0.45609644 0.3194983 0.0766664 -0.15396625 -0.34128597 0.4443614 0.15991406 -0.005132098 -0.86844164 -0.24205226 0.12530333 0.2992948 0.06052503 0.050674517 -0.9107737 0.18898927 0.1322954 0.040133756 0.331739 0.20739019 0.10664004 0.20517464 0.4310823 0.21705848 0.30510497 0.3180152 -0.18427935 0.27567753 -0.020830084 -0.58224857 -0.37421793 0.012354525 -0.29730782 0.03751039 -0.1616448 -0.042658355 0.65415096 0.22428949 0.06709848 0.7189457 -0.13877098 0.31574973 -0.11856771 0.07564269 0.19154137 0.16766615 0.011201021 0.26574272 0.019666312 -0.09534114 0.56498647 0.24358732 0.18382546 0.43244812 0.24537866 -0.274768 -0.314012
ZMYM4 0.2345982 0.68226653 -0.5460593 -0.21598227 0.0022428883 0.020184763 0.33589366 0.12834288 0.5760357 -0.37035355 0.18155563 0.50565773 0.47023863 0.026252411 -0.5781361 -0.3487403 0.51100564 0.57713383 -0.15420769 0.16973367 -0.8440629 -0.050765038 0.615544 0.7860173 -0.09189747 -0.29156026 -0.4501514 -0.049209647 -0.56454676 0.20239004 -0.5697965 -0.04615311 -0.4161739 0.043995164 -0.11086382 -0.08925621 -1.0881505 -0.8447252 -0.08054834 -0.094130315 -0.1787797 0.44793394 -0.02933888 -0.20886207 -0.7506815 0.24750066 0.16623996 0.55552757 -0.1900095 0.33225858 0.032433968 -0.12239418 0.51642734 0.10270935 -0.16657318 0.26480067 0.5744321 -0.27255574 -0.25022128 0.009308963 -0.2909097 0.46928844 -0.26779714 0.06568427 0.76193994 0.0019237188 -0.6486344 -0.35778418 -0.30591416 -0.0046141823 -0.023513 -0.33357385 -0.09831576 0.12003856 -0.39602074 -0.123409055 -0.19527 0.4285619 -0.01086596 0.4184729 0.5600851 -0.20206702 0.3651156 -0.025583796 0.04292865 0.3762329 0.32703376 -0.7151103 -0.27917176 -0.3960579 -0.21427386 -0.26341316 -0.049165767 0.6316661 -0.30719727 -0.6576822 -0.06289384 0.292844 0.47494164 0.13066246
CCDC30 -0.17326315 0.14478472 -0.16305065 0.09100169 -0.44238946 0.025329644 0.21039315 0.3793552 0.03935437 0.2742677 0.18214713 0.16966897 -0.23921803 0.052388325 -0.49213737 0.047264695 -0.16776283 -0.23893945 -0.19618905 -0.58167523 0.13314821 0.073257625 0.27922213 0.052719906 -0.22635488 -0.4509631 0.09421851 -0.30213168 0.30804262 0.02165621 -0.23939009 0.5360281 -0.50423115 0.040996782 0.1176413 -0.08478641 0.021457126 -0.30698586 -0.15853652 0.16199566 -0.28130853 0.45030087 0.37768757 0.25327027 0.1319014 0.07274228 0.16455437 0.13020866 0.48374128 0.21086043 -0.1352922 0.14204091 -0.17366424 -0.3971654 -0.020445455 0.3395576 0.09677703 -0.09357057 0.342552 -0.2471143 -0.118998095 -0.13366903 0.22377981 0.16082312 -0.2342852 0.29575336 0.18812804 0.19549872 -0.25865772 -0.2652282 -0.3420219 -0.13218862 0.42529866 -0.09945609 -0.12390553 0.21042693 -0.04508054 -0.0067276824 -0.10422503 0.061355118 0.052042406 0.30161172 -0.11240771 0.060040034 -0.15604882 -0.28143156 0.028258286 -0.3620312 0.37409228 -0.027703516 -0.2642301 0.22975864 -0.44439372 0.11537554 0.003843074 0.12451191 0.055666402 0.117656134 0.071466856 -0.10604395
ERMAP 0.46617374 -0.09846405 0.16874348 -0.3467266 0.11633223 0.25630498 0.31221315 0.31554675 -0.38468418 0.043123312 -0.15496837 -0.08950224 -0.06377429 0.1159198 -0.23701838 0.023404779 0.114395075 0.51630074 -0.38090578 -0.32554045 -0.1159629 -0.36032218 0.073370785 0.08840161 0.5109233 0.028152259 -0.59169227 -0.011759112 -0.26324537 0.45057666 0.12684202 0.11190559 -0.14742316 -0.23947448 0.12282642 -0.23642172 -0.12116496 -0.32131636 0.071027055 -0.10973378 -0.17898676 0.19362246 -0.045311436 -0.004985295 -0.13423015 -0.055668477 0.011216376 0.20380977 0.27737662 0.33210737 0.093708806 -0.6103116 -0.1294231 0.35814437 0.019143114 0.09943364 0.04675812 -0.2490236 -0.05312868 -0.377587 -0.18787631 -0.019053636 0.07616155 0.33691138 -0.08660836 0.37762922 0.023545492 0.20020914 0.12401082 -0.11281153 0.28931677 -0.37384227 -0.09961976 -0.1210156 -0.20746638 -0.0125496 0.15568514 -0.04666026 0.3180482 0.29390988 0.2893109 0.29022732 0.26691508 -0.14799586 -0.052642204 -0.31748223 0.2559039 -0.2970315 0.2453112 -0.105041206 0.5101229 -0.2356859 0.03337988 0.23188795 -0.098241076 -0.32641387 0.021898078 0.26673257 0.005171455 -0.21017021
CDC20 -0.18350996 -0.2759486 0.08578877 -0.69237816 -0.3911937 0.06560349 0.0063521895 0.19449079 -0.16959323 0.4350175 0.3975346 -0.19143024 -0.13863903 0.4602211 0.13071686 -0.35774946 -0.26886466 0.30906805 -0.25560087 -0.54406214 0.31603372 -0.53084624 -0.04623252 -0.17925294 0.008063947 0.18212576 0.15474947 0.043386977 -0.066045284 -0.04752581 0.0089956345 0.34745935 -0.30001554 0.035145592 -0.054495748 0.2884022 0.54381627 0.44002342 -0.55570316 0.16070765 -0.03248198 0.69712263 0.0027630574 0.017339794 -0.1070505 0.4421061 0.15054739 -0.05219601 0.14721763 -0.22606997 -0.35061637 -0.49031356 -0.6882284 0.07168963 -0.33474168 0.24898984 0.11539042 -0.116091624 0.05309226 -0.85421413 0.12683198 -0.03989848 -0.18316118 0.16311999 -0.00052855077 -0.2485882 0.34495163 0.20382385 -0.20828462 -0.28740552 -0.48662722 0.09182153 0.30896446 -0.25691462 -0.21592493 0.13731165 0.5540858 0.17046833 -0.020392103 0.23066397 -0.2751935 0.20717597 0.09539694 0.019800859 -0.35453278 0.32873356 0.16081214 0.19799222 0.5103642 0.34712428 0.22405268 -0.025177397 -0.05892664 -0.45523772 0.08135691 -0.53064513 0.22048318 0.24801484 0.26462144 -0.2826694
TMEM53 -0.36132208 0.1956305 0.18532516 0.18558297 -0.14409453 -0.09000756 0.34183797 0.39132684 -0.5836294 0.48877412 0.06832542 0.132115 -0.12699246 0.31710064 -0.28726733 -0.2636775 0.040988944 -0.06575955 0.07580045 -0.43469718 0.23054326 0.37583774 -0.24928777 -0.1407003 0.26064613 -0.112137556 0.3340668 0.17819758 0.02929921 -0.10635332 0.082504876 0.4939385 -0.33178023 -0.17827336 -0.09904749 -0.27870804 0.06578075 -0.49915496 -0.23761114 0.3781024 -0.2643649 0.25825915 0.39274895 0.037661657 0.4463756 0.6091281 0.09666837 0.38340744 0.21596405 0.1845116 0.37461802 -0.040889755 -0.5127885 -0.019848095 0.20200229 -0.20015974 0.35039252 -0.015081497 0.47027847 -0.6983046 0.2207864 0.29805052 0.24130203 -0.061693333 -0.1542148 -0.21969122 0.3547191 -0.15071733 -0.08406697 -0.19680628 -0.057965677 -0.20836157 0.17979227 -0.32294887 -0.2063285 0.24518856 0.3019166 -0.29399976 0.09718007 -0.03574432 0.38397983 0.08259402 0.1614092 0.24435815 -0.2834747 0.027180117 -0.06756077 -0.22173831 0.47606498 -0.31906223 0.06407126 0.36628065 0.017301042 0.19543399 -0.079397194 0.11998251 0.118600756 -0.2966447 0.17006838 0.41897136
PDZK1IP1 -0.019149255 -0.054024808 -0.14052463 0.20219627 -0.20143671 0.14634801 0.25925714 0.3870705 -0.40256366 0.19466937 0.08116784 0.117939614 -0.1277127 -0.12588732 -0.24348742 -0.35107896 0.08966365 -0.19137801 -0.14832377 -0.32197416 -0.024632117 0.1568596 0.11220689 -0.01275544 0.0019910985 -0.044472717 -0.07023888 0.20028627 0.22912553 0.20039214 0.17416564 0.29095906 0.11761789 -0.0790476 -0.45178887 -0.20256129 0.037265584 -0.0026631288 -0.28895745 0.36552057 -0.60467476 0.2938453 0.017544514 -0.14224283 0.31483018 0.07659211 0.016551696 0.22656147 0.061298132 -0.1693658 0.24323094 -0.23150283 -0.67395854 0.0007821112 0.15977617 -0.08630108 0.27406684 -0.05105679 0.2970602 -0.6048391 0.067412905 -0.043943103 0.38984773 0.026123084 -0.11510471 0.016009621 0.38037583 -0.047784198 0.2461757 -0.10535517 0.09009999 0.09078415 -0.006380021 -0.33245897 -0.1688636 -0.087509215 0.21897039 -0.26237258 0.19142458 0.15449521 0.12932852 0.17822742 -0.13925928 -0.17801778 -0.059426133 -0.12546155 -0.017971838 -0.1385434 0.17459904 -0.13570622 0.09445451 0.43108338 0.017423864 0.30718312 0.18960798 0.24957292 0.19752958 0.03075406 0.17289889 -0.23111404
KTI12 0.16703416 0.06869802 -0.7926919 -0.39187163 -0.006751866 0.25554925 -0.38064536 0.21521217 -0.1505966 -0.30248973 0.38541755 0.07172881 -0.549223 0.037272673 0.13406494 -0.30337062 -0.0006156656 0.0811245 -0.10533305 -0.14547639 -0.27059177 -0.30886024 0.091669105 0.2617776 0.5071487 0.11926285 0.1353607 0.6601479 -0.364011 0.17921352 -0.52349526 -0.11058844 -0.65156305 -0.20832074 0.69664997 0.26701483 -1.3691951 0.080188945 -0.5279293 0.58592325 -0.5404224 0.12968247 -0.11980223 -0.390562 0.033949666 -0.07392398 -0.05345445 -0.0357236 0.13578393 0.5429372 0.5417592 -0.85405207 0.16030446 -0.0638202 0.6666026 0.5806419 -0.055067077 -0.69172525 0.0767076 0.1242215 0.1890386 0.633909 -0.2540784 0.24620003 -0.0068617007 -0.23604327 0.031598892 -0.14201255 0.14018238 -0.4571294 0.07628043 -0.12881415 -0.26762587 -0.3909882 -0.3753626 -0.16492087 -0.015715687 0.058948003 0.22039889 0.5929419 0.38488767 -0.47681868 0.22567204 0.024617035 0.078171656 0.39083174 0.22888066 -0.024314534 -0.0059885653 0.071456924 0.079112954 -0.7049426 -0.1474651 0.6536254 -0.08501245 0.1340211 -0.35839725 -0.3941648 0.1895977 -0.23466632
ZFYVE9 -0.32049358 0.15403008 0.1344702 0.27313188 0.16750363 -0.2263454 -0.10120271 -0.2294276 -0.530689 0.10786922 0.23396982 0.30192694 -0.23904899 0.20382388 -0.10308931 -0.16003992 -0.24205348 -0.11793515 -0.15373415 -0.14753997 0.38093427 0.33588916 -0.15384457 -0.015839394 0.26765725 -0.21573779 -0.031390943 0.07769201 0.22877726 -0.30909774 -0.20612483 0.3684088 -0.41474503 0.25584412 -0.3771542 0.025777606 -0.22845331 0.0025236537 -0.15519659 0.28185827 -0.6159819 0.14004749 -0.19899805 0.09015785 0.564891 -0.14568807 -0.4519002 -0.011382166 0.433979 0.12729898 0.3100309 -0.23072185 0.011530685 -0.38340434 -0.08354164 -0.16918343 0.2914953 0.08000057 0.07055713 -0.35837606 0.2599708 0.12711447 0.40294722 -0.28515774 0.40007666 0.34326404 0.23619024 -0.31759122 0.048223924 -0.39045867 -0.3251915 -0.13403566 0.034417477 -0.034271933 -0.2717251 0.3509886 0.19641985 -0.259785 0.18447335 0.2065068 -0.026212508 0.19895992 -0.16178775 -0.22910838 0.14475 0.10168901 -0.032896347 0.14716943 -0.090727456 0.2009161 -0.18413812 0.5314364 0.18237036 0.10390788 -0.076102875 -1.430366e-05 0.25464 -0.0973808 0.09901028 -0.21814975
RP11-117D22.2 -0.19906346 0.21552673 0.19700973 -0.14738148 -0.34730664 0.24314946 -0.32300526 -0.24002624 -0.16696803 0.28995374 0.024331737 0.25526464 -0.44447836 0.13989653 -0.1368345 -0.0006279801 -0.079849966 0.02699546 -0.10488438 0.063131474 -0.20426866 0.072605394 0.5967311 -0.044945434 0.0693006 -0.37585938 -0.12595911 -0.09060598 0.54559433 0.12271931 -0.19085278 0.3467093 -0.41016945 0.013339727 0.4731935 0.02277599 0.25287443 -0.31628218 -0.48015788 0.11265547 -0.25301957 0.20971218 -0.21514578 -0.092822455 0.09660843 0.030825265 0.18683386 0.033050746 0.050532404 -0.54259586 0.21694882 -0.1312546 -0.26919508 -0.015210545 0.08358586 -0.09540917 0.6157506 -0.30292246 -0.32426807 -0.037300307 0.079046324 0.23116426 0.16809036 0.22982833 0.4071567 0.037900396 -0.024304673 0.16321589 -0.05976171 0.111787796 0.02643186 -0.28799874 0.37463406 -0.09695203 -0.05186601 0.5302743 -0.28280485 -0.22550017 0.03258883 0.15226218 -0.021718107 -0.06197708 0.54906255 0.2764883 -0.24197297 0.16236103 0.40328506 -0.21183379 0.36494586 0.125568 -0.28776047 0.20180498 0.12985726 0.5534059 0.03098064 -0.17140433 -0.36877087 0.43411854 0.426305 -0.103638984
JUN 1.1955688 -0.15045638 -0.6163311 -0.2744025 0.109764844 0.48644146 -0.42477682 -0.37274843 -0.01379369 0.28534052 0.37922618 -0.3615942 0.05058057 -0.03277547 0.30369696 -0.9040579 -0.23972833 0.23059693 0.10007158 -0.15928206 0.316783 -0.35630435 0.5208541 0.7477888 0.12586653 -0.40774593 -0.1286753 0.17759329 0.29237548 -0.038935006 -0.8277804 0.05258557 0.21030281 0.31574658 0.81064856 -0.75886506 -1.3286974 -0.6235947 0.055752497 -0.19847313 -0.18452547 -0.15555523 0.21085005 -0.00031532097 0.27928653 -0.15106793 -0.019677073 0.7210399 -0.7776449 -0.43807894 0.7021415 0.123833425 0.22063592 -0.6521385 0.20068409 -0.442763 -0.46487495 0.43511117 -0.14601034 -0.005057174 -0.35915104 1.2109827 -0.6949338 -0.056655716 0.51808333 -0.2042637 -0.19768195 0.5100061 0.067883015 -0.2959896 0.4724151 0.031509306 0.29112494 0.075824685 0.08259288 -0.7806614 -0.43346852 -0.18671815 -0.20668209 0.690497 0.71629006 -0.8131116 -0.78217536 0.5301115 0.53924525 0.5025574 0.6803666 -0.63808876 -0.36825386 -0.59125537 -0.42363507 -0.584594 -0.24853307 0.16892256 -0.24261783 -0.22549689 -0.47995415 0.40636128 1.0840324 -0.67556566
L1TD1 0.6655536 -0.104554564 -0.4561815 -0.040738616 0.2956483 -0.12026822 -0.05601787 0.07528236 -0.41565636 0.421485 0.61152023 0.4407273 -0.032639597 -0.09038896 0.37988937 -0.171259 0.24226755 0.17106289 -0.16013542 0.09445225 0.2775252 -0.3732141 0.32226026 -0.42779705 0.24778642 0.076285824 0.045051306 0.08389816 0.3138518 -0.36182973 -0.10392124 0.4388508 -0.13566323 -0.3238492 0.4315039 0.06019519 -0.2614034 0.2139323 -0.029069483 0.26743704 -0.46358365 0.024873393 -0.09693976 -0.40809286 0.34179354 -0.011791276 -0.1319121 -0.4686613 0.01703957 0.0010591173 0.18860433 -0.3094551 -0.7186103 0.5492734 0.205949 -0.010451155 0.020740239 -0.8789728 0.09500204 -0.12844025 0.27248695 0.32764897 0.2769795 0.06181908 0.57098055 0.15370095 0.19110233 0.4746413 -0.19062302 0.17171755 0.23031877 -0.10830619 -0.5024971 -0.03703209 -0.054560762 0.04410578 0.27035317 0.011994939 0.28597572 0.46834433 -0.122506656 0.2040069 0.37563214 -0.052160893 0.25322455 0.15681429 0.10440292 -0.35818154 0.07465797 0.3092528 0.06680806 -0.12033427 -0.33407608 0.34356704 -0.2927679 -0.37542906 0.45586127 0.0026649022 -0.66451794 -0.3061187
GADD45A 0.8858573 -0.012755505 -0.6307425 -0.36848974 -0.12009435 0.28169197 0.63640213 -0.08945121 -0.5425843 0.44047576 0.17434756 0.14826871 0.054880235 0.04241666 -0.00668745 -0.14734577 0.29453936 0.0041247676 -0.2427736 -0.08933614 -0.1729258 0.023728803 0.3556104 0.014040292 -0.54381204 -0.48278114 -0.18326038 -0.20273744 -0.149706 0.48845676 -0.106846325 0.49435526 0.015529994 0.52885723 -0.18006876 0.33922315 -0.35704112 -0.0006691542 -0.45733035 -0.059017897 0.15244465 0.009789498 0.15884194 0.09395061 0.108527176 -0.08943134 0.5763276 0.31752956 0.056239173 0.4638108 -0.043268643 -0.11598521 -0.15682417 0.0068260184 0.036984503 -0.18318291 0.541055 -0.2310257 0.00306963 -0.53939337 0.2765636 0.5550498 -0.41582343 -0.31787115 0.08047904 0.28961 0.09308666 -0.23980287 0.26445308 0.06611714 -0.17258595 -0.21396439 -0.014569908 -0.3871876 -0.2605154 -0.34603718 -0.19865198 -0.42031607 0.08118319 0.18195744 0.3600804 -0.075610176 0.09084911 -0.024440449 0.12888147 0.2737565 0.108796306 -0.18472756 0.3289251 0.0881669 0.05551112 -0.59519637 -0.2564574 0.8339126 -0.052483797 -0.016244562 0.13314748 0.6839666 0.7612723 -0.006197496
CTH 0.3506689 -0.09242747 0.09035038 -0.060258217 -0.14506355 -0.11551158 0.17880319 -0.30947623 -0.3252858 -0.2351027 -0.27197355 -0.04885345 -0.14291294 -0.01888954 -0.07256453 -0.07663715 0.062488556 -0.33004573 -0.30947137 0.16315518 -0.09136143 -0.16509458 0.080133475 0.46147966 0.2194971 -0.01871212 0.060272757 -0.22516043 0.16047065 -0.17169125 -0.2795288 0.04071818 -0.17059176 0.13859674 -0.19394353 0.173436 0.047850277 -0.3472288 -0.20648038 0.15093832 -0.111412674 0.1573276 -0.313485 -0.075380564 0.2655199 -0.21533255 -0.33313313 0.32991084 0.20838468 0.061242912 0.18349919 -0.3144701 -0.055836864 0.13300711 -0.17312449 -0.18470679 0.19989172 -0.054703146 -0.03600758 -0.13301605 -0.037069287 0.2926938 0.08081954 0.2524995 -0.17402768 -0.08932754 0.21315531 -0.06297902 -0.05112215 0.10217165 -0.17105755 -0.3037073 0.1723439 -0.008271958 -0.0006114182 -0.15670057 0.38547763 0.15261222 0.060390603 0.053520445 -0.04962175 0.22229849 0.06917095 0.23889251 -0.31709442 -0.40734714 -0.19842005 0.08977866 0.31670666 0.13920318 0.12309376 0.20256078 0.092526324 0.08916439 -0.12634751 -0.014267883 0.1267138 0.36320037 0.3124798 -0.2980679
FPGT 0.21783976 0.16920699 -0.105843686 -0.34490573 -0.25562382 0.16839516 0.39596274 -0.19424486 0.029894717 0.323972 0.15447061 -0.12609553 0.15228483 0.14965181 0.013439525 -0.18059094 0.17071748 -0.078854755 -0.5888063 0.25096214 0.14091423 -0.057918698 0.5990954 0.3260767 0.025488215 0.27943408 -0.04037317 -0.11696668 0.5570255 -0.6057404 -0.3354895 0.15630989 -0.2850478 -0.24743156 0.51192117 -0.043819234 -0.084605776 -0.41127217 -0.10379878 -0.0982253 -0.2039403 -0.2508305 -0.038677435 -0.08420485 -0.29833016 0.14527908 -0.73668534 -0.25918168 -0.3249874 -0.04304645 0.02693026 -0.50147706 -0.07830034 -0.35447973 -0.25562623 0.3581842 0.12034334 -0.6146246 0.21399736 -0.0869292 -0.24072866 0.34712425 -0.27032927 0.19462475 -0.007034094 0.323143 0.030649075 0.45152974 0.14405172 0.14121501 -0.13994247 -0.21597987 0.45686662 -0.022244755 -0.0035585274 -0.016690688 0.33995548 0.014248996 -0.047838792 -0.07777765 -0.28059673 0.013978556 0.30294117 0.6624371 -0.026759898 -0.2186087 0.04038932 0.18867326 0.3076545 0.489995 -0.2672567 0.05996618 -0.22355041 0.5159188 -0.33883122 0.18843816 -0.07707821 0.1793862 -0.07091818 -0.7604651
TYW3 0.7869023 0.08618611 -0.29522964 -0.3827288 0.46138448 -0.49122635 0.70150286 -0.3429377 -0.23921452 0.2693793 0.101626284 -0.14541498 0.09143949 0.13838373 0.13561502 -0.70238084 0.026879596 -0.5318216 -0.18116154 -0.004291172 -0.5464284 -0.61351514 0.6338424 0.345847 -0.14441775 -0.116821624 0.022261843 0.2877892 0.20258072 -0.08227478 -0.54979205 -0.007644294 0.0054323017 0.006537345 0.5048385 -0.45186108 -0.7573118 -0.23650289 -0.4979973 0.27727574 0.09198171 0.2101108 0.045590203 -0.4669473 -0.2885473 -0.02941769 0.18336265 0.4683865 -0.138139 0.28463706 0.2576423 0.01117078 0.0869361 0.2117388 0.32163313 -0.024615185 -0.1749862 -0.04947244 0.29258403 0.19444221 0.14773957 0.34728009 -0.6093146 0.4397705 -0.62562263 -0.50364953 -0.50866306 0.42487016 0.089818984 -0.32171577 -0.09555691 -0.5802529 0.53905225 0.11939052 -0.40010986 -0.113142796 -0.04905724 -0.86536354 -0.11887721 0.015146539 -0.41221017 0.14833158 0.5109591 0.68461835 0.23557717 -0.12625284 0.44930148 0.010457838 -0.20176125 -0.4452857 0.46379706 -0.882587 -0.062035665 0.23410183 -0.029175082 0.06741019 -0.3951153 -0.28943875 -0.33423492 -0.33938202
NEXN 0.065526806 0.105649084 0.029329654 -0.62312937 0.7092752 -0.41366136 0.1030682 0.08821833 -0.050668493 0.54846066 0.23357257 -0.020168683 -0.037303757 0.283625 -0.07059393 0.08197885 -0.16234924 0.94989175 -0.16441192 0.1744923 0.20071213 -0.3056528 0.03310117 0.27008757 0.32397163 -0.4085402 -0.033319112 0.17286128 -0.13773982 -0.30167934 -0.43901354 0.5887174 0.45871916 0.07086478 0.65418476 -0.60792696 -0.4573215 -0.7178312 -0.71821815 0.24183267 -0.2056833 -0.11831747 -0.114357926 -0.21788819 -0.350952 0.5205986 -0.19366466 0.34967807 -0.1627897 -0.12756228 0.57020134 0.0489783 0.5591323 0.28215158 -0.22248068 0.2571235 0.078637995 -0.18191606 0.72974896 0.28388143 0.35845706 0.71112305 0.25429368 0.40519187 0.9394563 -0.043971676 0.35593268 -0.076707125 -0.48255646 -0.31185138 -0.48202923 -0.55608267 0.7250322 -0.3854846 0.17640083 -0.10677488 -0.28683156 -0.88821036 0.16685979 0.4492715 -0.33407098 -0.47054964 0.47452772 0.24324577 -0.2279273 0.0069936747 -0.10610103 0.32625934 0.06498589 0.05244796 -0.09739951 -0.52593666 -0.063814454 0.40467155 -0.2182511 -0.13144971 -0.11598459 -0.43621245 -0.23287608 0.33203718
DNAJB4 1.3113945 -0.4128609 -0.14165346 -0.15597093 0.04017511 0.6141766 0.8034207 0.11176818 -0.13916098 0.46121702 -0.2322734 -0.27607217 -0.26309907 -0.11724975 0.13121621 -0.56413007 -0.05367481 0.32994714 0.05445636 0.22315712 0.4034037 -0.0027936609 -0.09629509 0.39514735 -0.03928259 -0.11860954 0.3128885 0.08736968 0.45322067 -0.29123512 -0.07280315 0.15795718 0.11306398 0.14357656 0.22970729 0.22922856 -0.62197214 0.087014735 -0.7173621 0.5074239 0.22633097 -0.06636379 -0.22212502 -0.20213974 -0.74146146 0.008724244 -0.24279906 0.7717335 -0.6333981 0.11614864 0.4376809 -0.6742831 -0.22904561 0.06229008 -0.2550997 -0.085172795 0.46812224 -0.54087824 0.4164259 -0.04128717 0.44255537 0.74411887 -0.6025496 0.70521957 0.54723376 -0.014602781 0.82298774 -0.02766923 -0.43495223 -0.18142876 -0.34260255 -0.28119075 0.6000824 0.06537103 0.44849017 -0.7223357 -0.5418495 -0.22605339 -0.31688708 0.8232134 0.17666289 -0.33909163 -0.24557899 0.62016755 -0.1550951 0.7482077 0.044223186 0.11144394 0.18170616 -0.475648 -0.5948257 -0.78157014 -0.13119078 0.5478645 0.6660551 -0.28682113 0.25633544 -0.11214621 0.647228 -0.10783036
RP5-887A10.1 0.17046453 -0.014629215 -0.17927632 -0.070283726 -0.45981783 0.15024826 0.058468442 0.08912254 -0.41057575 0.18653129 0.162386 -0.3998934 -0.25559798 0.34636703 -0.1934199 -0.068762235 -0.20542939 -0.22569601 -0.24446768 0.14180395 -0.13648874 -0.0890762 0.045858722 -0.14187784 -0.00057095155 -0.006212546 -0.05235082 0.0062256814 0.25824866 -0.19383383 0.069345094 0.107976735 -0.12173391 0.07267283 0.23868045 0.27257764 -0.16457573 -0.2603393 0.1613093 0.20655864 -0.046951085 0.11842782 0.113540724 -0.18816595 -0.1353088 -0.10311938 0.06716817 -0.084875785 0.06370523 -0.18721785 0.032420952 -0.014454869 -0.34657076 -0.16132335 -0.13497852 0.082952164 -0.0787661 -0.09701655 0.04605268 -0.29708076 -0.32467446 -0.2212936 0.030463383 0.17680874 0.076116785 -0.2759901 -0.0038075899 -0.108932205 -0.049184274 -0.018539015 0.30092734 -0.27409413 0.28807887 -0.32197294 0.23704402 0.48470268 -0.28632972 0.035524607 -0.0013153511 -0.0018541462 0.01830662 -0.00012681403 0.13648961 0.34129974 -0.49659875 -0.26100916 0.26315767 -0.011554457 -0.144838 0.3052522 0.031475592 0.10641253 -0.16375627 0.24082965 0.29236424 0.111948706 -0.046042517 0.14184923 -0.16383667 -0.23819017
MCOLN3 -0.32682496 -0.18040729 0.15514669 -0.032546043 -0.230489 -0.21208394 0.37884983 0.055221513 -0.056513734 0.056975722 0.09390116 0.081702925 0.3818041 0.18036515 -0.19347927 -0.043200426 0.04493744 0.107737996 -0.07126063 -0.2780001 0.3445813 0.20281932 -0.1521513 -0.09536299 0.052789234 -0.10935389 0.25787136 0.110856265 0.031710383 -0.49488488 0.26455027 0.19958574 -0.25167078 0.2709545 -0.005190472 -0.001876739 -0.16070162 -0.60108334 0.09822569 -0.21952176 -0.12882711 0.05148815 0.28614843 0.124653995 0.14706266 -0.0058632856 -0.20117342 0.031257983 0.1325769 0.3317626 0.03137906 0.22117892 -0.23837289 -0.052335516 -0.015295848 0.11163413 -0.09740076 -0.24571963 0.6745383 -0.25518745 -0.3806439 0.16246025 0.23862304 -0.053420413 0.0033842165 0.1956607 -0.13207799 -0.078640565 -0.04908532 -0.26235414 -0.085760094 0.14350308 -0.037913468 -0.3505192 -0.09785414 0.14766522 0.04682873 -0.043991372 0.18193635 -0.08524829 0.017947542 -0.0091081355 0.031941477 0.12318881 -0.04262893 0.025309194 -0.00090291223 -0.2798136 0.005533188 0.16718525 -0.16249023 -0.18140003 -0.120583266 -0.16472103 -0.17137346 -0.11675741 0.17586298 0.2648515 -0.00541384 0.16443008
GBP1 0.9430198 0.18224356 0.4885463 -0.25588658 0.53052324 0.5543673 -0.30048865 0.97854066 0.07334585 0.48973897 0.54084 0.48330256 -0.54798645 -0.09157892 -0.43688062 -0.6134259 -0.01211379 0.23689562 -0.07829157 -0.42097968 0.7007677 -0.106266625 0.06193446 0.10305645 -0.29695505 -0.4359079 -0.089023516 -0.21857496 -0.8355141 0.60089266 -1.0345032 0.5944833 0.35026568 0.5344363 0.658614 1.1777425 -0.9584704 -0.749284 -1.0501947 0.15315016 0.57181156 -0.69910353 -1.2293755 -0.99087477 0.8226053 0.9955193 0.095574915 0.67190653 0.29361796 0.36795416 0.9166331 -0.7741952 0.942482 0.681 -0.9876811 -1.1094749 -1.6180393 -0.67725176 0.26051778 -0.5413103 0.4026915 1.5451071 -0.37578934 0.09886333 -0.1909378 0.32680246 -0.24537447 0.8151955 -0.13629371 0.065651156 0.79301125 -0.19917302 0.65756804 -0.16723433 -0.45082244 -0.75257605 0.5522021 -0.5998225 -0.6060788 0.065421 -0.3863786 -0.34940082 -0.11598282 0.4139643 -0.5060047 0.7643746 0.8374217 0.008834252 -0.09822494 -0.678661 -0.37864128 -0.30051836 0.35003382 -0.67458075 -0.10238186 0.2092533 0.5501028 0.2461765 0.3322902 -0.8002891
GBP5 0.56988245 -0.71286446 -0.14510104 -0.17505568 1.1687269 0.4043338 -0.040461056 1.0453509 0.03830063 -0.09047282 0.63830584 -0.16043992 0.11464662 -0.11148612 0.048630938 -0.5393312 0.037287325 0.059157692 -0.19214812 -0.19756 0.22749129 -0.7166616 0.1731917 0.10562764 0.007268311 0.12736432 0.044463564 -0.4543398 1.3071536 0.0930587 -0.49705938 1.3372062 0.9144331 0.69156957 0.05528315 0.5862966 -0.5609014 0.2774783 -0.37531084 0.4705035 -0.24201986 0.1611065 -0.07854316 -0.6902124 0.12367508 0.26452044 0.1337416 0.26019493 -0.1437098 0.30137497 0.1996319 -0.5623787 0.05174078 0.6164351 -0.3248197 -0.003478715 -0.5145037 -0.13447882 1.2997998 -0.025236357 0.2539672 1.3255897 -1.0100837 0.44762757 0.7243273 -0.14421624 -0.0053471024 0.29740155 -0.115965776 -0.09388757 -0.26200083 -0.69511694 0.37860513 -0.20348902 -0.55257195 -0.755994 0.13364191 -0.34086272 0.12595885 0.2653644 0.08699981 -0.93327725 -0.6849841 0.30804724 -0.8377306 0.06577093 0.15660547 -0.1162441 -0.2711455 -0.5604502 0.15277858 0.017418114 -0.064925246 0.32979488 0.37630695 0.28801048 0.4250153 -0.40795323 0.27178988 -0.034567613
CCDC18 -0.27890208 0.14150435 -0.10429273 -0.11360004 0.30054063 0.1551153 0.7454303 -0.044485457 0.017852264 0.13312058 -0.030560521 0.15200613 0.15479437 0.13486119 -0.19143014 -0.25765827 -0.073174976 0.056508284 -0.34636948 -0.7444083 0.2711038 -0.2037209 0.5370925 0.2424885 -0.4461538 -0.24644874 -0.48644906 0.1835801 0.60908115 -0.66728544 0.3296995 0.055169962 0.3441782 -0.1484864 -0.19683483 0.004373435 0.18426733 -0.2670545 -0.4566807 0.052492343 -0.19417496 0.2178342 0.026997544 -0.30122772 0.27938515 0.14149803 -0.0017513151 0.46261054 -0.17670035 0.0561633 0.157109 -0.04154552 -0.35735634 0.07301849 0.1540223 0.20310819 0.3667458 -0.2376133 0.40308204 -0.023332482 -0.4299695 0.3859061 -0.13856159 0.12937497 -0.19852716 -0.12997164 -0.021054419 -0.1538127 0.10738286 -0.2936434 -0.3956032 -0.07786646 -0.06386979 -0.05893467 -0.34266046 0.08068152 0.61262494 -0.48718438 0.10269219 0.1568362 -0.17451045 0.4161129 -0.18830924 0.016484274 0.10637648 -0.13774663 0.30445734 -0.112093784 0.21143392 -0.09838079 0.10328576 0.10954863 -0.430449 0.02680085 -0.6078462 0.1508475 -0.1328583 0.11452569 0.21414395 -0.3507603
GCLM 0.025504475 -0.0974999 -0.6041443 -0.37377703 0.26740062 -0.2967238 0.19786775 0.5448259 0.3462273 0.8585995 0.22699718 0.09904972 0.2284164 0.28841355 -0.5047562 -0.43415222 0.66585606 0.5799339 0.1384668 0.088328674 0.4196065 -0.17662978 0.5127714 -0.27948177 0.059018325 -1.1438506 0.013409195 -0.37510803 0.52124584 0.05426408 -0.7072791 -0.6683485 0.6914764 1.0165129 0.42888916 0.17336863 -0.45583007 -0.84762716 -0.53821856 -0.8684289 -0.039464254 -0.038934648 -0.22111414 -0.11061409 -0.65377676 0.6537465 0.49675187 0.65879935 -0.8229208 0.35744643 0.6769261 0.09711313 -0.003010901 0.4277269 -0.31634548 0.3592583 0.10700789 -0.4766794 0.97391766 0.39683822 -0.112853296 0.30361938 0.22195272 0.2612886 1.0237807 0.26501697 0.12377783 -0.30633593 -0.6725967 0.044729065 -0.07697895 -0.24985565 0.12318049 -0.046265207 -0.046714276 -0.018728994 -0.18352708 -0.8788904 0.2962493 0.5044012 -0.26005885 -0.30073813 0.4951927 0.27953875 0.09490169 0.4750969 0.5087817 -0.36602193 -0.4811502 -0.3718845 -0.17683919 -0.959895 -0.25616828 0.009977312 -0.54139596 -0.47670102 -0.89131916 -0.11589957 0.30024675 0.40409493
PTBP2 0.31181794 -0.10154281 -0.15190451 0.33996814 -0.4394493 -0.1701236 0.20092513 0.28934395 -0.34023643 0.06841308 -0.07501673 -0.13508955 -0.064146146 -0.040226962 0.06927631 -0.4010557 0.1278553 -0.06473226 -0.386019 -0.19288497 0.3531801 0.113845125 0.08686604 0.043685354 0.23256776 -0.17012236 0.026685242 0.23535998 0.2748888 0.17642921 -0.21490347 0.34554616 -0.27040493 -0.0656634 -0.009986536 0.2759392 -0.24229823 -0.22311541 0.09966777 0.051761843 -0.19314623 0.3988386 0.4945458 -0.268978 0.3002063 0.1103962 0.09809698 -0.0548869 0.20988359 0.28953844 0.10811082 -0.16482322 0.07002184 -0.1772452 0.114384204 0.06370757 0.27668455 -0.07253278 0.058580898 -0.06725459 -0.21674319 -0.019036654 0.0625407 -0.12445289 0.026132448 0.26313236 -0.2873625 0.2518058 -0.17332856 -0.33962747 0.14256795 0.10573613 0.030683082 0.099614725 -0.30556834 -0.024611212 -0.0043176296 -0.078446105 -0.12731452 0.07644393 0.05757105 0.38504675 0.019596001 0.042337712 -0.013577017 0.17544581 -0.021086087 -0.08471214 -0.094707854 0.068463564 0.18109927 0.07594791 0.14684978 0.24003385 0.12272208 -0.02232536 0.15516105 0.2362715 0.010409433 -0.18694812
RP11-421L21.2 -0.31432214 -0.23327576 0.315014 -0.16134548 0.16608632 -0.11133141 0.023343477 -0.20250565 -0.28999645 0.09920095 0.058277424 0.33493006 0.029029809 -0.028700018 -0.27452737 -0.24238753 -0.2755898 -0.07032918 -0.09283187 -0.13975836 0.14402273 0.1473832 -0.41155583 -0.037660196 0.62593067 -0.20065251 0.0737376 0.3029337 0.26481253 -0.049494114 0.075985186 0.51285285 -0.31754848 -0.004564119 0.05038448 -0.08520809 0.1484939 -0.17825729 -0.09418382 0.15758513 -0.47884575 0.15373698 0.3008854 0.18658482 0.21684457 0.123065904 -0.11097995 0.16915752 0.2458528 0.27307048 -0.2885793 0.111933 -0.18686515 0.37499067 0.21015091 0.10978401 0.10501094 -0.14855476 0.40132478 0.046892364 0.10068012 0.28438154 0.22099948 0.20366736 0.1326533 0.36336628 -0.05823677 0.3131423 0.3081495 -0.14873345 0.08100883 -0.3092815 0.16337737 -0.18226247 -0.36122873 0.18585539 0.019127304 -0.34441376 0.26180536 0.29591337 0.39989972 0.25375324 0.37882087 0.250651 -0.21055572 0.19035459 0.2401581 -0.031436913 0.38003054 0.123607785 0.29580343 0.15975362 0.024950769 0.1969275 -0.06657078 -0.01195733 0.16958578 0.41298088 0.17126511 -0.20968178
S1PR1 -0.10449388 0.091008514 -0.019802302 -0.39004856 -0.49637088 -0.16356379 0.5676564 0.029885348 -0.48363155 0.31619653 -0.16092567 0.048534848 0.13345282 0.14182788 0.28674477 -0.29538384 0.23533154 0.46121204 -0.4553988 -0.69998324 -0.11626247 -0.238393 -0.2140997 0.09315569 0.33085424 -0.15428606 0.034668136 0.1891363 0.050433036 -0.20043351 -0.24136998 -0.101657845 0.04233816 0.22182174 0.14145906 0.16219367 -0.21913084 -0.38955584 -0.13865459 -0.3280678 0.1989945 0.31872725 -0.027312515 -0.5040976 0.102966644 0.28615957 -0.008087457 0.8013945 -0.20695491 0.0908331 0.38272497 -0.42091018 -0.07510559 -0.09018382 0.1816929 -0.062699415 0.6412529 -0.12512782 0.26042485 0.06205191 -0.65689963 0.39988405 -0.3204181 -0.1833509 -0.22069654 0.21813393 -0.322745 -0.09789711 0.049758475 -0.13840507 -0.38935083 0.21239953 0.06029771 -0.1300702 -0.020159962 0.119506665 0.06737493 -0.630407 -0.092001595 0.05219144 0.173675 0.64080626 -0.28773603 -0.042493545 0.34080222 -0.18520877 -0.03579146 -0.1436257 -0.33824936 -0.06567516 0.38086507 -0.15085411 -0.01230145 0.25261828 -0.18549763 -0.016395718 0.48154208 0.116732046 0.22968186 0.27424794
VAV3-AS1 0.31866273 0.21273525 0.20022634 0.052083097 0.52240604 0.05681391 0.40995368 -0.4814098 -0.090681516 -0.1390548 0.085197285 0.3091055 -0.014154708 -0.1096503 -0.19157177 -0.33369786 -0.28452575 0.19895467 -0.2774343 0.40416494 0.74127316 -0.2557339 0.47033098 0.28422654 0.031323735 0.45669782 -0.37902278 0.3969073 0.07195 -0.67677665 0.48930514 0.35034853 -0.104345955 -0.2608362 -0.64731556 -0.20225751 0.225176 -0.470001 -0.13028944 0.073856525 -0.22055718 -0.023680246 -0.49110937 -0.3985741 -0.5568611 0.35733113 -1.2564332 0.37371916 -0.7018809 -0.0780788 0.12296634 -0.30937925 0.0032599152 -0.14907323 0.17334649 -0.10914316 0.13197501 -0.32459813 0.6943508 -0.6315905 -0.3106758 1.1284424 0.5163426 0.16468793 0.69372624 0.35454196 0.4796957 0.25522974 -0.29691386 -0.24721456 -0.28020623 -0.055888 -0.024554554 -0.26649624 0.4464289 0.13962954 0.43654025 0.16581543 0.41863093 -0.29869998 0.013559615 -0.1781341 0.58617634 0.5157774 0.06025234 0.77604496 -0.14420058 -0.19591261 0.5644043 -0.3148101 -0.4837945 0.21360901 0.22646633 -0.051939633 -0.16337045 -0.4131929 0.27328703 0.09667828 0.1628879 0.37209702
WDR47 0.28968695 -0.013016642 -0.13259909 -0.007553531 -0.31203988 0.21506588 -0.064972736 -0.37563577 -0.06569329 0.14106447 0.10748995 0.31293815 -0.10426602 0.23076926 -0.023347437 -0.3047638 0.31490126 -0.15556096 -0.14848544 -0.35456672 0.34286967 0.0741084 0.118561 -0.18569882 0.11109011 0.082147695 -0.21560064 0.17873667 -0.022101901 0.023556726 0.29905888 0.58514017 -0.39356184 0.19099028 -0.185421 0.54934835 -0.21867923 -0.5904326 -0.4886899 0.061762214 0.1371321 0.21896087 -0.5545566 -0.22434546 0.11506302 -0.1191357 -0.29169795 0.07920029 -0.21404125 -0.0016639318 0.24506511 -0.48810565 -0.5524744 0.03694068 0.15271416 -0.45250204 0.49833006 -0.31077003 -0.0018685326 -0.24448036 0.08223279 0.09490686 0.15112405 0.4256299 0.29178506 -0.033367485 0.4528826 -0.22356132 -0.14633675 0.022022387 -0.16593982 0.057926673 -0.19395153 -0.30809575 -0.28759277 0.040362284 0.29970816 -0.30691049 -0.12111449 0.3452846 -0.026869051 -0.007647013 0.03971547 0.48852068 -0.2061988 0.12915511 -0.29727778 -0.578843 0.6441213 0.079819985 -0.3115376 -0.12669414 0.07478658 0.44664252 -0.4360082 -0.37222618 -0.25740373 0.58825576 0.38370275 0.040716443
ADORA3 0.42085883 0.4513679 -0.24213499 0.11345737 -0.041274276 -0.28274038 0.38501513 0.018509164 -0.46801347 -0.0040899906 -0.17542642 -0.5300603 0.31715554 0.124282114 -0.27099022 -0.597304 -0.3506722 0.08806548 -0.5758716 0.17239264 0.009099039 -0.51256406 -0.13269189 -0.034394275 0.18347445 -0.04146003 -0.5085765 -0.00032147334 -0.1964272 -0.1783163 -0.09862362 -0.44863608 -0.38892388 -0.34087518 0.2767349 -0.1255507 -0.2100836 -0.29316047 0.4206525 -0.17591454 0.0143579375 0.12443887 -0.15540992 -0.6682002 -0.17579266 0.36701322 -0.10498296 0.27648896 -0.26589954 0.13735498 0.22801057 -0.5203482 0.40039146 -0.100479096 -0.22176418 -0.020232918 0.41020292 -0.78540653 0.2296037 -0.19815339 -0.53937674 0.46375686 0.05339921 -0.080492064 0.17482768 0.29045796 -0.5731566 0.016822444 -0.081552036 -0.45497182 0.06606716 -0.52981526 -0.42558557 0.31501156 -0.38553315 0.254101 0.16002117 0.035192236 0.1237961 0.38281262 0.34305486 0.032037836 0.24480961 0.52568316 0.028972711 0.6369827 0.61414427 -0.41611132 -0.16190146 -0.43647513 0.4388127 -0.5698771 0.10302993 0.092327364 0.35795975 -0.4476161 -0.10314911 -0.26987654 -0.18242575 0.19692662
RHOC 0.50380903 -0.80162114 -0.30796695 0.2332232 0.65943754 0.23344009 0.1185678 0.29847473 -0.22983487 0.40631974 0.18231931 0.6056772 -0.5944357 0.29068545 -0.2986942 -0.8862372 -0.2444686 0.66146517 -0.75312674 -0.14268836 0.20395912 -0.37481746 0.22160374 0.21342207 -0.07701334 -0.17038217 0.010950669 0.07232235 0.6005448 0.41568932 -0.68915606 -0.4275136 0.6613117 0.5551048 0.352274 -0.2622573 -0.6442344 -0.16404244 -0.48975044 0.41260985 0.28300485 -0.5681224 -0.35623667 -0.0631628 -0.6704432 0.6480086 -0.15137692 1.1174802 -0.2395451 0.23377457 0.29342386 -0.49971378 0.22217856 0.54070514 -0.32530618 0.32662138 -0.122271076 0.049330246 0.39372075 -0.62541974 0.108810246 0.16171052 -0.5547475 -0.02745906 0.14776462 -0.011129597 0.40884784 -0.1422994 0.090293005 -0.31150073 -0.002669286 -0.5567746 0.5207379 0.27969745 -0.17211847 -0.038328834 -0.03199357 -0.5835332 0.47021624 0.6345466 0.09954258 -0.17870851 -0.026219895 0.070090964 -0.1253689 -0.14850041 0.66914785 -0.10402461 -0.81917906 -0.50565404 0.1814963 -0.424243 -0.4816521 0.14488722 -0.14557788 -0.35562035 0.24268259 -0.37356147 0.64178634 -0.3301983
MAGI3 0.15223767 -0.09235809 0.0861339 -0.10715541 -0.04513162 0.05723027 0.13763256 -0.019410029 -0.098120496 -0.07043571 0.19961776 -0.13631094 -0.1121834 -0.14905703 0.22039586 -0.08746921 -0.12138919 0.24154711 -0.02288498 0.023162616 -0.39345324 -0.120999165 -0.14221999 0.07762918 0.21033809 -0.016227486 0.12600443 -0.15913546 -0.0250165 0.27365872 -0.12520172 0.04552323 0.0071197157 0.099155255 -0.18856578 -0.14876574 0.21781705 0.005028392 -0.14896081 -0.12660462 0.0060717016 0.017430525 -0.14368534 -0.00034572394 -0.044751085 -0.07219196 0.12326644 0.35384682 0.04357759 -0.14223479 0.09996494 -0.115713514 -0.071961544 0.19901665 0.017413763 0.07228598 0.11916463 0.3543966 -0.10542133 -0.05669174 0.14994213 -0.0008871526 0.019847354 0.026808877 0.16841991 0.03750404 -0.063681744 0.039862905 0.021522244 0.14416637 -0.16913688 -0.06749788 0.10978279 0.07407755 0.07822278 0.15851805 0.0249343 0.15725492 0.13084234 0.044330418 -0.11185849 0.11064385 0.07548025 -0.29405534 0.116469026 -0.05949464 -0.026264377 0.022072403 -0.13834867 0.095208876 0.024185086 0.18512842 0.020370325 0.03466162 0.15061978 0.08191827 0.113252684 0.02163034 0.023258312 -0.008149039
AP4B1 0.31909627 -0.36303636 -0.44476324 -0.50678617 -0.109273694 0.095458955 0.34989312 0.12038833 -0.060770907 0.44463825 0.43117887 0.2935569 0.40254372 -0.17088567 -0.2582097 -0.47145066 0.27861288 0.09814722 0.12277317 -0.1320007 -0.31519088 -0.26590347 0.6330952 -0.12544675 -0.40630925 0.16678783 -0.31983188 0.18519154 -0.03530846 0.2988061 -0.26842692 0.23881426 -0.47163594 0.11166083 -0.24421062 -0.2108738 0.11400832 -0.27272463 -0.36117145 0.24448717 -0.13774857 0.053772207 -0.22760473 0.078419 -0.38281667 -0.09674294 -0.0700056 0.04545094 0.065551385 -0.11426929 -0.39945617 -0.4356623 -0.07947084 0.08259064 -0.30399153 0.10787998 0.663854 -0.37609926 -0.22915815 -0.42364374 -0.17303188 0.24428205 -0.6565831 -0.049075276 0.26829022 -0.03549212 -0.07358472 0.14522247 0.15983456 -0.1687077 -0.3188898 -0.45848286 0.40055338 -0.20106654 -0.22881874 -0.3199904 -0.23891011 0.21555606 0.23478365 0.32657853 0.029477645 -0.27063036 0.06819962 0.19360678 0.28596246 -0.113773726 -0.041625474 0.004000439 0.28808668 0.039722312 0.11262223 -0.07464439 -0.035113517 0.34489095 -0.31537253 -0.04229739 0.37453705 0.30192807 0.29965565 -0.22426161
DENND2C 0.18939668 0.011664302 0.12016767 0.044628415 0.0663992 0.19769187 -0.06608379 -0.15401988 0.06409231 0.070590034 -0.09381031 0.10426613 -0.124048285 0.09227534 0.31154987 0.075524494 0.07167568 0.09902041 0.021818202 0.15808415 -0.21008441 0.03853592 0.026321083 -0.023743652 0.27798504 0.17629403 0.047018122 0.07797571 -0.0069639036 0.029970326 -0.15621014 -0.15050878 -0.17362438 -0.18647134 0.19649446 0.07021011 -0.27299345 -0.088261336 0.018434199 0.10629882 -0.040919498 -0.1462277 0.13066317 -0.07926929 -0.12084199 0.09032678 0.012414247 0.052102577 0.077807456 -0.12361951 0.1385052 -0.019951008 0.098506115 0.02379639 -0.013247757 -0.1565171 0.10010417 0.05815913 -0.36275584 -0.08224989 0.068009794 0.027440296 -0.19079818 -0.104923725 -0.060163792 -0.06958893 -0.076597095 0.067492224 -0.026744153 0.007694443 0.28004193 0.01959857 0.16002516 0.1649223 -0.1603479 0.0645551 -0.030913586 0.17401916 0.022126215 -0.18282849 0.08182667 -0.10395755 -0.08611832 0.10622486 0.165583 0.16493376 0.12330263 -0.051508583 0.046117287 0.09581246 -0.10124195 0.029800558 0.21175861 0.14215805 -0.22925434 -0.053318497 0.033294838 -0.10653679 0.07732665 -0.11620579
TSPAN2 0.029381989 0.24695244 0.5126686 -0.11783272 0.09744017 -0.55480963 0.49749 -0.42605242 -0.21724407 -0.06652047 0.251037 0.10395481 -0.33669764 -0.0887171 0.09901459 0.24946278 0.26612583 0.3861361 0.44877878 -0.14059153 0.045742594 -0.8990889 0.49340856 -0.26473004 0.619754 0.012033963 -0.28914735 0.44218168 -0.091568165 -0.43062797 -0.35586378 -0.24915369 -0.01556004 0.13395421 0.20475288 0.21953662 0.15934461 -0.012380589 -0.4422248 -0.33538318 -0.31963244 -0.19262058 -0.27087867 -0.23620132 0.077944085 0.5233548 -0.17792332 0.12412486 0.5225537 0.021130467 0.114386134 -0.67744154 0.083610244 -0.13387142 -0.25025797 -0.050487652 0.31244382 -0.38579267 0.38640675 -0.2485197 -0.29737598 0.29114932 -0.2426753 -0.10624616 0.077595286 0.21791978 -0.12970157 -0.062641956 -0.16332185 -0.17919391 -0.15947388 -0.32981747 0.25646567 0.22143719 -0.30281174 -0.43542677 0.07918845 -0.3744299 0.38216287 -0.058257166 -0.3846428 0.15212654 -0.3120937 0.82673347 0.4024699 -0.35925984 -0.46862298 0.2836697 0.56891274 -0.038790893 0.35099685 -0.46417052 0.15423186 0.22975163 -0.7650963 -0.21012674 -0.11938792 0.14996752 0.43182385 0.06336368
REG4 -0.2355366 -0.037985474 0.22856928 0.03743363 -0.24962926 -0.6448226 0.17281803 0.14888962 -0.49470064 0.24344018 -0.4104995 -0.023362035 -0.33201474 0.38993967 0.54724944 -0.7546777 -0.05939822 -0.11192978 -0.4552893 0.2502331 0.13645321 0.35566446 -0.16729641 -0.35304374 0.15961337 -0.06141866 0.5994419 0.34986567 0.26881653 -0.30094254 -0.12749386 0.011399169 -0.30585167 0.033531986 0.22496292 -0.0013539552 -0.5334148 -0.43479615 0.4402642 -0.031979904 -0.3232 0.4603138 0.25283465 -0.32617268 -0.07515728 0.5760613 -0.11873383 0.09475724 -0.20050752 -0.16273865 0.45083243 0.23248197 0.14377724 -0.73515666 -0.11915572 -0.11493572 0.2425139 0.023107637 0.41975412 0.18215068 -0.75898516 0.059612423 -0.023866415 0.05178508 -0.14250241 0.1225731 -0.31375307 0.30182582 0.061653383 -0.33712608 0.4471844 -0.32244846 0.23966976 -0.025840938 -0.06654624 -0.29202044 -0.16203755 -0.23775609 -0.13783866 0.014285572 0.19981012 0.09579549 0.35577753 0.5896316 0.06332525 -0.18543804 0.23273604 -0.12253742 0.083658665 0.09106711 0.2477358 -0.1751378 0.5131102 0.2288209 0.17718717 0.26384848 -0.014076704 0.20840235 -0.10626833 -0.1796885
BCL9 0.00031487466 -0.20347013 0.09575876 -0.16255596 -0.35778293 -0.11908771 0.17361034 -0.15219077 -0.3097946 0.38226324 -0.066211976 -0.17397696 -0.29947102 0.010813505 -0.16461013 -0.034208722 0.08634454 -0.017517658 -0.5331625 -0.25958285 0.30548233 -0.015428059 -0.06531251 -0.04911169 0.49607107 -0.2207474 0.06493807 -0.0076268865 0.46960223 -0.46104717 -0.12313648 0.37099195 -0.28313112 0.15814535 -0.11127911 0.09765005 -0.2088278 0.3077431 0.07882276 -0.3092653 -0.17229292 0.23537749 -0.1230787 -0.22579104 0.09858077 -0.3116553 -0.3095754 0.043497194 0.04583747 0.14258975 -0.04910146 -0.19366062 -0.10745869 0.01943708 0.01075266 0.32446113 0.15030818 -0.24272695 -0.08618805 -0.13201682 -0.29030728 -0.1350456 -0.08458096 0.030356936 -0.010518234 0.0482592 -0.28566137 0.19831535 -0.2044081 0.0433367 -0.35498095 0.08964244 0.14324483 0.017177284 -0.14104483 0.2489257 0.3518727 0.09780522 -0.2807016 0.045496125 -0.33820447 0.33228993 -0.2662325 0.2904217 -0.1673491 0.008784744 0.1265363 -0.32187405 -0.14021528 -0.035408854 -0.06627179 0.12224147 -0.043962047 -0.012485355 -0.07381467 -0.24309626 0.1852677 0.26626053 -0.13690393 -0.43042308
FCGR1A 0.44354832 0.10574164 -0.33858022 -0.06635868 0.5604827 0.33413547 -0.15100586 0.24493563 0.75552726 0.0348132 0.24824378 0.36524338 0.23106414 0.42010397 -0.3966835 -0.33460057 0.026475504 0.45760056 -0.2638546 -0.067239 0.8428724 -0.17302428 0.36438724 0.67949766 -0.6279087 -0.25810918 0.15328969 -0.11928157 0.17390743 -0.3299065 0.14499581 0.23634739 -0.03255304 -0.15890758 0.49576473 -0.08132608 -0.842195 -0.4788645 -0.4004608 0.024718134 0.18183823 -0.14408396 0.23213503 -0.49822155 -0.7483417 0.8213217 -0.24298364 -0.118976034 -0.0923482 0.009644056 0.26056448 -0.48427463 0.4661704 0.12881897 0.02232457 0.4285892 0.25396872 -0.6594652 0.8963618 -0.32570523 -0.10952165 0.61006504 0.06986702 0.29113492 0.62277806 0.089777045 0.6940141 0.20195416 -0.2331682 -0.3700577 -0.23777479 -0.2712746 -0.50578856 -0.06918428 0.39240974 -0.083833575 0.11980342 -0.0979006 0.092417404 0.107369386 0.16178362 -0.49594525 0.5915954 0.35791218 0.14733677 0.3878347 -0.008569972 -0.35688144 0.001924673 0.103688285 -0.41386664 -0.21204993 -0.18768153 0.42820174 -0.16585803 -0.23936583 0.35594004 -0.14638649 -0.39852178 0.16886124
SETDB1 -0.048327316 0.11273245 -0.44897977 -0.071364194 -0.26921523 -0.26633707 0.28029126 0.15352434 -0.116180845 0.03686472 0.2377047 -0.13237542 0.18418008 -0.08095279 -0.46644652 -0.13306728 0.26423588 0.07282848 -0.19378713 0.27306816 0.19453698 -0.015030188 0.26670402 -0.099461995 0.16258177 0.08223602 -0.382477 -0.060362052 -0.4515312 0.4181663 -0.3054583 -0.16420811 -0.54419273 -0.049783513 0.3022926 -0.17416726 -0.11737716 -0.32713634 -0.23613481 0.13225229 -0.35911155 0.098598264 -0.09884718 -0.12844673 0.23438586 0.10464612 -0.17671542 0.14665574 0.38495332 0.20984416 -0.31071487 -0.51589036 0.030177185 -0.18060149 0.1769687 0.3028842 0.40869245 -0.61673766 0.22015305 -0.116107576 -0.24477673 0.69097257 -0.30221882 0.055221204 0.44165847 0.0638966 -0.18361332 0.03240875 0.09695112 0.23970303 -0.3204114 -0.20578548 -0.3694137 -0.35289836 -0.26061836 0.055075884 0.3161966 0.413915 0.09066569 0.36106324 0.5352492 -0.401017 0.052176896 0.28910112 -0.29899207 0.57666856 -0.050011374 -0.093648255 0.59231067 -0.30601028 -0.0040428955 -0.17261335 -0.07723909 0.3308664 0.07347491 -0.2481706 -0.14460818 -0.04985408 0.019697212 0.18110214
MLLT11 0.3631193 -0.16551748 -0.49992415 -0.21321224 -0.27141425 -0.23971207 0.54879993 0.32828635 -0.45239004 0.5223689 0.3377418 -0.4843101 0.19856694 -0.0075249863 -0.5711476 -0.46842605 0.09794454 0.363941 -0.24933125 0.06715246 -0.370425 0.0042687813 0.61986333 -0.26600057 -0.31696814 -0.28240937 0.028296668 -0.24540003 -0.14542526 0.79944 -0.10865264 0.23037238 -0.061881755 0.19550674 0.2981874 -0.39379025 -0.041924845 -0.40567875 -0.5798477 0.25235605 0.01884552 0.23831448 0.33502123 0.00057215075 0.107832484 0.11201631 0.3128561 0.4456813 0.58357203 0.2999189 -0.44392955 0.002272872 0.47506016 -0.28159928 -0.21034175 0.45553997 0.54425085 0.043175712 0.16916189 -0.22837338 -0.17015807 0.07479642 -0.20576021 -0.5092948 0.0060952757 0.11089016 -0.02822014 -0.04182929 0.06896377 -0.01809008 -0.059624184 -0.16661009 0.35497674 -0.24789162 -0.16999504 0.036301404 0.12000363 0.25714046 0.19763969 -0.15908523 0.25740752 0.15413679 0.09497957 0.0038959235 -0.07427668 -0.21262674 -0.5554947 0.42464793 0.13866957 0.02351374 0.086317845 0.021222765 -0.20103943 0.59323925 0.0034932639 -0.047660034 0.03687489 0.3510958 -0.18903317 -0.4494604
SELENBP1 0.07156986 -0.21212071 -0.10651373 0.082611814 -0.022519058 -0.11800153 0.14349711 -0.14116375 -0.1297727 0.057795215 0.09625818 -0.017812826 0.034206178 -0.1983811 0.12900227 -0.2493195 0.07914128 0.028831309 0.045636393 0.15959491 0.09868983 -0.12308112 -0.27157307 -0.1577799 0.12908636 -0.104414016 0.25961497 0.2100614 0.006634861 -0.04719224 -0.0025461023 -0.035692353 0.1657409 -0.09903983 -0.20806848 -0.032026663 0.027910296 0.07114757 0.3373087 -0.16129966 -0.01889398 -0.053615417 0.111640394 0.08980231 -0.01470592 0.2481004 -0.16471784 0.097352095 -0.2572864 0.034676958 0.05894465 0.027208298 0.14975674 0.14957814 0.07744288 0.1576072 -0.0052139116 0.14459932 0.19322093 0.067414805 -0.09600654 -0.16796309 -0.08143641 0.011764004 -0.035265114 0.05530688 -0.14257511 0.24346314 0.16228624 0.11234895 -0.021810018 0.17522109 0.11738354 0.0075123445 -0.049583763 0.012988683 0.11146675 -0.09210342 0.027726121 -0.14708087 -0.06904677 0.1902119 0.17793722 0.043083124 0.016427003 0.18748279 0.06676271 -0.0141440155 -0.08062571 0.046991978 0.20002086 0.161957 0.012350689 0.058707118 0.026491113 0.13413283 0.13437688 -0.04861269 -0.11299876 -0.028008476
S100A10 0.5994177 -0.4983466 0.09824079 0.3288173 0.92774445 0.4636918 0.48666427 0.62818956 0.9290261 0.46630493 1.2862515 -0.021378992 -0.10827818 0.031409424 -0.48753187 -1.779782 -0.97301084 0.2641007 0.47175562 -0.5566967 1.3776726 0.061969787 0.2795748 0.8473666 -0.65909165 -1.1447467 0.5037639 0.10575644 -1.5023794 -0.4253042 -0.9590807 0.7361377 0.49327078 -0.30491024 0.6395742 -0.0039617587 -0.1068496 -1.1795319 -0.35719272 0.75027436 0.6729648 -0.7656985 -1.2862744 -0.18918075 1.5823388 0.60709816 0.25542864 1.372515 -0.6154635 0.49166453 -0.31103793 0.36582989 0.19628291 -0.060979452 -0.87967926 0.1637451 -0.2157097 -0.83322644 1.0825375 -1.7129285 0.894881 0.30736056 -1.097032 0.161398 -0.26000372 0.060471635 -0.1533922 0.5480474 0.03872807 0.540438 0.96740115 -0.39947945 0.7702342 -1.0499924 1.642027 -0.6111774 -0.25552496 0.09566289 -0.02697673 0.3463519 0.50145507 0.047459908 -0.36578918 0.7919759 0.034655824 -0.3727275 0.5454665 -0.19386154 -0.08784958 -0.40441814 0.26009703 -0.63033277 0.2760194 -1.1282333 -0.39442837 0.46382466 -0.4038121 -0.55337864 0.5760019 -0.70722944
S100A9 0.14928943 -0.67179936 0.31078693 -0.3532881 0.41931704 -0.05222295 0.052377336 0.58647007 0.98634905 1.1082516 1.323359 0.38158932 -0.79182136 0.12670751 0.11891203 -0.7975626 0.1818642 0.40145898 0.50528497 -0.4332019 1.0828755 -0.3822099 0.54452753 1.3673239 0.9403016 -1.0111367 -0.71340865 -1.0045336 -0.20190325 1.0993073 -0.52938753 0.3601043 0.6399317 0.9744977 0.24698983 0.32377166 -0.7316902 -0.2894217 0.50352186 0.07441011 0.30289802 0.054568104 -1.33038 -0.1319597 0.88211447 0.36644426 -0.04823474 0.73449 -1.1701992 0.36744156 -0.37185672 0.17593354 0.18874763 -0.6144819 -0.48999414 0.107935905 -1.14957 -0.7829409 1.0276104 -0.3630894 0.29309866 0.3974904 -0.59754664 0.2016082 0.7246749 0.33351183 -0.23627791 0.63149756 -0.85386395 -0.3183384 0.3393662 0.24125713 0.66009 -0.24495581 -0.18048747 0.16310662 0.121270604 -0.19276224 0.016323 0.097008824 -0.40743306 -0.12381453 -0.09421302 1.4556183 0.47699964 0.47166947 1.0785631 0.25970447 -0.6647275 -0.80948764 0.21741384 -0.47237206 -0.6597957 0.11539437 -0.30883017 -0.24334238 -1.0130038 -0.322026 0.073948435 -1.006143
S100A12 0.38940957 -0.46882856 -0.35748875 -0.18314753 0.815654 0.017632999 -0.21866623 0.45200762 -0.082858145 0.2616567 1.1733608 0.5139498 0.3743488 0.5858905 -0.27998278 -1.1084815 0.66799015 -0.25304985 -0.3765003 0.106623225 -0.07060085 -0.41239223 0.01635448 0.7786796 0.5379436 -0.05491224 0.3828991 0.15735163 0.12445251 0.26621 -0.53802097 -0.92281574 0.40430093 0.11169088 -0.050726473 -1.1218686 -0.45616013 -0.5722044 -0.31215152 0.12640794 -0.5533343 -0.030050628 -0.2527578 -0.7070527 -0.052469563 0.9685617 -0.12683304 0.3858687 -0.6740829 0.3869652 0.57283145 -0.25511533 0.22226521 -0.35010546 -0.66410583 -0.01271865 0.45741415 0.2646908 0.4556701 0.045080647 0.21019338 0.9288863 0.46202672 -0.21964334 0.8126078 0.18774563 -0.20226043 0.04934442 -0.23821169 0.083375685 0.44132596 -0.69477236 0.3038711 0.15760155 -0.03690728 -0.6747136 0.09992195 -0.08295871 0.67536986 0.26810017 0.2607305 -0.099596284 0.57612 0.032339815 0.4962412 0.2866006 0.34313866 0.77202344 -0.5517659 -0.6851522 -0.49750316 0.01381674 0.43035293 -0.087037966 -0.42401266 -0.69526523 -0.25478992 -0.2032488 -0.18126914 -0.05219241
S100A8 0.3266947 -0.3193506 -0.3246555 -0.6407827 0.1099383 0.4431061 -0.017410848 0.97293377 0.6607314 1.1113114 1.2049643 0.36039808 -0.72648835 -0.45559844 -0.41612667 -0.6247559 0.8490314 1.0221641 1.4210054 0.15266685 0.8130317 0.18070175 -0.53707016 1.2543181 1.0113639 -1.2425985 0.18395081 -0.5342267 -0.90723175 1.2163695 -1.0074586 -0.12049406 0.6070332 0.81293446 0.34783706 0.13416718 -1.1806343 -0.6889661 0.077270865 0.8777609 0.13060708 -0.1483906 -1.3043545 0.20425755 0.6813921 0.23108453 0.09687965 0.8428655 -1.1855152 -0.3110738 0.6035586 -0.40466517 0.3729768 -0.26402822 -0.68316853 -0.4475933 -0.8043685 -0.6645779 0.7288609 -0.9770304 -0.10326238 -0.14218922 0.09659032 0.037495162 0.1639487 0.7335938 -0.0115927 0.87587273 -0.921266 -0.08363407 0.78665584 -0.18791114 0.78276426 -0.94776344 0.22624342 -0.47264245 0.31520644 -0.06210407 0.51547724 0.21930072 0.18891267 -0.40847185 -0.007736446 1.1149899 0.43938467 0.2123044 0.42136496 0.8511111 -0.3874025 -0.83176035 0.2976902 -0.22893497 -0.45001763 -0.10812399 -1.2018678 -0.3150311 -0.8660922 -0.48724172 0.24432556 -0.6651286
S100A4 0.17797434 -0.1503452 0.24689068 -0.20067975 1.0087253 0.6950654 0.09720056 0.6409048 1.0145862 0.5219236 0.45903587 0.6279584 -0.639899 0.14079629 0.3811332 -1.2475015 -0.73895663 0.88716286 0.2716275 -0.3817613 0.95787555 0.016379919 -0.12188555 1.2764996 0.020053936 -1.5126241 0.5502738 -0.18371578 -1.6674529 0.21229866 -1.1706997 0.6654603 -0.4317975 0.7273685 0.38105685 0.69845307 -0.38595515 -0.6797293 0.0014159393 0.4008284 0.2786092 -0.08907837 -1.4124957 -0.4933235 1.5495025 0.38650024 0.27465424 0.98851633 -0.632102 0.832568 0.7041666 -0.5846473 0.5534766 0.2797434 -0.6647883 -0.31185725 -0.85561657 -1.1403162 0.63229835 -1.5175105 0.67841667 0.120659664 -0.26377842 0.88467145 0.27339235 0.060705524 -0.52440983 0.4206739 -0.5839099 0.18673879 0.6121205 -0.19297253 0.6652894 -0.7203453 0.46842876 -0.40900433 0.2507587 0.27053952 -0.08344453 0.33361176 0.30400795 0.346439 -0.18849283 0.36382744 -0.4564695 -0.0044557154 1.2782091 0.041967094 -0.9262584 -0.044796355 0.8204089 -0.89611536 -0.55967414 -0.75898325 -0.56834817 0.54369205 -0.63941133 0.10480928 0.5290108 -0.43116903
SYT11 0.4037399 -0.010190214 0.6574424 -0.28052902 -0.171858 -0.06459779 0.022641167 0.30898678 -0.4023293 0.13454744 -0.19179986 0.082977094 -0.25534767 0.6507712 0.16457663 -0.38850176 0.0054861456 0.036677677 -0.48985136 -0.14519535 0.066642836 0.071543306 0.4782373 -0.016169257 0.28311348 0.03587593 0.05278376 -0.023175368 -0.12452938 -0.016917683 0.44364727 0.33713523 -0.057147503 0.08960161 0.20251134 -0.22703572 -0.030487727 -0.3416302 -0.51966226 -0.05449965 -0.31364623 0.41503775 0.32231942 -0.27857593 0.37472606 0.1626562 0.024518816 -0.006397446 0.004158109 -0.0846612 0.36907947 -0.01618993 -0.5178691 -0.27341518 -0.18554278 -0.38735548 -0.10848894 -0.105875686 0.6086978 -0.4429767 -0.047144152 -0.10098906 0.18937126 0.36662325 -0.25445098 -0.28380713 0.34024483 0.12340911 0.094793566 -0.033489283 0.1707649 -0.15748535 0.013284712 -0.14858724 -0.34058636 -0.2271683 0.33128396 -0.10302059 -0.32465792 0.051463272 0.06348806 0.058787853 0.15947917 0.5384994 -0.40901417 -0.2915944 -0.17533946 0.059024733 0.73215944 0.26375505 0.2874494 -0.31188437 -0.16656671 0.16081919 -0.27953938 -0.18238908 -0.26799923 0.24772182 -0.12903288 -0.4325923
LMNA 1.6624935 0.11361136 -0.29832006 0.19910628 -0.33075243 0.28503793 0.0074184802 -0.07596678 0.5441644 0.21706618 0.7197869 -0.4779817 0.09113695 -0.73421276 -0.1122139 -0.710639 0.37047547 0.41671428 0.4609026 0.0059422175 0.5568013 -0.45545828 0.019809645 0.6451573 -0.23425908 -0.6160604 0.4225275 -0.35424003 0.10485917 -0.019085629 -0.59353065 1.1888975 0.85628605 0.65364766 0.8965235 -0.18615493 -0.98358667 -0.62521654 0.49548277 -0.05634424 0.080621354 0.82944363 -0.7646708 -0.18011203 -0.24439538 0.4535383 -0.57264763 0.76586896 -0.714768 -0.09407235 0.46553993 0.011813794 0.028034097 0.12515973 -0.81570387 -0.4604515 -1.3542753 -0.060655814 0.8514993 -0.35159814 -0.12979068 0.084517755 -0.66902125 -0.15454608 1.1093931 0.12049787 0.1260917 0.14110614 0.32693383 0.23046966 1.1667389 0.059178267 0.23361604 -0.68747365 0.80672485 -0.36351362 -0.71244776 -0.15808855 0.2014765 0.1469713 0.3299138 0.45827648 0.22802584 1.2188171 -0.14883488 0.8099757 0.37619668 0.07632483 -0.45741853 -1.083026 -0.13272145 -1.0266567 -0.425657 -0.77771896 -0.63515353 -0.05153182 -0.5638087 -0.21906571 0.7106819 -0.68256855
GPATCH4 -0.15425102 0.45080382 -0.08487518 -0.10437012 0.22103639 -1.0300585 -0.1894007 -0.39574167 -0.16879736 -0.10719614 -0.23634687 -0.58576584 0.52212954 0.05716837 -0.29432976 -0.686205 0.20087686 0.3298128 -0.027734522 0.44931412 0.20386797 0.105849855 -0.006260204 0.4501166 -0.033724297 -0.7572179 0.10214578 -0.3942192 -0.9076073 0.2912242 -0.4900669 0.37944365 0.16463527 -0.005878325 1.0785412 -0.79635674 -0.46651408 -0.51768327 -0.55250746 0.6463438 0.30733773 0.9129576 -0.5101632 0.27183637 -0.2081736 0.10645698 -0.15494797 0.475155 0.56716096 0.44826445 -0.048477046 -0.5783918 0.9364813 -0.56905764 0.19472982 0.22008274 -0.09715764 0.048189327 0.24772821 -0.06722009 0.15352775 0.7065686 -0.6974048 0.057185225 -0.23684698 -0.13849497 0.35697043 0.34753552 0.044079017 0.01082761 -0.6128085 -0.44497433 -0.14774741 -0.09730185 -1.0807111 -0.5538198 0.18495324 -0.359563 0.2531647 0.1525779 0.14914733 0.35202488 0.14452085 -0.10061233 -0.18526363 0.07217919 -0.43484694 0.41464046 0.48850134 -0.17145404 0.07199074 -0.7361018 0.29505083 0.1915071 -0.21894433 -0.08917963 -0.33698127 0.16767639 0.3322868 -0.17487511
CD1D 0.35333288 -0.16687289 0.06502785 -0.36600542 0.2746481 0.2815684 0.09016036 -0.47501522 -0.0021474555 -0.06441606 0.2762209 0.38628238 0.18048179 -0.081183076 -0.0042121536 -0.04067394 0.09381348 0.23604245 -0.40008044 0.64206666 0.4428104 -0.6325887 0.335785 -0.06801869 0.24487902 -0.056802258 0.04525646 -0.49320242 0.41450244 -0.22681528 -0.03488471 0.452581 0.16824058 -0.19919904 0.07603302 -0.108018674 -0.09478334 -0.16933003 -0.26955724 0.011420247 -0.044548977 0.05316871 -0.23328273 0.17647028 -0.110437535 0.5960517 -0.72117597 0.0363278 -0.089161 0.012880927 -0.052006643 -0.58782023 0.4133727 0.33935818 -0.39222077 0.7940701 -0.17081039 -0.67366713 0.4543132 -0.18757398 -0.045269128 0.7431738 0.37571913 0.097928755 0.60582536 0.69056267 0.51000243 0.57111084 0.049324192 0.08591181 -0.48355708 -0.3862484 -0.039974794 -0.663236 0.5953029 0.15892513 0.5871258 -0.1778089 0.19940844 0.24795775 0.005489066 0.2703878 0.94749206 0.441636 -0.26175383 0.31709886 -0.22467887 0.011424007 0.27682167 0.09023106 -0.13807045 0.25249985 -0.058566924 0.6263761 0.19205353 -0.46132815 0.19772555 0.21039383 -0.09761234 -0.29324812
CD1C 0.19504476 -0.12876739 -0.06737933 -0.46968883 -0.031590287 0.060209475 0.16671883 0.252527 -0.15675841 0.15986814 -0.09264049 -0.13289204 0.40318635 0.04615489 -0.29191265 0.18600461 0.1216177 0.47524226 -0.2648598 -0.016339686 -0.102024585 0.07920015 0.21758996 0.17093486 0.20496634 -0.1823844 -0.2706707 0.0898973 -0.34296066 0.066762835 0.09105394 -0.12487774 -0.02270828 0.3415561 -0.016657494 -0.09446244 -0.14661008 -0.5684445 -0.44869927 0.16131578 -0.011635644 0.20150587 0.28408188 0.05044289 0.056413524 0.2250024 0.60977817 0.45291433 0.2646038 0.3202402 -0.22672716 -0.50921077 -0.10418863 0.28742453 -0.1520159 0.3975875 0.35990202 -0.3898725 -0.079278305 -0.27388752 -0.24199612 0.06933039 0.17824464 -0.18739967 0.3246854 0.22417633 -0.053020447 -0.30983692 -0.092944615 0.033464666 0.34188187 -0.26415765 0.28367445 -0.15306742 0.3661063 0.10449342 0.19997834 -0.12041866 -0.040485602 0.078514434 0.17951907 -0.047168564 0.38442227 0.09730336 0.025987083 -0.26949447 -0.2767692 -0.0034204638 0.33660406 -0.14982915 0.3180084 -0.0036881818 -0.12831716 0.43132284 0.06748813 0.05449034 -0.07258592 0.14835411 0.1392136 -0.03413608
MNDA 0.9201602 -0.6932754 0.07793492 -0.1783615 0.83494544 0.8401535 -0.15961106 0.3185204 -0.15845388 0.26910317 0.60631174 -0.0967558 -0.4418547 -0.18858024 0.27714276 -0.55593795 -0.10898552 0.49454314 -0.81834936 0.0050048623 0.4630248 -0.6268875 -0.0071513285 0.14372852 -0.51581925 -0.020276995 0.53360933 -0.010785437 0.35801795 -0.21628802 -0.21335211 0.022007104 0.18691054 0.39979038 0.43282744 -0.08110943 -0.41608638 -0.63410836 -0.11181796 0.6600168 -0.30450052 -0.23118235 -0.5274281 -0.8199207 -0.19594742 0.36187628 -0.2606066 1.4739121 -0.14970131 0.097644806 -0.10921621 -0.03024608 0.58117557 0.53592235 -0.66154516 0.2985541 -0.49471727 0.21260355 0.26879752 -0.21793735 0.05539765 0.9132036 -0.85896426 0.15678474 1.3115916 -0.1392451 0.068963856 -0.19981435 0.17958683 -0.12331519 0.033710316 -0.20556596 1.0513989 0.41519168 -0.2418508 -1.0214298 -0.6763132 -0.1959293 0.3894918 0.43267772 -0.21971206 -0.26051223 -0.09653813 0.10342549 -0.37770975 0.55805427 0.54652804 0.16757074 -0.20166707 -0.4929549 -0.81290907 -0.3592534 0.0339222 0.25830376 0.27927706 -0.23940909 -0.019521542 -0.4191596 0.18152434 -0.44669294
FCER1A 1.2093449 0.018875245 -0.09977924 0.09710989 0.2134093 0.24368326 0.5885038 0.30268896 0.7748993 -0.062062193 0.25686556 0.3488385 0.28267267 -0.085852705 0.16602185 -0.06503782 -0.0007468114 0.010074731 -0.09145888 0.25784472 -0.55233264 0.58422995 0.70739007 0.23933917 -0.68950605 -0.36180148 -0.24511723 -0.7744174 0.07852353 0.2933412 -0.69762915 -0.10661447 -0.43711856 1.3001469 -0.860427 0.17382987 -1.4934449 -0.19590531 -0.49063724 0.64745855 0.34171152 -0.31857905 0.2968446 -0.1562366 -0.30330974 0.577811 0.6410458 0.5188191 0.23123357 1.2290137 -0.099320054 -0.89314675 0.025435403 -0.43556872 0.04463724 0.5154543 0.9464772 -0.27510002 -0.22783978 -1.0568627 0.23648076 -0.051137682 -0.10715838 -0.60319453 -0.38742822 0.18348634 0.20032488 -0.5610529 0.29396012 -0.1590463 -0.4938881 -0.03978529 0.379989 -0.31443396 -0.1128694 -0.58888453 -0.00030747062 0.06977506 0.026488932 0.5952156 0.21533571 0.5049263 0.9437448 0.9095107 0.5268562 0.8456084 -0.4162476 -0.34690812 0.2246895 -0.25282174 -0.59836376 -0.09937274 -0.333507 0.9559919 -0.020919422 0.110578895 -0.21411589 -0.053564552 1.0308288 -0.48092878
SLAMF7 0.49550256 -0.7644986 0.25796655 -0.32874966 1.1271747 -0.42622757 -0.03360785 0.6209892 -0.081105076 0.15778123 -0.24839203 0.115561165 -0.43725744 -0.35476387 -0.5784216 -0.7954487 0.075194344 0.28404313 -0.6607252 0.041323405 0.70799106 -0.26615298 0.3943725 0.08663012 -0.1739185 -0.15895827 0.8497382 -0.3562929 0.15287699 0.3274249 -0.4742737 0.3056254 0.95135605 1.0848775 -0.22776628 -0.07253061 -0.7709836 -0.2827199 -0.49111605 -0.06423372 -0.6504037 -0.2766059 -1.2023566 -0.32887682 -0.17785752 0.36786252 -0.76743525 1.1901082 -0.4311278 0.48208264 0.4452865 -0.3365411 0.6141351 0.6669475 -0.49868664 -0.09171069 -0.31944817 -0.2357521 0.52949303 -0.16587563 -0.08676114 0.94048965 -0.38669828 0.33048218 1.1531104 0.17853154 0.25716445 0.4336531 0.25015798 0.13647105 0.46161348 -0.6887566 0.83172613 0.7539228 -0.26258656 -1.0919098 0.15954226 -0.47350258 -0.0014165257 0.109391734 0.16435017 -0.40078494 -0.33548015 -0.011459308 0.19666764 0.317837 0.6304533 0.44921774 -0.18662287 -0.22310828 0.2172159 -0.036664583 -0.44376072 -0.13641506 0.026524909 0.05853055 -0.025944537 -0.254042 -0.119785 -0.35550258
LY9 0.54771566 -0.119834386 -0.66154426 0.024719056 0.3661233 -0.32455406 0.34421274 -0.62777716 -0.10955372 0.28708854 0.15480278 -0.47533044 0.35646436 -0.20027286 -0.31491014 -0.23430192 0.17954102 0.2457888 0.19030215 0.20512804 0.12509835 -0.23287405 0.52713704 0.20455493 0.101281285 -0.40308017 0.29376963 0.26589227 -0.342858 -0.2787952 -0.113981284 0.7847091 -0.2178973 -0.014145129 0.33873296 0.1276121 -0.8650334 -0.42174196 -0.16226187 0.16545111 -0.28964898 0.12939511 -0.4672614 -0.009768219 -0.1797328 -0.7765983 0.040448777 0.4366095 0.20555428 0.34256616 0.1388128 -0.41152102 0.33076224 0.0630623 0.31413087 0.24786745 -0.6514815 0.003645433 -0.55322796 -0.2397336 -0.07072411 1.1132563 -0.7662442 0.46293154 -0.043317422 -0.0071112877 0.4510892 0.5311319 0.26054868 -0.29183516 -0.18647113 0.061298553 0.34723032 -0.046307873 -0.4131508 -0.7716691 -0.14076115 -0.4812161 -0.16609387 0.37380975 0.37589037 -0.35253602 -0.16348326 -0.04696401 0.33270484 -0.07698156 -0.16063313 -0.04776744 0.36906475 0.011807003 -0.2952156 -0.80021024 -0.19436458 0.60353345 -0.70992017 0.49942055 -0.53832084 0.5368583 0.19144371 -0.018701062
FCER1G 0.1918809 0.05749779 -0.21452017 0.793685 1.1300943 0.81543905 0.35503843 0.8188485 1.1569479 0.6999384 1.0777365 0.75111187 -0.31764036 -0.7481694 -0.36021566 -1.3630532 0.3076757 0.89437926 0.1975492 0.23906456 0.8998995 -0.008431814 0.9541207 0.9980444 -0.07623202 -0.89545035 0.7523222 -0.74677026 -0.9490673 0.2834687 -0.7672805 0.78342474 0.3732128 0.64385605 0.7065973 0.6288706 -0.803336 -0.42788553 -0.591556 0.2011902 0.28561386 -0.58634627 -0.85020643 -1.3673096 1.5229948 -0.12781736 0.13473988 0.48056135 -0.0971646 0.5079378 0.2863641 -0.29846162 0.6521722 -0.07462757 -1.0625759 -0.4999071 -0.3428401 -1.1277864 0.7179357 -1.0741543 0.5844157 0.63897943 -0.7832076 0.36954376 0.7284699 0.6457161 -1.1994754 0.7624339 -0.5433734 0.5358592 0.3865181 0.0503461 0.46935585 -0.8848633 0.89271206 -0.15641901 -0.019851996 0.6611503 -0.6243555 0.14038427 -0.41163042 -0.18088411 -1.034863 0.76379234 0.68624306 0.284198 0.81622463 -0.16134962 -0.7241094 -0.7953711 0.74656737 -0.19825025 -0.050888605 -0.3073309 -0.48987952 0.6455837 -1.1504084 0.23385371 0.09010117 -0.58368343
HSPA6 1.3784494 0.037187073 -0.52848405 -0.7022067 -0.1394401 0.010754174 0.60979384 -0.9789723 -0.5846623 -0.009398155 0.6157451 1.0512928 0.2644289 0.23933987 0.49100745 0.39294237 -0.029885674 0.47964478 0.45091504 -0.17454942 -0.18373077 0.32655287 -0.3884695 0.6984593 0.44599396 -0.23007348 -0.16110115 0.13753445 -0.2635963 0.4295375 -0.7586909 0.41966152 -0.3653042 0.12377415 0.43432844 0.38080338 -1.0909929 -0.2076858 -0.36100018 -0.017435066 0.102091365 0.46833423 -0.20575266 0.78512913 0.16456172 0.0958419 0.23591806 0.75790113 0.04547732 -0.1729698 0.61260235 -0.36325127 -0.20637389 0.02164591 0.17556225 -0.590119 -0.12845968 -0.26639685 0.39953545 -0.20137894 0.97426367 1.6841165 -0.029131325 0.7393791 0.43081018 0.9966944 0.1430303 0.35106513 -0.3709461 -0.69478637 -0.2245164 -0.06996061 -0.040382203 0.032439064 0.0024909633 -0.8639776 -0.63369364 -0.35283875 -0.5309314 0.5154037 0.670881 -0.18576604 -0.2712588 0.6078349 0.112997465 0.74441135 0.3356801 -0.8672046 0.80760217 1.0345304 -0.13653421 -1.0439416 -0.7783757 0.81634533 0.46718073 -0.3518569 -0.14401379 0.7600574 1.1166679 0.34438574
FCGR3A 1.5114659 0.30054447 0.08101374 0.9099281 1.6950194 -0.25854427 -0.5341186 0.53573674 0.08688434 0.5080682 0.59478444 0.39747298 -0.3977713 -0.13174461 0.64909583 -1.0382136 -0.19864495 0.26619568 -0.12806545 0.26006103 0.29191208 -0.14162193 -0.3901866 0.7937882 0.2608805 -0.7263967 0.039343603 -0.2500686 0.91011035 0.5912406 -0.919034 0.6124229 0.745408 0.7053448 0.24213919 -0.06146644 -0.73909765 -0.42152005 0.31737128 0.84414333 0.80905664 -0.22076565 -0.67479706 -0.7480711 0.7553203 0.5767034 1.022036 1.0765841 -0.064719684 0.4953635 0.9232118 0.05144356 0.65114576 0.29463062 -0.80095583 -0.046354588 -0.44576183 -0.52503175 0.8120578 -0.8619112 0.7923907 0.89163214 0.06519011 0.9262871 -0.1392265 0.10033922 -0.9640458 0.17452763 -0.38612163 0.06546822 0.36117676 -0.27183586 0.66748077 0.1530527 -0.38384134 0.22228308 -0.15265958 -0.19689348 0.5132188 -0.055610016 0.43825123 -0.73617786 -0.5799296 1.2818835 -0.4296841 0.24631566 0.912486 -0.6407245 -0.84238327 -0.9344256 0.355339 0.89078 -0.21704513 1.3138639 -0.06258233 0.82976806 -0.74980754 -0.17978948 0.40619683 -1.1150072
FCGR3B 0.3104892 -0.5440607 -0.24102002 -0.009872004 0.76720834 0.13625474 -0.1643875 -0.49561843 -0.45117015 -0.2774453 0.45858246 0.82574517 -0.5018693 -0.22676107 0.44455042 -0.53877723 -0.1638465 0.1755015 -0.21993656 0.3729832 0.46044102 -0.6059373 0.034777805 -0.11685709 0.2324508 0.05050546 0.092541836 0.00624601 0.38897845 -0.31530553 0.09388468 -0.06560692 0.0921974 -0.46383393 0.15327659 -0.07054444 -0.32630378 0.27083933 -0.39932573 0.8517215 -0.5362593 0.13629262 -0.48109713 -0.5389644 0.18488888 0.21907601 -0.57480097 0.06839697 0.42006558 0.010868476 0.70751804 -0.9182833 -0.103588805 0.49081007 0.08641454 0.72113 -0.5131195 -0.6383285 0.5545983 -0.43465236 0.027287466 1.0420794 0.33527935 0.30777 0.2458248 -0.17781197 0.7438458 0.3010947 -0.5795398 -0.010442995 -0.042934787 -0.8397013 -0.6811816 -0.120924965 0.31123737 0.043748237 0.664257 -0.010904348 0.5758978 0.13298963 -0.1397759 -0.53414696 0.75211245 0.15166947 -0.46625012 -0.17146981 -0.1541327 -0.33169633 0.4313747 0.1389516 0.10000269 -0.012947705 -0.07274602 0.14907886 0.33890203 -0.07343513 0.51436937 -0.40174308 -0.20692378 -0.6332272
UCK2 0.24048926 0.06807088 -0.081019625 -0.37452233 -0.06039487 0.00015982053 0.053553354 0.044047493 -0.43029073 -0.158481 -0.2049495 -0.54828227 0.013648605 0.046662744 -0.58275044 -0.32323486 -0.017126268 0.055371627 -0.8405059 -0.23829035 0.154599 -0.2273995 0.58036244 0.47428137 -0.122148566 -0.26146036 -0.54055417 0.021979988 -0.40404594 0.45205295 -0.31297037 -0.22004965 -0.55462056 0.049432788 0.010686601 -0.34054598 -0.32085028 0.0051714242 -0.007309237 0.12106981 -0.43089065 0.41131645 -0.06567684 0.09162321 -0.21528336 -0.22794259 0.21115808 0.30514598 -0.23983274 0.47084767 0.022990895 -0.41363606 0.3049172 -0.061183605 -0.12906688 0.18068253 0.11853606 -0.29511252 0.19617787 -0.43474105 -0.615938 -0.28343657 -0.2591242 0.121725045 -0.2827565 0.051156916 -0.15482484 0.09389377 0.41128173 -0.12977342 0.30453387 -0.4962502 -0.12574941 0.054966923 -0.60681665 0.20632173 0.15499024 0.0828231 0.01520371 0.16382253 0.23556332 0.09816723 -0.11402548 -0.06655747 -0.28017992 -0.16348988 0.022714365 -0.4233426 -0.09950095 -0.13613245 0.35364652 -0.33010343 -0.07115799 0.6081151 0.33957666 0.14107126 -0.39181495 -0.0057542166 0.078881055 -0.4552981
CREG1 0.28713363 -0.7907456 -0.34126732 -0.39152032 0.5886246 0.26058212 -0.20578736 0.9215817 0.30904052 0.25922194 0.7619424 -0.053274468 -0.5137851 0.21968322 0.12276354 -0.6307335 0.41520417 0.39440587 -0.6398534 -0.0045151142 0.5563521 -0.6087733 -0.083214834 0.095108405 0.21790251 -0.60445863 0.64099556 -0.26707587 0.30898932 -0.08371709 -0.3047763 -0.27750075 0.45624337 0.7502936 -0.10285473 0.10886903 -0.8099561 -0.14203577 -0.41255817 -0.6208451 -0.3290112 -0.46377048 -0.5498044 -0.33525825 -0.1428656 0.81116104 -0.28130716 0.39664346 -0.66026264 0.48192295 0.37351283 -0.0945143 0.3176044 0.20082438 -0.57508796 0.30163255 0.06794606 -0.14546148 0.6048584 0.17539376 -0.03667503 -0.044350795 -0.2443358 0.34793183 1.145539 0.14092042 -0.11392408 0.14163733 -0.27208155 0.36039692 0.21190053 -0.39397877 0.20253694 0.09077867 -0.6285832 -0.7726928 -0.073332384 -0.34254345 0.3559659 0.8437317 -0.14324072 -0.47798917 0.18778087 0.4880965 -0.10150773 0.8510764 0.7332152 0.1186831 -0.63786715 -0.5137006 -0.09123031 -0.5622973 -0.13091405 0.2705026 -0.5494564 -0.025362777 -0.33854485 0.06736227 0.07443159 0.042603828
