2000 100
A2M 0.22381205 -0.07555650800000001 0.210857285 -0.07474990999999999 -0.06236335 -0.097285715 -0.167401855 0.06451250850000001 -0.143643615 0.1110743485 -0.07321655149999999 0.23437687499999998 -0.054605175 0.0502565075 -0.16211743 -0.024968609999999995 0.2492065 0.0333745555 0.194767372 -0.18752517 0.25901455500000004 0.18437984999999998 -0.26628153 -0.11667435500000001 -0.176245545 -0.063342372825 0.185169915 0.19203984000000002 0.195358705 -0.0654893325 0.1363702035 -0.252043405 0.127408665 0.16288903000000002 0.142828718 0.018290823 0.20715602500000002 0.043332805 -0.14824022 0.16504666 -0.017309131999999998 -0.0811252365 0.1356091525 0.010447592999999998 0.025235701250000003 0.1255394725 0.01672127315 -0.06891538999999999 -0.1371998475 0.038683869999999995 -0.18354154 -0.20787835 -0.022159659 0.3305363 -0.10507910370000001 -0.125735204 0.25256624 0.189945005 0.17703412999999998 0.15788307950000002 -0.009344130000000006 -0.0415367295 0.07927474999999999 -0.156511122 -0.1092810555 -0.041465620999999994 0.04447438499999999 -0.012740840000000003 -0.0813241725 -0.19916646500000001 -0.106033187 -0.0259462325 0.182608996 0.010594875000000004 0.07964779999999999 0.019978645000000003 0.005054747500000005 0.058540748000000004 0.24927581650000002 -0.043399614999999996 -0.13977868 0.09720687600000001 -0.0369309275 0.47836589500000004 -0.0420938 -0.07929986250000001 -0.009197052499999997 0.06766011 -0.0162282545 -0.251704225 -0.004994067000000005 -0.14971522 0.06387798060000001 0.031511805 -0.155086936 0.088521395 -0.012333009 -0.164307622 0.06475411 -0.21644464
AAK1 -0.042747167999999995 0.203101425 -0.12646557 -0.018547447 -0.21969243500000002 0.0985452315 0.0221563875 -0.097067157 -0.16629032 0.014980195000000002 -0.013868922999999998 -0.19195289499999998 0.306868285 -0.217559115 -0.133497695 0.071873485 0.1045932765 0.03985353500000001 -0.091762295 -0.009451906999999999 -0.0728910465 0.07877948 0.045202700199999994 -0.049172165000000004 -0.05907596075 -0.0724647915 0.055220105000000005 -0.015273295 0.045468947 0.13617257700000002 0.284636 -0.115823088 -0.0414768835 -0.0325392295 -0.0056760665 0.07956761999999999 -0.00610014825 -0.190215075 -0.06848705799999999 -0.031722541 -0.133264255 -0.0761370375 -0.005283843999999999 -0.05628232 -0.09842324 0.18204904 -0.011362317 0.113125938 -0.0670704745 0.128392043 0.20474577 0.090605885 0.009268955000000002 0.074165369 -0.054118242500000004 0.010010632999999998 -0.006044789999999994 -0.087617105 -0.1024572555 0.022010823 0.09333652 -0.08454752 -0.11778237 0.12978035 0.03313474999999999 -0.238884865 -0.0004406299999999974 -0.13906966 -0.0024548020000000007 -0.009955183849999999 -0.1197928975 -0.2154159 0.010934038 0.0531215625 0.08776936299999999 -0.060056824999999994 -0.22509085 -0.084799098 -0.026750317500000002 0.14569369000000001 -0.225176055 0.01607768000000001 0.31705045 0.053320076999999994 -0.148929715 -0.10708121999999999 -0.1001419325 -0.14644669 -0.08825431 0.061238 0.0679448025 -0.11417694 0.27025531999999997 -0.04317388 0.0886061305 0.06256605 -0.14488383999999999 0.013156037499999999 -0.06381712 -0.215896347
ABCA1 0.008395989999999992 0.0258288645 -0.036925730999999996 0.10112146 0.08131717299999999 -0.148769215 0.097928895 0.085984618 0.026342360999999998 0.098684835 -0.10117740500000001 0.038157352500000005 0.075755398 -0.357085265 0.003533195000000003 0.030719929 0.028242105000000003 -0.09949471 0.048397645 -0.052873079999999996 -0.1320931415 0.0639300125 -0.22128301035 -0.01805541499999999 0.092130445 -0.09579341595 0.048024655 -0.109397455 -0.134670695 -0.15470235 0.027770033 -0.10844738000000001 -0.045569997 0.0292644065 -0.09087795975 -0.10706831 -0.11963322779999999 0.006325879999999999 -0.020995214999999998 -0.130489366 0.05394662 -0.156564085 -0.05341874499999999 -0.21489286999999999 0.190754837 -0.004462985000000003 -0.14905247500000002 -0.089975747 0.166142205 0.027827039999999997 0.08774464200000001 0.081454945 0.129211455 0.023924634999999996 0.09008108299999999 0.017160959400000002 0.019282683 0.021715171499999998 -0.13468064000000002 -0.241543915 0.0394047865 0.125799368 -0.2538843225 -0.055335961499999996 -0.022188936500000003 0.134923755 0.09029743000000001 -0.08653622225 -0.0647546265 -0.02762125 0.07710726000000001 0.021152666150000003 0.034996058499999996 0.096173955 -0.070162038 -0.18829831000000002 0.23679899499999998 0.026361869999999996 0.08879975000000001 -0.125736815 -0.17339769500000002 -0.035347869705 -0.217643055 -0.10510149399999999 -0.25490481 0.151650615 -0.092446278 -0.0528565235 0.06907556 -0.14681557 0.16530452499999998 -0.180032088 -0.07931822125 -0.10644795200000001 -0.012625887999999998 -0.018492719999999997 0.018866355 0.032892592 -0.14258848124999998 -0.040920754999999996
ABCA6 0.09892451 -0.09835908799999998 -0.048706904999999995 0.008352473000000003 0.038946129 -0.10713748 -0.008873400000000004 0.004488392000000001 0.1527728135 -0.28692452 0.09358390999999999 0.056919255 -0.26473941 0.30032052 -0.09012522849999999 0.010334484999999997 -0.09657269 -0.078832293 0.136107715 0.04286053200000001 0.106689004 -0.19424577799999998 0.086150755 -0.010047525000000002 0.003269434575 -0.0739889393 0.0269284625 0.005318574500000001 -0.128934245 -0.1575893175 0.003926640000000009 0.085483745 -0.145853805 -0.16884545 0.190312235 0.120596255 -0.16258291 -0.08300988299999999 0.232928625 0.015800819999999993 0.12862662 0.0084391995 0.0806174285 0.025855483000000002 0.12197808 -0.0002934800000000057 -0.009483994999999995 0.12802183884999999 0.130610202 -0.12238444 0.09267070499999999 -0.106450287 -0.127478438 -0.30536045 0.026818899999999993 -0.159409575 -0.11993822999999999 0.251231185 -0.043360017300000005 -0.11536262 -0.011370802999999999 0.143022225 -0.007048127500000001 -0.012625924999999996 0.19932631 0.21129114999999998 -0.1171756745 -0.034584858 0.12245808 0.07612776349999999 -0.06796063249999999 0.1445282 0.22321414 -0.175720385 0.07944877865 -0.040101989999999976 0.08778264499999999 0.052311851000000006 -0.007309526500000003 0.08714878499999999 0.11576157 0.013658315000000004 -0.21765697499999997 0.121608275 0.30120751 0.17693636499999998 0.22136350999999999 0.08790479625 -0.042378103 -0.214371375 -0.086265435 0.076520515 -0.0547370025 0.039154655000000003 -0.147787383 -0.022447950000000008 0.123214333 -0.165399635 0.155879253 -0.07494838599999999
ABCC9 0.06466213750000001 0.14663354150000002 0.032986328 -0.11208568999999999 -0.12857030105 0.08899494749999999 0.1069521675 -0.017183756499999998 -0.005305463000000003 -0.1824616925 -0.184856035 -0.039331978000000004 -0.00448229 0.005006455000000007 -0.081939117 -0.120644075 0.09006297 -0.045319525000000006 0.060617147 -0.08665221499999999 0.0464634095 0.162378167 -0.16991650621499998 -0.260186705 -0.18294678 -0.07276468650000001 0.023430464999999998 -0.23139258000000001 0.076035461 -0.09766006099999999 0.131295925 -0.055352573 -0.04770096 -0.1749416375 -0.004681039500000001 -0.0519461415 0.153022355 -0.0229200575 0.220235295 0.072313977 -0.09377560800000001 -0.01989917499999999 -0.09154976599999999 -0.260291595 0.07181291000000001 0.115985038 -0.09169510500000001 0.08370048475 -0.255302435 -0.051277647 0.08693856500000001 -0.0402870575 0.077871567 0.008275304999999997 -0.014960285000000004 0.102416365 0.170321488 -0.105775454 -0.011256605000000003 -0.15725761 -0.10326184000000002 -0.16010991000000002 0.025901272500000003 -0.14967574 -0.032233925499999996 -0.07958024 0.0334527 -0.25066233 -0.2481603 0.061404975900000006 0.179280905 0.03716456 -0.0551900986 -0.081519935 -0.0501517833 -0.055846172 -0.071846604 0.213520935 0.040660545000000006 0.051577801500000006 0.106714187 -0.25712377 -0.013339309499999999 -0.06888110750000001 -0.199861035 -0.068093287 -0.176284718 -0.206306765 0.0038824080000000004 -0.0148267075 -0.00024610999999999383 -0.0473006535 -0.043910924500000004 0.11950581500000002 0.11412509500000001 -0.11193936999999998 0.13183296549999998 0.019909768 -0.12384572949999999 0.060107003000000006
ACAP2 -0.08741268499999999 -0.081418311 -0.034554058 -0.0994 -0.0931816885 -0.03366864 -0.0092734389 -0.085863638 0.16426965 -0.073264303 0.02165028999999999 0.106724765 0.23672489225 -0.36670042999999997 0.0018523000000000012 0.084960156 -0.30902916 -0.06312995824999999 -0.05830634 0.18593268000000002 -0.10747828199999998 -0.020970467500000003 -0.012750625000000002 0.005147258000000002 -0.084329425 -0.19578192182499998 0.060200522825000005 -0.12667327499999997 -0.034695741999999995 0.074132425 -0.14337993000000002 -0.09613396 -0.018219431 0.014247835 0.0590875 -0.029552264999999994 -0.1988011085 -0.0509385345 0.18650317500000002 0.22927903959999998 0.26210443499999997 -0.009675752499999996 -0.26539486 -0.079356551 0.087896066 0.31843864 0.099555805 -0.21183239 -0.03696322825 -0.014207385000000003 -0.17036397 -0.042220850000000004 0.1354350405 0.09180867749999999 -0.12880478 -0.016534720000000003 -0.05331253 0.02143226999999999 -0.033906599999999995 0.015548997 0.0021533124999999972 -0.03685793 -0.18265133 0.03475963 -0.229310805 0.14889017249999997 0.143523571 0.1734499645 0.18538154499999998 -0.25086905 0.15125104 0.037196459999999994 -0.15415381350000001 -0.16423021999999998 0.3573768 0.048552385 0.16916112500000002 -0.1321362985 -0.12106933 0.103807915 -0.2307119895 -0.0035908449999999953 -0.44388563999999997 -0.113187625 -0.24326211999999997 0.1550462 0.1069181875 0.19290648500000002 0.09052909 -0.169696085 0.194755392 0.01923865 0.06083726750000001 0.014394062 0.134008765 -0.024058364999999998 -0.21933466499999998 -0.0894621735 0.043286817 0.09352707
ACHE 0.24508159499999999 0.0851843005 0.08800200500000001 0.137920375 0.216144905 -0.142247395 -0.014252015000000007 0.056056722 0.00060791848 -0.17589838000000002 -0.07520143 -0.063355829 -0.13814994800000002 0.0681397215 -0.056609635 -0.10101785 0.20456423 0.025481474499999997 0.002784758499999998 -0.259557596 -0.024737084999999992 0.12795204 -0.3300896 -0.06311485979999999 -0.16442790399999999 0.11474777 0.004732090000000001 0.011435859999999992 0.187393858 -0.18981458 0.22541445 -0.08581124100000001 0.010899056999999997 -0.18469722500000002 -0.184882455 0.078009265 0.22594848499999998 0.023311854999999992 -0.0588624125 0.13767954500000001 -0.115345675 0.003195923 0.20806627 -0.23208781499999998 -0.13639177 0.1214715125 0.11159837 -0.22189389999999998 -0.025603337499999997 -0.0631180615 -0.07949329 -0.128400371 -0.10286962999999999 0.02955783975 0.1168473235 -0.020028683999999998 0.26012831000000003 0.106394008 -0.102539432 -0.07805735999999999 0.03957041 0.046791374999999996 -0.096684595 -0.013432074999999995 -0.0135546425 -0.07993333050000001 0.0725097585 -0.1262337825 -0.0153656445 -0.014804339 -0.046254119999999996 0.171115145 -0.110055545 0.13706245 -0.161553315 -0.231792185 0.058524506000000004 0.11645583925 0.0883419 0.19131363499999998 -0.09572821649999999 -0.142466312 0.1885720725 0.11448200850000001 -0.21394844 -0.221194365 -0.0852297825 -0.021156317499999997 0.183934425 0.156590435 0.063812488 -0.109738524 -0.1174351035 -0.07594515765 0.142600873 -0.073335831 0.19002656 0.1015446275 -0.0110564008 0.1110150275
ACKR1 -0.091152868 0.01959600000000001 0.047945 -0.1992567 -0.133716795 0.246228765 0.06783363099999999 0.032707791 0.022941550000000005 0.09098263399999999 -0.13358401749999999 -0.024921340000000007 0.12909781 -0.07209362 0.0504859835 -0.06888755099999999 -0.1311807 -0.037797927499999995 0.020424829250000002 -0.18472207499999999 -0.030504835 -0.130647743 -0.0568271565 -0.022752045000000002 0.031484598 -0.1519478775 -0.150177657 -0.11520896050000001 0.2462283 0.0945634788 0.157241287 -0.174191465 0.1866415165 0.059860185 -0.027658459999999996 -0.1107295961 -0.016543030000000007 -0.08120738499999999 -0.1546407565 0.16813431499999998 -0.0336048595 -0.29078573 0.03351860749999999 -0.044268296 0.069737616 -0.19317091 -0.20371422150000001 -0.04021653875 -0.10269396 0.06613907025 -0.167978985 0.2006275380575 0.1901319635 -0.095128015 0.029273395 0.1319858 0.012967419999999993 0.12959972 0.19761397199999997 -0.17984654 -0.015922526 -0.007382719999999995 0.131277585 0.05963034899999999 0.0141382496 -0.10840680000000001 -0.186037536 -0.113819315 0.15720734 -0.0760277085 0.26200701000000004 -0.041685614999999995 -0.18655517 -0.08901106 0.0659955962 -0.0604511955 0.13117725600000002 0.129840255 0.096397892 0.029073679999999998 0.010249507000000005 -0.066362095 0.05732107875 0.0002600364999999997 0.0316018245 0.09242571699999999 -0.04054211999999999 -0.088097685 0.001777930000000004 0.12224080749999999 -0.10732996 0.02066052000000001 0.05310649778 0.15612408 -0.0742379845 0.048400059999999995 0.027301987 0.10227456215 0.03770376 0.139371576
ACKR3 0.084774875 0.0040804844999999985 -0.11642801 0.189012825 0.2014447 0.09283741799999999 -0.097766695 0.073744788 0.051886005 0.0618615195 0.0020092849999999995 0.0019288600000000001 -0.17552860799999997 -0.016233922499999998 0.13958324 0.08954756 -0.013311704999999993 -0.16998388 0.08628950499999999 -0.119236825 -0.21860585 -0.22147347 -0.16483904500000002 -0.063103945 0.15674569500000002 -0.102844472 -0.059420612 -0.143075045 0.116683134 -0.07982956100000001 0.19779151 0.0024748500000000007 0.166109115 0.066102255 -0.11857653 -0.056290935 0.039787933 -0.029939030000000002 -0.031401837 0.112704205 0.043600810000000004 -0.28335122999999995 0.08844751000000001 0.013026134999999994 0.39771875 0.0597116085 0.054513439999999996 -0.23671351 0.141882507 -0.064488025 -0.04123194499999999 0.07070214500000001 -0.046533204999999994 -0.11285705 0.0517203325 -0.060410935 -0.049941995 -0.01841561 0.099409514 -0.04995943499999998 0.0979822325 -0.026991534999999997 -0.1349704175 -0.03769303250000001 -0.139615355 -0.101914748 -0.002570081499999998 -0.06575628 0.227325563 -0.0244130265 0.018230267499999994 0.095414338 -0.21644580000000002 0.162084735 -0.14422749350000003 0.06396644500000001 0.192672735 -0.13013219 0.13057807999999999 0.12728413 -0.271340135 0.190963065 -0.031458575 -0.03527929499999999 -0.08893252800000001 -0.12000053499999999 -0.09364088999999999 -0.011384770000000002 0.005103684999999997 0.091924955 -0.072750929 0.015930042499999998 0.1037585285 -0.056999658999999994 0.017545002500000004 -0.0876712425 0.27749563 0.028004315000000002 0.061801931500000004 0.13455383155
ACPP -0.049182165 0.12862895 -0.098278595 0.086187422 -0.08764438475 0.0067138950000000044 0.0731982835 0.03778648500000001 -0.170689453 0.081417727 -0.105861537 -4.361600000000326e-05 -0.099747481 -0.20914083500000002 -0.127283712 0.025065342499999997 0.1019747085 0.37189724999999996 0.20096201000000002 -0.148451305 -0.022232120000000008 0.219924165 -0.09037674300000001 0.027114295000000004 0.05497588522 -0.23711127999999998 0.05486900499999999 -0.009756017999999998 0.206825288 -0.12015003500000002 0.204764935 -0.19652319 -0.2157482785 -0.1074562005 -0.21018041 0.11796821799999999 -0.134578557 -0.21098326 0.22089702 0.159276115 0.07367146249999999 -0.09616874435 0.016345010000000007 -0.018190455000000022 0.0419717885 -0.15156187124999998 -0.009361824000000001 -0.064342985 0.010763955000000006 -0.30932352 -0.05027316 -0.166984155 -0.0563718 0.12159423 0.154552505 0.37351036 0.12208207 -0.015851884999999996 0.1505910275 -0.014309790000000003 0.0115329611 -0.112882767 0.16998053999999999 0.0018479625000000013 0.21379274 -0.04846174625 -0.0772902 -0.337930635 0.07983883500000001 0.132993318 -0.051241697 -0.22485329 0.277004115 0.09040946799999999 -0.037934202 0.101394457 -0.027129034999999996 -0.16450427 0.112593387 0.096997095 -0.07932453 -0.017934594999999998 0.232700515 -0.1962091935 0.010644830499999999 0.070307405 -0.151585875 -0.046585140000000025 0.12044555 0.10224255 0.06566200900000001 0.025663544999999996 0.1045514635 0.1548102775 0.010616095000000006 -0.05481917500000001 -0.023987357499999997 0.034559852 -0.35438333 -0.0521779485
ACSM3 -0.0519395835 -0.073525971 0.16904407999999999 -0.214618725 0.14556829999999998 -0.143010854 -0.068049177 -0.087539187 0.05042594 -0.084654000728 -0.038319500000000006 0.015552819999999995 0.12829023 -0.02900474 -0.16783768 0.0420532425 0.13656847 -0.104919315 -0.011660685 -0.067882102 0.087506262 0.19961779000000002 -0.08501243500000001 -0.005676254499999998 -0.105606944 0.0801021565 -0.160899565 0.008891425000000001 -0.130378887 0.0009429274999999959 -0.11564311199999999 -0.10327615300000001 0.0627201825 0.046474995 0.029108937499999998 -0.098435305 0.168983825 -0.018244965000000002 0.019577634999999982 -0.07183249750000001 -0.011740874 -0.078642042 0.2041961025 0.07524080600000001 0.11114666150000001 0.007228319999999996 -0.140718002 0.0672118405 0.07803437299999999 0.29324636000000004 -0.20758364 0.056879767 -0.22895163000000002 0.1325940205 0.16155484 -0.22246114 0.14010251 -0.19042259 0.11248197000000001 0.0066253249999999875 0.127231615 0.13569471 0.1117897655 -0.197822005 -0.01884428499999999 -0.02811856499999999 0.146923323 0.216201245 0.15506449249999998 0.159379079 -0.18874694 -0.154118803 0.11967736300000001 0.09371085550000001 -0.009025990000000012 0.08038063949999999 -0.030036996000000003 0.143003045 -0.0722258625 -0.0638071925 -0.16157996800000002 0.09973509 -0.140103277 -0.30401756 -0.04119076000000001 0.21470166300000001 0.1041744745 0.0249232975 -0.085082195 -0.1589889065 -0.044044054 -0.198288095 -0.040812282500000005 -0.0317462895 0.23512 0.173362685 -0.086268935 -0.0061563725 -0.003979142500000005 -0.03763933
ACTA1 0.025682449999999996 -0.020665066000000003 -0.0225147865 -0.095466095 -0.11187876399999999 0.087133989 0.0546904035 -0.19730584350000002 -0.029426575000000003 -0.16997822500000004 -0.03203172000000001 0.16794618 0.10197339300000001 0.103370596 -0.0316466515 -0.041672608 -0.009851169999999992 -0.08399449 0.1010964885 -0.1566096975 -0.09673272999999999 -0.014254995 -0.027758266 -0.134443305 -0.06989663 -0.230342094 -0.10948733999999999 -0.080084478 -0.237477785 -0.061741035000000014 0.23152973955 -0.17015267 -0.13949443065 0.07750439249999999 -0.03512815750000001 -0.0250408125 0.1093284905 0.098208287925 0.044888098 0.10430277499999999 0.06940259800000001 -0.019806434999999997 0.0232461715 -0.157576595 -0.0072897725 0.222775833 -0.1359302925 0.020433466999999997 0.133144715 -0.2196023455 0.0645526425 -0.0137035595 0.18577391 0.058969225 0.09243558449999999 0.093565075 -0.047005015000000004 -0.116841079 0.23956265 -0.15701117 0.17962380500000003 0.024313112500000005 0.284081465 -0.060945854 0.11627972 0.085302776 0.141122805 -0.087331965 -0.110309412 0.0540204865 0.13203905 -0.0343202685 -0.147278965 -0.1035167425 -0.14403294649999998 -0.16626094 0.154039679 0.0086945985 0.010712415000000003 0.0815179 0.05569097965 -0.049821962 -0.13625078499999999 0.02801680000000001 -0.029815535000000004 -0.033477690000000004 -0.115151782 0.23497678 -0.176209775 -0.02694688815 -0.20131811 0.1384904775 -0.15607817 -0.087326668 0.28147626 -0.1131170775 -0.032822033199999996 0.024817009 0.010001171999999996 -0.13685438
ACTA2 0.04224942500000001 -0.0444729215 -0.062344283 0.20548587000000001 -0.059925433 0.019720565850000003 -0.18631695 -0.043064309999999995 -0.0509240715 -0.22977706650000002 -0.09865507500000001 0.124594605 -0.16419750500000002 0.1277902 -0.0183516675 0.094728945 0.17406381399999998 0.177228695 -0.057051500000000005 0.1413151215 0.152273168 0.06655767 0.044328839999999994 -0.018455177000000003 -0.11864343999999999 -0.06737117200000001 0.2047251575 0.13263526 -0.026107645 -0.1023806625 0.02794417 -0.0662493015 -0.04659031 -0.131792455 0.194576055 0.0017749950000000014 0.194447325 -0.12575151 -0.005823974999999995 0.0432441705 0.143898972 0.23586097500000003 0.07076223000000001 0.225177625 -0.051837468 0.069489745 0.058284038 -0.067428645 -0.14446905 -0.10097560900000001 -0.22048854 -0.240816805 -0.32260332999999997 -0.06252209505 0.08756568 -0.0815914925 0.010993219999999998 -0.015202951999999999 0.213001065 0.137820276 -0.018091885000000002 0.1386618085 -0.005487309999999995 0.03379400285 0.023309410000000003 -0.02304874775 -0.12556699 0.076143465 0.12578178599999998 0.012039632999999998 -0.06402924 -0.007885109500000001 0.118231425 0.11595586999999999 0.1135041465 -0.081157915 -0.12333468674999999 0.0567645535 -0.1570148 0.282482115 -0.206936545 0.0014622900000000015 -0.025888425 0.434283215 -0.0587571915 0.323723485 0.032925925 0.221191845 0.11289966 -0.13822162500000001 -0.0852891065 0.09995596 -0.12034229 0.187126525 -0.06457221075 0.017727795000000005 0.017201171499999997 0.04637846500000001 -0.08163497 -0.04449393
ACTC1 0.04642119605 0.048123215 -0.0405593085 -0.104157335 -0.0889790545 0.06273881 -0.077585115 -0.044001795499999996 -0.13792867 0.16293256 -0.036276905 -0.235336141 -0.119472865 0.15716732700000002 0.039576898 0.031715328 0.059279743 0.010382447499999996 -0.10322444 -0.0424602735 -0.045705106 -0.145432425 -0.16806251 0.047397577999999996 0.19802241999999998 -0.05810537499999999 -0.167316262 -0.102698864 0.0147427295 0.1341808035 0.08913768500000001 0.027681909499999997 0.020300981000000003 0.119794715 -0.18029045999999999 -0.09845342000000001 -0.20946478999999998 -0.207735665 0.094367806 0.216778324 0.04614246000000001 -0.20133848 0.012684754999999999 0.05730348 -0.0610553605 0.0619488618 -0.055923725949999996 -0.064961825 -0.018442175000000005 0.14850536 -0.11451813849999999 0.06585638199999999 -0.030025365 0.052615115 0.017951175 0.098365618 0.002537517999999999 -0.19082291 -0.03362368 -0.09976415 0.01987293835 -0.26126371 0.1025598145 0.164634682 -0.08319904500000001 -0.13333163850000002 0.050261007499999996 -0.0050604999999999956 0.17069322650000002 -0.0231888885 -0.09401174 -0.20493276249999998 -0.147763397 0.05002482 0.022003339999999996 0.255343315 0.029489135 -0.10880154 0.14098085999999999 0.07419473000000001 -0.06503571999999999 -0.019615164999999997 0.023961040000000003 -0.2486815475 0.032349738499999996 -0.18468963 -0.07715978600000001 -0.042724445 -0.210899585 -0.01660242 0.032813631999999995 0.182065315 0.255558425 -0.120580558 -0.008091599999999997 0.089365902 0.105846065 -0.07239086 0.055897055 0.083514855
ACTG2 -0.158008953 -0.190523065 0.08125120999999999 -0.097679703 0.034883138499999994 0.027370969999999994 0.009850896999999997 -0.10379202 0.04415172750000001 0.216349335 -0.12563814 -0.021295745 0.05698689575 -0.214015185 -0.1409762265 0.034890349 -0.10325567 0.1278814445 -0.12802557 0.07942268499999999 -0.0967563025 0.036855290000000006 -0.01395339000000001 0.028798104 -0.033543505 0.15334471 0.08827629000000001 -0.11692975 0.0705006185 -0.287234255 -0.21191759999999998 0.07205450000000001 -0.1187884275 0.118388315 0.102825795 0.020744105 0.070127715 0.10703594550000001 0.11425296500000001 -0.07827963 -0.0425937635 0.09969299749999999 -0.167911673 -0.12709275650000001 0.291961435 -0.09728975249999999 -0.0712669035 0.173308232 0.016669995 0.112942575 0.11008027 0.017792780000000008 0.025009583 -0.0013463484999999987 0.1569244525 0.0710492365 0.11101108500000001 -0.19482363149999998 -0.101503805 0.017015215 -0.206162238 -0.0163760935 -0.017260748500000003 -0.068697069 0.071400652 0.06015457865 0.11039874350000001 0.028551805000000003 -0.19112204000000002 -0.0415070275 -0.002916770000000006 0.031145416000000002 0.080755403 -0.14275417 -0.01948933500000001 0.18658046499999997 0.023290548 0.163921495 -0.008489879999999998 -0.10880605175 -0.026043827999999998 -0.17777947 -0.0541627135 -0.24428475500000002 -0.028069107499999996 0.12523695 0.012689200000000012 -0.19834439799999998 -0.0057126163 -0.141325879 0.013500235 -0.023938602499999996 -0.067010932 -0.03686239000000001 0.040303165 -0.032755027000000006 -0.030418745 0.1268424215 0.237776905 0.16318876999999998
ADAD2 -0.176418142 -0.004610000000000003 -0.16150605 0.1972680055 -0.251392945 0.220931163 0.121094245 -0.058283531500000006 0.09901148500000001 0.0811759795 -0.297576725 0.23322872 -0.0945433017 -0.009863748500000002 -0.005595397500000001 0.03662245 0.143009137 -0.291992565 -0.108781555 0.0784622135 0.26638491 -0.23910289 0.0028103100000000034 -0.03248221 -0.009496470000000007 0.005506994999999997 0.0951515115 -0.025919665 -0.072058918 0.057340381499999996 -0.0159069 -0.10370489 -0.011637915000000006 -0.093268268 -0.0008179049999999938 -0.192218905 -0.15936112 0.04472903499999999 0.0441804655 -0.017120697500000004 0.0755098585 0.06475700150000001 -0.154599295 0.21871560599999998 0.0475525653 0.157802425 -0.046742732999999995 0.007890379 0.0330012125 -0.0999390815 -0.08842204 0.002099005000000001 -0.141061765 0.1306373775 -0.007124479999999989 -0.06022182000000001 0.110503092 -0.15714668 -0.030322819999999986 -0.08003738199999999 -0.006293425000000005 -0.087079655 -0.006168900999999999 -0.1578787568 -0.256017632 -0.02334955999999999 -0.01003983 -0.021533415 -0.040462939999999996 0.0636450625 0.233447405 0.14096186 -0.15706482 0.1059488295 -0.09641611 0.1181395725 -0.17613478000000002 0.1072331825 -0.092462857 -0.18595748250000002 -0.1896391015 -0.14496512649999999 -0.145071185 0.0090834175 -0.019724559000000003 -0.010470284999999996 -0.0038175974999999987 0.316133635 -0.1865851645 0.07533863 -0.0184962445 0.032118049999999995 0.09957592200000001 0.15255562 0.0046324099999999965 -0.05637513499999999 0.14474357999999998 0.220484515 -0.0493393045 -0.13164533
ADAMTS1 0.025076494999999976 -0.158334015 -0.14331802999999999 0.28073184 -0.026435614000000003 -0.06827474 -0.26657144 0.21150221000000002 -0.09785999100000001 0.01194105999999999 -0.1528274525 -0.132029235 0.136476382 0.0725604085 -0.029551640000000004 0.0076315775 0.130210053 0.21518653 -0.24413096 0.05539947 0.09995994650000001 -0.035809656 -0.21949969000000003 0.17296115 0.119667205 0.41331289 0.265335695 -0.251333135 0.006512092000000001 -0.069625585 0.225243225 0.171824585 0.008021020000000018 0.20428669000000002 0.140342338 0.1125164075 0.149118956 -0.0277472185 0.0369917305 0.07676559150000001 0.030944534999999995 0.23606084 0.12487906 -0.2163844575 0.076047929 -0.142576325 -0.15230860499999999 -0.1526075 0.08116877999999998 -0.0773033085 0.12071594 0.06660168 0.15505744 0.21401314999999999 0.21544753 -0.1126916265 -0.09728488 -0.0421989868 -0.143169697 -0.019325102999999996 0.014959544999999998 -0.126229975 -0.12217969 -0.02146474000000001 -0.19886853999999998 -0.049514934999999996 -0.0817451765 -0.077265076 0.013208049999999999 0.1588446215 0.0993260275 0.0483996345 -0.0993748265 0.129989445 0.1155816375 -0.16986385999999998 -0.0919706515 -0.1290361 0.13838408 0.26904965999999997 0.014148185 -0.03878201500000002 0.09388225000000001 0.13594669999999998 -0.06812101 -0.04930470599999999 0.131951105 -0.189733225 -0.074375545 0.001787304 0.0505063305 0.0151737875 0.0656810225 0.0839691945 0.082618387 0.08374612000000001 -0.141274025 0.0107527568 0.112307317 0.11382811300000001
ADAMTS4 -0.00017128499999999325 0.06258134500000001 0.0356186275 -0.0566358845 -0.015677789 -0.014796988000000004 0.143677455 -0.0636898875 -0.130270297 -0.17045125 0.20289584 -0.18193643499999998 0.027106565000000006 -0.1211734315 0.12911882 0.030407579 0.16616943 0.1286056395 -0.235823085 0.048692555 -0.07199311 -0.032043830499999995 -0.1111113765 0.08814474500000001 -0.026682871 0.14588207 -0.10632388 -0.108603525 0.222314815 0.15042324499999998 0.121193885 0.16829382825 0.15289974935 -0.187383206 -0.028998525000000004 -0.1481823165 0.0380637925 0.037523829999999994 -0.0339101285 -0.013186625 -0.170994245 0.08610309499999999 0.138438032 -0.110861791 -0.23752552500000002 -0.02284955 0.17600554129999998 -0.137408298 -0.09411119500000001 0.040797555000000006 -0.02661369265 -0.24755085999999998 0.015753782499999994 -0.005147637499999996 0.021525787 0.034389505 0.1346865 -0.013145505000000002 0.01822286 0.220864995 -0.08345636499999999 -0.1147353525 -0.020722555000000004 0.003004251999999999 0.049843560999999995 -0.19955615999999998 -0.06959442500000002 0.07031556000000001 -0.053267946499999996 0.156008065 0.078429994 -0.15537055 -0.0159317775 -0.0034392250000000006 0.18081469849999998 -0.036785205 -0.083498985 0.042367234999999996 0.12661216250000001 0.005691875000000006 0.105394025 -0.12924408625 0.24416248499999998 -0.15875416035 0.137085815 0.02373068500000001 -0.0901792275 -0.24880633 -0.1408808116 0.1994747928 0.0261132345 -0.031124093999999998 -0.002330269500000001 0.010239822499999995 -0.04005509 0.02434921 -0.031196499500000002 -0.06805032999999999 0.011750820300000001 0.159758737
ADAMTS8 -0.08973747 -0.041214249 -0.054380869000000005 0.03102787 -0.004900124000000002 0.014417030000000004 0.1319504225 0.038178938999999995 0.024667357 0.0084102775 -0.03795335999999999 0.10299662500000001 0.040646756000000006 0.0090432015 0.04216812 0.089142162 0.17389358500000002 0.011282769999999998 0.016222009999999995 -0.035480881 -0.0680431075 0.12145015499999999 0.058936168 -0.032628330500000004 -0.10659687400000001 0.066594395 0.0855064675 0.1247238675 0.1095881865 -0.08667354199999999 -0.0769415515 0.0055639593 0.033382862 -0.06262693 0.054781128500000005 -0.1533791395 0.121305468 0.11138247500000001 0.119726395 0.0481751025 0.10358023699999999 0.1356591525 0.0338436605 -0.044564862 -0.053772984999999995 -0.094459865 -0.0264235455 -0.01879444 -0.128638797 0.0148315465 0.077776339 -0.084809431 -0.0712341935 -0.112745152 0.083052035 -0.033925119000000004 0.16113408 0.09835827500000001 -0.1970833375 -0.14707497800000002 -0.09134119 -0.073465625 -0.1297960675 -0.089006523 -0.01283894 -0.02466297 -0.20682548150000002 -0.040371408 0.028641984999999995 -0.13028035000000002 -0.17644058499999998 0.146346378 0.00014614349999999936 -0.012289630000000003 0.043613019999999995 0.176823735 -0.18181878499999998 0.14007730200000001 -0.11265693 0.039888609000000005 -0.217758285 -0.0266140785 0.297714295 0.011452635000000003 0.05205242 0.089884055 -0.00198298999999999 -0.13185869 -0.0724052845 0.1801667 -0.045402198000000005 0.095275933 0.130202646 -0.028606234 0.11952761 -0.072902545 -0.122925302 0.0158331125 -0.10822341675 -0.110381725
ADAMTS9 -0.053028716 -0.16001609 -0.029590328500000002 -0.060013346999999995 0.05280467999999999 -0.072155418 -0.143045863 -0.016851807000000003 0.117578195 0.193685055 0.060920490499999994 0.125854036 -0.050665538999999996 -0.14919267649999998 -0.16193996800000002 0.0463824605 -0.176496253 0.055374648000000005 0.09877354499999999 0.0604005215 0.198563445 0.196541359 -0.147024605 0.14332227 -0.0136447375 0.0027080100000000037 -0.0018038130000000013 0.059444389 0.1270418075 0.0360919015 0.288663265 -0.198690545 0.02922619 -0.0732740065 0.020021146999999996 0.189159615 0.0644004725 -0.05864661225 0.004362204999999994 0.05365869 -0.07782075150000001 -0.037299515 -0.092887302 -0.055627356999999995 -0.047474235000000004 0.0105106456 0.104083 -0.074576185 0.121727685 0.061894762000000006 -0.1646276535 0.075413991 -0.05586281 -0.07612900685 -0.03518276199999999 0.169148675 -0.16546053 0.1523670765 0.32607567 -0.0572615675 -0.096877599 0.134948698 0.35329251500000003 0.08437651 -0.0155278115 -0.0249573395 -0.0572861365 0.0433244953 -0.05135791 0.08371701000000001 0.1417668618 -0.1419871075 0.060054885 0.010542711849999999 0.12624729699999998 -0.050319628000000005 0.091055805 0.030506569999999997 0.07502434 0.11435845700000001 0.035200287499999997 0.059717053320000005 -0.32869265 0.07225245799999999 0.0030774499999999955 0.024217505 -0.16147103499999998 0.18890053 0.037926055000000014 0.1575215455 0.1848080985 -0.150637325 0.03741772000000001 0.1054406075 -0.118861416 -0.079777385 -0.08999054599999999 0.083780585 0.062765575 0.020341044500000002
ADGB 0.037062325 0.050501921000000005 -0.022133688000000002 0.106818563 -0.24176509499999999 -0.018720522000000003 -0.106087295 0.1263208415 -0.081580819 0.07593196499999999 -0.0888080665 0.129725259 0.030749882500000006 -0.17192132000000002 -0.16163412500000002 0.019322835000000003 0.08201257499999998 -0.16566231750000002 -0.078317236 0.18653117 0.11658719749999999 -0.18582626 0.25414544 0.042201655 -0.0179533 0.024331179999999994 0.20330726999999998 -0.0743364737 0.097582854 0.156587325 -0.06245148920000001 -0.040648304999999996 0.05576759 0.0757398365 0.0338365473 0.042769865000000004 -0.0621982469 -0.24667308 -0.07030775000000002 -0.10467940999999999 0.08483748 0.100121645 -0.09198842269999999 0.147218537 0.015550685000000009 -0.0414392825 -0.23382581500000002 0.0667676855 0.20446996 -0.10307377849999999 -0.194370455 0.08494968750000001 -0.08677586849999999 0.16141838 -0.09167548499999999 0.015166463999999998 -0.20449672 0.039924796 -0.16378663 -0.008285327 -0.0016303149999999933 -0.02129321615 -0.120986387 -0.118756185 0.1067383065 0.09329696 0.042966769 -0.0530130965 0.0187071375 0.1479992005 0.12135772 -0.093505169 0.122291705 0.085690712 0.05501695200000001 -0.0648375395 -0.073040191 -0.15350909 -0.038519826 -0.08620838435 -0.023854922 0.155893875 0.024506575 -0.042179140000000004 -0.184125495 0.010349009999999992 -0.004430824999999996 0.048932131 -0.006729745000000002 -0.084127795 0.10371522849999999 -0.126100845 0.027694242 -0.111199803 -0.06377176245 0.09638020750000001 0.033991497999999995 -0.010033365000000002 -0.09305994000000001 -0.1709627125
ADGRA2 -0.047284855 -0.081022596 0.1015087226 -0.11394359000000001 -0.03657162 -0.241246025 0.34434175 -0.083215245 0.138652887 -0.07094929000000001 0.10898753835000001 0.09540538 0.092527968 -0.10756801599999999 -0.026011520000000003 0.03697381500000001 -0.1368436 0.052680223 -0.009096622 -0.084812566 -0.055275291500000004 0.11662228 0.17169556 0.15458151979999998 0.06000794499999999 0.22657176499999998 -0.029485202999999998 -0.057862643 -0.088273511 0.0025561720000000024 0.17416601099999998 0.12609294299999999 0.24176513835 0.12931205499999998 -0.022746424999999994 -0.10210846999999999 -0.17650047075 0.0164833 -0.020916832499999996 0.0028992760000000027 0.158146455 -0.067834746 -0.04357424 -0.145856025 0.21843623500000003 0.12356239 0.21531187000000002 0.097783218 0.22147684 0.07539478 -0.009164895 -0.126713835 0.0770019275 -0.10654478349999999 0.255282925 -0.260123215 -0.074480665 -0.007770304999999998 0.0187644635 0.186501135 -0.0227790055 -0.12099910750000001 -0.10503901 0.238762315 0.20793334849999998 -0.048659335000000005 0.1227312932 0.12858838649999998 -0.136799252 -0.0438319115 0.004437654999999999 -0.08682716000000001 0.186012963 -0.1359259985 -0.109331925 -0.18995915500000002 -0.18449347500000002 -0.077686002 0.083670315 -0.05490778 -0.025658070000000005 0.118018582 0.07866401 0.092854098 -0.143170647 -0.115162165 0.10420490500000001 -0.11070482999999999 -0.13005044999999998 -0.112852475 -0.017098945 0.132403995 0.058767955 -0.297428845 0.23215374500000002 -0.020730517 -0.292521515 0.067952185 0.014808295000000006 0.057028851500000005
ADGRG2 -0.14806816499999997 0.131044205 -0.00789509 0.08269538999999998 0.11704914 -0.0034453900000000065 0.0017613900000000016 -0.118076132 -0.40400957000000004 0.07498202 0.158622367 -0.08265433750000001 -0.20684177 0.29058859 0.0003009999999999957 0.08427967749999998 0.242886135 0.186268445 -0.101043336 -0.216809979 -0.017987788499999997 -0.09847023499999999 -0.20883157 0.110561145 0.037011669999999997 -0.014752230000000005 -0.32495249000000004 -0.0917156735 -0.12115361499999999 -0.0634410738 0.0813536275 -0.21788854000000002 0.052223994999999995 0.23681317000000002 0.025452803000000003 0.21594349 -0.179328445 -0.05188814 -0.201320053 0.25458269 -0.05118756 -0.10767197 0.44231066 0.187196887 -0.083740445 0.0871988605 0.186904455 0.01617482700000001 0.0854747985 0.008832699999999999 -0.02904437 0.04944992499999999 -0.19966 0.27319401249999997 0.0035114950000000034 0.06982880699999999 -0.09910816 -0.0536397295 0.19477026 0.11031904 0.0033715544999999986 0.05759243000000001 -0.08165485 0.297583785 0.04527309499999999 0.067165315 0.018624734999999996 0.026156896 0.154638578 -0.08791224 -0.11567096799999999 -0.1099940495 0.12782539999999998 0.27955812 0.060592195 -0.05213222000000001 -0.042275134 -0.085392445 0.026717550000000003 0.092621155 -0.13437551 -0.283071715 0.023396369 -0.035172985000000004 0.125692588 0.07960479200000001 0.08244391499999999 -0.032361714999999985 0.236051075 -0.08215731949999999 -0.048433079 0.05139093 0.34576523000000003 -0.11284572500000001 0.09551203 -0.0115715965 0.0032011200000000017 0.069919503 0.029983005 0.11708951349999999
ADGRG3 -0.11058157800000001 -0.222825929 0.1940410978 0.19684537000000002 0.0027076999999999934 0.052622535 0.1683282725 0.02155570000000001 0.14295743 -0.0597954615 -0.191321276 0.112573575 -0.082660333 -0.16572594000000002 -0.17136551 -0.043224222 -0.13526788899999997 0.220151645 0.06103496 0.028675608 0.18265821 -0.044026829999999996 -0.030938919999999995 -0.11909714200000002 0.07100448300000001 -0.0108709985 -0.011019612500000001 -0.164326779 0.114007995 -0.029016425 0.23032556499999998 -0.121708605 0.241014295 -0.1102680695 0.101307048 0.273841785 0.03366222 0.10360389999999998 -0.09039330200000001 0.080390355 -0.06309889999999999 -0.055147293 -0.04312703999999999 0.06743954499999999 -0.0110193785 -0.053302628 -0.014809849999999996 0.179352917 0.043354545 -0.0391668725 -0.29670074799999996 -0.183621595 0.24751358 -0.148371531 0.15875214999999998 0.0586390614 -0.0135221995 0.18788250150000002 0.077063978 0.0720709815 -0.054850965 -0.08714387200000001 0.17828049499999998 0.19843796 0.036998695 0.005103330000000003 -0.140227565 -0.32087750000000004 0.0492853915 -0.024145000000000003 0.447535375 -0.048543481 0.16450092 -0.166388959 -0.145238125 -0.04340464499999999 -0.01576382 -0.192364195 0.0516328525 -0.039036299999999996 0.123068543 -0.04163110499999999 -0.16842947 0.20836324 -0.0013492329999999983 0.091984837 -0.18768118500000003 0.14063619 0.30876431 -0.1034572135 0.015293989999999993 0.15957854999999999 -0.06925352 0.016281952000000002 -0.08454617 0.08083560000000001 -0.049076989999999994 0.1047191525 -0.009934009999999993 0.128539661
ADGRL4 0.24276165499999997 -0.198692965 0.009525099999999998 0.22230986 -0.09584510000000002 0.1088494575 -0.056874265 0.057220981000000004 0.216583638 -0.29151611 -0.01070476 -0.1249181325 0.250236685 -0.128444105 0.009085284999999999 0.070777117 0.049932665 0.004823019749999999 0.0768883545 0.113201555 0.08434841 0.012138320000000008 -0.137445355 -0.132935935 -0.19962480500000002 -0.063391366 0.0832849875 0.141367732 -0.006884609999999999 0.05564168 -0.0012228490000000015 0.049193440000000005 -0.04791766 -0.0959339575 0.08884933 0.120510168 0.19514926 0.1532828015 0.04800773999999999 -0.175636173 -0.06654389999999999 0.06721535 0.004895860000000002 -0.08261249000000001 -0.22955531 -0.08395299499999999 -0.03617359825 0.0577790905 -0.10424115924999999 0.09655180999999999 0.18607923999999998 -0.05638923315 0.07918662 0.184583705 -0.24612146575 -0.135333988 0.024225766 -0.01183567 0.0039003449999999995 -0.115391635 0.0926489855 0.13141361000000001 0.01012267 -0.10145897 -0.06126095499999999 0.14705672250000001 0.11788489999999999 -0.0036284925000000037 0.23966928999999998 0.0659383 -0.066218617 0.07397471 -0.052025098 -0.15464071499999998 0.045385686 0.108716608 0.030601662999999998 -0.2020777 -0.215822295 0.007319601499999998 -0.022403117 0.2425914575 0.08415735500000002 0.159511327 -0.036055431500000006 -0.03691537499999999 0.110972795 0.0687323065 0.099703651 0.1720355 -0.18783285000000002 -0.0964229275 -0.09160752999999999 0.037614917 -0.020637359999999993 0.1402977 -0.09901504 0.121281905 -0.111944831 0.004840984999999999
ADIRF 0.235121085 0.068545085 -0.28206625 0.17258360150000002 0.26662507 0.17434908500000001 0.130389457 0.291032195 -0.08131424350000001 0.25828819000000003 0.139159645 0.11139397000000001 -0.1071117485 0.09948020000000002 0.10028064 -0.07910643499999999 -0.377883485 -0.085510632 0.1962932275 -0.289423845 0.077830026 -0.242961125 -0.2561787431 -0.10620019 0.025371365000000007 -0.347381225 -0.32791686849999996 0.036025134999999986 -0.20324204 -0.23005246 -0.4830498 0.054112215000000005 0.0006605874999999969 0.0009333499999999995 -0.142914205 -0.10474731500000001 -0.24559730999999999 0.14379104 -0.213048081 -0.1455643825 0.33071464 -0.11872085 -0.048756105 0.44656155 -0.0940967475 0.14987526 0.25683705 0.175365997 -0.01848587 0.018502683499999995 0.0032313594999999994 0.0846384 -0.1015796135 -0.201247453 -0.3587716875 0.16507433200000002 -0.446265115 -0.06519196499999999 0.11453942 -0.05702525 0.1686767473 0.080761347 0.05387791499999999 -0.19204969 -0.164602855 -0.118123425 0.13982329 -0.35122577 -0.04573764500000001 0.073270505 -0.177469347 -0.394171321 -0.43140182 0.020009084999999996 -0.41013668999999997 -0.281785735 0.155340267 -0.230287513 -0.05080037 -0.330911905 -0.038138675 -0.041653209999999996 0.02732290000000001 0.16430256199999999 -0.00679500385 0.40106385999999994 -0.013896480000000003 0.308813125 0.021167830000000026 -0.0017931320000000028 -0.07892304500000001 0.179701057 0.21975840649999998 -0.28313016150000003 -0.56969464 -0.174065865 -0.048458564999999995 -0.14600451 -0.27436149 -0.231400463
ADM 0.180150235 -0.04316168099999999 0.176561537 -0.065797437 -0.005144800000000005 -0.058241165000000004 -0.0072046935 -0.03355546999999999 -0.10346315850000001 0.019121678500000003 0.103436957 0.01325535365 0.15154682124 -0.23765159200000002 0.13231551 0.112904897 0.07959540350000001 0.0192379115 0.0475014775 0.1009576405 -0.012237349 0.027486709999999998 0.01713721475 -0.363086525 -0.051197685 -0.112334797 -0.074477875 0.16370088 0.23057647 0.1477104175 -0.027835125000000002 -0.05795600000000001 0.13830131 -0.25804331 -0.1624626 0.16132364999999999 -0.09394657999999999 0.06289006500000001 -0.015264812000000003 0.043499165 0.009157757999999995 -0.061744397500000006 0.009776102499999998 -0.14873742 -0.260212715 0.251927218 0.15345685 -0.10828534149999999 -0.28905058 0.06710560500000001 -0.050849270499999995 -0.14248909 -0.012441238 -0.0635964765 -0.15145446750000002 0.268475445 -0.15638403850000002 0.295434175 0.06774787574999999 -0.101276643 0.135232105 -0.02469956 -0.0739779625 0.141250542 0.0212036715 -0.170678935 0.0246327675 -0.12799028499999998 0.012600130000000001 -0.07668883499999998 -0.09461061999999999 -0.1316302925 -0.023144770000000002 -0.137812468 0.123175015 -0.070510325 0.1242567285 0.09010570849999999 0.04639061 -0.013946993999999999 -0.26120316 -0.010609484999999988 -0.056660473499999996 0.064295828 -0.11330346949999999 0.09286403675 0.08269627 -0.0498056885 0.281716515 0.0407496895 0.0385954 0.06558794 0.062947613 -0.1255248 -0.17257998000000002 -0.08066757199999999 0.005326984999999999 -0.13268221 -0.12473289299999998 -0.0446396415
ADPGK-AS1 -0.2093823055 -0.0803182755 0.0528516585 0.08186221900000001 0.085615626 0.193101845 0.001212846 -0.1387407575 -0.115517227 0.15810818 0.173301645 0.0446165935 -0.07474449 -0.0251252375 -0.0920905435 0.16054343 -0.048949204999999996 0.0636047115 -0.11661523000000001 -0.149082268 -0.20203514500000003 -0.127387855 0.129143215 0.2595321 -0.013198000000000001 -0.016757385 -0.10912595050000001 -0.07934590500000001 0.1973803925 -0.14284481850000003 -0.011893065000000001 -0.0295220755 -0.1463146125 0.012638634999999995 0.030792330000000007 0.22373174 0.055685655 0.162622085 -0.054066837 0.07181519850000001 -0.18785974800000002 0.1712534885 0.0317272425 0.19010758500000002 0.018441469999999988 0.03731814 -0.0661721437 0.1344314257 0.20944742 0.03057288425 -0.050914230000000005 0.004743866500000001 0.0003563249999999907 -0.045850919500000004 0.0150735916 0.141185295 0.02936535 0.145206053 -0.019458529500000002 0.08261572 -0.105245679 0.163785235 0.091711183 -0.012213120000000008 0.027775574999999997 -0.066744922 0.012437374999999973 -0.211121935 -0.16406992 -0.049296055 -0.19869182999999999 -0.0855079985 -0.0547006955 -0.054110548999999994 0.061469682 0.07249450935 -0.023520125000000003 0.010350744999999995 -0.18047713299999998 -0.020881165000000007 0.149214915 -0.13098304825 0.13128215999999998 -0.29968738500000003 0.152812512 0.12644365 -0.14681924000000002 0.015051598499999999 -0.030967889999999998 0.185457976 -0.011550695 0.21436174000000002 -0.142151901 -0.188762335 0.125302623 0.023430234999999994 -0.082310682 0.21272524 0.21706658499999998 0.1393295
ADRA2C 0.006932101000000001 0.1206015305 -0.11804787 -0.0557839095 0.206015539 0.05978278349999999 -0.20295425499999997 -0.044440918999999995 -0.146011849 0.30358629800000003 0.12207993480000001 0.082454525 0.05869810999999999 0.027981395000000006 0.016748870000000006 -0.11685912500000001 -0.175387705 -0.030473042 0.0519657705 0.1410122255 0.14514752 -0.043120313 -0.10153010500000001 0.212217145 -0.15589760600000002 0.143795477 -0.008913629999999999 0.01511047 0.21281959 0.08533937499999998 -0.23173109 0.1107822865 0.207154795 0.259817315 0.008120635000000001 -0.025355805000000002 0.01900938000000002 -0.26028056 -0.04043893 -0.153570675 0.37837279 0.080801135 -0.10806097249999999 0.003605019000000001 0.013134615000000002 -0.046692811 0.056615345 0.018558950000000005 -0.006180210000000002 0.144251956 0.006636375499999999 0.19335798 -0.01141035 -0.07073804 0.021319552999999998 -0.015375235000000001 0.033473837 -0.141353208 0.026513025000000023 -0.04639107499999999 0.023686339999999993 0.19856981499999998 0.03791227 -0.109666547 -0.05992643 0.0574721625 -0.07878746 -0.036610544999999994 -0.036438255 0.019063642000000006 -0.049352690000000005 0.20511631 -0.077392579 0.10112763699999999 0.0468748355 0.0781403695 0.006035012499999999 0.08330188000000001 0.09952208250000001 -0.35951837999999997 -0.03041236 0.064765992 0.03139959 -0.128899175 0.018116959999999994 -0.17062449000000002 0.020305745 -0.09305379899999999 -0.19485523500000002 -0.0420698285 -0.147630483 -0.06706005 0.44416047999999997 -0.08760212099999999 0.019396304349999997 0.045838927 0.172157745 0.03722337 -0.005372564999999996 0.020718990000000007
AFAP1-AS1 0.029747133699999997 -0.1393898 0.0749554185 0.06816445 -0.069935159 -0.062028545000000004 0.097429624 -0.1638645175 -0.13318052 -0.15922562399999998 -0.13135813000000002 0.022305686499999998 -0.241687547 0.18636058 -0.122166866 0.16750336 0.213755682 0.0634164575 -0.0503601 0.17755059750000002 0.051153328 -0.0031491485000000007 -0.042268820000000006 0.003315545500000003 0.069018625 0.238824035 -0.050938665 -0.029989014999999994 -0.129794235 -0.014557750000000008 -0.04225512 -0.06482618145 -0.12732597 0.034678200000000006 0.08696288 0.040536052 0.052723462500000005 -0.096150022 0.1944692525 -0.036560314 0.058978757 0.038714675000000004 0.20402329 0.06354824 0.1269364345 0.055532029 0.122153425 0.253197225 0.02842334 0.0767934835 -0.0406663435 -0.12207737500000002 -0.1350671525 -0.1697495385 0.320985645 0.028183404999999995 0.0351772165 -0.1058557872 -0.060450647 -0.04280587500000001 0.0991261135 -0.042516268999999995 0.13000621 0.08027095 0.26428755000000004 -0.168800715 -0.13406547 -0.004191457499999995 -0.0010683610000000003 0.19323953 -0.102583595 -0.04135106 0.16049884 0.139557765 -0.10150730499999999 -0.10391824499999999 -0.012280262500000007 0.183308265 0.1040787185 0.07792080800000001 -0.010474918 -0.025962325999999997 -0.006252085000000018 -0.015841209999999994 0.018695879999999998 -0.06507910335 -0.018414004999999983 0.018244729999999994 -0.146214128 -0.122855055 0.07610824999999999 0.138441027 -0.148161388 -0.024115469 0.08238171999999999 -0.035719866 -0.213037065 -0.005251279999999997 0.2199696235 0.0032559749999999943
AFAP1L2 -0.08254755000000001 0.128896843 0.187135155 0.12309539600000001 -0.015108944500000002 -0.174376065 -0.116471665 -0.16533712499999997 0.065288295 -0.1317453015 0.02166209999999999 -0.1114886635 0.10842333500000001 -0.230244895 0.08365087 -0.092089669 -0.105241375 -0.06444650554999999 -0.075330585 -0.023604050999999997 0.004032675000000013 0.051125832499999996 -0.034379590000000015 0.07446612650000001 -0.0018068089999999995 0.0538450865 -0.06889856999999999 -0.147176 -0.11037679 0.028661409000000002 -0.11090562000000001 -0.030945281 0.018717987999999998 0.0003573799999999974 -0.02338767 -0.13630288950000002 0.15831943 0.01956752499999999 -0.209748482 -0.03207034525 -0.0445770125 0.2623418565 -0.03306189999999999 0.152576805 -0.00025885999999999965 -0.1348688155 0.045981350000000004 -0.101893695 0.0261839535 0.013856502999999992 -0.023316985000000012 -0.024497795 0.22509033 0.11574488 0.069019035 0.025629144999999992 0.16448644499999998 -0.29555081 -0.16277354500000002 -0.0050720575000000045 0.0484439975 0.18303140045000002 -0.039405615000000005 -0.12138043999999999 0.1167601886 0.0263900325 0.068783728 -0.069395386 0.172207785 0.181701948 -0.055144919999999986 0.001996129499999999 -0.17281809999999997 -0.0110842335 0.125162475 -0.08727396785000001 0.041391050000000006 -0.21138458 0.010775251999999999 -0.004393251500000004 0.19100271000000002 -0.129846715 0.084642565 -0.237005465 0.068846225 0.18066838 -0.35999421499999995 -0.0036092580000000006 -0.1684158905 -0.064969895 0.06571663999999999 0.04342272 -0.15426583 -0.08993802000000001 0.166039725 0.0810566155 -0.073213981 -0.0583400075 0.184978835 -0.0500311206
AGBL5-AS1 -0.0491832674 -0.043282919999999996 -0.01150547535 -0.07898489 -0.0458214505 -0.05303967 0.178437002 0.10008900999999999 -0.137439805 -0.010986620000000002 -0.17751777 0.097198235 0.07164053249999999 -0.1343553 -0.098750071 0.09927582799999998 -0.19024209 -0.06128633 0.013694510000000007 -0.09836414499999999 -0.14570205 0.0788136275 -0.2068894015 -0.18317606250000001 0.10759294800000002 -0.08170304000000002 -0.10038828320000001 -0.05274464499999999 -0.025054859999999998 -0.1628873075 -0.14687452 -0.023538768 -0.196549055 -0.037592968 0.0011908904999999997 0.204902032 0.027993722999999998 0.329506825 -0.16162525500000002 -0.059551110000000004 -0.10393619999999999 0.1880039 0.1589284675 -0.061986528000000006 -0.024121685000000004 -0.029143611 0.25777697499999996 -0.16288319499999998 0.161688795 0.022133343 -0.10866477599999999 -0.13237772 -0.14747264 0.060883455 0.07138615999999999 0.21326019499999999 0.18426504 -0.055410466650000004 -0.17605766500000003 0.08414363250000001 0.028196849500000003 -0.177348175 -0.102044255 -0.0759731515 -0.07679791999999999 -0.18452083000000002 -0.15104523 0.1038495875 -0.034668459 0.131951583 -0.078497575 -0.17115597700000001 -0.003393284999999996 -0.12319151850000001 -0.21571421000000002 -0.0452229255 -0.0292366 -0.004447055000000005 0.16699508000000002 0.03149615 -0.1438652 -0.11495375 0.1201676575 -0.028266860000000005 0.08340346500000001 0.04669007 0.1309689135 -0.17921792 0.17020965999999998 0.020686414999999986 -0.147766895 0.063892853 -0.012662980000000004 -0.09280756500000001 -0.0647460885 -0.192721955 -0.08565325200000001 0.0071402340000000005 0.181715065 0.08518503150000001
AGR2 -0.0840735135 0.03199403 0.0248727175 0.018168495000000007 -0.1261806285 0.031954685059999995 0.29818400500000003 0.056754534999999995 -0.07399889500000001 -0.06485568 0.069758915 0.029334285 -0.0663071 0.0484564775 0.14337193850000002 0.0274167525 -0.165835512 0.186337575 0.006788431000000001 -0.0932497025 -0.019482960000000004 0.12358673 -0.070868501 0.053438732 0.177653045 0.1682027525 -0.026798362 0.12577653935 0.02039218000000001 -0.051920455 0.17659237 -0.062225572 0.06399867299999999 0.078959575 -0.049837489 0.144044989 -0.218334908 0.04019341 -0.11389317774999999 0.083859175 -0.16535312 -0.029333781499999996 0.1033850555 0.326882185 -0.249045241 0.115639198 0.10827115500000001 -0.0445811775 -0.09536824075 0.16665301500000002 0.105472645 0.149836404 0.25145945199999997 0.142163885 -0.1891819625 0.05730725 0.06430370251999999 -0.094491937 0.026300822999999997 0.083679635 0.113453848 -0.0696372485 -0.11264901 0.0684277 -0.046139387 -0.09192268 0.008807207999999997 -0.073849015 0.066546402 -0.23742936 -0.0208303995 -0.1160933305 -0.0661584485 0.12502681000000002 0.048736541 0.010725760000000008 -0.1319372162355 0.012728249999999997 0.099194745 -0.076631248 0.1152911985 -0.36062988 0.042826359999999994 -0.0508853575 0.13273746 -0.11038055000000001 -0.10224181500000001 -0.1146967015 -0.0185160995 0.1911119315 -0.028501047999999998 -0.0023668049999999996 -0.0017628169999999999 -0.040747810999999995 -0.0754113765 -0.061247955 -0.1345257 0.028154512499999992 -0.114125885875 0.083620815
AGR3 0.1128866825 -0.1336433085 0.165481875 -0.09106898665 0.10327293 0.167425765 0.310650715 -0.049391729999999995 0.0260529095 -0.07436481985 -0.019923275000000004 -0.081595155 -0.010737334999999994 0.09473970000000001 -0.044270906 0.044731113499999996 0.103061825 0.08379408499999999 -0.018685365 -0.12716530850000002 -0.12976122 -0.16282289 0.208473975 -0.022111784999999995 0.0400062801285 0.27392061 -0.037853901999999995 -0.041777375000000005 0.071951243 0.03411712 -0.07090271149999999 0.087425772 0.15399209 0.17411119000000003 -0.12418755000000001 0.021630929999999993 -0.036144783 0.120762272 -0.013300751 0.136329852 0.25435577 0.0854649075 0.061520189 -0.015595112000000001 0.14133685 0.12048384250000002 0.018688346999999994 -0.122274655 -0.07200207 -0.253098125 -0.01776836999999999 -0.159201755 -0.13771726 -0.08870250489999999 0.208115325 -0.108733945 -0.109208222 0.126230936 0.0842472675 0.166429465 -0.11816586700000001 -0.3187276 -0.07841551699999999 -0.11861940300000001 0.049841094999999995 -0.18922865 -0.045419145999999994 0.13686652500000002 -0.053955050500000004 -0.17751746 0.03387594225 -0.121996505 0.065995363 -0.1182421 -0.15673178999999998 -0.043348164999999994 0.10785692999999999 0.138379475 0.156284767 0.013138597999999998 -0.16260474835000002 0.07132673199999999 0.12030523900000001 -0.092632195 0.027019383 -0.124200415 0.18502921 -0.037827585 -0.08487370799999999 -0.116953005 -0.264582025 0.2188720735 -0.025253319500000003 0.109942626 0.14622485899999998 0.019923699999999996 -0.07530332656500001 0.013497905000000004 -0.23800881200000001 -0.040577907499999996
AHNAK2 0.087988367 -0.2340678 0.1296577075 -0.11603188 -0.030542894999999994 -0.08766800515 0.2122251125 -0.152243562 0.17348972999999998 -0.10794043 -0.119167398 0.10527566 0.173130166 -0.0595622683 0.087251391 0.08384198849999999 0.030296169999999997 0.032810475000000006 0.22013758500000002 0.008170194999999998 -0.14720812 0.102081747 0.17888700999999999 -0.015382134499999998 0.12227067999999999 0.192472455 0.0722643425 0.004529472500000001 -0.014201125000000009 -0.00851076175 0.0801692715 -0.05254908 0.213999487 0.16232804499999998 -0.0250608875 -0.214609941 -0.1292092625 0.18419150499999998 0.1181282935 -0.049475951 0.0553676 -0.04151524 -0.07545191949999999 -0.08279993499999999 -0.07571741650000001 0.1886107 -0.12361052335 -0.26670606 0.09625419 0.021060425179999998 -0.110691605 0.141809428 -0.02394620275 0.0741927205 0.0831464995 -0.157940395 -0.01646120749999999 -0.06250393074999999 -0.0274035395 -0.011192544999999998 0.011522652499999998 -0.11337244999999999 -0.059879555 -0.011968554999999999 -0.162419335 -0.09217178485000001 0.16225456500000002 0.1957523765 0.17118376 -0.19919340500000002 -0.010907252499999999 0.0676758125 -0.1151317835 0.13424523 -0.174482215 0.32834178999999997 0.11712998499999999 -0.056367115 0.160840375 -0.23287027999999999 -0.1874200075 0.17673247 0.0441526435 0.16195484449999997 -0.19132158 -0.15954750999999998 0.21355269500000001 -0.015515794999999999 0.16490217499999998 -0.0885323171 0.12512401750000002 -0.089898374 0.178843135 0.046112574999999996 0.12019121300000002 0.05690791299999999 -0.1249472262 0.34052988 0.056393292 -0.0128122275
AIF1L 0.1645079235 -0.052465285 -0.2987339385 0.26263906 0.223003653 0.07935834 0.054272525000000016 0.2039682 -0.14662597 0.21133659500000002 0.0366998815 0.08561008 -0.171560125 -0.0020369899999999885 0.095349006 -0.058687284000000006 -0.40980505 0.17921772965 0.0832200795 -0.077495167 0.085355443 -0.171759935 -0.127894917 -0.111597638 0.014750794999999997 -0.1722210165 0.12382155353 -0.092000547 -0.17865076700000002 -0.016353817450000002 0.095035871 -0.591922285 -0.14915489 0.20270787899999998 -0.04997098500000001 0.38914343 -0.37087785 -0.1895486455 0.172137161 0.045210185000000014 -0.09317437499999999 -0.22289513 -0.096084005 0.267365855 -0.048264760000000004 0.1602946055 -0.5967976865 -0.014128909999999995 -0.1571369775 -0.25935936249999997 0.21367035499999998 0.276465715 0.166440435 0.24766694 0.343936935 0.12935597999999998 0.0652878685 0.269684455 -0.1408598165 -0.2422135785 -0.013599865000000001 0.298229685 -0.010999875 0.23003142999999998 -0.209499955 -0.26298151999999997 0.103526661 -0.193969185 0.21951108 -0.24302966750000002 0.24702307499999998 -0.1680085 0.020548625 0.41637831999999997 -0.02573437 -0.01815804 0.106101074 0.0860991125 0.07530889 0.072308109 -0.10414196299999999 0.421213705 -0.20881476249999997 -0.08209103350000001 0.116751015 0.014460319999999999 -0.06978671750000001 0.10369492200000001 -0.255160315 0.120839643 0.0323440795 0.11877779699999999 0.016322420000000004 0.2130605055 -0.030704989999999988 -0.226749057 0.075056384 -0.162346645 0.05619388499999999 -0.106373898
AK3 0.254795995 -0.10423129385 -0.15521584 -0.091814735 -0.013068373000000001 -0.08636628 -0.142962655 0.006611684999999992 0.0917135125 0.057584382 -0.044809535 0.22438415499999997 0.14187511000000003 0.1361454 -0.065099956 -0.2469520235 -0.0035556550000000004 -0.06477979999999998 -0.256431725 0.12272461800000001 0.05018979 -0.38916179500000003 0.39467328999999995 0.307891915 -0.25444526 0.10745844149999999 0.038341956499999996 -0.11007609199999999 0.10973055500000001 -0.020731561500000002 0.113921245 -0.04335078499999999 0.073436185 0.08096449999999998 0.059906345 -0.20810771 -0.1085053165 -0.17996270749999999 0.181318331 0.074387645 0.26607028 0.1845898625 -0.40397306499999996 -0.210997885 0.13808057699999998 0.0015253965000000006 -0.224261445 0.02498831 0.1909722485 -0.317130655 -0.1303334585 -0.16044504 -0.033501605 -0.20709535 -0.017123132500000006 0.0263079775 -0.054566585 0.053954811500000005 -0.135905744 0.0906004505 -0.191315556 0.11977112000000001 0.11118373499999999 0.0698781795 0.16015735749999999 0.021558093499999997 0.027887648 0.038638807 -0.09368288 0.22414896 0.10385893499999999 0.02882674200000001 0.158173805 -0.05925401999999999 0.029509985000000002 -0.0474522265 -0.0454350175 -0.15027754599999998 0.17689501000000002 0.1654086305 -0.027640045000000002 0.006838060000000007 -0.0376367595 -0.008034450000000012 -0.08218749500000001 -0.083014168 0.08406623299999999 0.13859237 -0.25216611 -0.0485739565 0.2584508265 0.133275585 -0.043306146000000004 0.0755957685 -0.034428310000000004 0.08950675999999999 -0.042566315 -0.0858351475 0.09859760000000001 -0.1799925375
AK4 0.0007147700000000035 0.076742375 -0.16588491 -0.1021228475 -0.245761675 -0.009402029999999999 -0.027475839999999987 -0.04964144499999999 -0.0656611925 -0.239217825 0.24672170999999998 -0.047548528 -0.05390326 0.058306815000000005 0.19648142 0.150961868 -0.099232763 -0.15403762 -0.04611780000000001 -0.054861969999999996 -0.021727463000000002 -0.027907355000000002 0.030159839999999993 -0.10868180499999999 -0.011909429999999999 -0.25388588 -0.099463246 -0.0487132455 0.057624592 0.008805935000000008 0.213406455 -0.029135389999999997 0.029436690999999997 -0.303484507 -0.075783001 0.1503437875 0.176275515 0.172925305 0.214780225 0.1732961 -0.07469646299999999 0.0852479075 0.10172862499999999 0.094341221975 0.08300283 0.0345476415 -0.16459518499999998 0.174504148 -0.1852361765 -0.039408464999999976 0.1876892455 0.0434710175 0.30512229 -0.07404584924999999 -0.017472404999999996 0.178347342 0.07794993 -0.06505968 0.026574954999999997 0.12235629 0.152267443 0.012580454999999997 -0.089734015 0.18368328 0.196511725 -0.152469355 -0.24505668 -0.1614697185 -0.04581468999999999 0.09023142749999999 -0.016152459999999993 -0.019590804 -0.189223515 -0.11485371700000001 0.240361235 -0.0430539125 -0.106393073 -0.051639674499999996 0.108999645 0.19339193 -0.053265576999999995 -0.12476162200000002 -0.061364171999999995 -0.121285753 0.07091156100000001 0.08495290999999999 -0.024695577500000003 0.00841201685 -0.18718632335 0.1519094105 0.0823377175 0.153251225 0.041137280000000005 0.12345608000000001 0.30601536 -0.146284645 -0.021034354999999998 -0.013891885 0.006136040000000009 -0.1195913495
AKAP12 0.087777792 0.0425990525 -0.03308331 -0.11240616750000001 -0.048914769500000004 -0.013351142 0.14394193 -0.07589579 0.06788749250000001 0.064213088 0.1083169465 0.0005529849999999989 -0.055293298000000005 0.286334725 0.026666036499999997 -0.054699793499999996 0.21587774 0.046891745 0.051624642000000005 -0.231438425 0.046827373500000005 -0.165708938 0.05955184000000001 0.042694415000000006 0.084281452 -0.108767177 -0.1154878915 0.11608771650000002 -0.26134477 -0.0295692951 0.149102799 -0.079400094 0.07225778499999999 0.018866439999999998 0.017252569 -0.019645012999999996 -0.0958758475 -0.015065179999999997 0.1523110225 0.067503934 0.0392274065 -0.01826434875 0.10063245500000001 0.1549757625 0.022416969999999994 0.0350622515 -0.0111880027 -0.0038752690000000006 0.0037205669999999975 -0.260843175 -0.0825626225 -0.05372407 0.0209459556 0.06860696050000001 0.097447261 -0.06425283 0.2164991 -0.0154836 0.051587735 0.25433079 0.13318348 0.005864329999999994 0.1067855 0.015273885000000001 -0.047225380000000004 -0.11407402 -0.005149349999999997 0.040791455000000004 -0.023976006 -0.08061962035 -0.03536993199999999 -0.17424372999999999 0.1160088 0.1421190015 -0.0020219299999999912 -0.108527487 -0.06889938000000001 0.1643073668 0.03036303885 0.06450495749999999 0.09204675 -0.151285673 0.032935233999999994 0.0109300975 0.218678045 -0.055346101 -0.09819003552000001 0.103671042 -0.167585113 -0.06436621249999999 -0.0829567645 -0.0154282205 -0.0530849865 0.04803949 -0.042538521499999996 -0.032575965 0.0547349335 -0.19117811399999998 -0.08171687000000001 -0.151689143
AKAP13 -0.033819271 -0.0011499690000000007 -0.047844451999999996 0.040065534 -0.0362517805 0.007472200000000002 -0.181615215 0.054367107 0.08974038 -0.083455322 0.128344588 -0.11716953499999999 0.053926880999999996 0.048425159999999995 -0.2147658515 0.061742000000000005 0.210494608 -0.0521546575 -0.0664286505 -0.0039107529999999995 0.1401903 0.052094235 -0.224072565 0.168306089 -0.201480545 -0.146904445 -0.15152948 0.022797416999999997 -0.1831888475 -0.12723721999999998 -0.10633516999999999 -0.15304457999999999 -0.0954350165 -0.06215102285 0.25420958 -0.125540672 0.148845372 -0.008619966350000001 -0.181946255 -0.00016726999999999714 0.2060157075 0.12667830300000002 0.1054929925 -0.05688054000000001 -0.022198925000000008 -0.046410417999999995 0.121189695 0.167979587 -0.11262662999999999 -0.058801065 0.05300171 0.055470377 -0.021832525000000005 0.076408155 -0.258398 0.03823717 0.034647714999999996 -0.0473125865 0.1306437865 0.011810274999999981 0.0866354425 0.187450659 0.008276025000000006 0.013214974999999997 0.19137980500000001 0.253976285 -0.174795575 0.14688763500000002 0.060116698999999996 -0.09162255750000001 -0.233063195 0.061627850000000005 0.055454100000000006 0.017095444999999994 0.2041226675 -0.1115150125 0.005032944999999997 -0.09402587025 -0.07343196699999999 0.04551187465 -0.1038793475 -0.0276237285 -0.144208355 -0.10020694549999999 0.04290219599999999 0.237618775 -0.12932417499999999 -0.02309437595 -0.048005878999999994 0.07139018999999999 0.11575504165 -0.21097397 -0.11576056000000001 0.045345834999999994 -0.04677424 0.152065675 -0.108279375 -0.204252571 -0.055529365000000004 0.16357544400000001
AKAP14 -0.17346672 -0.0947026985 0.11338913 -0.1336603 -0.047706425999999996 -0.25218446 -0.3083781425 -0.253990165 -0.018218038 0.1082664275 -0.182513768 -0.025154255 0.132408825 -0.250099825 -0.070603705 0.18739825100000002 -0.0575720535 -0.010503054999999997 0.0378035635 0.188586997 -0.03796184 0.16367052640000002 -0.08386386 -0.219808215 -0.03380228699999999 0.032210719 0.135686175 0.015961199999999995 -0.1427216225 -0.059600564 -0.0662891015 -0.0280410335 -0.084230975 0.075337473 0.0557635135 -0.0293281365 0.24430171 0.1474362025 0.0903412255 -0.115477755 -0.016050804999999994 0.192191285 0.0510888085 -0.0940603305 -0.0032230565000000017 -0.099963007 0.1054533855 0.07177210149999999 0.09291009750000001 -0.016395870000000007 0.09173387000000001 -0.014912702 -0.022996034999999998 0.10320788 0.06407429930000001 0.026631843000000002 -0.097008485 -0.183975727 -0.15261886000000002 -0.008485308 0.127213685 -0.0167777365 0.081215735 -0.1620169615 -0.031868435 0.19973264799999998 -0.05894723650000001 0.112437605 0.0293034725 0.20455092800000002 -0.073253481 -0.09875893250000001 -0.10151685 -0.06907941199999999 -0.032906428 0.035581776 -0.058201051499999996 -0.088941836 0.07943413 0.167913113 -0.023450380000000007 -0.07422252800000001 0.042126419999999984 -0.21447411 -0.0033440500000000003 -0.173357966 -0.08228515 -0.150600163 -0.003313674999999988 -0.06375414700000001 0.018186995000000004 0.16666862 0.054017724999999996 0.004288256000000004 0.153607755 0.096128298 0.20863374 0.0643391675 0.24113514 0.128488498
AKR1C1 -0.0927044115 0.053877999999999995 -0.3041526 0.18283328 -0.0859158215 0.227455415 -0.057489409500000005 -0.0193784175 0.1719596 0.12565105999999998 -0.058288155 0.012290990000000002 0.04669522000000001 -0.103868633 0.19093112999999998 0.016870289999999996 0.042401525999999995 0.03590716499999999 -0.049084765 0.11708247 -0.19250931 -0.191675685 0.14999227 0.008945534999999998 0.06069001499999999 -0.077059615 0.07617328300000001 0.14511047500000002 0.055351549999999985 -0.13929744449999998 0.11481172 -0.08907815999999999 0.14789524 -0.095413862 0.017788926 0.03284635500000001 -0.023633216 -0.1753649725 0.091784332 -0.25093887 -0.210324259 0.003815220000000001 -0.176992327 0.1138440175 -0.148063665 -0.08216310700000001 -0.08437714589999999 0.022618785000000002 0.152618825 -0.15137058350000002 -0.0664611375 0.34121397 -0.03831971000000001 0.13108876999999997 -0.132932215 -0.045163657499999996 -0.252536085 -0.029294069999999978 -0.059313225 -0.17443703 0.11399321 -0.03066415 -0.20596715499999999 -0.1219677585 -0.0036740999999999996 0.003561430000000001 0.01349939 0.060074054999999994 0.24433315 -0.0301100025 0.10254629500000001 0.067078569 0.0439982685 0.201486423 0.1534928235 0.40485216 -0.045514749 0.016928992499999997 -0.104628104 -0.03143673935 -0.0831124975 0.020699040000000002 0.20897789 0.183674415 -0.143553287 -0.09359722699999999 -0.155755745 0.087758265 0.140090446 0.03949791605 0.030029431350000003 -0.2144713375 0.104392616 0.075344422 -0.07622818299999999 0.02084006 -0.081453464 0.190048945 -0.05318725 -0.22467339999999997
AKR1C2 0.018791694999999997 0.06038005 0.005626455000000002 -0.18549554000000001 -0.109702367 -0.10486161849999999 0.09653465724999999 -0.10826965649999999 -0.257021875 0.06677402099999999 0.11321937600000001 -0.078648842 -0.056465178000000005 0.009016292464999999 0.026567520000000004 0.0635356575 0.023305684999999993 0.32241804 -0.154651708 -0.04309808 -0.1606690415 0.092755567 -0.08636180800000001 -0.024831159999999998 0.04169942525 0.177153465 0.186218659 -0.026809020000000003 0.11566588 0.012202579499999998 0.15133528200000002 -0.0632979035 0.0792316775 0.052321894 0.0359486025 0.153105 0.09300408500000001 -0.148177758 0.139178393 0.19164489 -0.08515732499999999 0.0281808277 0.063137204 0.07479788700000001 0.0296574785 -0.041256548 -0.048424782 0.051729697000000005 -0.17503216 -0.05383553 -0.158384685 -0.23383831 -0.084416845 -0.010011809999999996 0.0988236925 0.0005771450000000011 0.16775539 -0.08804939 -0.09413785000000001 0.305851765 -0.041783895 0.031888467000000004 -0.0326116915 -0.0141926 -0.138269315 -0.0653950375 0.188175125 -0.185041797 0.06204609000000001 -0.05146936299999999 -0.03708132625 -0.0597183628 0.137409552 0.21629253999999998 0.0938131425 -0.145640882 -0.131735101 0.06822704500000001 -0.13657363 0.139126574 0.037742663999999995 -0.18563022099999998 0.1496796125 0.034921693 -0.044646215 -0.14759798 0.012104777500000004 -0.118132304 -0.005341329999999998 0.03968785500000001 0.142113185 0.016022255000000006 0.01909906 0.0385016455 -0.019516390449999997 -0.016345757000000002 0.0528310965 0.09351986450000001 0.0870357825 0.0846333035
AKR1C3 0.10191792499999999 0.021196998499999998 0.022407117999999997 -0.1197908855 0.08433587349999999 -0.1692887125 0.0575697085 -0.08007532 -0.043513878 -0.06735856800000001 0.08223301499999999 0.16460456 0.09203721499999999 -0.003115110000000001 0.0696838515 -0.09603556749999999 0.106663855 -0.086059341 -0.084017905 -0.003281885000000005 0.053383770000000004 0.112821636 0.10140856250000001 0.09773291 -0.08833481415000001 0.127399325 0.140242182 0.0652465245 0.04267002 -0.018776324999999996 -0.30505878 -0.035422972999999996 -0.003840115000000005 0.18758644 -0.019404895000000005 -0.245096535 0.026941399 -0.022886625000000008 -0.12552798 -0.0684829 0.13069894999999998 -0.053448192 -0.04554783000000001 -0.023996169999999997 0.34122608 0.032011806999999996 0.058877178 -0.0592090375 -0.042787113 0.053628215 0.0142604525 -0.133206795 -0.0662236475 -0.071064685 -0.036764752000000005 -0.050859484499999996 0.116444293 -0.041666853000000004 0.129617865 0.04685031249999999 -0.066079152 0.089590115 -0.0642301 -0.27253296 -0.0866245275 -0.09973726999999999 0.017742494999999997 0.15083596500000002 0.02995978499999999 0.0003521274999999987 -0.19983584 0.1587110475 0.1294529715 -0.06988552999999999 0.06674257 -0.0438408785 0.0252394125 0.17114199 -0.059026397499999994 -0.052911839999999995 -0.18762092 -0.06907825000000001 0.0553901055 0.15330646999999997 -0.04618257499999999 0.10808106199999999 0.228082605 -0.0395921385 -0.10177626000000001 0.03388274175 -0.0955824915 -0.062127028 -0.17974563999999998 0.07507272335000001 0.028378655000000003 -0.1034660915 0.042280262 -0.0028753349999999997 0.004725914999999997 -0.008605429999999997
ALCAM 0.09842713 0.12194107009999999 0.1076245425 0.021953155000000002 0.06267185850000001 0.07247564249999999 -0.392944635 0.031168453000000002 0.029815297000000004 -0.173761175 -0.21465348850000002 0.08152037000000001 0.15977731499999998 -0.156834415 0.049424145 -0.130786605 -0.161060685 0.07777065799999999 -0.06048276250000001 -0.21746088000000002 -0.0611186845 0.027849504000000004 -0.083486487 -0.007753780849999999 -0.010603850000000001 0.021553903 0.249119913 -0.06534395999999999 -0.055836962000000004 -0.015585701 0.16242256 -0.10248415999999999 -0.0111338965 0.243238295 -0.06719055 0.12927827 0.029693476500000003 0.05262202 -0.02218144999999999 -0.1366614975 0.07404751999999999 0.0272086135 0.001401808000000001 0.053750477 -0.01281715 0.15372112500000001 -0.0768024275 -0.01969591465 0.17622089800000001 0.102095728 0.0660215765 0.319052835 0.2085961 0.188197299 -0.15049251 0.0077381550000000104 0.01969543499999999 -0.09753246 0.224081493 -0.31361054455000004 0.113011399 0.111649958 0.06647056200000001 -0.051302208999999994 0.031512146850000006 0.20322126199999999 0.168204605 0.006919156999999999 0.197127185 -0.18278062 0.051567115 0.178178315 -0.133912662 -0.030975340000000004 0.131774114 0.018482035 0.294875795 -0.06492761999999999 0.202327576 -0.004840955000000001 0.10029311 -0.0111899575 -0.092479125 0.17044131750000002 -0.028338290000000002 0.023642899999999994 -0.017450623 0.1413355765 0.047995286000000005 -0.132193283 -0.022426604999999995 -0.22200591000000003 0.0937802535 0.205448105 0.13422811399999998 -0.01303429 -0.17075711999999998 0.32544216 0.27944937999999997 0.062998555
ALDH1A1 0.094440381 -0.047300394 -0.0228263725 0.18949674 0.041075865 0.0011378067000000001 0.054203215 0.21673804000000002 0.139977275 0.15565402499999997 0.18422859000000003 0.09035941224999999 0.049126760000000005 0.0708965015 0.197318984 0.21590431999999998 -0.045381361999999995 -0.0688946265 -0.024946169999999997 0.111795635 -0.18989913 -0.12139948449999999 0.17036643499999998 0.060836762350000004 0.012653445 0.048035415 -0.134198255 -0.13801281599999998 0.109251292 0.199951515 -0.09479244 -0.040913582500000004 0.02296148499999999 -0.011004282499999997 0.029379555 -0.11652335999999999 0.12231716499999999 -0.08575558 -0.070505866 -0.09991522 -0.01120297 0.07526975500000001 -0.125537519 -0.019059424999999998 0.13428003384999998 -0.1619869505 -0.054302682500000005 0.056084125 -0.05855700500000001 0.070096538 -0.010904865 0.0159827815 -0.0110322375 -0.1604393088 0.0009435650000000004 0.06989298199999999 -0.07861783750000001 3.3690000000002884e-05 0.0559475275 0.05018080150000001 0.115879619 0.02020835500000001 0.11341579400000001 0.243562 -0.0161247825 -0.1368917155 -0.019662118500000002 -0.13852175 -0.15860366 0.037749855 -0.0103211 -0.013176770499999999 0.077155321 -0.023744069 -0.31030552 0.031824736 -0.0594124625 -0.1522925425 -0.22290473249999998 0.1370152575 -0.110442544 0.22977505 0.218898245 0.020964032499999993 -0.1396513885 -0.1192295715 0.015563267 0.01589471 -0.033753177999999995 0.20052024 0.030801587499999998 0.002000617500000003 0.060952115 -0.011134265000000004 -0.100118028 -0.12566059499999999 0.03281349000000001 0.0451780095 -0.044864841 -0.04223272165
ALDH1A3 -0.032843450999999996 0.19798021999999998 -0.054483301 -0.050917902 0.08360197850000001 -0.1261592565 0.136420505 -0.167122605 0.09366917 -0.06739068649999999 -0.018927036999999997 -0.016111632 -0.09882236500000001 -0.040664887 -0.146995777 -0.23198066499999997 -0.16532244299999999 0.2120906965 0.115902065 -0.0329805445 0.11711964999999999 0.0452459155 0.110467092 -0.0999370725 0.0472692965 -0.018858865000000002 0.04810798 -0.012032540500000001 0.038434496 0.13522620749999997 0.027153817500000003 0.141574497 0.019133715000000003 -0.048649729 0.1219025475 -0.181110615 -0.12301532500000001 -0.16325071 0.017149578000000002 0.12533169500000002 0.09232212999999999 -0.120369595 0.16081877500000002 -0.226954975 -0.010059259999999987 0.048976697 0.076307007 -0.039735402 -0.1115451925 0.142153665 0.009300047500000002 -0.227314008 0.0657090175 0.02715754 0.208748457 -0.19198137999999998 0.011655714999999997 0.12791851199999998 -0.07007469 -0.03672826700000001 0.036002823 -0.19019362099999998 0.10573193 0.04243841743 -0.015383405 0.159899173 0.130444261 -0.09111299 0.17412396 0.07187648499999999 0.18698099499999998 0.031356296 0.10050632000000001 0.071589417 -0.05314067805 -0.022712849 -0.1615537715 0.007546980000000002 -0.006531315000000003 0.047567378 -0.130698585 0.017192784000000003 0.1265160275 0.120893098 0.078051547 -0.1140300175 0.062974698 -0.033133324 -0.18286323 -0.0604544435 -0.026931115000000005 -0.17045183000000003 0.1256320075 0.124764913 0.1945203325 0.03122500875 0.054838751500000005 -0.00863937499999999 0.042949799999999996 -0.0137686612
ALKAL2 -0.040636586 0.1079545615 -0.148293425 -0.10355985549999999 0.11200291300000001 0.0785527375 0.151375903 0.21868752349999998 -0.135392514 0.117196295 0.0356615205 0.097197169 0.07821666050000001 0.224374186 -0.038341650000000005 -0.189422665 -0.07724505499999999 0.16745224 -0.09577756300000001 -0.0914890065 -0.10120218 -0.10599990599999999 -0.0696027005 0.0259813655 0.1646921965 -0.02207485565 -0.1482464985 -0.198174105 -0.22268677 0.121479878 0.018260599999999995 -0.10697688 -0.19600579 0.0899977525 -0.05510381 0.184184124 -0.07933536000000001 -0.014926090000000003 -0.082603985 0.021681146000000002 0.0185855945 0.022428322 0.09748492 0.07433625760000001 -0.022549769 0.080503913 0.070565885 -0.036980272999999994 0.05667204499999999 -0.1228098725 -0.17551691000000003 0.009413085 -0.012311324999999998 -0.052505890000000006 0.187433635 0.253426835 0.26376880999999996 0.071506865 -0.07720598 -0.013622469999999998 -0.059217555000000005 -0.0362276105 0.0358872315 0.041411615 -0.044734708000000005 0.0545649265 0.046165922500000005 0.016424378150000002 -0.137805446 -0.31221943 0.183185125 0.014517454999999985 -0.082990475 0.19943274 -0.11492010150000001 -0.27643968 0.22956071 -0.1417721925 0.07243333000000002 0.004923596500000002 0.0106633295 -0.09096038 -0.0481826425 -0.128139802 0.0169140295 -0.180522915 0.015697342999999996 0.0352098815 -0.08520214300000001 -0.12087150149999999 0.012581914349999999 0.0534426115 -0.017379587000000002 -0.03610685499999999 0.107459613 -0.15241128 -0.016944782499999998 -0.14808422 -0.11540647500000001 0.014557424999999999
ALOX15B 0.019432745 -0.21056793499999998 0.07377669249999999 -0.223664435 -0.02544256 -0.0991006455 -0.1358240065 -0.012643139999999997 -0.013389802 -0.039348891500000004 -0.0417943325 0.177720575 0.155379845 0.11694927000000001 -0.254587395 -0.19192955499999997 0.10003657 0.18470530500000001 0.149303035 -0.07359879999999999 0.236802515 -0.02334192235 0.200857915 0.112852805 0.047253526000000004 0.25664486 0.0200963235 -0.12676347 0.0321187584 0.1000169675 0.042354741 0.130086837 0.1575838625 0.1662803875 0.234471822 0.055174895 0.057752609499999996 0.10950794 -0.006203030000000005 0.066274418 0.046678025 -0.009450193500000002 0.15262554 0.028539320000000007 -0.17285714000000002 0.10847293999999999 -0.0734454505 -0.08976089225 -0.179251245 -0.0797386665 -0.1424667515 -0.051819256499999994 0.13331175 -0.146491745 -0.0619980771 0.1640822 -0.132871603 0.010643712 0.28038438499999996 0.080007974 0.0463772375 -0.07852026000000001 0.32478131299999996 -0.11240003999999999 -0.0712034814 0.120411165 -0.096154062 0.048495444999999984 -0.080116398 0.027883809999999995 0.092540702 -0.134352672 0.006735185000000005 -0.10057084999999999 0.029491651 -0.0682830465 -0.038719695 0.07855524 0.076418379 0.14490854 0.19938971 -0.06485552925 -0.15143668500000002 0.085376693 0.153426925 0.015575453500000001 -0.06687761850000001 0.128017415 -0.24635750250000002 -0.1019676935 -0.132928904 0.131043185 -0.0990030715 0.21589035 -0.0442937975 -0.035020776 0.0740780955 -0.27990482 0.018858305000000006 0.11296762500000002
ALPG -0.035916639 0.00042223000000000954 -0.13225858000000001 -0.0148451415 0.022127329999999987 0.10412890000000001 -0.0611145075 0.1019964345 -0.06749593499999999 0.06839196499999999 -0.004402600499999999 0.11364022500000001 -0.168100275 0.129576785 -0.065080275 0.120437838 -0.020846535000000006 0.281605735 0.3314249725 0.18412806999999998 -0.0724963775 0.1418654375 -0.122842225 -0.17013193000000001 0.09537826 -0.1533078515 0.21279832999999998 0.0498403625 -0.014422303000000004 -0.159567925 0.09502896 -0.19079873 -0.07377472999999998 -0.035928395 0.0959206777 0.084377995 0.0500936045 -0.163975477 0.0585868025 -0.01890501815 0.0769587315 0.11128988000000001 -0.11866449000000001 -0.016018690000000002 -0.071281189 -0.14440715 0.04148135825 -0.13398139 -0.1538864 -0.204199745 -0.065363355 0.093005758 -0.159693125 -0.023849598 0.10890872500000001 0.16000464 -0.0796091055 0.06804543499999999 -0.06949784 -0.0519974925 -0.12569556499999998 0.06989735 -0.08018873700000001 0.02861540085 -0.061220764999999996 0.0973465425 -0.123842648 -0.038476815 0.04808003499999999 -0.20411811500000002 -0.042067035 0.10971901849999999 0.12976716 0.239343083 -0.11706406 0.156076698 -0.026068619 -0.02544864999999999 0.23571699200000001 0.022449545 -0.1768958025 -0.008909579999999993 -0.021802274999999996 0.258422275 -0.17418029000000002 -0.113059164 -0.066940095 -0.10601074499999999 0.25519739 0.0191146545 0.09611233115000001 0.002374549999999989 0.029402827 0.145362075 -0.0848943875 0.0265346365 0.11833895 0.09637873899999999 -0.185449722 0.016640428
AMOTL2 -0.08736245000000001 -0.06151121 -0.067594586 0.233194175 0.024426965000000002 0.144707805 -0.12432349649999999 0.010682359995 0.067443383 0.152119075 -0.022825640000000008 -0.012594438 -0.1813992 -0.044178165 0.08209865 -0.049142511 -0.097792597 0.011322134999999983 -0.11790394 0.268617125 -0.13009312 0.035293990299999994 -0.03965344 0.0615751315 0.02909756000000001 -0.036453625 0.013772695000000001 -0.029790344 -0.016057439999999992 0.007268719999999999 0.043468167499999995 0.0312558325 0.0614345835 -0.14724534 -0.13412479505 0.0774104355 0.390741515 0.014410491999999997 0.116008215 0.081078122 0.034326393999999996 0.41627741 -0.0939760465 0.019585091 0.050523314 0.031440514999999995 0.125899115 -0.033139688 -0.056273097499999994 -0.180267725 -0.214144245 0.12279767999999999 -0.184359578 0.116552945 0.392573175 -0.140027825 -0.012741727000000001 -0.046095097 -0.04896046800000001 0.07297420300000002 0.192422245 0.0053582025 0.010190364999999993 0.102106755 0.053056091500000006 -0.065351534 -0.22981659 0.15734751735 -0.017091253 0.12171324 0.06848205750000001 -0.03494403499999999 -0.15927444 -0.06224295 -0.042377683 -0.053584805000000006 -0.0614663315 0.260822825 -0.170051905 0.1727321875 -0.12307181749999999 0.022389533000000003 0.0267564842 0.002486308999999999 0.058449161 0.23571465 -0.1222351685 0.1752990765 0.072148965 0.196931395 0.018749219999999997 0.06861171199999999 -0.0145573135 0.059053199 0.1027219115 -0.0996620395 -0.041905167 -0.023574439 -0.0435113555 -0.25763396
AMZ1 -0.098639376 0.029673630000000006 -0.0609527365 -0.04679094500000001 -0.18681578999999998 0.25330415500000003 -0.034544365099999995 -0.200621025 0.1335406525 -0.0339538385 0.059211688 -0.08594587614999999 -0.22260060999999998 0.0318518525 -0.22616881 0.044957932 -0.032969240000000004 -0.1255419947 0.031959106 -0.08482704 -0.09799316949999999 -0.22415538999999998 -0.073548479 0.24756321 0.0921683065 -0.12231384000000001 -0.0556539335 -0.067919397 0.05126613 -0.086758005 0.17668537 0.27360757 0.005422310000000001 0.064353099 0.03213573835 -0.11848662500000001 -0.0021594850000000027 -0.08830079065 -0.04178427 -0.006117552499999998 -0.1618419665 0.129354295 0.07944869500000001 0.12386123500000001 -0.11283479099999999 0.015519437500000002 -0.1039953255 -0.0296865345 0.147048885 -0.168146878 -0.042153090500000004 -0.136007185 -0.27439881499999996 -0.1098299775 0.07278464 -0.15875768299999998 -0.09639613 0.016562229999999997 -0.0849730625 0.133905835 -0.22870499 0.08915246499999999 0.058122839999999995 0.002254984999999994 0.1001915275 0.012604445499999999 0.11383240349999998 0.082237175 0.004546524999999999 0.050902855 0.058054198999999994 -0.132533184 0.078328015 -0.009948445 -0.052286860000000004 0.09985087299999999 -0.11804524 0.0096349183 0.0196851315 0.027961660000000013 0.117648335 -0.13481824 0.046766825 0.0992526665 0.0639298355 0.09497438 -0.05618992 0.12941032 -0.254822 -0.0983872165 0.023659280500000004 0.313741863 -0.029034705000000008 0.1851458025 -0.09170740200000001 0.1872509963 -0.137695483 0.15236313 0.013798245 0.019829149999999997
ANGPTL4 0.14901989300000001 -0.187467043 0.041153268 0.10770089000000002 0.05484710200000001 -0.018629718 -0.097425387 -0.1016744515 -0.011729536500000002 -0.21970536499999999 0.10169165 0.043586170300000004 -0.0347868865 -0.092520908 0.13918055499999998 -0.11662497999999999 0.03453331 0.081168911 -0.161511644 0.23345932 -0.147877477 -0.00029788000000000037 -0.037654804 0.16841211 0.067847009 0.011148275 0.04398983 -0.09367466999999999 0.28207233499999995 0.07171752 0.08300894065 0.2282446575 0.10052834 -0.04080822 -0.041970153 0.14636909 -0.0633128725 -0.03795765999999999 0.0498625165 0.06231882 -0.104401405 -0.08902649074999999 -0.0097780025 0.11208122499999998 -0.20011192 0.139577817 0.012557127500000001 0.045492424000000004 0.054124405 0.29119563000000004 -0.200272405 -0.13750721000000002 0.2281455325 -0.15930225 0.017376482999999998 -0.058253240000000005 -0.0059498069999999945 0.0501111655 0.056246976500000004 0.0004673850000000007 0.118175865 0.036953395 -0.1563584895 0.09682145 -0.08453167 -0.005979718500000002 0.042638835 -0.015579223 -0.030541575 -0.1684515 -0.034530015 -0.16648171 -0.005224229999999996 -0.145947065 0.0814993967 -0.014530760000000004 0.0603954 -0.0090005545 -0.21679258 0.16605429500000002 0.148166445 -0.088039455 0.0357814589565 0.11929010150000001 -0.038348415 0.09965107999999999 0.0283165128 -0.003438897 -0.08698977499999999 0.13970413835 0.13575688 0.26015282 -0.170721443 -0.04511010500000001 -0.10102989999999999 0.17473792999999999 -0.154751093 -0.09174180650000001 0.16073935 0.1932502185
ANK1 0.10548033500000001 0.27805517 -0.0338346105 -0.033338018500000004 0.03535135499999999 -0.006678091999999998 0.03949556 0.1425246975 -0.00595647285 0.046245473 -0.15290885999999998 0.037886310000000006 0.0420398928 0.1019066975 -0.06555751 -0.09029619750000001 -0.12092545000000002 0.0023722945000000002 0.01099644 -0.14645848250000001 -0.182854505 -0.07083101375 0.10318046 -0.075816975 -0.06061586499999999 -0.161362138 -0.024761238999999997 -0.133004875 -0.06804381000000001 0.08810864 -0.05364072499999999 -0.039763849500000004 -0.07524929 -0.1419402985 -0.25037579 -0.18874980000000002 0.041567315 -0.21107368499999998 0.058275451000000006 0.032537499 -0.0109796875 -0.0132360565 0.0733502412 0.12653101 0.073222982 0.020949263 -0.007395930000000009 -0.026583763500000003 -0.088788875 -0.14619195 -0.0567897245 -0.116166207 -0.10896051799999998 -0.10566799499999999 0.12123408399999999 0.15589503 0.02122122 0.032971218999999996 -0.005179662999999994 0.023415035 0.02101680425 -0.20097748 -0.058588241500000006 -0.005897972500000008 0.14757841649999998 -0.09467426500000001 0.09757913000000001 0.057793090000000005 -0.020451350000000007 0.12874557 0.05194250300000001 -0.026640369999999997 0.126691635 0.11475829350000001 -0.0679262335 -0.10780330499999999 0.022063880000000008 -0.007501482 -0.013731585000000004 0.147792755 -0.07437920349999999 -0.03350995885 0.258428335 -0.12954645 -0.19414408 -0.112211745 0.04358335050000001 0.057311126999999996 0.022821025 -0.056846437 -0.085757941 0.047110417 -0.026779843499999997 0.036940041 0.06794699 -0.255925935 0.10823118 -0.087404712 -0.11652987634999999 -0.1542799
ANKRD1 0.026746164999999995 -0.1538313125 -0.00023790849999999995 -0.13469469 0.0680705305 -0.088134624 -0.07260915835 -0.14995269 -0.033144323 0.076615535 0.08943936599999999 -0.0766202625 -0.035069435 0.335051525 -0.142024885 -0.010395986999999999 0.1661099365 -0.001251229999999999 9.86500000001167e-06 -0.03243736 0.15700367 0.03634675735 -0.03662551865 0.24558446499999997 0.0045414275 0.17660546 -0.010368671500000003 0.0394997175 0.037588661499999995 -0.119671837 -0.0477514374 0.0741534165 -0.011753029999999998 0.1375287875 0.0575058915 -0.025820684000000003 -0.11098401699999999 -0.10426972 0.017720292000000002 0.11344448000000001 0.0804793302 -0.12713550499999998 -0.12508141 -0.049863044499999995 -0.101827747 0.153816755 -0.0750204375 -0.153277655 0.0362228985 0.167118916 -0.03997539 0.097048475 0.004070114999999999 -0.042420396 -0.002854804999999995 -0.078718178 -0.13556534199999998 0.078775715 0.211872554 -0.06977852400000001 -0.026754138 0.0005292249999999943 0.1253176815 0.10422602 -0.16195165250000002 0.013064870000000003 -0.029167785 0.11437428899999999 0.051691215 -0.223436209 -0.026219298 0.084749215 -0.1393960325 0.055371425000000016 0.155317133 0.013617910349999998 0.011264076999999997 0.120448235 -0.0487348695 0.017256515 -0.009424495000000005 -0.012782462500000005 -0.2690575 0.231819385 0.023765848 -0.17353685328000001 0.003399893000000008 0.202903765 -0.143542335 -0.11923033499999999 0.129013 0.07944925 0.11936527 0.05760419499999998 0.10435407815 0.10895515 0.01142364575 -0.010267684999999999 0.111422573 -0.1688921835
ANKRD12 0.1729017085 0.311560165 0.09114868000000001 0.15119067649999998 -0.065520144 -0.1218586525 -0.07219044499999999 0.17932098500000002 -0.03762428500000001 -0.191957402 -0.26594844 -0.07569208 0.0916269875 0.04303702000000001 -0.08956150499999999 -0.072258876 -0.06893533 0.08944388 0.10847353 -0.21811090065 -0.019188360000000015 -0.36645174 0.147429156 -0.213240495 -0.222339355 0.03501691500000001 0.10579928499999999 -0.02791548985 0.03630060735 -0.018954145000000006 0.028379972000000003 -0.044086400000000005 -0.297960745 0.12022582 0.01839623735 -0.230052245 -0.14270254999999998 -0.08113552 -0.022313682 -0.133154675 0.176474498 0.40793404 -0.0673977315 -0.05867119999999999 -0.268666354 -0.10333044999999999 0.2502295365 -0.17695154500000002 -0.25154128000000003 -0.24019987999999998 0.07283622499999999 -0.057495939999999995 0.16051986000000001 0.041125571 -0.068691566 0.223457152 0.125739405 0.14538528745999998 -0.293105495 -0.079625945 -0.037348912 -0.03787963 0.006663859999999994 0.21997909999999998 0.11976442 0.22683473 -0.06440062 -0.005049451999999999 -0.161543145 0.0680596315 0.13235591000000002 0.074843955 -0.23003774 0.0701632835 -0.107411425 -0.2698867585 0.073078083 0.04869440500000001 0.26377223 0.299834885 0.1731499 -0.10933566649999998 0.367182375 0.14605781499999998 -0.27064164749999997 -0.2528196 0.006780955000000005 0.179799465 0.0060379599999999985 0.207254275 -0.1060148 0.123569803 -0.00012110499999998248 0.0764079575 0.286247855 -0.1516295725 0.0033456115 0.1421600225 0.221990605 0.048761034999999994
ANKRD2 0.018760674249999998 -0.046443250000000005 -0.22475751 -0.07708133 0.032100533 -0.126249615 -0.0051574775 -0.066008075 0.232541932 -0.199273975 -0.0534420855 -0.143923485 0.14017052149999998 0.075048175 0.08290557800000001 -0.0053840303 -0.12566291000000002 0.07237485 0.088916227 -0.071101105 -0.17417103 -0.08254455499999999 0.06419542 -0.21489618500000002 -0.17952142 -0.05664857500000001 -0.11661531750000001 0.16851223499999998 -0.048426477499999995 -0.18542249500000002 0.1303663645 -0.078165051 -0.12916527 -0.1427583 0.210448145 -0.043391519 0.095516325 0.153846598 0.04623364499999999 -0.09008033 -0.138410005 -0.07784590000000001 0.093344899 -0.15224557 -0.055548821 0.009159685 0.159955697 -0.06088770485 -0.118296425 -0.057328705 0.18040232 -0.039364709000000005 0.02990547675 -0.210420805 -0.068943175 -0.0757005666 -0.00461419265 0.209881775 -0.053491118000000004 0.184878875 -0.006587199500000002 -0.11638042 -0.11988452499999999 -0.028314836500000003 0.03304955325 0.010469655000000001 -0.245647395 0.2002208 0.1429522 0.03199616500000001 -0.113486225 0.10003888350000001 -0.089998402 -0.006273157500000001 -0.0661543595 0.033936088 -0.096796598 -0.115194027 -0.044214285 0.3256343 -0.0989730965 0.0009427649999999982 0.0494019965 0.30660323 -0.049469494 -0.128035238 0.05897501499999999 -0.171435825 0.2121261025 0.10799995200000001 -0.06553136 -0.07489263 -0.049876898 -0.01484663 0.129376875 0.0583802905 0.08902461975 0.089234495 -0.0736227041 0.11528482999999999
ANKRD35 -0.008130937500000004 -0.138214852 0.0026288599999999968 0.051590698000000004 0.083481326 -0.09676003685000001 -0.11258527750000001 0.103657403 0.24959349 -0.13147135 -0.09115025 -0.026206321999999997 -0.0367881727 0.034873417 0.013393085000000002 -0.041682835 -0.0541649792 -0.18183627 0.10616116 -0.0352705735 -0.03673713999999999 0.0690734525 -0.11720258 -0.060304205 -0.018958452 0.093384299 -0.0024028315 -0.08811116749999999 0.0023552625000000035 -0.015727911 0.233081525 0.066530779 0.1306334215 -0.054753002499999995 -0.01549209 -0.1123693 0.151841499 0.25201897500000003 0.044798331999999996 0.082878585 -0.07030705199999998 0.138487894 0.057322685 0.0333904575 0.078958095 0.059339085 0.065119965 -0.069168229 -0.070591397 -0.13933806999999998 -0.11031764999999999 0.119604555 0.02061783065 -0.082591473 0.136182875 -0.1153386625 -0.0013654500000000007 0.0951838175 -0.059622709999999995 0.0382607028 -0.002194959999999996 0.046165349 -0.0427604325 -0.0474704505 0.044178229 -0.19194236250000002 -0.15197244000000001 0.09430877800000001 -0.012396900000000002 0.31827082799999995 0.152186397 0.008097418000000002 -0.037996766 0.0389464355 -0.0362362965 0.014255656 0.053341083 -0.0675592453 0.11918088425000001 0.053940785000000005 0.066051607 -0.015916633000000006 -0.038724218 0.018065828 -0.013688597499999998 -0.111838825 0.032921395 -0.07805326000000001 0.20058485 0.06409823 0.22776214 0.0062898995000000004 0.06454696 0.0068821825 0.056015233000000005 0.185503485 -0.011093415500000002 0.06206143 -0.011889280000000002 0.024174864999999997
ANKRD36C 0.078354865 -0.0044404829999999985 -0.053865405 0.049122237500000006 0.129312285 -0.028738292 -0.0386626515 0.0385844835 -0.082661264 0.225673925 0.23400147000000002 -0.18242459500000002 -0.11208399499999999 0.154927425 -0.037933531 -0.06613124215 -0.0510331725 0.18655567499999998 -0.19784325 0.14839438 -0.036918839999999994 -0.1220482265 -0.2057887735 0.15179977500000003 0.119860155 0.028063929999999994 -0.1726203265 -0.09943429000000001 0.05782685499999998 -0.038109734 -0.13135892000000002 0.15699179500000002 -0.16376644 -0.006995029999999999 -0.252730895 0.15683537579999998 -0.129636263 -0.04089112 -0.028374769999999994 0.151095085 -0.118092975 0.144388677 0.215081263 -0.08361590499999999 -0.234040196 0.126024605 0.04642692000000001 0.003173300999999999 -0.207872455 0.11762244250000001 -0.025988245 0.15600345999999998 -0.10736567799999999 0.13209265975 0.044989622 0.21841451 -0.156278525 0.129436469 -0.21399435499999997 -0.12767256 0.12301757 0.201301255 -0.0111712 0.16258861535000002 0.004166900000000001 -0.036653368 0.21989588999999998 -0.10342533599999999 -0.229773265 0.055676830000000004 -0.098475148 -0.026616595 0.06561362475 0.0444299225 0.09325354 -0.004956361000000003 0.11314054 0.18942890499999998 -0.07060694849999999 -0.108426731 0.18059492500000002 -0.23083462 0.073179155 -0.057558513 0.0687777425 -0.111929508 0.21165471000000002 0.0079299665 0.10100813 0.034932085 -0.029302399 0.008842620999999995 0.06260721000000001 -0.11353668 -0.044968824000000004 0.14144252100000002 -0.115437505 -0.11250744 0.300329895 0.073689093
ANKRD37 -0.052256540000000004 0.11765952 0.15495188999999998 -0.1175840125 -0.143380437 0.0003114349999999988 0.11242550999999999 -0.1442897025 -0.080844689 -0.04595285175 0.126341077865 -0.081858055 0.014248875 -0.07942199999999999 0.009798125000000005 0.051923117500000004 0.011251894999999998 -0.0631504 -0.058275966 -0.01758718767 0.1061301265 -0.012804449999999995 -0.028557881499999997 -0.0712404595 -0.12768364 -0.040499834 -0.13162918 0.11150107199999999 0.140559075 0.073550437 -0.0203453325 -0.03825113000000001 0.069390749 -0.107323795 -0.014337989999999995 0.10784309805 0.148228085 -0.10647511200000001 -0.0719172175 -0.029951080000000005 -0.15489225 -0.088001473 -0.012816460000000002 0.141662445 0.27001316 0.043527883999999996 0.19697289499999998 0.27508345 -0.02349163 0.251475877 -0.13124091999999998 -0.21613137000000002 -0.0185781915 -0.0958850125 0.060469572 0.0204810775 0.214668635 0.0023397989999999966 0.265582185 0.309742175 0.1093999295 0.16423946 0.1814233925 0.1488751175 0.11750358500000001 -0.20945334499999999 -0.0193245335 -0.05255728 -0.044907089500000004 0.0761757865 0.11518426500000001 -0.093461295 -0.021268226799999998 0.062548665 -0.024715352999999995 -0.197952187 -0.083819692 0.0657379965 -0.0018690085000000016 -0.075234138 -0.086220036 -0.12651858 -0.090867235 0.130242529 -0.1349201525 -0.03733207200000001 -0.21410912999999998 0.0401344505 -0.04853431 -0.045902305000000004 0.09898949 0.07488587 0.0057510350000000016 0.000417838775 0.24119090999999998 -0.105623145 0.0572284365 0.12247514300000001 -0.09866433699999999 -0.1186840202
ANKRD66 0.217009252 0.179130303 -0.15132475 -0.055804887000000004 -0.05070973 0.2309047955 0.08861764999999999 0.0637273875 -0.174475215 -0.03787306735 0.14336806 -0.058722134999999995 -0.11172764500000001 0.1026091435 0.1379731275 0.053246854999999996 0.05553798700000001 0.15779274999999998 -0.091444452 -0.017709705000000003 -0.312976995 -0.11620421 -0.093679279 -0.08256537 0.122745365 -0.064805939 -0.115720609 -0.0707396115 -0.083173914 0.1566798 0.24097200000000002 -0.07608618950000001 0.0007346915000000006 0.08873938049999999 -0.30428114749999996 -0.0017344850000000009 -0.0032726999999999964 -0.1008359 -0.00215775 -0.0374143915 0.01176446825 0.086388085 0.11813529 0.173558225 -0.059705949999999994 0.017987344999999995 0.0200040555 -0.047324279999999996 -0.1783367775 -0.13167977 0.10347213499999999 0.022593925 -0.1602266145 0.13554836750000002 0.152645555 0.17385208000000002 0.08969640000000001 -0.12971892000000002 -0.022882135 -0.02955788000000001 -0.1168634505 -0.0609018966 -0.021700954 0.1739071885 0.190675135 -0.113740367 0.18903691499999997 -0.021013338 -0.0489930425 -0.160732195 -0.07335108 -0.221918565 0.0894817005 0.20534515 -0.177582345 0.076624688 -0.008578930000000005 -0.16844986 0.157395395 0.002692909999999993 -0.104316502 -0.048879655 0.21184106 -0.0581845015 -0.01706373500000001 -0.14876673 -0.056157637499999996 -0.027530632500000006 -0.100048055 -0.020584412999999996 -0.21879437499999999 0.15826859000000001 0.10767368335 0.013071724999999996 0.169987865 -0.027144639999999998 -0.089952826 0.146444183 -0.24740138299999997 -0.054987869999999994
ANKUB1 -0.09224207749999999 0.05442891 -0.012758466999999999 -0.24865537 -0.010852312000000003 0.07916765500000002 -0.046814086500000004 -0.038021885 -0.07333596249999999 0.2010604863 0.1419713375 -0.09728107500000001 0.1904197725 0.059896856000000005 -0.0516629225 -0.012521069499999999 0.0230408097 0.10850204299999999 -0.0867233295 0.0077988999999999975 -0.033539768 0.15901816400000002 0.02568745 -0.1017884335 0.040105917500000005 -0.101460055 -0.103142685 0.1561582075 0.12051207750000001 0.08625778 0.016335195000000004 -0.06391273 -0.09226039 -0.05773209800000001 -0.060370685 -0.06959679999999999 0.026777969999999998 -0.194895943 -0.1597139215 0.049069650000000006 -0.1464756625 -0.025892040000000005 -0.159202015 0.04229025499999999 -0.25394135 0.0102564489 -0.11744821750000001 0.0017467544999999994 -0.18740927999999998 -0.05118162999999999 0.026062837500000005 0.1158657525 -0.07031044999999998 0.007575360000000003 -0.0187934325 0.19870642 0.08654481 0.09054765000000001 -0.168646085 -0.01905862403 -0.196111056 -0.0540668265 0.148032258 -0.04261780749999999 0.016429565000000007 -0.22576633000000002 0.085155595 -0.13143905 -0.11380837299999999 -0.21025496999999999 -0.12133297500000001 -0.13747101 -0.0013511549999999997 -0.006711902999999998 0.040468196 -0.1090725825 -0.0651156215 0.010190570000000003 -0.0758045675 -0.0230307065 0.13895078985 -0.085154961 0.1643451 -0.09438566500000001 0.054459444999999995 -0.21372947 0.0685981569 0.024820015 -0.0496218965 0.07219918 -0.0905453205 0.010628415000000002 -0.07709405 -0.0682746605 -0.078651249 0.210182146 0.012300320000000003 -0.088072111 -0.06388114 -0.1359103875
ANLN 0.226973595 0.198778812 -0.20584837 -0.2143533215 0.036301495 0.0971687725 -0.012646369 0.117174055 -0.17845355 0.04875215499999999 0.115993124 0.059256323 -0.048390993 0.19416634 0.1003639085 -0.22635816 -0.14518879499999998 -0.0070279850000000005 -0.123399205 0.02796087500000001 -0.006591670500000001 0.047738988999999996 0.023757764999999997 0.10935481825 0.052996152 0.10552541500000001 -0.0626230375 -0.15540305999999998 0.030086647999999997 0.136372958 -0.142637049 0.070398818 0.13864685 -0.001452336000000002 -0.133407715 -0.20824346000000002 -0.06642692000000001 -0.23139097 0.050007341000000004 -0.1949207225 0.10487925000000001 0.17171784199999998 -0.25254127 -0.0539168025 -0.05085711 -0.086410825 -0.053465399999999996 -0.10663281000000001 -0.18390186 -0.041848875 -0.088237475 0.22938351 0.0413704675 0.0381058235 0.255394659 0.0954000535 0.12989787 -0.18232288500000002 0.063684098 -0.12573544250000002 -0.0573957065 0.065331605 -0.005268947500000003 0.196577695 0.151622105 -0.095967258 0.09056613 0.004830840000000003 -0.1913971485 0.21276657 0.13858448 -0.037538994 0.19720662 0.17911663 0.069954645 0.035398441419999996 -0.12609368099999999 0.1208028431 0.10128658000000001 -0.237465759 0.08884937700000001 -0.02549829499999999 0.015096575000000001 -0.07415917350000001 0.0802392635 -0.10090048650000001 0.119959383 -0.07366649650000001 -0.014316529999999994 -0.088745565 -0.011406920000000004 -0.10378243 0.158207272 -0.03958479000000001 -0.06990352150000001 -0.1008371485 -0.0396870325 -0.06092923 -0.0871119335 -0.1231299168
