1000 100
A2M 0.19016145 -0.15075804 -0.25129235 0.3581291 0.018301593 -0.07139712 -0.044361535 -0.30884102 0.122635186 0.27607977 0.19865692 -0.14534396 0.3018828 0.08763112 0.04269448 -0.000110139255 0.15445979 -0.2710953 0.4890449 -0.09610002 -0.87350047 -0.02869111 0.348256 -0.2947566 0.051567763 0.044563293 -0.26348832 -0.17250453 0.09972236 0.3044134 0.5320263 -0.20546018 0.055434085 -0.5761873 0.39066482 -0.29245105 -0.2845676 0.0562055 -0.1975072 -0.009670099 0.07371153 -0.4664806 -0.06289383 -0.15858352 0.29216078 -0.18012057 -0.029559657 -0.27882463 0.17296815 -0.22253203 -0.1070782 -0.3828139 -0.42429277 -0.08814577 -0.048367724 0.22280355 -0.036981724 -0.15910515 0.2482451 -0.3665598 -0.25935414 -0.042362753 0.10283821 -0.068673894 0.37408784 0.4566002 0.10899407 -0.35667312 -0.017850881 0.007086177 0.20419517 0.015037681 -0.2893441 0.13145101 -0.11998183 -0.1482184 0.22471324 0.3104488 0.017732106 -0.13559557 -0.12525435 -0.015183042 0.06669179 -0.18149099 -0.24106283 -0.6557557 -0.16735932 -0.13225704 -0.06673743 -0.10585098 -0.135498 0.21912418 -0.17390226 -0.6712977 0.19201444 0.1643975 0.06036133 -0.1916443 0.04528296 -0.42415193
ABCA1 0.70595366 -0.078188054 -0.090159975 0.14277954 -0.21451972 0.11361495 -0.49288777 -0.3391116 0.06340983 0.3809493 0.4249656 0.2928944 -0.17940372 0.08649486 0.06907764 -0.09531276 -0.08497704 -0.27270976 -0.18780155 0.03862416 0.075060844 -0.19042881 -0.005654627 -0.22942354 0.630245 0.21912253 0.12602171 -0.60068035 0.21217234 -0.26864928 0.47373727 0.3445368 0.2956055 -0.10936661 0.15612528 0.00093967246 -0.09348704 -0.46535152 -0.5198523 0.13812593 -0.16631658 -0.11138699 0.23864082 -0.022968011 0.010922069 0.33177623 0.34551185 -0.06629113 -0.21214859 -0.057493407 -0.3231346 0.12809666 -0.44558176 -0.090748355 0.09743791 0.048406087 0.3203668 0.31714055 -0.38792947 -0.3582606 -0.47144762 0.06704173 0.3256675 -0.15933546 0.10850596 -0.030323846 0.25316516 0.019742794 0.4409729 -0.19063976 0.48116747 -0.124354295 0.3070421 -0.15196343 -0.1759214 -0.20099664 0.68149567 -0.032715783 0.5041689 -0.042365685 -0.01954098 0.016317759 -0.37306422 -0.31366727 -0.11862616 -0.4799921 -0.50617784 -0.4439116 -0.2076062 -0.083168425 -0.052130938 0.27999663 -0.06563213 -0.1665965 -0.0042179027 0.016700804 0.1654353 0.061662097 -0.16340697 0.06500829
AC002331.1 0.02666621 -0.096979804 0.312086 -0.5202599 -1.2644875 0.32969272 -0.3954794 -0.36259958 -0.15343803 0.07974527 -0.16503175 -0.9203309 0.06817903 -0.121870406 0.004502271 0.38969475 0.45721725 0.3651478 0.8353867 0.5266996 -0.14880702 0.2236475 -1.5235442 0.39954284 0.02646052 -1.2676357 0.42169482 -0.11432032 0.33879775 0.3258318 -0.72689736 -0.027357012 1.2487354 -0.19015443 -0.124025 -0.66175556 0.35986733 0.40291533 -0.037386704 0.8436452 0.08495765 -0.30647558 0.46136323 -0.12717324 -0.14215338 -0.0056583444 -0.07307155 1.5680444 1.1282902 0.074147165 -0.1675234 -0.5854513 0.151431 -1.2886677 0.06373389 0.0119873155 0.22012004 0.45721397 0.3117676 -0.15856928 -0.7067431 -0.5539127 -0.29658392 1.2276641 -0.6573432 -0.15413277 -0.5300428 -0.797648 0.8950508 0.31499022 -0.7262727 0.5043917 0.046676654 -0.15088345 0.40600422 -1.0248377 0.4055528 0.37269315 -0.2200041 0.21959376 0.94865 0.21441439 -0.9636658 -0.5360858 -0.06691395 0.4977197 0.908595 -0.0631782 0.4625442 -0.06841819 -0.45854846 1.1967497 -0.33433348 0.21743308 0.36098263 -0.0757136 -1.0870248 -0.014686161 0.50145537 -0.08945862
AC006129.2 -0.15238138 -0.0810824 -0.020489987 0.43740347 -0.108594395 0.040847193 -0.03843749 0.094441876 0.22959207 0.16349782 0.1694807 -0.09730629 -0.008065209 -0.31807724 -0.007985758 0.032107197 0.17198296 0.12425605 0.23607355 -0.2627215 0.06102482 -0.0030626517 -0.29078484 -0.21559995 0.17133538 -0.47282892 -0.3878395 -0.111327946 -0.5733722 -0.07780145 0.19299331 0.06646335 0.42227045 0.17396386 -0.4312877 0.039308283 0.1394327 0.40196207 -0.08503132 -0.17286491 0.16156614 -0.39517522 -0.17920926 0.16965277 -0.06167958 0.2579235 -0.22198752 0.36755398 0.021458473 -0.19755761 -0.26368058 -0.14023153 -0.23782188 0.0025306516 0.051959172 -0.13785242 -0.056382656 -0.14936104 -0.27226546 -0.16632898 0.28365767 0.10558111 0.020773685 0.31521153 0.66920716 -0.025472688 -0.29061303 -0.032672584 -0.18861327 0.13601607 0.4166408 0.029432546 -0.14917342 0.013941922 0.18334518 0.06433148 -0.46162087 -0.029152367 -0.10649975 -0.015145572 0.09837706 -0.18461782 0.19517307 0.019753268 0.31315377 -0.116315186 0.04139267 -0.2100569 -0.38475636 0.07288428 0.051254507 -0.076517016 -0.42378 -0.38231704 0.27964252 0.25676528 0.10610975 -0.21609433 -0.036619674 -0.16389863
AC017002.1 0.46452022 0.101973005 -0.41830742 0.38866183 -0.42929143 -0.5275473 -1.1913939 -0.26741025 -0.133643 -0.19567296 -0.07494397 0.26429 -0.71683306 -1.0507299 1.5011227 -1.5046177 0.1589837 -0.17755044 0.205665 0.4328407 -0.38589194 -0.26174095 -0.16500364 0.18136573 0.5651052 -0.82706916 0.28687584 0.2671909 1.0748589 0.15507568 -0.5033868 -0.6661506 0.46317282 -0.55190253 0.73668706 -0.2576746 0.18810117 0.19586769 -0.33872354 -0.04094563 -0.4497398 -0.54155505 0.6284427 -0.21585026 -0.41488793 0.5229432 -1.316244 0.12896533 -0.16807671 -0.07069234 0.5985353 -0.39433086 -0.7702425 0.5161548 -0.5626047 -0.20284781 -0.7636785 -0.4057234 -0.5304869 0.512818 -0.24195011 0.07747405 -0.22662745 0.144469 -0.17701559 0.4788734 -0.46843264 0.042634152 0.14306879 -0.07501177 0.77527744 0.46478805 0.32934237 -0.013026462 0.71014357 0.0021946225 -0.09686035 -0.4727155 0.27740955 -0.39771283 0.4851776 0.20391177 -0.47922534 -0.23816542 0.32454345 0.75355935 -0.47347528 -0.2819056 -0.8808103 0.19391045 -0.020264039 0.27330935 -0.23056541 0.47171974 1.1632066 -0.804626 -0.3237599 0.054287076 -0.38258964 -0.9323144
AC069363.1 -0.0059208875 -0.10725585 0.18535362 0.08874388 -0.06476969 0.093041174 0.17791164 -0.01441387 0.010715942 -0.0061361096 -0.107593216 -0.006574407 0.16150376 0.1473929 -0.17854416 -0.060662366 0.162081 0.13495602 0.339487 0.2255931 -0.15675727 0.048124887 0.10978509 -0.1506927 -0.095085606 -0.23613513 -0.05452052 -0.14338808 -0.18292151 0.087477505 -0.057272643 -0.35127294 -0.02083174 0.027683148 -0.25137958 0.30401498 -0.016823232 0.20834069 -0.028815255 -0.07826185 0.18391137 -0.1693299 -0.2949883 0.031148124 0.27709404 -0.051247355 -0.36770916 0.3229601 -0.024077907 -0.016104884 -0.15156452 -0.058879375 -0.09219378 -0.082249984 0.031898655 -0.15478736 0.008157164 -0.18141618 -0.028127708 -0.11233983 0.090031944 0.12042079 -0.08785773 0.37180337 0.35856515 -0.015808212 -0.24906905 -0.037648223 -0.093332976 -0.06849648 -0.081241086 0.12959056 -0.08107954 -0.057634845 0.09107891 0.033427916 -0.33946088 0.25766128 -0.06660377 -0.09487238 -0.19592199 -0.12466654 0.037421606 -0.073457755 0.16079418 0.0054036127 -0.03734618 -0.042582024 -0.24008416 -0.15977898 -0.16119878 -0.07434983 -0.18395181 -0.3158575 0.04630122 0.101895615 0.069485545 -0.0065774987 0.046339493 -0.18752718
AC079767.4 0.3220202 0.65717745 0.2512549 0.12766308 0.12674342 1.2870182 -0.3287506 -0.10516271 -0.09081407 0.46818948 0.14333303 -0.23270813 0.43159816 -0.08676367 -0.9390097 0.5283563 -0.08301761 0.7084201 0.7724104 -0.06371343 1.1327007 1.0529351 -0.39463446 0.13753314 0.28347787 0.7770667 0.68623066 -0.43909183 0.41628906 0.64730424 -0.6577821 0.0884552 0.21071391 0.3830167 1.186233 -0.8832617 -0.977674 -1.0477666 -0.4268943 0.39548555 -0.14736927 -1.5524646 -0.15200396 -0.9573582 0.8361511 -0.31956276 1.4821014 1.1238741 -0.32315916 -0.14913826 0.8693297 -1.1368474 -0.019289067 -1.3325788 -0.95561916 -0.027710054 -0.88550115 -0.35975316 0.2502512 -1.5135866 -1.6701276 -0.35519746 0.6449859 -1.2265863 -0.22557464 -0.6458871 1.2269119 -0.5136904 0.36014175 0.8028041 -0.6027585 0.13759606 -1.069404 0.58815664 1.0809506 0.32462683 0.109824 -0.9204512 1.101996 0.50588167 -0.095148355 -0.5477611 -1.0893551 -1.1422098 0.5351914 0.7716911 1.3608006 -1.4970769 -0.24217075 0.06932412 0.6045175 0.7670955 -0.7926162 -0.0058031646 1.4225775 0.98759645 0.9478007 -0.058235087 -0.16316248 0.8812696
AC092580.4 0.45048177 0.55387133 -0.8692092 2.150054 -0.52971876 -0.6161643 -0.64650905 -1.4035263 0.04066274 0.04221522 -0.04993529 -1.8327641 0.44404286 0.26658753 -1.5611556 0.19237113 0.42096144 1.546843 0.37075564 -0.38995165 -0.32516453 -0.37869945 -1.8232157 0.096272305 0.3007781 0.12217229 0.97850525 0.3898057 1.6525786 0.21308923 -1.142549 0.8757341 1.4550172 -0.27442384 0.33723065 0.052571174 -1.0052601 0.37366027 0.16615275 1.3123184 -0.51782364 -0.57955796 0.7394954 1.5677524 -0.55261016 -0.7603664 -1.3944249 0.9419292 1.2114353 0.4952661 -0.8616181 -0.29526228 -1.3000172 0.13173369 -1.6622665 -0.18843058 -0.03469131 -1.7468972 0.951866 -0.09520224 0.2617725 -0.7225096 -0.9240711 1.0548737 0.48966396 -0.30272895 0.70776236 1.0126297 1.9098238 -0.60157853 0.96275866 -0.8400967 -0.2901672 -0.4906675 0.89305747 -1.0157145 -0.5860223 1.6631055 0.42528164 -1.3556523 1.951858 1.1431139 -1.0848505 -1.4313725 0.7788515 1.4592218 1.0763319 0.38516667 0.0110847205 -0.8948228 1.0835919 0.7151129 0.7127783 1.809292 0.36515638 -0.52574694 -0.19730191 0.2479546 1.8592727 -0.28597876
AC133644.2 0.62772703 1.0770504 -0.53406286 1.2854778 0.026309421 0.8238913 -0.04695643 -1.0220125 0.12566246 0.77326554 0.73056734 -0.8593957 0.80566067 -0.09580639 -0.21035133 -0.35956994 1.2770694 -0.17171124 1.6391476 0.46065208 -0.82141435 -0.22598661 -1.2795626 -0.6711814 -2.0413063 -0.67320526 -0.25621638 0.4419534 -0.2951561 -1.6890202 -0.9258264 -0.050897475 1.3162333 -1.0574179 0.08191361 0.23390538 -0.54444635 -1.1297106 -0.37855396 1.2780443 0.4427593 -1.0445374 -0.20010199 1.3072692 0.019944457 0.4192245 -0.063850306 0.79564005 -0.5965861 0.4683367 0.2100257 -0.93689597 0.059607804 -1.3925452 -0.7099504 0.67410886 0.25295353 0.121751264 0.19414052 -1.3413736 -0.28648925 -0.025644746 -0.24449839 0.5676543 -0.47540095 0.25692976 -0.3073189 1.3334063 1.1418319 0.18422692 -0.3499605 0.33895087 -0.007058735 -1.4908488 0.09174819 -1.1072093 0.35807833 -0.18501505 0.70062727 -0.07682875 0.5442815 0.74187803 0.02569375 -0.7388796 0.6427455 0.14708804 0.42034575 1.1878154 -0.0023767212 -0.49458686 1.1601491 1.0845343 -0.30916992 1.0536631 -0.5783715 0.21735288 -0.17997986 -0.08614258 1.0721778 -0.6819789
AC145110.1 -0.06697665 -0.048725225 0.2578509 -0.088591136 -0.20825332 0.20328557 -0.17367673 -0.083420105 0.21447007 0.07717225 -0.38885292 -0.7938731 -0.09470076 0.14848664 -0.34104556 0.5606765 0.5685981 -0.18836416 0.4020155 -0.0045265635 -0.11314619 -0.21499437 -0.39856353 -0.3705768 0.08978433 -0.8172979 0.28593984 -0.084897645 0.04790232 0.13310862 -0.072851524 -0.5019111 0.3841501 -0.42803445 0.06623025 -0.03326138 0.10511893 -0.27926418 0.20352086 0.8731285 -0.56598485 -0.48846325 0.76287 -0.12614897 0.37498924 -0.36740768 -0.059322245 0.7948168 0.8311178 -0.30270427 -0.10269118 -0.33923438 0.6484599 -0.8472701 0.3032252 0.2186298 0.18080816 0.26807037 -0.06464379 -0.41547662 -0.3307599 -0.051509626 0.3680989 1.1949399 0.12455657 0.051508024 -0.35453618 -0.14144818 0.34170136 0.4964774 -0.45026085 0.58862615 -0.30483243 -0.11329041 0.5094741 -0.34627718 0.23062485 -0.29692864 0.37298506 0.36605212 0.6120461 -0.24398139 -0.47487682 -0.07898998 0.58181286 0.29750696 0.31995234 -0.27645746 0.05324746 -0.03707831 -0.13993348 0.5855009 0.36320183 0.38042822 -0.051754296 0.2844162 -0.519306 -0.5385816 0.37976465 0.30906466
ACP5 -0.0402117 0.026127817 0.028534597 -0.25963625 -0.20522214 -0.17825942 -0.374893 0.32227674 -0.2787865 0.24253939 0.47806406 -0.12117586 0.14707376 -0.0501152 -0.15100119 -0.21494736 0.23875919 -0.19583976 0.40481493 0.029259475 -0.46368393 -0.1804226 0.26937383 0.16527528 0.4342527 -0.10014859 0.046452656 0.07896871 0.4096065 -0.2689408 -0.0053438125 0.20887722 -0.1992321 -0.22266987 0.102027 -0.10485434 0.7793287 0.6454322 -0.46987206 0.18995227 -0.08326673 -0.18021043 -0.33297494 -0.49783564 -0.0018434327 -0.28546762 -0.25850654 0.036684126 -0.06403312 -0.38484487 0.1729692 0.18259208 -0.15120448 0.26124573 -0.35518816 0.043283124 -0.12792055 0.19403915 -0.050396092 0.035999116 -0.20280556 -0.090234004 -0.35006315 0.10706138 0.2131866 -0.07038849 -0.32193413 -0.067340314 0.0990132 0.15805095 0.30096298 0.16476406 0.33662322 0.12586202 0.47967064 -0.46089384 0.12684084 -0.12940335 -0.30432013 -0.18790092 -0.37175605 0.62344116 -0.34030956 0.15747643 0.1763913 -0.5577664 -0.29471594 -0.22421944 -0.0064343936 -0.18605508 0.18558083 0.46307886 0.101181775 0.035649925 -0.39718747 0.289121 0.14654696 0.5038612 0.25972608 -0.6807239
ACSL1 0.17252912 0.0015308268 0.025790265 0.28099182 0.08485141 -0.26646993 -0.2154851 -0.33079126 0.20907372 0.77316105 0.14977415 -0.3122684 -0.3182438 -0.036025174 0.090547524 -0.028710468 -0.017887395 0.061857227 -0.2297458 -0.14330609 -0.12249424 -0.23846264 0.26719466 -0.4111653 0.23934284 0.055312514 -0.0010244113 -0.2078233 -0.31139132 0.15517034 0.028064357 0.3490249 -8.921919e-05 -0.34351984 0.21229771 0.022252757 -0.1012184 0.11334626 -0.43350217 0.15033272 0.13875249 -0.5752508 -0.22590199 0.27275023 0.22320814 -0.35980675 0.5838192 0.09168529 0.07711633 -0.015387835 -0.24394195 -0.24642864 -0.3452394 0.20848373 0.28267077 -0.16674174 0.18946308 0.17626344 -0.2977823 -0.3949725 -0.13207091 -0.52854306 0.24305968 0.40515712 0.56622547 0.047379874 -0.3033739 -0.38573453 0.33829582 0.22966592 0.43629032 -0.079610586 0.022698505 0.10419896 -0.041814834 0.165198 0.19836396 0.13081789 0.3750517 0.5367832 -0.64260256 0.51647985 0.14153449 -0.20614615 -0.110491626 -0.38591427 -0.19398125 -0.2876116 -0.08256852 0.5043412 0.0025692186 0.21587957 -0.205107 -0.04229719 -0.04204096 -0.12004969 0.23625998 -0.490383 -0.11660076 -0.3189513
ACTB 0.08660831 0.15461989 -0.060646113 0.046905294 -0.03505875 -0.12589462 -0.039194465 0.014676783 -0.06469977 0.05962002 0.060295828 -0.04602152 -0.007971848 0.004003288 -0.08453544 -0.1480805 -0.040701054 -0.031162959 0.028411996 0.04139263 -0.076798216 0.06729595 -0.088922665 -0.07662379 -0.06907208 -0.10044998 -0.063631885 0.24563737 0.008147411 0.015036548 0.033867292 0.12914057 0.18970215 -0.06984251 0.14776248 -0.109837145 -0.040552445 0.14858836 -0.06620811 -0.08712797 0.06690494 -0.12855315 -0.19021893 -0.12606509 0.06258431 -0.011502527 -0.100537606 -0.025644755 -0.044542346 -0.03900708 0.093808815 -0.0004043236 -0.073434494 0.104742244 0.019830214 -0.1392347 -0.040013883 -0.05491462 -0.06313554 -0.01069347 0.018526273 0.028299296 -0.018537592 0.04718614 0.03166485 0.09962089 -0.040095903 -0.09179461 -0.0741943 -0.0613871 0.04776807 0.053125646 -0.032546673 -0.067883156 0.04220746 -0.0391199 -0.08755578 0.116745785 0.037932307 -0.019129828 -0.14941134 0.017963454 0.048840474 -0.03731226 -0.06967561 -0.012780691 0.030045634 -0.06607182 0.07211461 0.08399071 -0.024066411 0.10726742 -0.093855724 -0.048702497 -0.057117794 0.042169575 -0.058612775 0.040512905 -0.17098328 -0.16630402
ACTG2 0.22861773 0.0996295 -0.021043828 0.0041558263 -0.047808938 -0.22354834 0.13086794 0.0032360672 0.41323182 -0.29827243 -0.014794762 -0.006633562 -0.3498284 -0.19177149 -0.18211621 0.0013497301 0.085977964 0.0249888 -0.04908549 -0.032919142 0.04314751 -0.10958049 -0.29731414 -0.10100995 -0.034355592 -0.23831092 0.09182294 0.044840652 0.06531095 0.083787635 -0.08629128 -0.20254678 0.15310538 0.01831072 -0.100930676 0.012576055 0.22168557 -0.15637115 0.030697506 0.23031281 -0.062715985 0.009459153 0.18050683 -0.27144623 -0.057438545 0.10259009 -0.1156272 0.029503627 0.18783535 0.033170965 -0.21217093 -0.056528945 0.13707396 -0.33435926 0.039718833 0.1388466 -0.09435717 0.21067004 0.08944116 0.05905596 -0.25591382 0.18094249 -0.064759225 0.008892656 -0.11353822 -0.1138292 -0.062717915 0.13822079 -0.06368485 0.351277 0.27519828 0.10021822 0.14811386 -0.19803917 -0.13980289 0.0093743885 0.06884429 -0.3676926 0.3594995 0.19694129 -0.08347859 0.04184044 -0.20648476 -0.020633234 0.24457647 -0.1873023 -0.067058444 -0.042274244 0.1412815 -0.2111643 -0.19514272 0.27198696 -0.14255437 0.10171309 -0.0836547 0.078801185 0.09629566 -0.046983324 0.25243625 -0.3503682
ADAM19 0.05227383 0.013724611 -0.65239173 -0.14252338 -0.36759573 0.6048302 0.39453265 -0.01942139 0.7953523 0.34966856 0.08176653 0.09696643 0.3326617 0.24399939 -0.46084133 0.16296539 -0.16455066 0.24242415 -0.5325171 -0.31614026 0.050586224 0.08005218 -0.6353862 -0.022093007 0.4320925 -0.45453146 -0.17414325 0.71177536 -0.13483359 0.01042127 -0.28508037 0.1641896 0.7463581 -0.102409355 -1.0060253 -0.25281385 -0.046110217 -0.15220578 -0.40849152 0.16610558 0.3231381 -0.13486765 0.2756527 -0.063113995 -0.0017771549 0.6910001 -0.23764917 0.20087136 -0.039233223 -0.75803417 0.2025789 -0.2750579 -0.7963589 -0.028550752 0.21772033 -0.031706404 0.0075979047 0.20309559 -0.7692574 -0.28888288 0.39034617 -0.33031425 0.45893568 0.52600235 0.45513135 0.3461952 -0.6937123 -0.071559355 0.24750811 -0.018251086 0.25691932 0.11364163 -0.45531976 -0.47343847 0.7431729 -0.19646178 -0.910272 0.18782674 0.6483679 0.390565 -0.3696754 0.07802669 -0.55269164 0.33963576 -0.4080835 0.047470227 -0.4484693 -0.007861132 0.0633069 -0.06667865 -0.17796332 0.0005616437 -0.2379913 -0.6713345 0.23661187 -0.23216258 0.18999746 0.12479554 -0.32385617 -0.41645408
ADAMDEC1 -0.089987524 -0.2583089 -0.22654347 0.036784254 0.19581875 -0.07091881 0.040062025 -0.26664764 -0.19945204 0.45742387 0.39816856 0.36489925 -0.12863901 0.24316515 -0.40511137 -0.3008575 -0.012932531 -0.053296898 0.28990638 -0.17749505 0.06636508 0.01009852 -0.36717194 -0.060223352 0.38804042 -0.35436082 0.17784275 -0.0936911 0.1354082 0.41516525 0.15516695 -0.11549112 0.21371494 -0.14099692 -0.034519996 -0.040422183 -0.19690402 -0.104833476 -0.2096973 0.2112789 -0.088392526 -0.18603757 0.16977552 0.01662544 0.14659005 0.10797843 0.054989073 -0.1228918 0.09967309 0.3978257 0.14112894 0.119803734 -0.17151853 -0.022176854 -0.3093645 -0.038717277 -0.25511932 0.16549659 0.23997901 -0.077625684 -0.16074146 -0.2662197 -0.021712322 -0.32193103 0.06890941 -0.19439702 -0.07362078 -0.20724821 0.10291345 0.15692759 0.02676928 0.11359768 0.13080709 0.06945637 -0.03246476 0.03238847 0.21868543 0.04988919 -0.07282965 0.048986264 -0.20180319 0.18027619 -0.07356974 -0.08545115 -0.37131643 -0.00057217793 -0.33308682 0.25919548 0.16811782 0.25447795 -0.27114356 -0.14643578 0.0051380424 0.1688293 -0.35965842 -0.35742295 -0.08228938 -0.099530816 0.07506233 0.0498192
ADM 0.10070596 -0.21166435 0.18519947 0.36949927 -0.30359036 0.4364056 -0.057669066 0.24248518 -0.05164311 0.290138 -0.4420178 0.040065523 -0.3557708 0.2921108 0.52404416 0.17735654 0.3399069 -0.17276818 -0.21346639 -0.438192 0.1734054 0.28259692 0.28737152 -0.0015721212 0.85612154 -0.091848016 -0.034821045 0.351818 -0.0012585728 -0.21192884 0.59825104 -0.23600248 0.10031454 0.22648995 -0.02817112 0.3390823 -0.18313012 -0.4290369 -0.12172283 0.078616574 -0.5576085 0.09845728 -0.54266393 0.5482062 -0.24664609 -0.2170197 0.0093429135 -0.16517861 -0.074481905 0.17648293 -0.21070068 0.11949127 -0.7204543 0.03465694 0.017829716 -0.33362344 0.30437878 0.18031608 -0.25083935 0.38688442 -0.5777721 -0.30336997 0.16588716 0.02965072 0.39377505 -0.4372586 0.15075406 -0.14472184 -0.3690698 0.20512784 -0.28294024 -0.36928123 0.3628051 -0.23527974 0.38066202 0.4591203 0.096452795 0.41956836 0.4628359 -0.028836427 0.4598815 0.15639839 -0.061207917 -0.088803746 -0.040274534 -0.055213433 0.111808755 -0.0071013696 -0.06906892 -0.40794408 -0.43198657 -0.17405543 0.37408426 -0.4731274 0.06489306 -0.13049114 -0.26319036 -0.567706 0.12211925 0.48563907
ADRB2 0.1651851 0.09376763 0.104128696 0.16364281 -0.1945995 0.06690773 -0.056435123 -0.056044996 0.099249765 -0.06303788 -0.09423614 0.2906495 0.18959832 -0.07530727 -0.0652232 -0.23394896 -0.008240667 -0.03091357 0.09339276 0.28573734 -0.31327462 -0.046985783 0.18556032 0.18562926 0.14915663 -0.2824577 0.034989458 0.10480632 0.13519996 0.08134331 -0.16325934 -0.07855804 0.32547495 0.12797806 -0.14987224 -0.48149246 -0.04675084 0.021803703 -0.07739224 -0.060957268 0.06217617 -0.21122785 -0.15001976 -0.2561803 0.07816905 0.1094675 -0.27866474 -0.06294475 -0.30338982 -0.41758078 0.20639546 0.012979558 -0.47278228 -0.054459285 -0.004126809 0.028758552 0.16850677 0.08424697 -0.0210961 -0.01740834 0.044321954 -0.01861611 -0.08577786 0.05690157 -0.04001364 -0.057811506 -0.27765736 0.19006604 -0.10467621 -0.15139657 0.012355731 0.09638753 0.22274676 -0.17540957 0.030412802 -0.45554763 -0.15689309 0.025097461 -0.070045784 -0.1637573 -0.32310542 -0.041018367 -0.27375937 -0.23368862 0.065633446 -0.15365343 0.009265548 0.06902041 -0.3318418 -0.0480099 -0.37074322 0.25774232 -0.12574634 -0.5569275 -0.09997502 -0.005805917 0.045650624 0.37818658 -0.054442436 -0.49233595
ADTRP 0.3354035 -0.36697227 -0.35221896 -0.61774504 -0.17876126 0.28843838 0.5525136 0.35263368 0.10915626 -0.13950579 -0.067706004 0.118330024 -0.59699094 -0.08906618 0.099737756 -0.2253148 -0.06519868 0.3278116 0.28013736 -0.44867963 0.4305485 -0.7632624 -0.48147997 0.6028409 -0.23779331 0.1397839 0.5009045 -0.41216326 -0.24131268 -0.16222763 -0.73916316 0.027230933 0.21723682 -0.27052224 -0.0007990406 0.4729479 0.6494003 -0.2504381 -0.2679134 0.177991 0.5514938 -0.72329694 0.216178 1.0534364 0.013551693 0.673492 -0.26175746 0.15252802 -0.3404298 0.4012453 -0.5970888 -0.03025821 -0.25697276 0.9529107 -0.68894434 0.08232273 0.39340347 -0.010371497 -0.095714435 0.4439273 -1.0487515 0.24448504 0.017972922 0.8511336 0.30813262 -0.4526912 0.1633655 0.2085494 0.046705876 0.09273927 -0.27485597 0.53920144 0.53490496 -0.626261 0.113343075 0.6069972 0.05664422 -0.61813307 -0.052068584 -0.16457969 0.009225873 0.18808776 -0.0119536705 0.6224542 0.45699373 -0.028796306 -0.5956417 -0.4199157 -0.50061256 -0.74380106 -0.17498985 -0.36370552 -0.72880197 0.62764406 -0.20521477 -0.80845934 0.42001086 -0.72610646 0.17225583 -0.025471926
AGRP 0.10769879 0.0013175898 -0.16420744 -0.035679184 0.022824064 0.25696743 0.002524139 0.0045541506 -0.10249495 0.14445399 0.0035883586 -0.037582766 -0.04364795 0.015914463 0.12006195 -0.045653857 0.10066916 0.040806845 0.011268824 -0.19909416 0.02542658 -0.014987372 0.12910098 -0.022076054 0.21080773 0.30875883 0.053972833 -0.15454547 0.0515616 -0.029358901 0.10428709 -0.057982933 -0.08579257 0.032705758 -0.04676937 0.03221115 0.01610778 -0.038309176 0.03184918 0.011764074 -0.083380714 -0.004514736 0.20680022 0.13734165 -0.09140153 -0.07550226 0.149587 0.017309861 0.097665 0.09493184 -0.21812555 0.018408457 -0.026475433 -0.038674146 -0.109965086 0.10563502 -0.055668887 0.0052663637 -0.13126345 -0.064044386 -0.13884872 -0.104583584 0.14766411 -0.010222734 0.0031604066 -0.02582764 0.19654629 0.011204845 0.09167472 0.06305778 0.021422902 0.05314491 0.014945843 0.051362246 0.09203017 0.16913979 0.09689507 -0.13470185 0.13259345 0.026642194 0.043105748 -0.0042288415 -0.009101659 0.05585946 0.0753189 -0.060825214 0.0036912207 -0.053564496 0.009362286 -0.10055693 0.025574183 0.08806196 0.15607063 0.07291162 0.064653054 -0.10073888 0.096256725 -0.1597484 0.06832353 0.11734257
AIF1 0.3943576 0.026082462 0.17762415 0.17275548 -0.16371712 -0.028523218 -0.152705 -0.1171021 -0.0055878866 -0.056867648 -0.017737292 -0.13906914 0.002902599 -0.06613907 -0.0143033555 -0.07632764 0.20663612 0.21200502 -0.047925863 -0.25021765 -0.21651907 0.06520301 0.47363767 0.20630985 -0.15989219 -0.27937582 -0.017826915 0.4431791 -0.12817432 0.076175295 0.1478108 0.35378522 0.64018905 -0.3474837 0.49047923 -0.29204282 -0.35430947 0.21200395 -0.20809144 0.03735367 0.062896185 -0.06734404 -0.6166598 0.03781084 0.113499664 0.19285135 -0.118861884 -0.24280202 -0.21354027 -0.1588597 0.06195172 0.4082862 -0.84031445 0.3238275 -0.044887222 -0.34271938 0.13863246 0.14181127 -0.21772976 -0.05768746 -0.50828546 -0.4928548 0.089663416 0.010330289 0.1016238 0.22069544 0.021109596 -0.22669895 -0.34268516 0.137478 -0.09379543 -0.20084174 0.16055231 0.091879666 0.16864276 0.30944246 -0.07678092 0.54368836 -0.23764913 -0.07786527 -0.38700783 0.021550786 -0.19861141 0.30934438 0.3509875 -0.008891689 0.4960613 0.13788328 -0.2503842 0.014458523 -0.38709486 0.30867323 -0.32236558 -0.5280665 -0.03708827 -0.053807613 -0.06128349 -0.1581605 -0.014084285 -0.22930388
AKAP12 -0.0626672 0.24060526 0.260188 0.011248778 0.23905936 -0.2924269 0.1893666 -0.04413132 0.21836211 -0.4185547 0.004939909 0.20340459 -0.068733536 0.11781986 -0.28727892 0.18154612 0.11614576 0.075616054 -0.04228661 0.0061746854 -0.025427084 0.02754741 -0.10005468 -0.006280352 -0.20129584 -0.08954254 0.22339082 -0.015048949 -0.025381897 0.17753443 0.08010965 -0.17400447 -0.07192996 -0.027458483 -0.041759502 -0.021363448 -0.025628455 -0.027230294 0.13926455 0.08659507 -0.08701204 -0.09426952 -0.19541404 -0.15152286 0.13921985 -0.031431194 -0.18898977 -0.049625967 -0.04921884 0.19171531 0.18975306 -0.0059457673 -0.0129801575 -0.09265893 0.16298725 0.05855522 -0.19510286 0.0039841076 0.038854726 -0.005232648 -0.14222348 0.21372026 -0.13967709 0.1553715 -0.09333099 -0.16279854 -0.23580591 0.012533549 -0.10152808 0.11004203 0.066262096 -0.08110038 0.08789746 -0.090585895 0.118148744 0.019723224 -0.2638234 0.15040034 0.16568129 -0.028721085 -0.16109158 -0.1364433 -0.009109337 -0.010543247 0.21127494 -0.008608536 -0.08349423 0.15803356 -0.107999325 -0.15006322 -0.047817297 0.008644322 -0.14784554 -0.02842434 -0.11938599 0.14350207 0.25146067 -0.029250318 0.22404785 -0.25930378
AKAP5 0.17411743 -0.21412902 0.15308551 -0.031785514 -0.042155672 -0.074158154 0.3135668 0.09486799 0.35529298 -0.25630653 0.21251732 -0.0056666858 -0.02677704 -0.062570296 -0.18576376 -0.4955751 -0.091583304 0.18196607 0.14400826 0.028009422 -0.086151145 -0.34229943 -0.110755414 -0.22919297 0.024144186 -0.10380418 -0.029777067 0.08853471 -0.14660491 0.43417996 0.038085625 -0.41282433 -0.101697475 0.11487598 -0.2555121 -0.1765806 -0.28140306 -0.36971357 0.17575769 0.07909444 0.13887554 -0.24282514 -0.26871625 -0.23450023 0.0068574655 -0.08141269 -0.3994142 0.16313058 -0.09433227 0.013772402 -0.3222266 -0.15599789 -0.14061804 -0.32638344 0.04946348 0.10601526 -0.3952124 0.08808131 -0.19644861 -0.0882417 0.049950738 -0.05460755 -0.17180999 -0.24853775 0.36259618 0.35045642 -0.010592852 -0.14495976 -0.23112756 0.31557578 0.17163733 -0.15384947 0.08737769 -0.22875826 -0.035838556 -0.27016917 -0.17038639 -0.25187278 -0.13714501 0.10024708 -0.04838362 0.10897591 0.034600493 -0.2968943 0.10165117 0.3114289 -0.19885199 -0.08032798 -0.02185247 0.25776485 -0.6027114 0.22614953 -0.25329757 0.05372673 -0.1218413 -0.09298956 0.21650216 -0.19823186 0.040611234 -0.40130594
AKR1C3 0.0821971 -0.056204 -0.13592476 -0.27104864 -0.07062286 0.12167689 -0.09897042 -0.16254379 0.16996218 0.070426576 0.14330065 0.1899853 0.12881649 0.14020295 -0.04006052 0.09839076 0.06116341 -0.14220762 -0.02508289 0.15971941 0.07303158 -0.36860684 -0.102649175 0.044841945 0.018064566 0.054856855 0.2528182 -0.2528994 0.10652068 -0.16150542 -0.14854392 -0.18576507 -0.07449659 -0.09713961 -0.03562233 0.08589016 -0.06743251 -0.007934723 0.03158494 -0.17356545 -0.17365272 0.26259488 0.0034568703 -0.20190454 0.18253994 0.12792909 -0.10453292 -0.021739881 -0.3363452 0.16316326 0.043014087 -0.11386555 -0.29163814 -0.17612198 0.11148426 0.09472634 -0.10196523 -0.24176869 -0.16900782 -0.31478128 -0.023570854 0.10924462 -0.31287292 0.11121603 -0.116746366 -0.03165254 -0.07045751 -0.116223 0.096902646 0.19306287 0.10083438 -0.0212909 -0.15132329 -0.23497711 0.16441928 -0.1388723 0.05934601 0.10306123 -0.09121097 -0.012313146 -0.017561058 -0.054735415 -0.20358418 0.07275322 0.24512939 0.03021428 -0.10411826 -0.30643058 -0.08423698 0.03225279 0.02188256 -0.17720345 -0.14964052 -0.072179064 0.07599472 -0.08661004 0.18337102 -0.058450755 0.093703754 -0.21750565
AL512428.1 0.04522666 -0.048567344 0.14817472 0.12916194 -0.09835832 -0.11628036 0.044549756 -0.010868018 0.27076325 -0.23686561 0.05540607 -0.15194725 -0.2714144 0.095812455 -0.30368075 0.14383486 -0.06852431 0.04863118 0.08107198 -0.019383866 0.22030783 -0.11098453 -0.13570698 -0.105982386 0.19657521 -0.25176343 0.18795168 -0.032323565 0.008751987 -0.0028257798 0.037103605 -0.02697701 0.020022994 0.15411684 -0.09586028 -0.10857594 0.15960154 -0.06683676 0.29403594 0.2209623 -0.21160619 -0.018495353 0.16483778 -0.14769004 0.1574217 -0.037000716 -0.24875796 0.3117599 0.11982481 -0.023458969 0.06768164 -0.009582877 -0.08241216 -0.057204485 0.07112948 0.17844346 -0.08686092 -0.1680451 0.046958175 0.0024953794 -0.15513209 0.19296888 0.17174815 0.18588214 0.11694601 -0.027341494 -0.067324415 0.023999827 0.15367533 0.037879724 0.079745404 0.016849454 0.04044778 -0.078983776 0.16350725 -0.20123859 0.023317752 -0.10764362 -0.03445362 -0.1187568 0.16048416 -0.097015485 -0.2194909 0.019388301 0.20741075 -0.10637135 0.1487417 0.026395842 0.042101834 -0.19296777 -0.23409946 0.24228397 0.10931208 0.09081088 -0.13753235 0.17306562 0.028431669 -0.056045953 -0.012129661 0.05878796
AL928768.3 -0.08900493 0.18117598 -0.41959774 0.20745778 -0.008985875 0.00743957 -0.07278245 -0.004253071 0.004707101 -0.037959997 -0.28851432 0.09005966 -0.086352855 0.13436952 -0.093306184 -0.023824131 0.11929866 0.067078605 -0.24787901 0.13815555 0.007850632 0.39181703 -0.17679225 0.09288177 0.24851899 -0.033224773 -0.15494102 0.15189193 0.20989905 0.1283948 0.050908856 0.29832855 0.048187204 0.087672375 -0.08445466 -0.096199855 -0.11788761 -0.23273018 0.13212669 -0.03745166 -0.24004929 -0.45290205 -0.009290524 0.15534873 -0.044786807 0.08385272 -0.053268496 -0.17389373 0.107618205 -0.06850248 -0.202046 -0.19707872 -0.11792516 0.085123144 0.10122261 0.1252522 -0.003141134 -0.07789599 0.14590767 -0.094040066 -0.13239095 -0.052748717 -0.15330254 -0.18193176 -0.122711904 0.08018656 0.18266183 -0.030212773 -0.15241843 0.2540936 -0.0095238015 -0.1750218 0.10794243 0.07413834 -0.10085085 -0.07949342 0.015011327 -0.074103184 0.11034025 -0.059594534 -0.0049247155 0.07983116 0.13058521 -0.26066306 -0.0482072 -0.25149807 -0.27148858 0.05719977 0.010227766 0.09753065 0.0011880493 0.27145118 -0.22859788 0.18453741 0.08738408 -0.12224318 0.13709104 -0.18420558 -0.20509666 -0.15543762
ALDH1A1 0.124192365 0.10226948 0.11932844 0.5576543 -0.002293339 -0.27897763 -0.16616713 -0.16535012 0.30775464 -0.17430378 0.35103002 0.08600245 -0.14344709 -0.18196684 -0.15562989 -0.07867405 0.062022693 -0.042775005 0.060823817 0.0965652 -0.092504345 -0.035244163 -0.17809427 -0.17092958 0.26035255 0.010088864 0.19496602 -0.061723024 -0.18878935 0.20526034 0.46770552 -0.094696246 -0.14844684 -0.30445096 -0.039279923 -0.21347311 -0.09577775 -0.24150269 0.15495294 0.079660885 -0.22800411 -0.45987186 -0.0015200587 -0.124667086 0.13707247 0.22360721 -0.41122484 0.024749365 0.060951646 0.060902134 -0.0027457057 -0.17183337 -0.17170852 -0.080152445 0.16988595 0.0038195516 -0.42286214 0.11522596 0.07275589 -0.090520434 -0.35481232 0.5157179 0.023398427 -0.1464409 0.11584727 0.005008684 -0.069555186 -0.12520476 -0.022073409 0.18453002 0.58494467 0.03974242 0.10732965 -0.020744473 -0.12722366 -0.33198258 -0.061260395 -0.063371904 0.13296486 0.010560558 -0.0046017836 -0.36899927 0.019569797 -0.17366491 0.02901839 -0.27200902 -0.41312793 0.10839093 0.011340951 -0.022203168 -0.10575654 0.24504563 -0.2223695 -0.016261049 0.27618983 0.041183826 0.17583783 0.056434646 -0.27260566 -0.32350743
ALOX5AP -0.05013449 0.039145447 0.05128204 0.024923269 0.31495738 -0.29733688 0.38481668 0.43386623 -0.39433458 0.59404904 -0.0708244 -0.3323482 -0.14986938 0.33064517 -0.3856331 -0.38780376 0.23500696 0.1510075 -0.24088837 0.03334242 -0.31693012 -0.020844854 -0.0148530025 -0.59696984 -0.19466038 -0.22805828 -0.3617783 0.64652 -0.06211493 -0.44830576 0.20308436 -0.1485004 0.50174457 -0.17584263 0.18687044 -0.13350718 0.13556097 0.87792695 -0.16034715 -0.07895204 -0.18224855 -0.7623708 -0.67290527 -0.38300085 0.17824854 -0.4299819 -0.27252316 0.12210938 -0.37669614 -0.10919854 0.018905161 -0.15416133 0.014596323 0.42911234 0.011289977 -0.07798239 -0.009501017 -0.40367854 -0.055263165 0.1106678 -0.14091909 0.21724315 0.12986384 0.4193081 0.66767836 -0.13090926 -0.1958741 0.010483446 -0.09145688 0.23626605 -0.053144548 -0.1233338 0.10366042 -0.30946004 0.30878988 -0.12750678 -0.06656287 0.40048805 0.17619675 -0.13948768 -0.28436008 0.1630897 -0.24963552 -0.1990187 -0.07830297 -0.45799854 -0.182974 -0.2982079 -0.3025206 -0.17076084 0.06515509 0.23676896 -0.027251003 -0.5234142 -0.24185687 0.117276765 -0.06348343 -0.065453686 -0.35134324 -0.34944874
ANGPTL4 0.03393519 0.055810932 -0.110368155 0.16297822 -0.074373685 -0.12300122 -0.1620373 0.09538199 -0.012747485 0.1492562 0.04959051 -0.33824003 -0.37450197 -0.09736143 0.08651538 0.09154745 0.10684627 0.28534678 0.1030169 -0.2168466 0.22994147 -0.29073435 0.019654993 -0.07564525 0.3082512 -0.09173684 -0.01671535 -0.21215671 -0.21154463 -0.27057388 0.14999703 0.01719534 0.11072451 -0.06579611 -0.26956505 0.0036307643 0.52616745 -0.04563427 0.070973955 -0.013299783 -0.16463499 -0.3125421 0.0030014142 0.26014102 0.026032537 0.2530813 -0.1842581 0.20371264 0.2821739 0.08279377 -0.3899784 -0.086983755 -0.42957962 -0.07269098 -0.20200114 0.026497718 -0.15731543 -0.1832498 0.007222471 -0.038477767 -0.1428248 0.16757429 0.09035083 -0.14312294 0.2094675 -0.11402049 -0.11574405 -0.21753657 0.0050966977 -0.05917092 0.16109079 0.21675147 -0.00022388715 0.16868815 0.23053175 0.1836202 0.14582996 -0.19420029 -0.25682822 -0.37228033 0.09913728 -0.15282483 0.2366255 0.22474535 0.1166441 -0.05120641 -0.1356108 -0.0029743556 -0.29555297 -0.015064375 -0.230101 -0.1130687 0.005932511 0.113893315 -0.1595299 -0.30441555 0.22183695 -0.16697486 0.2546597 0.18690857
ANKRD28 0.06359081 0.03615644 0.06481936 0.2823269 0.7688474 0.22244932 0.34587964 0.327592 0.8439558 0.45762974 0.12736027 -0.2871958 -0.32283804 0.10702396 -0.527916 0.24239041 0.39047712 0.22497274 -0.90731615 -0.47828236 1.0519751 -0.3429096 -0.36218226 0.11550088 0.17839903 -0.42267326 -0.0396647 0.23730977 -0.22977115 -0.5703762 0.11760812 -0.23111176 0.60980755 -0.11620261 -0.66942936 -0.70149165 -0.2684472 0.13759124 -0.93098015 -0.3929207 0.054202773 0.113154545 -0.40034723 0.17130531 -0.21581566 0.07366628 0.57465774 0.02466974 -0.6444234 -0.08862431 0.12806335 -0.3584433 -0.69474214 0.31517562 -0.16622505 0.584889 0.25757024 0.33625528 -0.4752873 0.31114408 0.34284997 -0.11989986 -0.37780598 -0.047053616 -0.34314132 -0.14771341 0.016235726 -0.09977189 -0.09334083 -0.76081556 0.2873152 0.29588753 0.41260603 -0.8388623 0.2979192 -0.4343769 0.043559365 0.11284173 0.5043588 0.41723073 0.15280473 0.23203184 -0.18388306 -0.62937397 -0.15317383 -0.08812195 0.16080254 -0.13884473 -0.7561327 -0.07255045 -0.33662203 -0.24173078 -0.3623488 -0.5304882 0.089948334 0.3356235 -0.07177577 -0.07423824 0.118483976 -0.19849041
ANKRD37 -0.32751715 -0.20859958 0.32820183 -0.028631965 0.48413032 -0.03780326 0.28376523 0.27619255 0.12553026 0.2879248 -0.09927315 -0.010073803 0.021700142 0.049704522 0.014942948 -0.045327347 0.7739348 0.22780207 -0.05656271 -0.30918655 -0.2756258 -0.17576095 0.030775987 0.20175481 0.06856845 -0.10860894 0.056171685 -0.1768722 -0.24614953 -0.17060934 -0.039984707 -0.3484609 0.04316668 -0.032484803 -0.49017513 -0.14468004 -0.15594219 0.57036644 -0.038637064 0.38249174 -0.17566171 -0.23236889 -0.15282367 -0.347758 0.053661853 -0.07888654 -0.16744842 -0.4391608 -0.2485417 0.12408818 -0.10426939 -0.38833538 -0.55070996 0.36749357 -0.29941493 -0.001305233 0.03841477 -0.38027534 -0.35934007 0.24520881 0.12971076 -0.11399239 -0.097933605 0.014539499 0.047182065 -0.2623143 -0.15550296 0.10477119 0.14978336 0.2683419 0.18574138 -0.11304746 0.040591624 -0.27455506 0.5007384 -0.47499737 0.07982181 -0.03476183 0.20332132 0.11720765 0.18260968 0.17574668 -0.44069478 0.02267359 0.14777474 -0.43676832 0.34874603 -0.01952345 -0.379801 -0.5166882 -0.15069881 0.22584957 0.08169583 -0.53954 0.12163252 0.091507904 0.3331379 -0.05057578 0.2256693 0.024093663
ANXA1 0.0569975 -0.35116827 0.16453046 0.17602435 0.046203166 -0.32834333 0.38781676 0.44404107 -0.17002106 0.546503 0.36289775 -0.39980897 -0.21025497 -0.11665725 -0.18589972 -0.05951811 0.5152032 0.3770858 -0.38018405 -0.13016888 0.011319262 0.4947217 0.32841396 -0.10646061 -0.16365874 -0.22322622 -0.5511602 0.5274933 0.03094272 -0.46285564 0.3545901 -0.12446694 -0.044025872 -0.29045364 0.058332704 -0.1101725 -0.16307549 0.8130348 -0.09450926 0.21250343 -0.11788019 -0.29080105 -0.02193912 0.20977704 -0.050482664 -0.24857071 0.27675027 0.05648724 -0.41508335 0.09066112 -0.28645837 0.23301753 -0.66648513 0.32930535 -0.5103096 -0.34768936 0.08950893 -0.2183447 -0.14789705 -0.048479978 -0.08342085 -0.61805767 0.042169295 -0.10916502 0.3054115 0.04536313 -0.08635442 -0.33125228 -0.1147044 -0.03444463 0.022561325 -0.27370605 0.07012486 -0.13885635 0.24770857 0.27136767 0.04792838 0.5556827 0.1168173 0.21264505 -0.19485451 0.19791701 0.085973695 -0.46365508 0.16048542 -0.33810863 0.44817644 -0.38967526 0.20097037 -0.021018064 -0.4769865 0.24466474 0.021991972 -0.38477713 -0.37666777 -0.20908575 0.028092016 -0.13204403 -0.09476482 -0.2972448
AOAH 0.19835268 0.06420712 0.3884763 0.57528305 0.10702412 0.08675999 0.22043958 -0.025064992 -0.16279356 0.24513666 -0.148611 -0.24241519 0.17163324 0.13669255 0.09288888 -0.17138484 0.3004663 0.18550736 0.2766117 -0.26778197 -0.42920154 0.11065117 0.4921419 0.107025355 -0.19355893 -0.3568515 -0.3260604 0.15148741 -0.3132641 0.30230168 0.39561537 -0.53973854 0.45325935 -0.06109435 -0.14081576 -0.11283849 -0.43969902 0.24683157 -0.31467193 0.20546761 0.36669484 -0.48412216 -0.39088637 0.2336906 0.33742443 -0.004994408 -0.30051786 0.15134114 -0.22680032 0.041515157 -0.525903 0.01143207 -0.5876411 0.11558247 0.023755072 -0.10914828 0.29041553 0.03849574 -0.2271672 -0.039295137 -0.15027098 -0.32974753 0.24368852 0.469808 0.735029 0.076114275 -0.15948692 -0.2934345 -0.4897431 -0.31117952 -0.294899 0.12575646 0.14648299 -0.05740618 0.2364388 0.17692995 -0.38138366 0.53896695 0.106073335 -0.05286809 0.08750545 -0.30484292 -0.25582784 -0.21067387 0.3177327 0.046755847 0.50742793 0.24798132 -0.36872616 -0.38109362 -0.7589722 0.09945283 -0.09985189 -1.0091513 0.17615837 -0.02038258 -0.030441988 -0.25773096 -0.051934686 -0.14827655
APBA2 0.20919165 0.03870975 -0.082349315 0.15026397 -0.2515151 0.10448583 -0.18225847 -0.17294347 0.010130895 0.12487243 0.052148394 0.22015816 0.2523649 -0.3401816 0.05003777 -0.30113226 0.07887452 0.11440103 0.116665415 0.08396605 0.016717441 0.059132054 0.012436202 0.25963497 0.29195082 0.0003991961 0.14091074 0.014642245 -0.0056307353 -0.032367375 0.05889466 -0.07828718 0.08447424 0.20928374 -0.056590315 -0.28814816 -0.12734169 -0.072948806 -0.14927086 -0.27209333 -0.05293315 -0.054082256 0.053050436 -0.0024608432 0.07390023 0.09116185 -0.030418547 -0.10303671 -0.018232897 -0.12006312 0.068273485 0.00809919 -0.36046278 0.02699344 -0.21050586 0.041915137 -0.016149616 0.0785125 -0.022568982 -0.08553273 -0.012216326 -0.12489976 0.14778952 -0.2136473 -0.11335595 0.22637613 -0.13978082 0.07694036 -0.02257226 -0.020451494 0.11169606 0.14001709 0.1355915 -0.07097247 -0.11487191 -0.07719334 -0.021606501 -0.15498301 -0.19907407 -0.17105386 0.015842212 0.010612562 -0.24830209 -0.15617752 0.13673171 0.06862684 -0.0022280088 -0.20737323 -0.081381686 0.14761972 -0.13372318 0.03188004 0.0128926085 -0.0067586303 0.16278294 -0.08270087 0.019223575 0.18313722 0.08312261 -0.14998916
APOBEC3A 0.14597566 0.34006068 0.07138774 -0.001085478 0.06893695 0.18486822 -0.3514461 0.0041299397 -0.2501484 0.5493052 -0.009294515 -0.36219883 -0.03612543 0.22331323 0.1873243 -0.036417637 0.1668053 0.09697716 -0.20290698 -0.067091525 0.13370697 -0.2817997 0.19136372 -0.07999853 0.29936916 -0.24025984 0.035816774 -0.024299383 -0.16995253 -0.094874926 0.07999525 -0.0015497106 0.19822301 -0.05253781 -0.16821566 -0.09398457 0.18747279 -0.16646421 -0.2660197 0.19539307 -0.17598847 -0.14738274 -0.28723437 0.008435988 -0.030035364 -0.018582094 -0.043828093 -0.120928794 -0.060115717 0.046871655 -0.1401525 0.008947765 -0.124314435 0.14259961 0.05486714 -0.055163406 0.2384059 -0.12434162 -0.0074942946 0.08511988 0.08068797 0.0056744847 0.010368907 0.27803394 0.18124668 -0.025436047 0.011302713 -0.13593456 0.038681712 0.0038711056 -0.13685197 0.027833601 0.00071047794 0.19408353 0.2873205 -0.06354089 0.00067192945 -0.00023904856 -0.079159535 0.111735016 -0.0016856953 -0.101962805 -0.17551877 0.18538141 -0.09927907 0.37104455 0.021859445 0.021676494 -0.46053344 0.17227681 -0.05399599 -0.086491175 0.2851208 -0.19134036 0.17180827 -0.3134124 -0.3090474 -0.15931094 -0.041859902 0.29716074
APOBEC3G 0.10169623 0.19088268 0.3492866 0.65349305 -0.014680563 -0.10726883 0.29509366 0.37925926 0.6736174 0.28465962 0.16272719 0.15744409 -0.014854153 0.16800767 -0.084299415 -0.4225745 0.07479622 0.069107465 0.16037022 -0.7703101 -0.059819516 -0.11432702 -0.4453523 -0.3355662 0.32353675 -0.31451145 -0.005221128 -0.09081401 -0.5453339 -0.1636213 0.10261598 -0.39642173 0.46226543 0.43173194 -1.1439431 -0.03195654 -0.5091777 0.15338528 0.205954 0.3326968 0.17506498 -0.55393773 0.06560583 -0.20903118 0.5510003 0.18536445 -0.5386641 0.7956609 -1.0218065 0.63012683 -0.94924515 0.2645158 -0.34619087 0.1607699 0.20098321 0.45987737 -0.051946066 0.4165565 -0.98974866 -0.37147287 0.2842076 -0.14182301 -0.26581267 0.45079052 1.0355453 0.26782078 -0.17276102 -0.5571868 -0.30940825 -0.5266731 0.73161685 0.21100365 0.038391408 -0.7501 0.4201625 -0.008163945 -0.10211372 -0.0017938662 0.56619465 0.72600716 -0.083622664 -0.3572429 -0.20618503 -0.74804425 -0.10817613 0.043983467 -0.18989211 -0.52591175 -0.62899977 -0.32592517 -0.86495984 0.49544325 -0.6553562 -0.57498604 0.6245117 -0.043644454 0.20739911 -0.29583228 0.30500266 -0.6987782
APOBEC3H 0.26475573 -0.15974472 0.010031927 -0.13955423 -0.2243733 0.36576185 0.16723405 -0.16456434 -0.063389294 -0.15396677 -0.027459348 -0.037216526 0.5126703 0.17868255 -0.29254085 -0.19002461 -0.18025653 0.019374404 0.011987643 -0.2776482 -0.014328371 -0.49235532 0.07427505 0.16358939 -0.2549402 -0.05960477 -0.13240008 -0.14281614 0.2441077 0.33819035 -0.18646608 -0.6613122 0.18153755 -0.12666869 -0.04715369 -0.20673117 0.10977693 -0.049741462 -0.29410723 -0.23827086 0.30600843 -0.11457669 0.23287275 0.13583459 0.21495552 -0.111740865 -0.09065133 0.18273968 -0.24328272 -0.20749256 -0.29958454 -0.1615566 -0.30902883 -0.31999123 -0.05583495 0.4028913 0.32547927 0.039102685 0.055436246 0.17296883 0.16372865 -0.28285164 -0.03733773 0.057763167 -0.13708116 0.077765554 0.07771008 -0.11902001 -0.45294067 -0.3122793 -0.010751838 0.0925257 0.299271 -0.17125992 0.300757 -0.4324017 0.082951754 -0.20498313 -0.33045584 0.2066593 -0.028154781 -0.008357892 -0.30175903 -0.19432297 -0.36844945 0.38088396 -0.069454566 -0.09530726 -0.030375892 0.49636674 -0.5470605 -0.16672784 -0.15648217 0.067037754 0.19693926 -0.341876 -0.11938617 -0.18325739 0.054472018 -0.18459958
APOC1 -0.013134107 -0.10560103 -0.015178426 0.029256107 -0.13682911 0.016858593 0.09940383 0.18556304 0.13712661 -0.07052107 -0.25301397 -0.059503786 0.06894183 -0.03235183 -0.10207329 0.038032733 0.30685297 0.025306787 0.01628489 0.16533081 -0.030136058 0.21945578 0.09248499 0.189034 0.11345792 -0.14543456 0.010859221 -0.06396585 -0.13776053 -0.09609314 0.038200326 0.19440773 -0.13732329 -0.0667418 0.070194945 0.11645766 -0.011116825 0.060471136 -0.021965403 -0.1706519 -0.3620458 -0.07339517 -0.11373379 0.31542578 -0.0067725186 0.14150554 0.086341634 -0.12033534 -0.0705619 -0.37367603 -0.114713475 -0.20492353 -0.21675698 -0.02022013 0.028763495 -0.09205772 -0.021446882 -0.026635978 0.05330518 -0.025417104 -0.0059804115 0.01773507 -0.18196535 -0.081676535 0.09445571 0.07964215 -0.08738211 0.08291556 -0.008795351 0.3986715 0.23299508 0.07092208 -0.05737595 0.045252793 -0.19785427 0.17663462 0.13364658 0.19042778 -0.02831494 -0.045422904 -0.22371249 0.057687934 0.23399122 0.11723581 0.13058364 -0.060034674 0.03164935 -0.14929304 -0.04732123 -0.025978511 0.229922 0.07956263 -0.11784972 -0.035318263 0.15668845 0.19056827 0.2016868 -0.10879488 0.14950901 -0.29686773
APOC2 0.17617936 0.032202825 0.09844058 0.11345728 0.028581126 0.15451463 -0.16584003 -0.18530712 -0.18003485 0.029804481 0.1711047 0.030586733 0.014244126 0.14049543 -0.00075664016 -0.066095926 0.19198628 -0.060531635 0.018433591 -0.09867269 -0.14887162 0.15162909 0.22709012 0.09138049 0.2244539 0.049088296 0.017244512 0.00012756535 -0.007720416 0.13365234 0.21986732 -0.1390483 0.118742704 0.04387369 -0.0949002 0.033123743 0.031090742 -0.17450033 -0.14786823 -0.11041967 -0.027109005 -0.07492475 0.1491902 -0.08637133 -0.16829135 -0.07805288 -0.042265255 -0.35416302 0.05080221 -0.1375017 -0.010309323 0.08310774 -0.3323452 -0.079316065 0.0331734 0.06062622 -0.0210949 -0.022428315 0.049017724 0.11050144 0.08497391 -0.108467214 -0.096977375 0.046336334 -0.09460862 -0.08369401 0.036615156 0.09369912 -0.009329781 -0.016358925 -0.016723838 -0.23272169 0.109323844 -0.011763333 0.021647802 0.015640372 -0.05156754 0.24625048 0.108014725 0.0533523 0.048898175 -0.02781677 -0.045278832 0.020442914 -0.021615082 0.12060649 0.023533776 -0.05283553 -0.0596668 -0.04209745 -0.18288882 -0.0032953238 0.13553171 0.0018417556 0.17977716 -0.16337681 -0.3116944 0.0026179068 -0.005134955 -0.0409489
APOD 0.5896025 0.4036676 -0.611014 0.48682648 -0.1510955 0.6359009 0.24986713 0.1166375 0.36157197 0.6376819 0.38893753 -0.6684056 0.10136363 -0.888499 0.38310632 0.123130985 0.22045353 0.33636358 0.024723342 -0.33609113 0.15074646 0.25612256 -0.08599144 -0.13820669 -0.47615558 0.3432821 -0.08237335 -0.41686293 -0.21773247 0.19900805 -0.22268866 -0.4747644 0.10910156 -0.09728154 0.17750555 -0.28930232 0.17325254 0.21747093 -0.009420987 0.54468477 0.22964951 -0.5307527 0.035342716 -0.19340582 -0.1932809 0.14919269 0.4276817 0.31019023 -0.52768743 0.14907242 -0.5070357 -0.041622683 0.46978045 -1.2638654 -0.32802063 0.6206098 -0.10277357 0.5637806 0.49291548 -0.16014166 -0.13486482 0.03745134 -0.18922937 -0.41802526 0.018845525 0.25861832 0.32988614 -0.39239356 -0.20872168 0.20272782 0.39070526 -0.17119405 0.26705512 0.16842115 -0.076807216 0.20027643 -0.26536223 -0.32122725 1.1713651 0.30707696 0.30678573 0.27649087 -0.0940598 0.07564319 -0.4787069 0.04472709 -0.32510072 -0.48388636 0.89792717 -0.034369044 0.44213188 -0.24719277 0.2791809 0.43921408 0.08375081 0.0513573 0.47150603 -0.43719232 0.083198234 -0.7142635
APOE -0.15889406 -0.015256415 -0.088454455 0.07997499 -0.04637216 -0.091164954 0.20354404 0.45180428 0.1780267 0.07151106 -0.14292212 -0.11687873 -0.23276177 -0.023812681 -0.025186973 0.21539965 0.24252033 0.059576876 -0.18094294 0.1458453 0.11605083 0.2848485 0.09263838 -0.021746803 0.035923887 -0.117594264 -0.12722532 -0.07193471 -0.1330285 -0.26983806 0.16472475 -0.06979554 -0.27851474 -0.05431351 -0.034836713 0.35505283 0.2619393 0.04116848 -0.05614968 0.06862585 -0.33120975 -0.10506772 -0.12436004 0.24561474 0.111809686 -0.011116994 -0.07455579 0.08730635 -0.16749737 -0.21419805 -0.15070587 -0.16230369 0.009417061 -0.17186934 0.0460788 -0.031179558 -0.08906803 -0.15083086 0.20194758 -0.033123154 -0.15951854 0.16519453 -0.12667173 0.012741566 0.298782 -0.06683628 -0.046851713 0.08373769 -0.018902581 0.17230225 0.15333383 -0.080175646 0.022280943 -0.1192809 -0.06704652 0.13270529 0.05888866 0.11903388 0.0647982 0.07078763 0.08995548 0.070423394 0.0618874 0.097129464 0.18558355 -0.25161847 -0.08848487 -0.067779705 -0.07365188 -0.18427387 0.22755505 -0.08382186 0.018649252 -0.16681609 -0.058126803 0.24782847 0.17328796 -0.08831996 0.07633778 -0.13804333
AQP3 -0.04890483 -0.52750766 -0.10273156 -0.40274587 0.13480026 0.31365097 -0.42954904 -0.23141329 -0.5100499 0.63180774 0.16344555 -0.08594396 0.36822948 0.4398111 0.15757704 -0.8201083 -0.0020680367 -0.5244953 -0.37225494 -0.1732681 0.53130955 0.38810605 0.3795611 0.15678817 -0.19714165 0.5371863 -0.08893138 0.3654258 0.30164978 -0.12926938 -0.10612683 -0.08690985 0.7552902 0.118966766 0.093432374 -0.24222887 0.85101795 0.40913928 0.45612943 1.1513872 -0.19134672 0.44126064 0.25193644 -0.17147134 0.7109501 0.7447975 0.24443549 -0.2222201 -0.7771268 0.69900024 -0.27738777 0.21476774 -0.15486746 -0.45343497 -0.46574867 -0.6208209 0.11650191 -0.17478652 -0.46672082 -0.23381019 -0.44329047 -0.123245105 0.63431007 0.80185455 0.16479954 -0.8353573 -0.009246576 -0.007721043 0.08173194 -0.9147557 0.25322473 -0.7724026 0.33048502 0.20585497 0.8129641 -0.6687051 -0.97277766 -0.23414668 0.12440674 0.6501557 0.39394277 -0.38174537 -0.69137657 0.35158604 0.1075164 0.7325772 -0.18541919 -0.61072046 -0.32541212 -0.023296805 0.11603936 -0.4785788 -0.90867764 -0.28975716 -0.3434004 -0.02641506 0.06586606 -1.14797 0.64486074 0.50385463
AQP9 0.31646883 0.0842906 0.50554216 0.21198547 0.039417863 -0.24170129 -0.5150416 0.056890216 0.02739212 0.80861014 0.24675205 -0.2163578 -0.06404883 0.30950898 -0.25405875 0.17145194 0.1184289 0.18088494 0.30981204 -0.17708473 0.6114718 -0.22809976 -0.2108518 -0.21991423 0.31166798 -0.22112393 -0.04343872 -0.34547374 0.0903134 -0.4242928 -0.28192002 0.3858813 0.3168853 -0.5209248 0.12510464 -0.6256949 0.7903008 -0.30925032 -0.48888576 0.13681671 -0.1860747 -0.41526854 -0.6699901 0.098183736 0.20659378 0.43489507 0.07492804 0.3366135 0.6999235 -0.033328287 -0.13491437 0.36555144 -0.76881474 -0.37038574 -0.46381167 -0.6126674 0.7859221 -0.2845236 0.40053266 -0.045586552 0.041848045 0.2217483 -0.26292002 -0.21242715 -0.33715317 -0.4712746 -0.19733602 -0.2689659 -0.4267851 -0.4083173 0.20292476 -0.07489802 -0.0063602845 0.2664 0.3396625 -0.2659795 0.09468069 0.4922434 -0.40015066 -0.585362 -0.5244021 -0.4595489 0.4182349 -0.30772865 -0.3195542 0.021809937 -0.17670885 0.024270771 -0.66205573 0.49027997 -0.77453285 -0.22412758 -0.24556075 -0.02201998 -0.56362087 -0.4060561 0.2112388 0.14988609 0.5199882 0.007915058
AREG -0.1095094 0.0018697521 0.00830708 0.022768272 0.036286976 0.2178692 0.054411925 0.38753125 0.06287114 0.185373 -0.025832223 -0.02966585 -0.1969852 0.20726384 0.041099545 0.19332202 0.1885206 -0.13802986 0.038057823 -0.14516027 -0.047371104 0.025174748 0.22159009 0.13886675 -0.15158752 0.03452784 -0.14662237 -0.105101354 -0.030130096 -0.31120783 -0.049832143 0.037527584 -0.1434283 -0.08829652 -0.11237301 0.22778381 0.017487988 0.11557546 0.057363905 -0.05038358 -0.10634014 0.048065655 -0.044911668 0.30489314 0.15502568 -0.06994884 0.045580275 0.16267289 -0.36126235 -0.02894126 -0.30961987 0.06537452 -0.20026109 0.1524268 -0.10644546 0.2504579 0.015130807 -0.021724258 -0.15652256 -0.40529984 -0.100929596 -0.19155462 -0.07374979 0.051496994 0.25503936 0.032914113 0.20037262 0.016617773 -0.032472108 -0.22633727 0.02278315 -0.30573925 -0.018406166 -0.1665517 0.13051198 0.37888634 0.2958939 0.2856174 0.031197552 0.12435487 0.019406958 0.33078736 0.060615268 0.13282573 -0.12770732 -0.05027088 0.06516226 -0.2680985 -0.14834994 -0.11988593 -0.062146235 0.01279555 0.0716781 0.029689362 -0.14319675 0.043979138 -0.12743731 -0.19854961 0.024992865 -0.1161321
ARHGAP24 0.17858179 -0.12653172 -0.37375528 0.045521285 -0.34264937 0.372236 -0.5216484 -0.13101198 -0.24541305 0.115106426 0.12305594 1.0104004 0.10573368 -0.025806371 0.13203983 0.04433594 0.13907045 -0.29794392 0.44617474 -0.1395307 -0.01398743 0.44313243 -0.00525972 -0.06106562 0.6259424 -0.21435532 -0.090457484 -0.72281665 0.016070371 -0.26510182 0.24009696 0.18505247 0.8293278 0.31803447 -0.40773 0.1945989 -0.26087606 0.028645746 -0.28976643 0.12538767 -0.49046403 0.06440089 0.2892194 0.32646286 -0.36389866 0.5168523 -0.21900433 0.16220695 0.1303893 0.1434515 -0.45542336 0.45014963 -0.7166565 -0.29671764 -0.11697921 -0.12487505 0.21294415 0.30023754 -0.42883003 -0.5409767 -0.07620657 -0.5397108 -0.054838467 -0.20059404 0.018831763 -0.3965376 0.07841397 0.4140519 -0.011482676 -0.085611165 0.17113712 -0.0465069 0.7009428 -0.26908836 0.12131811 0.6630709 0.13331796 -0.012079866 -0.24695553 -0.27715307 0.22752489 0.20306271 -0.09588262 -0.11696421 0.69299334 -0.3021645 -0.41834566 -0.635988 -0.2475121 0.37448153 -0.090895236 0.20422527 -0.6490672 -0.37739658 -0.067619346 -0.2051026 0.16653241 -0.3326294 0.26554942 -0.07346374
ARID5B -0.06282253 -0.13691278 -0.07423303 0.2216383 0.24852897 -0.3119171 0.34697208 0.5190145 0.041765224 0.822507 -0.3962379 0.04135924 0.5317494 0.36507657 0.028353842 -0.30953634 0.90443134 0.0027400986 -0.27803695 -1.2563087 0.2902005 0.15520719 -0.5090793 0.22546083 -0.017698847 0.10350658 0.021981595 0.14733922 0.19503371 -0.30804518 0.09891421 -0.057128027 0.16267908 -0.33103946 -0.5039081 0.3664769 -0.22442305 0.80513704 -0.03927273 -0.1876746 -0.04125012 -0.4004421 -0.03047956 0.56948286 0.13644305 -0.17553212 0.08451163 0.5639417 0.0330034 0.44654548 -0.024132652 -0.6221937 -0.23507072 0.31879792 -0.19458222 -0.12016866 0.037949856 -0.02024217 -0.36489695 0.19314146 0.27263522 -0.5704401 0.19071108 0.044170577 0.4592063 -0.10067946 -0.40573257 -0.89245796 -0.25550106 0.282801 0.810821 0.28416312 -0.35387796 -0.20747009 0.36938202 0.09681959 -0.06401491 0.6709204 0.74343014 0.5774539 -0.02405942 0.102032974 0.3181285 -0.07495928 -0.33905587 -0.8241535 0.27105072 -0.77010155 0.29577398 -0.12042978 0.34294936 0.29893833 -0.03420528 -0.25432664 0.9190376 -0.052844062 0.15510477 -0.81297505 0.22135867 -0.29894626
ARL4D 0.20622134 -0.093155846 0.1243776 -0.2672735 -0.17400837 0.28077838 -0.2279784 -0.19411424 -0.016602261 0.021087058 -0.15445003 0.14722177 0.06631676 0.22712727 0.28407001 -0.19158374 0.23004255 -0.119565316 0.2794849 -0.23715943 0.061722588 -0.38148493 0.132748 -0.003948586 0.06995919 0.019189302 0.13431492 -0.15792333 0.044037823 -0.25266457 -0.1924012 -0.14828947 -0.014067614 0.25186652 -0.15214965 0.08208938 0.012525089 -0.010229593 0.14823852 -0.1418112 0.06846603 0.02363123 -0.078323625 0.16005339 0.06697711 -0.12543239 -0.037601013 -0.1280329 -0.004443481 0.10545815 -0.14525335 -0.036038887 -0.34198415 -0.0514338 -0.12435374 0.27070603 0.10009462 -0.18065542 -0.17433369 -0.09477533 0.13602248 -0.3369827 0.10838026 -0.2622344 0.1543852 0.020302605 0.24053703 -0.22989264 -0.17813896 0.017427899 0.023838127 -0.19205281 0.056417402 -0.2152059 0.18807675 -0.10790859 0.056802884 0.123469524 -0.28957552 -0.16808116 0.038364176 -0.03343129 -0.038805887 0.08815666 0.13190147 -0.14014724 -0.13559458 -0.3591508 -0.27930424 -0.04146511 -0.2948839 -0.06087696 0.048979543 0.088548966 -0.013127245 -0.16532326 0.19116376 -0.18051596 0.367008 -0.032554954
ASPM 0.049000334 0.074626446 0.14756487 -0.30268037 -0.13403565 0.24863566 0.12880988 0.24550155 -0.0954675 0.006274837 0.09251848 -0.13311754 0.35147586 -0.19545642 0.28510162 -0.04464949 0.11845982 0.07813879 0.016395923 -0.36304787 -0.22591256 0.2524191 0.43023014 0.06975545 0.13917 -0.016080497 0.055503536 0.21713798 -0.09952695 -0.07277843 0.1844737 -0.26089993 0.20411164 -0.020590128 0.115317255 -0.070952035 -0.25803033 -0.052033946 -0.08970267 0.08018702 -0.04039805 -0.40578124 0.0069788084 0.0820572 0.33421305 -0.029458128 -0.14668757 -0.36889178 -0.28529942 0.09131974 -0.33959618 -0.017253576 0.005403396 -0.087852545 -0.16164777 0.12595147 0.26663566 0.30964974 -0.093573764 0.14754957 -0.21242714 -0.07261563 0.009228893 0.27442473 0.13647279 0.24452327 0.13828778 0.11776589 -0.0037280144 -0.3484103 0.050949693 -0.037125073 0.037300035 -0.099446215 0.33965653 0.082315326 -0.09020794 0.29329282 0.4810328 0.33316645 0.13862678 0.11962262 -0.48606488 -0.08095154 -0.05260868 0.3492266 0.05885564 -0.0439783 -0.26131132 -0.28614238 -0.012331542 -0.24395375 0.34652373 -0.46394637 0.36193246 0.062326908 -0.25805464 -0.030805947 -0.004981595 -0.058737427
ATF3 0.08499708 -0.018290523 0.14860383 0.16036412 -0.17850336 -0.27702373 0.084998704 -0.19852297 0.293065 0.27914408 -0.025387675 -0.0223921 -0.1926238 0.4133498 -0.056445207 -0.45225477 0.31980464 -0.16840437 0.07737127 -0.44269285 -0.1021524 -0.42215428 0.03050039 0.21091108 0.22181481 -0.10103685 0.56811863 0.29401988 0.17285316 0.09399936 0.16801186 0.21507648 0.37500945 -0.11984322 -0.09698741 -0.5134295 -0.5247485 -0.08854427 0.07864557 0.14875339 -0.31747526 0.27617106 -0.22928809 -0.014992496 -0.07411562 0.3330894 0.31096363 -0.24549653 -0.25327727 0.26210752 -0.17025055 -0.08585135 -0.5770544 0.2768827 0.060367137 -0.023025697 -0.0005281433 0.0339099 -0.3836311 -0.30445737 -0.30491978 -0.42637783 0.19184452 -0.12843737 -0.024424043 0.21882726 -0.16405994 -0.77960426 -0.10902709 0.19916064 0.20059553 0.25267833 0.15765743 -0.03324218 0.20762698 -0.06732581 0.42663297 -0.041597966 -0.022117335 0.007521342 -0.27241632 -0.0021170927 -0.281557 0.008902607 0.04700199 -0.27309844 0.23838602 -0.31507006 0.1747514 -0.3071536 -0.52754897 0.22967651 -0.1909458 0.036942516 -0.21346761 -0.022495057 0.48212495 -0.26044884 0.36659577 -0.2010276
AURKB -0.16281642 -0.1562741 -0.09094242 -0.13228758 -0.49208757 0.28417093 0.14121935 -0.04061892 -0.023221431 -0.05139722 0.0032702493 -0.29369444 0.6666981 -0.3022603 0.062518485 -0.045805313 0.37528154 -0.047429286 0.1584886 -0.2570282 0.026482021 0.41982704 0.3811142 0.12493014 0.26644313 0.0072778906 0.11126719 0.27705315 -0.16243161 -0.1066985 0.20571077 0.029296255 0.50553364 -0.082713336 0.42285424 -0.2701182 -0.34754843 -0.030978696 0.07704945 -0.8132753 -0.26426503 -0.5050037 -0.29543388 0.36477605 0.16097818 0.14267907 0.17710854 -0.06458383 0.09836374 -0.121565826 -0.39412773 -0.29920813 0.13861865 -0.15310611 -0.3271025 -0.16649847 0.05200684 0.362944 -0.3088914 0.07821029 -0.19359916 0.024811674 -0.1278492 0.20223759 -0.020312028 0.5419189 -0.46512398 -0.35534042 -0.0034245912 -0.18483876 -0.030787846 0.20556894 -0.42688566 0.1942758 0.21608096 0.31896025 -0.15179682 0.40467858 0.49322084 -0.13739064 0.017932095 0.27441207 -0.040638555 -0.3078176 -0.22747989 0.28505272 -0.0046493392 0.006039366 -0.17179191 0.21439958 -0.0733628 -0.17956702 -0.05108246 -0.3657482 0.30232665 0.4198154 0.122615576 -0.22239177 0.20213051 -0.1840757
AXL 0.23979937 0.34627134 -0.19783899 0.4867495 -0.13991903 0.1529593 -0.057682745 -0.3307015 0.361412 0.029538088 0.03254003 -0.003156976 -0.0729503 0.2247428 -0.044757534 -0.00050464435 -0.115325175 -0.07933994 0.08651149 -0.38160542 -0.4263282 -0.057346582 0.19477902 -0.0873279 0.12753585 -0.18236995 0.04291587 0.04288651 -0.18970257 0.35888806 0.2857141 -0.23625286 0.3553851 -0.15074944 -0.06939767 -0.36190963 -0.4915509 -0.31739682 -0.09444454 0.11113732 0.3170579 -0.1896408 0.0071812477 -0.21038269 0.20207581 0.06645926 -0.15985337 -0.22006373 -0.2522683 -0.0057651354 0.02406404 0.05758653 -0.45855764 -0.032622937 0.33645007 0.22043309 0.00864005 0.43564728 -0.21541466 -0.16691002 0.024553057 -0.1140992 0.1408336 0.13841413 0.40926522 0.33434972 0.057502717 0.066876136 -0.24069586 -0.08465841 -0.020690013 -0.0017863911 0.08952405 -0.26345518 -0.085613996 0.19923334 -0.118734285 0.03326938 0.39775717 0.16690114 -0.009004276 -0.12398447 -0.22544478 0.14811529 -0.20044869 0.07075784 -0.12546396 0.07488382 -0.03242546 -0.19154808 -0.26873282 0.14249139 -0.15403678 -0.30857202 0.28862435 0.17585273 -0.1505088 -0.1225272 -0.040757366 -0.04472964
BACH2 -0.064248465 -0.41245073 0.043669455 0.16578327 0.15652508 -0.41596404 0.22151242 0.09524327 -0.4031282 -0.665588 -0.4871028 0.3311496 0.972872 0.11713611 -0.27845973 -0.7771986 0.13793702 -0.20220806 0.3705842 -0.2072064 -0.57451725 -0.51079684 -0.36653084 0.48839566 -0.40232426 -0.41255644 0.14975485 -0.940125 -0.1784749 0.6562761 0.34927517 -0.6837009 0.4097364 0.51603585 0.3688827 -0.043764256 -0.6820574 -0.38674575 0.055578522 -0.64162445 -0.2564132 -0.7908623 0.5944422 0.40897715 0.35624307 0.019090712 0.46321002 -0.11707428 -0.25231853 -0.611951 -0.26366252 -0.42037567 -0.852989 0.09686674 -0.33985165 -0.26249495 0.7551958 -0.30043358 -0.34385902 -0.60455465 0.037165783 -0.10022841 0.17717029 -0.84047985 -0.4992772 -0.71212995 -0.2743421 0.46412146 -0.1542379 0.12912256 0.18991305 0.6466843 0.7408685 -0.87554425 -0.024008408 0.39386457 0.734373 -0.39402565 0.5543583 -0.5645405 0.43310598 -0.23248148 -0.48744953 0.076760784 -0.23816131 0.63600713 -0.6347727 -0.41244718 -0.018422913 0.42412755 -0.56686264 -0.29036042 -0.49965674 0.45591676 0.12169787 -0.14586225 0.47167665 -0.0026790504 0.6185954 0.18329352
BAG3 0.2014676 -0.2558762 0.20742664 -0.030509261 -0.23191488 -0.27737683 -0.13308814 0.25759512 -0.39467597 0.033213258 0.3032757 -0.31016728 0.2575404 -0.031776562 0.061223548 -0.09223906 -0.08500015 0.062900364 -0.3991285 -0.28188232 -0.16152641 -0.24957609 0.252053 0.30652598 0.07113497 0.03124721 0.04664789 0.44162577 0.47128808 -0.14938354 0.03364151 0.27023035 0.031993017 -0.24851741 0.36089206 -0.20098582 0.17590791 -0.22141968 -0.1798579 0.15041389 0.02938068 -0.00063807634 0.31068373 -0.11585664 0.13945232 0.25938895 0.2234508 -0.10718597 -0.4931168 -0.35243055 -0.42817166 0.26904437 -0.5030955 -0.16519174 -0.25872824 0.22564572 0.024392638 0.17382112 -0.03871645 0.06283455 -0.443861 -0.28563002 -0.054758005 -0.20831667 0.15842915 -0.23996629 0.013317072 -0.14065063 -0.008355329 -0.1803253 0.08670217 -0.10188923 -0.037778437 0.2545542 -0.07170572 -0.07570278 0.40102857 -0.14547935 -0.33918473 0.18503505 -0.007169285 -0.009417379 -0.3437333 0.054946046 -0.17312029 0.41689467 0.03796607 -0.10395876 -0.17310114 -0.042020056 -0.30734932 0.044285376 -0.16521637 -0.063474335 0.19343099 -0.37278402 -0.36554384 0.10788947 -0.022060307 -0.035880633
BANK1 -0.2775518 0.1778865 0.011762624 0.16765751 -0.21953063 0.18334673 0.28093314 0.24094994 0.29098943 -0.5577655 -0.5382602 -0.015831776 0.14623728 0.12567636 -0.34504396 0.39143822 0.2859395 -0.3112713 -0.00046578774 -0.36556786 0.18636659 0.3205748 -0.28738037 0.16859521 0.54414386 -0.46671966 0.20627901 0.44800574 -0.18098748 -0.020503307 0.2368608 0.095320605 0.65462226 0.5347022 -0.014433152 -0.55793905 -0.1119096 -0.20295377 0.29640087 -0.4249042 -0.43409503 -0.15593697 -0.2989661 0.39388406 0.27446637 -0.06290428 -0.11658263 -0.18617651 -0.09877647 -0.20817871 -0.2148279 -0.21420729 0.14600989 -0.21213436 -0.02103091 0.40696147 0.16955501 0.45650288 -0.027185863 0.10197271 -0.20446555 -0.31518352 -0.14096902 0.102429114 0.12869506 0.3481577 -0.054496877 -0.1932062 -0.66259384 -0.06880292 0.15304065 0.25898033 0.34218448 -0.5494127 0.06981726 -0.0917586 -0.4030423 -0.12013915 0.020876907 0.2861421 -0.051146947 0.0077585448 -0.16176851 0.036601968 0.1998926 -0.16276221 -0.17767487 0.3496482 -0.21298206 -0.011318646 -0.1457355 0.106988356 -0.31678197 -0.47688758 -0.48644134 0.21858913 0.28999916 -0.054203816 0.37615934 -0.49360862
BASP1 -0.018826034 -0.0075105755 0.33671126 -0.016775822 1.0593041 -0.41787776 0.037698213 -0.25321466 0.023070434 0.17781459 0.11006329 0.2174883 0.5207276 0.33749998 -0.30022505 -0.26999703 1.1468347 -0.576062 -0.5010092 -0.08780465 0.3059926 -0.010590602 -0.079028234 0.22247176 -0.8854412 -0.22383764 0.08347448 -0.71714044 0.110874705 0.074959725 0.27351195 -0.08771087 0.6777284 -0.22646216 0.31084764 0.46824512 -0.601635 -0.0846728 -0.44463623 -0.12298639 -1.3582815 -0.2918204 -0.7830445 -0.6603753 -0.089275956 0.4756111 -0.35813358 0.34698653 -0.12906493 0.28200215 0.15720995 -0.24319041 0.3692621 0.46756935 0.20515159 -0.5085948 0.2627152 -0.26788664 0.03282476 -0.20758723 -0.6813245 0.3534189 -0.2650266 0.29046124 -0.6603618 0.06549135 -0.83741546 -0.10572647 0.45313627 0.8309399 0.9486402 -0.14914472 0.76549995 0.2573437 0.152459 -0.075958304 0.1632267 1.0327023 0.46494743 0.05236378 -0.26492527 0.49165925 -0.4447651 0.7340702 0.19242254 -0.59343445 -0.26053557 -0.016969813 -0.39402786 -0.24405625 -0.044804085 0.28755853 -0.69038105 0.10548428 0.15603337 0.48298237 0.7256 -0.62911546 0.54828155 0.35547858
BATF 0.1285933 -0.20165808 -0.16757454 -0.38949656 0.065481305 0.12268129 0.15698275 0.056492187 -0.2691486 0.92875415 0.18081076 0.17011839 0.5624419 0.49553093 0.040045865 -0.63978696 0.04542097 0.24113554 -0.23623556 -0.7682525 -0.3230201 0.19734082 -0.119992115 -0.4629898 0.15923014 0.10061794 0.0867775 0.7670322 0.10125139 0.16621493 0.19108129 -0.12857649 0.114126496 -0.587065 0.1762835 -0.28597215 -0.26500863 0.67142063 -0.68667156 0.081325345 0.22939736 -0.30948734 0.016873958 0.24736877 -0.008577441 -0.52329993 0.3277833 0.32876793 0.39373642 0.35668975 -0.12618433 -0.11531006 0.18300407 0.04295412 -0.45259368 0.46311647 -0.09733215 0.07626329 -0.34667724 -0.3586645 -0.06648178 -0.20914467 0.7270379 -0.18629536 0.2600347 -0.24583057 -0.06221407 -0.2522614 0.12063345 -0.11559872 0.0854672 -0.15254088 -0.2899911 0.05872104 0.67485315 -0.10397473 -0.103742816 0.5144086 0.3090431 -0.003982732 0.20354825 0.3667591 -0.27039278 -0.20905046 -0.42920753 -0.4407136 -0.18278508 -0.32949582 0.18214369 0.08125628 -0.020693958 0.27794853 0.06838997 -0.4855927 0.16957583 0.25801528 -0.390695 -0.16229583 0.015585436 -0.54102385
BCL11A -0.12488447 -0.48681608 -0.3819227 -0.38264757 -0.69985837 0.054940894 0.13145824 -0.20413154 0.403915 0.12931226 -0.14887646 0.09597839 0.35866404 0.44304904 -0.46501184 0.57467204 0.46324435 -0.09822456 -0.4290212 -0.14328706 -0.16494948 -0.07407617 -0.39981607 0.2473505 0.120051876 -0.20231785 -0.18379688 0.01784974 0.17623985 -0.32098305 -0.16677228 -0.5001873 0.8018974 0.28720954 0.14159903 0.24253076 -0.12725902 -0.13836339 -0.029372368 -0.1811456 0.008020153 -0.18771355 0.57664716 -0.11052925 0.07318152 0.44666266 -0.33307442 -0.37812465 -0.000640221 -0.8673692 0.0023394953 0.14233576 -0.35003906 -0.16525263 0.28035265 -0.47902387 0.46625367 0.03344514 0.022014188 -0.23510265 0.10187099 -0.5337142 0.061858457 0.051641 -0.13881905 0.037756596 -0.48993897 -0.09690612 0.363565 0.085726 -0.08867153 -0.16584006 -0.10466469 -0.06313418 -0.0038763664 -0.052058008 -0.59752554 0.36275563 0.067426406 0.5994653 -0.042953346 -0.062171854 -1.0657612 0.4698016 0.087586015 -0.46143356 -0.8983011 -0.14993793 0.36050016 0.418007 -0.2803359 -0.24177052 0.066279314 -0.579224 0.018943138 -0.34809536 0.5912719 -0.20449737 0.49626237 -0.17622904
BCL2A1 0.31145036 0.045062564 0.23720519 -0.095439106 0.3943684 -0.04792755 -0.6991303 0.10381038 -0.36956128 0.3533639 -0.055393036 -0.2638756 0.4670962 0.097100414 -0.20709912 -0.24510062 0.7241439 0.124839835 0.08880723 0.2610006 -0.22582075 -0.037602518 0.6141445 0.49693313 -0.6935211 -0.23373944 -0.29841876 0.27220663 -0.017939748 0.059502352 -0.11541041 0.103584304 0.39392573 -0.6966392 0.6091739 0.042234 0.07725441 0.40176252 -0.49057996 0.090759695 -0.2681832 -0.63825995 -0.94667476 -0.10476761 0.41915077 -0.19573197 -0.7329653 0.39501625 -0.009912796 -0.22234009 0.36874202 0.67025965 -0.35648555 0.4230447 0.055901114 -0.5569241 0.18502837 0.2865453 0.085274555 -0.1710316 -0.4535846 -0.029678082 -0.40601638 0.6477979 -0.1545315 -0.039917562 -0.333779 -0.10726815 0.04890914 0.20453075 0.04649545 0.012336556 0.27064428 0.29808766 0.057934377 0.21862754 -0.24940018 0.6942216 -0.38798738 0.0140379 -0.73315364 0.22055152 -0.21533367 0.70325 0.2357177 0.15796876 0.18210682 -0.20870347 -0.38695738 0.66592556 0.047928832 0.57134694 -0.34662467 -0.17980099 0.2253945 -0.30833042 -0.28487712 0.10337467 -0.14546338 -0.08073534
BEX2 -0.04916497 -0.38265553 0.15982486 0.28442323 -0.13612163 0.20360456 -0.40895188 -0.14055221 0.1064364 -0.7489584 -0.1338423 0.20618261 0.050936714 0.13571987 -0.507561 -0.25897178 1.0903038 0.5009074 0.5858876 0.24602887 -0.11615576 0.41552547 -0.27768314 0.6598434 -0.34335533 -0.6657886 -0.32494956 -0.4668227 -0.59290504 0.321082 0.091238216 -0.5046246 -0.29145327 0.27458516 0.06829 0.297804 0.32120648 0.09255322 0.37095916 -0.019967379 0.021119524 -0.63030875 -0.004884433 0.32229564 0.30503833 0.048399545 0.11408377 0.3197278 -0.13058221 -0.0334693 -0.5779841 -0.66658527 -0.43986088 0.08950561 -0.32133844 -0.30603218 0.065154254 -0.3703808 0.02767046 -0.34656763 0.5945341 0.17636749 -0.26294896 -0.45397106 -0.41898218 -0.23406787 0.39718944 -0.32853842 -0.4510863 -0.517654 -0.07788542 -0.3668436 -0.13603166 -0.61042976 -0.45822853 0.26543182 0.04320013 0.69273496 -0.12444297 0.30499372 0.03236603 -0.29221132 -0.037464526 -0.104413696 0.3070127 0.03599271 -0.7460085 -0.61197317 -0.0039306437 0.41447982 -0.2860507 -0.12466078 -0.8251043 0.1193731 0.31958014 -0.010649293 0.357804 -0.22445017 0.8551242 -0.46598583
BHLHE40.AS1 -0.013181937 -0.09261654 -0.117986 0.4593159 0.15406345 0.052415766 0.09143136 0.030749178 0.027367227 0.014035054 0.013106335 0.035494722 -0.23714374 -0.07329513 -0.05338161 -0.028932735 0.29086706 0.06335365 0.15513706 0.08894251 0.02343386 -0.021713592 -0.11893724 0.011007361 0.11734724 -0.0876213 -0.13276818 -0.17302395 -0.272145 0.088861816 0.1692771 -0.005550175 -0.017679783 -0.09169109 -0.16648154 0.061760835 0.097356424 0.13539813 -0.19191638 0.0292139 -0.29699054 -0.18051648 -0.019812867 0.10820239 -0.011053298 -0.010529294 -0.21102424 0.074761935 -0.06913874 -0.15792777 -0.19959398 -0.2010032 -0.23741123 0.12120716 0.13365631 -0.11135063 -0.019268664 -0.03425959 0.047887083 -0.109880105 0.046785466 0.15790635 0.08495842 0.107762136 0.22565645 -0.033404414 -0.22688791 0.42045525 0.072260916 -0.06454007 0.17885606 0.24945498 0.14075728 -0.13526565 -0.019215582 -0.071277454 -0.09692375 0.06108936 0.032914195 -0.08612988 -0.20424344 0.039085425 0.08554611 -0.019441266 0.33108407 -0.036751717 -0.18032998 -0.087999895 -0.163275 0.0038979931 0.08337703 -0.0981609 -0.20989715 -0.18480447 0.19227609 -0.10596509 0.116594635 -0.21596132 -0.104153596 -0.2204083
BIRC3 0.12134655 0.2810231 0.00664364 0.45711255 0.09682211 -0.6753862 -0.15327291 0.8229052 -0.07691325 0.08336054 0.41598326 -0.28849134 0.06886974 0.082513474 0.2164493 0.16613847 0.49923593 -0.04075541 -0.26438046 -0.7971852 -0.29610068 0.16211517 -0.048554648 0.48681605 -0.25482386 -0.058500335 -0.32409003 0.6568898 0.12869166 -0.02517839 0.5723723 0.27173355 0.42721018 -0.48639193 0.37893784 -0.2594888 0.29083973 0.4689198 -0.18381445 0.26340383 0.016029244 -0.46626133 -0.057127956 -0.18048643 -0.12233323 0.17190075 -0.3045988 -0.017443616 -0.6001468 -0.3667895 0.09080634 -0.032111403 -0.28412873 0.12521265 -0.011273243 -0.21391319 -0.31724182 0.14957653 -0.17941812 0.13728759 -0.23895031 -0.22690675 -0.16121554 -0.033016674 0.13044986 -0.27250004 -0.49299353 -0.2214613 -0.5257125 -0.24083059 0.28049716 -0.010773091 -0.04942543 -0.21445288 0.20712806 0.016405903 -0.046075296 0.13946317 0.30498597 0.15818569 0.14320418 -0.3155913 -0.15726884 0.13201791 -0.043859057 0.01562803 0.45026213 0.17321405 0.00021792622 -0.083335124 -0.18492618 0.4699218 -0.20812148 -0.15258029 0.39646533 0.09955345 -0.0038739736 0.20286949 -0.19723308 -0.507324
BIRC5 -0.109593034 0.11710056 0.42063442 -0.666753 0.10132 0.06767015 0.85779124 0.032645114 -0.13031355 -0.3248403 0.35909635 -0.7134004 0.46885702 -0.0153653845 -0.34658882 0.23966067 -0.31332347 0.51038533 0.035357986 -0.9577235 0.33299187 0.1583034 0.6121 -0.84187675 0.24254012 0.06910035 -0.05645819 -0.10290365 -0.1778178 -0.39822644 -0.15214221 0.034612846 0.4850654 -0.02596122 -0.27374798 -0.14657791 -0.04473473 0.32975718 -0.36462778 -0.66466767 -0.0981492 -0.37435505 -0.52546054 -0.03454047 0.35844404 -0.25062656 -0.12885384 -0.26262435 0.22315349 0.6600717 -0.25099567 0.18220904 -0.1377272 -0.13189596 -0.004176374 -0.06896881 0.54394495 0.5805176 -0.5014525 0.5207197 -0.13058922 -0.1772983 0.018664 0.74357337 0.21142933 0.2474323 -0.5421722 0.50293994 -0.03738497 0.06061927 0.2613663 -0.64010847 0.604939 0.15419354 1.1863594 0.27918836 -0.28291556 0.7117504 0.42913014 0.21842924 0.05450564 0.39313385 -0.31131288 0.30004126 0.019985005 0.2614717 0.19144987 0.53184193 -0.40016505 -0.19586527 -0.63503295 -0.13707061 0.40128636 -0.27475157 -0.09785183 0.78154653 0.028124027 -0.74264586 0.09519004 0.6516141
BLK -0.14585587 -0.00079864217 -0.6041029 0.29382214 0.17100593 -0.015244506 0.27153248 0.08136512 -0.14151515 -0.024858553 0.09149227 0.17395926 0.46146062 -0.44157776 0.01920439 0.0097646 -0.4175972 -0.13720106 0.25803515 -1.0782715 -0.0068037705 -0.09228081 -0.032796178 -0.3276438 0.19050375 -0.406178 0.118174985 -0.5049931 -0.4811 -0.021398127 0.4962983 -0.3400166 0.6608115 0.40074706 0.02653713 -0.14594103 -0.30090517 0.7096621 -0.29188433 -0.08654131 0.23987955 0.15876894 0.4358429 0.53980047 0.05680967 -0.17568293 -0.10390988 -0.30930614 -0.20022696 0.21802062 -0.28667343 0.06623734 -0.09552441 -0.37287414 -0.2919199 0.6714288 0.39691773 0.24426812 -0.3556883 -0.5254206 -0.21688211 -0.30859047 0.14715171 -0.4350764 0.36538562 -0.22804052 0.4164933 0.4775181 -0.22855788 -0.06319508 0.70473254 0.13292441 0.89681315 -0.5941983 0.41750228 0.5786763 -0.047629766 -0.8126982 0.095032565 0.08972944 0.5057756 -0.24991201 -0.34802836 0.6114227 0.42383915 -0.05236941 -0.3354512 -0.016588427 0.1557922 0.36811858 -0.032162722 0.21603496 -0.0450118 -0.3631275 -0.021038668 0.21943551 0.5714713 -0.16791974 0.2337075 -0.4612284
C12ORF75 0.421435 -0.062002517 0.28296673 -0.45630625 0.059740163 0.12577322 0.7311244 0.20651773 -0.2743159 0.4040324 0.18203637 -0.011654032 0.58636796 0.7504199 -0.9650015 -0.5939839 0.32026774 -0.23945096 -0.04525261 -0.20033324 -1.0268222 -0.070527844 0.310689 -0.56945634 -0.11879007 0.50056994 0.3547262 0.060040686 0.37871537 0.16833615 -0.039377198 -0.5817938 0.48955062 -0.15351881 0.38516524 -0.25594598 -0.4015947 0.13884042 0.58180803 -0.26429483 -0.00055482227 -0.6544166 -0.27041173 -1.2354687 0.25722414 -0.33636218 -0.0054397746 0.094015345 -0.16816315 -0.101473846 0.1179718 -0.31613892 0.28868666 -0.27117574 0.51692295 0.5999291 0.009148371 -0.18259846 -0.27607083 -0.5283621 0.2203783 0.1194324 -0.008579925 0.05108851 0.08170337 -0.12241316 0.3459151 0.20384769 0.4239469 -0.038179006 -0.29432356 -0.7446491 -0.24956757 -0.42326814 0.18222612 -0.11886527 -0.3120302 0.780842 0.5459908 0.41236293 -0.34539273 0.43938985 -0.44825304 0.4841849 -0.8846113 -0.8509758 -0.678772 -0.35677877 -0.09000907 -0.5976637 0.5036199 0.77284205 -0.62528014 -0.3239208 -0.04986119 0.42759106 -0.60469496 -0.5930348 0.4132574 -0.02663126
C15ORF48 0.26317748 0.25464568 -0.22034542 0.47880307 -0.21332243 -0.53578347 0.034412123 -0.2562386 0.05592723 0.036448516 0.36934906 -0.09040447 -0.23659907 -0.6854407 -0.18501148 0.20695265 -0.018990468 0.24149473 -0.43082178 -0.52538586 0.2548072 0.8287169 -0.3580892 0.2074085 0.48600444 -0.53099614 -0.19960356 -0.0011437278 0.4465274 -0.22376072 -0.062169347 0.12088449 -0.5674731 -0.4426435 0.06438215 -0.256071 0.04487861 0.029469721 -0.2477064 0.37218422 -0.73390496 -0.22247723 -0.45056435 -0.48892507 0.19095443 -0.1592109 -0.19076052 -0.28321543 -0.49413955 -0.009619287 -0.096865445 0.95576876 -0.6987477 -0.1677587 0.09939348 -0.46688333 -0.18720444 0.7802928 0.1852279 0.69034064 -0.1719157 0.11434615 -0.6525144 0.06901699 0.019496342 -0.36283287 -0.19384442 0.41266617 -0.40229952 0.5384484 0.81501186 -0.21372703 0.8025051 0.08236983 0.10861327 -0.14701712 -0.36770162 0.01192087 -0.048469204 0.4082652 0.14208594 0.6592838 -0.08512866 0.58784944 0.25570494 -0.01824956 0.2347431 -0.18787472 0.048301615 -0.1498773 0.14499699 0.68180674 -0.29077512 0.36803642 0.41674957 0.3893436 0.22705893 -0.054545727 0.016885504 0.20388302
C16ORF54 -0.0071093184 0.090469144 -0.10986292 0.04792595 -0.074817345 0.52573425 0.35020754 0.14782143 0.091422915 0.6842927 -0.5288311 0.3021127 0.31057888 0.37455827 -0.101539925 -0.25646746 0.6203137 0.29295847 0.06883527 0.17463417 -0.3603844 0.028626015 0.03843534 0.22435735 0.32545167 -0.055474523 -0.20355466 -0.3650573 -0.36238617 -0.002064475 0.045434855 -0.8302235 0.34396145 0.35291836 -0.6535067 0.26867235 -0.18732336 0.2396761 -0.2352554 -0.10094767 -0.019496243 -0.31720537 -0.10018422 -0.07758013 0.108874716 -0.02501359 -0.7540602 0.25075617 -0.15355131 -0.4083796 -0.21800861 -0.056702502 -0.39266512 0.07596764 0.20180425 -0.10793667 0.12097843 -0.4058076 -0.2229288 -0.40865207 0.06950588 -0.067567 0.23081042 0.7365738 0.49588996 0.076602615 -0.46178466 0.22140387 0.26979947 0.14454423 -0.16894102 0.09358343 0.18752314 -0.17261496 0.32914644 -0.036326706 -0.4580501 0.26072833 0.1960574 -0.17195614 -0.011396995 -0.26578572 -0.62886465 -0.29533866 0.13569656 -0.4023199 -0.073265925 -0.101941325 -0.4373768 -0.11981115 -0.35408548 0.04182161 0.08603006 -1.0908743 0.5035464 -0.11484644 0.29118025 0.041556623 0.3998258 -0.101244114
C19ORF59 -0.07362708 -0.17333564 0.20268038 -0.24585514 -0.27503902 0.6985726 -0.40663213 -0.23118894 0.67317235 0.08939631 -0.17843287 -0.51471055 -0.39636952 1.2318995 0.2095585 -0.16509025 0.5003984 -0.5254076 0.18541645 -0.5111636 0.83274764 -0.9130113 0.16356143 -0.4885157 0.38615838 -0.07146374 0.18018956 -0.2703722 0.16052957 0.10369751 -0.34108502 -0.112229235 0.35950163 0.008225604 -0.35526454 0.32873344 0.7772482 -0.35461843 0.42895597 -0.011209927 -0.7674081 -0.00970649 0.52390385 0.14882375 0.0728386 -0.9383824 0.42785332 0.653347 0.66319084 -0.51016736 -0.64892185 -1.1027384 0.1509766 -0.21161817 0.2871132 1.0160795 -0.11024437 -0.60292745 0.5148123 0.84797734 -0.5812054 0.06632832 0.7199759 0.7245723 0.38071755 -0.2760009 0.512108 -0.6324355 0.03650486 0.50511855 -0.61454153 0.21413828 -0.7678288 -0.15140444 -0.008817981 0.0811028 0.025443075 0.10138541 -0.10579287 0.67585677 -0.4980962 -0.53599006 -0.0021497859 0.25091773 0.31553993 0.45077398 0.14370006 -0.04307614 -0.6332791 0.014817787 -0.9350746 0.36940497 0.66113496 0.6169945 0.3366899 0.5300392 0.56079376 -0.8891358 0.35829508 -0.21270727
C1ORF186 0.17851482 -0.15236275 -0.1748473 -0.7420362 -0.71111584 0.7187012 0.43105716 0.1925905 -0.011707064 0.2599916 -0.41645926 0.23252651 -0.26713568 0.20186323 -0.2643373 0.01849442 0.17609884 -0.004806828 -0.25811613 0.46947104 -0.03253238 -0.028025422 -0.30353752 -0.32951733 0.5900105 0.42699227 0.028712802 -0.08455072 0.4759904 -0.43534625 -0.22903736 0.07796859 -0.1921774 0.42227593 -0.39321125 0.048704125 -0.046861608 0.15741573 0.032362375 -0.17629325 -0.31358862 0.15208949 -0.12831666 0.21733388 -0.21275496 -0.030426381 0.33529368 -0.17259634 0.28127772 -0.041697063 0.09843558 -0.99764156 -0.27466756 0.2834624 -0.26251101 0.44780856 -0.038908694 -0.34480092 -0.5359038 -0.006614528 -0.34299406 -0.43817788 0.21078794 -0.09563712 -0.32494724 0.3722792 0.42596608 -0.17092511 0.37455216 0.34725556 -0.0426864 -0.06936441 0.08041227 -0.538562 0.73143554 -0.85356456 -0.017810406 0.057850815 0.22801575 0.6442949 0.056021463 0.7075191 -0.683383 0.026143441 -0.4494797 -0.9292786 -0.4728958 -0.041636895 0.16780868 -0.13208184 0.46360496 -0.046332017 0.34078088 -0.3806536 -0.45825246 0.016860515 0.28450176 0.025871031 -0.21225345 -0.08730191
C1ORF21 0.091678835 0.09914282 0.5100507 -0.2851701 -0.059741218 0.31208527 -0.47065455 -0.33049676 -0.008045843 0.041366156 -0.26623693 -0.05896018 -0.476951 0.47980288 0.05690784 -0.19316325 0.4886858 0.7035181 -0.11600972 -0.121853516 -0.25569725 -0.35983258 0.09828462 -0.343404 0.4137411 0.37981912 0.031139944 -0.27290386 -0.6203421 0.42103288 0.19143249 -0.2046444 0.074543685 -0.013480909 -0.25743255 -0.1518273 -0.27274516 -0.10960886 -0.09570445 -0.65934896 0.14611132 -0.703904 -0.34934428 -0.0897022 -0.21349841 -0.49085236 0.09183781 0.09599582 0.3994131 0.32334375 -0.18996255 -0.5951702 -0.45276988 0.4886869 0.22907478 0.21757855 -0.59145254 0.26772952 -0.4203634 -0.25785312 -0.0399573 -0.059812624 -0.14544964 0.48896486 0.062393624 -0.30564088 -0.21796022 -0.09748585 0.12762325 0.25798988 -0.6497371 -0.6938561 0.07951546 -0.2956359 -0.2036192 -0.1287538 -0.09663295 0.34720564 -0.08091227 0.23722684 -0.15278463 0.09223938 -0.47695583 -0.5418921 0.0034891965 0.29473668 -0.4020622 0.04205808 -0.70407826 0.3662034 -0.16887064 0.33036163 -0.525245 -0.37166232 0.40025368 0.21400632 0.09448554 -0.19834058 0.3175996 0.21918795
C1ORF54 0.28360572 -0.31619138 -0.12157693 0.33074382 0.46178633 0.31394875 -0.034942996 -0.19991906 -0.019905282 0.2858985 -0.12394716 -0.16061412 0.17108218 -0.13934508 0.08898712 0.16251193 0.2847488 -0.4125762 0.3235046 -0.18272495 -0.48305243 0.12248136 0.4229427 -0.58966017 0.06517999 -0.21042897 -0.10280412 -0.4397258 -0.18300949 0.20375894 0.34902442 -0.18156534 0.2052575 -0.37757167 -0.16619182 -0.14827901 -0.29022965 0.37666827 -0.44255915 0.14758827 -0.28380185 -0.35998338 0.094811834 -0.16316538 -0.19908439 -0.012653533 0.11876996 -0.6423516 -0.031384714 -0.20140895 0.037752822 -0.60439193 -0.35875273 0.17757773 -0.14098834 0.28052518 0.31571394 -0.0090481285 -0.4700758 0.16296782 0.2772133 -0.022275098 -0.21083312 0.20406573 0.05912071 0.10132468 -0.24541426 0.29324284 0.07307741 0.25469258 0.2733869 -0.059812974 0.20666881 -0.12462389 0.18301399 0.021290684 0.23724978 0.17311183 0.8495529 0.4217896 -0.20525882 0.42362553 0.038801726 0.60705745 -0.2858615 -0.32998753 0.27458748 0.47622353 -0.4244466 -0.25228414 0.3177396 0.10603656 0.117376834 -0.4511269 0.09577894 0.38671064 -0.06571614 -0.28665534 -0.06709435 0.08412138
C1ORF56 0.27520487 0.56301117 -0.15957895 0.3645822 0.31650934 0.62020785 0.16651073 -0.1907179 0.12728624 0.7695325 -0.07765752 0.37134716 0.33454826 0.5683685 0.29649425 -0.5465865 0.29256445 0.1937339 0.50784755 -0.3248428 -0.7064885 0.057851188 0.23672049 0.11122657 0.48068815 0.1260902 0.18025894 -0.8079827 -0.48743287 0.06293734 0.16119337 -0.89514184 0.0048225033 0.19371639 -0.71700126 0.41716737 -0.8610345 0.1880799 -0.34173906 0.31165025 -0.002740668 -0.42706245 0.24627732 -0.40921244 0.18640205 -0.16492236 -0.7936993 -0.06148185 -0.3781043 0.24604274 -0.15575728 0.23988965 -0.23519525 0.2640314 -0.040442865 0.074266315 -0.1473125 -0.2569927 -0.49805844 -0.52685183 0.4416978 -0.2784482 0.42636567 0.39249825 0.54156023 0.52622163 -0.064234406 0.5254062 0.28211188 0.04229486 0.069779105 0.15319535 0.48446247 -0.13860983 0.3767467 0.19632642 -0.21588594 0.33584848 0.42856026 -0.06506064 0.4091181 0.082903005 -0.63589627 0.008594328 -0.050513644 -0.15121192 -0.5046017 -0.28807852 -0.48553324 -0.24489968 -0.29895517 0.1457578 0.3748328 -0.6009553 0.7294358 0.114070214 0.031523645 -0.16168658 0.2169871 -0.07900548
C1QA 0.13756113 -0.11911501 3.651704e-05 -0.04174523 -0.23761633 -0.025667468 -0.12451032 -0.10071467 -0.036630027 0.039516397 0.016013134 0.012333516 0.10507595 -0.0151195275 0.010806595 -0.15014522 0.10456203 -0.010130158 0.14222543 0.049990878 -0.12935467 0.009669154 0.14117017 0.16225806 0.040925283 -0.021426717 0.08688462 0.23959461 0.014519161 -0.116397545 0.042107012 0.084844925 0.03532392 -0.10422948 0.21408622 -0.06918767 -0.06295971 0.12740327 -0.033302825 -0.05251935 -0.07502615 -0.09725982 -0.083137505 0.1269499 0.070193686 0.12280618 -0.05948788 -0.097444914 -0.024624147 -0.1287176 0.058566958 -0.06559153 -0.2969036 0.10082068 -0.23873325 -0.11187668 -0.10209248 0.117916636 0.01536532 -0.06626467 -0.11058397 -0.10897064 -0.012331751 -0.20677157 -0.029448565 0.2395953 -0.019686792 -0.28299218 0.033795677 0.06772146 0.10229571 0.09938906 -0.13060904 0.09528861 -0.16663377 -0.086316824 0.12472036 0.16796184 -0.19240227 -0.11450573 -0.23359887 0.002072958 -0.037634853 -0.068328306 0.08126129 -0.047619876 -0.074180566 -0.18986186 0.15011913 0.11299275 -0.03999645 0.058163866 0.058505554 -0.15263136 0.024462491 -0.0993195 0.23270997 0.053465553 0.008453829 -0.4071701
C1QB 0.13572372 0.061677355 -0.1521698 -0.13690227 -0.058703978 0.056071803 -0.021640172 -0.007294885 0.051812954 0.06951612 -0.013230734 0.07506907 -0.09345507 0.115556486 0.030372076 -0.060864963 -0.0132343285 -0.08097381 0.0047470527 -0.07653366 -0.030616203 0.039627597 0.0745308 -0.0065578683 0.12969881 0.10859097 0.036917992 -0.02159218 0.08291511 -0.08082578 0.06817559 0.14959797 0.046412084 0.012266582 -0.054978866 -0.010494734 -0.1028896 0.115919866 -0.056457054 0.11319463 -0.08328959 0.033316717 0.016159296 0.10668823 0.033335015 0.09812714 0.028069051 -0.07806462 -0.07233067 0.051687174 -0.052035704 -0.005419173 -0.14812474 0.047291324 -0.07119389 0.06941194 0.004565793 0.046108063 -0.18575564 0.0109423585 -0.2328864 -0.12093152 0.057388704 0.019479696 0.109089404 0.18040669 0.082274206 -0.03388035 0.13932195 0.106821455 0.13032311 0.046846386 0.07438691 0.009894652 0.07304229 0.046984132 0.22899996 -0.12536985 0.1084973 -0.012121779 -0.047439378 0.12332836 -0.17560619 -0.06836623 -0.050258804 -0.119335726 -0.05402342 0.02122885 -0.024289532 -0.07343066 -0.004719351 0.13302 0.10197257 -0.07322782 -0.050255556 -0.022123106 0.07493208 -0.06513736 0.027614886 -0.050080746
C1QC 0.09343139 0.01735437 -0.0476343 -0.04665351 -0.026773505 0.026822692 0.08937437 0.026885718 -0.023758743 0.06556855 -0.029664714 -0.1373035 -0.043272603 0.0623746 -0.01911758 0.00089542416 -0.12980703 -0.040692095 0.0507088 -0.082338296 -0.0773195 -0.13964064 0.105472565 -0.08017841 0.1110647 0.08451206 0.050918978 -0.00012212829 -0.012638924 -0.19075571 -0.0009934364 0.043766353 -0.15230955 -0.100145966 0.05951195 0.05357314 0.07695388 0.05007353 -0.005723833 0.07411747 -0.031289984 -0.10088416 -0.049557038 0.11475486 0.22358261 -0.12262652 -0.004893861 -0.10661939 -0.14215106 -0.03673026 -0.1409214 0.05064648 -0.09541234 0.00013318419 -0.12324154 0.14722893 -0.039211635 0.052918386 -0.015498531 0.028858947 -0.115208186 -0.02078988 0.11441436 0.0006179752 0.37248257 0.17183945 0.09910641 -0.048333377 0.07358708 0.19398437 0.21581322 0.04404383 0.035003368 0.005165811 -0.026026748 0.03730514 0.19864996 -0.050349273 0.00017168268 -0.007160896 -0.058817577 0.12335629 -0.02074494 0.1573785 -0.09307323 -0.07327062 -0.18385564 -0.08794901 0.010964684 -0.066572756 0.06675832 0.012887525 0.23845758 0.02960762 -0.08521514 -0.018811047 0.083749205 -0.12890635 -0.06921137 -0.105528936
C3 0.31590798 0.17663656 0.4398284 -0.09272869 -0.07472148 0.117815025 0.6748161 -0.3616949 0.26074263 -0.31181598 0.11350914 0.6620588 0.13944481 0.49227676 -0.6434996 0.35968652 -0.060520895 0.06978272 -0.027425142 0.22891533 -0.32431173 0.23126349 0.08197178 -0.13708398 -0.040624537 0.13504077 -0.06907135 -0.49638918 0.24565461 0.072529145 0.1500854 -0.62388486 -0.3392111 -0.28322262 -0.017141571 0.09103143 -0.12882444 0.23110881 -0.17368549 0.053446524 -0.34387803 0.29662088 -0.5140557 -0.362113 0.061513506 -0.21785213 0.1193286 -0.12284987 -0.06572403 0.34575444 -0.066265926 0.042609993 -0.6388189 -0.33193037 -0.30166525 0.40910506 -0.49284178 0.013535541 -0.47001496 0.26085135 -0.006358545 0.077861115 -0.29555967 -0.046024285 -0.24403988 0.09545672 0.3258166 -0.0057375724 -0.26791343 0.08742417 0.24547073 -0.020186242 0.2417533 0.107106015 0.4515536 -0.34773237 -0.13226059 0.7210727 0.37496218 -0.15891492 0.4213591 0.44960377 -0.3189346 0.093849495 -0.37122586 -0.46930745 -0.10861377 -0.17818046 0.22032362 -0.19635873 0.12038316 0.08718262 -0.03222161 -0.5452407 -0.27906272 0.72293246 0.034617983 -0.065956645 0.27759022 -0.2885085
C5AR1 0.37058997 0.06614266 0.67070776 0.31588188 -0.04637646 -0.051368643 0.1274491 -0.0151919825 -0.13387203 0.40957484 0.13786197 -0.46617994 -0.13642205 0.1121487 -0.039475236 0.26691514 0.13695624 0.007527803 -0.31596917 -0.16774762 -0.052867863 -0.43282238 0.80238146 -0.16257918 0.035911653 0.07012324 0.07333439 -0.01647741 -0.12234784 -0.21180256 0.5653593 -0.28424868 -0.046067365 -0.16399403 0.36688992 -0.20948724 0.05009063 -0.24185823 -0.2658971 0.5740885 -0.10497847 -0.34094748 -0.32335392 -0.03364248 0.03118242 -0.05043714 0.39203048 -0.36973637 -0.48127386 0.08287987 -0.25688496 0.018836487 -0.39267218 0.17972556 -0.33828148 0.30922705 0.2699295 -0.13271885 0.018679058 -0.0010834242 -0.57357377 -0.34818605 0.3912019 0.049665067 0.31702346 -0.122715175 0.34286794 -0.16299292 -0.3005553 -0.26499474 -0.16806589 -0.15173653 0.3961971 -0.11493039 0.062358517 -0.102312945 0.16087145 0.26740026 0.20410722 0.17099036 -0.08639837 -0.026061326 -0.533696 0.010581237 0.10298154 -0.15472087 -0.20678276 -0.18536305 -0.44331703 -0.28241006 -0.081124276 0.026793292 0.21054976 -0.4190128 -0.39245683 -0.21865977 -0.15408276 -0.02480535 -0.09300569 0.072299205
CA2 -0.07437555 0.1960611 -0.2998999 0.31765133 0.03781421 -0.28900674 -0.3571675 -0.27145556 -0.10988715 0.12891181 0.1603152 0.15286139 0.086283706 -0.2450171 -0.11838427 -0.46007508 -0.2586262 -0.12871245 0.1460973 -0.06448611 -0.16920069 -0.14940077 -0.40925762 -0.11264728 0.6096633 0.0022682648 0.3465908 0.12645276 0.04638156 -0.18271933 0.31498867 0.31234387 0.083596796 -0.24722402 0.3749743 -0.62192386 -0.4177994 -0.33109212 -0.040658016 -0.08240533 -0.26004538 -0.48832336 -0.22426526 -0.0909058 0.45656946 -0.01529615 -0.14383617 -0.4386232 0.10512019 0.33775514 -0.03239389 0.15410717 -0.6702401 0.17967431 0.26119426 -0.13902718 -0.060481858 -0.06736048 -0.39268017 -0.10811419 -0.5273187 0.79229224 0.026696907 -0.14300075 0.15597698 -0.29200423 0.11468709 -0.46982893 0.403012 0.21215397 0.38817534 0.1565548 0.079377726 0.0015553408 0.22321877 -0.41359338 -0.13712749 0.016301814 0.6287835 -0.51915765 0.047657143 -0.21162845 -0.076541275 -0.073152475 -0.13825035 -0.03814604 -0.2788037 -0.05123666 -0.1016849 -0.18731801 -0.2506205 0.39318445 0.17489406 -0.135455 0.093537964 0.116712764 -0.009002756 -0.071330436 -0.68473214 0.050798595
CADM1 0.110813126 0.008477486 0.47702459 -0.16664176 0.17588575 -0.23745854 0.0032997632 0.1660967 0.15881778 -0.36871666 0.08235269 0.29027158 -0.15754175 0.15341745 0.2187577 -0.3345423 0.5100537 -0.0061583146 0.157063 -0.3725414 -0.38664106 0.026051745 0.12385744 0.3080507 0.14421487 -0.14172113 0.14711906 0.039769538 0.074298345 0.32982355 0.17152412 -0.28032506 0.122847915 0.21512213 -0.39438963 0.12223817 0.017321859 0.06583874 0.07542619 -0.0638987 0.077636324 -0.030867465 -0.08563786 -0.12797092 0.091121055 -0.24367277 -0.22431804 -0.1984627 -0.14346132 0.0022724827 -0.23391777 -0.0096482895 -0.27880228 -0.07348685 -0.21848008 0.2791928 -0.30358338 0.2506553 -0.26784685 -0.03115998 -0.06717583 -0.043738294 -0.5309552 0.1528644 0.15500678 -0.13624357 -0.15422647 0.0017784025 0.13948135 -0.06879684 0.44500113 -0.33347917 0.045855436 0.051470328 0.108866274 -0.13143848 0.11531241 0.1516684 0.026589127 0.2929211 -0.0099760555 0.44611698 0.0012866815 -0.1752048 0.19969006 0.06175044 0.24712865 0.13373321 -0.35656425 0.004534219 -0.41478255 0.08578632 -0.13283746 -0.30004498 0.14089115 0.027725702 0.022017937 0.071622476 0.43596545 -0.3061939
CAMK4 -0.28521338 0.5671805 -0.17848699 -0.13787627 0.4928089 -0.12892099 1.0290998 0.7001512 0.6511346 0.38871977 0.06789251 0.5971316 0.7950472 0.097325444 -0.28333977 0.010124147 0.05688686 1.1855798 -1.1584563 -0.6085484 0.66953576 0.11913425 -0.036879987 -0.16485384 -0.25095758 0.16367215 -0.9592283 -0.022621343 0.5535342 -0.15895481 -0.067330405 -0.13085312 0.11324205 -0.46646002 -0.14725865 -0.028668618 0.25819838 0.112332165 -0.47540033 0.11562315 -0.0153725 -0.27183047 0.016672824 0.048420854 0.63453335 -1.0916351 0.1381905 0.419883 -0.5339706 -0.13686721 0.3609364 0.30330732 -0.67786616 -0.6987283 -0.28550056 0.34694338 0.6790959 -0.063287325 0.310679 0.08901699 0.4957704 -0.9050632 0.8871279 0.28848782 0.5897057 -0.11964949 -0.46308985 0.7802267 -0.6694366 -0.48711473 0.71207076 -0.54181457 0.56651497 0.14497183 0.79608864 -0.31038553 -0.65966827 0.17374103 0.1935609 -0.3887689 -0.22775832 -0.23094489 -0.026213495 -0.6490406 -0.32478803 0.0148562435 0.1610747 -0.9734706 -0.06809039 0.5683743 -0.062085047 -0.60506856 -0.12195271 0.33127624 0.106170215 -0.5413715 -0.38465792 -0.4602765 -0.051472817 -0.2104211
CAPG 0.28606567 -0.16896002 -0.0628671 -0.334433 -0.11725391 0.15026993 0.09697214 0.38101953 -0.13264476 0.32895935 0.11302597 0.013929591 0.15725029 0.27483985 -0.02201814 -0.27864012 0.068946674 0.09076999 0.17090163 -0.15280223 -0.48564744 -0.011420826 0.1944685 0.04605305 0.2115375 0.26674446 -0.09110764 0.20991834 0.14723058 -0.44923297 0.18244936 0.32273784 0.105185784 0.17753248 -0.16934825 -0.008600814 -0.013817975 0.36709496 -0.3096267 0.2464866 0.02238697 0.042978518 -0.2909654 0.30964136 -0.004522657 0.079542935 0.17835136 -0.047920454 -0.25574526 -0.20149101 -0.5504148 0.2596379 -0.27135074 0.14142595 -0.4151826 0.18698226 -0.020173654 -0.02835454 -0.60399765 -0.25299776 -0.61920404 -0.38071045 0.07129397 -0.007633035 0.52965623 0.30915755 0.23448165 -0.5520319 0.34244114 0.24122374 0.2777842 -0.107570976 0.20610084 0.34677827 0.51311344 0.15823948 0.52914 0.040462255 0.12570602 -0.035039246 -0.04361145 0.5314743 -0.2955762 -0.013984996 -0.09897859 -0.5011993 -0.05083344 -0.09324419 0.03972035 -0.20653518 -0.26350403 0.5914891 0.12825558 -0.28932965 -0.46872163 0.21494229 0.1989427 -0.21677421 0.18709679 -0.4457422
CAV1 -0.07793325 -0.486464 0.17334689 -0.32998657 -0.15363523 0.58838993 0.18031077 -0.3499353 0.021249969 -0.23087119 -0.22754224 0.096361645 0.1470773 -0.08130451 -0.21147579 -0.34506685 0.16416205 0.33660495 0.077040814 0.40887368 0.12220875 0.16655548 -0.1893185 -0.26130682 -0.17192653 -0.07949108 -0.04674561 0.4189734 -0.39088434 0.2816356 -0.22439374 -0.091270894 -0.06520409 0.09237612 -0.020069044 0.22025114 -0.23149633 0.5869087 0.11347871 -0.08254717 -0.14858691 -0.3734951 -0.5291681 0.26779577 0.017564738 -0.14524224 -0.16884321 0.2828068 0.27329648 0.5073868 -0.23861468 -0.67352796 0.23045611 0.36752725 -0.30036944 -0.19137563 -0.39730996 0.42976302 -0.33456907 0.029274087 -0.23732091 0.23700422 -0.20614775 0.17776632 -0.023876611 0.23476125 0.122777216 -0.55399626 -0.21246594 0.22909069 -0.15137124 -0.2587586 -0.3080587 0.3014902 0.21133056 -0.45274433 -0.5926375 0.086829714 -0.07079453 0.35010505 -0.16140464 0.23786612 -0.15105465 0.14550789 0.20737994 0.08284266 -0.45616636 0.0017544022 0.28076765 0.26111603 -0.0286501 0.18382473 -0.14876136 -0.23685257 -0.10815815 0.16574346 0.76491195 -0.37872657 0.043061998 -0.4687187
CCL13 0.33676067 0.044378277 -0.100496456 0.14291681 -0.24526288 0.01763673 0.121669956 -0.047771584 0.23611185 -0.22919124 0.22616307 0.2703643 0.040031113 -0.23525487 -0.08543723 0.040103067 0.04099739 0.21881646 0.26070935 0.10951003 0.1777637 -0.029396612 0.08785103 0.059357308 -0.01734713 0.010284572 0.09929163 0.15145314 0.083929226 0.0638869 -0.032586075 0.040920883 0.25980806 -0.022272216 0.114208944 -0.056247734 0.32263905 -0.042294443 -0.10762929 -0.2920092 0.1003851 -0.023469586 0.014825863 -0.12887907 -0.1716452 0.054952297 -0.20282204 -0.0076891063 0.05649659 -0.21767531 0.2497899 0.021714851 -0.5549308 0.0008800471 -0.21481787 0.03613461 -0.025843542 0.15975758 0.25487772 0.12888129 -0.29531452 0.19728526 0.18095522 -0.31695727 -0.22465943 -0.28314936 -0.0052825636 0.036473524 -0.046185035 -0.05256373 -0.013541071 -0.101578034 0.2558281 -0.32383353 0.17410216 -0.09426284 -0.08161356 -0.010283446 0.00972529 -0.35631713 -0.24228625 -0.18067814 -0.05046743 0.009897124 -0.32593653 0.027520832 -0.13355358 0.24021845 0.2224836 -0.13063006 -0.17947865 0.10294387 0.10967487 -0.2639681 -0.051416982 -0.017734332 0.04345144 0.21786876 -0.048756897 -0.3619833
CCL17 0.28642648 0.15672585 -0.27894643 -0.14047986 -0.040110175 0.118075915 -0.07294468 -0.17651695 -0.028738506 0.10715394 -0.08227286 0.16990273 0.051801223 -0.03590842 0.03311164 -0.14085563 -0.10323389 -0.05464604 -0.10282761 0.04856405 0.02876946 0.034161203 -0.1276461 -0.08207006 0.14620441 0.05821595 0.08686122 0.079864725 0.11210186 -0.0060805734 -0.06550513 0.06511193 0.03997411 -0.07060444 0.069933444 -0.13802622 -0.12766396 -0.10607541 -0.04302026 -0.06608137 -0.13986619 0.0013952028 -0.015535219 0.07526377 0.018508632 -0.037461154 0.035129495 -0.17472194 0.022648456 0.14692852 0.05574366 0.037952352 -0.051182028 -0.05638765 0.004375374 -0.037773896 -0.07224633 0.017133547 -0.09421288 -0.08300681 -0.026007574 0.022496713 0.091944955 0.052706476 -0.07833006 0.047812346 -0.0064780694 -0.12275093 0.09072284 0.13711734 0.08510067 0.10210287 0.012378002 -0.024202771 0.12076665 -0.08769039 -0.0015878084 0.0619224 0.28683385 -0.0068711652 -0.041168403 0.097944245 0.006994316 -0.03985287 -0.00029273808 -0.003623792 -0.08369567 -0.0033685635 0.12011277 0.103513725 0.16878527 0.08968602 0.049815092 -0.041563302 0.045039885 0.039183877 0.07841413 -0.23803133 -0.12723164 -0.08190504
CCL18 -0.060797706 0.063291855 0.059417997 -0.06759982 0.06412537 -0.03570986 -0.094483785 -0.096899465 -0.07911079 -0.007517075 0.12408976 0.14509046 0.15088345 0.046172976 -0.20170619 0.09992058 -0.012823396 -0.05311043 -0.19434199 0.10414747 0.08609724 0.14061396 -0.0068251216 0.06509301 -0.12711921 -0.34318852 0.023511006 0.16817579 0.2358714 0.1251502 0.040605787 -0.24918765 0.13271627 0.016195508 0.005134063 0.11355173 0.01891748 0.032329924 -0.36833695 0.03195262 -0.093084425 -0.034485426 -0.13765928 -0.19241829 -0.04924239 -0.04993422 -0.18656607 0.13826732 -0.09220982 -0.006863643 0.3712381 0.112434745 -0.07209147 0.01720913 -0.09729493 -0.12884359 -0.02319972 0.10783118 0.2645891 0.21277092 0.005962695 -0.07159673 -0.20678753 0.18928632 -0.30470228 -0.16297317 -0.20171845 -0.115560755 -0.084345624 -0.17230076 -0.21265502 0.036414716 0.10564663 0.06792228 0.16261142 -0.14357114 -0.103383034 0.10656826 -0.04243913 0.07983383 -0.116859645 0.10124785 -0.21053363 -0.20387559 -0.061896224 0.15977955 -0.13806729 0.16170518 -0.008038754 0.16318825 -0.06700621 -0.19824307 0.015769048 -0.15715823 -0.08333195 -0.15814486 -0.15077993 0.1412355 0.04983581 0.00075917575
CCL19 0.38481092 -0.03728813 -0.3076975 -0.25707895 0.100104995 0.29393056 -0.09143865 -0.1266552 -0.29416582 0.30918348 0.28645283 0.42575037 0.08206879 -0.010480391 0.2822163 0.2560052 0.11711989 0.14238371 0.23388153 -0.038710978 -0.026174963 0.2317086 -0.20654845 0.24189425 -0.21151409 0.202189 -0.027086614 0.2876489 0.31738144 0.20577338 0.044996295 -0.36460447 0.13971893 -0.1407211 0.036050454 -0.107527584 -0.07128458 -0.2697295 -0.10970545 0.1115208 -0.23908725 -0.3695544 -0.04310374 -0.092117846 -0.17840052 0.33927348 -0.3236833 0.41410717 -0.09172338 0.34237066 0.08450814 -0.07752955 0.024527919 -0.1759065 -0.011416091 -0.2925753 -0.11039475 0.4662804 0.54541856 -0.36149305 -0.1320067 -0.17423105 -0.21431676 0.07260389 -0.6688003 -0.092531644 -0.05618758 -0.43330207 0.0126623865 -0.16846193 -0.34806925 0.11357863 0.16180395 -0.030800406 0.32345283 -0.3095037 0.336184 0.38842267 -0.123031035 0.054804433 -0.019583343 0.22243601 -0.22429775 -0.08058296 -0.0562562 0.118881576 -0.3155517 0.09426402 0.30432636 -0.15710552 0.046533614 -0.16883376 -0.13017388 -0.30163702 0.006209127 -0.3446165 0.40360746 -0.108137816 -0.02848628 0.07559397
CCL2 0.73435444 0.4630994 -0.59556794 -0.20897262 -0.2603754 0.052951932 -0.28952616 0.1478989 0.28829592 0.0045662876 0.4349335 0.62005836 -0.0927875 0.13175236 -0.1497053 0.19224383 -0.17306727 -0.27455872 0.041166037 0.11897488 0.45438123 0.31236526 -0.048470996 -0.051983338 0.39769262 -0.12089845 0.42650834 0.08834096 0.64150995 -0.27102676 0.20408238 -0.063311666 -0.7486225 0.09246485 -0.39574233 -0.006872254 -0.09567123 -0.35062322 0.1111166 0.17470154 -0.70379996 0.47463432 -0.2033408 0.36430275 0.34830353 0.5073543 -0.5742758 0.34739107 -0.4987393 0.38763395 0.33431166 -0.2538869 -0.70735174 -0.35771632 -0.02055366 0.3171607 -0.3790043 0.00845062 -0.09921382 -0.022397093 -0.33781278 0.23615064 -0.2896871 -0.605539 -0.36424085 0.4116308 0.12021071 -0.48476925 -0.22835715 0.16946419 0.09604224 0.1706766 0.055522162 -0.36980167 0.4159039 -0.37030587 0.3431327 -0.15444578 0.08373803 0.03675853 -0.07360714 0.3036902 0.41879368 -0.13293819 0.27319828 -0.035000768 0.20477267 0.14036848 0.2543656 -0.032509893 0.18175282 0.4437605 -0.3293119 -0.33463514 0.40295324 -0.02009662 0.09514032 -0.5469061 0.04367377 0.24417564
