1000 100
A2M 0.03245773 0.29305294 -0.48599547 0.12903729 -0.02366462 0.2764815 0.033740677 0.087550834 0.10199828 0.061378326 0.17042024 0.002869505 -0.0146737555 -0.15849158 0.0029345364 -0.18752016 -0.053316377 0.15836751 0.16892768 0.663022 0.19590215 -0.32975137 0.19506513 -0.3934072 -0.3528903 -0.37956876 0.33676046 0.10792196 -0.010370092 0.008057896 0.051482998 0.68403137 -0.12707163 -0.19343272 0.05679162 0.15250286 0.1344156 0.081844874 0.07024837 -0.45548403 -0.2247382 -0.06529035 0.08303791 -0.33699968 -0.10110263 -0.48144987 -0.25504816 0.1072428 0.17663327 -0.31008402 -0.15879312 -0.1284216 -0.130266 0.08092327 -0.70274717 0.15309213 -0.20924161 0.21935444 0.13701327 -0.17540246 0.20249096 -0.34728366 -0.038354408 -0.005222057 -0.15050818 -0.59096766 0.33679986 -0.10411431 -0.18890885 -0.15965723 0.21693978 0.008456169 0.09729882 0.25891313 -0.002318301 0.28546005 -0.26979524 -0.12039641 0.32781908 0.14767244 0.03465178 -0.3128552 -0.4855028 -0.029171815 -0.27145207 0.25687093 0.13919567 0.18104728 0.16042653 -0.11045251 -0.07191642 0.44144392 0.08903569 -0.3089903 0.1556935 -0.12970883 0.69307786 -0.45761144 0.3731721 0.39269742
ABCA1 0.092193045 0.34111586 0.049243785 -0.22494039 -0.2544409 0.06841493 0.101743236 -0.30260724 0.00023608946 0.35778782 0.113132924 -0.21333028 0.18185854 -0.108074546 0.10477874 -0.11004156 0.22810793 0.12925878 -0.07909863 0.2225347 0.4274721 -0.042282622 0.28374076 0.14299513 -0.57326597 -0.31544507 0.054931946 -0.20372391 0.46105596 0.065837584 0.22409043 0.56211245 0.07611285 -0.109124325 -0.36518985 -0.2823541 0.097134896 -0.22835785 0.24164565 -0.21067037 -0.25055274 0.19787379 0.15050349 -0.07234703 -0.21157615 -0.66891795 -0.15245764 -0.17505349 0.07555102 -0.124643266 -0.22745728 -0.115723774 0.030506352 0.110125795 -0.48074535 -0.10013872 -0.19386946 -0.08051933 0.081845045 -0.031467993 0.19086146 0.18440051 0.093478866 -0.23431723 0.26793882 -0.33983487 0.34920797 -0.17477971 -0.01571495 0.00247767 -0.34178722 0.100928344 0.1469556 -0.37726212 0.3463758 0.28960434 -0.18536176 -0.3540873 0.05761998 -0.19433771 -0.31154945 0.035567112 -0.109862834 0.08071166 0.0021700184 -0.032643013 -0.31920165 0.38432628 0.13186333 0.13585997 -0.19574675 0.12574632 -0.034288622 -0.17017618 0.59509164 0.09892844 0.18744771 -0.31743625 0.19348139 -0.24187241
AC002331.1 0.7880515 -0.4334137 -0.783146 -1.0794829 -0.95931655 -0.70769966 0.075603984 0.69045067 -0.93960124 0.42496124 0.5880638 -0.15137592 0.29619914 0.55664057 -0.31980184 0.0073069856 0.34181014 -0.21422966 -0.17834865 0.07007065 -0.2919103 0.32060432 -0.96181816 -0.7311734 -0.15726544 0.38512307 -0.012036609 1.2628629 -0.14143416 -0.41986576 0.58121324 0.8135887 0.031102564 0.098684914 0.5080617 -0.521654 0.3056649 0.6281103 -0.54037154 0.6611471 -0.33102834 -1.3793911 -0.11926062 0.04899705 -0.54697573 -1.0891345 -0.66438454 0.5282347 -1.1057454 0.32278648 -0.22973242 0.24379331 0.348284 0.28119123 1.2433245 0.5502592 -0.8941867 -0.6107886 -0.78330797 0.2336261 0.14587262 0.12075078 0.41265026 -0.9612306 -0.25137383 -0.062932916 -0.38816074 1.0678334 -0.36520037 0.1287576 0.18474086 0.78432786 -0.23845248 0.4633842 0.31189924 0.68964034 0.15616634 0.6076687 0.121102005 0.36331716 -0.04572109 -0.177168 -0.14632876 -0.44060546 -0.4092159 0.10582118 0.32675934 -0.07270519 -0.32546443 -0.34855506 -0.6875409 -0.46494234 -0.06129271 0.305132 0.27680752 0.15582678 -0.16619383 0.58336264 1.3782469 -0.6828506
AC006129.2 0.06981648 0.019433595 -0.049174245 0.11460881 0.14554453 -0.23726729 -0.34303665 -0.24550727 0.24569958 0.27976575 -0.07343709 -0.1389119 -0.13592646 -0.17605568 -0.4421823 -0.1415323 -0.10818377 -0.033727914 -0.08384961 -0.17762218 -0.33169627 0.044329755 0.046618707 0.011742425 0.044345666 -0.19832607 0.060558505 0.026763983 0.418011 -0.07248572 -0.15584944 -0.027601294 0.06970106 0.12227391 -0.21361288 -0.10339842 -0.14594509 -0.52661544 -0.09701788 -0.04257909 -0.056028534 -0.31537923 0.115917906 0.3201919 -0.056669798 -0.18869044 0.17737685 0.21998128 -0.095566176 0.017682549 -0.16700397 -0.067482695 0.2670795 0.0065990845 -0.29425058 -0.12191838 -0.1341281 -0.29809144 0.044276606 0.13981391 0.05910363 -0.013852926 -0.4148764 0.24160758 -0.14117542 -0.10294497 0.16605262 0.24087794 -0.0028484692 -0.07279802 0.14868768 -0.4025316 -0.05712742 -0.15660617 0.33557123 0.24791571 -0.009812638 0.10954369 -0.38109902 -0.4143597 -0.017687056 -0.0034681694 -0.38513988 0.0730298 0.022424834 0.11078788 0.13960156 0.17335047 0.419979 -0.1921418 0.28717184 -0.068297535 0.05024241 -0.15842898 0.21018462 -0.047748514 0.30039355 -0.20699696 -0.117100686 -0.21232717
AC017002.1 0.3446248 -0.33316398 0.50429463 -0.555082 0.018401638 0.3491558 -0.30704412 0.27537584 0.2725166 0.4809283 0.49957278 -0.1552407 0.4653122 0.104052015 -0.17435087 -0.42320797 0.91363204 0.06966246 0.63820523 -0.5975387 0.1869414 0.16389011 -0.4613855 -0.5801137 -0.25437817 -0.3468596 -0.060685564 0.53883255 -0.32444015 -0.1451801 -0.049461316 -0.6997033 0.070251815 -0.3656589 -0.36540946 0.31661704 -0.1946987 -0.23468772 -0.36285657 0.5518052 0.40765312 0.27115917 -0.7180499 0.40859646 0.28657132 -0.4081867 -0.22718987 -0.055214178 -0.23112443 -0.66481036 -0.9700962 -0.05375312 -0.5593325 0.29094082 0.69507897 -0.23786396 -0.29201815 -0.07941485 -0.11009341 -0.37780458 -0.50035393 -0.9941325 -0.063889 -0.42724547 -0.5858501 -0.09884913 -0.6023705 0.7931839 0.025928747 0.05875039 0.46091783 -0.14402126 -0.44418386 0.17183489 -0.0313693 -1.1573727 -0.25431675 -0.77541125 -0.019879056 -0.67010033 -0.18655524 0.13021691 -0.11173457 -0.52705723 0.23801015 0.5702231 -0.7570002 0.41381663 -0.2000811 -0.7611192 0.44783482 0.20250931 0.14672056 0.5916668 -0.30116236 0.4422363 -0.42312774 -0.6779949 -0.07862612 -0.19003114
AC069363.1 0.12610345 -0.1211008 -0.20983453 0.18672004 -0.21675652 -0.0643649 -0.21722336 0.037500057 0.15989411 0.26516515 0.040212896 -0.01634334 -0.06553059 0.21488842 -0.17516845 -0.113617316 -0.10254304 0.3083206 -0.00043784827 -0.028005067 -0.16655745 -0.32693204 -0.07973428 -0.06655212 -0.15408185 0.01675168 0.19842713 -0.03208833 0.012638254 0.16614045 -0.25353628 0.0860011 -0.034820125 0.07900885 0.094683774 0.052357797 -0.021479143 0.23739025 0.14774406 -0.13750233 -0.28908426 0.07799571 0.17895502 0.014129617 -0.028421538 -0.20734139 -0.05678498 0.036578305 0.07743655 -0.25354877 -0.04850555 -0.011189058 0.05165393 0.03757229 -0.10122713 -0.10006535 0.00071272044 0.042499576 0.253995 0.008751502 -0.018063527 -0.17121866 -0.12157125 0.014451316 -0.08049209 0.041348066 0.20025009 -0.05812154 -0.2107531 -0.12587616 0.4301854 -0.04790096 0.0017691234 0.015081818 -0.04098607 0.050810244 -0.15441531 0.12606286 0.254185 -0.14414263 0.18787691 0.23295476 -0.005978624 -0.13813594 0.16648878 0.38008806 -0.050035216 0.27693793 -0.0854995 -0.28701177 0.03884827 0.011614635 -0.0036142343 -0.1957937 -0.09605288 -0.06335456 0.09432908 0.05406359 -0.09789973 0.20678857
AC079767.4 -0.2214311 0.26169842 -0.46058977 -0.8946458 -0.507592 0.47026223 0.37392062 0.19379665 -0.9924233 -0.14104013 1.4232341 -0.8145767 0.18356529 -0.02591195 -0.84532255 0.11697811 0.91302955 -0.9175481 0.13882509 -1.9628049 0.7592759 0.004824775 -0.629793 0.4227897 -0.9835319 0.31197846 -1.069519 0.0013138307 1.6360818 -0.7716168 1.250237 0.79106945 0.60064054 0.58500564 0.71330357 0.16104293 0.09917922 -0.49004388 0.19582316 -0.4515974 -0.4756757 -0.8549255 -0.7769335 -0.30719692 0.5042015 -0.469495 -1.898387 -0.4436736 0.14119004 -1.296906 0.15349433 -0.46851134 0.34676373 0.55490917 -0.45858163 -0.9852887 0.0761404 -0.38894004 -0.18820985 0.04957645 -1.0673463 -0.17209846 -0.7269902 0.43217662 -0.30639988 1.7382619 -0.53265804 -0.7502705 -0.41144168 0.26149228 0.5540682 0.25632837 0.4795589 -0.24368818 -0.3157092 1.2770334 0.04370715 0.47171172 -0.4471701 -0.057969935 -0.56719214 0.69157404 -1.1839014 -0.3702851 -0.7504796 -0.85851866 -0.2670948 -0.4563203 0.18042311 -0.022726802 0.2953766 1.0302564 -0.23365876 -0.7615068 0.13493492 0.75211364 0.2826282 -1.1375504 -0.06335507 0.53785944
AC092580.4 1.3533169 -1.3625187 -0.41927645 -0.07746518 0.77284527 -0.16115363 1.9857075 1.3664445 -0.7646761 0.71100456 1.5726863 0.12636039 0.43112215 1.0244181 -1.0011201 -1.9064729 1.7996079 1.3965467 -0.72772485 -0.68303 -0.43463418 0.2704358 -1.0469092 -0.8959435 -0.4615964 -0.6157851 -1.32472 2.0305443 2.1225004 -0.5808286 0.62224966 -1.0917056 1.220654 0.57649887 -0.93468434 -0.1326801 -0.435072 1.9591817 0.09746189 -0.57966864 0.39180544 -0.72020626 0.37562934 0.45690563 0.02463143 -0.670077 0.18916583 2.2166023 -1.8385296 0.043188192 -1.2678988 0.5228528 -0.9398681 -0.014059215 0.7430092 0.1322115 0.38615152 -0.7359255 -0.90591526 -0.5370729 0.48197594 0.205134 -0.048907254 0.96176463 1.7712933 -0.17565621 -0.35313857 -0.31979468 -0.029586134 -0.6782316 1.656911 0.9029851 -0.89497435 -0.27310237 0.7619926 -0.9940376 -0.98272675 0.7365079 0.79310656 -0.92026156 -1.3325444 0.27885422 0.5073343 -1.257627 -0.75279593 0.75746316 0.81039 -1.8410062 -0.45485982 -1.5746905 -0.29356426 0.7662843 -0.7278349 0.045816414 1.1600691 -0.10574907 -0.5104091 -0.29037786 -0.30242887 -1.0245998
AC133644.2 0.18777606 -1.0587916 0.035877883 0.68565685 0.13570447 -0.62953204 -0.017504513 1.8012408 -0.4469035 -0.38132945 0.48749012 -0.42528835 -0.06025626 0.6852324 0.14750138 -1.4724816 0.65847886 -0.37010798 -1.1023403 -1.2009658 -0.41400528 0.6283028 -0.87352 -0.25851795 -0.054596502 -0.78301835 -0.3004299 2.0871828 2.0258296 -1.7544863 -0.09739514 -0.16376881 0.21119288 -1.3883206 -0.6832314 0.100520186 0.6340995 0.9822133 -0.42234588 -0.2211278 0.07764512 -0.8856477 1.2408738 0.019639112 -0.26807573 0.07983356 0.51435417 0.84656197 -0.55540067 0.87147695 0.52413875 0.438837 0.2571298 0.48875648 -1.2599776 0.837974 -0.31246564 0.7701151 -1.2229493 -0.38493973 0.34947446 -0.42785397 1.0832056 0.057913184 0.49263036 -0.04133194 -0.76116693 0.16529733 -0.53643656 0.73607755 -0.08907762 -0.7519128 -0.32783705 -0.056141187 1.3278683 -0.5017447 0.715845 1.1302725 1.2244928 -0.75383115 -0.8479117 -0.41130385 -0.4467568 0.06327396 0.1761646 0.51894987 0.055746365 -0.4028229 -0.45402643 -0.24892408 0.26650706 0.121275336 -1.1054882 0.13505916 1.4070787 0.13300668 -0.22879203 0.10821374 0.37600368 -1.0627402
AC145110.1 0.5931522 0.053673018 -0.63622034 -0.5244299 -0.4809069 -0.745546 -0.5708641 0.5294615 -0.47538123 0.42666095 0.1526991 -0.1175445 0.14155264 0.745047 -0.55926114 -0.17278728 0.2222601 -0.6971511 0.3062145 -0.08077813 0.47707006 0.31380084 -0.8457986 -0.1152887 -0.25218436 0.41519323 -0.06770773 0.82910556 -0.59729815 -0.37041482 -0.12941498 0.25170353 -0.31417158 -0.21777318 0.56950563 0.016932769 0.084691286 0.69999546 -0.34458923 0.39957696 -0.071841486 -0.69104916 0.16382213 -0.16574278 -0.62101203 -0.8526647 -0.3805531 0.18026014 -0.72766304 -0.22462097 -0.48837426 -0.46893275 -0.241387 0.1628145 0.6149949 0.2548101 -0.652423 0.014738632 -0.705978 -0.16845943 -0.056744993 -0.10065838 -0.033933543 -0.23112972 -0.2988944 0.39719015 -0.37583438 0.6311637 -0.72499394 0.07587164 0.24522214 0.35329002 0.18650298 0.74452996 0.111176714 0.6193079 0.1628071 -0.11374989 -0.378036 0.032142628 -0.24458277 -0.26726416 -0.49401388 -0.22745411 -0.30219337 0.13140644 0.22730576 0.13262042 -0.24813472 -0.3470768 -0.06441822 -0.25842586 0.19841419 -0.024291685 -0.05222558 -0.1377125 -0.10478028 0.003717179 0.36607203 -0.4468174
ACP5 0.028654482 0.08573397 0.24540953 0.22459431 -0.13741706 0.09710372 -0.034078576 -0.16409795 0.04637185 -0.093697935 0.056820676 -0.20730177 -0.34311295 0.41162416 -0.062371954 -0.27403852 -0.1215789 0.0511474 0.3967309 -0.32477367 0.4237808 0.24881141 -0.054249242 -0.0017857495 0.13233116 -0.102636375 -0.4891672 0.20951444 -0.08553446 0.35542524 -0.5898072 -0.18189715 0.39262187 -0.6710353 -0.010133437 -0.01977901 0.19911864 -0.38331896 -0.27750665 -0.23584992 -0.24166776 0.15202394 0.0009926164 -0.5543567 0.34964615 -0.02566753 -0.2518915 0.35282123 -0.4224605 -0.24579555 -0.31044817 -0.24158478 -0.09736011 -0.09263712 -0.49029085 0.025342926 0.3884588 -0.3187525 -0.06897392 -0.028631167 -0.4925347 -0.287403 0.13440579 -0.01205953 -0.31724143 -0.19622698 0.10395906 -0.0928673 0.054790713 0.53146404 -0.45099178 0.075495005 -0.010254632 -0.033004314 0.13313545 -0.15467623 0.024849907 -0.29389492 0.50892186 0.0062462543 0.41493654 -0.021008668 0.5321967 0.047673684 0.4613856 0.0834316 -0.3237667 -0.05252105 0.0007581713 0.15238284 0.35901746 0.23999164 0.43189427 0.043187525 0.26873177 0.08696248 -0.07283771 0.06363916 0.5045476 -0.24501128
ACSL1 -0.07084229 0.09364811 -0.4930033 -0.16934994 -0.036792684 -0.27959558 -0.12422421 -0.07932347 0.060959138 0.38452923 -0.27068254 -0.13764766 0.6038087 0.032288145 0.19524339 -0.09845195 0.29790878 0.07837396 0.1521924 0.24961495 0.14270788 -0.13776708 -0.2233201 -0.05045856 -0.28798443 -0.30747506 0.079451494 -0.33967036 0.44121957 0.19110456 0.17960818 0.03499358 0.23479961 -0.24991032 -0.34943238 -0.19856691 -0.010651656 -0.58861744 0.31849438 -0.30175725 -0.16142452 -0.03890094 0.114831686 -0.18391158 -0.34435764 -0.38757163 0.2749954 0.4289095 -0.15906402 -0.09200829 -0.21960396 0.12839511 -0.39308247 0.50702417 -0.579524 0.16963167 -0.30817294 -0.21081957 0.12232524 0.85101867 -0.19929615 0.31544295 0.19587648 0.35261098 0.12552035 0.0066899033 0.64371586 0.3169485 0.12106921 -0.29759523 -0.11130163 -0.44235122 -0.06315079 -0.0909967 0.23765218 0.20250131 0.19982694 -0.07849186 0.07668428 0.22385415 -0.2829887 -0.40577626 0.14867648 0.3431427 0.5246076 0.3604592 -0.22583434 0.13651589 0.4480581 0.19971281 -0.11795715 0.15557426 0.12774825 -0.35912782 -0.08271494 0.4353948 0.26526484 -0.11532525 0.19021998 -0.35107842
ACTB 0.06741065 0.009504828 -0.059039623 0.12478068 -0.13051195 -0.07991616 -0.1738817 0.092682004 -0.036606077 -0.055436622 0.03347013 -0.11855745 -0.01135516 0.15859598 -0.0057062632 0.0700915 -0.082133494 0.103621796 0.16600725 0.033089828 0.17199552 0.11935976 -0.048046954 -0.00084475824 -0.017712211 0.0114769945 0.11033439 0.014448531 -0.1048618 -0.073261194 -0.026273133 -0.06564246 0.10820736 -0.13256325 0.007002481 0.044828515 -0.09178299 -0.057165504 0.112390906 0.06648571 -0.038719166 0.041077442 0.1589744 -0.05266527 -0.05450388 -0.08887918 0.023866916 0.034932386 -0.037098274 -0.088356175 0.12261867 -0.17562559 0.04251907 0.035140537 -0.07965502 0.14356777 0.0399725 -0.0359456 0.108432315 -0.07154643 -0.039440293 -0.058066525 -0.05983887 0.09538273 0.045853566 -0.15682787 0.16322933 0.11094363 0.017890934 0.11313205 0.13367501 0.09372581 -0.06796124 0.055182878 0.0459698 -0.086716585 -0.13489068 0.08910806 0.015925154 -0.106585145 -0.07562454 0.18298651 -0.12887084 -0.06655712 0.018907866 0.09434664 0.11256276 -0.010883129 0.043719415 0.018857015 -0.17662445 0.056135014 0.0030737517 -0.01907967 -0.026510267 0.04744114 0.027627964 -0.0695982 0.029383482 0.091454685
ACTG2 0.056499906 -0.030284582 -0.13522547 0.1179221 -0.031217119 -0.0196771 0.14580683 -0.08757288 0.103024155 0.13292949 0.08714292 0.059146445 0.041997276 0.059611212 -0.17673028 -0.13766557 0.08286486 -0.19947562 -0.15780322 -0.2442735 -0.09516971 0.11267318 -0.046875384 0.011005053 -0.055906225 -0.10601027 0.005955657 0.2553013 -0.03894785 -0.09607666 -0.14032623 0.15753111 -0.33003387 -0.07149433 0.0270494 -0.031638224 0.0586313 0.009687347 -0.1561369 -0.0098402 -0.06733481 -0.1930043 -0.17631005 0.12149655 -0.03832436 -0.020009525 -0.10245241 -0.0041497583 -0.03907294 -0.08729224 -0.053275194 -0.095630735 0.09947207 -0.07062267 -0.019768858 0.012729323 -0.12516882 -0.0056932755 -0.15985797 0.2934312 0.025699768 -0.17994647 -0.023610262 -0.016479656 -0.08688103 0.012741235 -0.2835775 0.09373761 0.24327771 -0.067481816 -0.029045915 -0.11125356 0.14049934 0.1435323 0.111015014 0.1479512 0.4015946 -0.13222249 -0.11551247 -0.13745221 -0.08446463 -0.29163355 -0.2521214 0.1229371 -0.06269999 0.04924251 -0.100017466 -0.20836581 -0.14435223 -0.20729464 0.14114705 0.1489022 0.02767898 -0.1739401 0.13749771 0.27142382 -0.20002846 -0.1446827 0.10715538 -0.23817037
ADAM19 0.648175 -0.03057299 -0.15000042 0.45179716 -0.14870808 0.061510067 -0.022568192 0.31032988 0.13085614 0.71497583 0.4715672 -0.50931275 -0.030338146 0.20439926 -0.40282956 0.23004827 0.20788099 0.20045711 0.29567483 0.012788784 -0.49770674 -0.37861565 -0.16025364 -0.29438993 -0.028506437 -0.23340079 0.038722903 0.036284696 0.4552195 0.45265734 -0.9592241 0.5087503 0.2633334 0.385689 -0.089803 0.27324826 0.16321735 -0.93994915 0.025223402 0.09742202 -0.29277197 -0.40000692 0.43408778 0.6314513 0.21793142 0.10515995 -0.37304273 -0.41020814 -0.25944945 0.4706726 0.30295187 -0.03744078 0.12841573 0.44383466 -0.28723416 0.3576135 0.01935254 -0.29822254 0.2143197 0.82979536 -0.3768574 0.33091998 0.06443119 0.07128597 -0.09735699 -0.15595342 -0.14139792 0.05690987 -0.08083543 0.021318661 -0.007069738 -0.3085554 0.10078211 -0.0577728 0.23417287 0.2118678 -0.19554046 0.0015012851 0.08390075 -0.54201484 0.45717612 0.45502463 0.29968944 -0.42707518 0.38952556 0.011226725 0.24714385 -0.16021027 0.28876588 0.36814544 0.28898725 0.042811524 -0.109235026 -0.38824663 0.01635669 0.077423766 0.2267466 0.045889463 0.69381213 -0.2674204
ADAMDEC1 -0.25893185 0.010289871 -0.22002146 -0.3046879 0.07053892 -0.08892295 0.30210704 -0.17741777 -0.15322067 -0.036802135 0.40157714 -0.16407526 -0.31588274 0.09316683 0.053417683 0.013166073 -0.11856745 0.027528515 0.15968968 0.02736207 0.11831456 -0.13670576 0.38579574 0.17621897 0.1846117 -0.119170874 0.283217 0.3724617 0.15290788 -0.32635447 -0.0573188 0.092594475 0.039045263 -0.10083342 -0.26522973 -0.035695378 0.09583858 -0.017524092 0.2250192 -0.31715146 -0.45697358 -0.53714985 -0.16958593 0.1257518 -0.25150365 0.16439743 0.039254654 -0.27557397 0.005425797 0.30585927 -0.30847627 -0.09061914 -0.056430213 -0.3605714 -0.22966725 0.09855795 0.077713676 -0.019218996 0.1009803 0.13900882 0.014266514 0.12142441 0.17902142 0.16777879 -0.059223484 0.08111473 0.075948164 0.03896127 0.18208267 0.042740725 -0.32485732 -0.30193418 0.05202768 -0.087928124 0.45251969 -0.18910478 -0.13309595 0.11105625 0.53423554 -0.16590647 -0.08218074 -0.19185957 0.3150668 0.23667485 -0.13594829 -0.18445882 -0.17559 0.039163742 -0.1705909 0.7988618 -0.3410419 -0.07060717 -0.21664934 -0.15168718 0.49469686 0.4713319 -0.23325017 0.27407706 0.52522725 0.034457523
ADM -0.117198355 0.18722965 0.09866304 -0.2780473 -0.035645876 0.4072416 -0.12956053 -0.28637838 0.58956635 0.18242048 -0.0736034 0.40143532 0.32347307 0.2538709 -0.22342135 -0.3704724 -0.3731101 0.33188632 0.0760142 0.054064754 -0.16694455 -0.021865131 0.27262855 0.174078 0.17989804 -0.36498272 -0.11587844 -0.089849405 -0.11362365 -0.14369337 0.40279287 -0.13802738 0.14292154 -0.12438832 -0.19054824 -0.24849668 0.6385941 0.2661219 -0.07153908 -0.22038469 -0.06178789 -0.58839154 -0.07730405 -0.22597133 -0.27276215 0.0073710396 0.0057153925 -0.3725047 -0.16534008 -0.033705473 -0.8060945 -0.069016375 -0.26782423 -0.24939495 0.10037914 0.0044731875 -0.47840357 0.005702253 0.20980106 0.30641133 -0.3290383 0.40703917 0.21230805 -0.2785545 -0.43769577 0.03792667 0.10350694 -0.21506548 0.35409012 -0.2882301 0.08414338 -0.08594587 -0.2539312 -0.63152516 0.6523428 0.50129443 -0.06652394 -0.031543177 -0.20589937 0.01843887 -0.47922528 -0.2647147 -0.20908377 -0.08194607 0.19063589 0.18543665 0.1356684 0.3846218 -0.0789172 0.07356878 0.41926703 0.42679244 0.42383516 0.68158233 -0.02819848 -0.043190826 0.07060123 -0.56528836 0.039553672 0.15014616
ADRB2 0.25463748 0.04289113 -0.2016285 0.005440391 -0.010408156 -0.20172743 -0.2350269 0.010772122 0.38424474 0.018232485 0.31188047 -0.09611052 0.076960064 0.009161487 0.0013167378 0.035409674 0.1962482 -0.042927824 -0.16390458 0.033966396 -0.047188867 -0.113997035 -0.020748323 -0.037543643 0.044234272 -0.18782319 0.109088786 0.19831367 -0.090748325 0.20668639 -0.46241605 -0.070795454 0.20195723 0.11322634 0.11792426 0.1673355 -0.0063755857 0.049963526 -0.11958309 0.0557833 -0.3484933 0.029279385 0.15280828 0.0663261 0.17919327 0.00558113 0.024036707 0.16090068 0.21585071 0.06352277 -0.39740163 -0.01882415 0.011907567 -0.0058889827 -0.08137915 -0.06392595 -0.0763506 -0.17517711 -0.14210132 -0.06079026 0.12418378 -0.21259351 -0.21895033 -0.112717226 0.120614804 -0.18351424 0.15612093 0.025432762 -0.2023149 -0.117825635 -0.28881392 -0.16855764 0.4311778 0.03334392 -0.046004776 -0.115455665 -0.10954812 -0.040734768 -0.120782465 -0.19742842 -0.24187969 -0.01428199 0.02302302 -0.036694456 -0.2635833 0.062439177 -0.06235124 0.23186134 -0.0134567125 -0.20967439 0.24613403 -0.0022366305 0.3835545 0.018121645 0.26312438 0.2013951 0.22592056 -0.10538149 -0.14449205 -0.025127232
ADTRP 0.113931894 -0.4182398 -0.026674094 -0.34251428 -0.32247752 0.21717867 -0.73920673 0.52726656 0.36878088 0.26110268 0.49866435 -0.20050476 -0.22109476 -0.12145077 -0.4039712 0.11314659 0.32281289 0.041810524 -0.8114903 -0.529775 -0.6256682 0.0927502 0.030825753 0.6163757 -0.13458411 -0.8961128 -0.019157566 0.3517277 0.03766373 -0.44944233 0.085692234 0.0042190524 -0.79114866 -0.35095453 -0.028224632 -0.39872625 -0.826093 -0.29791555 -0.019104337 -0.19904208 -0.020585904 0.5001439 -0.58861184 -0.11004408 -0.09267741 -0.20599072 0.45963368 0.6995329 0.6452445 -0.42642504 -0.12587117 -0.08760866 0.34190923 -0.21543466 -0.8461681 0.42481545 0.056985904 -0.23973718 -0.8005237 -0.017338611 -0.27782738 0.23240653 0.55938977 -0.35306865 -0.07830134 -0.65877503 -0.020415306 0.5771817 0.76673305 0.62295 0.1385123 0.012221917 0.34338424 -0.45332497 0.86759645 -0.07028486 -0.9387873 0.4524768 -0.22406577 0.24612284 -0.33083224 0.655418 0.04385521 -0.2981765 -0.15918954 0.06907828 -0.7088425 0.16410981 -0.082067125 -0.1964661 0.07776615 -0.42671788 -0.16070314 -0.13024321 0.009203225 -0.1362847 0.025975512 -0.5299086 -0.45182443 -0.40712816
AGRP 0.064481735 0.20020264 -0.021332648 -0.22388193 0.079268776 -0.1656922 -0.15896027 -0.1922232 0.08070968 0.1097108 -0.00075690926 -0.04518042 0.0022894 -0.15164639 -0.015698083 0.16829552 -0.08684021 -0.10603031 0.062024854 -0.022099577 -0.019491082 0.19282876 -0.00828533 0.09010232 -0.15787742 -0.08671461 0.15054323 0.013899524 0.07157131 -0.034063645 0.30971605 -0.18886617 -0.06785518 -0.11734594 -0.09224775 -0.024248362 0.0123983575 -0.15055491 0.07989673 0.05808084 -0.07143308 0.0060791685 -0.105074815 0.27945113 -0.053329863 -0.065160826 0.06843796 0.1164042 -0.08706661 -0.15265757 -0.024731679 -0.10462811 0.004550731 0.05407857 -0.16631684 -0.007818349 0.015209761 0.04286615 -0.18359798 0.10283671 0.034190048 -0.10042884 -0.17801142 0.04061513 0.16000758 -0.15479116 0.15130793 0.11563493 0.13775378 0.15256913 0.038743604 -0.08627313 0.021207355 0.11329301 0.014622945 -0.0052551706 -0.08735605 0.028362993 -0.1667205 -0.15967101 -0.2485309 -0.022467596 -0.21932198 0.03341097 -0.15746899 -0.07059007 -0.054038566 -0.05882882 0.07906762 -0.12876981 -0.17855433 0.01575829 -0.060593516 -0.07375292 0.044428963 0.08298528 -0.073476434 -0.1829505 -0.14344 -0.061661623
AIF1 -0.16844243 0.21361743 0.07954794 0.41615403 -0.32435828 0.42728102 0.01702274 0.010539312 0.42202947 0.114622034 0.70037 0.18361318 0.07185409 0.7375555 0.070794374 -0.3344736 -0.049452186 0.51399744 0.20073399 0.40302536 0.0672008 0.454668 0.01060973 0.10230994 -0.008318056 -0.10252021 0.0032426768 0.17478453 -0.030464979 -0.43199733 -0.17571995 -0.25527063 0.2495731 -0.14592938 0.2868542 0.26692858 -0.17934647 -0.07536924 0.19305252 -0.021108426 0.12618715 0.029645644 0.23528057 -0.6314103 -0.2242582 -0.48768443 -0.058770515 -0.075047046 0.19170067 -0.39969006 -0.34879345 -0.39958194 -0.099475466 0.05959358 0.03806381 0.50642943 0.2736495 -0.13629526 0.4037897 0.32103956 -0.48031145 0.03569124 0.33660567 0.21001478 -0.28850898 -0.5627304 0.34476784 -0.20745872 -0.36446115 -0.12666057 0.75063354 0.3886288 -0.22550514 -0.15043755 0.29169312 0.2832028 0.1297577 -0.13589358 0.015606992 -0.063255765 -0.31592506 0.3195936 0.1197387 -0.015550552 0.4366888 0.37793472 0.15237856 0.22202244 -0.1257019 0.29005197 0.077903576 0.29662076 0.21779574 0.019835297 -0.0077350973 0.04319242 0.5458689 -0.1787415 0.029965533 0.4457818
AKAP12 0.17335163 -0.058660593 -0.11878929 0.055777356 -0.12731913 -0.14899416 -0.039137546 0.21197243 -0.053436413 -0.028615933 -0.0034760586 -0.106211476 0.2323621 -0.11435296 0.08212628 0.0027693468 0.24492091 -0.0542676 0.02347862 0.15007421 0.12693551 -0.08468882 -0.25453863 -0.0599709 0.064319216 0.08837028 0.064585365 0.08406806 -0.15761347 0.019797185 0.10920918 0.043763112 -0.08369264 -0.022635773 0.05213957 -0.14094646 0.067129835 0.0033531385 -0.08813494 -0.03937402 -0.0761913 -0.02067076 -0.0093492055 0.0346202 -0.06465299 0.051726356 0.13459663 0.13881415 0.09762068 0.23866168 0.20595226 0.11274395 -0.05702217 -0.027884861 0.054067373 0.16225338 -0.10953122 0.01623773 -0.026804926 -0.08082861 0.12998681 -0.13404015 -0.26487765 0.03562573 0.004516812 -0.15524024 0.016800955 0.16925132 -0.20802747 -0.031082274 -0.012540004 -0.065539055 -0.047879994 0.009763794 0.02941518 -0.022703977 -0.10344133 -0.007534345 -0.0582467 -0.08425399 -0.2277431 0.20007265 -0.24730852 0.08579034 -0.111943446 0.05506022 -0.19948931 0.08854268 0.01887979 -0.0828326 -0.121467285 0.03200038 0.037856497 -0.1615364 0.11368572 0.059778787 0.013579424 -0.40932357 0.012609937 0.2581969
AKAP5 0.18540838 -0.18726595 0.0050940183 0.008420114 -0.061949775 -0.09672018 -0.07923273 0.09466206 -0.04319195 0.10046926 0.39332289 -0.14332806 0.14728174 0.0038998458 -0.058481902 -0.14156686 -0.10477139 0.13734807 -0.19087137 0.37662974 -0.0693213 -0.025404057 -0.33315513 0.18046221 0.045043547 -0.24715614 0.21954253 -0.072551586 0.17957391 -0.022275578 -0.2955403 -0.15592998 -0.1166844 0.30838954 0.05743171 -0.29030833 -0.16283664 -0.033866145 0.10777873 0.12350293 -0.20515625 -0.063052975 0.05043201 0.31621557 -0.12093135 -0.21080081 -0.08284434 -0.28713143 0.14525874 -0.010999449 -0.04719416 0.0005925647 -0.09529567 -0.043227687 0.010062026 -0.15512997 -0.1670178 -0.07982149 -0.048781503 0.15311345 -0.24707612 -0.12697336 -0.0855724 0.31539282 0.09768153 0.019033305 0.048472896 0.20762004 -0.38210982 -0.6539228 0.21909148 -0.0957606 -0.060578633 0.05139595 0.24206609 0.09398896 0.15727454 0.0991052 0.018490441 -0.34322116 -0.22717738 0.10686686 -0.16775124 0.036499582 0.058737 -0.06908923 -0.16842192 0.14372826 -0.104540244 -0.01637218 0.2679011 0.0063689104 0.17541385 0.08433304 0.40986472 0.21240088 0.23495218 -0.55533046 0.068191536 0.062278613
AKR1C3 0.30062598 -0.08875366 -0.0047531556 0.17413908 -0.51536775 0.22221318 0.32621238 0.3566804 -0.26758918 0.15385367 0.09587403 -0.12046311 -0.021931423 0.044087216 0.21829283 0.20033908 0.023828765 0.05441892 0.18369229 -0.06366478 0.05489888 0.08503615 0.046013974 0.14504214 -0.09994753 -0.18813412 -0.03520552 -0.062179882 0.0999745 0.15110561 -0.08143105 0.22872798 0.10285802 0.025896436 -0.041475944 -0.14412045 -0.07116993 -0.110493354 -0.27277783 0.06431989 -0.09885665 0.11936898 0.16593017 -0.088471696 0.31963632 -0.1127418 -0.0046394 -0.02278165 -0.115910664 0.17293453 0.057816364 0.028208025 -0.0054568537 0.36224547 0.28552884 0.22125849 -0.15853566 -0.070548534 -0.060565762 0.21267423 -0.010480433 0.09288383 0.01920756 0.03167058 -0.37109908 -0.18636023 -0.044896185 -0.012507532 -0.18797249 0.04221404 0.37207976 -0.1923328 -0.2238927 -0.13344347 0.097575165 -0.037026756 -0.16841914 -0.07039402 -0.06445173 -0.25544167 -0.05075478 0.17706633 0.11234341 -0.24411064 0.2786367 -0.05809973 -0.44490024 -0.003848442 -0.009852057 0.26159373 0.17691077 0.16557238 0.13061357 -0.08433833 -0.12156085 -0.04562726 -0.020998733 -0.4283925 0.28192043 0.27785164
AL512428.1 0.24504326 0.0028798021 -0.30421963 0.011461914 0.055462692 -0.1839365 -0.17350708 0.22321175 -0.110831544 0.21413536 -0.007740212 0.030457234 -0.18457888 0.22246553 -0.22724277 -0.15866587 -0.00536695 -0.06660282 0.25377455 -0.065472156 0.016403556 0.106580466 -0.20123623 -0.026512206 -0.093944706 0.082534395 0.100017875 0.20813386 -0.40493625 -0.18054265 -0.01206125 -0.07617066 -0.038194906 0.049376786 0.14928423 0.09819576 -0.096996464 0.12328697 -0.01344023 -0.008284877 0.06946866 -0.1456494 0.017385349 -0.18254457 -0.22849442 -0.22363664 -0.049651813 0.13403277 -0.17282926 -0.20947531 -0.3454477 -0.007629269 -0.046369307 0.13240078 0.40175268 0.08015902 0.011066455 -0.122850806 -0.06543512 0.19500604 -0.33824676 -0.31042922 -0.15009163 0.020409476 -0.17633803 0.21420762 -0.25066495 0.09519484 -0.22187307 -0.02393637 0.26366982 -0.032187216 -0.15059829 0.1550808 0.25338045 0.09108884 -0.13435687 0.067284696 -0.09790924 0.020323407 -0.028829876 -0.119709834 -0.099810936 -0.17101131 -0.13359381 0.035194926 0.140336 -0.038318217 0.01827285 0.06818193 0.11238342 -0.0026936568 -0.012478582 -0.0979226 -0.20566906 -0.081814535 0.08826817 0.13540098 0.0033453 0.07917125
AL928768.3 -0.18269944 0.19504195 -0.10330403 0.102477066 0.019026974 0.00062610884 -0.035754513 0.2241537 -0.13109525 -0.20481971 -0.14856057 -0.11334977 0.42449006 0.10121948 0.02779266 -0.10150338 0.23985791 0.2148531 -0.043666765 -0.3509545 0.16524632 0.15902053 -0.22166952 -0.35689506 0.23219736 -0.14053996 -0.040957272 0.016386565 -0.08843515 0.31805354 0.060968656 0.01584608 -0.0697826 -0.0488358 0.021477045 0.14977673 0.00920332 -0.070194475 -0.17745766 -0.059125006 -0.400283 0.056832444 -0.009993445 -0.0205973 0.26969564 0.29829788 -0.04485311 -0.061728925 -0.26643807 -0.09516296 0.042746894 0.0027127354 -0.041249935 -0.0486965 -0.1774121 0.13579689 0.12705916 0.1385104 -0.019648654 -0.08855583 0.23954833 -0.046939857 0.069456495 -0.13874136 -0.09273902 -0.2516944 0.104750365 -0.17954351 0.15377396 0.16799131 -0.12095437 -0.025296327 -0.035677597 -0.08259401 -0.15339632 -0.19053286 0.00104198 0.012657557 -0.09375751 0.008402145 0.015246866 0.22488838 -0.22334093 0.079479486 0.14485136 -0.17806332 -0.19452336 -0.09779443 -0.19170351 0.04836522 0.008736792 0.24775621 -0.18217745 -0.08932077 -0.12853767 -0.015590332 0.013111864 -0.23407142 -0.09601215 0.0010613612
ALDH1A1 -0.043450765 -0.19244057 -0.28625047 0.12410431 -0.28478912 0.11563886 0.29606366 0.17876634 -0.21219152 0.30398065 0.04243114 -0.320744 -0.19115792 0.0128521295 0.13201708 -0.24406198 0.120673284 -0.03508927 0.15866281 0.14915513 0.3779075 0.12342954 -0.106590495 0.01874194 -0.3519426 -0.20261644 0.41086927 -0.24172515 0.13448837 0.013065082 0.20095825 -0.019611333 -0.17835563 0.100927375 -0.008980592 -0.052439284 0.22547904 -0.1738171 0.06339186 -0.20768927 0.09389982 -0.030620683 -0.054059856 -0.24019389 0.01399923 -0.08515731 0.018754737 -0.23336196 0.07422667 0.051375534 -0.07277855 0.044212196 -0.1185675 0.30282232 -0.13570836 0.30612066 -0.060388647 0.24914163 0.06778639 0.08903005 0.24705344 -0.17387423 0.12611605 0.2478378 -0.22008765 0.017847572 -0.01382069 -0.03698006 -0.26900873 0.057444677 0.17423134 -0.39420155 -0.13373633 0.17427999 0.108762 -0.03262523 0.091372006 0.061334416 0.34500653 -0.35443172 0.03465115 -0.17902574 -0.09972732 0.006759166 0.19816664 0.32077608 -0.19347405 0.20238523 -0.09896876 0.3938894 0.13127473 0.37071466 -0.2086473 -0.28805286 -0.10879432 -0.024669414 0.14575206 -0.12318893 0.2581065 0.1250755
ALOX5AP 0.3130876 0.0094190305 0.041036397 0.57272303 -0.1693878 -0.13664733 -0.16763541 -0.40808076 0.4321257 -0.18855748 -0.25570503 -0.47076014 0.19798411 0.25464684 -0.035185166 -0.35534292 -0.14685829 0.44384623 0.06828699 -0.24102089 0.19363913 0.41018996 -0.3102607 -0.24077737 0.11351817 -0.06562973 -0.30551508 -0.30676144 0.08426872 -0.26695195 -0.40058425 0.33163553 0.48232144 -0.1563862 0.19911073 -0.20839761 -0.23863542 -0.37282038 -0.09423096 0.21777633 -0.1122364 -0.11854042 -0.023365684 -0.024996687 -0.13819295 -0.08112137 -0.43997198 0.19112699 0.0014644279 -0.33311796 -0.12741798 -0.33040825 0.040004186 -0.11862628 -0.7165709 0.34231895 -0.23733683 -0.26951578 0.51713306 -0.2093305 -0.10528061 -0.117506556 -0.39145073 0.40542635 -0.014920085 -0.819763 0.3027415 -0.100202225 0.33328292 0.20660809 -0.07006996 0.026957128 -0.09295877 -0.3582407 0.33655655 -0.09300944 0.06270133 0.1455065 0.033760764 -0.18601377 -0.12928075 0.087325856 -0.23915803 -0.08206831 0.2639674 0.21524975 0.12931053 -0.11548511 0.2963091 -0.20182903 0.05314764 0.2839161 0.5263971 0.27740544 -0.02710009 0.014711647 -0.11776785 -0.2166431 0.4944434 0.13840684
ANGPTL4 -0.13659748 -0.2602675 0.24125403 -0.043034904 0.20518738 0.15365602 0.030693224 0.11259084 0.032636628 0.5121727 -0.024983963 0.30422506 -0.0589098 0.06540618 -0.19640845 -0.1490944 -0.02899046 0.124919444 0.17637502 -0.07654655 0.12729467 0.23996553 -0.30273142 0.085638575 0.03874277 -0.12022814 0.10014681 0.31281167 -0.032446906 0.25070325 0.284974 -0.13777007 -0.026332825 -0.26575094 -0.13940097 0.18973066 0.14519234 -0.3059056 0.17283686 -0.031669203 -0.03780768 -0.00011441845 -0.13107856 -0.08770089 0.061692204 -0.16063648 0.19174853 -0.11510918 -0.12315374 -0.26449767 0.029820494 0.27847427 -0.3516659 -0.16048501 -0.12319493 0.24624139 0.23108648 -0.014777588 -0.0169734 0.42263198 -0.16940287 0.042223223 -0.09425551 0.27839643 -0.11911566 0.0009892907 0.05750818 -0.3760704 0.10783528 -0.04651234 0.23787923 -0.080286905 -0.2020929 -0.21893765 0.07779087 0.046719946 0.2873835 0.11543767 0.14251916 -0.25492582 0.04764628 0.14017113 -0.028193627 0.11211745 0.3215709 -0.028087506 -0.24827346 0.33752418 -0.13672242 0.19296294 0.20285313 0.1337828 0.17420141 -0.10573368 0.188005 0.16660194 -0.07960707 0.0015787164 -0.15623164 -0.062371697
ANKRD28 0.88264835 0.07592251 0.17097758 0.27081832 0.27408642 -0.3603721 -0.5310761 -0.5156949 1.0752552 0.2868177 0.069391005 -0.05940929 0.15850638 -0.46787754 -0.38857016 -0.50447845 0.22227651 0.069978856 -0.2694026 -0.66284007 -0.25298387 0.5091077 -0.16362561 0.25426292 -0.079889335 0.31885916 0.17756987 0.28124613 0.31211242 0.058777515 -0.8131679 -0.10677628 0.40310758 -0.21052136 -0.058610808 0.5635709 0.32084906 -0.2774512 -0.11417446 0.1151294 -0.24178661 -0.23552364 0.29548696 0.10041835 -0.34713805 0.15788321 -0.3463583 -0.30699584 -0.054041952 0.12630104 -0.68621624 -0.33306217 -0.34834513 0.26601315 -0.30757862 0.36246544 0.033894636 0.048217714 0.6040614 -0.17417789 -0.26209915 0.32040495 -0.5178165 -0.11563501 0.41236877 -0.31422776 0.095735684 0.059133686 0.39220986 0.043813817 -0.5671918 0.2714913 0.38352084 -0.37842685 0.68883485 0.21709736 -0.3821793 0.28516334 -0.4847613 -0.31927922 0.0584675 0.06261939 0.1993365 -0.3989993 -0.32951623 -0.0018181963 0.03904652 0.20573601 -0.15133756 0.14421237 0.5853914 -0.022859124 0.29788253 0.24483521 -0.6684565 0.16628139 0.36175218 -0.059633058 -0.0018512621 0.37873012
ANKRD37 0.26930624 0.0323852 -0.057794306 0.0465681 0.2614285 -0.29617065 -0.41997257 -0.13494097 0.4543925 -0.020167101 0.08124067 -0.30051103 0.30893636 -0.0076375897 0.059169978 -0.13067175 0.0805196 0.19353017 -0.25667474 -0.14201878 -0.5383859 -0.019877018 -0.072073944 -0.075067066 0.012700241 -0.29027823 0.034833837 0.026131086 -0.16007128 0.023888856 -0.351176 -0.06847846 0.18694703 0.041626208 0.17127042 0.2145925 0.42719105 -0.2700348 -0.21636614 -0.10152839 -0.51427805 0.025899742 0.11182343 0.16705208 0.003494368 0.35336545 -0.56129515 -0.10377352 -0.15919018 0.2422113 -0.4686272 -0.29235047 -0.2707959 0.024072671 -0.2173102 0.21557313 0.018825151 -0.08636446 0.20580114 0.084971294 0.09459535 -0.19303596 0.120323665 -0.23345496 -0.15722053 -0.3637615 0.3846072 0.085245565 0.20087963 0.017398518 -0.26748082 0.024541263 0.12320202 -0.037777066 0.23057298 0.20305026 -0.4626466 -0.14122377 -0.08786076 -0.27382156 -0.24827464 0.25518206 -0.1507185 -0.43684337 -0.43088293 -0.03459869 0.15980725 0.066425964 0.10599207 -0.03850457 0.25166833 0.1816879 0.12764256 0.19190414 -0.072133936 0.3404359 0.24926758 -0.4054499 -0.08998915 -0.099158294
ANXA1 0.2254467 0.17310593 -0.45551345 0.12741922 -0.18345428 -0.08480304 -0.080704026 -0.4979866 0.36418062 -0.10642541 0.16347665 -0.3868231 0.3787117 0.13886869 0.23715377 0.024685873 -0.05853019 0.14650702 -0.01191374 0.07754953 -0.21022643 0.12248127 -0.40776694 0.034771673 -0.03190147 0.20558333 0.11245694 -0.23578957 0.15474054 -0.21645863 -0.07298005 -0.3508492 0.93766016 -0.24550991 0.06168481 -0.0750182 -0.10199419 -0.48300844 0.034131207 0.51011634 -0.3957785 -0.19430248 0.06281209 0.4559875 -0.326847 -0.07256944 -0.48075458 0.4928752 -0.14520876 0.16877936 -0.10984649 -0.46939465 -0.23829518 0.15661828 -0.57541895 0.21248774 0.03583352 -0.35489845 0.28216058 0.5155427 -0.08624206 -0.091759644 -0.031985424 0.25942183 0.23777254 -0.68029183 0.6518531 0.22253624 0.6229504 -0.048682854 -0.09930523 -0.10326113 -0.15304051 -0.15725102 -0.009346784 0.12600361 -0.19056842 0.15249299 -0.5321161 0.34162784 -0.45620295 0.090824865 0.110890985 -0.16802305 -0.037105467 0.19563583 0.48657006 -0.12895113 0.104926996 0.022489145 -0.09325684 0.20678623 0.34898016 0.46511063 -0.17657799 0.990189 0.1271848 0.17950033 0.054013286 -0.06910396
AOAH 0.08734507 -0.030203164 -0.35155064 0.3825252 -0.27776074 0.15790057 -0.11946252 -0.35272354 0.6558354 0.0627401 0.35870665 -0.120811984 0.083764054 0.26369873 -0.12435097 -0.43261603 0.20312756 0.19284259 -0.4064996 0.2658164 -0.06619441 -0.39660364 -0.26263034 -0.23202002 -0.41001394 0.19921613 0.52726686 -0.052442726 0.38405603 -0.24976099 -0.07244671 0.06357846 0.24574476 0.35067758 0.11333706 0.1913575 -0.010145027 0.025195017 0.26965532 0.14907496 -0.2794404 -0.3351238 0.48804152 -0.060754735 0.063489035 -0.25690934 -0.05014299 0.12719938 0.30417103 -0.2556481 -0.34216014 -0.1817772 -0.06980551 0.33625844 -0.00805348 -0.21817991 -0.03138104 -0.0029690587 0.547327 0.13681348 0.036069967 -0.2427411 -0.17410584 -0.0050586313 0.27476788 -0.44488358 0.5859266 -0.026648192 -0.2952948 -0.31303215 0.37796348 0.05423653 0.072991654 -0.06793287 0.45187196 0.2614293 0.046056446 0.08705153 -0.14345936 -0.24468482 -0.30032727 0.45666924 0.15835789 -0.008725673 0.15467446 0.65097153 0.18509679 0.45877606 -0.023232484 -0.009377393 0.2788666 0.19897859 0.33043516 -0.42202204 0.11437505 0.46575835 0.13047674 0.15292041 0.19938238 0.2138213
APBA2 0.048542447 -0.094447054 -0.044165544 -0.20884904 0.022978239 0.1326177 -0.06960363 0.018019866 0.038931206 0.056927696 0.1454783 -0.09501471 -0.16641134 -0.19298239 0.020497166 -0.037356574 0.035676986 0.0144371465 0.084585816 -0.08995357 -0.13144107 -0.03537526 -0.033942204 -0.014371042 -0.22837564 -0.16170467 0.4054097 0.06923559 0.029398726 -0.023339601 -0.046171464 -0.10187912 0.06475142 0.005039244 -0.081855185 0.17700705 0.100987196 -0.07132744 -0.16665351 0.101096325 -0.3055717 -0.026777811 0.027121544 0.005541786 0.063670285 -0.09632962 0.12225339 -0.032368936 0.025773305 -0.14475136 -0.19451676 0.17445064 0.01014541 0.11130849 0.22947018 0.07013747 -0.054639768 -0.12755086 -0.0029314249 0.0143790245 -0.2640341 -0.2888755 -0.18224332 -0.06276707 -0.11139811 0.039653633 -0.008845334 0.15800805 -0.25111628 -0.014589684 0.22671704 -0.09086816 0.013602623 -0.01766084 -0.07387325 -0.15173668 -0.32177803 0.13070315 0.11154036 -0.20372069 0.055132907 0.031708676 0.14082529 -0.13280205 -0.18736592 0.07640447 -0.11794314 0.02498128 -0.00301272 0.16841593 0.029389996 0.0507722 -0.04706112 -0.16359487 0.07516491 0.04548631 0.30971682 -0.027378617 -0.15177166 0.2988868
APOBEC3A 0.0116850985 -0.07285629 0.0686211 -0.020180166 0.01360787 -0.20436563 -0.17848592 0.15328161 0.0836791 0.34642172 0.029128395 0.24331057 0.24690889 0.09975747 -0.037862975 -0.093988106 0.19971247 -0.24016432 -0.09141255 -0.06121387 0.06304517 0.097034 -0.15799029 -0.059687912 0.2607504 -0.22828686 0.08072155 0.048191007 -0.36154455 -0.06777226 -0.098016195 -0.15714346 -0.0687516 -0.18090582 -0.07834903 0.091818094 0.17328544 0.0048639006 0.06515008 -0.18189755 -0.0251752 0.06144106 0.07607965 -0.2986154 0.22884634 -0.04787797 0.0941241 0.060396235 0.27925026 -0.04242749 -0.13496855 -0.071319446 -0.39827552 -0.07925802 0.14569221 0.106647946 -0.019646568 0.0111757545 0.22447559 0.13663404 -0.12599923 0.019852875 -0.06250362 0.0069088913 0.04582729 -0.01030638 0.32139 -0.17035317 -0.014314853 -0.060912162 -0.074432164 -0.11875005 0.26158774 0.13623403 0.1218699 0.036286786 0.08914056 0.10026628 0.23834768 -0.16291112 0.032526262 -0.0066273445 -0.17648238 0.04772826 0.13506818 0.29442322 -0.1545262 0.33892068 -0.1273247 0.057543498 0.15399528 0.13600375 0.0029891676 0.1418196 -0.22426958 -0.16197261 0.26386023 -0.16329682 -0.24034972 -0.22633155
APOBEC3G 0.3948849 0.02787353 -0.1707476 0.7770584 0.075182945 -0.1108686 -0.81965566 -0.30012113 0.40788284 0.784248 0.26005036 -0.9501328 0.23244773 0.58835065 -0.23121083 -0.37857884 0.020158257 0.6513058 -0.096651785 -0.0010070708 -0.26809087 -0.75875235 -0.5335341 -0.19710208 -0.45777455 -0.12251995 0.5078906 -0.102555424 1.0964776 0.03233912 -0.711739 -0.18442568 0.06425408 0.7504255 -0.14898546 0.4044117 0.03701106 -0.17626409 0.70995086 0.25360882 -0.42355317 -0.34264454 0.054314144 -0.024660679 -0.29287866 0.2132958 0.049804654 -0.21654949 0.26019704 -0.41839492 -0.48889312 -0.080267124 -0.23341784 0.33096272 -0.26574126 0.44175267 0.19251706 0.19949585 0.67037696 0.16944635 -0.1763317 -0.14175369 -0.3489082 0.24996395 -0.11783864 -0.25649652 0.11249621 0.60952675 -0.088646606 -0.26957393 0.7680311 -0.19458981 -0.3254875 -0.35304284 0.3733239 0.87684005 -0.2804504 0.53503114 -0.2619326 -0.70017767 0.43465093 0.5833006 -0.2652806 -0.9428632 0.44405386 0.7245322 0.17901684 0.83318764 0.76819587 0.072910875 0.880812 0.31296685 0.13120942 -0.5211765 -0.28292307 0.2863692 0.37415966 -0.3044932 -0.023852734 -0.08095895
APOBEC3H 0.034603927 -0.17377482 -0.044084214 0.18240638 -0.22670531 -0.1320928 -0.33805552 0.055710047 0.10943587 -0.19193892 0.31892538 -0.1725672 -0.111772045 0.04785244 -0.13511284 -0.3487243 0.19445437 0.0768617 -0.48265088 0.06350396 0.016470753 0.25286105 0.05980892 -0.007584216 0.1397817 -0.07258263 0.07247567 0.030990848 0.42164636 0.2712021 -0.3104513 0.03649391 -0.17040646 0.13228631 0.084493265 0.10328848 -0.41605034 0.050360553 -0.330286 0.015938349 -0.2964231 -0.11887216 -0.19737591 0.06989843 0.10802076 -0.08084793 -0.06338391 -0.15011111 -0.124993354 -0.06596413 -0.1271297 -0.18914703 -0.03048593 -0.122740485 -0.3872805 -0.0038908315 0.050266072 0.09280218 0.007606973 -0.087338164 0.17438667 0.11252149 0.3245032 0.34285045 0.13818811 -0.36480004 0.22317174 0.002700144 -0.019869138 -0.006828444 0.24316256 -0.13946752 0.050135892 -0.107370965 0.02239794 -0.22975446 0.03395401 0.030406598 -0.21285337 -0.15012388 0.2085068 0.025517566 0.18591869 0.3449221 -0.01955064 0.21971911 -0.08174382 0.03872783 -0.022358317 0.102603056 0.28621674 0.19651115 0.016379688 -0.28322345 -0.09868235 -0.07660064 0.17081217 -0.1353185 0.5257381 0.040412333
APOC1 -0.12926431 0.25055394 -0.25963148 -0.08603779 0.23742211 0.05396082 -0.028274167 -0.02466704 -0.09871838 0.21732481 0.111899815 0.040832147 0.15093651 -0.048376225 -0.06960086 0.08257121 0.18577817 0.17457883 0.0984194 0.18197297 0.035367828 -0.08435066 0.14289342 -0.05312734 0.01915573 -0.212084 0.16457966 0.22933488 -0.19503215 0.1943333 -0.087810606 0.11807339 -0.061840147 0.23790851 0.31857556 0.16136049 0.071006425 0.04706544 0.14213578 -0.0011204218 -0.09353706 0.13197652 0.20415004 0.11319498 -0.08744721 -0.17503175 0.08702957 0.11281606 0.27844536 -0.16629739 -0.14891708 0.051458463 -0.11226319 -0.16365512 -0.17573853 0.015385728 -0.12116444 0.12065636 -0.04265477 0.010160536 0.036187652 0.11193669 -0.17984097 -0.055009216 0.1268829 0.017743118 0.15201811 0.13260414 -0.29614502 0.0062024724 -0.038613465 0.047625337 0.19020718 -0.0066861715 0.09878839 -0.1368305 0.14871179 0.12018396 0.2985487 0.15765665 0.06314588 -0.11768311 -0.35134882 0.10212078 -0.014917507 -0.17781079 0.018887525 0.04274084 -0.110016815 0.029698178 -0.2456589 -0.035224993 -0.32628047 0.1834379 0.013077537 -0.11156918 0.28514025 -0.2006231 -0.18147443 -0.13433054
APOC2 0.1405032 -0.027086291 -0.22310998 -0.050982434 -0.05684463 0.042816594 0.20837966 -0.16915765 0.033340704 0.23638402 -0.17378537 0.16561446 -0.00605811 -0.06242748 -0.1076043 0.008458345 0.08286515 -0.22592668 0.073177725 -0.14915816 -0.100605115 -0.2932759 0.23583964 0.09811002 0.04459341 -0.2175398 -0.053386375 0.0023675403 -0.28173506 -0.13290669 0.073189914 0.01517771 -0.021370849 0.05298144 -0.16640353 0.110265926 0.25872365 0.17148945 -0.04645017 -0.15945356 -0.37162942 -0.07228966 -0.091592774 -0.13885334 -0.0010913438 0.010141724 0.02312782 0.006476095 0.15827136 -0.013598611 -0.054230217 0.2042937 -0.08228093 0.007673633 -0.19979657 -0.1213845 -0.12986612 0.08123697 0.039179675 0.09435376 -0.0066156955 -0.086456664 0.07282048 -0.2615756 -0.019315679 -0.14813486 0.08016202 -0.1385553 0.17550977 -0.12420251 -0.09264577 -0.27894548 0.02496752 -0.021256886 0.119495146 -0.019934842 -0.041703038 -0.01313911 0.20455712 -0.0059087547 -0.06857345 -0.043373246 -0.060859133 -0.17250086 0.05586381 0.25240847 0.022779875 0.29019547 0.020605365 0.037896737 0.037348405 0.087889545 -0.23619847 0.24584955 0.09087826 0.085266605 -0.1642116 -0.08786042 -0.048965327 0.006545142
APOD 0.46042377 -0.090136014 -0.45449984 0.06589617 -0.36702904 -0.32793382 -0.18054314 0.68054324 0.3449545 -0.053154215 0.32615286 -0.054183107 0.784295 -0.40791994 -0.22637214 0.08522958 0.1919726 -0.3628959 -0.41783512 -0.37716526 0.03670306 0.3909926 -0.46053997 -0.3184418 -0.11700442 0.43550843 0.48701245 0.3123694 -0.35423028 0.32920307 -0.09809842 -0.4522137 0.025278986 -0.39633536 -0.10418646 0.108147144 0.21856967 -0.3161844 -0.39550498 -0.4346281 -0.5778907 -0.2649487 0.07354775 0.37896428 0.21734521 -0.4674428 -0.05152298 0.43179053 -0.58726627 0.414369 0.26244456 0.16094688 -0.036245737 0.10762734 -0.017432993 0.1252705 -0.076438874 0.18123639 -0.17321983 0.45215705 0.79114765 -0.04798165 -0.19606157 -0.061544128 -0.19183876 0.07540921 0.02146129 0.17148824 0.3485311 0.44448847 -0.05053454 0.2650354 0.085406594 0.88867366 -0.07922927 0.056225024 0.19629526 0.7807061 -0.19308205 -0.31761953 -0.25900102 0.13009351 -0.6520467 0.17392702 -0.7292475 -0.20938843 -0.29513136 -0.30201203 -0.61257166 -0.7647416 0.20581067 0.7076902 -0.28560886 -0.60699123 -0.33548474 0.26091397 -0.006460594 -0.5510855 0.32769522 0.13824351
APOE -0.081971794 0.10930442 -0.09217562 0.08469223 0.15636155 0.115660444 0.018394629 0.084756374 -0.12332408 0.06505516 -0.077255346 -0.054244433 0.0484316 -0.15796547 -0.16043194 0.028007232 -0.00802943 0.12469346 0.004801642 -0.16519205 0.012578935 0.07366619 0.012188033 -0.0936093 0.038763423 -0.24388587 0.054294933 0.14070581 -0.020275744 0.14455864 -0.09379853 0.04606982 -0.0010192452 0.018111698 0.058612555 0.13244598 0.066563115 -0.014814597 0.106829576 -0.09181641 0.0202069 0.17438392 -0.04314119 -0.052533206 -0.010050448 -0.0016041012 -0.045597464 0.004669766 0.04881127 -0.06765197 -0.14769028 -0.087300204 -0.09529638 -0.16408148 -0.21806166 0.09585159 0.0036601704 -0.014099067 0.0057808333 0.022061048 -0.02620282 -0.04255067 0.015890388 0.058014926 -0.12917496 -0.007999977 0.06763388 -0.033839006 -0.019453956 -0.043912973 -0.13373801 0.021035464 0.12257716 -0.021931378 -0.016777124 -0.033801403 0.19211009 0.010992871 0.2156992 -0.024966732 0.074583106 -0.14342667 -0.15544064 0.1475003 0.14778951 -0.07435171 -0.2250059 -0.06687875 -0.09600677 0.22525369 -0.1185398 0.23111755 -0.0141613735 0.13726382 0.04730213 0.038972702 0.22510411 -0.085522905 -0.02397312 -0.0062450077
AQP3 0.36389443 0.032966163 0.9686767 0.2357564 -0.09819359 0.4826117 0.22858879 -0.54371995 0.36574727 0.44399133 0.14082317 0.39461735 0.25844958 -0.20245759 -0.59340847 -0.003970409 0.72443616 0.28506127 0.34410223 -0.085016154 -0.5878677 -0.2904439 -0.08457274 0.47795993 -0.25952953 0.2481695 -0.4003684 0.04660155 0.600542 -0.19068627 0.4345039 0.06919721 0.14974874 0.18974699 1.1686596 -0.787803 0.87164986 -0.57663184 -0.8237688 0.67136973 0.11042361 0.17955168 0.53700656 1.337731 -0.3493202 -0.6310151 -1.102211 -0.3027521 -0.689157 0.39679706 0.17903414 -0.92392105 0.09743028 0.028495377 0.818694 0.120383546 0.29930112 -0.50643075 -0.36515406 -0.103788406 0.21806543 0.5958785 -0.97934115 -0.3053174 -0.2193867 -0.14787287 0.23561019 0.008417053 -0.33131558 0.94794613 0.8132732 0.17445903 -0.2676463 -0.57271373 0.9498454 0.6821954 -0.83899724 -0.028661417 -0.6388788 0.14046328 -0.27334338 1.0338938 0.3000218 -0.85349035 -0.4172383 0.7290829 -0.8985912 0.054178257 0.18570115 0.086236425 -0.37809604 0.4893587 0.33740148 0.1767364 -0.13495192 0.07476059 0.068308845 -0.20115907 0.009770362 0.71222943
AQP9 -0.48862317 -0.064630486 0.27173507 -0.4582436 0.095922 0.34912506 -0.26599702 0.3211196 -0.12728712 0.7632074 0.8291196 -0.08601663 0.20369618 -0.11293965 -0.18510844 -0.18084775 -0.35169956 0.28907213 0.3367576 0.12737866 0.43108445 0.3207644 -0.5048727 0.2504541 0.17057544 -0.12858188 0.038029417 0.24268867 -0.012182877 -0.10610854 0.021467514 -0.46866095 0.53703606 -0.6477944 -0.6296848 -0.021149484 0.56820613 -0.23538828 0.75305694 -0.2413646 -0.90912604 -0.053330906 0.090586446 -0.29616988 0.12073266 -0.55932283 -0.12553184 -0.44699013 0.042996403 -0.13757296 0.25773525 0.27861902 -0.46798396 0.1299654 0.038568523 0.49973205 0.3156598 -0.21103996 -0.3684672 0.16353005 -0.43833455 0.4044544 0.23803632 -0.24995492 0.28175634 -0.14119801 0.24304195 -0.6782289 0.12849584 -0.23023735 -0.3212632 -0.07450578 0.54376525 -0.023037842 -0.43348154 0.04416731 0.011843811 0.30674702 0.5500505 -0.25301412 -0.45493582 0.40628952 0.02527022 -0.016707016 -0.010084299 0.44333395 -0.13951539 1.0046839 -0.2994947 0.16368271 0.18158546 -0.08901294 -0.0031971303 -0.17900226 0.5677493 0.17739037 0.030083388 -0.39773157 0.38151565 -0.53288436
AREG 0.055357847 0.24328999 -0.32695168 0.2376601 -0.037069537 0.34730712 -0.11230834 0.2897562 0.06732522 -0.284785 0.36703074 -0.041087355 -0.024222068 -0.06743991 0.026249904 -0.083283335 0.027130798 0.07251638 0.24944656 -0.10071032 0.2265544 0.020831462 0.043751527 -0.03457686 0.07350944 0.11645696 0.23051435 0.41310337 -0.053223047 0.15951426 -0.38611832 -0.21461403 0.22274666 -0.15547438 0.13240737 0.4283962 -0.15678099 -0.18514219 -0.07708253 0.17839235 -0.17339604 -0.090723276 -0.026668437 -0.17201929 0.13140026 0.0055661662 0.12319511 -0.03739476 0.04823602 0.015691193 -0.21352723 -0.18226433 -0.18949802 0.06950146 -0.1286827 0.3932638 0.18059444 -0.34674114 -0.1310373 0.26842886 0.09317652 -0.12695564 -0.008605467 0.25977284 -0.10065314 -0.3605906 -0.14672433 0.08510348 0.17882152 0.00808047 0.003602489 0.06791014 0.09257991 0.18417597 -0.22851984 0.093628034 0.0946686 0.12907879 -0.13219182 0.105166614 0.122540876 -0.26736534 0.039802354 -0.09432795 -0.051519275 -0.0569342 0.033760753 0.01241616 0.1643812 0.15179409 0.1880572 0.19995813 -0.020652723 -0.055764012 -0.3042714 0.055791378 0.20381966 0.015624589 0.06377558 -0.006483298
ARHGAP24 0.3344629 0.6706211 -0.5634459 -0.6524558 -0.2557839 -0.4518113 0.13519058 0.21493241 -0.26687226 0.016135175 0.4909595 -0.37288225 0.080362536 -0.15043193 -0.13465697 -0.20996104 0.51064265 -0.38222566 0.09725236 0.42116258 0.19114466 0.17139268 -0.23134206 -0.25544533 -0.20865504 -0.14985035 0.6776452 0.015458889 -0.27286896 0.414274 0.09153894 0.20467344 -0.2485126 0.29850143 -0.11638833 -0.42502466 0.22633131 -0.37440693 -0.106077544 0.31901088 -0.5799035 -0.003514092 0.4371019 0.45091802 0.1955035 -0.3095141 0.097075716 -0.015150318 -0.285573 -0.28505298 -0.1963452 0.13165265 -0.31570223 0.23722862 -0.21548285 0.22455062 0.22171915 -0.18808323 -0.23292947 -0.23274909 0.039389394 -0.34583598 -0.39234534 0.09625715 -0.24597271 -0.29886281 0.20278172 -0.0404034 -0.7841445 0.53618866 -0.47778916 -0.70749396 -0.21792305 0.0133900875 0.29079062 -0.29509088 -0.082103744 0.11141066 -0.07605906 -0.16528454 -0.11833526 0.43375593 -0.15076071 0.048722573 0.037771333 -0.4049212 -0.534403 0.37899625 -0.11201305 -0.023227688 -0.21684015 -0.64386576 0.038377576 -0.16910848 0.9865023 0.42312723 0.19105397 -0.30302086 -0.356253 -0.14535318
ARID5B 0.29999924 0.56555563 -0.8424754 0.23200409 0.709978 0.27015325 -1.0199654 -0.92178917 0.6703727 0.24542521 -0.1718926 -0.61056733 0.13100192 -0.34321973 -0.7542295 -0.14825849 0.27832493 0.5291017 0.25773937 -0.8139108 0.16750827 -0.01955319 0.0022181605 -0.5499075 -0.58568174 -0.64747185 0.46838388 0.18539257 0.7052932 -0.31227148 -0.34297505 0.2057994 -0.14627652 0.60075027 0.32416224 0.94494987 -0.0618668 -0.7844309 0.2712437 0.045113247 -0.12498081 -0.96225077 -0.21480793 0.23814982 -0.41232514 0.1184887 -0.027849745 -0.2827998 -0.36106798 0.046498664 -0.6674502 -0.2668427 -0.076621 -0.1279519 -0.22274496 0.7236002 -0.00022745109 -0.22891511 0.18715698 0.22087304 -0.3728168 0.30132294 0.0045923926 0.13545586 0.36458325 -0.43527803 0.0019007318 0.76392823 0.846768 -0.07915651 -0.38987038 -0.10803354 0.08012195 0.021310152 0.73544675 -0.064871974 -0.10927311 0.48825595 -0.23600274 -0.042011343 0.41629452 -0.141921 -0.1287498 -0.356731 -0.43946224 0.3790956 0.9030931 -0.07228044 0.8651949 0.025600586 0.5581091 0.36984095 -0.5099274 -0.09752857 -0.49132365 -0.3284394 0.6943714 0.6887682 0.4349727 -0.5669994
ARL4D -0.017251134 0.06973979 0.0076169595 -0.08332099 -0.038237497 -0.26601583 0.14435676 -0.16001157 0.011921586 0.14646533 -0.16231082 0.008986582 0.15951443 0.105331235 0.026183544 -0.12049935 0.17793564 -0.07293651 -0.15257108 0.13403296 -0.2027252 0.07230084 -0.20174915 -0.148001 0.07985077 -0.15480874 0.1465849 -0.09833263 0.11891416 0.08284488 0.092930496 -0.023378938 -0.06559122 -0.023160553 -0.15402643 -0.30858222 0.14656179 -0.21604218 -0.16158512 0.021329526 -0.10682607 0.08804441 -0.030697873 0.22403443 0.16496584 -0.023945604 0.2100354 0.11783176 -0.2140537 -0.07170143 -0.094186835 0.171267 -0.15718324 -0.048906982 -0.27940983 -0.17002825 -0.16505218 -0.026813846 -0.11365158 0.15554677 -0.13370363 0.08198613 -0.11325692 -0.0077446494 0.13592663 -0.11624169 0.14156099 0.00956233 -0.21410015 -0.060485985 -0.1152976 -0.24136332 0.03540066 -0.21521603 0.1813048 -0.1028067 0.09736501 0.038638625 -0.040634654 -0.07370808 -0.19334313 0.23127043 -0.07897775 0.21881884 0.40206116 -0.09314663 -0.31519926 0.24236065 0.117482826 0.18453531 0.07484856 0.01083148 0.13370167 0.09207245 0.50650215 0.19210854 -0.0962222 -0.0418592 -0.16109239 0.13585758
ASPM -0.13888617 0.20908318 0.1490946 -0.1442118 0.18627167 0.19848947 0.33813533 -0.13856718 0.19308014 0.5158387 -0.14315957 0.268313 -0.013593437 -0.3438845 -0.07981117 0.12667225 0.26117554 -0.08710804 -0.118391864 0.0836415 -0.202722 -0.39436883 -0.10787821 -0.18029164 0.051900018 -0.03574208 -0.04782104 -0.060463548 0.36780456 0.22673002 -0.10235527 0.121581085 0.16782449 0.35940197 0.25339723 -0.0055913385 0.12723239 -0.0010108713 0.037292626 0.047544826 0.044684436 -0.13513492 -0.12320443 0.08920989 -0.31014502 -0.05069534 -0.3468536 0.09266714 0.052602608 0.022129556 -0.3191279 -0.04789266 -0.4242794 -0.24054843 -0.59606445 -0.39839712 -0.11960755 0.2362563 0.32637572 -0.05732464 0.031111084 0.15590367 0.1888945 -0.2857702 0.110256955 -0.11928753 0.092436105 -0.06203917 0.077994876 -0.011476913 -0.06757684 0.07985313 -0.00014289789 -0.3012884 0.11630431 0.2616262 0.17016762 0.09625682 -0.0041879304 0.046022438 -0.10307871 0.008133109 -0.15944883 -0.088381924 0.040736645 0.3632848 -0.09445998 0.34883547 0.1396665 0.11681451 0.049147848 0.2470289 -0.18933317 0.2556792 0.1226678 0.3137709 -0.05744801 -0.19525382 0.07357926 0.15418065
ATF3 -0.052311454 0.0020217209 -0.077728055 0.029789854 0.10710901 -0.12624672 0.029393801 -0.37374595 0.31782344 0.099272646 0.18297268 0.36347035 0.3752807 0.19564937 0.2529721 -0.22542554 0.080200925 -0.064934656 -0.14897405 0.19777581 -0.22769573 -0.30107564 -0.045353625 -0.18220088 0.151378 -0.51553124 0.22935638 0.32829678 -0.20817544 -0.45145082 0.024619585 0.14720841 0.13924187 -0.14646663 0.100187495 0.26552558 0.41956514 -0.028538048 0.1859862 -0.13455808 0.1654126 -0.10520621 -0.022538386 -0.36633405 0.07939483 0.09938931 -0.033188015 0.4529962 0.22556096 -0.20097192 -0.32478428 -0.11021707 -0.3446268 0.2887812 -0.1496816 0.27685893 -0.11679893 -0.2673178 0.53429353 0.11291805 -0.3610792 -0.3719094 -0.19128372 -0.048295666 0.030303242 -0.13599832 0.53447056 0.49645442 -0.13352711 -0.022211308 -0.17466843 0.14327441 0.18920188 0.0781844 0.04173789 0.061828278 -0.108991586 0.112361 0.42051443 0.33014202 0.053406976 0.020911116 -0.00918198 -0.26848233 0.014632301 0.38606462 0.21910556 0.10748543 0.11435515 0.2594292 0.15851071 0.28429902 0.26667824 0.12428485 0.04107978 0.4013623 0.59092665 -0.286488 0.034854516 0.28941524
AURKB -0.09959775 -0.15567525 0.054883916 0.19425927 0.08386581 0.30696473 -0.08805042 0.3386423 0.10041087 0.2714749 0.2344953 0.21661861 -0.27418566 -0.16525044 -0.027318351 0.35416964 -0.013952757 -0.05266842 0.43599576 0.13139306 0.28698063 0.0937618 -0.19814786 0.31641895 -0.14165862 -0.03592638 0.24247582 0.07194143 0.29433233 0.2221434 -0.082490005 -0.13452952 0.44994205 0.0752608 0.075332 0.3406046 -0.0007834628 -0.36771336 -0.48960048 -0.14827275 -0.1521935 -0.6911851 0.21756896 -0.20049463 -0.06036721 -0.08625003 0.12284889 0.043467853 0.042436354 0.40462005 -0.07461045 0.0036154538 -0.19080225 -0.23032866 -0.29163566 -0.1778948 -0.35270596 -0.011969499 0.3186012 -0.15832591 -0.005850205 0.014872137 0.0072763907 -0.3423232 0.27010033 -0.32014284 0.36278036 0.09636212 -0.06645364 0.54839206 0.27024975 0.0026385956 -0.008789544 -0.06278433 0.2312289 -0.15469028 -0.03217736 0.16317922 -0.029743178 -0.12896018 -0.5395873 0.18106705 -0.3255024 -0.07679884 -0.37301594 0.4019634 0.07051436 0.3169281 0.2552679 -0.19871588 -0.0055354233 0.02305892 0.017438283 -0.09680514 -0.08933164 0.07435815 0.0855296 -0.28659797 0.11313831 0.16489738
AXL 0.022489628 0.2958273 -0.067579694 -0.18747549 0.12422854 -0.07401125 0.06768333 -0.22432984 0.15262848 0.3819472 -0.0061705774 0.17209445 0.19518991 -0.03712832 0.17532302 -0.051526327 0.23318045 -0.02353841 0.046384875 0.24797462 -0.22957176 -0.40860787 -0.010430563 -0.20728834 -0.19556738 -0.031847633 0.38489655 0.015862772 0.06788081 0.01807157 0.039139368 0.28960675 0.0024809025 0.111344896 0.13741514 0.20498048 0.16733094 0.102062844 0.24965183 0.026506383 -0.244349 -0.024111165 0.23651281 0.1278634 0.031190304 -0.09528243 0.24063759 0.33411273 0.22869612 -0.47832143 -0.30204782 0.26626602 -0.261241 0.24781312 -0.19013242 0.019508189 -0.29056382 0.1576519 0.36321396 0.11091945 0.18635093 0.008242639 -0.23468986 -0.22849423 -0.060496558 -0.029040534 0.15960783 -0.0545542 -0.2475326 -0.056922074 0.16515085 -0.13195994 0.17717013 -0.13822411 0.115043655 0.15349579 -0.41796413 -0.16281843 0.21869437 0.03855963 -0.20784272 0.011467074 -0.24883452 -0.25513008 0.12586395 0.11729137 0.06839916 0.26910457 0.06586273 -0.1112114 -0.13408467 -0.048259698 0.07023435 -0.1337228 0.049061123 0.3784909 0.018589245 -0.26539433 -0.23972416 0.25860378
BACH2 -0.3515831 -0.37660363 -0.15000208 -0.7161934 -0.19263254 -0.7056048 -0.5257133 0.62354046 -0.67227453 -0.9364238 0.41974247 0.5863606 -0.32623133 -0.35463086 -0.018135002 -0.9689688 0.99564344 0.92289823 0.16728382 -0.086283244 0.6195387 -0.38835698 0.8691301 -0.30273232 0.30156717 0.13889396 0.8670699 0.14072658 -0.12067013 0.15480243 -0.38401207 0.9192979 -0.015262276 -0.4116876 -0.039812185 0.7161185 -0.39558855 -0.37271956 -0.6658246 0.7277215 -0.7553648 -0.7758964 -0.042567134 0.9798048 0.3987607 -0.14632164 0.573548 -0.013154161 -0.006982495 -0.04666035 -0.7411614 0.37528566 -0.23978594 -0.4221453 0.89047295 0.16579877 0.00016798568 -0.717886 0.77226 -0.41696107 0.5914162 0.026401516 -0.27052364 0.14850311 0.06041149 0.27142274 0.16923687 0.024466705 -0.67130035 -0.2804373 -0.5479619 -0.22739604 0.03669402 -0.45567694 0.19196911 -0.648974 -0.49686006 -0.36067855 0.411761 -0.10529289 0.7111901 0.82415074 -0.77573085 0.45525283 -1.1069399 -0.29995197 -0.087310344 -0.039267592 0.21451747 0.44593224 0.04904813 0.11868639 -0.53886634 -0.86132133 0.4291141 0.583381 0.46292531 -0.06374655 -0.07719947 -0.249731
BAG3 -0.23971565 0.32018402 -0.20038602 0.21921425 -0.3659392 0.1871794 0.18253924 -0.31036288 -0.29290357 -0.058051147 0.029613655 0.061441857 0.23896328 0.20056507 0.11795466 0.22090438 0.12162851 0.25937328 0.13135049 -0.34553164 -0.020169964 0.031818975 -0.20914356 0.15484193 -0.2781122 -0.29708362 -0.09004097 0.15754434 0.2556853 -0.20704491 0.04409695 -0.3036944 0.09695933 -0.14289849 0.14923488 0.14985625 0.16592348 -0.36626208 -3.0933297e-05 0.03089796 0.041468844 -0.028131353 -0.16285819 0.011111121 0.19847879 0.008949821 0.034674153 0.20611034 0.17952399 0.05315539 -0.32880676 -0.3435612 -0.020617677 0.1543176 0.0042774775 -0.0911141 -0.025424644 -0.07419168 0.100141056 0.3642363 0.33504477 -0.122277014 0.057005856 -0.030796388 -0.15334152 -0.075312085 0.43863988 0.033722065 0.6168102 0.13569644 0.03490499 -0.12640691 0.19855106 -0.17357722 0.25680098 -0.066600695 0.32358757 -0.36080644 0.2717436 -0.038032304 -0.2696666 -0.16405748 0.12993291 0.030638332 0.4013892 0.0906958 -0.054452404 0.0009412974 -0.30061266 0.1394179 -0.010729523 0.28941005 -0.07979277 0.052374154 -0.2716892 0.11333077 -0.06495606 -0.105906665 0.1787729 -0.40463895
BANK1 0.24832475 0.08768735 -0.1381455 -0.15795238 -0.015205431 0.20369336 0.053475287 -0.06832599 -0.08516385 0.060919203 0.08732871 0.17139678 0.2787121 0.44315925 -0.14935103 0.15433872 0.17027606 0.017660215 -0.27287436 -0.2868677 0.12313636 0.36940265 -0.23691227 -0.14095986 -0.17410992 -0.2575203 0.3954999 -0.14178328 0.09488932 0.03984433 -0.6204352 -0.04556961 -0.45221058 0.46019495 0.50444627 0.074577026 0.32651126 -0.046014395 -0.32907736 0.14660771 -0.43477854 -0.4841997 0.05336371 -0.35740212 -0.020300215 0.71226454 -0.07001944 -0.12477238 0.0011225421 0.1196888 -0.27886835 -0.4425589 -0.5099518 0.13058826 0.26719335 -0.11151316 -0.19717516 0.12617472 0.48642182 -0.5519103 -0.003501431 -0.051455084 -0.11824338 -0.32489824 0.37453756 -0.22079945 0.04510168 -0.11551801 -0.35823065 0.024585161 -0.10221514 0.018837437 0.19105238 0.12575592 0.1933028 -0.058334783 0.12868793 -0.3425867 -0.1030687 -0.14204846 0.038117185 0.4033875 0.34496945 -0.26967064 0.2000789 0.22156094 0.030058263 0.16842987 0.08898769 0.06148492 -0.057502624 -0.031979922 0.16232428 -0.25795418 0.22422558 0.2978279 -0.09115479 -0.29121545 -0.3790332 0.13124199
BASP1 -0.46383038 0.16428658 0.22642468 0.6558242 -0.114559054 0.48075613 -0.030740561 -0.2136467 0.36000264 -0.038675047 0.31786424 0.18149476 0.5699529 -0.059389174 -0.5451714 -0.6346271 0.6317075 0.4658043 -0.047519535 0.42098758 0.6825924 0.3045411 0.27578813 0.010035198 0.21937372 0.04390299 0.57021224 0.10575935 0.34678555 -0.088667005 -0.14823264 0.51876456 -0.16880916 0.22542602 0.33296034 0.056075267 0.54497856 0.3921965 -0.64013916 -0.30338788 0.15824306 -1.1870995 0.038206376 -0.49043784 0.20259741 0.351433 0.15772991 -0.3345156 0.19557834 0.08123732 -0.050542604 0.46993396 0.00016486784 -0.5456514 -0.0076030237 0.7769389 -0.091401435 -0.35490805 0.5105365 -0.22549656 0.055638403 0.38952917 0.06652856 -0.4073036 0.08796833 0.0126124285 0.39898723 -0.20249808 -0.31926543 0.1494324 -0.5814028 -0.15688086 0.1340967 -0.3310695 0.8504111 0.42227155 0.28520647 -0.43452552 0.32638472 0.2924755 0.13379164 0.22177432 -0.5721301 0.06841723 -0.08678396 0.35123172 0.63462687 0.02533777 0.1505881 0.31206274 0.23390274 0.027446797 -0.24536993 0.14571764 0.36171684 -0.17055157 0.80199945 -0.8938629 0.18678606 -0.40288138
BATF 0.028388899 0.53753054 -0.89589214 -0.42082638 -0.36789775 -0.015417584 0.20427106 -0.4711716 -0.029162023 -0.0016592643 0.13258326 -0.817412 -0.2265195 -0.19865233 0.235176 0.01449793 0.47270903 0.021794729 0.31872645 0.26914877 0.04199246 -0.20001392 -0.74794257 -0.08272994 -0.38390845 -0.5369326 0.8687927 -0.27404335 0.4184647 -0.20705341 0.076294765 -0.40493536 0.47690645 -0.12046256 -0.09983298 0.49145034 -0.006234616 -0.2471673 0.36723033 0.14782257 -0.055185042 -0.8364356 0.07895296 0.31103483 -0.20994577 0.031039203 0.34242424 0.11502443 -0.1549232 -0.014638796 0.0972827 0.23832078 -0.6442206 0.32506615 -0.7050965 0.35187832 0.45811543 -0.0066556535 0.09813766 -0.072020695 -0.40129483 0.087509945 -0.1879226 0.33184716 0.27826217 -0.53853554 0.112884924 0.3769054 -0.16784303 0.25714144 -0.19206834 -0.33239374 0.50987834 0.2634575 -0.14076912 -0.7475073 -0.06817745 0.20231731 0.37222168 -0.1898907 0.4328905 0.34189346 0.51645124 0.028048404 -0.0498892 0.43644452 0.044068005 0.20798534 0.40757197 0.15302373 0.09473511 0.40163404 -0.18231383 0.10108735 0.014288738 0.027266674 -0.0585921 0.02201624 0.65637374 -0.28713855
BCL11A 0.21670115 -0.06767413 0.029226575 -0.26125568 -0.0718805 -0.11457366 -0.10677125 0.35468027 -0.14467853 0.5964341 0.54481065 0.0639254 0.27358627 0.5714408 -0.0009539273 0.40938705 -0.06434583 0.40401623 0.35368273 0.1484405 -0.12355853 0.26291078 0.3073813 -0.55493593 -0.11375953 -0.5423563 0.26263443 -0.27760667 0.23984483 0.44282773 -0.53057945 0.78282934 -0.13368212 0.24777679 0.11635699 -0.20234214 0.277493 -0.3431236 -0.30418855 -0.025022153 -0.33825722 -0.27093598 0.06580376 0.49449196 0.14979531 0.010020703 -0.20643874 -0.39290565 -0.63070554 -0.1217418 -0.029147616 -0.2593633 0.3166088 0.26309812 0.042555425 0.41856706 -0.6370213 -0.15433607 0.2159149 0.16413532 0.19049533 0.3773282 0.35138917 -0.24500597 -0.25143835 -0.2052811 0.44762456 -0.21190144 -0.27432427 0.3080101 -0.12725274 0.122452766 0.060417883 -0.2969121 0.1176325 0.13115609 -0.58180505 -0.32619226 0.363248 -0.28664187 -0.12698591 0.3784356 -0.30363587 -0.3601945 0.4988525 -0.16625707 0.30410683 -0.18746972 0.3365443 0.12231688 -0.53021556 -0.18246421 -0.36197516 -0.2754496 0.69393486 -0.10261936 0.14782958 -0.24946998 0.34817052 0.30683687
BCL2A1 -0.5207523 0.6849879 0.11392399 -0.41946355 0.09046231 -0.26668838 -0.43126744 -0.70933145 0.58665836 0.56188345 0.0341768 0.0018368077 0.12683092 0.2680498 -0.47414097 -0.27578044 0.06805373 0.48308846 0.31791544 0.34862378 0.083805695 0.71393746 0.08851238 0.31761628 0.1380201 0.24265203 -0.37314504 -0.2351793 0.27553865 -0.14681205 0.08081768 -0.29843155 0.26673925 -0.15508167 0.16691321 0.012423703 -0.13678977 -0.1280383 0.2573469 -0.025904903 0.04608114 0.03216074 -0.20367138 -0.42294723 -0.30534247 -0.3493274 -0.172379 0.519266 0.20263591 -0.73830295 -0.13895153 -0.02187495 -0.23191993 0.035434987 -0.8205629 0.6740722 0.25283873 -0.07523682 0.14482187 0.3047825 -0.4228696 0.3569542 0.6202006 -0.118551135 0.2554316 -0.33221993 0.28067443 -0.09974996 -0.12946692 -0.18388072 -0.12071318 -0.059458792 0.032773633 -0.2603341 0.4248626 -0.11890674 0.5150703 -0.15494183 0.67554593 0.4922142 -0.17093 -0.17936209 0.2772554 0.32480428 0.717447 0.5912293 0.4540932 0.011980701 0.07749637 0.066216715 0.015644703 -0.32136944 0.012046799 0.4655598 0.24146576 -0.01070174 0.42410502 -0.4078668 0.056516342 -0.34337357
BEX2 -0.24006012 0.10393201 -0.22169995 0.110867724 0.5285954 -0.11121909 0.29414764 -0.20025337 -0.1428528 0.13261914 -0.48004988 0.26687652 0.023536928 0.40740502 0.057251096 -0.76653326 0.18599877 0.14211033 -0.49498206 0.28199235 -0.112841286 -0.5606983 0.43647712 -0.56485313 -0.19973847 -0.021665717 -0.025187775 -0.4902424 0.21208312 0.025601838 0.44478923 0.73463047 -0.43844977 0.6443737 0.29720914 0.41492563 0.04479752 0.041538753 -0.19443056 0.07027891 -0.5576673 -0.4591588 -0.5521815 1.0053127 0.40522933 -0.02067887 -0.013303884 -0.34226793 0.2675567 -0.8789963 -0.12593023 0.42637032 -0.2850957 -0.09641328 -0.3741582 0.22229996 -0.25761658 0.52355266 0.4334101 -0.06184643 0.02396661 -0.45289445 -0.7902488 -0.2419781 -0.035187922 -0.4298092 -0.22067979 0.28918123 0.3551844 -0.3233286 0.46380043 -0.11190738 -0.19176504 -0.06564137 0.9939507 -0.4539235 0.19154333 -0.10504544 -0.003555597 0.32391125 0.550092 -0.28540018 -0.5525672 0.35348395 0.033744104 0.27373755 -0.2732147 -0.034284823 1.0024129 0.06928698 -0.27682436 0.16029358 -0.96718794 -0.29022187 0.29142419 0.31245154 -0.50595814 -0.5954788 -0.33403313 -0.31150946
BHLHE40.AS1 0.25577694 -0.022318652 -0.14712223 0.025604013 0.17459086 -0.30708385 -0.4041476 0.095330656 -0.07242977 0.041236315 0.040415313 0.038443983 -0.053417154 -0.068178706 -0.10073709 0.039573494 -0.064219594 0.14407972 -0.06298383 0.037541717 -0.15078217 -0.014393973 -0.0365664 -0.0774036 0.0830185 0.01294566 0.17507786 0.031089839 -0.017704729 0.0839045 -0.0520631 -0.2169594 -0.07748568 -0.07883362 -0.108776055 0.09995519 -0.016084032 -0.107870415 0.018393362 -0.019117178 -0.23748201 -0.07135193 -0.032287773 0.17233521 0.055082805 0.08496193 -0.07831053 -0.11479398 -0.19657803 -0.18091255 -0.19997123 -0.18864934 -0.01668159 0.09248135 -0.05927508 0.11929478 0.21576494 0.04488651 -0.02215191 0.21446481 -0.042722102 -0.37932667 0.0021856292 0.31054577 -0.25918067 -0.047291256 0.25149432 0.13631226 0.057132334 0.03571147 0.17851742 -0.11008798 -0.35197338 -0.10821582 0.15763092 0.052874003 -0.23400773 -0.077015236 -0.019394744 -0.37456313 0.11385761 -0.003855225 -0.030223487 -0.041484542 -0.011487709 0.13896155 -0.101134926 -0.0656137 0.12241773 0.091580816 -0.07420454 0.055857737 -0.097546324 0.058786586 -0.11159218 0.31649506 -0.04303068 -0.15026523 0.21839559 -0.10203967
BIRC3 -0.15489759 0.23123993 0.09259623 0.12185764 -0.15267242 -0.041551538 -0.3548341 -0.2029119 0.33033013 -0.26818058 0.13208276 -0.5153252 0.04354691 0.1369669 -0.34747282 -0.06345764 0.121980995 -0.22372834 0.11307494 0.12034399 -0.21496996 0.3733264 -0.25940937 -0.022807596 -0.12359226 -0.2520062 0.118085176 0.18326059 0.035490762 -0.48205578 -0.13537772 0.05262291 0.39323622 -0.18661933 0.06386615 0.26657715 0.3559119 -0.5821335 0.17331022 -0.030921996 0.10209353 -0.23202492 0.19086161 -0.29667038 -0.2802855 0.0018095637 -0.36686516 0.45035186 -0.25552133 0.3259675 0.046152692 -0.4680471 -0.32511312 -0.33942914 -0.5618296 0.15125771 0.31244376 -0.060866572 0.27804863 -0.31234467 0.023599433 -0.21536072 0.4365059 -0.018185124 0.14740425 -0.3724545 0.58881503 0.23610577 0.44708824 0.26897195 -0.5337216 0.40454337 0.29015335 0.20992447 0.13029182 -0.24404725 -0.07659222 -0.013608761 0.28491706 0.008779887 0.008467918 0.47609806 -0.007965735 -0.24690507 0.14793299 0.1410509 0.6941485 0.09668106 -0.049777716 0.3439022 0.13235791 0.3083117 0.28568673 0.18768391 0.21096241 0.20000535 0.24633597 -0.26649055 0.32288244 -0.23948501
BIRC5 -0.07211214 -0.22576353 -0.5283925 0.3552566 0.16419658 0.21632479 0.21588776 0.2981369 0.21125717 0.4945715 0.059989583 0.9921712 0.29671085 -0.990936 -0.48543766 -0.5169686 0.16556124 -0.38241512 0.91247004 -0.192128 0.580414 -0.1428614 -0.8227228 -0.3846438 0.15704326 -0.025383908 -0.015832562 -0.15328097 -0.24697615 0.13454008 -0.05831069 -0.2091519 -0.048607714 -0.08360676 0.6426068 0.29441938 0.28779843 -0.17788051 -0.018852413 0.52933866 -0.17090383 -0.50555044 -0.3415693 0.12258152 -0.050013743 0.15459692 0.4769574 -0.31732237 0.38084272 -0.065545365 0.28546947 0.38116235 -0.35223794 -0.14583918 0.4273737 0.39888552 -0.9752081 -0.4703682 0.8881098 -0.038813166 -0.43102914 -0.488642 -0.6193029 -0.2053506 -0.22583023 -0.2210776 -0.013802712 -0.5086014 -0.18610369 0.3850576 0.327558 -0.5575426 -0.019127226 -0.5865955 0.17689915 0.22325964 -0.15066628 0.30352727 -0.030681148 -0.07264227 -0.706047 0.15609075 -0.8196737 -0.44716355 -0.22991751 1.0343302 -0.08004344 0.2445277 -0.17443039 -0.68439287 -0.18350878 0.039760813 0.54581285 -0.20758188 0.002002979 -0.013016062 -0.037934706 -0.36449575 -0.010425366 0.5026807
BLK 0.16072081 0.18264666 -0.34965494 -0.097532675 0.09885675 -0.49674493 0.006016967 0.16914743 -0.018858418 -0.013441142 0.6100081 0.07640144 0.057541385 -0.2502546 -0.20521314 -0.8067696 -0.16857032 0.23863445 -0.33714855 0.21713312 0.24463154 0.4050229 0.13559827 -0.40074718 0.23601186 -0.19688553 0.18699875 0.060786784 0.0843852 0.5688406 -0.3992488 0.34008 -0.7323464 0.2246472 0.22155015 0.45252696 -0.27045545 -0.33764195 -0.28731388 0.37424794 -0.30910563 -0.7473843 0.099423476 0.48715878 0.15572655 0.04824487 0.21478303 -0.051536597 -0.4494316 -0.304153 -0.5840107 -0.11794502 -0.5121281 0.16921663 0.3267371 0.21690735 0.46066344 -0.30275592 0.40404806 -0.007727622 0.0795142 -0.28025126 0.051024914 0.5049279 -0.48798785 -0.13561589 -0.18894263 -0.4640331 -0.53888154 0.25868845 -0.11312801 -0.41647783 -0.30066326 -0.17842291 0.2166724 -0.5128354 0.54261786 0.043564416 -0.44221056 0.18922488 0.4024235 -0.038064275 0.14309315 0.6288709 0.30995977 -0.25279775 -0.54345065 0.12988187 0.07227958 0.057398472 0.4155565 0.12535411 -0.15427804 -0.7257412 0.3457807 0.7489708 -0.15247929 0.06208429 0.56474036 0.16322939
C12ORF75 0.6914423 0.06077536 -0.31149054 0.35055432 -0.3740886 -0.6619485 -0.06701871 -0.06212286 -0.1369068 0.20528626 -0.7042703 0.056979485 0.64887136 0.9230483 0.29418963 0.7473994 -0.12168821 0.41772315 0.3362025 0.7323783 0.10316402 -0.10432642 -0.4239507 0.00086443475 -0.10010364 -0.51085496 -0.21599987 -0.66036665 -0.37716118 0.37370276 -0.33452648 0.19091687 0.44158214 -0.29409945 0.19791351 -0.5467721 0.22765842 0.38026106 -0.14312053 -0.11504024 0.058046006 -0.5961385 -0.17892025 -0.14823379 -0.6779495 0.025733026 -0.002836462 -0.07228203 0.16723226 -0.23008119 -0.09613923 0.7925924 -0.03556038 0.03173951 -0.9869079 0.50887585 -0.23935306 -0.16497777 0.53112566 -0.43605524 -0.46454617 0.49276406 -0.698218 -0.07045761 -0.05572998 -0.24585326 0.24362855 -0.07096991 -0.13718028 0.08380984 0.26571614 -0.4595206 0.19362171 -0.32948032 0.5960141 -0.062018704 -0.3791446 -0.057872694 0.59664863 0.25407687 -0.15095948 0.5214882 -0.39954954 -0.9775215 0.23890531 0.62067735 0.040442504 0.06429071 0.54563606 -1.1283022 0.11373771 -0.24302974 0.24189149 0.5426976 0.42494088 -0.35326454 0.5553252 -1.1581402 -0.042320747 0.25483212
C15ORF48 0.115916625 0.43610445 -0.53503025 -0.24839093 0.18870018 0.5000696 0.14328283 -0.67046976 0.026127817 0.1965434 0.46544603 -0.072082445 0.44903442 -0.31118405 0.20568888 0.009583773 -0.025756134 0.06907982 -0.15378186 -0.6877446 0.42224985 -0.11446425 0.15008172 0.25093433 0.096220694 -0.35863656 0.22703023 0.10042603 0.48980153 -0.06467167 0.16580863 -0.55799663 0.36229873 0.3545483 0.0012575143 0.25626543 0.21319993 0.25895372 -0.3145191 -0.17170404 -0.33020693 -0.81536126 -0.11871558 0.50254023 0.18415113 -0.42498574 0.2805807 0.16461942 -0.07740056 0.11142309 -0.37217402 -0.5384326 0.11501856 -0.34312487 0.4650753 0.34753087 -0.23172866 -0.3121466 -0.22707587 0.35210848 -0.070297696 0.38554108 -0.13269854 -0.7207602 -0.005517263 0.120272 0.2694453 0.34411544 -0.093084775 0.55193025 -0.22867036 -0.48716548 0.15032017 -0.009156655 0.46127525 -0.09291088 -0.2714076 0.07706759 -0.2983407 -0.041621566 -0.48159173 -0.40857652 -0.3970382 0.08046753 0.21951754 -0.008848272 0.1681345 -0.49084356 -0.18939506 -0.0008926007 -0.095007196 0.19513075 -0.6314548 0.2567388 -0.40311983 0.007773402 -0.15752468 -0.044996247 0.2557172 -0.37684265
C16ORF54 0.49955586 -0.47460008 -0.2686954 0.3103738 -0.32221007 -0.29018933 -0.38666892 0.119462535 0.4878753 0.25747496 0.33905464 -0.19357146 -0.013596642 -0.099373765 -0.4466404 -0.14136212 0.3087508 -0.05295646 -0.3460076 -0.066933095 -0.10899863 -0.52201164 -0.29306763 -0.56230724 0.18027931 0.0861839 0.4616828 0.030150399 0.13955593 0.4425973 -0.6822124 0.2710381 0.0742163 0.36289576 -0.16658199 0.29899958 0.04060485 -0.049269747 -0.0064903535 0.314378 -0.25709942 -0.34549475 -0.032771047 0.21366043 0.87193865 0.073801555 0.33794838 -0.19251314 0.2556894 -0.37638104 0.030086828 -0.09450871 0.37281808 0.36071697 -0.23306279 0.21426141 -0.46745282 -0.22952537 0.43337533 0.07171514 0.23124583 -0.33707064 -0.62248677 0.18466134 -0.19895716 -0.16375943 0.20047459 0.059756096 -0.31470785 -0.2284515 0.21979062 -0.326787 0.4718324 0.053335734 0.31132203 0.3865833 0.03868099 0.22419912 0.25930032 -1.0158707 0.23232606 0.044758756 -0.23424184 0.046859477 0.21268518 0.5006441 0.022502104 0.024393896 0.47904477 -0.13163312 0.109399445 0.2372175 0.22529171 -0.6300455 0.21659575 -0.10220731 0.06728788 -0.10370928 0.0654689 0.16116789
C19ORF59 0.062394366 0.858175 -0.09779093 -0.36364955 -0.24472554 -0.35540912 -0.7864274 -0.06394977 0.28708118 0.71094644 0.3888653 -0.899965 -0.51942134 0.76134354 -0.4704588 0.26554948 -0.40320283 -0.5237459 0.37321767 0.40960222 0.1047588 0.6023222 0.51893854 -0.063184604 -0.036894865 -0.053623244 0.0728291 0.22460768 -0.20760784 -0.03646741 0.19046171 -0.13020548 0.060362104 -0.61031556 -0.18443279 0.52961904 -0.49561426 0.41096926 -0.19270246 0.4234139 -0.13681127 -0.34384072 -0.4172263 0.20343634 -0.08121702 -0.6463568 0.20051001 -0.25344142 -0.90388143 -0.6742353 -0.6755702 -0.14267844 -1.0177431 -0.09146866 -0.64233136 -1.0740995 0.5047539 0.4014284 -0.6496369 0.26410234 -0.55825305 0.08360462 -0.044462323 -0.17503048 0.23391798 0.0046543106 -0.48029482 -0.51545423 -0.46738425 0.12732898 0.34212044 -0.095286146 0.43232825 -0.09944761 0.15286018 0.37026516 0.4898972 0.26820803 -0.25758782 -0.2294753 -0.6839991 0.004786199 -0.9058148 0.38510686 -0.036074996 -0.55010974 0.16996755 0.08753065 -0.11820396 0.453814 -0.2885121 0.8349512 0.5179742 0.053138763 -0.281972 -0.3876486 -0.19714485 -0.13916357 -0.13899449 -0.1970016
C1ORF186 0.62958384 -0.37609112 -0.1599183 -0.26472586 0.19332135 -0.2064933 0.337759 0.006308423 -0.16930151 -0.24956256 -0.21601632 0.067103356 0.5355626 0.21525721 0.34605408 0.5069283 -0.07055906 -0.15271553 0.07921082 -0.22883685 0.15300293 0.28659716 -0.026726797 -0.15488246 0.23081234 -0.44609642 0.12765796 -0.42075014 0.072491266 0.2628256 -0.582896 0.18126445 -0.070458576 0.09264054 0.0009558457 -0.5635179 0.28672558 -0.3800631 -0.503433 0.28282878 -0.17859828 -0.46626735 -0.16720548 0.09911208 -0.19543925 0.12606609 -0.04831958 -0.40536237 -0.539998 0.19065958 0.01934876 -0.16817291 -0.14196408 0.5519464 -0.09144544 0.18184027 -0.40966663 -0.29076734 0.07775157 -0.0328531 -0.3899681 0.3922315 -0.09535303 0.09188494 0.27758393 0.009776854 -0.19893979 0.035890885 0.09914415 -0.10193143 -0.3018004 -0.17870404 -0.08270113 -0.32263938 0.117484055 0.312682 -0.17763206 -0.15045796 -0.29448882 -0.26614487 0.09838171 -0.2013028 -0.051152486 -0.29894325 0.2998724 -0.18502834 -0.087985784 -0.33855346 0.71350735 0.37225628 -0.053363737 -0.09840516 -0.30451 0.15507162 0.064728685 0.10913305 -0.18622327 -0.42048067 0.099671155 0.14918621
C1ORF21 -0.15101029 0.20491235 0.18817762 -0.70338976 -0.1770904 -0.6162169 0.15020983 -0.21098238 0.2385862 0.04240066 -0.3419561 0.31530476 0.07955681 -0.40981162 -0.12230748 -0.054613438 0.45603272 -0.3855879 0.5391067 -0.037998624 -0.009383511 0.10944888 -0.34119815 -0.36429474 -0.2529905 -0.22307101 0.27928567 -0.12934189 0.040152412 0.0060298247 0.43253705 -0.22204469 0.08208457 -0.32516852 -0.38796142 -0.30786484 0.21497077 -0.6041744 -0.2220895 0.25777185 -0.21844083 -0.03988268 0.136319 0.2199029 0.42321607 -0.479458 0.4376426 -0.2188976 -0.43814793 -0.34476134 -0.2440192 0.17211914 -0.46129104 0.17921376 -0.14287066 -0.13002808 0.040927373 0.035950396 0.11612802 0.109397635 -0.05111886 0.22643645 -0.3763496 0.022895945 -0.2033804 -0.7030272 0.5586781 -0.4869745 0.0662067 0.016676508 0.33366257 -0.10887512 0.20747177 -0.016905367 0.44939816 0.40588558 -0.7124614 0.06652772 -0.14756866 -0.80645 -0.39193934 0.055093806 -0.5512536 -0.3516044 -0.11948041 -0.07980212 -0.61172533 0.5176929 0.259863 -0.12497467 0.20641164 -0.06491331 0.3484198 0.060161978 0.32222128 -0.05407156 -0.3033083 -0.73090935 -0.5811974 -0.037345283
C1ORF54 0.07644438 0.38810366 -0.09563096 0.14693029 0.11795994 0.08249059 0.23410572 -0.16459963 0.35154578 -0.12824444 0.2935111 0.2657272 -0.08379879 -0.011761073 0.0805541 -0.0068937032 0.22684664 -0.034995187 -0.08842543 -0.013101808 -0.07396024 -0.4035065 0.48610258 0.061846208 0.18455268 0.22654289 -0.20548952 0.04090338 0.028778793 0.13117726 -0.51051474 -0.15088543 0.38705957 0.19931975 -0.06267822 0.3144603 0.23385315 0.29164127 -0.42009166 -0.013019587 -0.6044469 -0.6115688 0.047656845 -0.16554774 0.22097631 0.18931365 -0.12380304 -0.14141238 0.19309399 0.2720632 -0.49887502 0.11980286 -0.4983797 -0.29188347 -0.20533258 0.084164925 0.16715798 -0.14411332 0.28583902 -0.011386573 -0.18053897 0.3206759 0.4868727 -0.6053907 -0.2886395 -0.19299452 -0.22578886 -0.47168022 0.17658621 -0.0026262251 -0.31050748 -0.12384605 -0.033745207 -0.39114255 0.20572825 0.3445744 -0.24462517 -0.45588905 -0.34733835 0.15031618 -0.22525327 -0.013834139 0.48054272 -0.13849477 -0.25223356 0.18601818 0.061977077 0.22387294 0.19135222 0.047556642 0.49527982 0.2586782 0.2574867 0.0052705044 -0.019827593 0.4887086 -0.20192689 -0.12572038 0.18805514 -0.29102454
C1ORF56 0.4332888 -0.31304547 -0.06154739 -0.0026591397 0.13404857 -0.2050588 -0.087262005 -0.059870105 0.9404952 0.54633474 -0.008192873 -0.164725 -0.19007713 -0.10261449 -0.18805926 -0.313872 0.6557638 -0.26725072 -0.2784857 0.4281008 -0.49129903 -0.37435532 0.077597864 -0.6187977 -0.31545296 -0.035505854 0.8397608 -0.06907312 0.083260104 0.26810342 -0.36270273 0.5883439 0.19168374 0.66433823 -0.25770405 -0.1510181 0.32476428 0.14401394 -0.26831096 -0.023347327 -0.28298113 -0.08214576 0.44570994 -0.13393883 0.40121242 -0.2574477 -0.27961275 -0.05025331 -0.05731411 -0.35222206 -0.4458365 0.2904982 0.08523086 0.112138085 -0.654584 -0.10307859 -0.09066681 0.07584879 0.3108285 -0.14174707 -0.12928839 -0.45821446 -0.39736244 0.030883405 -0.0782073 -0.22486536 0.28100252 0.030596314 -0.8768145 -0.042563256 0.12663816 0.009709038 -0.05489108 -0.09263581 0.1447754 0.0763727 -0.2611995 0.25389543 0.09418034 -0.7672656 0.17736018 0.20102765 -0.08210709 -0.22469053 0.071518816 0.2878445 -0.24424076 0.5847996 0.5767914 -0.057849724 0.26380104 0.0036107544 0.2068205 -0.019284973 0.6065324 0.24195412 0.065224074 -0.42526692 -0.1483084 0.36042342
C1QA 0.032424916 0.17715114 -0.020817613 0.034591094 0.08982372 0.092281885 0.008019243 -0.07394462 0.041820947 -0.06997022 0.15295382 0.054764826 -0.07219815 -0.105540924 0.06957933 0.10524901 0.085137 -0.07448895 -0.10031757 0.13765073 -0.07775874 -0.08583666 0.018005904 -0.014995182 0.07929638 -0.12472431 -0.17268303 0.13543634 -0.038027905 -0.04812175 -0.0027022832 0.061531886 0.09645749 -0.08546245 -0.018440235 0.044276137 0.030697724 -0.14257227 0.04278155 -0.004287609 -0.14998701 -0.033247016 0.0019927367 0.0239228 0.05126553 -0.087398365 0.053677466 0.07638462 0.11771599 0.018090025 0.020041721 -0.1090447 0.08651212 -0.19970557 -0.37050286 -0.04486707 -0.040145524 -0.17503627 -0.052813396 -0.042718396 0.11036864 -0.15419799 -0.034784418 0.030979982 -0.01365443 -0.2642527 0.15698496 0.0650231 0.076484315 -0.10207951 -0.08533757 0.16038525 0.05838392 -0.079724856 -0.0030607986 0.11219439 -0.06422271 -0.10897336 -0.17038569 0.013361733 -0.30227822 -0.023537342 -0.17132114 0.051127568 -0.13293034 0.06627843 0.0021601452 -0.028066613 0.123425566 -0.10023904 -0.2202019 0.23850116 0.15038566 0.05259895 0.28120068 0.24228777 0.13542081 -0.28185073 -0.023338601 0.014558477
C1QB 0.12039627 0.04157925 -0.018165926 0.17242421 0.10352089 0.105753146 0.06158088 -0.0017882034 0.0528938 -0.028180696 0.018116096 0.06962445 -0.03293685 -0.13980682 -0.014574805 -0.034277614 0.053361483 -0.00516346 -0.057793807 -0.1255878 0.102628335 -0.05956228 -0.042839 -0.04887513 0.13253953 0.035735656 -0.17112093 0.05457631 0.06314901 0.044491597 -0.14058532 0.051518306 0.0711033 -0.06183295 0.022497054 0.17114271 -0.020748733 -0.12266955 0.12328572 0.116768986 -0.005603566 -0.091146655 -0.048932128 -0.085020535 0.08147759 -0.09922002 0.1260641 0.010856945 0.09408097 -0.051098794 -0.061778903 -0.11678105 -0.018707328 -0.046243846 -0.09853351 0.02641896 -0.106298104 -0.16314803 0.04313038 0.10281504 -0.00086116313 -0.05866021 -0.046286665 0.07370614 -0.12015427 -0.039365903 -0.039617807 -0.055289447 0.06681449 -0.053057577 -0.10390665 0.06908637 0.00409144 -0.044941865 0.09703443 0.081296735 0.17457551 -0.075228274 -0.08346856 -0.06300702 -0.15181719 -0.12628554 -0.07959289 0.13051277 0.14748874 0.09774977 -0.13980465 -0.107414596 0.104744636 0.055437393 -0.06165738 0.14791463 0.13150309 -0.10434843 0.028461797 0.25599912 -0.0848542 -0.03910277 0.075845264 -0.039767925
C1QC 0.046128992 0.27105507 -0.066231824 -0.21986793 0.21976574 0.02141278 -0.18877065 -0.20095748 -0.011048435 0.0862014 0.04084438 0.008502357 0.044922337 -0.21391767 -0.046669308 0.019281004 -0.0043792087 0.09937245 -0.029014993 -0.0010125256 -0.08079489 -0.06402952 -0.025000412 -0.028185122 0.0036384014 -0.1270295 -0.042522732 0.029078998 0.07455046 0.01927026 0.047634788 0.046827834 0.00834627 -0.14438885 0.043958254 0.019732086 0.08329233 -0.1167458 0.22351702 -0.04275668 -0.1938732 0.09323392 -0.1485916 0.16597427 -0.137604 -0.15371096 0.035152044 0.1844468 0.10880525 -0.14725561 -0.07003523 -0.12610433 0.0044908775 -0.10012356 -0.3058796 -0.022906927 -0.12864475 -0.07472609 -0.059753496 0.03834591 0.085990265 -0.123803094 -0.11982166 -0.019246804 0.09845316 -0.1046381 0.062402543 0.17155948 0.052598156 -0.115029074 -0.19609399 0.09554927 0.07103394 -0.009758074 -0.091542415 0.06980616 -0.031080944 -0.098945215 0.05219011 0.15565024 -0.1250697 -0.17124921 -0.115704075 0.11266947 -0.08847672 -0.008828737 -0.02960545 -0.13773745 0.08168822 -0.18080358 -0.31665197 0.035975397 0.022922358 -0.054818735 0.091510706 0.15589185 0.16532493 -0.17137404 -0.07364226 -0.045741837
C3 0.35471243 0.32266128 -0.33374435 -0.22351839 0.22146446 0.8703142 -0.23033096 -0.21678206 0.15674235 0.04519536 -0.16931204 -0.14330886 0.22183594 -0.4785855 0.12747973 -0.12841235 0.58586496 0.47479177 -0.24515033 0.0264651 0.036289398 -0.237937 0.10563246 -0.6251079 -0.17078541 0.21143384 0.41724855 -0.08447256 -0.11607309 0.72715604 0.2092548 0.6972326 -0.23114996 0.026354348 0.5399872 0.30832276 0.23111771 0.722577 0.22467877 -0.17323236 -0.56214434 -0.21982497 0.23960036 -0.058438726 -0.20827712 0.052417565 0.08252327 0.08472799 -0.40142182 -0.21300681 -0.13658123 -0.085838564 -0.39902464 -0.14535724 -0.23647292 0.17356773 -0.14665414 0.36813232 0.31590587 -0.3256632 0.39998457 0.18943349 -0.48293206 -0.16128458 -0.14292935 -0.5095539 0.13138832 -0.27153128 -0.042320434 0.06642876 0.16813053 0.4751583 0.015902549 -0.45148036 -0.103728846 0.30421814 -0.83010983 -0.2796508 -0.25427938 -0.33180854 0.025553344 0.20653382 -0.4905615 -0.028447531 -0.44438514 0.04513549 -0.12992285 0.2854399 0.24676637 -0.3674153 -0.865064 0.042261615 0.10236676 -0.029828466 -0.40175664 -0.05865859 -0.30023697 -0.70130134 0.18483607 0.24882405
C5AR1 -0.027742153 -0.12522173 0.016542846 0.006010267 -0.368719 0.21974687 0.30152062 -0.15407735 0.29972425 0.28725618 0.19971673 0.047128234 0.43237832 0.509395 0.54950917 -0.30089396 0.20047314 0.29369217 -0.097937614 0.44271478 0.16294472 0.34882152 0.07027041 0.016494216 -0.5908524 -0.20751329 0.35808182 -0.093084835 -0.13575995 -0.18370399 0.19910601 0.22366798 0.05602158 -0.079058945 0.020478835 -0.45136556 0.28366435 -0.07868091 -0.18358049 -0.5235516 -0.12682584 0.13433777 0.44845262 -0.68972576 -0.31058884 -0.31731743 -0.38173336 -0.0733247 0.028140102 -0.18822725 -0.42250445 -0.20152397 -0.4140067 0.29129273 -0.16440995 0.08777739 -0.18458286 0.29621485 0.38327634 0.128311 -0.29832608 0.17149413 0.22670528 0.28057098 0.1468366 -0.61430264 0.81302035 -0.2221434 -0.14838369 -0.015721878 0.4519888 0.29255742 -0.2140507 -0.45001808 0.36429372 0.33364013 -0.13272762 -0.05955589 -0.019736346 0.14897929 -0.23693721 0.015736386 0.246733 -0.11104038 0.22985741 0.058051024 -0.22974038 0.544941 -0.044951867 0.4228611 0.054883473 0.38755843 0.28395307 0.27566174 -0.07618735 -0.04256844 0.25519148 -0.27960974 0.23000982 0.38162646
CA2 0.06865179 0.0029717702 0.029851899 0.15081057 -0.22950429 -0.31244192 0.11780371 -0.20427348 -0.28908786 0.54183924 -0.19000043 -0.013089595 0.28659096 0.48130822 0.29593366 -0.22665372 -0.35419628 0.95528024 0.34486565 -0.21063389 0.13852619 -0.15974829 -0.14701365 0.1477836 -0.07803718 -0.23997225 -0.2511023 -0.26597348 0.017386949 -0.1564738 0.35500264 0.29491785 -0.095115975 -0.11655901 -0.21610011 -0.3088182 0.53039956 -0.08712564 0.14307122 -0.62504226 -0.3630272 -0.15628505 -0.048349924 -0.12886599 -0.047258012 -0.0072652726 -0.07200866 -0.11106802 0.23766777 0.13739827 0.1387535 -0.19922204 -0.08844173 0.31002682 -0.054858763 0.12375494 -0.24116193 0.1729918 0.47879276 0.07790311 -0.13772352 -0.057555813 -0.22284064 -0.18117733 -0.13965589 -0.05905883 0.0600837 0.0502303 -0.06986598 0.12732127 -0.037198395 -0.4694781 -0.371481 -0.36609784 -0.05054664 -0.09252335 -0.22075987 -0.16110708 0.7187753 -0.09495461 -0.21966492 0.26546997 -0.18547249 0.013622459 0.19218934 0.6317049 -0.25485867 0.029061472 -0.17933536 0.096699536 -0.07548335 0.082784645 -0.2537303 -0.41548187 -0.5251258 0.044116426 0.10346615 -0.6251117 0.63447785 0.33055982
CADM1 -0.28743142 -0.036727324 -0.12897769 -0.18609484 0.044904232 0.31465605 -0.18532012 -0.062330633 0.21065365 0.38746914 -0.07654717 -0.075238235 -0.22677124 -0.026906362 -0.23257862 0.26023117 -0.0062450166 0.4473845 0.19597308 0.06052832 -0.16296147 0.20476088 0.16582792 0.3265063 -0.22888255 -0.2057392 0.34039158 0.3157282 0.21223935 0.19503385 -0.088700645 -0.22781071 0.20326725 0.005929375 0.26256007 0.21186797 -0.06610941 -0.17589144 -0.05233191 -0.15666181 -0.2229532 -0.12725952 -0.07591155 -0.31427205 -0.23461096 0.26478705 -0.19063617 0.18606836 -0.17609274 0.17756128 -0.62800014 -0.025468975 -0.45296687 -0.22516082 -0.26759624 0.05307606 0.13049002 -0.2299219 -0.46014383 0.21614136 0.23261087 0.100007676 0.61950254 -0.07638102 -0.013089768 -0.48174635 0.20778655 -0.12201514 -0.014584087 -0.31226155 0.25698152 0.013023995 0.25832477 -0.18531357 0.082734525 -0.04983193 -0.09166763 -0.0323001 -0.056357224 -0.24417455 -0.42631692 -0.060092006 0.12360818 -0.3310809 0.14946741 0.10435032 -0.21534769 0.7549652 0.14480838 0.27304864 0.44950032 0.18029906 0.17471687 0.4529161 0.18040244 0.19226253 -0.35839894 -0.23401187 0.26608798 -0.10188017
CAMK4 0.69312656 -0.022919547 -0.36238393 -0.24875596 -0.16287729 0.3730932 -0.7361898 -0.64139616 0.3412959 -0.19127195 -0.07091879 -1.3911827 0.73034173 -0.49605924 -0.56713736 -0.3533879 0.7552264 0.63167584 -0.06356663 -0.37174758 -0.8561424 -0.65752476 -0.7848705 0.31149307 0.41856062 -0.24906626 -0.34993187 0.5572491 0.93538594 0.7376958 -0.9077879 -0.09525299 0.09171032 0.15355633 -0.15978281 1.035154 -0.704689 0.1435039 0.028901506 0.16330941 -0.88548803 -0.38023782 -0.46829998 0.5438335 -0.43324795 -0.27439764 0.21598494 0.10963806 -0.43858624 0.5126118 0.33864236 0.39564472 -0.4470128 -0.033723086 -0.16809832 0.013174144 -0.34332442 -0.097674675 0.1739294 0.17050605 -0.29731348 1.0015669 -0.004873981 0.36151606 0.40236533 -0.045266066 0.20652613 0.5217911 -0.02098431 -0.6140973 0.18179084 -0.6705572 0.0928541 -0.66892016 -0.40291992 0.09682392 0.48615882 0.37188104 0.17688046 0.06116227 0.39759016 0.1818303 -0.07787676 0.14822392 0.14404061 0.015880108 0.24067584 0.57742196 -0.071535096 0.5270653 0.7768024 0.10518995 -0.4230723 0.11440107 -0.56227916 -0.30061668 0.66347337 0.14454994 0.51678616 0.30896756
CAPG 0.005534487 0.4328098 0.090538464 0.35109064 0.36083764 0.15435947 -0.32248005 -0.2271404 0.16260274 -0.1604392 -0.1416803 -0.11603591 -0.002259938 0.09984196 -0.052992556 -0.20504917 -0.008996262 0.29090753 -0.098102726 -0.05191741 -0.11404598 0.14355445 -0.047077168 -0.4513755 0.015207394 -0.21001722 -0.011895845 0.307616 -0.07682069 0.007092279 -0.2837701 0.4176211 -0.20156637 -0.1848925 0.37964496 -0.1852427 0.20807019 -0.43242168 -0.06706141 -0.14847931 -0.3779458 0.14738499 -0.013621693 -0.5143991 -0.26270443 0.14329627 -0.4981065 0.43550232 0.024619168 -0.3372163 -0.38244328 -0.36845854 -0.10136358 -0.33665517 -1.1150074 0.21799314 0.09270882 -0.314315 0.18693808 0.18826115 -0.068296276 -0.5172155 0.00973674 0.2692463 0.10588009 -0.71150655 0.51367205 0.24327233 0.5670043 -0.03230122 -0.43143263 0.39914963 -0.09904082 -0.39450085 0.04695879 0.21299763 -0.13542862 -0.007079852 0.16341186 0.08491907 -0.10521212 0.101047486 -0.045083597 0.10553193 0.041842613 -0.0892741 0.05652138 -0.021912718 0.37668395 0.110502996 -0.46252954 0.058242667 -0.04453848 0.104850866 0.38439482 0.15859888 0.40966776 -0.5032924 0.3143865 -0.012190162
CAV1 0.05194094 0.43847853 -0.1489371 0.2810757 0.19236721 0.13097991 -0.010240882 0.13134189 0.35287803 -0.18557064 -0.18330652 0.17803206 0.32557297 -0.10184892 -0.09230055 -0.037184633 0.008519355 0.048791427 -0.4299227 0.14695035 -0.26233995 0.2701816 -0.229487 -0.5089944 -0.068267584 -0.1875885 -0.1387949 -0.3585119 -0.025782943 0.60412216 0.21982814 -0.03213695 -0.4746684 -0.09094037 0.5544548 -0.32337716 0.08147838 -0.31186023 -0.41816267 -0.07497813 -0.33885908 -0.11236277 0.39354175 0.430901 -0.1873712 -0.20553268 -0.2903392 -0.24284217 -0.570948 0.209609 -0.06780246 -0.15969846 -0.23560934 -0.29673192 -0.24491839 -0.22272174 0.21831624 0.05752412 -0.16492489 0.18774736 -0.07865583 -0.13721733 0.0124511225 0.16901898 -0.1951103 -0.22531725 0.08254881 -0.3019469 0.25095856 0.20844315 0.30524364 0.17792797 -0.36916623 -0.05010692 0.29572555 0.15574156 -0.22761051 0.05324942 -0.9416713 -0.31999075 -0.13144629 0.33842233 -0.2562432 -0.087086074 -0.17287044 0.020435879 -0.36117035 -0.23858689 -0.049039863 -0.37030426 -0.097513184 0.21002214 0.008637229 -0.09881997 -0.3885298 0.18223903 0.059482314 -0.61203367 0.07879848 0.106385574
CCL13 0.29803312 -0.59799683 -0.11805445 0.40257853 -0.022665123 -0.2905966 0.005039724 0.14345552 0.16668244 0.027237201 0.011219385 0.27807963 -0.030799542 0.116651565 -0.099633776 0.029778147 -0.16816421 -0.1738662 -0.109061725 -0.27779567 -0.21053836 -0.11400186 0.16291341 0.1075785 0.4409427 0.00892533 -0.16302536 0.0170446 -0.4646872 -0.040614787 -0.12704134 -0.11611012 0.076958366 -0.44360024 -0.2923499 0.18447353 0.17406486 0.0024126393 -0.08668774 -0.27374962 -0.24353774 -0.31939477 -0.38244277 -0.26002702 0.09170849 0.100067794 0.28335556 -0.22406213 0.016934369 0.24894446 0.079988584 0.04693616 -0.16660145 -0.1300445 -0.41020975 0.06893933 0.05517534 -0.037171192 0.07150516 0.019100161 -0.33994612 -0.33607084 -0.023576986 0.3089971 -0.29332858 0.23720211 -0.06576396 -0.1554222 0.122921556 -0.2192307 -0.12698555 -0.13618892 -0.05231835 0.036355704 0.0059378888 -0.12784135 0.016660217 0.10249626 0.43980372 -0.067161486 -0.055964958 -0.013354551 0.08261721 0.068829656 0.0067725424 0.22295597 -0.17314756 -0.03818397 -0.17801797 0.04432558 0.0336624 0.27425364 0.20286763 -0.14300762 0.03279592 0.37727627 -0.16365404 0.0509438 0.23523809 0.14488932
CCL17 0.22720315 -0.004650396 -0.051112916 -0.092292 0.095153734 -0.02933139 0.39002594 -0.20853183 -0.16236603 0.20855147 -0.35704562 0.17250896 0.23636802 -0.2089058 0.0536386 0.1676661 0.31663147 -0.20103037 -0.07540774 -0.13160433 -0.07861165 -0.31104156 -0.14314498 -0.14407897 0.14328922 0.062392756 -0.04081025 -0.090540506 0.0016793224 0.06942087 0.27755898 0.32444462 -0.10477565 0.11570756 0.015970519 -0.004460591 0.08277422 0.10962948 -0.068712376 0.18229659 0.040667597 -0.23615123 -0.072114795 0.13298135 0.14883788 0.15136585 0.11435133 0.19021772 0.04377106 -0.049534794 0.16290803 0.05623719 -0.16430055 -0.01427372 0.0586685 -0.018719157 -0.28143957 0.05623631 0.23015124 0.1462222 0.02843738 0.094484 -0.26155677 -0.14308023 -0.012624711 0.20850076 -0.05003292 -0.00022226246 0.13758224 -0.01835009 -0.16222553 -0.36497968 0.018530132 -0.15449898 0.22399083 -0.04808113 0.02509156 -0.1096496 0.06996977 -0.020714894 -0.02921394 -0.016498609 -0.10525526 0.07168311 0.15535712 0.15779996 -0.19691077 -0.15551662 -0.08511856 0.033549365 -0.30781755 -0.11420824 -0.03982417 0.05512759 -0.039914053 0.22880782 -0.14944774 -0.11258473 0.014949445 -0.11580138
CCL18 0.16005151 -0.1352785 -0.025014203 0.093315266 -0.274521 0.06596456 0.24838986 -0.09094273 0.18330507 -0.09169121 0.015968354 -0.06771139 0.13710321 0.23211774 -0.0075079096 -0.13943474 0.19608551 -0.10620857 -0.008784462 -0.25531486 0.25140736 0.036932513 -0.09449963 0.0622077 0.07850494 0.28753754 -0.07943972 -0.108823694 0.02395734 0.0075326287 -0.21099788 -0.017297192 0.18707938 0.111449875 0.06061399 -0.19918264 0.063715026 0.10593954 -0.14577512 -0.00025634386 0.052402228 -0.2468465 0.09434857 -0.14959946 0.04879733 -0.21397318 -0.06050638 -0.08626503 -0.017470118 0.22926766 -0.101570286 -0.117345296 -0.1846908 -0.063516244 0.16613811 -0.13953978 -0.12158097 0.07445397 0.10385568 -0.1393495 -0.10073732 0.27020958 -0.033549346 -0.1417335 -0.03030751 0.16624808 -0.20141302 -0.10490658 -0.21985984 0.047772832 -0.114824325 -0.16236567 0.046405938 0.1697788 0.1951692 0.023293167 0.20089756 -0.05324063 0.010037915 0.08387604 0.080120854 0.07367493 0.2593832 0.06328285 0.29395244 0.1311464 -0.13623455 0.06166765 -0.25988987 0.018445974 0.29268 -0.009685639 0.115192354 -0.110740505 -0.16928421 -0.109313585 -0.19606183 0.16926117 0.04978272 0.006126891
CCL19 0.012504702 0.16645366 -0.32747552 0.085718594 -0.25425485 0.23064426 0.41713086 0.243408 -0.309673 -0.47021633 0.5775351 -0.15015206 0.07575746 -0.16746031 -0.11336881 -0.02055066 0.3363905 -0.46952048 -0.20986949 0.10430827 0.42002591 -0.568088 -0.07799727 -0.19287294 0.12386167 0.01598132 0.695024 0.16596425 -0.056914795 -0.27492774 0.18665038 0.27591166 -0.11604824 0.28381708 0.24089772 0.060044006 0.08116616 0.49563438 0.13955916 -0.101766594 -0.30418673 -0.22495414 -0.11252507 0.263469 0.49908173 -0.067327455 0.11264229 -0.24646662 0.22440028 -0.0037676955 0.3992766 -0.077748165 0.066245556 -0.4624975 -0.3478454 0.20464142 -0.062714234 0.36618406 0.15618193 -0.3501013 0.51125884 0.116583616 -0.23121062 -0.15376921 0.00030716544 -0.13977896 0.06988207 -0.028375573 -0.074578665 0.14540659 -0.30385348 0.16112156 0.12193945 0.56051093 0.16411868 0.21591902 -0.24236785 0.24560615 0.40600553 -0.12634063 0.18198028 0.24918047 -0.27620932 -0.2650115 -0.21042837 -0.013086835 0.014843938 0.10020772 -0.56348175 -0.011028684 -0.18022656 0.12707014 -0.5494026 -0.45661062 0.20975836 -0.3100545 0.009031376 -0.29317275 0.041541796 0.0977546
CCL2 -0.11600389 0.38936052 -0.37363735 0.048039183 -0.021128228 0.5686783 -0.35282663 0.46379533 -0.5886058 0.043374866 0.3370893 -0.31324834 0.47128248 0.4394859 0.19358432 0.24364358 0.50358504 0.27575576 0.25704795 -0.39351454 0.72184 0.089223966 -0.8324488 -0.35555977 0.38860545 0.24116428 0.35702023 -0.040092807 0.36154506 0.53872335 -0.19900398 -0.4630743 0.059686214 0.47320673 0.75751376 0.08868136 0.056887936 0.022143472 -0.04834676 0.54694635 -0.11622146 -0.22731343 0.05437069 0.2546373 0.1760979 -0.015312494 -0.12158422 -0.4916586 0.10865054 -0.1663582 -0.0046472643 -0.27768448 -0.5706684 -0.60011345 0.19760126 0.50566745 0.41392225 0.12529688 -0.31866 0.09391842 0.075893976 0.28075334 -0.21687576 0.03869229 -0.45721114 0.22266087 -0.45307538 -0.13967855 -0.15422845 0.114659354 0.35139436 -0.34398848 -0.038047887 -0.083201066 0.11645181 0.5304275 -0.31704047 0.02350155 -0.40366727 0.3053537 0.21796693 0.251789 -0.035715695 0.4069595 0.13964806 -0.11359923 -0.3707419 -0.08172282 -0.34762785 0.23482117 -0.32874852 0.27143157 -0.2843464 -0.42912906 -0.7229761 -0.19814004 0.77462125 0.10687731 -0.5029582 -0.192662
