2000 100
SAMD11 -0.45285362 0.015243019999999996 0.237417755 -0.7231715350000001 -0.663744925 0.8388144949999999 0.487529435 -0.12455664749999999 0.323600205 -0.0734968215 -0.04971387000000005 -0.19063391500000001 -0.020812774999999978 -0.265582725 -0.120864375 1.3465593 0.047071010000000024 0.22799270900000002 -0.589065955 0.48070492500000006 0.6743680000000001 -0.170969325 -0.35930234 0.11447626999999999 -0.1460710995 0.227837675 0.802252505 0.325395875 0.041099549999999985 0.65727375 0.028596129999999997 -0.41141644 0.20481385000000002 -0.20357009 0.48672607900000003 0.316071775 0.39162853 -0.012956215000000021 0.49682817500000004 -0.29902824650000004 0.8718557800000001 0.45922452 0.25520190499999995 -0.8153483 0.271118732 -0.31166311999999996 -0.49610859 0.440216085 -0.4505198 0.25170724999999994 0.12068210300000001 -0.38788369999999994 0.6388436 -0.038661575000000004 -0.23125618 -0.03496246 -0.06756725499999996 0.8768525 -0.21629771000000003 0.435820368 -0.64929975 -0.42516881500000003 -0.7853607 0.18751315 -0.2853742 0.16880077 -0.20433741499999997 0.33242617499999993 -0.294306128 -0.5440216275 0.23256256999999997 0.175515935 -0.355005485 -0.069608575 -0.657279425 -0.711932775 -0.253945545 -0.504285465 0.28645361999999996 0.7301908 -0.6149544250000001 0.11074998 -0.22483955 0.445231755 -0.29503261999999997 -0.39166854500000003 0.008803969999999994 0.591295465 -0.39051590999999997 0.2228174735 0.52525486 -0.62245662 0.8631107 0.7734890400000001 0.03703733499999995 -0.16707589 -0.57753557 -0.006777840000000007 -0.8445524765 -0.568460175
HES4 -0.18153211500000002 -0.514146535 0.466742975 -1.3888517999999999 -0.723255515 0.71818593 -0.7999006500000001 0.6759305250000001 -0.04798316999999999 -0.22233080000000002 0.062669035 -0.4259238485 0.396139225 -1.3988904300000002 -0.60239357 1.1806850500000001 -0.21241949999999998 0.31573375800000003 -1.0980219500000001 0.564516735 0.27785658999999996 0.10788124699999999 -0.59369916 0.2141250825 -1.3197717500000001 -1.0806213 0.051024055145 -0.104534477 0.37455539000000004 0.033447444999999965 -0.06400197999999999 -0.649180675 -0.57843942 -0.978290125 0.24018411 0.99532878 0.3483320325 -0.5691132799999999 -0.01637222499999999 0.47145555 0.081087935 0.51101083 0.06755148999999999 -0.6292749759999999 1.10768508 -1.5217928 -1.0521744 0.8310984800000001 0.37559178000000004 0.369432535 1.41715335 0.255782125 0.9332721799999999 -0.23888813000000003 0.395619375 0.11099693499999999 -0.423571915 0.24565265000000003 -0.41856846000000003 -0.27282136500000004 -0.2204494 0.1891110665 -0.18306850000000002 -0.59565877 -0.00035197000000003476 -0.262052318 -0.83469975 0.13160262500000003 -0.9218707749999999 -0.19372343999999997 -0.5970772514999999 0.141169382 0.30463911499999996 0.6073089 0.6169359999999999 -0.03277630000000009 0.928728 -0.602669685 -0.3956844065 0.39304661999999996 0.59221967 -0.1925174425 1.2624091 0.9831411699999999 -0.413913025 0.26403914999999994 -0.12195492 -0.43506672 -0.84214753 -0.151806915 -0.727907705 -0.30249436 -0.11072361300000001 0.341050745 -0.762495555 0.2177268 -0.016247850000000008 0.6552375500000001 -0.6846047150000001 0.5393035749999999
ISG15 -0.06437599999999999 0.47658923000000003 0.00868795 0.2517628775 0.346390755 0.1543444325 -0.16604363349999998 -0.3367153925 -0.25915183500000005 0.36590771 0.2894832 0.44992536 -0.572270533 0.40409494999999995 -0.6262911250000001 0.80275805 -0.1108274625 0.39986365 -0.68390428 -0.10462772000000001 -0.04463871 0.20828246 0.32700587000000003 0.2816980665 -0.9660596499999999 -0.30264499 -0.042589950000000015 -0.1429749185 -0.50644325 -0.033601805 0.93292978 0.20409949500000002 -0.146161607 0.069618 -0.62824719 0.458506725 -0.621614535 -0.3887111165 0.17582123 -0.29333670500000003 0.7658114149999999 -0.27651614 -0.33547195999999996 -0.33230385 0.752670575 -0.24751137 -0.4352612325 0.836563 0.26092550000000003 -0.03298675499999999 -0.643619905 -0.6393888449999999 0.4388569 -0.20128916 0.02524769499999996 -0.22577901499999997 -0.92998655 0.382548965 -1.062501215 0.19162248000000004 0.79791505 -1.09148897 -0.17702338 0.03476292 0.32173811 1.17552175 -0.49515175 -0.30719765 -1.0971004 -0.969236185 0.62278431 0.43645824499999997 -0.12999202 0.12050192900000001 0.6824084 0.89782648 -0.7201877 -1.0917624000000001 -0.811435485 0.460936687 0.42214389999999996 0.1632330475 1.1583774 0.08698665800000001 -0.16913442500000003 0.02983589999999997 0.0048707719999999954 -0.020735453 -0.04197189500000001 -0.09988607 0.71009859 -0.472017675 -0.29591101000000003 0.088979445 0.4275537075 -0.27601587499999997 -0.34378728 0.12284812 -0.39499896 0.5172262
LINC01345 3.9330536 4.2666058499999995 -3.23831475 -2.9592820499999997 2.4485117 2.93142475 -4.99493955 -0.0211924 -5.66739435 -1.3805751499999999 -6.4890170000000005 0.8480207 -0.6859287000000001 -0.932866955 0.670771865 -1.3948568 -0.8240207500000001 9.051518999999999 -1.5528757999999998 -4.0245223 3.6317847 2.4917196699999997 -3.40510955 -5.4106080500000004 -4.7237428 -1.504326725 -2.92709975 4.6583164 -0.6469718 -2.4224206500000003 1.9433053219999998 0.29161610000000004 0.7901953500000001 0.015864414999999965 3.9146533000000003 -6.03834885 -2.9041146500000004 2.5472631 1.13446415 4.0972265 -1.42945045 0.7704567 3.0986658 -3.7406255 4.23009945 -4.17146965 -3.1329827 3.5166839000000003 0.8668967249999999 1.4952887000000001 2.6862744 -0.34001353500000003 4.77103495 -0.9750375 1.20741974 5.156261349999999 2.553956 -0.11813192 -1.8782409 -0.25309735 -2.033446975 3.7201878 -3.17158655 -1.15644495 3.24141455 7.85392865 -0.5194262000000001 0.39195250000000004 -4.9910225 -2.9343320999999998 -2.9641384 1.8785256000000001 1.5384012500000002 5.4799514 2.2306775 4.4144763000000005 2.56904645 -1.15143147 -2.50069805 0.41535485000000005 -1.66238383 -3.52118205 3.4316547 5.5628249499999995 -5.5885795 0.739793915 -6.34196045 -3.4296819000000003 4.16026425 2.38572345 0.7615618500000001 7.8140137 2.47367845 -1.632135635 -1.70411498 0.34120195 2.1011100000000003 -4.5714472 -3.8752197500000003 -5.414487
LINC01672 -0.21747444500000002 0.203803115 0.031053700000000004 -0.20042270499999998 0.196287797 0.371324993 0.377923225 -0.40270784000000004 0.333582595 0.0551054495 -0.044453745 0.44546359 0.20190217 0.220827349 0.090070885 0.158969745 -0.321198565 0.0048003999999999825 -0.09152063499999999 -0.150035925 0.17176772499999998 -0.24772735 -0.2876594825 -0.22977596099999997 -0.15773056 -0.27483630000000003 -0.058097705 0.11136040000000001 0.49921139000000003 0.54769601 0.36346567 0.08220751 0.019967175000000004 -0.061002637 0.2902280425 0.22507753 -0.47711137 0.2604088785 0.53971554 0.316561985 0.306085975 -0.10797387500000001 -0.147246005 0.020213294 -0.123182355 0.1733795015 -0.014418719999999996 0.209354663 -0.1540067215 0.161732612 0.20018517 -0.16262706999999998 0.25517769 0.6230709249999999 0.232233095 -0.39960517 -0.31453226 0.122347295 -0.307440265 0.1310021675 -0.19531875000000004 -0.03152025 0.25490802 0.006453454999999997 0.24526376500000002 -0.40237700499999995 -0.318306745 0.22111848 -0.13449387999999998 0.179749675 0.32888756199999997 0.28778728 -0.12932341249999998 -0.06419893000000002 -0.040602335 -0.099797051 0.20286360999999997 0.03634774799999999 0.225433085 -0.32914958 -0.08629434750000001 0.154829318 0.1860166325 0.4179119815 0.200361915 0.054687658800000004 -0.0699749 -0.187404445 0.23557746999999998 -0.2980410275 0.1892989985 0.016118150500000004 0.34608828750000004 -0.05695578500000001 -0.275045195 0.175715505 -0.08640309000000002 -0.296516995 -0.154101345 0.069563585
UTS2 -2.3869091 0.4425232625 0.014799349999999989 -1.5120506 -0.58270455 0.8382083 2.1034159 2.5392163 1.4930051500000001 1.167153775 -1.63028935 1.4017279 1.45508377 -0.504184365 -1.3772699849999999 2.49810075 0.666126325 0.6654518215 -0.882504265 0.62529578 0.013955209999999996 0.32539545 0.5521594 -0.40373414999999996 -0.34471052999999996 -1.37026245 -0.17598170000000002 -0.037226499999999996 1.86321526 0.6911425250000001 2.022098293 -0.08457228 -0.37501680000000004 0.6324768 -0.1653638085 0.008572890000000014 0.72608995 -1.417825775 -0.7940480499999999 2.134208 1.21259582 1.55199368 0.345856915 -0.606391675 1.0960357 -0.69582744 0.03271342499999999 1.50503095 -0.04064451499999999 -1.5996953500000002 2.1232594 1.37744745 0.7006579999999999 0.51554335 1.534565 0.089392316 -0.81278402 -0.290177725 0.06690083500000002 -0.5832014600000001 1.2189150100000001 -0.24371540000000014 0.35947108 1.72953665 0.72301919 2.0089417 0.5378063 1.6173012999999998 -1.25899355 -1.1555081500000002 -1.211180275 0.85189355 0.16123165 0.51638842 0.93244768 -0.58097898 1.298824185 -1.7652527 1.5668958 -0.35275749999999984 -0.6179218 -0.054031525 2.7249556000000004 1.22002465 0.45728481499999996 -0.7157403499999999 0.03502287500000001 -0.08699949499999998 0.7947775800000001 -0.57722248 -0.162761267 -0.591711805 -0.34662565 -0.04249839999999999 -1.7904651 -0.973768975 0.28821467 0.20946019999999999 1.4485318999999999 0.12001519000000001
TNFRSF9 0.13171865 -1.4599711 0.675115275 -0.05804052000000001 0.341519185 0.60057067 0.598692625 -1.36098265 1.8937477699999998 1.01516995 -1.0166191 -0.51200298 0.84425146 -0.4538162 -1.096968825 1.63719505 1.20919292 0.4061997475 -1.9029905 -1.0281106 1.5026011000000001 1.1999840499999999 0.001660525500000001 0.25151685 -0.43069198499999994 -0.38765783 1.291589275 -0.74599987 1.2877293150000002 1.0491228750000001 0.69110027 -0.13502692500000002 0.2156632075 -1.14243297 0.819981265 -1.2265789 0.22075124999999995 0.184472571 -0.08494472499999994 0.27319071500000003 2.45230765 0.07973074999999996 -0.41282163000000005 -0.54233115 1.1792137999999999 1.8620173 -0.171954945 1.6517123 -1.41499777 -0.98143285 0.670999225 0.8958244399999999 1.0394123999999998 0.483026285 -0.07423721500000002 0.142284183 1.21163425 0.914822885 0.78040025 -1.9012156999999998 0.8140130499999999 -0.64703901 -1.44665117 -0.5296312165 -0.4079190466 -1.04123473 0.39742732499999994 0.69318015 -2.1607598 -0.67417468 -1.69838955 1.4609866 0.8119636 -0.04037021 -0.20383815000000002 0.46344835 0.279515275 0.4112085575 -1.1761886000000001 -1.7096011999999998 0.4526286500000001 -0.895560615 1.69967665 0.68826044 -1.00324845 -3.2774200999999996 0.406221395 1.198683115 0.987174295 -1.52319235 0.89086825 -0.7310933000000001 -1.1479766 0.47107935000000006 -0.199313322 0.29388055 1.026871475 0.80327285 0.9176453499999999 0.527452465
NMNAT1 0.18311328500000001 0.347808951 0.07270033000000001 0.0006096049999999992 -0.246380335 0.113762249 0.177952815 -0.090907455 0.62429795 -0.015658611 -0.12534517 -0.08594761 -0.16860469649999998 -0.5007581400000001 0.0708695925 0.14723494 -0.191595655 -0.13973972 -0.43359517999999997 -0.17724331 -0.0032726674999999997 -0.23549523 -0.11926086150000001 -0.00886155000000001 -0.1250590485 -0.145149295 0.21105996999999999 0.05966134000000001 0.072014863 -0.019742589499999998 -0.37547152 -0.259237795 -0.047769653999999995 0.30993068999999995 -0.586971865 0.132191508 0.018871438000000004 0.020194085 0.1423179 0.185876825 0.203189715 0.5503237 -0.274908675 -0.372326985 0.052527298 -0.793075025 0.12522793499999998 0.007361488999999999 0.22958526 0.35536222 0.10475500799999998 0.10286781 0.6077829299999999 -0.48025444500000003 0.539135315 -0.11245432600000001 -0.466498497 -0.195893165 -0.11209511999999999 0.0645827385 0.42172195 -0.17253436 0.05966292499999999 0.428619295 -0.388098895 0.056436650000000005 -0.86807283 0.01762807000000001 0.28958355 0.150867715 0.31553091 -0.0803642785 -0.355611225 0.07974031349999999 -0.06824585999999999 -0.23304024 0.03515806999999999 -0.1283045265 0.191430057 0.59094894 -0.279978565 0.13358307249999998 0.47043693500000006 0.04185678000000001 -0.317575685 0.02275228500000001 0.205236442 -0.190706128 0.009243655000000003 0.24705596835 0.33765635 -0.339040595 0.18820777 -0.02749472 0.14405078500000001 0.31862761 -0.12479728300000001 -0.32127842 -0.31468743 0.047892076500000005
ANGPTL7 -2.021128635 1.6576121000000001 -0.943721925 -0.45428969 -0.35987337999999996 1.002091905 2.5903636 -1.312401484 0.976136845 2.02659725 -0.5291353000000001 -0.5186477300000001 0.6125171999999999 -0.747679975 -0.88136648 1.0966147675 -2.1413596 -1.026694815 -1.1870410200000001 -1.2952026449999998 -0.013208349999999999 1.35780485 -2.35514365 -0.15920240000000008 -0.37152885 -2.1239372000000003 1.8026135 1.175605915 1.03762116 -0.47520425 0.7508731 -0.388897037 -0.6673413 1.229399125 -0.18926165 1.47593909 0.1963284 0.22776333000000004 0.79453985 1.62092252 1.4338252 0.7930918 -1.0255559 -2.35313305 0.52449617 0.345951707 0.07776860000000008 0.14782863999999998 0.13038062 0.27485585 0.3093684 0.7423110750000002 2.985009 -0.012763100000000027 1.1772261000000002 -0.9528253150000001 -3.7615518 0.638892435 -0.9597433000000001 0.67514929 -0.952544615 -0.92091245 -0.41641561 0.206556165 -0.60113406 0.7224000700000001 -2.4423236 -0.42035694 -2.3926726499999997 -0.07737514999999995 1.17340767 -0.2592521000000001 -0.7699927 -0.20636219999999994 0.9277077499999999 1.16152938 1.9099312999999998 -0.6989071499999999 -1.1195539289999998 -0.40879126 -0.337791743 0.08435104999999998 2.1429575499999998 0.862796165 0.372741085 -1.9655917 0.266497913 -0.5267222500000001 -0.1455959 0.06409526500000001 0.55904935 -0.40032406 2.5457194000000003 1.80236178 -0.7192015 0.37656435 -0.7762303 1.29894262 -0.55274175 0.32292945000000006
NPPB -2.05353785 0.45121953000000004 -0.3606743025 -1.95414845 -2.104293 1.82640995 -0.812366625 1.14991375 1.952355725 0.616419775 -1.4295422 -0.37842056999999996 1.954329975 -1.32173575 -2.13553565 2.7335805 0.46083922 2.57671525 -0.7100532 -1.045275605 0.622202125 1.057538175 0.4894965 1.37418 -2.7137244000000003 -1.5373755500000001 -3.2665336 1.44151315 2.93581575 0.72014182 2.158671 -1.75362475 0.62454709 -1.95017205 2.7585663499999997 -2.19808155 -0.83316576 -1.406953825 -1.06717366 1.8081637000000002 1.5789322000000001 0.50462629 -2.0762243 -0.0602854275 -0.6384016450000001 -3.08301215 -3.76806195 3.9457643 0.3656517 1.6643773 -0.762257225 1.3432952 1.35078276 -1.49921597 0.38609477 1.93941585 -0.40971044999999995 -2.03327655 0.34226890299999996 -0.6916513099999999 0.2297964 0.20146925000000004 -0.5834254499999999 0.6635665260000001 -0.1696662 -1.7819762 0.42230124 -0.7095783 -1.65919305 -1.3858976 -3.22894065 0.02469378 -0.14943467500000002 2.1350883 0.798015605 -0.026736530000000036 0.011379570000000006 0.79405636 0.6398327500000001 -0.18435781500000004 2.5173272 0.34655121499999997 1.238628525 3.43367565 0.16652710000000004 -2.38193025 -0.4975779 -0.7875605649999999 -0.17499537 -0.53964263 -0.736768335 2.5486157499999997 0.7532279 0.9304011749999999 -3.0693167249999997 0.280548685 1.3752986 0.815636085 2.3047725000000003 0.669463
DHRS3 -0.36668066699999996 -0.283891685 0.430201325 -0.50545438 -0.520728585 0.29878518 0.6388563349999999 -0.18773561500000002 0.29605867 0.14799474 -0.509152185 0.130341285 0.3570046403 -0.401856865 0.08650855499999999 0.09924826000000003 0.30039831 0.7575873150000001 -0.0035909800000000075 -0.17760054 -0.29735937 -0.52315936 0.17562527 0.232191285 -0.42952904999999997 -0.61055452 0.311777955 0.37089421499999997 0.287239835 0.890805925 0.33298972000000004 0.11102644500000002 -0.427476955 0.4737575585 -0.274896665 0.33885661 0.160943108 -0.265536285 -0.447211355 0.6607014 0.36255265999999997 0.1027906972 0.09240767 -0.23065826499999997 0.52999971 -0.16734005999999998 -0.050771825 0.55007883 0.486729635 -0.447150615 0.46225216 0.010547325000000003 0.30604367 0.5423345749999999 0.86676585 0.19042235000000002 -0.295542175 -0.19553859 0.042212650000000004 0.082122215 0.1575275655 -0.004730314999999985 -0.1580891205 0.616004625 -0.1776398216 1.0587491 -0.5278879599999999 0.7526262699999999 -0.1178792415 0.27462146 -0.39207095999999997 -0.08123368500000001 -0.078432627 0.29072195500000003 0.406375585 -0.1274123985 0.19631335000000003 -0.54763959 -0.09150260000000002 0.16480585 0.25328506500000003 -0.07692479499999999 0.23101437 0.47822789499999996 0.13234553999999998 -0.333756895 0.09174426 -0.07954252250000002 0.571174325 -0.445275145 0.556853865 -0.231835099 0.278479845 0.17779299999999998 -0.24536354999999999 0.029016105000000014 0.481213895 0.155611285 -0.0040847525 -0.234950135
CELA2B -2.535641885e-20 5.0122217e-20 -1.1085568500000001e-20 -4.710853e-20 8.293988615000001e-20 -2.8100779999999994e-21 3.281218615e-20 3.7864370499999996e-20 -1.79859314e-20 -4.8932111000000003e-20 -3.709513415e-20 -2.70445295e-20 -7.93767423e-20 -5.43984635e-20 6.0052592e-20 -6.5488272e-20 -4.60865715e-20 -3.70235286e-20 -3.385097e-20 -3.61391365e-20 -9.395409e-21 1.176559e-20 -2.1579358e-20 -9.6185925e-21 8.4853672e-20 4.0149060499999997e-20 -6.603824049999999e-20 -2.756597415e-20 -3.83610245e-20 5.0692361999999996e-20 -6.488365e-20 -4.6326037999999997e-20 2.53320635e-20 -5.69601525e-20 -5.2741327e-20 1.051313453e-19 2.8589650500000005e-20 -2.12593135e-20 8.41508413e-20 6.4496803e-20 4.19137745e-20 2.33945355e-20 -1.1881785500000001e-20 -1.266868e-20 3.6043118000000005e-20 -3.1814915e-20 -5.38432645e-20 4.4030436499999995e-20 4.323683e-21 1.304300695e-20 -7.324548100000001e-20 -3.2704972849999997e-20 -1.61527825e-20 2.78531345e-20 -9.012128199999999e-20 -4.16747895e-20 -1.0008932649999999e-19 -3.81848945e-20 -3.1581901e-20 -6.573941850000001e-20 5.40662525e-20 -8.1632566e-20 2.16925015e-20 8.70181575e-20 -1.423457385e-20 1.2222313000000001e-20 -2.0178009999999998e-20 8.448735900000001e-20 -1.96152005e-20 4.38826e-20 8.926075000000001e-21 5.862299900000001e-20 -2.92931235e-20 2.5445493781e-20 2.7777446e-20 3.9988480000000006e-21 2.132875e-20 -1.5832578e-21 2.37465955e-20 7.6531275e-20 3.6447300000000027e-22 -1.31002275e-20 -3.8719146e-20 1.5645278499999998e-20 -8.673094545e-20 -2.2658438000000002e-20 3.5915571e-20 1.71500908e-20 6.4874775e-20 -9.47542e-21 -1.2411955e-21 2.12101938e-20 -1.76546418e-20 3.38709995e-20 1.819755499999999e-21 -1.0015029999999998e-20 -4.04711605e-20 -6.37014931e-20 -1.1455172e-20 1.804241135e-20
ACTL8 -0.80511545 -0.532558165 -0.16128659699999998 -0.76351106 -0.55801539 0.45226591 -0.375174534 -0.13206119500000002 0.58287214 -0.6374628683500001 0.45625803 0.18560739999999998 -0.291318745 -0.22264300000000004 -0.455845615 0.61720375 0.03447464 0.698105245 0.730043625 1.2276635 -0.6639508599999999 -0.304105625 1.8010318 0.43330116 -1.50984685 -0.354045055 -0.2984254 -0.21987676 -0.38466991 -0.055433267499999994 1.13421922 -0.33438056 -0.877553365 0.39553353999999996 -0.13449663 1.19158935 0.36515712499999997 -0.83688443 -0.943846535 -0.195674625 -0.10045256499999997 0.561394175 1.24337218 1.21694225 0.60163757 -1.0042803500000002 -0.18823954999999998 0.97967205 0.03706197 -1.36290815 0.05560164000000001 0.80240812 0.5923968425 -0.605170775 -0.36357773000000004 -0.1436849765 -0.39457319 -0.9963491499999999 -0.18456207000000002 0.184150115 0.17460683500000002 -0.577310375 -0.52232108 0.9713625 0.37207629 0.549762467 -0.47984420000000005 0.48055535 -1.36226885 0.72951409 -1.2425966 -0.08412987 1.0545961 0.41231107499999997 0.2591474115 -1.0262536 0.08649992500000003 -1.3713248 0.8346571300000001 -0.079144885 -0.03869745000000002 0.50229901 0.5367906720000001 -0.027537 0.18030980500000002 -0.60914998 -1.1709445 0.40206681 1.067285 -0.5517989999999999 0.1692990645 -1.36824025 -0.56508429 -1.0058769 -0.5553137287 -0.036596636999999994 0.9021688349999999 -0.17814274 0.037021265 0.07419672499999996
RNF186 3.2596537e-20 4.3338167e-21 -1.651552915e-21 7.321732599999999e-20 -9.03896845e-20 4.2959966e-20 -7.3296076e-20 -3.8136479e-20 1.04891203e-19 1.446745805e-19 3.5759056000000004e-20 3.1018302e-20 1.20001676e-19 1.618465535e-19 -1.29511291e-19 1.2175710675e-19 9.1541593e-20 -5.7366314e-20 -4.9650498e-20 -8.2989038e-20 3.7396755e-20 1.1897672499999999e-20 -1.6633186e-20 -4.2830544e-20 -2.86520075e-20 1.5511913e-20 1.0343411125e-19 6.1201186e-20 1.059318855e-19 -8.3825711e-20 6.8713625e-21 8.077038555e-20 7.57470065e-20 2.71900735e-20 1.2321135474999998e-19 -1.404719705e-19 -6.610325595000001e-20 6.48990937e-20 -7.87157755e-20 -3.5518904e-20 -1.4576389e-19 -4.5422903500000006e-20 5.884804600000001e-20 -1.81225337e-20 -1.583949611e-19 1.8244510999999998e-20 5.8783949999999996e-21 -1.10909695e-19 -3.6006077e-20 7.6693946e-20 8.7354857e-20 -1.0328204550000001e-20 1.332814785e-19 -5.79279035e-20 8.9678189e-20 4.2433496500000004e-20 7.4957479e-20 1.5994621999999998e-20 3.8506395e-20 2.0857170000000002e-20 -9.491869349999999e-20 8.058639e-21 -1.1010344749999999e-19 -3.3183313799999996e-20 1.0649845000000002e-19 -3.42102992e-20 4.8965428999999996e-20 -1.1918088385e-19 2.475490925e-20 -2.28694255e-20 6.31713075e-20 -1.26858901e-19 -7.031538699999999e-20 -2.2135754999999998e-20 2.5374397200000002e-20 3.2496757e-20 -4.31273e-21 -7.726239150000001e-20 -6.80216295e-20 4.2541795e-20 2.2216530000000002e-21 -6.78699061e-20 1.3900776999999996e-21 6.292685999999999e-21 1.2478706075e-19 -3.271045115e-20 1.0894330000000001e-20 -1.039317715e-19 -3.7127721e-20 4.2091175500000004e-20 5.342291340000001e-20 -2.79192725e-20 -1.2885899650000001e-20 2.5359673999999996e-20 -1.6769467000000002e-20 -6.2172485e-21 -4.09003465e-20 1.2445344e-19 8.51980325e-20 2.1247656500000003e-20
CELA3B -2.3454421 -2.49223875 5.246726000000001 -8.80388925 -1.8582868499999998 -10.302415 9.988409 11.5903425 2.44271045 11.3000755 8.06432685 -5.41989565 2.3650857600000004 -15.124736500000001 5.6661268499999995 0.16871968 7.4843051 -3.0928648 3.7186648 0.469314795 -0.02234286999999996 3.69425765 -5.9171555 0.24599206 3.0314781 3.3521709 10.5277065 -0.6885603149999999 -6.6723444999999995 4.11238365 6.0139812 12.847877 -1.3586010000000002 15.904215 5.6477085 -5.176248149999999 -10.8443825 15.0296305 12.722394 -1.425549 5.9972858 -5.9938295 4.7714012 7.6179643 4.6580828499999996 -0.45457515 3.79167735 -4.29269955 12.221436749999999 -2.65539405 1.8233286 -8.908814249999999 11.063483000000002 -2.74248905 -7.7665538000000005 12.646078 2.3153399500000003 -0.8761699700000001 -1.8453808999999999 16.0273495 7.1806782 -2.51562415 -3.09286795 -0.09347587250000002 2.3789049 -5.85292875 -5.8029645 0.6869499535 -3.32404755 7.5711927 3.7981389500000002 7.4354888 12.184959 -4.215290550000001 9.948548 -1.200927835 -2.4071294500000002 6.8363183 6.2780853 8.542826 4.9389595 2.8444542999999998 3.1254983000000003 5.54484965 -6.05588325 -12.458692 -5.83940175 -8.8011055 -1.29520135 -7.08712195 -9.40560975 7.151200149999999 1.53490765 -3.95623085 -6.63874975 3.87058515 -5.2411665 -3.91342315 20.788135500000003 -5.918132
CELA3A -0.1791399999999994 1.78491545 -1.46232465 -3.4134241000000003 0.5749244999999998 1.0918389999999993 1.01402455 0.9977109999999998 0.39497171999999997 1.58125778 -0.737261815 0.23143599999999953 -0.8492499999999996 0.7845968500000002 0.8258049000000001 1.18724425 -0.19911049999999975 2.1438573 0.07465479999999991 -0.68391385 0.055558549999999984 0.1257537499999999 -1.7833555000000003 0.8128735999999996 -1.1944787999999997 -0.010310350000000024 1.3017875 1.3975054 1.2329314999999998 1.6827691500000004 1.6068340500000002 0.9623714999999997 -0.5359861499999994 -0.0014746499999997997 -0.06297300000000039 -0.504513025 -1.5059571600000001 0.2648566499999999 0.5288535000000003 -0.2650716500000001 2.590368835 -1.1143604999999996 0.76274195 0.76249875 1.0421061 -0.27854783499999997 0.40524150000000025 1.43098758 0.4556327 -0.6080272 1.4374434999999999 -1.3707611500000003 2.4709916499999998 -0.07127050000000068 1.5985435 -0.8885774 -1.1267395000000002 1.4769812 0.8646637 0.41793992499999993 -0.47802448 -0.9003645000000002 0.4680955 0.9853939999999999 -0.2891874999999997 -0.41889755000000006 -2.8055683 0.8321625749999999 -1.5725186 -1.0924749249999999 -1.5216187 1.3302092499999998 0.2058416500000001 0.6393447000000001 0.6508928000000003 1.6164593 -0.6878072500000001 -1.2408945000000005 0.23239125000000005 -1.8867942 1.6801894999999996 -0.11380744999999992 0.4441353499999998 0.8164060675 -0.17767221499999997 -2.2209921500000003 1.3881185 -0.01442325000000011 -0.257747135 -1.3986029999999996 -0.19139360000000005 -2.005033 2.0912075 0.9378303799999999 -1.42227145 0.10714549999999967 -0.1599170000000001 -0.37686375000000005 -0.05637134999999999 -0.9108207150000001
ID3 5.587950000000147e-05 -0.4093057 -0.78282557 -1.32878973 -0.5542948375000001 0.057086849999999995 0.489695505 -0.0584120625 0.0344321525 1.05475857 0.23114795 -0.654657695 0.356487615 0.14377718614999999 -0.341858153 0.168364765 -0.6365441000000001 1.3910671 -0.18797921 -0.6226427649999999 0.507840985 -0.78516969 -0.14996392400000003 -0.18039617000000002 -0.441258675 0.047432898 0.12006482 -0.33721888499999997 -0.121836435 0.25729686 -0.225284865 0.05379149999999999 -0.032495616 0.6091621199999999 -0.64686093 0.6531124500000001 0.034202535000000006 -0.11307091050000001 -0.1621084245 -0.369989359 0.114174977 0.097675242 -0.33223663999999997 0.22860124999999998 0.18797163500000003 -0.632414185 -0.0138391125 0.08202985000000002 -0.061444 0.318424425 -0.503967225 -0.11559147500000001 0.30295226402500003 -0.0966023 1.37168 0.08830837999999999 0.030316558349999998 1.11982805 0.016293810000000006 1.10651975 -0.4071762 -0.150908465 -0.057144070000000005 0.5951990149999999 0.48726457700000003 0.435763045 -0.90372714 0.1926258625 -0.78077466 -0.6193417 -0.58027378 -0.221836512 0.48026248 -0.05854087000000002 -0.40356672 0.0975781 -0.328948574 -0.31777487 0.272113 0.028461265 -0.08639359999999996 -0.40039103499999995 0.23621242 0.47004875 -0.8079722 -0.567865825 0.38679376 -0.29226197925 -0.22168633999999998 -0.73387177 0.159731667 -0.84637195 0.44141175 -0.5832703 0.02956997 -0.553579598 -0.5955852500000001 -0.18107579000000001 0.17527879999999998 -0.35400164
SH3BGRL3 -0.48215394500000003 0.24044451 0.052830999999999996 -0.53552466 0.14574030000000002 0.46708730499999995 0.594479865 0.391917945 0.12777080000000002 0.452278525 -0.36376852 0.0031731500000000135 0.498152375 -0.18192934499999996 -0.14618384 0.59527975 0.07691228 0.517084715 -0.5313315000000001 0.06117855 -0.04333128 0.011684134999999984 -0.61449452 -0.10442828999999998 0.06224804499999999 -0.27209162 -0.09916904 -0.059739289999999994 -0.485503825 0.6072721600000001 0.36559732 0.291195365 0.44062083500000004 -0.05203906999999999 0.50055179 -0.46902847999999997 -0.434589675 0.77822116 0.57184612 0.12498354500000003 0.54381952 -0.26174483 0.20115818000000002 -0.1392801075 0.32064209650000003 0.006099057499999998 0.073458525 0.8278552 -0.7758772150000001 -0.17674142 0.0974022 0.09396291499999998 0.7086453149999999 -0.15691625999999997 0.7022181075 -0.536877285 0.074229887 0.51367593 0.11388699499999999 0.378497005 0.531921895 -0.09012139999999996 -0.28483085199999997 -0.5003157300000001 -0.07001315999999999 0.40383670000000005 -0.4237417195 0.33254022 -0.73671533 -0.092797345 0.16753052300000001 0.46089098000000006 0.174467075 0.13694264 0.50744669 0.2128015 0.39858985999999996 -1.1376603 -0.6094308749999999 -0.45709690000000003 0.1655121045 0.2715341 1.0948286 0.10931966800000001 -0.08891256 -0.70049105 -0.08365251500000001 -0.25506595 -0.06377102999999998 -0.408849625 0.0712525015 -0.154192615 0.29777462 -0.3117934 -0.48391982 -0.23040300000000002 -0.18971336 -0.180438791 -0.06923412699999999 0.381703345
HMGN2 -0.2892929235 0.50590688 -0.9449732 -0.40171085 0.67315358 0.72837755 0.476596235 -0.357894385 0.56017755 0.11358987 -0.22499082499999998 0.47928660700000003 -0.45694833999999995 0.806146445 0.31874448499999997 0.69469423 -0.40927465500000004 0.66970533 0.30822756 -0.011335099999999987 0.41280347500000003 -0.26192546 -0.5970368 0.177967874 -0.011640264999999983 -0.61896782 0.100740292 0.44767267499999996 0.04623398000000001 1.3929087 1.10558833 0.18303773969999998 -0.0677727925 0.14249351 0.8035993100000001 -0.469743315 -1.061594225 0.47832371500000004 0.079363465 -0.006394504999999995 1.21286015 0.1819866 0.6294355699999999 0.28810625 0.25530608 0.30341867999999994 0.126477372 0.38550739 -1.309058175 0.17618616999999998 0.43157822 -0.0437636165 1.1682398649999999 0.20105937999999998 0.4846903235 -0.93313493 -0.19558192 0.48323051 0.26189404 0.404242015 0.45502172399999996 -0.367860505 0.213363065 -0.18669034899999998 -0.145347805 -0.25612224149999996 -0.588194515 0.29521556 -0.545159235 -0.125338665 0.291190925 -0.18675630499999998 0.41656695 0.27636409500000003 0.131642625 0.55578577 0.24180160000000003 -0.48978067000000003 -0.041261734999999994 -1.0353206 0.61717034 0.7197190499999999 0.29422792 0.6796216749999999 0.51814595 -0.532551215 0.68377862 0.24344802 0.55431404 -0.755601475 0.026194548 -0.7683472849999999 0.8913743999999999 -0.008982149999999994 -0.40100763 0.02007734 -0.335325365 -0.29139623849999996 -0.13100507 -1.0982591
IFI6 0.61302954 -0.6013433850000001 1.3921293000000001 -0.09488312 0.028060794 -0.010308541999999997 -0.283482 -0.419554145 -0.1892679 -0.450133763 -1.26761295 -0.88364255 -1.14301158 -1.1103079 -0.30770606 0.734620605 -0.22467861 -0.18212952000000002 -0.291816925 0.1366563815 0.23358782500000003 0.1440239675 1.0830647999999998 0.16011180000000003 -1.69631215 -0.89893165 0.24546798000000003 -0.3867183205 -1.36114195 -0.511329525 0.0007525450000000072 1.007360675 0.307230445 -0.15441785 0.038337342999999996 -0.45603023499999995 -0.774449425 -0.621511025 -0.74535676 -0.0927656992 -1.29999005 0.683460655 0.143655695 0.7278586 0.219698 0.6479057500000001 0.80647755 0.84003468 -0.33276777 -0.460839451 -0.3324768 -0.07703674 1.44836985 -0.16009249 -0.19884859 -0.384572 -0.599021825 -0.30851698 -0.64353863 -0.093674095 -0.807045525 -0.76477485 -0.50978549 1.072459765 0.0021406446499999997 0.50619369 -0.786704175 0.9728292999999999 -0.631339525 -0.6346115999999999 -0.050302953 -0.12354791500000001 -0.115046947 0.8847491949999999 -0.141534097 0.609244185 -0.88140463 -0.937888965 -0.18887739250000002 -0.185677593 0.22117474999999998 1.40109725 0.81956545 0.210204 0.757201425 -1.10220642 -0.9528959699999999 -0.73169065 -0.340560565 -1.088065505 0.6895003500000001 -1.3540376 -0.651846675 0.05842186500000002 0.30766119000000003 0.23431968500000003 0.426487135 0.143845305 0.171944255 0.049892994999999996
SESN2 0.7528218149999999 0.11158057500000002 0.82627775 -1.31091675 -1.05828697 0.664804983 0.29718585999999997 0.14164076 2.2532772 0.38318211 -0.05030654000000001 0.684654675 -0.0828989 0.266590845 -1.1732984000000002 1.3455367200000001 0.375214795 -1.13438065 -1.0223296 0.45782197 0.37057537499999993 0.18197406 0.84489526 -0.588935545 -0.561295515 -1.43540125 -0.18700392 -1.13245748 0.0867524515 -0.293435095 1.27628235 -0.08574894999999993 0.07090835000000006 -0.393782435 -0.37234868 0.436099419 0.91479343 -0.8013747050000001 0.38964685 -0.611492165 -0.018765425000000002 -1.52289145 0.34226717700000003 -0.599077325 1.27666615 -0.6047674000000001 -0.74996085 0.530541025 1.29027658 0.51112374 1.08705022 0.125621745 -1.0751196 -1.13378245 0.886116025 -1.0192209 -1.101453625 0.6354369 -1.541093785 -0.37952278000000006 -0.60099991 -1.03217047 0.28851293499999997 -0.767638085 0.5361006150000001 0.04309784500000001 -0.48926779 -0.7802200850000001 -0.93382825 -0.74281279 0.506138855 0.36843691 0.221076545 0.5712478999999999 1.0184570985 -0.17777880000000001 0.022822045000000013 -0.9744261000000001 0.417865465 0.509878625 0.36131121 0.04625944 0.4810114015 -0.29251652085 0.18789299999999998 0.01144887499999997 -1.26796772 -0.42715428000000005 -0.23193355 -0.64447239 -1.5254369200000002 -0.47444752 0.8478437799999999 -0.39062062500000005 -2.40851955 -0.956461675 0.17053362000000002 0.69416757 -0.827632885 0.55525845
RCC1 -0.14180188000000002 0.0906904875 -0.02632604500000002 0.170478695 -0.08486040000000003 0.27568947 0.23511852 -0.7429511799999999 0.18493864000000004 -0.03471550000000001 -0.135358612 -0.05673870000000003 -0.010656575000000001 0.445895405 -0.005603150000000001 0.477162825 -0.08020258250000001 0.44888640199999996 0.605786385 0.08757240999999999 -0.08968720000000001 -0.068357945 -0.09520940000000001 0.61709145 -0.6899360400000001 -0.18036646 -0.05321751 0.7892078 0.009870889999999993 0.44913642000000004 0.76074047 0.035484433499999996 -0.304429785 0.12760801 -0.081772915 -0.612262665 -0.52871502 -0.42507757 0.11251988999999998 0.73410522 0.45340369999999997 -0.2910489 0.594865185 -0.18038779249999998 -0.24638717499999999 -0.22442873000000002 0.016334170000000037 1.02183598 -0.9224361 0.18863285349999998 0.212434395 0.125323955 0.506738555 -0.302827532 0.15123137799999997 -1.0925756999999998 -0.49471585500000004 0.0974344765 -0.28275018500000004 0.25493005 1.04815805 -0.738886805 -0.19013331999999997 0.25935429 0.09852109499999999 -0.38481368000000005 0.6179629 0.410004543 0.14527334400000003 0.576122025 0.044258560000000016 0.43290168 -0.254717345 0.60204049 0.94967997 0.5146229099999999 0.298196095 -0.6942647799999999 -0.32090018099999995 -0.5503666500000001 0.82607248 0.723464695 0.37589462500000004 0.29388129 -0.08273185 0.38733212499999997 -0.271199925 -0.5756934 0.11747580999999999 -0.09464024 -0.38819225 0.08471102999999999 0.7009789 0.10026605999999999 -0.08421652475 -0.11307604500000001 0.207333142 0.31768265 -0.200168005 0.206224995
GJA4 -0.194278475 0.12380944999999999 -0.0636352375 0.0625066585 -0.063138049 -0.012679614999999991 0.114626052 -0.16929272 0.10337231499999999 -0.32571607999999996 0.189173735 0.32013868 0.068325196 -0.70816365 0.445507675 -0.046508869999999994 -0.32008395 0.44250226 -0.195585435 0.354647055 0.092425035 -0.24343916999999998 0.274589855 0.254972575 -0.5932416 -0.103856539 -0.2477872 -0.16371350499999998 -0.068563905 0.59332508 -0.046016362 -0.1678107415 -0.06195618600000001 0.15759772500000002 -0.279889695 0.5567008499999999 0.03417482299999999 0.38407983 0.23826914500000002 0.05438168 -0.25829132 -0.049871909 0.207076415 0.201940025 0.1529098465 -0.031663919 -0.012982798 0.34672849 -0.15280765 0.051154170000000006 -0.19241329000000001 0.421481775 -0.47281541 0.357764125 0.270554905 0.14877234 -0.36631612 -0.6097023500000001 0.636333625 -0.17995725750000002 -0.17853605 0.056668504 0.151560755 0.426842915 0.042889275 0.33387406 -0.80051915 0.149916906 -0.156201415 0.66496387 -0.04062833745 -0.24475595 0.12255892300000001 0.09732494 0.54705554 -0.37777826999999997 -0.299219965 -0.404079705 -0.24680468 0.022736846500000005 0.1582028885 -0.010720457150000001 0.0408239895 -0.266410515 -0.18203707 -0.49007501499999995 -0.006452175000000001 -0.36902326 -0.36394980499999996 0.191449872 0.17190835999999998 0.112272735 0.257605425 0.267216725 -0.005863309999999997 0.28772776 0.35891289 -0.212351695 -0.01296042 0.204954775
CLSPN -0.29637311715000003 0.0621913335 0.033582003000000006 -0.146001435 0.17117676199999998 0.79010757 1.1322178 -0.42233328000000003 0.0010206300000000224 0.563674345 -0.262642525 0.07038603499999999 0.27780515 0.5466987750000001 -0.41865515000000003 0.83556016 -0.20192781999999998 0.612541775 -0.17352510999999998 -0.645462645 0.6091357 0.343399835 -0.716390635 0.96008966 -0.291087865 -0.24517191500000002 -0.15737865 0.328027725 0.90282163 0.3311505 0.38002274 0.380101905 0.25946484999999997 -0.517951545 -0.172926515 -0.21444679900000002 -0.361264069 -0.27182965 1.08325159 1.0507508749999999 0.98454712 -0.003543569999999996 -0.5054108150000001 -0.04680608 0.11056894 0.55236131 0.32215859 0.879560065 -0.51746821 0.08475335000000002 0.27789837500000003 -0.0011909149999999868 0.16514381 0.143027905 0.4296904 -1.53545115 -0.198364395 0.728255825 -0.09976668 0.46669622 0.3241891 0.037787899999999985 0.30735253500000004 -0.21195826499999998 -0.374407325 0.06251555 -0.20564243000000001 0.430534167 -0.82437898 -0.24612219500000002 -0.534153793 0.709925 -0.0033444699999999883 0.128163007 0.617217675 0.307468747 0.145113615 -0.35557076499999996 -0.21341828999999998 -0.67965596 -0.41875248 0.28239599 0.78072162 0.638902395 -0.40507795 -0.341465315 -0.412778675 -0.1391962075 0.15164831500000003 -0.47270856000000006 0.295250421 -0.06833431000000001 0.54648152 0.06926361000000003 -0.08688633999999999 0.122488285 0.03946319000000001 -0.066248243 -0.493101525 0.355018419
RSPO1 -0.28951245000000003 -0.3978639199999999 0.874658725 -0.632828815 -1.039982325 0.46589563999999994 1.08775427 -0.352377622 -0.09020348249999999 -0.180935225 -0.71914648 -0.622093785 -0.45502445 -0.319711135 0.25522714999999996 0.665950775 0.1301700285 0.73596664 -1.009741265 0.7215434300000001 -0.08911176500000001 -0.36085403000000005 0.200058841 -0.41253549 -0.2847556485 0.23880262499999996 0.21128022999999999 -0.00659999 0.30739465 0.14749337 -0.462065075 0.08751838499999999 -0.49925078 0.5042249 0.318664627 -1.0706337499999998 0.024800449999999988 -0.228437215 -0.22526543100000002 0.028549417 -0.1920896975 0.061485485000000006 0.16384119 -0.43848509 0.04537635999999999 -0.105353685 0.38699985649999996 0.015308379999999996 0.3476037 0.22999245000000001 -0.13485568 0.64279801 1.15701135 0.12011961500000001 0.062164775000000005 -0.492248925 -0.676656275 -0.18365124535000002 0.081445085 0.35704066 -0.2210529 0.156820735 -0.388420235 0.393438195 -0.74033949 -0.195701493 0.27843829999999997 0.449798763 0.046282645 0.076329753 -0.168815545 -0.34319997 -0.76215738 0.33790630499999996 -0.2427048635 0.44341121 0.04993137 -0.85168485 0.749898925 0.18351014 -0.39857212 0.7482868 0.7683018 -0.5863708 -0.4541195 -0.7919429849999999 0.246913208 0.124022665 -0.314708912 -0.30419713338 0.7477312899999999 -0.0961509757 0.24775677999999998 0.20851890499999998 0.157597768 0.24975323 -0.23934070000000002 0.0550791375 -0.44666371499999996 -0.80152453
CDCA8 -0.51648238 1.235783535 0.24688167500000002 -0.5695398 0.010798324999999998 0.284047285 -0.4097297 -0.442824315 -0.6979304799999999 -1.04138605 -0.1309999 0.209365285 -0.8499786300000001 0.938959775 -0.25219514915 0.09941424999999998 -0.22561504 0.43835525 0.329941765 0.48572859 0.39160542449999997 -0.5063352249999999 -1.1323097500000001 -0.7129384 -0.69508505 -0.557146085 -0.5466466249999999 0.71204804 0.012275605000000023 0.08076443 1.5204027 0.211841545 -0.26601050000000004 -0.04517191000000001 0.4893962415 -0.9294313 -1.9325128500000002 -0.57791937 0.79972125 0.297414075 0.33972022 0.76904488 1.0333955750000001 0.049877720000000014 -0.6651704350000001 0.042777449999999995 -0.74472088 -0.57165609 -0.4863862475 -0.22175973 0.43425421 -0.53784486 0.88369012 0.27746871199999995 0.9111574499999999 0.31257652 -1.7292865499999999 0.13690614 0.124242455 -0.24033200999999998 -0.0096280255 -0.61411445 0.340822315 0.2685800135 0.9803337649999999 -0.132419735 -0.44643032000000005 0.29468794924999997 -0.38886093999999993 -0.392052405 -0.047530255 0.52841198 0.5823395 1.6827961 0.82298136 0.87833118 -0.2400466102 -0.80359867 0.26871016 -1.3224936500000002 0.46802201 0.51801542 -0.31504485 0.3023264435 -0.43083388499999997 -0.41180694000000007 -0.429308355 0.32338955 -1.11714927 -0.446859895 -0.10846807499999997 -1.080142615 0.346640685 0.46703507 0.43629865999999995 0.137939125 0.379376035 -0.06830847999999999 -0.5075752899999999 -0.27778527500000005
POU3F1 0.06680355499999999 0.1978499825 -0.258464295 -0.126883215 -0.63025982 0.633776825 0.535769895 -0.023017585000000007 0.437296115 -0.275794475 -0.2257892783 -0.377205575 0.042441265000000006 0.0846563 -0.49005133295 0.716993199 -0.22137933000000004 0.3560597955 -0.03398897000000001 1.32605073 0.124721915 0.762608965 0.23276627 0.1384603665 -0.66486491 0.034975299 0.22569092999999998 0.3501721 -0.47430859000000003 -0.19753180350000002 0.18012038 -0.0016516744999999985 0.402716217 1.0663084999999999 -0.00939065 -0.53266178 0.19328005 -0.350308028 -0.008883099999999977 0.105459375 -0.08399965085000001 0.208019125 -0.77297202 -0.036720135 -0.49560431000000005 0.44681007 0.818476 0.4094941 -0.234864285 -0.32303815 -0.26060772 -0.0884719475 0.356216916 -0.09136704749999999 0.038072275 -0.06522246699999999 -0.12827480000000002 0.05925308500000001 0.212168635 -0.11453806000000002 0.342575835 0.33089205499999996 -0.09959861 0.6282951 -0.6303318149999999 -0.44741814 -0.31782106499999996 0.7045666500000001 -0.7690416250000001 -0.09242084 -0.416696285 0.465075407 -0.24157277 0.16016835 0.21089626 0.369346515 0.20706940000000007 0.14607683000000002 0.15735296 0.626476825 -0.47714588 0.127151795 0.966530575 0.257409468 0.17617201500000002 -0.33689723 0.35625208 0.10085227899999999 -0.294882305 -0.39239339 0.67278514 -1.1114636999999998 0.23153373 0.348278615 -0.49403151 0.429248935 0.155158785 0.65849683 -0.07611733500000001 -0.6476779699999999
CLDN19 -0.28107061499999997 0.297928103 0.056641620000000004 -0.08307571 0.39567736 0.51969574 0.8591584350000001 -0.264161475 0.16914186 0.07191047 -0.24450713899999998 0.15894388 0.18053348000000002 0.245231872 -0.602113965 -0.09556443 -0.026507545 0.40939320500000004 0.025286457000000002 -0.1184376635 -0.65790416 0.32739971 -0.33982008500000005 0.30425106 -0.393163015 -0.26289923000000004 0.638387665 0.460396605 0.091277775 0.40585885 0.71519035 0.163548285 0.071815825 -0.020883050000000014 0.262543875 0.5236897 -0.010609725000000014 -0.08401447000000001 0.01032508 0.372685865 0.188545671 -0.385304125 -0.1613543065 -0.33628127300000005 0.25054926 0.1219661684 0.24146192 0.53753388 -0.1288641325 -0.24385393500000002 -0.141846445 0.1595165025 0.44707725 0.12651047999999998 0.168339585 -0.251515005 -0.464241515 -0.330937978 0.18875858500000003 0.10347377449999999 0.22482715000000003 -0.26694376999999997 -0.22991815 -0.06241929 -0.14788787299999998 -0.05758257 -0.34561757 0.18367755525 -0.09489377999999998 -0.183660115 -0.07452415200000001 0.45916246 -0.456174395 -0.1231624295 0.232479965 0.182546245 0.6496686 0.044772775 -0.64993189 -0.22051957500000002 0.42539728 0.376683715 0.46508893500000004 0.5450583099999999 0.4482617215 -0.51665481 0.2302763685 -0.07620987115 0.3714864 -0.358436495 0.46536821 0.09959307669999999 0.38073238000000004 0.256628425 -0.347562535 0.1042435615 0.47433007 0.23900043000000004 0.437534608975 -0.19272634800000002
SLC2A1 -0.57578358 0.360032165 0.48117767 0.143142885 -0.6877696 0.23239411 0.342284355 1.06343535 0.8064778149999999 1.2787312499999999 -0.301414505 0.3159897865 0.8983011000000001 0.914347325 0.301766605 1.3421266 -0.3906299285 0.22967560000000004 -1.1316288 0.54148378 0.77357425 -0.21204949150000002 -0.784501055 -0.396558255 -0.371926767 -0.24407683000000002 -0.31404035 0.163978375 0.020041234999999998 -0.27575325000000006 0.39729154499999997 -0.22056703 -0.649007165 0.12346694 0.5508134650000001 -0.009174729999999992 0.25928975 0.40402521 -0.12091324999999997 0.14586663 1.01587782 -0.7613397 -0.027478349999999985 -0.485040692 0.32760886 -0.11655309999999997 0.092959286 0.4026754575 0.004462100000000024 0.39550368 0.69428282 0.722218325 -0.19603029000000002 -0.567110225 -0.038161785000000004 0.36407317 -1.0573461 -0.4547470800000001 -0.02475960499999999 0.10235641 0.2054514485 0.04414926499999999 -0.33266874999999996 -0.347027645 0.12888440499999998 0.29023027 -0.2107133 0.447238763 -0.306861765 -1.30562755 -0.2900187525 -0.066457382 -0.14140512 0.10726916 0.16133630000000002 -0.08776631499999998 0.13941845 -0.8081649 -0.508974845 -0.32393665 -0.38548001 -0.3226414 0.5753870999999999 -0.44864864000000004 -0.26389776 0.230012595 0.092900967 -0.7356211300000001 -0.339111865 0.26123552499999997 1.25233455 -0.467567865 0.68078141 -0.030654995000000004 -0.625213 -0.025618274999999996 -0.44635041999999997 0.412837845 0.2305055475 1.22304145
EBNA1BP2 0.399641544 0.0009252299999999991 -0.85151595 -0.48399806999999995 0.85969985 -0.27119412 0.428461255 -0.506251945 0.5504773068 0.17161427499999998 -0.05531329500000001 0.587925635 -0.065893395 0.55007121 0.09129322200000001 0.34822949999999997 0.37951349 0.2900214825 0.38903348 -0.09963638999999999 0.031601401 -0.117235985 -0.60237935 0.6674965150000001 -0.12161122499999999 -1.257377325 0.1230557975 0.54491375 -0.19106855 1.217669 0.62349528 0.382113673 0.226573975 0.48546943499999995 0.975663 -0.21024033 -0.23475163500000001 0.103012638 0.63260805 0.049324980000000004 0.80909255 -0.679865075 0.62977375 -0.11380095 1.5769989500000001 -0.011701944999999991 0.22908884899999998 0.37554522 -0.9912508 -0.367904285 0.277439285 0.032717175000000015 0.94443175 -0.4254734127 0.50370399 -1.40983535 -0.11969428285 0.15562320000000002 -0.05327264999999998 0.7725317700000001 0.12985117499999999 0.024523319999999987 -0.30034687 -0.081983045 -0.182578155 -0.14650620749999999 -0.09499904349999999 -0.066013975 -0.460882675 -0.293850425 0.23600338499999998 0.9033808799999999 0.712833115 0.6303746299999999 0.06978478000000002 1.24576705 0.66707465 -0.51391426 -0.152192095 -1.00286578 0.73838751 0.37835487 0.74645295 0.75575293 0.579040505 -0.5558592250000001 1.02834688 0.0033766749999999957 1.17453405 -0.6055862750000001 0.676103475 -0.55149691 1.2579777 -0.710279215 -0.492526555 -0.324733171 0.017635769 -0.11614421000000003 0.44957258 -0.75483375
CDC20 -0.29538977 0.7647997449999999 -0.85016825 -0.681696 0.06777376499999999 0.2996090125 0.217825605 -0.61524877 0.20511764999999998 -0.766479515 -0.2778507 0.49616530000000003 -0.25676053 0.95430655 0.321532185 0.480490885 -0.173709995 0.40902919000000004 -0.16929977499999999 0.07247197 0.77273912 -0.5785672850000001 -0.87277462 -0.38814118 -0.6865523200000001 -0.539120685 -1.13756945 -0.084727572 0.12186823 0.5450079649999999 1.2865760499999999 0.060311635 -0.24622487999999998 0.775408265 0.388668505 -1.099323 -2.13029005 0.117234475 0.495257545 0.419496905 0.58504598 0.09921076499999999 0.4035609775 -0.06769388 0.19855125000000007 0.36772214249999996 -1.0438433 -1.00144232 -0.538616375 -0.2285003995 0.43870556 -0.6509389 0.452720465 0.3402534475 1.8707867999999999 0.10890658 -1.4164775 -0.212305995 0.2912089 -0.12997142 0.19587492 -0.520638395 0.199579585 -0.13212391 0.10488312500000001 0.179401287 -0.762415945 -0.135346325 -0.10172830399999999 -0.420989338 -0.15168186 0.07262126499999999 0.83476729 1.267716 0.432640595 1.21549715 0.11477499299999999 -0.58211287 -0.09323440000000002 -1.0206302 0.625907585 0.808516505 -0.67297959 0.375926715 -0.06596731 0.6758807 -0.327482145 -0.127523822 -0.5349993749999999 0.15432445 -0.14759297 -0.887903375 0.33476949 0.9751934200000001 0.020820464999999996 -0.28498533000000004 0.49243753999999995 0.2966092 -0.19183888000000002 -0.75957695
DPH2 -0.35545337 0.10087874000000001 -0.07669602500000001 -0.24400817000000002 0.013494760000000008 -0.131928735 -0.055512804999999985 -0.19480282499999999 0.5748719499999999 -0.03789593000000002 -0.477176055 0.418802975 -0.08889410500000001 0.22788429 -0.31141894999999997 0.21276553350000002 0.297720075 0.46735216 0.3245549 -0.19292332150000002 -0.31776262 0.18526768499999996 -0.30186638 0.1361943 -0.202780315 -0.42519363 0.404823605 0.378105165 0.333388515 0.874758775 1.1164920999999999 0.24475709999999998 -0.2022890425 0.12067878000000001 0.5098914800000001 -0.16971095000000003 -0.596995075 -0.018355830000000017 0.010240315 0.335567385 0.9551975699999999 -0.37563181999999995 0.68977374 -0.10807037 0.66971752 0.20411936000000003 -0.11430372200000001 0.7980317 -0.38807925500000007 -0.467645405 0.257509125 0.312413315 0.762774015 -0.18016730000000003 -0.23834053700000002 -0.80960575 -0.022582260000000007 0.0693284 -0.64402327 0.34082261 0.356294565 -0.32320675 -0.467888975 0.1470239 -0.16039639 0.223506565 -0.008156794999999994 -0.011706774999999999 -0.8299472499999999 0.15959346700000002 0.009491196 0.94919815 0.03161929000000001 0.500133955 0.79128192 0.869569165 0.65600556 -0.10976770999999999 -0.51292618 -0.6052263250000001 0.68320421 0.037192999999999976 0.5916243649999999 0.319017525 0.20771338499999997 -0.58006425 -0.211057575 -0.070468945 1.3506464500000002 -0.47433224500000004 0.10547975999999999 0.282023275 0.89651312 -0.08032587499999999 -0.971287225 -0.3676817 0.435694055 -0.040557679999999985 0.76629337 0.019327032499999994
KIF2C -1.80805135 0.46487584499999995 0.019374785000000005 -0.25253726800000004 0.004975049999999981 -0.16396712000000002 0.32937362 0.13115916500000002 0.01854184999999997 -0.68292483 0.8433471849999999 -0.1986885605 -0.432580415 0.12758844 0.246581855 0.766577115 -0.34007984999999996 0.126117741 0.3207118015 0.250477905 0.547869 0.0009154000000000106 -0.7531690950000001 0.056716670000000025 -0.262450695 -0.13063682000000001 -0.17110740249999998 0.37759491000000006 -0.15143122250000002 -0.004511130000000002 1.2796762 0.5360162350000001 0.312467535 0.261031425 0.371156045 -0.70966905 -2.34260725 0.3320754 1.3898515 0.354916785 0.683751355 0.822394722 0.851096 0.09938572000000001 -0.46418445 0.541405125 -0.418761565 -0.2741514205 -0.7508783299999999 -0.006531220000000004 0.620155343 -0.1455763 0.7942832200000001 0.10759809 0.88571355 0.34294926000000003 -1.66298505 0.989631225 0.59124175 1.00713778 0.67151457 -0.6348342299999999 0.356822585 0.39416016 0.4315496099999999 -0.51631512 -0.6729637900000001 0.19961181635 -0.248519985 -0.10109530000000001 -0.67352123 0.751816115 0.46068632 0.51521202 0.94957585 0.543865285 0.20676316 -0.24424926 0.08545932 -0.26008569 0.63329659 0.992959125 -0.19121128 0.75331866 -0.7828453545 0.011880725000000009 -0.09590341499999999 0.10522991 -0.445605845 -0.5746328350000001 -0.8381184850000001 -1.8299935 0.38473731299999997 0.9302216999999999 0.170834728 0.1415262228 0.08436559999999999 -0.37482294 0.24622569999999994 -0.24898240500000002
PTCH2 -1.0984951 0.11806991500000003 0.211418995 0.008777550000000002 -0.19692543 -0.418476195 0.0277395 -0.418065115 -0.176487411 -0.44390577499999995 -0.514026655 0.221750175 0.253895905 -0.2897775875 -0.317958183 0.3185965375 -0.38845706999999996 0.035565785 0.187630885 -0.46472102 -0.36965214 -0.09916123999999998 0.34841760499999996 0.390979065 -0.15378048 -0.37667833500000003 0.45717525000000003 0.014076425000000004 0.435217125 0.39541544 0.23804410950000002 -0.15304740049999999 -0.57082801 0.17306887999999998 -0.71636407 -0.11405880000000002 0.32074541 -0.96962255 -0.81527465 1.2847990999999999 0.21154811500000004 -0.265398855 0.0385782244 -0.15183675000000002 0.56153115 -0.56428733 -0.348603145 0.22732553500000002 0.7490401 0.022400560000000014 0.08855297300000001 -0.431521538 0.32306593499999997 0.2966468155 -0.08440399000000001 -0.1310023125 -0.3101160515 -0.4593667 0.026605650000000036 -0.027081325000000017 0.516404305 -0.1262381565 0.08439684250000001 0.54162725 -0.0951032035 0.093648857 -0.022404835000000012 -0.1296608142 -0.241992295 0.01194342000000001 -0.36821610000000005 -0.46704459 -0.303331582458 0.23479379999999997 0.525127515 -0.006703879999999995 0.37837919499999995 0.221465075 -0.37488191000000004 0.8347866500000001 0.8218761800000001 0.33571435499999996 0.45877310000000004 0.92535977 0.63700874 -0.36518966500000005 0.13540438 -0.37435028249999996 -0.03574531999999997 -0.4102405 0.766832115 0.518328695 -0.243535265 0.88448123 -0.548191305 0.24202777499999997 0.541588943 1.1581126 0.22961581 -0.575736955
RAD54L 0.014927627500000002 0.29315499 0.43755570999999993 -0.8764999899999999 0.049201579999999995 0.68409361 -0.04461585000000001 0.854016525 0.015178900000000009 0.069855855 -0.73609244 -0.48310219 0.1027987115 -0.0005404750000000125 -0.190931565 -0.33437717 -0.04911935999999999 1.65130805 0.213806598 -0.7010102 -0.96227965 -0.158326415 0.150157615 -0.05287084 -0.622263505 -0.830988575 -0.327789965 0.45263417 -0.751568405 -0.64568246 0.27255237 0.49448874 -0.047579882000000004 -0.143693035 -0.024906879999999992 -0.6544292 -0.596850945 -0.22432083249999998 0.36067299 0.46820032500000003 0.14335283 0.23074668399999998 0.062594207 0.012288550000000002 -0.021249434999999997 -0.5855035 -0.10298375500000001 0.6203042599999999 0.2962679225 -0.46425915500000003 1.0758198 0.90280648 0.742384745 -0.81221503 0.199210475 -0.198189385 0.29638195 0.248629305 0.20293077999999998 -0.22086970500000003 -0.329682052 0.440618293 -1.2714284500000002 0.08382418 0.33879980800000004 0.37149521500000005 -0.3266782695 0.20936293 0.04063656999999998 -0.24290905599999998 -0.7647313600000001 0.181937165 0.08417174000000002 0.77385648 -0.04719013 -0.10392617999999998 0.37870012950000004 -0.39771957 -0.35344468500000004 -0.39249879499999996 0.06110874499999999 0.25625327 0.38611838 0.09202806 -0.595608455 0.62875795 -0.25417686500000003 -0.10622212585 -0.07255097199999999 -0.34069048 -0.077758885 0.89255929 0.52761733 0.40525147 -0.31995628499999995 0.47299627499999997 0.029414285 0.06245460000000003 -0.691391235 0.131973995
STIL -0.52710602 -0.15108195000000002 -0.57691605 -0.577509035 -0.027460029999999996 0.417545565 0.71944268 -0.721973985 0.601931635 -0.6045443 -0.500976095 0.087405945 -0.247286985 0.05893306500000001 0.19259744499999998 0.77964924 0.24929521999999998 0.15488895999999996 0.7440751 0.48763293249999995 -0.13469247899999998 0.296315785 -0.217501465 0.25522282500000004 0.18380886025 0.17775127000000002 -0.130866 0.834406325 -0.403774835 0.54036714 0.7358255499999999 -0.19948235000000003 0.40535187 0.43925522 -0.439220845 -0.11617739999999999 -0.42561295 -0.31430986 0.81161265 -0.525532975 0.508264935 0.577321865 -0.042268990000000006 -0.09165892 -0.14010872500000005 -0.24028686000000002 -0.963224385 0.03598708 -0.650497445 -0.40216982 0.6286037499999999 0.403707335 0.069973495 -0.178797265 0.5450491500000001 0.09312588499999999 -0.15903377500000002 0.87795752 0.192620965 0.02250400000000001 0.46959742 -0.33613815999999996 -0.7339712 0.48650398000000006 0.313650885 -0.10862297999999998 -0.260982004 -0.0026027529999999993 0.15222882 -0.36808447499999997 -0.13355245000000002 0.35523771 -0.20936026349999998 1.1671142749999999 -0.46007262000000004 -0.27511397 0.004000244999999986 -0.4091403585 0.10899684999999998 -0.20513204499999999 0.33364550249999997 0.24052681 0.24993552499999994 0.6175953205000001 0.13766214499999999 -0.331251125 -0.21568971499999998 0.83354549 -0.83682861 -0.18520266999999999 -0.719259425 -1.5124693 0.30934955 0.9638966 -0.18010500999999998 0.1137470625 0.25675415749999997 -0.12783111000000003 -0.088341735 -0.37798418
CDKN2C -0.26617079 -0.203009976 -0.466679065 -0.7492443 -0.04218133315 0.23021532 0.5596189149999999 -0.22141004199999997 0.40831897 0.485341 0.14307199999999998 -0.29622703149999996 0.015209269999999997 0.43664590999999997 -0.092815985 0.87893352 -0.25084339499999997 0.5996767 -0.2149857358 -0.24076639 0.244987475 -0.14900763 -0.65768453 0.20332391 0.0017722694999999997 -0.07492674500000002 -0.19495252035 -0.04911827 0.14851822 0.566445945 0.519744045 0.328453255 0.064135275 0.24965197 0.299975995 -0.411659808 -0.70109289 -0.08505447500000002 0.3630617 0.0885476286 0.8864583800000001 0.29218144 -0.057935679500000004 0.26632625 -0.35855855 -0.10570927999999999 -0.036197249999999986 0.3143649335 -0.21159478999999998 -0.29223456999999997 0.36305216 -0.11658499500000001 0.88483135 -0.20631483500000003 0.651141425 0.03745628 -0.447882505 0.601618775 0.252859115 0.396844235 0.31249108999999997 -0.7240360699999999 0.25702567374999996 -0.322246595 -0.21508616500000002 0.043471181500000004 -0.33511515000000003 0.45466954000000004 -0.3154246705 -0.374572725 -0.46359076 0.44490174000000005 0.125031605 0.177189923 -0.2226430265 -0.03843332499999999 -0.330430405 -0.630096215 0.213705425 -0.4671843 0.3002508 0.7683162499999999 -0.18576827599999998 0.26049166 -0.453135992 -0.56938929 0.32522494999999996 0.00929487499999998 -0.603013 0.105051095 -0.32225827749999997 -0.5528159500000001 0.31520941999999996 0.458100238 -0.412908497 0.06533001 -0.19378814 0.13435977000000002 -0.1082175 -0.08736152000000001
NDC1 -0.022566564999999997 0.486842605 0.333719665 0.30865405000000007 -0.14322754 -0.054320154999999995 0.07099275499999999 -0.633049625 0.410817315 0.016987467500000006 0.06457696500000001 0.4995987 -0.275616215 0.46567812 -0.15038897500000004 0.7529840350000001 0.270633983 0.68789675 0.32801451 -0.24576937499999998 -0.05778549999999999 0.1656331605 0.09641299 0.57085427 -0.111737905 -0.24951894999999996 0.04767753999999999 0.58374256 0.009484944999999995 0.85704465 1.13668237 0.10501559999999999 -0.5220195750000001 -0.30572959 -0.442110625 -0.07357155800000001 -0.794719975 -0.301038217 -0.27552473499999997 0.6380957 1.20429335 0.41600278 -0.09361264999999999 0.41355199 -0.44793318000000004 0.152357665 -0.453282565 0.75500417 0.04228674300000001 0.066227585 0.5753329 0.09507681 0.7815952 -0.584330982 -0.020291274999999998 -0.79267815 0.05074052000000001 0.678664725 -0.555531055 0.234821905 0.65179975 -0.44874643999999997 0.29176854 0.14126662499999998 -0.406543465 0.271717025 -0.42118339585 0.308533585 0.11368499 -0.0663670985 -0.181739885 0.531922998 0.027756947999999997 0.849579765 0.44822739 0.196657719 -0.522600115 -0.11251147 -0.509741025 0.02403695 0.6148116 0.63188528 -0.338866265 0.13056905800000002 0.8184282500000001 -0.292492965 -0.120356435 0.48043684999999997 0.491162 -0.5115519 0.22575608 -0.9102909100000001 1.21550075 0.570605755 -0.6995271200000001 -0.28589657000000007 0.4388154695 0.3254288795 -0.13192963 0.222891845
DHCR24 -0.964834025 -0.12408251000000001 0.16806444999999998 -0.50188295 0.08781979999999995 0.47854312 0.9170456 0.2485760875 0.20741705500000002 0.076210723 -0.3896705 -0.6717863900000001 0.3914490515 0.13574131499999997 0.25378103 0.15614960500000002 0.72802261 0.176426995 0.255883435 -0.04088388999999999 0.23763267000000002 0.14010783 -0.63616132 0.16662348999999999 0.4805828 -0.028843389999999997 0.369981605 0.10707325000000001 0.09784477 0.158262275 0.5380714799999999 0.47319279000000003 -0.22315648999999999 0.718490725 0.43974656 -0.27228378000000003 -0.109352165 -0.150575269 0.42762435 -0.15983226180000001 0.50822452 -0.434224375 0.2447460025 0.15569013999999998 0.49778767050000006 -0.063436425 0.326398925 0.8875814 -0.08156408 -0.06759277 0.67196676 -0.097622765 0.8463723999999999 -0.201547064 0.44833913000000003 -0.47787165 0.23691825500000002 0.6770977149999999 0.45698265000000005 0.3233179265 1.0914587 -0.33708057999999996 0.09465149999999999 -0.36689489 0.07668486000000001 -0.37628546500000004 -0.65971988 0.448715465 -0.60519305 0.09675914000000001 0.013562574999999993 -0.176997825 0.0771586 -0.38784085 0.59167438 0.236358535 0.603066315 -0.43703364 -0.37672549 -0.43352670000000004 0.9090155 0.46691430999999994 0.855656175 0.330416065 -0.32030681 -0.76681285 0.032256469999999995 -0.40508442 -0.20748669150000001 -1.0100335 -0.20824713499999997 -0.959878635 -0.013094019999999998 -0.10470537500000002 -0.029670022 0.139364605 -0.04851195 0.5866863250000001 0.670812995 -0.19473910500000002
PLPP3 -0.47334155 0.087561026 1.1484079999999999 -0.98531375 -0.57211575 0.483923495 0.42676539 0.43327085 0.37204571 -0.193292505 -0.2653440861 -0.08703898499999999 0.05117072 -0.13985253849999998 -0.444561855 0.036324605 -0.457999265 -0.008649055000000003 0.11593039 0.22960027 -0.24632605000000002 -0.302028925 0.18922225125 -0.167688572 -0.11617848 -0.064526065 0.5595327 0.14121461800000001 -0.462413565 0.466897845 -0.31226259 -0.19427369 -0.110471735 -0.144130133 0.11392373500000001 -0.15397891000000002 -0.58831404 -0.26248544500000004 -0.6188988200000001 0.08225239 -0.774698575 0.15769186000000002 0.25548500500000004 0.1396040425 -0.0381445355 -0.27513002799999997 0.004102640000000005 -0.2128487 -0.09262168 0.17566593 0.172994825 0.278333375 0.46664905 -0.3940068 0.1760419755 -0.461674135 0.09934079350000001 -0.09370081025 0.122345215 0.41950060499999997 -0.2233549825 0.4614020200000001 -0.618555075 0.50202072 -0.367976025 0.08997408 -0.204653595 -0.04964779999999999 -0.49083051 -0.45251201 0.067568985 -0.5335574000000001 -0.22589883 0.262589545 -0.5322524 0.25991401000000003 0.24732152000000002 -0.46663989 0.261797245 -0.41889154 0.07742959500000002 -0.066231506 0.26251815 -0.08770464650000001 -0.448070715 -0.23511916 0.03766351000000001 -0.019798205000000003 -0.403656615 -0.48864424 0.767469925 -0.2032025 0.0081998741 0.06976606499999999 -0.28612426 -0.22103048 -0.22535566 0.3337931425 0.237997665 -0.18001063499999997
JUN -0.41812978 0.204687808 -0.676796 -0.27860361 0.589020253 0.266604463 1.1552977 -0.0034610100000000005 0.08583725 0.72104706 -0.5347726325 0.633899575 0.18246033 0.57639691 -0.0925495325 0.26771751 -0.24627521 0.88759095 0.22497779499999998 0.009651540000000014 0.20353362000000003 -0.07905537999999995 -0.80598835 -0.022579213 0.05908032000000002 -0.23012627800000002 0.4410129 0.09295404300000001 -0.10208992 1.11179945 0.339623775 0.10889889500000001 -0.31254607199999995 0.424581215 -0.186586041 -0.277711125 -0.004290910000000009 -0.3937906654115 0.06843791999999999 0.037543384999999985 0.53009613 -0.344338515 0.038136554999999996 0.0295076715 0.384076154 0.22496329 0.5435588 0.654643315 -0.86996225 -0.065929035 0.15975981 0.2438342725 0.29328876 0.20260751 0.55266951 -0.26527635 -0.16090688549999999 0.473724565 0.61106873 -0.16019835999999998 0.5565461780000001 -0.343175635 0.386661295 -0.094839707 0.231424474 -0.08857978 -0.23071627849999998 0.269625845 -0.5829106500000001 -0.181195155 -0.02194584499999999 0.313714485 0.31663401 -0.12761472499999998 0.10979237224999999 0.886845415 0.140478538 -0.484056265 -0.42647133600000003 -0.5845717699999999 0.68665503 0.152051678 0.96558765 0.18090796 0.316472715 -0.81489342 1.01267555 -0.454101787 -0.126618624 -0.464402315 0.08563608465 -0.356666095 0.77058157 0.12964712000000003 -0.142032965 -0.1429201075 -0.153810185 0.10941009000000002 0.490720735 -0.27366376
NFIA 0.33004072 -0.233475785 -0.25140048400000004 -0.09351389000000002 -0.04985188 0.44128858000000004 0.49133446000000003 -0.06686128 -0.04999042000000001 -0.36078615999999997 -0.5587554875 -0.0988117 -0.48542202 -0.013899979999999992 -0.44626699000000003 0.2399524 0.14070748 0.362057635 -0.15889334500000002 0.142354595 0.162415945 0.4987845 -0.40438019000000003 0.06306357 -0.345033335 -0.404499505 -0.49031805 -0.201457333 0.38125405 0.77136311 0.15601563000000002 -0.020676833000000002 0.05391386499999998 -0.15016891000000002 0.0034024899999999803 -0.2223806085 -0.185177715 -0.132585452 0.16491343 0.469535095 0.865743265 0.22613088000000003 0.166252285 -0.2224917135 0.186564375 0.14183474499999998 0.60792627 0.7195892500000001 -0.16668504499999998 0.155368837 0.046672735 0.337141935 0.72721927 -0.112072485 0.40343298000000005 -0.08728383249999999 -0.5799425899999999 -0.056740894999999986 -0.46771508500000003 0.138221195 0.6785959100000001 -0.14112933 -0.6391882600000001 0.170367755 -0.04528852500000001 -0.14842776000000002 -0.52285625 0.2813921578 -0.225879944 -0.410593645 -0.26038293 -0.006034509999999993 -0.64879872 0.59694297 0.7388620349999999 0.5806683450000001 0.58970711 -0.36418889 -0.342498879 -0.319889925 0.542386525 0.346132575 0.81922955 0.67857965 0.055643780000000004 -0.16631005999999998 -0.16179908 -0.010875200000000002 -0.21292216000000003 0.445605845 0.11269054499999999 -0.153158681 0.190074787 -0.19796002000000001 -0.41734227 -0.239651995 0.10914153500000001 0.29233019 -0.07497918 0.117362688
PATJ -0.43526006500000003 -0.08697116500000002 0.0027612750000000075 -0.85819834 -0.57252633 0.307860925 0.48408344999999997 -0.13613435000000002 0.56920277 0.02035016 -0.04399329000000002 1.00970705 0.203973813 0.14767600000000003 -0.66426891 0.61934051 -0.27682230999999996 -0.395909365 -0.403925085 0.101100795 -1.2205156000000001 -0.212064995 0.27253044 -0.3534945615 -0.21928596 -0.03466425 0.14577465 -0.030432015999999996 -0.5306315850000001 -0.068620453 0.935929675 0.01733635 -0.296203145 0.28707971649999997 -0.387067095 -0.16342358499999998 -0.195658355 -0.27264890500000005 -1.4299999999967117e-05 -0.2649432 -0.4322109565 -0.5186710299999999 -0.1254620485 0.40921575499999996 0.76010902 -0.482920715 -0.9730588899999999 0.07407239000000002 0.2803303485 -0.3964771096 0.0095159225 0.1250571465 -0.34801854499999996 -0.5059004149999999 0.13088573499999998 -0.069840715 -0.3059050425 0.21130970999999998 -0.226050915 0.464383943 -0.486778565 -0.75588187 0.13539537499999998 -0.16160751499999998 -0.66268815 1.0622601 -0.03470052499999998 -0.58909233 -0.21799005 -0.5784486 0.57194974 0.5934614564999999 -0.32156381 0.34001184 -0.48965067799999995 0.10341258149999999 0.08095255999999999 -0.1560970415 -0.37340177500000005 0.33076372800000003 -0.42964614 0.581813 0.23386146 -0.44344853500000003 0.373153275 0.7356418 -0.57529298 0.24778527500000003 -0.33082674 -0.22243233 -0.50096717 0.025428599999999996 0.58259286 0.5527833010000001 -0.78641455 -0.39172532000000004 0.348852485 0.27749905 0.17766348999999998 0.06873269900000001
KANK4 0.190136975 -0.79077122 0.71766895 -0.340029145 -0.69398632 0.6324345499999999 0.1366697375 0.41756542 0.31766145 -0.20848305 0.10238786300000001 0.133465305 -0.8976374500000001 -0.3627854 -0.38366594 -0.41606285 0.56635514 0.80721703 0.03763508965 0.9037937 -0.300788665 -0.638731895 1.3099238500000001 -0.124636827 -1.5162263999999999 -0.66285775 0.162320951 -0.128939425 -0.6152898099999999 0.45774684499999996 0.25572115500000003 0.367475045 -0.681855635 0.182973415 -0.332777785 0.7012627149999999 -0.45382895 -0.771587085 -0.24337730999999999 0.15378639875 0.0406700735 0.99214735 0.8661988300000001 -0.219847765 0.24176399400000004 -0.16172106 -0.08225391400000001 0.234434265 0.141357375 -0.66859143 0.55553685 0.951660835 0.193903446 0.0656654175 0.136919715 -0.13232876999999998 -0.411342665 -0.329134875 -0.29933671 0.414016635 0.027247160000000006 -0.08154080650000001 -0.67725822 1.0811140350000001 -0.2117251 0.81772418 -0.724004595 0.9848238 -0.28940398 0.841701635 0.067966367 0.07783066 0.6672182799999999 1.0620905299999999 0.7858999 -0.182359895 -0.35550435 -0.7979819450000001 0.584619225 0.8505272500000001 -0.60795277 0.085033525 -0.23951694750000002 -0.1289519335 -0.10682008500000001 -0.89940105 -0.506609285 0.24094376 0.5829872700000001 -0.766043605 0.79370122 -1.03155158 -0.09919859499999999 -0.093193511 0.158858215 0.53000185 0.432710825 -0.148973725 -0.80969967 -0.40384704000000005
ITGB3BP -0.41758805000000004 0.6118488449999999 -0.364534615 0.06690709 -0.19862654 0.1109500865 0.27985656 -0.66215554 0.27863885000000005 0.26495892 -0.49142742999999994 0.53309758 -0.14802940000000003 0.63391635 -0.33347407500000004 0.3559512975 0.450411385 1.05447875 0.12262610999999998 0.14250542 -0.02280137 -0.69615496 -0.31360014999999997 0.405380935 -1.07102182 0.43479148500000003 -0.514634925 -0.00012950500000000198 0.5476065 0.585099255 0.7514797200000001 0.10444104499999998 0.17063110075000001 0.17610430500000002 -0.280815995 0.21137630999999998 -1.0854695 -0.14941079 0.56743922 0.37561262 0.74833693 -0.5337697699999999 -0.142411285 0.190870185 0.17478340499999998 -0.03283351499999998 -0.17809298075 0.418441505 -0.4146141 -0.7666423950000001 0.15358299 0.054426050000000004 0.6575206549999999 -0.2280338165 1.12172035 -1.7407788499999999 -0.56496075 -0.337671657 0.2269091 -0.13169933 0.686361665 -0.45732053500000003 -0.46989993999999996 0.152494715 0.012874285000000013 0.07842850999999999 -0.153081325 0.22617898 -0.122676038 0.0336981945 -0.2304640325 1.0638468749999999 -0.09983375 0.42839065000000004 0.558970085 0.24620018200000002 0.393231405 -0.47093004699999996 0.08535230999999999 -1.1134962700000002 0.42509452 0.47037002000000006 0.39140420000000004 0.231285675 0.380043745 0.39023807499999996 -0.15253640000000002 -0.4573351 0.7910346349999999 -0.10708193 0.00719487000000002 -0.15436145499999998 -0.20268422 0.14908174800000001 -0.0834685385 0.31642085 0.35437391100000004 -0.015300729999999985 0.679509015 0.0289297778
UBE2U -5.44659595e-20 -7.044843999999999e-21 3.9022858000000004e-20 -5.4224318e-20 1.508122775e-19 -2.1032173000000002e-20 7.9346979e-20 3.685635e-20 -7.184495e-20 -1.4243539500000002e-19 -4.8747045e-20 -2.0293973e-20 -1.6384197e-19 -1.4412321e-19 1.0282424799999999e-19 -1.091362255e-19 -7.706948100000001e-20 2.50071445e-20 3.76269795e-20 4.54571682e-20 -2.0445395e-20 4.089247e-20 3.1346675e-20 9.465646e-21 9.568697449999999e-20 4.0408374799999996e-20 -9.82038278e-20 -1.2076764500000002e-20 -4.7794646500000006e-20 5.60188375e-20 -6.67248555e-20 -2.87460015e-20 -8.388075000000001e-22 -4.2427706000000005e-20 -1.0594682449999998e-19 1.82191424e-19 8.122275550000001e-20 -4.2815034e-20 1.3118541400000002e-19 2.7690112e-20 1.6216878799999999e-19 1.1538105000000002e-20 -8.2178899e-20 2.9370794999999994e-21 1.5618789099999999e-19 -2.76285565e-20 -5.7191237e-20 5.5094151e-20 3.89688785e-20 1.7951534999999993e-21 -1.051738475e-19 4.6580857e-20 -1.0607920250000001e-19 3.7646377999999996e-20 -8.87137625e-20 -8.8765803e-20 -8.0783063e-20 2.177031e-20 -5.8568875e-20 1.5273109999999997e-20 8.1708323e-20 -3.2361100000000005e-20 9.35771635e-20 6.260302749999999e-20 -5.02931575e-20 6.08587825e-20 -8.6670968e-20 1.428741433e-19 9.700759e-21 1.2914595e-20 -3.24276015e-20 9.548968e-20 3.11989375e-20 4.9024539500000005e-20 -2.7606322499999997e-20 2.41723145e-20 7.5072465e-21 4.77514435e-20 5.67702885e-20 -6.376778e-21 2.056031465e-20 -3.22821575e-21 -6.858466e-21 -1.989162575e-20 -1.6603932300000001e-19 -3.75915195e-20 -1.1410666999999998e-20 9.560818999999999e-20 3.0567054e-20 2.2528325e-20 -2.820748125e-20 2.16524517e-20 -1.17660955e-20 2.15943765e-20 3.8425263000000003e-20 -3.8214365e-21 1.9728174999999998e-20 -1.372210745e-19 -4.8137053e-20 -1.610286425e-20
INSL5 -0.9466185500000001 1.013742 -1.444562975 -1.7648593 1.8871703838 0.7862978350000001 1.3573054999999998 0.422466405 0.832228675 1.4267218000000002 -1.64413425 -0.628426005 0.9677932365 -0.20655345000000003 0.23773799499999998 0.18679888499999997 -0.11373314999999999 0.87640396 -0.358121935 -1.174263705 -0.16598887 -0.11292655000000007 0.044661820000000005 -0.27122223 -0.027595425000000007 0.12987048499999998 1.9931054499999998 0.982458925 0.5234368199999999 1.1714840549999999 0.8856428999999999 0.1478733499999999 0.11012244999999998 1.0789141400000002 -0.371332635 0.6541232499999999 0.9650477500000001 0.44414308999999996 0.18386113499999998 0.06325560000000008 0.502234115 0.7362250850000001 -0.1119801375 -0.8699556150000001 -0.207546005 -0.812075475 0.076282685 0.436441385 -0.9841106 -1.29002705 -0.8315766 -0.260067425 1.0840943950000002 0.2247224 1.87335535 0.10842105000000002 0.30491615000000005 1.8211882 -0.10635432049999999 0.09475505000000001 0.08791235750000001 0.4308231 -0.634020705 1.63107695 0.5463539749999999 2.1526793499999997 -1.411990275 0.8991205499999999 -0.647639371 -1.9378999000000001 1.060488213 -0.643912185 -1.095935165 0.0032246499999999956 0.03451156 0.19536553000000006 1.3701708700000002 -0.8593521850000001 -0.37583746050000005 -1.08118375 -0.28766784999999984 -0.6006034769999999 1.63948525 0.14353192999999997 -0.17244996999999995 -1.152030815 0.14866561 -1.19421398 0.27942069999999997 -0.6481454099999999 0.07501837500000003 -1.9236347 2.1020864 -0.31994739 -0.7008493499999999 -0.99483157 0.53373905 0.295094605 1.51640415 0.327525945
GADD45A -0.316932815 -0.01853921 -0.340311855 -1.3095808 -0.16451333 0.35819173000000004 0.15185666500000003 0.47875283 0.322764455 0.8730707 -0.12574810000000003 -0.53117402 0.51911834 0.07643646500000001 -0.204776225 0.07537260000000001 -0.34896031 0.3181352 0.14409022999999999 -0.86895975 -0.00783885999999999 -0.397646265 -0.2514035665 -0.1966598625 -0.004029989999999983 0.0723241 0.42527015149999997 -0.1778924 -0.33700801 0.047515379999999996 0.60907303 0.302669345 -0.16161232500000003 0.49588725 -0.66961449 -0.10852468000000001 -0.09886822 -0.12718111999999998 0.193954735 0.0928258285 0.43200422 -0.60391063 0.05238487 -0.301852715 0.663702165 -0.7829096 -0.93270992 0.11891261 -0.24444732849999998 0.62902776 0.10901706 0.09166459499999999 0.07368127999999999 -0.18791609999999997 0.337659105 -0.46345318999999996 0.092667003 0.40069584 0.755249335 0.650788605 0.464152845 -0.26008115 -0.363416255 -0.409329823 -0.06703919 -0.62419541 -0.09937161000000003 -0.05378838 -0.362607056 -0.41724543000000003 -0.668734935 0.28422224 0.25078195 0.1943720125 0.42781700500000003 0.10485848499999997 -0.33830783 -0.48048037499999996 -0.759436372 0.09872765 -0.15524849000000002 0.351219575 0.35754883000000004 0.15404889 -0.833566845 -0.452865615 -0.049669500000000005 -0.50856759 -1.0047651499999999 -0.7661201049999999 0.010108315000000007 -0.19665544499999998 0.5148816900000001 0.127162 -0.50295128 -0.09269313499999998 -0.05906028499999999 -0.03630018 -0.5054629 0.360571765
DIRAS3 0.30443653 0.2003781115 0.42268421 -1.1458430000000002 -0.63289415 0.587932655 0.020027499999999976 0.319879158 0.5913122 -0.17219610000000002 0.47352896 0.21930305 0.0026136364999999996 -0.108295943 -0.08676414999999998 0.25755724500000005 0.2780822175 0.06278874999999998 -1.06119285 0.47449121499999997 0.264647357 -0.319693715 -0.56518386 0.38873269 -0.687621415 -0.174063115 -0.14571204499999998 0.267544465 -0.379805005 -0.08970034000000005 0.9076689870000001 -0.5477573849999999 -0.656066665 -0.61365944 0.273590415 -0.115850645 -0.1560624085 -0.5475267500000001 -0.21611415 0.196683454 0.40731911 0.449946405 -0.459907135 -0.345713463 0.0569395515 -1.35361675 -0.043382085000000015 0.658747065 0.17872620000000003 0.3021285899999999 0.21731198000000002 0.8812111100000001 -0.04951084999999998 -0.304183961 -0.048965869999999995 -0.28707397 -0.73884875 0.5096621245 -0.45342953 1.26030425 -0.305510983 -0.019586004999999997 0.297728505 0.385599525 -1.1672068 0.409973565 -0.15417166499999999 -0.155396747 0.03704485000000002 -0.07489816999999999 0.22176176 -0.091772755 0.03935620000000001 0.199241655 0.70484133 0.16204375 0.26238778 -0.32021462500000003 0.055950744 0.03382110000000005 0.35904202 0.118848652 0.16707367499999998 0.17218498000000002 -0.025261549999999966 0.6077682799999999 -0.7363560499999999 0.09099853 0.524920415 -0.476540265 -0.6770004000000001 -0.021109479999999986 0.52327295 0.267558243 -1.188882575 -1.0114586650000001 0.6650239099999999 -0.342618035 -0.22081069500000003 0.9950622499999999
DEPDC1 -1.1327342 0.299646975 -0.32148562 -0.824311385 -0.6745635 -0.7762592 -0.052558055000000006 -0.141983687 0.39024225 -0.14523566899999998 -0.8601589600000001 0.346863745 -0.433852117 1.0933217499999999 0.042734145 0.578895915 -0.663495119 0.17740641 0.351972505 0.27919098249999996 0.382367806 -0.31887354 -0.6695931125 -1.30579571 -0.19500281999999997 -0.4109766121 -0.54791296 -0.01436200999999998 0.3627701175 0.260722533 1.0882829 0.574802765 0.08097860000000001 0.312207405 0.17030317250000002 -1.9202106 -2.50737395 0.30445715 0.40157150999999996 0.44364968 1.63346335 0.38347924499999997 0.305080515 0.09151865000000003 -0.274371825 0.878036165 -0.254537663 -0.724113325 -0.208662759 -0.03327717675 0.647260655 -0.314567395 0.19422128500000002 0.13874372499999998 1.11388385 -0.5631618 -1.5488347 0.418104737 0.11904366499999999 0.44959708 0.19723570025 -0.198502615 -0.164931654 0.23638592000000003 -0.0654438 0.5600883350000001 -0.19958665 -0.29076532 -0.0026865150000000004 -1.43788535 -0.6762097349999999 0.718300335 -0.2675271245 1.31603645 0.25928184 1.0793343 -0.7495662000000001 -0.92661732 -0.185474487 -0.7203795 0.006918609999999992 0.68390975 -0.606886205 -0.204585765 -0.275873175 0.102661815 0.39878921 0.24362587000000002 -0.494067735 -0.32614403999999997 -0.339833235 -0.49890800100000005 0.12061836000000001 0.89966485 -0.95884993 -0.33985326000000005 0.04110618499999999 -0.1551126075 -0.2687383 -0.322683275
PTGER3 -0.10036414 -0.724017975 0.7330996 -0.52573203 -0.28020222 0.352058675 -0.43987993999999997 -1.26915335 0.461410135 0.14623227700000002 -1.5437175 -1.1482596 -0.56536314 -0.96192115 -0.27793507 1.1530187699999999 -0.95871705 0.5525877699999999 -1.1228316 -0.5995584 1.3867642500000001 0.48221887999999996 1.19917505 0.62821532 0.049005337 0.231693076 -0.70265779 1.1707999 -0.57556291 0.008970773 -1.6886555 -0.030685765000000004 0.36006135219999996 0.27445201500000005 -0.9233986249999999 -1.37549055 -1.89702935 -0.737518575 -0.11542652 0.027400258999999996 -1.15912625 0.987796925 0.014389334500000002 -0.46282393 -0.641523175 -0.94382593 -0.2828848 0.5034247985 0.63329709 -0.25379529199999995 -1.0802730999999999 0.49988483 1.80456465 -1.14187365 0.32188089999999997 -0.147955375 -0.6021198000000001 -0.6127660500000001 -1.3567665 0.06752253000000001 -0.13779276000000001 0.18913592499999998 -0.6041843650000001 0.31699754 0.47059329 0.80328825 -0.9319997 -0.05698338 -2.0929051 0.33426925 0.51558053 -0.04351300500000001 -0.8709176599999999 0.27836726 -0.64336215 0.8186846 0.54402795 -0.7868601 1.09042711 0.1490459875 0.907244275 0.111144273 1.4862891999999999 0.293251765 -0.724068105 -1.72936815 -1.9131467 -0.881649565 0.527969315 -0.376703265 0.907924585 -2.1486223 -0.7990220699999999 0.06839054650000001 -0.4479032275 0.563356705 0.16334575 -0.48578747499999997 -0.525345995 -1.24046945
NEGR1 -0.549199345 0.41800977 0.9445549200000001 -0.6634054850000001 -0.413259355 0.618120515 0.56559571 0.5513873899999999 0.48270136999999996 0.08393698499999996 0.002811449999999993 -0.46709202000000005 -0.3444454575 -0.59207626 -1.3745826 0.38605994499999996 0.54741684 0.40158695 0.03051532 -0.42045093499999997 -1.0579383999999998 0.203786525 0.56345261 0.284601326 0.46247151500000006 0.445965109 -0.11696346000000002 0.86254252 -0.58322244 0.015573834999999994 0.8590282250000001 0.43848584999999995 0.44998783 0.00059136999999998 0.809512485 -0.97970025 -0.20188053499999997 -0.807100575 -0.17394818999999997 -0.5435569849999999 -0.77445965 0.20837554500000002 -0.20873567499999998 0.7173844300000001 0.10766237000000001 -0.07112714999999997 -0.282543205 0.6162126235 -0.47371258499999996 0.06100844685 -0.6471532 -0.06060075000000001 0.73047085 -1.57495 0.18666875000000002 -0.9004882 -0.25695835000000006 -0.69663975 1.4288197999999999 -0.250173195 0.150670725 -0.12227503149999999 0.56958875 0.044964199999999954 -0.55108257 1.21233485 0.3731824323 0.49623006 -1.1615149699999998 -0.8321142499999999 0.016907170000000027 0.6352032455 -0.184844015 0.69389369 -0.06735767499999998 0.610664885 1.17753638 -0.8303339999999999 0.11827601 -0.601712 -0.19000205 0.8968368200000001 -0.36734585 -0.09040149999999997 -0.15423109000000002 0.110423995 -1.31550525 0.24384557 -0.6334542470000001 0.075401478 -0.02421696000000001 -0.19621620999999997 0.952619985 1.34784165 0.75952212 0.26659267 1.03054812 0.16785195249999998 0.74077112 0.04383408500000001
NEXN 0.86757593 0.7755875 -1.52904555 -1.0025515 -0.13937378 0.37501284999999995 0.044138913 0.62153896 -0.21745043500000005 0.006278864999999995 -0.44100300000000003 0.40819399500000003 -0.25788548499999997 0.229499565 0.5827485925 0.30978917 -0.5199273225 0.9774677999999999 0.121841115 -0.56321811 -0.178756868 1.31514475 -1.1313653499999998 0.39657897500000006 -0.08304475 -0.13136049999999994 0.49812365999999997 0.524529365 0.6780247150000001 -0.10521177500000001 -0.64797856 0.138784317 -0.6079582800000001 -0.21629010000000004 -1.09804785 -0.6162179249999999 -0.5755646775 0.014858054999999981 0.23558632999999998 -0.07802732000000001 1.10318425 -0.380026085 -0.0996102495 0.0003351485000000001 0.58099123 -0.868959865 0.8598526849999999 0.7359103100000001 0.58516582 -0.39666566 0.31045136 -0.728259315 0.6047331300000001 0.23539764999999999 -0.2386092625 -0.20972956 -0.3124712499999999 0.690504725 0.069993005 0.5409640149999999 -0.761904535 -0.137868825 -0.59523483 1.20519065 -0.18838839000000002 0.39576825 -0.76974136 -0.367802525 -0.883723715 -0.070443613 -0.92532905 0.73538948 -0.352822325 0.36368630999999996 0.2952365565 1.0973218 -0.55127915 -0.18112721 0.371815955 0.28447944 0.39222712000000004 -0.5401053499999999 -0.208172635 0.9263051499999999 -0.2191056 -0.506980235 -0.1638004 0.16420064999999995 -0.5121448 0.18922454999999994 -0.20948071299999999 0.58212597 0.505003495 0.794143814 -0.25504251 -0.1470236 -0.277124625 -0.48012469999999996 -0.5510572250000001 -1.26364765
IFI44L -0.79868208 0.06313205 1.6552871500000002 -1.120023525 0.2028105 0.526464315 0.7694086499999999 -1.16134165 -0.7482311500000001 -0.939375075 -1.64164958 -0.36573192 -1.390371815 -0.10055962500000001 -1.5039492 -0.235556789 -0.309921475 -0.4991603 0.22529535 -1.1089646499999999 1.195402 0.68875347 1.288479765 0.365023431 -2.1060855500000004 -0.81158407 -0.7299412750000001 -0.058816834999999984 -0.10838919999999996 -0.0420065225 0.891829587 1.24972867 0.6989607600000001 -0.59177758 0.9174761899999999 0.08699094999999998 -2.3142483 -0.70160028 -0.16269043499999997 1.11674536 -0.6778005 0.68088175 1.0436318500000001 1.3236779 1.739241 0.8543001299999999 -0.07159504 1.2405322 -0.32366687 0.2643193545 1.4885159000000001 0.49600226000000003 2.3987095 -0.007136699999999996 -0.11811871500000004 -1.3605212 -0.9374311 0.310037015 -1.3493475 1.3117204 -0.30376122499999997 -1.9329940749999999 -0.660075325 1.47389665 -0.32875051 2.2649795 -1.96684025 1.270567535 -0.97354286 -1.3858946699999999 1.0660753 0.07245342299999999 -0.43398013 0.51595081025 0.2560534115 1.1330691 -1.50044335 -1.14196358 0.589688642 -1.491943015 0.498460717 1.6452393499999998 0.8379133999999999 0.890193535 -0.19003199 -2.1454301 -0.257766335 -0.6046928149999999 -0.5847603025 -1.1553999 1.3228617 -2.2264549 -0.41344950999999996 -0.444592332 0.832021835 -0.17760682999999997 -0.7368736 1.63028225 1.01993797 -0.37976987500000003
IFI44 0.12316134999999999 0.1880836815 1.06452242 -0.7298149 -0.48145436999999996 1.4160378 -0.1920395325 -1.21868015 0.06884075499999998 0.305003726 -0.6792794 0.09348600300000001 -1.685183735 -1.28660785 -0.82100065 0.12648912 0.27286575 -0.4500138 -0.561799265 -0.66722533 0.84924561 -0.6803739 1.6875044 0.44669685000000003 -1.6263060999999999 -0.545332865 -0.14770977000000002 0.70631208 -0.305557845 1.01584557 0.8014929850000001 0.40060265 0.9361741000000001 -0.60491785 -0.181680905 -0.68221881 -0.8638371149999999 -0.39960557500000005 0.413409105 0.76992145 -0.191674303 1.1454835499999998 -0.6997192600000001 0.5822712999999999 0.23346472499999998 -0.67937263 -0.663325575 1.9068952000000001 0.42468931499999996 0.9121785849999999 -1.18807815 0.0712083 1.4807244499999999 -0.361072378 -0.29477660499999997 0.572942485 -0.82302525 -0.180400475 0.27755458 0.423451155 -0.66131514 -1.2906811 -1.033357335 0.86908255 -0.89549335 0.505896925 -1.13232065 0.7447861149999999 -0.29081275 -1.3316377 0.739573525 -0.46714080100000005 -1.4143691999999999 0.2942648285 0.15386804 0.522501805 -1.04648745 0.72710184 0.340127805 0.0017903199999999841 0.38636235999999996 0.9140653999999999 0.47899991 0.7891781800000001 -0.22162258499999998 -0.9504359 0.1407952215 -0.183304605 -0.330179785 -1.4348679 0.28936678000000005 -1.48656795 0.46675013 0.08324524 0.47954230500000006 0.7091080750000001 -0.056466804999999995 0.247155038 0.5064392750000001 -0.16618977000000001
ADGRL4 -1.6888483499999996e-20 5.3033781e-20 1.8911351599999998e-20 -1.109130755e-19 1.5830310599999999e-19 -4.7554603500000005e-20 1.16448991e-19 8.13879495e-20 -5.776824800000001e-20 -1.5486375149999999e-19 -1.13153802e-19 -9.511362799999999e-20 -1.79852271e-19 -1.30773285e-19 1.662800575e-19 -1.5406188165e-19 -1.3269097699999999e-19 -3.832174e-20 7.0666995e-21 3.56702723e-20 -4.09063245e-20 1.4794421999999998e-20 -2.11194858e-20 2.8349285e-20 1.332303768e-19 7.8146653e-20 -1.3908579865e-19 -3.0971655e-20 -6.95090193e-20 5.546727000000001e-20 -7.87227385e-20 -6.0715491e-20 -3.5736255e-21 -6.7243401e-20 -1.2661651200000001e-19 2.0107899e-19 8.68808525e-20 -5.366733495e-20 1.446250215e-19 8.8239036e-20 1.1782855e-19 8.076306500000001e-20 -8.52227688e-20 -2.6756743000000002e-20 1.737841693e-19 -3.34026445e-20 -5.530161000000001e-20 1.174198915e-19 5.795950000000013e-22 -3.60246e-20 -1.26991065e-19 -1.707472000000006e-22 -9.53005285e-20 4.74832026e-20 -1.2580329749999998e-19 -7.752081e-20 -1.936174515e-19 -4.8384387499999994e-20 -9.709533865e-20 -8.729270699999999e-20 9.2004655e-20 -1.0531729500000001e-19 1.21472259e-19 1.2230018375e-19 -8.731590850000001e-20 6.84048175e-20 -4.6962799000000003e-20 1.96590813e-19 -2.650062999999999e-22 7.37473035e-20 -3.13616715e-20 9.223103250000001e-20 7.4146399e-20 6.2090631e-20 -1.05319355e-20 1.5278031500000003e-20 6.2813615e-20 4.99847915e-20 9.151387e-20 4.4346349e-20 -8.44453275e-21 5.3447333500000005e-21 -5.7220021e-20 -3.05790965e-20 -1.890186871e-19 -5.17171285e-20 8.16357155e-21 6.93871955e-20 1.03058104e-19 -3.907155e-20 -3.5532036750000003e-20 5.0396398e-20 -1.185319315e-20 2.07196665e-20 1.3942898999999997e-20 -4.1120857999999997e-20 -4.75624615e-20 -1.698128023e-19 -6.1287656e-20 -2.54562005e-20
MCOLN3 0.057781055 0.029877025 0.31490361499999997 -1.1043327 0.27470287000000004 -0.15829534500000003 -0.194448925 0.008011204999999993 0.4651371 0.261801865 0.27151854 0.014517270499999999 0.873394785 -0.43087836 0.242801115 0.74058908 0.0010938500000000073 0.288437173 -0.26096508900000004 -0.039491679999999973 0.9388002 -0.05431206499999999 -0.8573416899999999 0.783225255 -0.63046731 -0.54534343 1.124598835 0.6818142700000001 -0.47933852000000005 0.75476677 0.09004116499999998 -0.365372595 -0.24127255000000003 0.3595516865 0.02261708500000001 0.31559457 0.66404396 -0.36532770000000003 0.36117919 0.379303885 0.034609339999999995 -0.30131664 0.36671966 0.070756795 -0.35120144999999997 -0.91715793 -0.47769723 -0.6336882349999999 0.061309535 0.41551127 0.5323343 -0.9510725500000001 0.9801377 -0.19898244999999998 0.447144225 0.32064348000000004 0.06291570000000002 0.7841855500000001 0.628514935 -0.03611350499999999 -0.84742785 -0.0368476675 0.100316925 0.09887790499999999 -0.48099294000000004 -0.1258189245 -0.699802985 0.19136446500000004 0.594602265 -0.648924995 0.29745245 -0.23058081000000002 0.078277245 -0.08027408999999999 0.200804675 -0.234067325 -0.559663673 -0.140766455 0.32897694200000005 -0.126470655 0.64506967 0.187968707 -0.28031176 0.840583515 -0.08838557999999999 -0.87264966 -0.056318215000000005 -0.65296216 -0.86876035 -0.4126949 -0.24037705 -0.07910515500000001 -0.131538546 1.4572395500000002 -0.63487248 -0.17373796 0.06156844 0.26992364 -0.03224455000000004 0.018994990000000017
CYR61 -0.25759502 -0.049390205000000006 -0.47870824 -0.7178630500000001 0.43657778 0.666345875 0.269578635 0.38679717999999996 0.11437257 0.53583232 -0.42682757000000004 0.2312664925 0.29705538500000006 0.41306235 -0.41320683 0.6384448 -0.85284355 0.878997575 -0.323275565 -0.148635605 0.319292585 0.880384665 -0.769527965 0.5861018 -0.2966756634 -0.47038676 0.95246995 0.5216960549999999 0.12878046499999998 0.0018766800000000194 0.31568193 -0.10023687249999999 -0.44998177149999996 0.119330095 -0.16066308 0.33200854 -0.620228885 -0.098756965 -0.008338369999999984 0.71609059 0.54620508 0.5466925 -0.330473355 -0.54189363 0.18312433 -0.36354453 0.540430595 -0.212656095 -0.9019397250000001 -0.2194429 0.4456377 0.400814625 0.566324135 -0.010035064999999982 -0.22677218 0.0331697595 0.221351555 0.432407755 0.1183162125 0.49257369500000003 -0.04945393500000003 -0.263777015 -0.87877522 0.18953255000000002 -0.13332359000000002 0.810029785 -0.05653034000000001 -0.027495535 -0.384717255 -0.8038265499999999 -0.200159865 0.13750945 0.02206065 0.06601142999999998 0.45041699 0.805443425 0.06590589364999999 0.029042924999999997 -0.37560900999999997 -0.52386354 -0.49930097 0.0227500925 0.7938708000000001 0.62516867 -0.791110737 0.25180046999999994 0.263186495 0.05520589500000003 -0.0794323025 -0.46147398700000003 -0.44764325250000003 -0.0667921 0.364601185 0.3577198175 -0.025625144999999995 -0.7475963000000001 -0.2493582975 -0.083072855 0.473638585 -0.25646562700000003
LMO4 0.10463630999999998 0.4979899 -0.236607825 -0.66950019 0.340098265 0.12605125 0.538897855 0.148300285 0.579334305 0.346989445 -0.080484795 0.018991160000000007 0.3712024500000001 0.0002187899999999965 -0.25703051499999996 0.325732395 -0.0756017885 0.60901016 -0.3208208625 -0.454731365 0.291957005 0.36909335000000004 -0.6613679 0.0697084435 -0.1096923335 -0.452659025 0.5114509 0.152893932 0.202317995 0.66322145 0.52492235 0.31109664 0.27620174999999997 0.185936417 0.0619470475 0.811277725 -0.77834291 0.34931676 0.8403628299999999 0.21977635500000003 0.67368965 0.03456677999999999 -0.47788968499999995 -0.3199804 0.013049674999999983 0.013642765000000001 0.6552150000000001 0.48975749 -0.109544045 -0.08360245499999999 0.239555333 -0.40789729 0.6301053 0.14569549499999998 0.722499805 -0.24225803 0.0423973565 0.56497082 0.40714153 0.17029069 -0.18163070000000003 -0.355515903 -0.233103878 0.23077937499999998 0.31141561 0.31545062 -1.054566665 0.48434256 -0.52665243 -0.215620965 0.006419065000000002 0.47141503500000004 0.073558685 -0.27064873 0.5238435 0.175804305 0.344786085 -0.106622808 -0.06718371499999999 -0.376198573 0.42667537 0.13552717 0.06121539499999999 0.8464429649999999 -0.417258975 -0.34628604 -0.254127425 -0.48841318499999997 0.24185928025 -0.38460347 -0.081903385 0.00424506999999999 0.087044563 0.568087325 -0.3965739786 -0.41427284 -0.130039155 -0.3997584075 0.36484155500000004 -0.4847764
GBP1 0.27851465000000003 0.523145375 0.104299025 -0.3944972 -0.12455905 0.877766825 -0.08351027999999999 -0.0422948825 -0.47190597999999995 0.15896781 -0.70372082 0.03640884 -0.7773031699999999 0.20444895000000002 -1.05031527715 0.009078434999999996 0.35397219999999996 -0.277434805 -0.09187108500000002 -0.24279966 -0.17181602499999998 0.75504765 0.14239857 0.2446933 -0.9598694999999999 0.058083465 0.16946676500000002 -1.05991503 -0.459026647 0.2518682075 0.77610978 0.4274194 0.67535095 -0.27179531900000004 -0.74451661 0.21426139 0.57000457 -0.5389612549999999 0.53141395 0.63890715 -0.121829568 -0.6793575249999999 0.47828508725 -0.025470800000000016 0.97637196 0.7154907500000001 -0.98658212 0.718933085 -0.16114703000000002 -0.46885350000000003 -0.442186515 0.607810035 0.007771309999999976 -0.866689005 -0.149694375 -1.0975098 0.0037375250000000193 0.25660630500000003 -0.48895025 -0.068721215 -0.21951000000000004 -1.2512096124999998 -1.06592317 0.28750397499999997 -0.74597885 0.05954681499999999 -0.5818150925 0.07521675 -0.8276571 -0.15568386 0.24827402999999998 -0.12286554999999999 -0.334193485 0.8588350499999999 1.7297687 0.5457875050000001 -0.98336038 -0.24963088499999997 -1.0675474999999999 -0.23807654999999994 -0.461985128 0.528321595 0.82460093 -0.05697010500000001 0.023474440000000013 -0.5094852400000001 -0.4939297085 -0.09459113 -0.80483095 -0.57402363 -0.83619187 0.08622644 1.03603395 -0.25938727500000003 -0.190615038 -0.247145825 0.594342455 1.0066562 -0.054740791999999996 0.448903925
GBP2 -0.43314383999999995 -0.04942616999999999 0.76979965 -1.9734593999999999 -1.2430056 0.8472287999999999 -0.05528232499999999 0.13060148000000002 0.88037855 -0.710074012 -0.14580625000000003 1.102517 0.3942854 0.657507815 -1.6789847 1.48089945 -0.047268299999999985 -0.70255471 -0.687443975 0.72207675 1.2533112 0.937938835 1.9596193 0.5549714 -1.4993935 -0.3215803565 -0.9103768999999999 -0.738396195 -0.1285427 -0.130491754 0.31824781 0.288391365 0.7970112149999999 -0.004119262999999998 -0.561659035 0.30874468 -0.8805184300000001 -1.381652585 -0.6470197 1.07888585 -1.121290485 -0.89638605 1.45060735 1.0411759200000001 1.24907382 -0.8717544100000001 -1.2333289 1.37107985 1.1264966 0.4335922 1.37863808 0.42024408999999996 0.332001386 -1.2101696 0.11957892999999999 -0.872651365 -0.49381860499999997 -1.001229975 -1.1951519 0.410975518 0.0896152 -1.6539063999999999 -0.20937971500000002 -0.28159297 -0.4109677 1.0482873799999999 -0.7231965149999999 -0.31965237 -0.719132535 -0.636383485 0.18556734349999998 0.48549421000000004 -0.41625826 -0.76007968 0.6648656075 0.2122065265 -0.9883714800000001 -1.4008094500000001 0.882370615 0.22982286 1.2352937000000002 0.44992178000000005 0.657738335 0.156333285 -0.63360628 -0.70863322 -0.10408718 -1.2549473 -0.12204568999999998 -0.480088245 0.542596215 -1.03057495 -1.2229731 -0.288274655 -1.7222990500000002 -1.184865875 -0.694951825 1.51290945 0.2615709832 -0.428624695
GBP5 0.3175622165 1.57392375 -0.5326442 -2.34067575 0.15026446000000002 0.59845483 0.0889998575 -0.99763793 1.8425986300000001 0.9007029 -0.6031224 0.75817361 -1.7722101 2.76169515 -0.016083534999999982 0.652195565 -0.2958869115 -0.83386525 -0.146811525 -1.06145408 0.715641048 -0.6650820820000001 -0.870902905 0.32369505 -1.6616806 -0.5568245900000001 0.39459580000000005 -1.47860645 -0.772858 0.07453718999999998 1.89532845 0.5363366700000001 0.28484622 0.148036046 -0.48018324 0.8841279 0.474109945 -1.5823307 1.22125199 -0.30633704 -0.465073 -2.39569505 0.454269425 -1.11370239 -0.04080471499999999 -0.43647369999999996 -0.6191342 -0.187047945 -0.8342661 0.86997665 0.36016538 -0.61237148 -0.07137104999999999 -1.1892784 0.31499047 -1.7389446 -0.767056285 1.86170525 -1.0024967 0.2568546325 -0.47138765000000005 -1.7508317 -0.717375925 -0.570963425 0.20026497499999998 -2.2663889 -1.08207215 -1.1021839 -1.79990165 -0.68563918 0.1277820225 -1.2052255 1.43242695 2.0275425 2.19532145 1.21411128 -0.33261221999999996 -0.4502244 -0.013311049999999991 -0.4655404000000001 -0.664367825 -0.407684975 0.96545577 0.38545544249999997 -1.5599174 -1.7323235000000001 -1.83650775 -2.5433855000000003 0.0714325925 -1.6805298 -0.05355829000000001 0.05612731499999998 2.03503555 -0.38308733500000003 -1.756108815 -1.2803725650000002 0.808842165 -1.0170110225 -0.773541155 2.73024225
BRDT -0.9587047 0.196727612 0.5933732599999999 -1.11392085 -0.9209238200000001 1.084082 0.92203126 -0.36586035 -0.0029772999999999605 -0.56616787 -0.21961775499999997 -0.01553852 -0.21472832499999997 -0.699195265 0.162362815 0.64637205 0.78818262 0.45518650000000005 -0.019563754999999988 0.5939128 -0.57404267 -0.20033151000000002 -0.36970849 0.94477135 -1.1492575999999999 0.046662050000000004 0.54728472 0.52057251 -0.30570747 0.67080517 0.862898225 0.7021466999999999 0.487226865 1.0432072 0.37310723 -0.27738127 0.23703423499999998 -0.67917427 0.32679045 0.49045305 -0.32824028 0.15811122000000002 0.172692142 -1.17424118 -0.288050375 -0.03092591 -0.12497429999999998 1.2595749 0.32394133 -0.89634203 0.504656165 0.174724435 1.070611335 0.29521847999999995 0.549041645 0.408173936 -1.004579915 -0.6367536500000001 -0.09741640000000001 -0.05617727 -0.18531112 0.2103622 -0.39917395499999997 0.822457275 -0.257483433 0.47688957 -0.711297585 0.6948571 0.352728965 0.5047883275 0.3427901525 -0.42817951499999996 -0.77761535 0.632585865 1.0643332 -0.5283561250000001 0.79767538 -1.0017779 0.1806956 -0.15612044999999997 0.39569791 0.170426815 0.60691384 0.655006575 0.7037199000000001 -0.6129862749999999 0.18931272500000002 0.048163215 0.3458223 -0.63293035 0.31201258 -0.699342915 1.0531044 0.948148353 -0.31104155000000006 0.28920580000000007 1.0476307500000002 0.3601027975 -0.7162604 0.11582054935
CCDC18 -0.9024454 -0.124234725 -0.041497199999999984 -0.95228695 -1.08711692 -0.5315020349999999 -0.11731819500000001 -0.33756339 -0.262335965 -0.243067392 -0.160593365 -0.50458826 -0.49865740000000003 0.38519537000000004 0.037712165 0.22063449000000002 0.228984195 0.7390983250000001 0.59899601 0.454980075 -0.3889897875 -0.509846775 -0.4613124765 -0.4162146950000001 -0.3508404 0.528162225 -0.1656115885 0.341195345 0.94557066 0.576331465 0.383373672 -0.153586775 -0.61752416 0.39714435000000003 0.267877145 -0.4503561595 -0.645958385 -0.38462259 0.386032045 -0.91434345 0.96110995 0.35800860999999995 0.17928136 0.3241733 -0.10315826500000003 -0.07610443 -0.320636555 -0.105641945 0.558917735 0.031176045 0.53597573 0.0229835075 0.77424202 0.31735444999999995 -0.11007788000000002 0.5643414800000001 -1.164527725 0.36332384500000003 0.183211835 -0.546822735 0.30243703499999997 0.123229255 -0.416657645 0.28208004000000003 -0.18676198 0.6038496624999999 -0.29090313500000003 0.21374534999999995 -0.274881135 -0.8062028 -0.319688993 0.24112717 -0.65331709 0.26460115799999995 0.185023225 1.03280765 0.318964955 -0.6451934149999999 0.902009125 -1.03894165 0.586493845 -0.18643007 0.24976578500000002 -0.7006506720000001 -0.83007679 -0.010772675000000002 0.8591313 -0.16245503499999997 -0.57299335 0.21482480999999998 0.10703451 -0.9726910499999999 0.09420805000000002 0.378698005 0.513392945 0.29281899499999997 -0.8173784025 0.349172405 0.53174516 0.38161240500000004
ARHGAP29 -0.280440485 0.515230935 0.54479085 -0.77885565 -0.30488960000000004 0.559638755 -0.06159838000000001 -0.13291109 0.8745188500000001 -0.094595213 -0.41002306 0.33167966 -0.069763677 -0.12367917500000003 0.16713462499999998 0.36384052 0.24047713999999998 1.2284879 -0.705035655 -0.21728875 1.248827 -0.45666707 1.3299826499999998 0.10449602499999999 -0.6478710000000001 0.8039871 0.271689375 -0.3595165325 0.51070207 1.25731785 -0.33005425 -0.605554787 -0.630377645 -0.36044425 -0.457348585 -0.424644115 0.42908222 -0.3253174475 -0.67176415 0.6847862849999999 0.586725275 -0.341211715 0.7012336 0.32606875999999996 -0.085388705 -0.9476591999999999 -0.17421693 0.579172445 -0.1547085115 0.62267871 -0.4058227 0.165600362 0.15453100349999999 -0.28703522 -0.367399335 -0.22255405000000003 0.34187369 -0.2147098815 1.029497375 -0.25270796549999996 0.245620615 -0.223722475 -0.453675535 0.80071987 -0.005500524999999992 0.015219785 -0.6287872000000001 0.583908505 -0.73135401 0.189688613 -0.84379458 -0.71867035 0.009686896649999999 0.259894355 0.27684417499999997 0.015987735000000003 -0.3980394925 -0.13454436999999997 0.3917671425 0.623809325 0.433509115 -0.53083465 -0.3801793 -0.29658112 -1.13482197 -0.991088075 -0.5226313300000001 -0.9738417349999999 -0.38826840500000004 0.03475645500000002 0.8960828000000001 -0.42785305500000004 0.9091292 0.28620052 -0.20981214999999998 -0.2319648125 1.17132405 0.136818737 0.603939965 0.103629005
MIR137HG 0.302473765 -1.09578298 0.57998079 0.30295535 -0.281987695 0.40594801 1.0759303 0.08389469999999999 1.142546885 -1.0046290999999998 -0.341438175 -1.11079783 0.088342685 -0.390663825 -0.643251705 0.512017645 -0.100034743 0.6523931350000001 0.5770754849999999 0.3673456725 -1.38448108 0.50887912 0.6649208799999999 0.439070735 -0.36186569 0.17876642 0.26072968 0.15040377 -0.2315114843 0.3784862 0.22610109450000002 -0.0173405075 -0.62465255 -0.217300245 0.01473002000000001 -0.80921332 -0.5768182000000001 -0.10520459999999998 -0.260697 -0.207729135 -0.130549835 0.433691235 0.11097020099999999 -0.18183166850000002 0.419126875 -0.22023620500000002 -0.471340655 0.35434397500000003 -0.47770281150000005 0.24248756999999999 -0.29027592 0.98917645 -0.13317726500000002 -0.35591248000000003 0.16159208 -0.203426376 -1.0022264 -0.6069024000000001 0.18410394999999996 -0.1582750518 1.09191635 0.3106786 -0.9753943749999999 1.26091805 -0.20238792849999998 -0.2908969465 0.61550598 -0.30279869750000005 0.14828619999999998 -0.70300427 -0.9001940799999999 0.2107826185 -0.585326565 1.2874682 0.16769084499999998 -0.12406067000000001 0.41353910000000005 -0.19618688950000002 -0.412599505 0.26088805000000004 0.21919448 1.46538257 0.49141738900000004 0.4633254 0.30664511 -1.2051161499999998 -1.0402157650000001 0.3458636 -1.15878685 -0.536399825 0.82903737 -0.60446328 0.031185525000000006 0.1378306465 -1.1665324 -0.03492239 0.32206839 0.44173151499999996 0.51944585 -0.36977658
