2500 100
SAMD11 -1.1104058 -1.3541011 1.3134716 0.3011265 0.05427521 1.1926607 0.46320605 -0.040720835 -0.35257578 -1.4796199 -0.47771025 -0.66960484 -0.33892927 0.16785066 -0.088506564 -0.067831285 -0.030509079 -0.07131792 0.44505203 0.13018885 -0.55739546 0.32080314 0.104998454 1.1677167 -0.97666067 -1.1305028 1.233467 0.04341449 -0.10796442 -0.30474415 0.771662 -0.81778616 -0.3824573 1.041945 -0.31823224 0.5178112 -0.48272005 0.31632158 -0.18486768 -0.70939904 -0.35164133 -0.9332732 0.6676333 -1.5651076 -0.24009043 0.03077346 -0.057150956 -1.2834569 2.1600156 -0.7328953 1.339083 -1.5977389 2.426238 0.79521245 1.2067052 -1.4346693 0.5760612 -0.49594617 0.48758215 -1.0192308 0.25195304 -0.57719207 -0.47158048 0.10496797 0.1824874 0.15934762 -1.3064501 0.8785854 -1.224713 0.55181223 -0.40934068 0.8024987 -0.26290426 0.29862335 0.3983692 1.1295962 -1.6524967 -0.72397435 1.3338897 0.076781094 0.90457183 0.09138084 0.5292673 -1.3637228 -1.9256612 0.50549364 -1.1685085 -0.35720697 0.6103882 -0.44422072 0.7714816 0.697312 -1.7207658 0.18503067 2.1112113 0.7556183 0.42872733 0.18957932 0.52202904 0.5048784
HES4 -0.72770625 -1.3711418 0.8666687 0.42138004 0.035323143 2.104642 -0.89443696 -0.281511 -0.45430976 0.5049584 -0.78583646 1.1047853 0.24462663 0.8468577 -0.61613756 0.93498456 -1.7995148 1.2034433 0.3288074 1.0510607 0.2993134 -0.105664276 -0.7582862 1.1108314 0.32503757 -0.7394442 0.86879903 0.86233175 0.4835469 0.2456575 -0.05482763 0.042945236 -0.510449 0.12815371 0.5135599 1.7470984 -0.1564208 0.66106415 0.37934586 -0.90804213 -0.24830897 -1.2018697 0.44458982 -0.5213461 -1.297963 0.5980755 -0.28284597 0.6337807 1.0628896 -0.05145764 0.98782325 0.31110132 0.60715896 0.63533133 1.5039558 1.7234508 0.70145893 0.37687016 -0.23483852 -1.5521512 -0.49366313 -1.0154258 0.35452008 0.21125439 -0.67952704 0.25129503 -1.1636976 -0.3213606 -0.15341628 -0.22154072 0.36325067 0.85092455 0.1969878 0.65655464 -0.56109464 -1.143181 0.4290101 -0.04270127 1.0511328 0.4260861 -0.23006989 0.31414372 0.8912732 0.07602505 -0.47146872 -0.03249324 -1.3242861 0.019071886 0.81716806 -0.47640944 0.626298 0.3346796 0.28768075 0.8950982 -0.3971922 -1.4625431 -0.8312389 -0.39213789 -0.35328305 0.9928726
ISG15 0.5007407 -0.87890744 0.7309583 -0.40537247 0.17330879 0.81868964 -0.89359236 -0.29812706 -0.80636245 -0.01380682 -1.5854249 0.49557048 -0.13364701 0.6752065 -0.44484577 0.60226667 -1.2180996 0.561598 -0.14800376 -0.37142536 -0.9777794 -0.13851552 -0.53660315 1.1625425 0.6845056 0.343158 -0.5852235 -0.23800643 -0.09531815 -1.1697141 0.09547141 0.17819314 -0.66240925 -0.5144607 0.06787375 -0.19462883 -1.3969021 -0.27732313 -0.880589 0.14183101 -0.5061677 -0.7971942 -0.19808894 0.6593926 0.41223392 0.9223646 0.28597727 1.2405852 -1.1329958 0.62766653 -0.6255123 0.0011864115 -0.5014975 0.9537847 -0.07438184 0.5571955 -0.39746705 0.03103502 -0.11726232 -0.8246541 0.73174375 -1.1052614 -0.94268465 0.5129987 -0.5897341 -1.1071483 -0.3238366 -0.826239 -0.26286578 0.32517606 -0.50727475 -0.017876796 -0.4384537 -0.29233134 -0.53142214 -1.0379919 -0.49898192 -0.9826475 0.38151023 -0.49507377 -0.5701307 0.33057523 -0.86233616 -0.4113985 -0.3260914 0.2319975 0.021837737 0.5876058 -0.12607701 -0.22718108 0.6838884 -0.40195873 0.5487113 0.8624208 -0.4360732 -0.21854867 0.21926193 -1.1922294 0.043270014 0.4067762
RNF223 -0.029057838 -0.285644 -0.32352924 0.34978 -0.6990151 -0.5181921 0.22625609 -0.5257043 0.32054853 0.049946766 -0.37877953 -0.18704084 -0.50411457 0.35995263 0.40605935 -0.1408506 -0.0135102095 0.27374023 0.71911716 1.161124 0.033661284 0.29809213 -0.08718921 -0.1521202 -0.4900719 -0.5780598 0.3610861 0.6850952 -0.3535877 0.52594113 -0.2137092 0.8655713 0.16841525 -0.2603521 -0.45170835 1.3342199 -0.11549357 -0.15957358 -0.24411678 0.5259878 -0.7701004 -0.3173158 0.008467832 -0.23481657 -0.59465283 0.19784974 0.0727444 0.2806959 0.7346904 -0.28899258 -0.22017474 0.022157798 1.4183999 -0.41887748 0.5481683 0.032778334 0.25201294 0.9445479 0.6032219 0.6096544 0.88999546 -0.08180069 -0.02012923 -0.7914788 -0.18008386 0.66984105 0.8641929 0.74989665 0.337236 -0.102241084 0.018234117 -0.46038467 -0.24959576 -0.17053308 0.36679232 0.36250955 0.028774695 0.25713268 0.16209503 -0.71984327 -0.07633594 -0.014311084 -0.11102831 0.36773372 -0.4925837 -0.59275234 -0.5011235 0.4622941 -0.056294415 0.67866415 -0.072430156 -0.38695982 0.8507273 0.76324767 -0.5558388 0.03090535 -1.2837274 -0.73044443 0.678491 0.3902355
TNFRSF4 0.07214107 0.17048554 -1.4472033 1.0664638 0.6845365 -1.4918237 2.0408998 -2.657153 -0.5256436 1.4725298 0.049892087 -1.9794275 1.2727484 -0.02204816 -0.2487664 0.45000717 1.6762836 -0.9963588 -0.2649452 0.9573595 -2.526989 -0.8172274 -0.36163956 0.5987094 -0.99174154 1.3887067 -1.1741331 1.0421827 -2.1426282 -1.0108238 0.257457 -0.36354315 -0.53611165 -0.7745475 -0.4118357 1.6593788 0.3477738 1.1555401 -2.8029768 -0.19796008 -1.1411334 -0.5459059 1.9051663 0.7104297 0.5088551 -0.43190068 -2.6959493 -0.94352716 1.8110663 -1.4224372 -0.1546476 1.9431158 -0.319059 0.2558108 0.059928823 0.6719373 1.0937716 -0.7726977 0.042344574 0.7043492 -0.011623129 -0.9894082 -2.6261885 -1.3457712 0.4028191 0.90166146 0.5640231 -0.453702 -0.28642163 -0.75748396 -1.0929543 -0.8861277 0.36306632 -2.033393 0.7238595 1.1950165 -0.2072899 0.8372613 0.0058317855 0.019779805 -0.8059284 -0.5321638 0.9507315 0.31270123 -0.7477962 -1.8365681 -0.055648092 0.841834 -0.8420248 -0.6715363 0.10317971 0.5593461 2.8826334 2.2489963 -0.55997074 -0.039414328 -0.6987782 0.9255536 -0.72054136 -1.120814
MXRA8 -0.5813418 0.6062476 0.9826787 1.7598553 0.34753373 1.8131374 0.35516933 0.45097017 0.73829114 -0.48867574 0.40543434 -0.114815354 -0.90191966 -0.108135924 -1.4324461 1.4975741 -0.10991094 -0.36476475 0.046114225 -0.72569984 -1.3760178 0.09627076 0.042738896 1.8505116 -0.84065753 -0.4417918 1.9716991 0.011131155 -1.0730838 0.84687203 0.3131874 -0.5487273 0.9127542 -0.1847793 -0.6826249 1.6173612 -0.75842315 0.33767486 -0.3128727 0.29895344 -1.1433738 -0.32879284 -0.21234903 1.2421602 -1.7844267 -0.0022274076 -0.47630957 0.81787014 3.269979 0.08011044 -0.8422699 -0.18371986 2.0227413 -2.5683656 1.2639096 1.2185674 -0.47159782 0.43226427 2.509758 -0.11251657 0.9020452 0.14901847 0.49173304 0.33499655 -1.1472191 2.245599 1.0868704 1.3308402 -0.18582481 0.9676261 -1.6715698 -0.6680505 -0.16787225 -1.1392229 1.2499064 1.5652523 0.15767571 0.7000391 2.1298707 -0.4995716 0.15701322 1.3969303 0.32870793 -1.3232992 -1.1085271 -1.2366173 -0.74360496 1.4188343 1.001787 -0.17849886 0.72995985 1.2100552 0.20652501 1.5984545 -0.49370137 -1.4014101 -2.0366814 0.31526157 -0.27922556 1.4093059
ANKRD65 0.54911196 -0.37695432 -0.57687294 1.4504552 -0.32846162 1.2989792 -0.49932674 -0.417215 0.22493 -0.68093777 -0.67659914 0.6146644 -0.7206474 -0.25315392 0.21518967 0.5408398 0.1831528 0.8428527 0.42849842 -0.49708268 -1.7591536 -0.28825888 -0.06582959 0.101792514 0.060949698 0.5030882 0.798465 0.16027167 0.3409382 0.013484348 -0.74933136 -0.9974647 -0.96708804 -0.66904783 0.07410328 0.808352 -0.36375663 -0.1280363 0.33137858 -0.6896258 0.6621721 -1.3745164 -0.33979583 -0.6230465 -0.9695542 0.14353688 -0.5430006 0.73547536 -0.32223564 1.5315922 -0.61023504 0.08378955 0.4262003 0.29280326 1.164503 0.53857446 0.8005889 -0.723041 -0.13612543 0.4875299 0.89600426 0.49041098 -0.5461131 0.65747607 -0.10720793 -0.14441127 -1.0271289 0.713298 -0.3395112 -0.22213277 -1.3057045 -0.77181536 -0.119964354 -0.05449581 -1.0245414 0.32198438 -0.46569026 -1.5609128 0.8602114 0.46662268 -0.39867166 1.0836909 -0.15321009 -0.05984632 -0.20131244 -0.69864815 0.012809265 0.7948768 0.9645352 0.4420418 -1.3274821 0.75811493 0.00649914 0.5634775 -0.28549612 -0.073223464 0.27664062 -1.0194967 0.01265956 0.5540421
VWA1 -0.9361923 -1.2665327 0.47973016 0.4128542 -0.71174526 0.92022663 -0.5870438 -0.6520811 -0.5570296 0.29959583 -1.0008174 0.90530694 -0.50638133 -0.20613988 -0.31988338 0.6639214 0.56456774 0.7146428 0.5124983 0.4720035 -0.94633955 0.3293479 -0.87797964 0.9566333 -0.36800846 0.12451778 0.8451116 0.8106257 0.24828541 0.3956656 0.09609888 -0.99876505 0.22450924 -0.38104442 -0.4899685 0.93031096 -0.5547432 0.27374128 0.41268125 -1.4305869 -0.044613764 -0.55805063 -0.5531274 0.09355115 -0.34318948 0.43249547 0.013741773 0.7338599 0.83866316 1.0137814 0.23397133 -0.425494 0.37666228 0.46462113 0.8925099 1.2859744 0.9379811 0.17136534 0.9119831 0.09444843 0.46775302 0.018714286 0.41848746 0.0729045 -0.7170773 -0.08592903 -0.8093115 0.31403968 -0.11130246 -0.23221204 -0.06698643 -0.1104186 0.16178064 0.03576925 -0.15089013 0.30455196 -0.5083099 -0.7145104 0.54091054 0.5394576 -0.46830508 0.117970325 0.26681784 -0.3685314 0.07671889 -0.45788935 0.053109612 0.576508 0.34529555 -0.6981545 0.31810895 0.6960422 0.388103 0.411344 -0.70492524 -0.8809391 0.09179308 -0.11457699 0.090858206 0.4538241
MMP23B -0.7642215 -0.30432647 -0.290147 -0.8525749 1.3211876 -0.3661792 -1.5436496 -0.2698953 -0.31597507 1.1697308 0.27262142 0.84291375 -1.1229002 1.1094534 -1.1357433 1.1330642 1.1566527 0.4433832 1.1439124 0.8969402 0.0117837265 0.47510555 -0.6976085 1.2243823 -0.694695 -0.108418725 1.5980395 0.4146433 -0.45639092 1.2613425 -0.23976156 -0.26506692 1.1372632 0.3048741 -0.6565499 0.9771134 -0.22207484 0.09103288 0.08686611 -0.5727142 -1.1817433 -1.5036776 0.219036 0.72784287 -2.0090497 0.4387181 -0.938952 0.79884225 1.4648682 1.2513007 -0.22284986 -0.14758894 -0.050256096 -0.98937345 2.1487646 0.911089 0.52728206 0.26705995 -0.7411863 -1.0088708 0.81895065 0.026595423 -0.057514478 -0.10397736 -0.428381 -0.7395974 -1.0761172 -0.93336076 0.31431973 0.3052388 -1.2714216 0.029024765 -0.5641368 -0.13201387 -0.058960207 0.42985997 -0.17128952 -0.6159629 2.2731884 0.07103784 -0.02242182 0.5673949 0.8461356 0.50245535 -0.0293899 0.13575074 0.49741548 -0.89002806 0.6739251 0.8637184 0.6362818 0.78576916 -0.33170405 0.8855499 0.13922136 -1.7787893 -0.9808715 0.6181582 -1.1702659 1.1950618
HES5 0.1365392 -1.946937 0.4385208 0.019840306 -0.43996614 0.06669751 3.5061228 -2.1862898 -0.5644445 0.58926636 1.900789 1.530934 -0.29224697 2.1500773 1.7700363 -0.4599413 0.8297362 0.2859845 -0.2181434 1.50018 0.9335528 -0.2925015 3.3990624 1.8291814 -1.7021796 0.52557915 0.43799546 1.3331994 -0.045590434 0.7738948 -0.36780602 -0.38984525 2.5666006 -1.1918517 0.76103944 -0.35323593 -0.36489326 -0.6804626 -0.28664702 -0.59096634 -2.4586265 0.61133736 0.285916 -1.9863212 0.6746679 0.36610222 -0.8837112 -0.5172903 -0.9839789 0.12812889 1.025717 -0.93642867 3.353802 0.06335235 -0.55455303 0.8532813 -0.2058823 0.6196298 -1.2645586 3.343107 1.1147257 -1.8555326 -1.0353885 0.86878717 -0.64354485 0.01976845 -1.1544709 1.718467 1.3147994 -1.2797807 0.8023239 0.35230446 0.673913 1.1023753 -0.07679907 -0.038385376 -0.7192271 0.72455025 -2.4238548 -1.1885124 -2.3929734 0.25744957 1.0598772 -1.1634203 0.49929562 0.9607725 -1.1709694 1.9926935 -0.32243532 1.7630049 -1.4024568 0.6218649 1.147013 0.31875557 -0.62977993 0.05386985 1.897837 -1.7132239 -3.4566004 1.3839029
AJAP1 -0.6233482 -0.52848727 1.0965554 1.561179 0.24118078 1.3919332 -0.17668256 -0.619264 0.88757604 0.12530842 0.37580058 -0.21296196 -0.25191092 -0.83844274 -0.178109 0.05114635 0.28023943 0.261014 0.65203804 1.2620647 -0.7284045 0.07197623 0.25487316 0.36399174 -1.3025067 2.9837255 0.48857096 0.9859304 -0.65215266 1.8605632 -1.3271617 0.085123524 -1.343056 -0.15089488 1.1462833 0.0741002 0.546261 0.57366633 -1.1148247 -1.2286854 0.68741363 -1.2314907 -0.7633189 -1.0856692 -1.575841 -0.15840514 0.37896785 1.3982587 0.23733583 0.9195989 -0.2925656 -0.6203556 1.0258986 0.82550585 0.38803065 2.2930624 0.14801086 -0.029662188 1.133345 0.38062572 -0.3030222 0.6433403 -0.13179791 -1.0933799 -0.13813013 -0.10284362 -0.018521748 -1.582004 0.5928445 0.9402177 0.7965656 0.436998 -0.48623934 -1.9415861 0.3001841 -0.6772334 0.5507663 0.77986044 1.6852078 -0.0137177715 1.5756284 -0.1499571 0.598513 -0.15537463 0.21010779 0.077519566 -1.6458702 -0.9467519 -0.79434824 1.6781384 -1.4207903 1.3122581 -0.5586108 -0.95032704 0.51054937 -0.8158751 -1.2340717 -1.4414233 -1.079725 0.29419845
GPR153 0.0054018297 -0.4469157 0.76868534 1.075497 0.79010016 0.7892786 -0.30670494 0.40687606 -0.38389614 -0.3205769 0.014780807 -0.5051447 0.6728931 0.5530204 -0.62389207 0.544167 -0.32630694 -0.1358501 -0.27738965 0.4379053 -1.1720315 0.3553398 -1.9274569 -0.30152082 -1.6249561 -0.07499836 0.09064379 -0.14040126 -2.0419002 1.1097822 -0.1513724 0.34428728 0.37440977 0.57285243 -0.4149605 1.3790971 -0.6557636 -0.002756048 -0.45815387 -2.001557 -0.023581136 -1.6548281 -0.40044814 -0.62091845 -0.78841025 -0.03538516 -0.10084692 0.9903976 1.6136162 0.19002692 -0.4840642 0.28728637 2.8465798 -0.12814058 0.6202775 -0.24873218 -1.8017813 0.30859908 -0.49678805 -0.8224731 -0.46547166 0.93057483 -0.5887312 -0.5779037 0.32283002 1.0991062 0.26666206 0.029231803 -0.15331626 -0.052235246 -1.055732 0.22503796 0.028559811 -1.3780891 1.1565127 0.6849172 -0.46902293 0.9076299 0.70511234 -0.69847107 0.057859022 1.3387691 0.6984928 -0.112892106 0.17719173 0.0075162533 -0.9224984 -0.04081757 -0.4742091 0.217695 -0.9262589 1.5192686 -0.2903224 0.3404564 0.80047476 -0.26353717 -0.6375854 -0.090193406 -0.6399607 0.14413537
ESPN -0.18381724 -1.0883006 -0.0049023065 0.6197578 -0.33632863 1.5986443 -0.62131345 0.21649255 -0.11959662 -0.5646605 0.25460437 0.18902668 -0.6749128 0.4260429 -0.5222666 0.7470727 -0.30040964 1.3655014 0.79759824 0.19869089 -1.460195 0.5070768 -0.6607882 0.9605045 -0.75320095 -0.45496017 1.4402311 0.6148611 -0.48896572 0.46265277 -0.07023794 -0.33223912 0.6451757 -0.4946369 -0.25344226 0.5653481 -0.289619 0.17313124 0.6207507 -0.89371854 -0.8207101 -1.8054098 -0.6204821 -1.2096263 -0.026065035 0.3611903 -1.2988222 -0.385841 1.8005377 0.846897 0.31994143 0.22967467 1.6073971 -0.4816177 0.59256166 0.0113014 -0.1460863 -0.028174741 -0.059496783 0.016514037 0.8342825 -0.39790517 -0.68499696 0.70382744 0.59605134 -0.15845089 -0.45508325 0.70313394 0.15141152 0.6545543 -1.3039515 1.1531472 1.3605989 -0.38280165 0.26995286 0.29192013 -0.55424076 -0.020742137 0.721145 0.22200164 0.5503631 0.3515261 0.8860951 0.20221409 0.5631208 -0.23953769 -0.009534905 1.1127021 0.8558633 -0.9999439 0.36966774 0.36844957 0.5168492 1.3331368 0.9173901 -0.74013454 -0.33526215 0.35661015 -0.48108777 0.6905257
UTS2 -1.5983235 -0.25156546 1.1012174 -0.105615534 0.87073886 -0.87171906 0.8487514 -0.10127811 1.7851814 -1.2556473 0.4281384 -0.7651615 -0.5538813 0.64652693 0.7375718 0.91751826 0.059350125 0.4611728 -0.67776865 -0.6451198 0.9466981 2.1387696 0.6402983 1.0594039 0.81674075 1.8666284 -0.92534035 0.7238645 -0.9224635 -0.44675896 -0.976096 0.4733145 0.15377173 0.054741964 -2.130167 1.0927591 -0.8713319 1.4610915 -0.39625162 -0.6603315 0.5143416 -1.8524752 -0.44899392 1.0755067 -0.44754758 0.52797544 0.43288857 -0.2338331 -1.1758401 -0.5803658 0.08803965 -1.4900274 0.1201525 0.023473186 -0.03873668 -0.91926014 1.7367656 0.94819844 0.8145646 1.0763421 -1.2383819 -0.40286446 -1.2307358 0.7313077 0.7384518 0.49070087 0.938629 1.014576 1.4793994 0.024267862 -0.9776145 0.066478424 -0.3912726 0.107587285 -0.3929388 -1.1304047 -0.016700199 1.1886905 0.4423056 -1.2688073 -0.8326739 -1.3402237 1.5283321 -0.36562124 -0.23862551 1.3442063 1.3496366 -0.88764685 -0.68556577 -0.18589781 -0.4152093 -0.15074581 -0.7351774 0.2667901 -1.1271645 0.47845557 -2.0466828 0.23951557 0.82806623 -0.089823544
ERRFI1 -0.40004563 -0.76920485 -0.2900506 1.7384837 0.79645294 0.42548445 -0.4687948 -0.77811086 -1.0452181 -0.26412824 -1.9361842 1.5755886 -0.12388028 0.8877752 -1.1326896 0.47301665 0.0788184 0.8845642 1.1007892 -0.5005716 -1.8383532 -0.5184866 -0.22136907 0.8052983 -0.0008013222 0.4558616 -0.14938898 0.080753155 0.15611717 0.021871636 1.0043304 -0.98156923 0.6956254 0.78442776 -0.25010848 1.7760519 -0.632624 -1.3132775 -0.032187298 -0.6306962 -1.0315354 0.027276302 -0.6540338 0.6230667 -0.7720559 0.03431565 -0.8770542 1.0150335 -0.02380088 0.8854809 0.072463036 0.1733083 -0.93493843 1.5226369 1.3444508 0.8376875 0.49354085 0.28819126 0.21661873 0.656617 1.0130622 0.07490129 -0.3685161 0.43726468 -0.7151406 -0.07451355 -1.4251152 1.0012393 -2.1418874 0.2620588 -0.671621 -0.37104663 0.3348582 -0.3904606 -0.21893476 0.8546152 -0.9149183 -0.77654415 1.4284028 -0.66629595 -0.8562385 0.3823039 1.1153208 0.7293223 -0.72687024 0.2895918 0.61884665 0.80223364 0.50199085 -0.3695295 -0.33553383 -0.06878127 -2.0333583 0.5823294 -0.7915688 -0.19780597 0.5548266 -0.60876054 0.0020495157 0.3250731
RBP7 1.500136 2.0264108 0.68087196 0.6340537 1.3929685 -0.7187021 0.7579324 1.1734227 -0.640478 -0.41884568 0.583568 -0.2021563 1.8166435 -0.5086653 0.21311456 0.8794224 0.19133985 -0.6941726 -0.6926692 -0.175794 -0.42121145 -0.9948598 0.607506 0.33848074 1.2549868 2.1671107 -0.25928834 1.3746301 -0.74357665 0.75658727 1.9704282 -0.066070326 -0.102496825 -0.10897658 -0.74941504 1.4146961 -0.41341928 0.103785135 -0.50282323 -1.1528895 -2.110961 0.0033405423 0.9684127 0.43736583 0.8061474 1.7707207 0.570904 -0.8118183 -0.53275144 0.41325596 -0.38838938 0.20388162 0.6843945 0.08296416 -0.2741597 0.17389746 1.3776463 0.06816879 0.23251069 -0.45143408 -1.216126 -0.93610376 -2.6899834 -0.460382 1.0440845 0.34303963 0.71363634 0.9212951 1.8741354 0.36374426 0.6041328 0.28175443 0.41584614 0.48130473 0.064331986 -1.7533835 0.6582294 -0.8866832 0.80658144 0.33172992 -0.27083313 -0.8773656 2.0379407 0.23381019 -0.9700265 -0.115792766 0.72769874 1.6105009 -0.051318433 0.015608139 0.35581437 0.8197861 0.33267817 1.157145 0.2898372 -0.96805274 0.014370672 -0.67695355 1.5659161 0.70049125
ANGPTL7 3.043099 -0.25070834 0.9552645 -0.36892468 0.25709307 1.1643658 1.09699 -0.35944307 -0.8069193 -3.3307254 -0.95454496 -0.72150314 0.5409268 1.2628489 0.7130425 1.2379653 2.1830313 -0.50108904 1.5071836 -0.481704 2.4786596 -0.5460448 -0.1830156 1.5047798 -0.9508044 2.305648 -0.40114602 -0.49852914 1.1148711 -0.05329259 -0.0042330837 0.50154024 0.56057006 -1.9016818 -1.5727581 1.5971437 1.3325485 -1.870225 -3.3745034 0.50559133 -0.09692405 -0.0853287 -0.007909337 -0.79359245 -0.18311763 -0.3029978 3.6780221 -2.297295 0.8002454 -0.63832456 0.30916065 0.93862116 0.46486026 0.05397382 0.005021301 0.31745097 0.21749476 1.5974315 -1.439841 -1.3689319 0.9036297 0.5174539 -0.36322236 1.0804611 0.7435231 2.585374 -0.74716663 1.3320987 2.6436698 -1.3749515 0.78117174 -2.4096875 -1.174969 -0.5403634 -1.4339999 0.29274574 -0.5192464 2.5969696 1.4062091 -0.21487628 -1.4237556 0.5603513 1.1032394 -0.96955115 0.2032491 1.7541697 3.3505726 -0.9697932 1.0002708 0.26258707 0.61107916 -0.026509916 1.6514379 0.35635328 0.412977 0.24858396 -0.13017184 0.97996944 0.7469615 -1.5505731
FBXO2 -0.5706754 -0.4947448 0.79710126 0.77457714 0.30859795 2.2953024 0.42656323 -1.4150342 -0.4031234 0.09263619 0.09013317 0.61911815 -0.5519159 0.16787407 -0.9396032 1.4819756 -0.07116013 1.4348512 0.47226775 0.67694783 -1.328577 0.2337347 -0.3847892 -0.07490497 -0.1428834 -0.39769098 0.17845745 0.1961143 0.18373878 0.3369924 -0.3137436 -1.2522777 0.070858724 -0.64339846 0.25403485 0.40941674 -0.78144497 0.059837412 -0.19724464 -0.8262155 -0.2816856 -1.1848872 0.13432889 -0.16643682 -1.925854 -0.49765787 -0.6002027 0.46484676 2.0565479 0.44773072 -0.17261282 -0.0346491 0.5019519 -1.0990225 0.9684313 0.2275884 0.6332467 -0.49353242 0.47702387 0.16578612 1.0788958 0.72454554 -0.12854175 1.0376098 -0.7435239 0.57938313 -0.2552682 1.2112486 -0.71930426 -0.3090618 -0.42390358 0.15053299 -0.49709812 -0.34620765 0.57295793 0.14367676 -0.061223116 -1.3479893 1.8143693 0.40863064 0.33307448 0.14316529 0.6498274 0.58885634 -1.2141216 0.17832504 0.23565619 0.29388246 0.13521355 -0.69774544 -0.6403729 0.9822359 -0.2111703 0.8979511 0.53363687 -0.6414821 -0.15918438 -0.5295306 -0.31184903 0.9135659
NPPB 0.8092098 -0.97144383 -1.3147964 -1.9311844 -1.0220457 -0.18807948 1.9203417 -0.1806386 -0.10516582 -0.49556977 1.2624489 0.63743144 -1.053767 -0.066348 1.2538335 -0.5538618 0.13727102 0.74582905 0.6733687 0.97402716 0.6403656 -0.6115626 1.11822 0.5293877 -2.2164998 0.61409646 0.26055548 0.2976911 1.1791373 0.8778595 0.12904799 -0.13452473 1.7671083 -0.65611506 1.4835887 -0.0016512626 0.12047297 -0.9420611 -1.8782741 -0.40994772 -2.7283952 0.36105147 -0.8709777 -0.35947132 0.17125557 -0.53207123 -1.9594861 0.41270256 -2.7713554 0.7248574 2.7230334 1.5972867 4.239072 1.7736406 0.21227807 1.1268077 0.59934944 1.4483342 0.32498112 1.9738069 -0.039196704 -0.0019165727 -0.9015429 2.3740618 -0.92679703 0.5680856 -1.3566346 -0.1976693 2.2120445 -0.6835235 0.20868234 0.46247986 -1.9347196 0.19070444 1.5335736 -0.51874727 0.31694493 0.29209718 -2.2998004 -1.8380996 -1.9360913 0.060221653 0.666864 -0.42953667 -0.17425838 1.5971265 -0.9194447 -0.27793592 0.6455366 1.6102127 -1.0031111 0.87586546 0.42830682 2.484448 -2.127004 0.9892807 -0.6651696 1.0024444 -1.4875826 0.85998935
VPS13D -0.4851166 -1.2860229 0.94887364 0.22485611 -0.6092891 0.7984272 -0.2234643 0.02214222 -0.20844695 -0.03381773 -1.6785161 -0.18701155 0.51874167 -0.15070939 -0.14575984 0.27621567 -0.1507749 -0.4802044 0.94537073 -0.5251779 -0.39127827 0.3423694 -0.81569207 0.4341577 -0.096558645 0.09353633 0.60357034 0.5507189 -0.74467325 0.49451262 -0.42591742 -0.1605567 -0.7851026 -0.20158958 0.3700669 -0.14530887 -0.55053663 0.5281491 -0.75600576 -1.3485073 -0.5651007 -0.21689615 -0.13901174 0.025975997 -0.54295725 0.96705234 0.2608446 0.2888799 0.07664126 0.3499252 -0.24598344 -0.54367983 0.119729795 0.9860087 -0.15801746 1.1597427 0.16734156 0.60684973 0.42021856 -0.68694836 0.53551936 -0.9103787 0.12589729 0.009694284 -0.22881883 -0.6976392 -0.71189475 -1.462612 0.036076147 -0.48386684 0.5586984 0.07674194 0.41205513 -0.3022996 -0.4425975 -0.10454801 0.028443601 0.058430906 0.053842146 -0.33411467 0.42269936 0.4568084 0.22045952 -0.3064042 0.14994995 1.1427882 -1.2172612 -0.028178511 -0.04933931 -0.93704706 -0.4429577 -0.24855748 -0.39893916 -0.13916734 -0.6819575 0.62073827 -0.22815342 -0.79654753 0.4513425 -0.19926606
DHRS3 -1.6308941 -0.6299292 0.24111955 0.37546068 0.19865954 0.17819335 -0.25901106 -0.6166174 -0.8927077 1.0975717 -1.6170001 1.1558094 0.9060664 -0.32182357 -0.31969032 0.5479143 1.0070194 0.5282901 0.8400473 0.23521696 -1.2517769 0.18697463 -1.3679066 0.29776287 -0.5002929 0.4060379 1.0589303 0.80801934 0.30573162 0.6227895 0.04936832 -0.6136172 -0.038078558 0.770171 -0.6180916 0.73288524 0.036570806 0.06897317 -0.32114577 -1.4918485 -1.0370468 -0.2643695 -1.8986233 1.287523 -0.07284052 -0.3679183 0.7843447 1.5808614 1.0892538 1.3783989 -0.14764345 -0.8950189 -0.22768849 0.6386127 0.041021835 1.0780606 -0.03222338 0.91322815 0.2573106 0.030885495 1.5971918 -1.2329295 0.1746704 0.18747953 0.34174305 -1.2366459 -1.9017385 -0.7371757 -0.48191422 -0.17957637 -1.0439705 -0.7246199 1.0565475 -0.9145306 0.6777844 0.15173501 -0.6190988 -0.61817086 1.1557834 0.14851499 -0.8260418 0.71462375 1.7209146 -0.28264737 -0.08459777 0.9932689 0.33606797 0.43755057 -0.8765417 -0.01836025 -0.331369 -0.3404992 -1.306184 -0.38938445 -0.39096263 0.50681454 -0.47453287 0.74253404 -0.09743322 -0.20514458
C1ORF158 2.6993358 0.15921275 -1.004048 -0.26009056 1.6305478 1.5935869 1.9200325 0.99059385 0.117802516 -0.97913814 -0.014958445 -0.707385 0.005170763 0.33768538 -1.4917231 -0.94054556 0.79217035 -0.3560673 0.88574487 2.1830146 -0.9355331 2.1821547 1.0624782 1.5932345 -0.35794985 -0.074347444 -0.16854632 2.1359575 -0.70141137 0.67978483 -0.5527253 -0.13932201 -0.8341474 -0.9476103 -0.5866596 0.5268339 -1.136803 1.7873353 0.020320324 -0.8326767 0.07333498 -1.501988 -1.459815 1.7059393 -1.0448159 0.8660215 0.11210121 -0.95721936 -0.1672731 -0.07632109 2.531698 1.234616 0.41722387 -0.65046066 -0.6633856 0.4409211 -0.60593814 -0.6149405 1.1325712 -0.7223087 0.08709683 -1.7668579 0.8593078 -0.8655842 1.6233366 -0.3274478 1.3614097 2.3549764 -0.5233482 2.8609645 -0.62066853 1.6310673 -1.4780564 0.2035663 0.2175971 0.84546995 -1.9004958 -0.83183223 -0.51897645 -1.726438 -1.6953814 -0.36187422 0.7896759 0.77607554 0.4528167 -0.14549035 0.18683857 0.7611783 -1.3136704 2.6746914 0.2568601 0.2398761 -0.17245032 -0.09730361 -0.43180442 0.1842123 -1.2162374 -1.3446579 -0.27453265 1.9818487
KAZN -0.37820223 -1.2093792 0.9866473 0.25865138 0.012492796 1.0275933 -0.5753048 -1.1206094 -0.5422477 0.17039186 -0.9302419 0.68103045 0.113159 -0.31492615 0.0012521301 0.85041577 0.056909695 0.855927 0.9598891 0.4871271 -0.37990966 0.24347918 -1.24256 0.3756502 -0.1712623 0.102725916 0.7169208 0.2829222 -0.24155109 0.19415708 -0.104727134 -0.80858237 -1.2109743 -0.9296441 -0.49906754 0.20170179 -0.69639504 -0.00457704 -0.56428266 -0.81110233 0.41257986 -0.58101034 -0.7788641 0.97771907 -0.5977466 0.58117735 0.52884954 1.2810842 0.2598875 0.6626929 -0.52752817 0.28326678 0.14977136 -0.30602118 0.48425043 1.6567528 0.38945425 0.20288919 0.23951517 -0.7912377 0.0879892 -0.5271701 -0.04695372 0.4889585 -1.2986376 -0.27712438 -0.47353455 -0.09245365 0.07571867 -0.80071324 -0.6220451 -0.14403214 0.00015026561 0.09435396 -0.67047566 -0.4842133 -0.6262606 -1.166944 0.99230117 0.47981036 -1.0168614 0.33981416 0.12500525 0.04268247 -0.7456913 -0.032097224 -0.44550237 0.28945744 -0.43912175 0.2167633 -0.8631676 0.715326 0.51580876 0.099803075 -0.620827 -0.66354966 0.32355914 -0.73386735 -0.21233585 -0.39482093
FBLIM1 0.20973834 -0.30024916 -0.4799457 1.0039946 -1.2535771 1.3635967 0.34609714 0.24725418 -0.41078478 -0.4708795 -1.1663346 0.5290347 0.39772415 1.1327631 -0.42553124 0.22432032 -0.17875433 0.64228386 1.4730904 -1.0941228 -1.0175676 0.122999944 -0.06433553 0.08579143 0.12190968 0.117881864 0.7302402 0.93834734 0.07454848 0.49892002 -0.16521765 -1.0515944 -0.29247755 0.314645 0.35957924 1.0992824 -1.4141983 -0.7045388 0.12220772 -0.92004627 -0.43608263 -0.46639687 0.46258706 -0.25974786 -0.27013594 0.42162788 -0.3579507 0.60131073 -0.18909767 0.2523695 0.03948211 -0.7606045 -0.012888369 0.74831796 0.49763206 0.77098525 -0.69305265 0.8057833 0.3826374 -0.0928782 0.24486364 0.22915965 -1.3461753 0.6369483 1.1736757 -0.7828073 -0.26117736 -0.12959601 0.592887 0.9064291 0.0308373 0.9857694 0.25413895 -0.59677815 0.14140907 -0.10600436 -0.0072850804 -0.99502563 0.52087057 0.21465476 -0.30573446 0.89103127 1.072291 0.10689927 -1.0211787 -0.37638077 -0.38999298 0.11744318 0.08183331 -0.1950095 0.74353 -1.1471676 -1.3212212 0.8915388 -0.4159154 -0.6864811 -0.22330505 -0.90273976 0.27736095 0.69873756
SRARP -0.7080379 -0.23080388 1.1157355 1.476839 4.2825694 -1.0526288 2.634624 -0.9688566 3.316388 -2.0894768 -1.8831594 -0.6970985 0.1966602 0.37632337 1.2144028 1.4681363 1.9581683 2.4667065 -1.4082435 -0.3411257 3.2138834 1.9394509 0.9545192 2.4926322 1.4178894 1.7985953 -0.13004476 -0.10649717 1.0158778 0.53851014 0.29487175 2.3824322 -2.3338218 0.72043645 -2.4636197 0.49932563 -0.22210756 1.5018467 -0.81080705 -1.0263002 -0.8067285 -2.0256913 0.9291617 1.5994289 -0.86798155 2.126616 -0.9458778 -1.2176121 -1.9718939 0.64187276 -1.9408736 -2.9602072 1.9153807 -0.60013187 -0.49051934 -2.087018 1.3490906 0.8373512 1.7502742 1.9428438 0.59721655 -1.471092 -2.222553 -1.1416751 0.86011755 1.2251546 1.8712021 2.5959673 2.5540276 -2.5944111 0.6856537 -0.11560474 -0.055343535 0.24976173 -1.4933944 -1.7752173 0.5199649 0.9079874 0.24150294 -0.8784458 -2.4553447 -0.662777 0.76095104 -0.43307588 -0.60088503 1.0835212 1.8717334 -0.027681917 -1.63041 -1.673776 0.251351 -2.195673 -1.3418552 -0.14649299 -0.7495361 -2.0394964 -1.1458578 0.46213755 -0.84279704 1.1381582
MFAP2 -0.38112003 -0.8967501 0.67252105 0.09436764 0.37832978 2.4612353 -0.5581924 -0.13928519 0.033920947 -0.38787413 -1.0473931 0.9822193 0.37427533 1.4302236 -1.0376102 0.8116018 -0.5952422 0.23312935 -0.23471376 0.80704486 -1.4315674 0.65930915 -0.48649713 0.8953275 0.2204478 -0.47654876 1.9802039 -0.25697684 -0.7843361 0.72057146 -0.1620105 -0.99763554 0.40677086 -0.1840021 0.14995232 0.51638937 -0.60020727 0.74432874 -0.06319742 -0.5963323 -0.3049841 -1.8875754 1.0954924 0.17826957 -0.5678355 -0.07013116 -0.35924473 0.39307025 1.8560503 0.8920886 1.223848 -0.54130715 1.1199908 0.2833045 1.4672457 0.49746364 0.22726728 0.49294755 -0.103982806 -0.5806839 0.13482448 0.25910243 -0.21165873 1.5010705 0.2310895 0.7075912 -1.0443441 1.0629054 0.5901657 -0.3800026 -0.22034135 0.5607398 -0.5368141 -0.37216586 -0.05499996 0.70763505 -0.35213155 -0.9643204 0.79792947 0.39025673 0.63201964 -0.1222478 0.30839518 0.3293817 0.0030326277 0.07547031 -0.87032616 -0.013401068 -0.47309017 -0.9937725 0.62370706 1.3115355 -0.53181803 0.019023515 -0.52028096 -0.42705253 -0.88212496 0.0050914926 -0.5146808 0.37955585
PADI1 2.4657195 -2.390276 -0.094939984 -2.791528 0.9680755 -0.3098167 3.325127 -3.6999593 0.51700234 -3.4858716 -2.6396518 0.07750307 1.6103123 0.12298228 3.6003072 2.3097074 0.17722455 0.9651333 1.2847567 -1.5329834 1.8394647 -0.92455345 -2.2689114 3.5491855 -0.83979136 2.2618446 1.2791059 0.55560714 1.3613311 -0.41651392 -0.10736115 1.7128696 3.7362576 -3.1688793 -0.8780176 -0.056658316 2.79044 -0.117476605 -2.024746 -1.9582605 -2.0743828 0.49004313 -0.66586155 0.4148551 -2.7192917 0.3569823 0.7640392 -0.72882646 -1.3407091 -2.565746 -0.15133841 -1.2228465 2.258919 -2.5230827 -3.009713 -0.8794985 -1.115869 3.0842948 -2.3053539 -0.5057524 -1.1009028 0.72204113 -4.1002355 1.1156857 0.55825526 -0.5944526 -3.285941 2.664632 1.7283659 -2.1798377 -0.5266611 1.3717846 -4.2893877 0.65945596 0.312717 1.2346474 -0.3820807 3.0577471 1.0691243 0.34186116 -2.2654276 -0.98114514 2.3036544 -2.0278 2.0347865 -2.814436 1.5350225 -0.8384153 2.1522143 -1.5070634 -2.1977742 -1.525583 2.6356273 -0.76385915 1.0189401 2.4030228 -0.46641076 0.44513175 -0.56190646 1.7885525
IGSF21 -0.82877415 0.4583235 -0.47757435 1.8193308 0.7112874 0.24926102 -0.23355329 -0.41322505 -2.0399663 -0.39580956 -0.1332922 0.25421482 -2.4690857 0.7864462 0.68647563 0.91999507 0.7828163 0.5253758 1.7573024 1.1502889 0.28065708 0.20474395 -1.0001014 -1.469555 1.2593484 0.8551989 0.8099601 -1.493031 0.54145265 0.7881103 0.25155073 2.6949139 0.3365817 0.78429013 1.6655135 0.9280722 -0.21638228 1.1706069 1.8576871 0.21367171 0.065576084 -0.97375053 -0.33960754 1.8103992 1.0716558 0.057175104 1.0789001 -1.6388625 -0.42047274 -0.75679684 0.3188309 -0.8342418 0.31930768 -0.4384793 -2.303909 0.9506832 0.35637188 -1.3192518 -0.9034722 -1.0866241 -1.7271107 0.9313439 -0.33527166 -0.73216194 1.1985234 0.3408877 -0.12534305 0.6161028 0.9536659 -1.3346238 1.5383623 -0.022164427 -0.92333484 -1.0522096 0.3083675 2.5635712 -1.9607664 1.4408658 0.86484694 -0.61809796 -0.7586118 -0.38621226 1.5074831 1.1160167 0.672117 -0.7874801 -0.48027056 -0.44053498 -0.7461302 -1.7563767 -1.1602103 0.8993933 1.2759986 1.7403885 0.8856633 1.3030646 -0.93761986 -3.8174775 -0.7127032 -0.4092411
NBL1 -1.2323414 -0.42159447 0.988259 -0.072227 0.21571542 0.21855915 0.19750658 -0.44177127 -0.07047383 0.77742296 -0.69127715 -0.58939695 0.18673648 -0.7249456 -0.37046522 1.0426819 0.5895686 0.35843626 0.73111665 1.1730478 0.19361596 -0.28321967 -1.220371 0.9713011 -1.025188 -0.51842546 1.007508 0.44320032 -0.8446469 -0.31556365 0.69341034 0.5889886 -0.70483947 -0.37676296 -0.46636078 -0.22725038 -0.29510763 -0.20057838 -0.85213536 -0.3169935 -0.18243721 0.9592413 -1.5700442 1.0931084 0.6250848 -0.38487983 0.20569289 1.717216 0.14074193 -0.067297146 -1.0257347 -0.058797933 -0.1384966 -0.059534658 0.59629834 1.4039652 0.5608681 -0.6551256 0.19034022 -0.9128478 -0.07405579 -1.586612 0.5272847 0.45056605 -0.5780082 -0.4817609 -0.71158797 -0.6842008 -0.022815485 -0.78493047 -1.675553 -0.3478442 -0.21464612 -0.061182544 0.020344192 -0.112578966 -0.47725308 -0.4318721 1.6858584 -1.0672802 -0.46879715 0.22191064 0.8286123 0.7739039 -0.19976102 0.18689883 0.64966655 -0.36201262 -0.6260642 0.55942273 -0.6877963 -0.23379527 0.37938052 0.6898609 -0.36910874 -0.13818637 -0.07231941 -0.48656338 -0.27412832 0.29056016
RNF186 1.277493 -0.87876713 0.1988538 0.36619398 0.48618534 -0.6998257 0.44440982 -0.5969732 -0.31731546 -1.0036132 -0.22398444 0.21733467 -0.47443327 1.2052319 0.64406604 0.75955844 0.3321039 0.7936416 1.2009376 -0.6414972 0.8127883 0.2972173 -0.039453264 0.82108426 -0.010640874 0.92679304 0.0760946 -1.3247697 0.48036733 0.019798746 -0.42532048 0.9941672 0.56578535 0.5949611 0.00015908103 -0.4354483 -0.032104075 0.8267076 0.11248818 0.32378876 0.233117 -1.0347682 -1.3597655 0.47354797 0.045058865 -0.021131914 0.59563804 -0.6341747 -0.8102815 -0.46519917 -0.056902513 -0.7118371 -0.7769624 -0.46409273 -0.8708741 -1.4143399 -0.080598794 0.78054184 1.1737685 -0.39594147 -0.5950059 0.47004458 -1.1634563 -0.022335432 -0.088073924 -0.16580188 -1.5358166 1.1817224 0.23611645 -0.86057466 0.14687444 -0.19157448 -0.49576062 -0.20487477 -0.2662877 0.82568955 0.08675872 0.8622259 0.47963893 0.813642 -1.3989999 -0.17746557 1.4078145 0.20399204 -0.5983557 -0.42132932 -0.054373924 0.11066398 -0.22840734 -0.2479376 0.6289776 -0.61657816 1.3050734 -0.18552761 0.8602947 0.13219343 0.2506096 -0.3092466 -0.6226211 0.23399986
PLA2G2A 0.7471783 -0.2881504 0.05533249 -0.21247454 -0.17014608 -0.077258915 0.49886334 -0.24027218 0.85484135 0.35341802 -0.21774118 -0.047702663 -0.15520081 0.3112349 0.025706397 -0.7453734 1.4532161 0.5212642 0.54866606 0.22001693 0.24450825 -0.99281985 -0.41315624 0.44637653 -0.8262341 0.6349764 0.19909671 0.17703556 -0.2714299 0.4651103 0.8352311 0.34139493 0.0036726156 0.42168677 0.38762346 -0.6479644 -0.013847465 0.65734917 -0.5665031 1.4173875 -0.42937204 0.478181 0.58384246 0.4526127 -0.725687 0.5021748 0.48783037 -0.89110273 0.15642191 0.18194711 0.10538386 0.41558298 0.32517633 0.007536425 0.13385954 1.1826925 -0.030357247 -0.9622619 -0.25146526 -1.0487878 -0.51000214 -0.5055349 -1.0449202 1.0463498 0.8813351 0.7972554 0.26225322 0.5528383 -0.33588204 1.1357872 -0.049174253 0.26100597 0.69717026 -0.9196471 -0.2540838 0.42028525 -1.098455 -0.53947526 -0.08254554 -1.2737985 -0.1515461 0.098254226 1.0016643 0.64007664 -0.28141406 -0.43577424 -0.04258687 0.12496669 0.004626068 -0.16047058 -0.018435547 0.5780847 0.25440693 0.37782878 0.1258923 -0.039798375 1.248849 -0.2946825 1.9541222 -0.28048918
CAMK2N1 -0.06641012 -2.7193928 -0.4185032 0.037616882 -0.39590734 0.7405477 -1.2152889 -0.24096942 -0.028045036 -0.8723501 -1.3215407 1.3264117 0.7121252 0.9636814 1.1639413 0.5080112 0.6408789 0.50657654 0.48109633 0.12745886 -0.4977398 0.79669595 -1.3929895 -0.2526233 -0.9495511 -1.8841722 -0.257777 1.5408661 -0.55911624 -1.4823252 1.7732147 -0.14062108 1.7844855 -0.2596388 -0.67584324 0.9226569 0.28143248 -0.6357338 1.1938696 -2.7352 -0.20862716 -1.4873908 -1.472601 -0.20224126 0.17407142 0.49469033 0.9225237 -0.4471694 1.1486808 1.9996655 -1.1776105 1.4461913 -0.050668344 0.8922147 2.0963671 1.3359851 1.2917484 0.9352648 -0.23654138 -1.4124463 0.49937782 0.10257071 -0.39157382 0.5619449 0.09250598 1.1361276 0.4766499 1.9397571 0.6363644 0.28517166 -1.4579755 0.76938254 -1.0966893 1.3226293 -0.1130527 1.3939003 -0.026999498 0.2527431 0.56714547 0.49925402 -0.22641177 0.70691484 -0.7354044 1.7535509 -0.553469 -2.2475293 -1.4386911 -0.031931 -1.7473139 -0.47107446 -0.3453839 0.060814895 -0.23199283 1.8266134 -0.64448774 -2.4487915 0.29483044 -1.0827825 1.6992176 1.4657862
ALPL -0.95586145 -0.03543903 0.8000159 0.8840152 -0.8673871 0.15097985 -0.09828784 -0.90212035 -0.11515798 0.64527667 0.002035038 0.7939768 0.2972349 0.065722555 1.5907036 -0.764211 1.293519 0.1958871 0.5292568 0.8624624 -1.7355566 0.22498116 -0.17910819 0.4439367 -0.53528136 0.18296681 1.8358916 0.7304818 -0.17620651 -0.4784545 0.114162885 -0.58381516 0.040513493 0.22224042 0.023714611 -0.4730714 0.54139686 0.12802093 -0.20145123 -0.49189788 -0.9064301 -1.0486879 0.70179516 -0.88659406 -0.13842474 -0.44859755 -0.5043196 -0.366845 1.416355 -1.0341917 1.5793374 -0.44967785 0.76241326 0.42808923 0.6415463 -0.095727585 1.2489336 -1.2492627 0.90202314 0.15207252 -0.044012897 -0.3843931 -0.687868 0.8697989 0.82085866 0.15007834 0.6530297 0.73190516 0.25967196 -0.31760275 0.6503281 0.67639154 0.08889797 -1.4171599 0.49048188 0.5109499 -0.22929648 0.092816636 0.8301773 1.1853435 0.1684043 -0.39653727 0.28914496 0.62634164 -0.72369385 0.22128409 0.27961832 -0.61531466 -0.796557 -0.36568767 0.3851129 -0.98753375 -0.6720935 0.27907884 0.23802961 0.11690679 -0.1406356 0.68542075 -0.044305928 0.808662
RAP1GAP -0.6612933 -0.65423036 1.1895617 0.2327197 -0.5358404 0.943676 -0.059240237 -0.37345615 0.5699831 0.5269706 -1.1237713 -0.59619075 -0.045721456 -0.5747036 0.32538357 0.038518146 0.59154695 0.10747274 0.5442173 0.8194198 -0.040439714 -0.9543687 -0.29180494 0.13326266 -0.73634607 0.60596925 0.4698834 0.63044465 0.23149493 0.5495358 0.026866678 0.31969106 -0.77708113 0.051424958 0.7559454 0.20079489 -0.23335737 0.021133266 0.24540323 -1.5307837 1.2760525 -0.41434342 -1.0522721 -0.0062345034 0.3306171 0.78647876 0.8911221 0.24195084 1.3769869 -0.032190442 -0.19366103 0.033817977 0.16703366 0.90147966 -0.33106416 1.257433 0.044016615 0.31070474 0.8111249 0.11203245 0.044815093 -0.67476445 0.41259947 -0.20201632 -0.23712279 -1.1019988 -1.0561728 -0.0050422987 1.0867625 0.32162997 -0.04982319 0.12472657 -0.22546297 0.39988276 0.062505096 -0.89509916 -0.107864566 -0.39982083 0.5586094 -0.6610268 0.41163406 0.56730247 0.21676044 -0.4177672 -1.1533417 -0.30348018 -0.8021698 -0.0136130685 -0.35305536 -0.20072022 0.14622279 0.8222307 0.20715459 0.06710054 -0.76315755 -0.56775594 -0.4104333 0.19183147 -0.3454228 1.0959125
HSPG2 -0.6175125 -0.63113326 -0.06446317 0.04189631 0.07877982 1.0121869 -0.5991065 -0.64244163 -0.5241903 0.054744728 -1.1004345 0.72446233 -0.07078214 0.36087152 -0.017050613 0.70334846 0.053567834 0.30193081 0.75604326 0.61864513 -0.938092 0.41661784 -0.44595012 0.43612602 0.14259492 -0.33928236 1.261812 0.29865035 -0.43787286 0.0934422 0.3314287 -0.57100016 0.9064982 -0.6774735 -0.7217177 0.582875 -0.10483181 0.7317199 -0.22087935 -0.076088555 -0.67872214 -0.5107397 0.46837127 0.12008533 0.37014624 -0.25525427 -0.36856347 0.9508155 0.31778264 0.91636956 0.92351806 -0.49622446 0.18657486 0.62086403 1.2610486 0.9287038 0.5974939 -0.17623019 -0.01358163 -1.0022918 0.5834377 -0.71348506 -0.47845533 0.35534668 -1.4512492 -0.44873106 -0.97048295 0.27939138 0.47103846 0.21401612 -1.4057033 -0.44590768 -0.56629056 0.11416485 -0.0074838754 -0.4619561 0.24394725 -0.97080845 1.550691 -0.52882385 -0.8568034 0.4566841 -0.13333721 0.7418669 0.2320432 -0.8601253 0.5457188 0.31292215 -0.20528607 -1.1644851 0.28136498 -0.13115323 -0.39661464 0.5776596 -0.7589995 -0.52104795 0.7018845 -0.3855076 -0.1981647 0.22036079
C1QA -0.78454083 4.528702 -0.20059715 -1.3603216 0.2943735 2.508288 -0.20230357 1.1371171 0.31565812 0.28953815 1.583018 -2.196275 4.85234 1.5124973 0.13559581 -3.0768352 4.89591 1.610259 2.9122577 -0.6175107 -0.17054598 -0.684622 0.41959494 0.3612165 0.9732225 0.06784663 -2.2985215 0.20688255 0.7263481 1.6206473 2.087358 1.3223066 -0.5234784 -1.5998379 -2.5485716 0.35110107 -3.9357932 3.6812317 -1.5394665 -0.8396393 -2.490271 -3.0962756 -0.30873796 -0.5961065 -1.2456137 1.999783 -1.2102585 -1.0145279 0.36255625 -1.2158506 -0.50543755 0.81191605 2.1823666 2.7116776 -0.909384 1.3958243 -0.43798938 -0.22704414 0.79526466 -1.4543785 -0.68908805 -1.9169586 -0.18424949 0.4493829 -2.1820145 1.5615222 -0.81915647 -1.2313163 -1.605787 2.1184616 0.11626783 -0.84720415 0.3503553 -0.97880507 -0.0727482 0.30660993 -1.8763813 -1.2306215 1.0610561 -0.27284154 -2.2781048 -0.8637913 0.7674598 0.54312354 -0.43133235 -0.49872586 -0.5983388 0.9367036 -1.1726918 0.95023215 0.087168686 -0.36264724 -0.6101979 -0.2640464 -1.1135546 -0.20175321 -3.5456254 -3.7347512 0.15999869 0.11761509
C1QC -0.5709698 4.4545174 -2.1505995 -0.89618057 0.08078391 2.4826243 0.09624929 0.1415272 -0.61436975 0.9081625 0.8534387 -3.080101 4.001611 1.5312396 0.20667551 -3.039165 4.873706 2.2562706 3.8696384 -0.08711402 1.5097156 -0.63205075 0.6688393 1.0717934 0.1340381 1.8426348 -2.045552 -0.14493217 0.83113205 0.836466 2.0007365 2.648903 -0.3778513 -2.7271905 -1.4647814 0.8845699 -3.7872748 3.978994 0.13859937 -1.1275564 -3.868183 -4.342335 0.6747263 0.1616868 -0.8819203 1.0785722 -1.3829471 -0.1969789 1.3421671 -1.2772889 0.49828175 -0.3178451 1.7569886 2.7521136 -0.96822083 1.7917348 -1.265894 -1.0937519 1.2223839 -1.4420719 -1.2999175 -1.2088289 0.33276656 0.30337265 -1.9893064 0.4812442 -0.047948997 0.30540928 -0.9136363 1.4127998 0.7819085 0.63653165 -0.030170107 -0.3087455 -0.32311085 0.076371245 -2.9583652 -0.051234163 0.95413655 0.704402 -2.5346851 0.24951047 1.5848147 1.417398 0.84968174 0.8363211 -0.9504857 1.3716184 -0.5563861 1.3455696 -0.74410594 -0.16553877 -0.5462988 -0.06742944 -0.09847837 1.7236866 -4.4889855 -3.657974 1.3704925 0.73608667
C1QB 0.044810984 3.3192477 -0.60414356 -1.2111939 -0.36490217 3.117917 0.22622772 0.82013994 -0.77005637 0.021349018 1.4626919 -1.7781706 3.7663543 1.7636292 -0.25076386 -3.3580098 4.201198 0.4895811 2.9962213 -0.28986117 -0.17475408 -1.7913109 0.16991174 0.2388589 0.21904218 -0.45544988 -2.573629 0.027317917 0.50211847 1.8164338 1.9850857 1.7138213 -0.9497364 -1.7223793 -1.3307378 0.21486075 -2.5335116 3.840615 -0.7002421 0.106201075 -1.9137219 -3.6820035 -0.12786022 -0.97441 -0.35619685 0.5237207 -1.2193363 0.20223449 0.8722672 -1.237773 -0.6096092 0.31420907 1.7576978 1.8724239 -1.8161849 1.816754 -0.10124114 0.20699768 0.30403537 -1.7724283 -0.18062133 -1.618945 -0.42372876 1.0022044 -1.4682624 0.78557193 -0.52458054 -0.69656694 -1.836407 1.1341535 0.13113013 0.06642768 1.165503 -0.54449207 0.5764875 -0.3558293 -1.353606 0.060461607 1.1860147 0.47379747 -1.8840444 -0.5187163 1.2676314 0.7454622 0.30406737 -0.02890491 -0.52736104 0.89768124 -0.44010514 2.1527452 -0.8277518 -0.26751417 -0.8912211 1.2323366 -0.4647348 0.84398496 -3.446946 -3.464744 0.7712608 -0.81865275
ID3 -1.8612783 -0.8276232 1.137565 -1.4678984 0.958921 1.8293829 0.046727736 1.5550927 -0.41156965 1.510741 -0.7482238 -1.1003767 0.30392137 0.4546277 -1.1444829 0.066625856 -0.7120457 0.5994982 1.3975667 0.28777125 -1.155491 0.96225995 -0.24245374 0.5994476 -0.96923494 0.7999729 2.2512019 0.18574789 -1.1259868 1.6772757 0.69512737 -0.43414977 0.7173547 0.14718321 -0.5972251 -0.35879275 -0.57336235 0.90251976 0.21535023 -0.5825789 -1.679659 -1.687625 1.432931 0.7225192 -1.9560896 -0.9630835 -0.025511919 1.6191727 2.2034473 0.36922288 0.71523136 0.3871959 -0.07655364 2.2892354 0.51832473 1.4594533 0.14540708 1.8541518 1.8309569 -0.5991522 0.1480409 -0.17023174 -1.5333581 0.7651838 2.1003575 -0.67912716 -0.990905 0.16950202 0.447917 -1.0442687 -0.46591368 -0.21151851 0.33633024 0.05093982 -1.3376228 0.9438313 -0.32569787 -1.1843573 0.18229342 0.95713437 0.35462603 1.212119 2.0385025 0.30290276 -2.6059911 -0.937169 -0.44237575 1.0905341 -0.5332041 -0.28119278 1.0646545 -0.48809832 -2.145746 0.8658965 -0.46707714 0.5933563 0.6261285 0.14095841 0.38367 -0.041457243
RUNX3 0.81700444 -2.1716325 0.22724138 0.6013321 1.0141938 0.26510957 0.34557843 -0.33389086 0.10474149 0.7124008 -0.4326075 -0.05899564 1.5191886 0.44366434 1.7046249 1.3404858 1.5846094 -2.3366985 -0.5071711 0.31605953 -0.06136737 1.0242198 -1.5745704 -0.70906705 -1.4618843 1.2705531 -0.6620798 2.299514 -1.8023664 0.08116986 0.9209595 0.2798933 -1.5982811 0.79727346 -0.40176862 -0.39432746 -1.2688923 0.30399022 -1.3938043 -2.1539829 0.12146585 -2.3823588 0.930943 -0.6666606 -1.761038 0.2800602 0.7506659 -1.472604 -0.34171262 0.06765218 -0.8741567 -0.84737587 1.0284569 0.31740507 0.21333206 -0.7069055 -0.51890075 -0.60913235 -0.5367142 -1.3066126 -0.5177417 -1.3211842 1.2075076 0.17699423 -0.97923034 0.42310235 0.2033946 0.42350972 -0.1118924 -0.93313104 -0.4019569 -0.49759474 -1.233142 -0.016151762 0.82090396 -0.014734698 0.14841387 0.6739277 1.309759 1.402668 1.5364286 0.8202275 -1.804003 -1.1509559 -0.23015259 -0.84729046 -2.069939 -0.6103512 -0.7114611 0.96492445 0.42796686 -0.100525424 -0.4677199 1.4928465 -1.6024443 -1.6529084 -0.43618283 -0.684872 -0.99018127 1.193419
STMN1 -0.26627067 -0.5518224 0.96599936 1.0643579 -0.41464064 0.5294323 -0.35212374 -1.2091161 -0.5588973 0.5672581 -0.935642 1.5221636 -0.5155273 0.08126467 -0.37099627 0.8554028 -0.640499 0.056897335 0.68219566 0.22927867 -0.98058045 0.16153984 -0.39654198 -0.0507646 0.48304477 -0.6440253 1.1633924 0.6008455 0.0004102627 -0.19913435 0.2126541 -0.42775106 -1.0624205 -0.6894846 0.40004563 0.971567 -0.35231835 1.162764 -1.5596823 -0.49810424 -0.5764666 -0.41142952 0.091953546 -0.005820085 0.07405264 0.7373313 0.35181883 0.52464044 0.3672881 0.30828714 0.6071823 -0.52008295 -0.8374129 0.8765548 0.23075819 1.1459334 0.6516684 -0.1791657 -0.26421693 0.8414651 0.18039936 -0.2863827 -0.011398456 1.0119423 -0.56115246 -0.35819423 -1.1295673 0.48854366 -0.45117047 -0.35251743 -0.48697954 -0.7009193 -1.1088676 -0.001635593 -0.6868427 0.10690605 -0.99050295 -1.4394038 0.012833804 0.8878748 -0.5943727 1.7718846 0.53813386 0.5849327 -0.6113199 0.44113415 0.34500065 0.24533392 -0.13477634 -0.15629382 -0.568591 -0.01839471 -0.8418948 0.090496995 -0.8069163 -1.1266086 -0.5377723 -0.19143851 0.43109915 0.27242076
CD52 -0.46594328 0.42401797 -0.074461654 1.1781844 1.7666816 -2.0011945 3.366209 -2.1244297 -1.2479799 0.920886 -1.8017493 -0.61759406 -0.004173098 0.52927524 2.8847682 0.6289978 1.1322019 -3.2508786 1.5350312 -0.4242375 -1.3864447 -2.2278624 -3.699929 -0.17565133 0.88448256 1.706888 -2.3394828 3.5354178 -1.5552438 1.3060329 1.0256464 0.45738003 -0.84884816 1.4274417 -0.42067638 -0.39504686 0.005003076 0.9855909 -1.1778767 -1.187763 -0.09754346 -3.4759703 1.3714063 -1.4135587 -0.13266385 1.8765932 -0.6497757 0.043906286 -1.0797714 2.7016609 0.98225987 0.9224427 1.8512962 -0.22533129 1.632285 -0.39261982 -0.36685947 -0.20498247 -1.8381765 -2.023183 0.7740155 0.31370598 0.6330456 0.09430639 -2.0443683 0.3498153 2.0554223 0.95586336 0.4494474 -3.1038446 -0.81522495 -0.07374237 -2.5168586 -3.0716257 0.40706643 -0.1135574 0.8577847 0.39761943 1.4165797 -0.79845214 -0.38659668 -0.6120699 0.1849271 0.106996074 -1.3072093 2.6275322 -3.0769823 2.7132723 -0.6363225 2.6927993 1.0985554 0.69075984 0.7710654 1.2130243 0.34178293 1.2057097 -2.5770988 0.87761116 0.22653483 -0.2555269
ZNF683 0.33066562 2.742141 3.7469752 -0.23978683 1.4132302 -1.0025892 5.6723633 -0.6509358 -2.78726 -6.8457727 -0.72875077 2.0355434 2.6401076 2.8757899 0.6844904 -1.0295024 -1.2816886 -0.46012926 0.53883636 0.8027343 2.5090647 -0.42552912 0.1951109 2.2158256 -0.3006858 1.1945727 -0.18697712 1.8352739 0.73099726 0.9347525 1.5466969 0.051494785 0.7360282 -2.1311789 2.7594333 -1.8674731 -3.093973 -2.3668265 -3.629119 -3.239455 -5.712382 -4.3545103 3.7781603 3.9175847 3.6261947 0.41136956 0.82683504 1.4403565 1.2498229 -1.0644162 -0.15423092 -0.9061839 2.5112028 1.1542152 2.766937 -1.7075145 1.8167963 -2.8440568 -3.4374695 -1.5641016 1.1139032 4.2894897 0.42607084 -4.0439243 1.323647 -1.4405967 3.4136026 -1.6127232 2.0140116 -4.207048 -2.9432232 -1.5156343 -2.6098647 -2.1539793 1.9651009 0.21329048 -1.5285016 3.1600955 -0.4041879 -3.2661502 -1.0106833 1.9755551 3.6340704 0.027023619 2.4037917 -1.6274617 2.6787047 0.63226706 0.3756565 2.8899455 0.01243599 1.2605652 0.063677765 1.8866699 0.3677304 0.4775934 0.8839629 2.1903865 -0.5878269 -0.86438
HMGN2 0.2026036 -0.63530463 0.5665555 0.4460859 -0.86551195 0.2093566 -0.48715934 -0.73000073 -0.10920184 0.07966315 -0.8815511 1.2888225 0.011597163 -0.07908273 -0.41904548 0.8489706 -0.4576553 0.46090916 0.2663401 -0.2811664 -1.3352679 -0.102098145 -0.42554662 -0.21121758 0.11167695 -0.6107964 0.99291426 0.39105844 0.067711726 -0.2616413 -0.09212089 -0.7182929 -1.3063782 -0.948241 -0.22438091 0.72320324 -0.3113575 0.95788735 -0.7887278 -0.28739813 -0.50289565 -0.9686666 -0.87419146 0.25417575 0.03557409 0.7852157 0.64614785 1.3743442 -0.17860846 0.40873995 0.31470415 -0.51134396 -0.441916 0.31484964 0.27089375 0.50518304 0.012454896 -0.3862707 -0.36723995 0.76439804 0.42381063 -0.55830216 -0.40343776 0.6938976 -0.30715492 -0.13270023 -0.7556906 -0.2844006 -0.9450581 -0.7628492 -0.44115084 -0.7002262 -0.4259755 0.016284375 -1.0906129 -0.08319136 -1.5211213 -0.92881274 0.2554717 0.34579146 -0.77018636 1.4576672 0.31232435 0.4463965 -0.3486558 0.4984539 0.42178944 0.3366746 -0.081703745 0.13065723 -0.58013344 0.3361848 0.020744516 0.7239708 -0.18798172 -0.7757546 0.2146399 -0.5331829 0.14504991 0.33901507
SFN 0.0012554333 -1.3123057 0.9378109 1.2215292 1.1482854 -1.0460273 -1.2041388 -1.110631 -1.1807837 1.3232402 -0.9515406 0.49032804 -1.0817232 0.14415964 -0.53549266 -0.090635866 -0.6491716 1.8732665 0.14507815 1.1406462 -0.15656146 0.538936 -0.8226208 1.786401 -0.6703132 0.40313938 0.92684704 0.3086466 -1.346308 0.8307984 0.582865 0.06615672 1.1387266 -0.39767358 -0.015271808 0.77037275 0.97260344 -0.706865 -0.3698147 -0.11268609 -0.10888872 0.5128158 0.22927603 1.5407969 -0.62935895 1.1424216 0.36684382 0.6998605 0.7740124 0.010156653 -0.25585365 0.89118564 0.06509145 1.3221878 0.86937 1.9713569 -0.22213283 0.50116634 0.4836413 -0.5687459 0.32030064 0.35046092 0.688495 0.4468502 -1.0226306 -0.36347342 -1.0305427 0.08006476 -0.4629057 0.88451636 -1.1748605 -0.04134107 0.8392836 -0.6649153 0.37069684 0.13643141 -1.9991207 0.320106 1.1735601 -0.11320468 -0.7000121 0.5115475 0.75974214 0.83357704 -0.9651856 -0.14936663 1.0511407 0.6038176 -0.17561407 1.4965705 0.8409752 0.94227004 -0.4432326 0.36108467 -1.5905823 -1.5890552 -2.486038 -0.34924063 -0.24867097 0.36420098
IFI6 -0.2672216 -0.51207596 0.4269457 -0.11967683 0.03150695 1.6248243 -0.97057384 -0.34055135 -0.13219187 -0.15640323 -1.1133298 -0.02157315 -0.6830145 0.8943619 -0.6612244 0.74221677 -0.75376576 0.57016575 -0.4539508 -0.21799134 -1.3639001 -0.13987792 -1.021931 1.6356504 0.04369987 0.5154069 -0.8344884 0.027839417 0.03881966 -1.3446186 0.46933797 0.40708727 -0.8666979 -0.59354556 0.3300176 0.099235654 -1.1781548 -0.17896983 -0.03636861 0.25291875 -0.59848094 -1.0776148 -1.2091721 0.2192303 0.6164238 0.2507692 0.16260856 1.9136196 -0.6934315 0.9363107 -0.33803487 -0.4029857 -0.8639685 0.9676398 0.9877557 0.6318706 0.26697922 0.40493205 -0.25941572 -0.22359161 0.57413584 -0.7081612 -1.4324193 0.003808876 -0.036893252 -1.0400414 -0.8023027 -0.76430565 -0.586405 -0.40632468 -0.81246763 -0.66202295 -0.9424479 0.2775093 -0.30160272 -0.25183162 -1.0836897 -1.1518314 1.0902742 -0.3334205 -0.03631489 0.4811087 -0.44555947 -0.19263707 -0.91789 0.1681065 0.41951376 0.11449609 0.504602 0.24940494 0.13462901 -0.13890272 1.0229516 1.0096304 -0.30231848 -0.011840038 0.96872723 -1.3568333 0.34691378 -0.026577624
LAPTM5 0.116097905 0.94188744 -0.7027382 -0.9612149 0.12907217 -0.14185768 1.0800629 -0.2705067 -0.7447852 -0.3037044 -1.6665243 1.0689846 1.6273078 0.032383632 0.52603644 -3.777366 2.5359883 0.40834492 3.4824917 -0.057552937 0.013631949 -2.6364818 -1.6572255 -1.2314203 -0.27980694 0.68906504 -1.8053277 0.24661751 1.0566008 0.861078 0.7400936 2.3669963 -3.4488368 -0.68993336 -1.3572901 0.30419806 -2.2460878 1.73633 -0.14523837 0.109966785 -1.5554795 -3.3528025 1.0200301 -0.38663304 -0.48516998 -0.9415664 -1.5610052 0.100381635 0.628658 -1.9810318 0.25401047 0.96762925 1.2207999 1.8621294 0.12288257 0.91523826 -1.8539662 1.3135779 -1.1956065 -2.3633525 2.247182 -0.40306574 0.42923012 0.56850326 -2.709761 0.12369657 -1.0842948 1.4031932 -0.09438211 0.13981736 1.3637311 0.21580341 -0.57549214 -2.6723812 0.07070156 0.7570622 -2.9541688 0.95653266 1.1441363 0.7571089 0.63755167 -0.034473293 1.575846 0.39962474 0.907046 -0.21300371 -0.15517741 2.117996 -0.9218589 1.4037911 1.9151495 -1.6295683 0.7202749 2.137324 -0.34400907 1.682293 -2.4592843 -2.5474322 -1.2786665 0.9051766
FABP3 -1.6589322 -0.12061924 0.13831833 -0.4597146 -0.110735975 0.59725827 -0.72125834 -1.1573625 0.33439106 -0.6456985 -0.7516146 -0.7880702 0.15636565 -0.05383337 -0.025504688 -0.2380977 0.36195967 0.24174768 1.253886 0.5568168 -0.54167503 -0.17756747 0.6231744 0.5631212 0.14994667 -0.16934162 0.9060486 -0.27398774 0.30932745 0.6552042 -0.6646787 0.52004683 0.42637503 -0.004637566 -0.7612808 -0.27169675 -0.7166363 0.2304094 0.3004799 0.038784795 -1.5705829 -0.10493913 0.49872413 -1.3465426 -1.0421802 0.24772269 0.0019401436 -0.8978799 1.6840514 0.36037526 0.82211906 -0.3766426 0.84354085 1.3785535 0.98151356 0.36888114 -0.31031296 0.23583132 0.18454377 -0.33145726 0.4894983 -1.3809357 0.332315 -0.87102306 -0.40541688 -0.28112352 -0.35509896 0.75108767 -0.3207993 -0.21539122 -0.68271714 0.104009576 0.5381324 -0.21918324 -0.47515702 -0.60254306 -0.1147306 0.75647336 0.6595874 0.19308117 0.5311454 -0.18969306 0.730851 0.116403095 -0.16738378 0.19996276 0.3285242 0.10231101 0.001359724 0.6374913 0.26036313 -1.4640207 -1.4232208 0.0016968631 0.93551886 0.73231477 -0.13682015 0.04936105 -0.2002375 0.5366627
SERINC2 -0.5919777 -0.28612873 0.18013524 0.38340133 -0.96207553 0.2380433 -0.021091228 0.0023956285 -0.3707147 0.24882358 -1.4876422 -1.498622 -1.4376982 0.81395954 -0.4330717 1.0860997 0.51165235 0.26285848 0.3219149 -0.48091072 -0.45586577 0.8093386 -1.462746 1.853586 -0.22818413 0.4389922 -0.14771146 -0.30863774 0.18834077 0.7899835 0.45210943 -1.0291237 0.116129585 -1.0990378 0.025691468 0.045529716 -1.5392077 -0.63038695 0.14319867 -1.0074968 0.20833474 -1.412433 0.3935097 0.84144473 -0.5520382 0.77371585 -0.38132656 1.020192 -0.11117302 1.206924 0.43081605 -0.5795928 -0.3224476 1.0061022 1.5857631 1.736818 0.6762125 0.008071458 0.3689138 0.6509323 0.51833415 -1.0311451 -1.052174 1.0008965 -0.6413914 -1.335235 0.16352664 0.8507572 -0.3399001 0.9320779 -1.2304444 -0.7227726 -0.08894422 0.1020827 -0.93355477 0.4398796 0.50045055 -0.17942457 0.72372913 0.026298225 0.06861735 -0.034440376 -0.69422656 0.45791113 0.46682873 -0.25914162 1.1798398 -0.606771 0.11612216 -0.56316227 0.064437725 -0.42769745 0.3397327 1.653653 -0.4343972 -1.6181428 0.4507329 -1.5029893 -0.8468642 0.008965765
TINAGL1 -1.2444464 0.16224565 0.4489351 -0.03760172 0.59292614 0.32913676 -0.49973074 0.88108313 -0.5108642 -1.0063627 -1.528022 0.5318688 0.059802305 -0.36607033 -0.38737848 0.56941134 1.2817105 0.34671125 0.90744305 0.033974227 -0.82277715 0.22363988 -1.3738521 1.1444236 -0.56232923 -0.3610674 -0.24160779 0.0052790768 -0.10254157 -0.34901655 0.52173436 1.294597 0.9195754 0.48010612 -1.0706863 1.175645 -1.1607419 -1.318999 1.1805915 -0.72605973 -1.0052445 -0.3139012 -2.105085 -0.9264415 -0.11035709 0.48370898 0.12172261 0.538462 0.7922645 1.8221594 0.43066543 -0.506289 -0.055789903 0.5980176 2.6811686 1.4101354 0.71113795 0.27888548 -0.58355826 -0.39219943 0.70670235 -0.8412189 -0.26940906 -0.29652217 -1.919168 -0.25457078 -0.9633198 1.7357138 0.5467572 1.7683753 -1.6663916 0.66900617 -0.7043607 0.86656344 -0.064915106 0.6929679 1.4719802 -0.43601874 0.38580978 -1.1131101 -0.1715229 1.3553513 0.3583073 0.83110195 -0.24406856 -1.7157947 1.155729 0.571193 1.0318304 -1.3312235 1.2631943 0.3117338 0.4504676 2.2730446 0.38651395 -1.8893574 1.2624214 -1.2303511 -0.08813553 0.671287
LCK 0.73126775 -0.7417172 -0.58481455 3.5291183 1.1758308 -2.2566946 2.6373842 -0.8598883 -0.26567605 -2.6761875 -1.1965934 -0.9886904 0.7987893 2.8173628 1.8712336 0.45757574 3.5688052 -1.0540528 -0.1360672 -1.0133123 -0.41080776 -1.3039874 -3.5332582 -0.11728858 1.2192843 2.4936566 -1.4340401 2.9624147 -0.50916904 1.464333 -0.37789792 0.30462602 -1.9723198 0.30084273 -1.6460005 0.9015566 -0.5949331 1.9465952 -2.804892 -1.9494959 -1.2926676 -0.44843805 1.7061253 0.5143724 -0.8192043 1.5668912 2.5217278 -3.0277927 1.2553629 0.7280977 0.265374 -0.76537585 -0.51706076 3.2875416 0.64311147 0.77153814 1.9155451 -0.30097324 -1.2283028 0.14050885 1.4468442 0.894578 1.3705178 0.84462297 -0.06104391 0.39941648 2.60482 -1.7971092 -2.1479645 -5.238708 -1.8292973 -0.7776916 -0.64124477 -0.6719404 0.17594391 0.1395129 1.0082811 1.6104277 1.369178 -0.16806634 0.062512174 0.18913212 0.4253362 -1.3588984 1.7951145 -2.5347393 -2.2431986 1.3315079 -2.5142133 1.9374018 2.2456777 0.6172123 2.0558312 0.45470288 0.707244 -1.4436587 -1.0702308 1.1396893 -2.3182607 0.10857284
CSMD2 0.31124422 -0.9524165 0.48937994 -0.72878253 -0.40961516 -0.20277902 -0.09981238 0.2854524 1.3226116 0.35968292 0.30333716 -0.9651783 -0.6585298 0.1684867 0.02584794 -0.11415764 0.4687251 -0.42858148 0.61712766 0.6802653 0.14585719 0.9784254 -0.5436153 0.44901466 -0.6077453 0.694085 -0.7444413 1.3161949 -0.54014707 -0.54816735 0.26099622 0.46228135 0.8911414 -0.23726372 0.39700484 0.8328096 0.16283473 0.309675 0.40255225 -0.9180795 -0.15393221 -1.6617965 -0.57539034 0.07455151 -0.44776142 0.46631077 -1.2842095 0.36539537 0.11839107 -0.4087014 1.1227405 1.7389846 -0.10987476 1.0607579 -0.052048102 1.270286 -0.770415 -0.31829733 -0.17508814 -0.320226 0.7449929 -0.7284384 -0.85887897 -0.30301303 1.242391 -0.15261182 0.5237605 0.8852206 0.7530187 0.016482234 0.65675527 -1.118808 -0.55280095 -0.20257607 -0.023078486 0.818228 0.17349933 0.5339922 -0.44426546 0.27048206 0.20722146 0.1647858 0.1698968 0.38912624 0.9945484 -1.508538 0.84373593 -0.2456354 -0.35657173 -0.061969552 1.3903928 0.95828736 -0.18120642 0.6138258 0.5096032 -1.3487226 0.63672644 -0.047757294 -0.2917126 0.48778132
C1ORF94 0.012999685 1.2417787 0.8603318 1.5018609 1.3328853 -1.6547216 0.68151903 0.44136393 0.34981906 -1.9091227 0.18768592 -0.5120763 0.3550013 0.69746214 0.31843355 -0.33471233 -0.9933708 0.20372151 -1.2553146 0.20917808 -0.05575626 2.0362735 2.375793 1.0423559 0.038890626 1.2682157 1.0431619 0.008764978 -0.31091398 -0.30720314 0.22955188 2.9191298 0.31893376 1.0568609 -2.7524574 1.7095374 0.33070594 2.729669 0.22102816 -1.4404552 -0.9374212 -1.5018082 -0.17499043 0.85092103 -2.1159055 0.2124616 0.0717995 -0.5839206 -1.1537246 -0.6941531 -1.9105134 -1.0363871 1.3551093 -0.2218213 -1.6012905 0.118240334 2.572974 0.5415843 0.75879556 0.028223727 -0.21441586 0.2755278 -1.7029097 -0.027328689 0.29388863 -1.0620277 0.749988 0.18964772 1.654631 -0.8265886 -0.6609807 -0.47722057 0.070499994 1.5508382 1.3195199 0.36930084 -0.3005782 0.06520968 1.2716471 -0.9693144 -1.3973562 0.47291875 1.6492999 -0.53663826 -0.1049316 1.0317858 1.4515308 1.2053083 -0.5287845 -0.34228066 0.3005367 -0.26128268 -0.21275245 0.990186 0.3081414 -1.7396408 -0.48189017 -0.26996934 0.14658214 0.17841205
GJA4 1.6579885 0.09846313 0.15248266 0.37055692 0.5835443 -0.07719784 1.0550396 1.1473126 -0.38030973 0.7688362 0.95743155 -0.1451395 0.46632376 -0.33986887 0.82186425 1.5986838 0.31353676 -2.2468057 1.41838 -0.4188559 -0.4471777 -0.83829224 0.08864238 -1.1670607 -1.6123567 0.7247415 -0.22467081 0.64515877 -0.17265835 0.81443644 2.1307104 -0.109017104 -0.5185157 1.0544846 -0.83090204 0.24639784 -1.6926762 -0.08354045 -0.9937002 -1.4305105 -1.3812531 -0.17339109 0.9344266 -0.41448453 -1.3287686 0.39448944 0.0046551554 -0.3002276 -0.41585281 2.243574 -1.4250124 0.90814257 0.89724433 1.2159675 1.6226223 -0.08566231 0.4839191 0.14216538 1.0788076 -0.9399171 -2.1041255 -1.7362335 -1.6480426 -0.4320378 1.4446483 0.25967467 1.0758157 2.33164 -0.67688024 1.6953852 -0.031043362 0.8460425 -0.84909624 -1.5125018 -1.6299268 -0.6507746 0.035182767 1.7695372 0.76961523 -0.15276842 0.9172739 0.6194979 1.5018988 1.0058143 -0.40038145 -0.81099147 -1.7050942 -0.8913534 -2.1601665 0.5338912 0.728206 -0.40170747 -0.46361768 0.7096371 0.8919313 -1.984405 -0.5259911 -1.4193125 0.16198976 1.4583615
CLSPN -0.20915681 0.15385973 0.7011038 1.4828137 0.8059636 -0.28531 -0.76926845 -2.1876514 0.09518252 0.5629636 -0.93480074 -0.52758884 0.14191438 -0.452493 2.181608 -0.19877812 -0.12862766 -0.6002649 2.0995114 0.6968484 -0.9592268 -0.7107487 0.3728132 2.4705436 -0.09976633 0.12970318 0.350225 -0.64769924 -1.2667614 -0.56515205 -1.2277079 -0.7740802 -2.021799 -0.64301723 0.026621293 -0.3805013 1.9974519 -0.5900436 -1.0892043 -1.543036 -0.61917925 1.2360122 0.7637002 -0.42076227 0.20491968 -0.32745653 -1.9198192 0.33210588 0.040778298 -1.0199394 0.41617674 0.0085070655 0.16224276 0.60912424 1.0115523 0.001095763 -0.67166954 -3.075966 1.0155642 -1.3788218 -0.5464167 -1.5262735 -0.28399158 1.2663465 -0.35746533 1.3906779 -0.060899835 -0.08222738 -1.0081646 -1.2993325 -1.6529001 -1.2261714 1.102251 -2.3277388 -0.1547564 -0.83603656 -0.43419775 1.238739 1.9734392 0.40856922 -0.091375194 1.2132981 1.2430475 -0.8522716 -1.1962291 0.20956096 0.38610566 1.9943779 -0.74114096 1.407777 -0.38152656 -2.4770443 -1.170738 1.553647 -1.5603622 -1.0591791 -2.8119867 -2.1639395 0.55851614 0.94748634
TEKT2 2.0912046 -0.8010602 -0.6401265 0.3744496 0.43201637 -0.01778726 1.1843135 1.1994369 1.2925746 0.91170776 0.85101855 0.024826728 0.19572842 -1.3568448 -0.60288733 2.133324 0.7831887 -2.37479 0.03844816 0.5918128 -0.33785844 -0.19074908 0.18651985 0.5877871 1.1966282 -0.21094881 1.1540622 0.7406079 0.14475311 1.6412902 0.44969955 0.60184675 -0.56859595 0.8993206 0.11537739 1.578749 1.6607051 -0.1873333 -0.20168303 -1.5592909 -0.2581697 -0.874424 -0.1644345 -2.0327356 0.8253347 0.5538565 1.1737305 0.5393066 0.27136266 0.22489524 0.2125708 -0.36280277 -0.7818454 -1.584554 1.5406511 0.8857699 0.47005263 -0.79914355 1.2572587 -0.46586725 0.69174707 -0.5009787 -0.10197258 1.0772533 0.42205 -1.4088541 -0.4131696 0.005059594 -1.4714247 1.2505499 -1.2266237 0.887489 -1.119852 0.32436138 0.7636459 0.59002316 -1.9690378 1.1783512 -1.5307962 0.7213299 -0.6009076 0.15459621 0.12607887 2.3347833 -0.4850334 0.5804876 -0.02460995 0.28349862 -0.051022585 0.9762969 -0.3387697 0.90956813 -0.03017518 1.111902 1.5533814 -0.70937455 -0.5012709 -0.50571924 -1.9657866 1.2883137
EVA1B -0.72822237 0.46437013 0.45312327 -0.4445166 -0.96089035 0.916365 0.116249 0.26228786 -0.6232367 0.51143354 -1.5938417 0.5697765 0.738814 1.1292186 -0.37518653 0.7729132 0.32776982 -0.0008814304 0.1830984 -0.085958324 -1.3783948 -0.05145482 -0.661239 0.99433506 -0.45355204 0.21550669 0.55444294 0.1401571 0.14838186 0.1468739 0.56550825 -0.33773255 0.18403116 -0.113542184 -0.09839966 0.2791866 -0.7305389 0.33339298 0.16419287 -1.1023873 -0.23794368 -0.6024332 -0.26514676 0.36126247 -0.24782093 0.2606795 0.44728735 0.7995594 1.120499 1.25662 0.591892 -0.532365 -0.65725523 0.12426218 1.3392428 1.9701991 -0.21989249 0.502117 -0.5567963 -1.0519646 -0.46274734 -0.90813005 -0.4201399 0.38143498 -0.766018 -0.12613384 -0.7659679 -0.003615108 1.0989946 0.6046936 -0.97064334 -0.30326208 0.21352404 0.14558645 0.80156326 1.0185484 0.87270164 -0.8065844 0.3081611 -1.3854939 -0.44236454 -0.33342382 0.36749765 0.05016093 0.28255215 -0.55939806 0.2511664 -0.084092505 -0.4406415 -1.5169443 1.2726732 -0.6505587 0.07985964 1.4115642 -1.1645893 -1.4360259 -0.2685924 -0.68474066 -0.4963782 0.37142068
ZC3H12A -0.98321664 -0.08613009 0.20626643 1.6065078 0.55829966 -0.453946 -0.097693644 -1.0622487 -0.7231165 1.1064603 -0.5417679 0.5788582 -0.10296342 -0.55820954 1.2835236 0.33466095 -0.013491578 -0.6726451 -0.63236356 -0.27632317 -1.1841902 0.09307367 -1.7622446 1.5264314 -0.9403099 0.5186552 -0.7334911 -0.35917243 0.24767952 -0.6408782 1.4131641 0.13537113 -0.91878605 -0.054604452 -0.8374197 -0.29719839 0.8580363 0.092402026 -1.17119 -0.61342585 0.33502024 -0.5579478 -0.24982888 -0.2811719 0.22792304 -0.3669558 0.55791277 0.26000753 -0.5756653 0.39801383 -0.5676121 0.27072 0.32929552 1.7123142 1.1959294 0.34356812 0.22839601 -0.61315656 -0.23696946 -1.1244164 -0.34670493 -1.4697269 0.2359732 0.24961089 -1.318499 -0.34758055 0.59890944 1.1801018 -0.106669776 -0.03599709 -1.3599917 -1.9728856 -0.5984084 0.11131962 -0.4563441 -0.11989983 -1.0812774 0.8663985 0.72628033 0.5502853 0.024635825 1.2326282 -0.8884372 0.6887189 -0.059127282 -0.6214583 0.2498561 1.3395822 -0.09343932 0.50135624 -0.4683438 -0.7675139 -0.6953815 0.3839051 -1.0860157 -0.49727127 0.07694208 -0.6556515 -0.36705133 1.3841753
DNALI1 -0.17554753 -1.2837032 -0.20592259 0.7470086 0.84869033 0.092303865 0.33627632 0.5476076 -0.086928554 0.23108543 -0.03328457 -0.42488596 -0.6386772 -0.9598401 -0.355648 0.80731946 0.44751155 0.22589575 0.61334616 0.7670685 -0.35045853 -0.14394146 -0.30297172 0.7017225 -0.5378474 -0.17725545 1.3819373 1.0805299 -0.25987923 1.2159252 0.6858346 -0.26313797 -0.33428466 0.3550826 0.37996513 -0.37488377 0.03339732 -0.122135796 -0.17380734 -0.72231126 0.3745636 -1.2668489 0.04278621 -0.7668584 -0.13241675 1.164974 -0.54466057 0.78096 -0.5063797 -0.20604546 0.3319334 0.27913532 -0.46641174 0.82188463 0.40495872 0.4245351 1.0399163 -0.023755616 0.7492569 -0.6402888 1.1518828 -0.4743007 -0.36502475 1.414798 -0.2327422 -1.8904845 -0.8213988 1.1732299 -0.43625122 1.4569693 -1.4434245 -0.86319375 0.50162685 0.08900783 -0.610315 0.013648166 -1.4368186 -0.087542295 0.070544004 0.511367 -0.32080853 0.97997946 -0.15830006 1.4776529 0.046832148 -0.20520735 0.25301534 -0.5241015 0.77905214 1.0004345 0.45217514 0.21396028 -0.06708956 0.65507746 1.4521879 -1.6501646 0.12304838 -0.31976599 -0.77139336 0.19895446
RSPO1 0.8470475 -0.7308668 0.2184486 -0.5784427 -0.8595701 2.063483 0.23165123 0.51922953 0.7550785 0.09286486 0.06817083 -0.79871184 -0.31265524 -0.09437648 -0.51021016 0.7047194 -1.5832254 0.8957275 1.095768 -0.8804475 -0.3509288 0.48417348 -1.0888753 2.5434458 -0.30626023 2.1206346 -0.93513715 0.2702356 -0.52115875 0.009317936 -0.80338585 0.31743637 -1.0322304 1.1140305 1.4270189 0.48195177 0.021476762 0.03937479 0.3328112 -1.4390694 -0.7856274 -0.7172913 0.21560542 -1.062657 0.0800138 1.71149 -0.87879944 -0.43878204 0.1934111 0.43630382 -0.28562754 0.878011 0.49612027 2.234259 1.1719514 0.73644984 0.050490737 0.6671139 -0.17611875 -0.0045084734 -0.2955054 -0.4488283 -1.508361 0.5405424 0.72532076 -1.1507738 0.63691247 0.35227785 -0.06826516 1.7053831 -0.07645733 -0.0101511665 0.689593 -2.0354917 -0.7463927 0.2268131 0.042458374 0.8706426 -0.023265192 1.0187031 -0.18328887 -0.9182409 0.30436856 -0.45070583 -0.15526699 -0.80080515 -0.31828094 1.1135588 0.57464725 -0.7024993 0.48992327 0.75339 -0.18951443 0.86073345 1.1799475 -1.3650154 0.6719631 -2.102523 -0.43981755 -1.681233
CDCA8 0.25176287 -0.8678284 1.1580116 0.5930554 1.261996 0.14365885 -1.1264261 -0.026928416 0.48959512 1.0185956 -0.54584783 -0.13522719 -0.0014673518 0.45292473 0.49017173 0.11780404 -0.6399424 0.3195623 1.165797 0.2910933 -0.0011498248 -0.37810022 -0.29412177 0.44584864 0.016310465 0.90098304 0.089415506 1.8032963 -0.7456855 -0.09569523 -0.43901852 -0.39464378 -0.99984664 0.47540104 0.90390444 1.526074 0.18279675 -0.48653027 0.025255546 -1.469509 -0.25456008 0.35816047 0.43431053 0.31856212 0.8366906 1.3200494 -1.1397632 0.796217 0.85690343 -0.93081754 1.2407424 -1.2235036 -0.11715209 1.7381513 0.5790674 0.4497611 -0.38387802 0.49642083 0.51928943 -0.27495307 0.8072634 0.04174686 -2.337639 1.8077533 0.40271875 -0.03309308 -0.5447516 0.697281 -1.8789046 0.56761277 1.0505435 -1.1789002 -0.33606088 -2.169269 0.2419829 0.63613945 0.16875221 0.9469386 -1.2339262 0.0982742 0.4865417 0.936651 1.9846735 -0.9358667 -0.33038738 -0.10554155 -1.1409968 1.0975571 -0.40915614 0.50473356 1.9943671 -1.6192144 -0.53754354 1.0493594 -1.8553156 -0.9284856 0.019391598 -1.4911602 0.36433464 -0.3120874
MYCL 0.06737729 -0.42736694 1.1177061 0.5711572 1.0051922 0.039086416 0.9399751 0.77804464 0.7747221 -0.38170263 0.30878595 -0.07569188 -0.3918362 -1.3709863 -0.2887472 1.1603833 -0.0016119301 0.10258476 0.37533012 0.06373531 -0.3351668 0.49329013 -0.7378725 1.4268816 -0.6869049 1.4278141 0.5459598 0.6377259 -0.21586844 1.1012697 0.15557232 0.6981661 -0.6475238 0.6958097 0.44484642 -0.42498514 0.7546928 1.1894425 0.4250964 1.19642 -0.13634478 -1.4597104 -0.22852263 -1.3445625 -0.018518042 -0.09986161 -0.40757513 0.020316122 0.972978 1.069925 -1.6506691 0.16102272 1.4829774 0.77647954 0.5293371 -0.01039428 0.5582272 -0.37218514 -0.4180478 -0.5230914 -0.32598695 -1.4506271 0.3086143 0.44517365 0.6053929 -1.1305072 -1.695604 0.088414095 -1.4049176 1.1970015 -0.544441 0.86804265 0.41550452 -0.3320328 -1.6775391 -0.4360824 -1.0899537 0.006239832 -0.12676549 1.7468888 -0.45581403 0.846247 -0.22417921 0.7737528 0.13070221 -0.11114596 0.56555265 1.3645964 0.5900681 -0.0056781233 -0.61433536 1.110347 -0.47269315 0.88386875 0.27318525 -0.51345026 0.9899584 -0.14822395 -0.021661771 -1.0755283
COL9A2 -0.09222288 0.6354791 1.8435858 0.9275015 0.094467476 -0.07116285 -0.7337254 -0.9632486 -0.5080551 1.6391671 -0.16200098 1.415342 0.27558628 -1.2413816 0.7302468 0.038483135 -0.54723305 0.5720979 -0.3282953 0.46358636 0.044499647 0.38261732 -1.2340487 1.8942498 -0.051474866 0.7560864 1.2215389 0.13148193 -0.7290437 0.18179154 -0.3363553 0.27831665 -0.14340118 -0.18862067 -0.0250393 -0.08027702 1.1052394 1.2028944 -1.136472 -0.48058042 -0.2832232 -0.12553474 -0.13804583 -0.13908282 0.017980412 0.23252194 1.0042781 0.42484292 0.88898957 0.27722743 0.20865838 -0.63038564 1.4470264 1.1544869 1.2473179 0.8077911 -0.62328035 -0.8917336 0.53700775 -0.8742677 -0.36652896 -0.5705597 0.5971471 0.54015845 -0.22062285 0.38266128 -0.06284083 0.6533475 0.5236396 0.15343009 -0.277834 -0.59765583 -0.31792402 0.10008437 -0.06236662 0.4946128 -1.4220715 -0.60982466 -0.9379649 0.031254653 0.022540301 1.1538455 0.0723002 0.4642467 -0.7702597 -0.9171341 0.22785467 0.79348326 0.15408398 0.08490646 0.30298114 -0.087003134 -0.31827852 -0.24668615 -0.2886785 -0.7823122 -1.7556694 1.0586673 0.46363106 0.6490337
CITED4 -0.7284643 -1.0422331 0.30598614 0.722847 -0.40435442 0.17901453 -0.087903075 -0.567657 -0.24783126 0.086305834 -1.7175467 -0.9659373 -0.9422052 0.24324489 -0.51810676 0.85671896 0.7268596 0.9005383 0.47267956 -0.02128716 -0.12531057 0.19576682 -0.51994365 1.0946873 0.26595256 0.06363685 0.14579625 1.1310799 0.07656501 0.046262994 0.93073523 -0.43063155 0.096587755 -1.0620489 0.049948357 0.3886931 -1.3813908 -0.20782518 -0.117347725 -0.31445274 0.019563781 -0.65306824 -0.8700725 -0.0036689085 0.18409844 0.63591206 0.24525209 1.2135006 -0.24819808 0.45059773 0.122528054 -0.4959864 -1.1989435 0.5182934 1.1002865 1.2598937 1.2792993 0.83686846 0.53061104 -0.2971261 0.28095037 -0.99623555 -0.5339735 0.17828485 -0.061700936 -1.1161381 -0.004197759 0.02592515 -0.6060568 -0.06714751 -0.4739917 -0.3475949 0.8319411 -0.19047363 -0.69360965 0.17708847 -0.26527798 0.023702292 0.37540957 0.12083397 -0.20905408 -0.15629226 0.42940408 0.088930964 -0.035681926 -0.15804046 0.87478083 -0.5845331 0.9380615 -0.7052992 -0.49741125 -0.24327834 -0.41543767 1.2195146 -0.89676183 -0.82901 0.17675494 -0.87100214 -0.24614516 0.3909901
EDN2 -0.09173032 -2.627882 0.9067521 0.24424392 -0.12173839 0.64937425 -0.5885438 0.52069414 0.12674208 -0.46173346 -1.7082254 -0.2184308 0.50047725 -0.35495538 -0.011688059 -1.75944 -0.69277436 -0.079226665 1.9731578 0.27976304 -0.46148813 1.3102037 -0.5228554 1.1043469 -0.95970005 1.0585247 1.5833533 -0.035197146 -1.4399133 0.25734288 -0.7064279 -0.72752607 -0.63869494 -0.106242836 -0.16867833 1.2451978 -0.059334878 -0.7844175 -1.0346111 -1.4465166 -0.7645211 -0.109180585 0.4618548 0.09932766 -0.093950965 -0.54215014 0.51924103 -0.10570634 0.5108935 0.522896 -1.5280164 -0.4008926 0.57417315 1.5151523 0.13994499 1.6080241 -0.36301482 0.4651447 0.7846494 -0.32359573 -0.92978144 -0.05024065 -1.2400159 -1.1681873 -0.05721978 -0.85274065 0.36954102 -0.28057435 -0.84099007 -0.96831423 0.0024384088 0.70240086 1.1487752 -0.89837044 -1.6390566 1.4923753 -1.1316671 1.6926489 -0.0956268 0.535827 -0.3899297 -0.22874926 0.12383492 -0.42578667 -1.0377612 0.40976337 -0.79968697 0.5296103 0.7068275 1.4279155 -0.3394241 1.0280617 -2.5868506 0.0010222789 0.4276169 0.6734314 -0.8049024 -0.5188889 0.020402705 1.0294045
SLC2A1 0.08916524 -0.9238885 0.20792322 -0.038478836 -0.65374804 0.7779624 -0.17318776 -0.8175134 -0.12512705 0.51650685 -0.92122346 0.7420473 -0.0070000268 -0.26073438 -0.03561427 1.33761 0.06985291 1.3008857 -0.7276289 0.429651 -0.72973406 0.675366 -1.1874213 0.86094713 -0.18931453 0.3712726 0.5569176 0.8465765 0.045744944 0.75013447 0.18705437 -0.7454495 0.18008451 -0.11965522 -0.21146415 0.48069382 -0.74733377 0.046367045 -0.31089428 -1.0603757 0.6174516 -0.25190857 -0.2708727 0.06268984 -0.30737078 0.03396985 0.013257221 1.359615 0.042833894 1.0396643 -0.08191436 -0.49958023 0.5390447 0.56526196 0.9559378 0.73710173 0.323575 -1.0148177 0.10824765 -0.046877347 0.8621098 -0.47183794 -0.08895319 1.3028411 0.1619068 -0.40396622 -0.23810981 0.21581908 -0.624267 0.04774632 -0.23015785 -0.26631725 -0.4357269 1.1400287 -0.5193301 0.6967302 -1.0471898 -1.1158692 1.1372154 0.61322105 -0.35285926 0.11623153 0.12145637 0.32071733 -0.14652452 -0.0548569 0.06453263 -0.15430194 1.128384 -0.41727245 -0.24842423 0.40591085 0.4018931 0.78776973 0.8760205 -1.0532311 -0.5249916 -0.29574183 -0.14726345 -0.22936592
FAM183A 1.5383801 -0.56189525 -0.18229197 -1.7773762 1.7687274 -0.2858297 0.1539594 1.7437361 2.3509839 -0.47201145 0.26385432 -1.5127245 0.20924939 -1.4823997 -1.5801228 1.8157707 1.6278106 -1.2386316 1.9171066 0.7533229 -0.25419104 -0.514978 0.65669674 1.8983512 1.1346989 -1.1650567 2.4401724 1.6983985 0.32008883 0.15315999 -0.44291317 0.14809184 -1.3333932 2.036409 -1.6643426 1.2725836 0.5641472 0.7138889 0.20488219 -1.1660383 -0.23672956 -1.8737855 0.2788672 -0.49787673 0.7356103 1.2979349 0.334833 -0.9490759 0.23442474 0.35395712 0.669116 0.38509983 -0.7665785 -1.7595634 2.4134233 0.7810254 1.7855449 -0.73434514 1.5385888 -1.6987484 1.7278025 -0.5092793 -0.2523441 1.15489 1.6740329 -1.0172998 0.9731992 0.17799976 -0.70127636 0.22842337 -1.7271845 -0.09053898 -1.7283044 0.82098216 1.4529833 0.6991873 -2.4662707 0.9727235 -2.8943467 0.58769596 -1.2255365 -1.0743321 0.54755384 2.5679684 -0.32335404 -0.104754895 0.8058189 -0.23779431 -1.7773693 1.6416695 -0.50567704 -0.93895894 -0.8105114 1.5569862 0.9346487 -1.1213949 -0.63588446 -0.55353004 -0.39133605 1.6337796
CDC20 0.87929165 0.71140486 1.5096192 -0.057643123 0.7767149 -0.49949485 -0.9619521 0.2413259 1.5359532 0.97173417 -0.7353194 -0.037640322 -0.71793693 -1.525187 -0.44302332 1.0262258 0.6440674 1.1406786 0.5575427 0.44670084 -0.43378353 -0.8210096 -0.08631644 -0.16059667 -0.04248263 1.7043452 2.4990416 2.0267875 -0.64542896 0.8449465 -0.53364086 0.9526447 -0.39252037 -0.69528055 0.4610137 0.76767164 0.47829753 -0.4060332 0.65145177 -0.2069651 1.6845793 -0.11422584 -0.6259835 -1.6845088 0.007451619 1.411489 -1.5409226 0.69976217 1.6940228 -0.9717695 -0.640583 -0.15156628 -0.2208853 1.9871392 0.81685877 0.48730358 0.7978642 -1.0840567 0.18253343 -1.7809206 -0.28188935 -0.778907 -1.6970199 1.026021 1.5382292 -0.73004425 -1.3841567 -0.46168917 -0.13282149 -0.28393647 -0.15061352 -1.3713194 -1.2370278 0.020246523 -0.7842256 0.9793512 -1.2790159 1.0107303 -0.23649901 0.7015125 -1.0857304 1.7813479 0.7726978 1.2718905 0.8118253 0.05981246 -0.89676714 1.648898 0.510746 2.0331824 0.53466487 -0.6059741 0.43916893 1.8212963 -0.56678575 -0.96180713 0.7173534 0.18573262 0.39977774 -0.69143426
ARTN 0.6942185 0.22989355 -0.119740225 -0.51662767 -0.07487454 -0.3118397 -0.45108852 -0.03790007 -0.20327364 0.8228096 -0.44617444 0.54038656 0.0575566 0.4527437 0.49196437 0.6514425 -0.83638656 1.1576818 0.39234772 0.29601675 -0.3468317 -0.36525646 0.8112807 1.4969044 -0.41883013 0.71394813 0.5678146 0.06489398 -0.35709494 0.99494123 0.7023157 -0.433841 0.18762533 -0.30845594 -0.14702742 1.061078 0.48665652 -1.0685722 0.78562224 0.11192118 -0.16973981 0.36720178 -0.067545794 0.37267876 0.38329312 -0.51845723 0.4581205 -0.16899939 0.5343347 0.7629427 -0.57039046 1.1603599 -0.16484426 1.3021959 0.008084296 0.14493619 0.18770792 0.9135016 0.26062196 0.1617444 0.6422624 -0.75431496 -0.37011448 -0.48786104 0.6723937 0.07313634 0.61677796 1.1013393 0.30119553 0.22318612 -1.0740123 0.13601385 -0.12831648 -0.12024818 0.3380551 0.9644918 0.094193324 -0.4363484 0.13867395 0.48554033 -0.5559535 -0.25299442 0.22975425 0.5566368 -0.7467753 -0.92304844 -1.1077243 0.9873314 -0.55245036 -0.2267432 -0.12099509 -0.14183 -0.8172305 0.7546769 -0.49809086 0.029868742 -1.5535471 -0.25412273 -0.16233863 0.41581386
KIF2C 0.031730957 0.9906941 1.5116049 0.31191516 2.0960166 0.7678846 -1.1746346 -0.8783377 -0.5007252 0.7878048 -0.14764965 -0.011281244 -0.2405576 0.6189996 0.21018377 1.5980319 -0.7527729 -0.98198247 0.93159276 0.9413044 0.057104044 -1.0102922 -0.12500645 0.71095645 0.11892785 1.8609835 -0.10729134 0.56647086 -0.3411819 -0.14045648 -1.264144 -0.37851724 -1.6483586 0.3420464 -0.40983033 0.7922378 0.71125144 -0.63589054 0.76669204 -2.4125755 -0.037531007 0.04665015 -0.107385494 -1.4948431 -0.015767729 0.81693697 -0.9780474 0.53633195 1.6890615 -0.7393425 -0.2614597 -0.6716055 0.4704668 1.4629786 1.5300138 -0.4315458 0.51431715 -0.948859 -0.5792557 -1.0040041 -1.2164183 -0.8411152 -1.4281688 0.67587316 -2.0914202 0.6197545 -1.2462002 1.1363542 -1.0843884 0.28647068 0.119225286 -1.093442 -1.5141985 -2.2569568 1.9038475 0.10691521 0.18324836 0.47804272 -0.55025893 0.6430171 0.6229381 1.6358073 1.4498659 -0.2794848 0.24244846 0.64944035 -2.2476873 1.1230444 0.3334679 0.61161757 0.83077073 -1.1445286 -0.2956573 0.629353 -1.7486871 -1.370657 0.5398998 -1.547715 0.6776231 0.6474249
PLK3 -0.108697206 -0.6990045 0.34600738 0.007848847 -0.117994055 -0.09740232 -0.24021319 -0.47541073 -0.24890824 -0.20593159 -1.5231105 -0.75072974 -0.617031 0.5065346 0.32706144 1.5551109 0.76038766 0.6691669 -0.05622186 -0.50249094 -0.7746725 0.08539516 -0.3481406 2.1850932 0.060001258 0.30929786 0.11389645 0.106495425 -0.97988635 1.7593606 1.094748 0.40617245 -0.42234188 -0.07615454 0.14339092 0.41032162 -0.63513833 -0.1281852 -0.11177675 -0.44308007 -0.7711256 -0.15633096 -0.6738889 0.07374878 0.50428826 0.7606813 -0.22226721 1.3112011 0.5113038 -0.021527285 0.014901872 0.9740514 0.20586824 1.5638818 -0.08438642 -0.039195385 0.08577854 -0.7832439 0.04913884 -0.06485693 0.59424585 -1.5734022 -0.7365534 1.4444153 -0.17804681 -0.89640594 0.07991656 -0.16047044 -1.1058644 0.8782938 -0.2210413 -0.17713004 0.496182 -0.45926386 -0.0886455 -0.04313355 -0.89973074 0.06410367 0.12279431 1.1568936 -0.14985994 -0.093652606 -0.37084043 0.82674426 -1.0593463 -0.48408854 1.1128805 -0.08396096 0.5540767 -0.9058582 -0.30506992 0.045920078 -0.5449363 1.5789896 -1.0409486 -1.2827837 0.036698103 -0.99355185 -0.28795618 0.29436252
TCTEX1D4 0.8246354 -0.25981215 0.6011604 -1.7711957 -0.43707764 0.4787595 0.3356296 0.11966808 1.1922601 0.37520608 0.19534503 -1.0315758 -0.26612535 -0.22121137 -1.3715761 -0.4120933 1.2241471 0.03353679 1.0072718 0.58989406 -1.0331 -0.3788001 -0.22056818 1.3031538 0.22636361 -0.31642276 1.2796435 1.6471745 0.19673127 0.7092594 -0.049528617 -0.40309307 -0.48124847 0.8687583 -0.27672207 0.4541428 0.5732293 0.1307908 0.78369224 -1.7046314 -0.22752658 -0.22403282 -0.27003753 0.1560649 -0.21500197 -0.005504874 0.98654574 -0.44602633 -0.08914807 0.013830253 0.8488734 0.7990257 -0.2350187 -0.956223 -0.20919685 -0.16801846 -0.2947165 -0.971288 0.94929636 -1.3575041 0.5856918 0.6412602 0.811258 0.45894688 1.658876 -0.413292 0.670967 0.3861659 0.26868817 1.1538825 -1.1681883 0.28820342 -1.6728016 0.97730327 0.20972879 0.51726747 -1.6145068 1.1890208 -0.9697948 -0.42347893 -0.883798 -1.0428398 -0.80733883 1.6077597 -0.61308026 0.5740197 -0.30087608 0.32708263 -1.2324917 1.741886 -0.17248742 0.08160814 -0.23914282 0.41406503 0.31280726 -0.8148941 0.30245662 -0.8703192 -0.75257355 1.9454582
NASP -0.049499918 -0.72018385 0.71909636 1.4854865 -0.48476672 -0.36260128 -0.35260582 -0.780024 -0.7649986 -0.22246979 -0.88222164 0.4066135 -0.3910073 0.17399211 0.23293799 0.38502985 -0.49964982 0.46589556 0.65111685 -0.56851643 -1.5182298 0.007884065 -0.67158484 0.83579016 -0.033464182 -0.8932798 0.6828837 0.054020785 -0.04445231 -0.61149716 0.09808296 -0.8316495 -1.31905 -1.2940716 0.32599655 0.38834262 -0.060452696 0.32287753 -0.9451758 -0.25178558 -0.61971444 -0.7993893 0.086898424 0.108189024 -0.3035919 0.1831336 0.8384786 1.1682591 -0.34198117 0.11704028 0.63003546 -0.2876125 -0.40053228 0.7736593 0.42179438 1.0436269 -0.11910274 -0.5424941 0.009719519 0.40962455 0.08667832 -0.8778798 -0.6551434 0.7932055 0.08991383 -0.6676854 -0.4553571 -0.7054833 -0.9170764 -0.517841 -0.5989457 -0.47023135 -0.45343697 -0.91417205 -1.2336768 -0.014424958 -1.2002877 -0.5728618 0.15617846 0.3147242 0.056089398 0.72046304 0.20469324 0.7120564 -0.0543192 0.87364 0.10593646 0.01570706 -0.13728504 0.27828118 -0.8926146 -0.1901094 -0.2810982 0.6729432 -0.8350413 -0.49257663 -0.2744589 -1.0280117 -0.10659998 0.3774893
TSPAN1 -0.5203663 -0.12731594 0.7449227 -0.38745013 0.7966586 0.26516855 -0.32456726 -2.0531843 -0.7650257 1.6773812 -1.32399 0.1671138 0.48415872 -2.35393 -0.76340723 2.1706793 0.99039906 -0.004399795 -0.085834585 1.4432067 -1.5315816 -0.44413567 -0.5027308 -0.61950165 0.87234986 0.18203802 1.5117751 0.880661 0.67273676 1.2435576 -0.19262703 -0.74476653 -0.32632115 -0.25171128 -0.20999815 -0.021638127 -0.5692586 -1.6954705 -0.6289353 -2.9880793 0.25915805 -0.47453135 -1.4615439 -0.52773166 -0.44876108 0.7980296 1.5678552 1.4724332 0.9430042 0.5596383 -1.9242367 -0.18660726 0.9831011 0.42025262 0.7630625 1.1561283 0.09427771 -0.69149053 1.1525502 -0.5309389 1.1806555 -0.2994413 -0.2583877 0.5512693 -0.78361005 0.7268411 0.44272745 1.0534257 -0.6339408 -0.35890135 -1.2680017 -1.5179116 0.28369963 -0.27426043 0.5536813 -0.27097479 -0.15331018 0.16432919 -0.4946948 -0.5089967 -1.3840927 -0.80335754 0.3467283 1.8819848 0.23906983 -0.09905985 -0.09110822 0.64669406 0.24671964 0.036882874 -1.603169 0.81825036 -0.57887197 1.195056 2.2637959 0.2888887 -0.03533522 -0.64553237 0.11900606 1.0802908
LRRC41 -0.07073225 -0.5941256 -0.053785034 0.6198447 -0.26453477 0.3614699 -0.5090375 -0.994225 0.101358764 -0.24462447 -0.8196429 0.42065847 0.06252167 0.19011432 0.6430785 0.3934067 -0.33048105 0.6924151 0.019510418 0.34078443 -1.1162181 0.20574658 -0.16353387 0.80885434 -0.4295269 -0.048172984 0.7639217 0.038026996 -0.7544978 0.2525129 -0.086744234 -0.97652537 -0.93051153 -0.66148317 -0.41905725 0.5235846 -0.43754205 -0.38253173 0.13233615 -0.004983102 0.5551942 -0.61288595 -0.31987172 -0.0475903 0.28342834 -0.8543327 -0.20978044 1.366319 0.046623945 0.8270679 -0.095911965 0.4126843 0.6293355 0.9286505 0.3374354 0.3211056 0.09750896 -0.54075533 -0.27169174 0.20013298 0.19117227 -0.40519112 -0.6140557 1.3018656 -0.30441052 -0.28098392 -0.2199358 -0.08394647 0.41566035 -0.6115602 -0.24400212 -0.5343454 -1.0028142 0.42233583 -1.0961398 -0.22800669 -1.5937328 -0.90008724 0.8802823 0.645923 -0.4856126 0.11302443 -0.34419152 0.74024236 -1.0461605 -0.72152734 -0.10439294 0.3943125 0.009735872 -0.44827494 -0.5472927 0.0040593315 0.2572818 0.6380603 0.24298798 -0.45321158 -0.28204358 -0.628995 -0.1769346 0.29760405
UQCRH -1.0696007 -1.1842589 0.74895775 1.3244451 -0.003995981 0.3336785 -0.07914428 -0.6688923 -0.9569618 0.2121963 -1.2188997 -0.062057957 -0.19430473 -0.5478076 -0.028258573 0.3367112 0.310096 0.19516139 0.4728455 -0.1221596 -0.689731 -0.668939 -0.7099162 0.79642767 -0.5561143 -0.33213386 0.85117954 0.5856505 0.3338608 -0.3104613 0.7667791 -0.04329847 -1.3719532 -1.1767443 -0.557378 0.2643392 -0.7154206 0.49296603 -0.34354493 0.023102729 0.026726168 -0.76754427 -1.1275767 0.086305976 0.4323463 0.54173154 1.5074288 0.95681167 -0.9863983 -0.252008 -0.02020009 -0.14841305 -0.6366443 0.79059047 0.021423038 0.8734009 0.2764697 0.69608593 0.12565754 0.24745712 -0.07397376 -1.0114017 -0.314132 0.015625676 -0.6696639 -0.34827667 -0.6915361 -0.50617063 -0.5256254 -0.5398442 -0.83621335 -0.22120354 -0.27875367 -0.33897412 -0.78687763 -0.6387896 -0.9283572 -0.68616354 0.4029702 0.14847608 -0.28950366 0.3541478 0.21656069 0.9233629 -0.33003893 0.08513645 0.4438735 -0.3703513 -0.038032886 -0.11273994 -0.8719476 -0.12782735 -0.314327 1.1064504 -0.63265175 -0.31356797 0.39225852 -0.1030607 0.05232478 0.73073035
CYP4B1 -0.9802361 -0.5623996 1.276507 1.5837079 0.40587753 0.16435137 0.35929254 -0.6451274 -0.66451424 0.21890494 -0.8237562 -1.9606582 -1.0764573 -1.7358394 0.6575268 0.9673979 0.014769779 0.12841345 -0.15932259 -0.056478593 -1.0556452 0.09326825 -1.5866424 2.7270596 -0.89409995 1.5889719 -0.9367924 -0.03614388 0.13330217 0.5670866 -0.16897394 -0.03689355 -1.5591146 -0.2998671 0.13028495 -1.2153989 -0.3397416 -0.75370705 -0.15881361 -0.6936933 0.56179863 -1.1499741 -1.0956848 -0.26520717 0.17832515 -0.6248215 -0.4200258 0.5673122 -0.71609634 -0.5454203 -0.2687156 -0.2158757 0.77019995 1.7478255 -0.112141065 0.7594093 0.14980963 -0.86279947 0.18835472 -0.786106 0.8107381 -1.2235644 -0.40369934 1.4124149 -0.34231505 -3.1982303 0.00038464283 0.43078482 -0.7039559 1.6695004 -0.3163226 0.24198657 0.19645989 -0.71200114 0.10816544 -0.074409455 -1.152999 1.0383757 -0.7012272 0.17682232 -0.4027861 0.33938336 -1.2476168 0.23231429 -0.5677225 -0.7497162 1.2887031 0.24837437 0.70110506 0.18614496 0.5538287 -0.5084193 -0.4129859 1.4296187 0.4640321 -1.1315655 0.22700217 -2.0432858 0.08129286 -0.7658516
PDZK1IP1 -0.36471567 -1.3933859 0.23327221 0.033371925 -0.21336088 0.4363349 0.40187645 -1.0188675 -0.88690865 1.1721089 -1.2361963 -0.6926226 -0.3502006 -0.75530493 -0.7260452 0.8863694 0.027348883 0.9547526 0.1326281 0.31774724 -0.1704157 0.23304822 -1.1277108 1.0196959 0.16208261 0.5064122 0.68722045 0.97128147 0.1405105 0.33202842 0.7903736 -0.022396214 -0.36826238 -1.2316204 -0.058826156 0.12384044 -1.5246003 -0.076433145 -1.1074553 -0.6913411 0.019750908 0.6757924 -0.8466155 0.1321714 -0.12175688 0.07354156 0.7987345 0.9641899 -0.21974105 -0.5486421 -0.54590976 0.2796724 -0.35722578 0.72554624 -0.47017777 0.76339006 1.4339705 0.12278881 0.671332 -0.9626061 -0.025291229 -0.7038854 0.23171647 0.08335218 -0.52952015 -1.1458683 -0.43230435 -1.2197587 -0.6732004 -0.24557884 -0.26606295 -1.015678 0.45171338 -0.699292 -0.6976513 -0.5957475 -0.21702477 -0.20539421 0.13213302 0.5629369 -0.6212363 0.10865354 0.43530846 0.05529686 -0.54191923 -0.06001161 -0.13089524 0.04792645 0.7425863 0.4936514 -0.87573516 -0.44610947 -0.48537558 0.36947188 -1.1702605 0.62599677 -0.23953237 -0.51006395 -0.17107742 0.14165251
FOXE3 -0.47050634 4.611143 -0.8172096 0.27452374 -2.3501117 1.13074 1.6376865 0.50360346 0.7073202 -2.887257 2.79725 1.1179945 1.7330337 2.6190877 -2.7085025 4.747801 3.6043947 1.5116724 0.17131442 2.0961754 2.2411647 -1.7696686 2.4419205 2.6574447 -3.2354827 2.9160488 1.7221042 -0.24480031 -0.24522293 -4.644412 -1.5542505 0.26155272 0.4946857 2.5441437 -3.5911648 2.5823855 1.2093471 -1.298443 -1.4771761 -0.6025564 -1.6569132 0.6574371 3.3537483 0.31989944 0.42178342 2.2283204 0.8936539 -1.2036399 -4.6072307 -0.010421865 -0.3173835 1.8120437 2.032544 1.9079463 -0.6625433 -0.05935595 1.3045791 1.7924551 2.7111151 -2.7117102 0.91146415 2.4325528 -0.15271908 2.5996768 1.0584533 -5.1800437 0.59481156 -3.049675 -0.16207458 -3.1884532 -2.449592 -1.2874813 0.07045112 2.545767 4.0189414 -1.4064975 1.5888603 0.76912826 -2.6127818 0.277119 1.16372 3.3761888 4.4991856 -0.09190607 -0.744683 2.9134994 0.20952734 1.2705064 -3.4264688 -0.30442724 -3.1718397 2.2955956 -1.7182027 3.1537511 1.107426 -1.5796709 0.95404506 0.6998541 -0.36836788 1.2803563
CDKN2C -1.1679851 -0.3285109 0.19335891 0.99322605 0.82150066 -0.10420455 -0.9832448 -1.1995741 -0.7404604 1.2087291 -0.38579908 0.6446075 -0.24265628 -0.6906613 0.8770789 -0.222123 0.48333964 -0.9038684 0.30897498 0.745466 -0.06345377 -0.71736205 -0.78698266 1.2526186 -0.9020474 0.6929709 -0.030407893 -0.360027 -1.4035248 0.21067701 -0.34401357 0.98003685 -0.60668045 0.79960716 -0.9809852 0.25570664 1.2479005 -0.35713243 -0.17177239 -0.8201164 0.32902578 0.68808717 -0.40409482 -1.0599011 0.6689977 0.7141898 -0.35035396 0.46993682 1.2747933 -0.85116816 -0.41992974 -0.014612614 -0.47783265 1.5400909 0.72557306 0.13446939 0.6249212 -2.051665 0.059193052 -0.58012456 -0.404848 -1.111948 0.003148503 0.5959567 -1.5912614 -0.70195127 -0.9427056 -0.97929794 0.44146088 -0.5065883 -0.16053288 -0.89254004 -0.2966024 -2.301173 0.3531614 0.38306716 -2.469886 1.1004205 0.48428947 -0.074403785 -0.51856863 0.93055385 0.1470113 -0.19475687 -0.4995456 0.44952866 0.9429768 1.3365619 0.12196552 0.17777178 0.8894953 -0.8334471 0.6598591 0.1463214 -0.8638044 0.41051865 -0.5977577 0.6080167 0.11300512 2.034459
DIO1 1.1042588 0.026371298 -0.14211759 -0.3339991 0.9626918 -0.8048695 1.0901417 -0.6801382 1.8144174 -0.68012816 -0.23793565 0.2378481 -0.40892184 -0.65143144 -0.13701446 0.91289043 0.19349211 -0.4745598 0.91029775 0.6132638 0.9443161 -0.52947605 0.06486009 0.62419844 0.52477306 0.5197467 -0.5743996 0.77840906 -0.4485419 -0.8484205 -0.33972785 0.58897597 -0.33172563 -0.39195263 -0.9899575 0.7449953 0.34298825 1.4007555 0.2364736 -1.1868232 -1.7033072 -0.967143 0.05982927 0.68459576 0.2546012 1.3579979 0.22073054 -0.70230424 -0.45626834 0.7104427 -1.0699662 -0.8352274 0.93933827 0.12808454 0.4318681 1.209493 -0.40314603 0.1753064 0.6358755 0.03509312 -0.28823394 -0.75601876 -0.99081784 -0.98336154 1.0633414 0.69701153 0.8843151 1.449243 0.7168478 -0.5956026 1.087302 0.12551793 -0.9342346 -0.2292396 -0.1388587 0.28149542 0.7848083 -0.6557976 -0.03183669 0.78373986 -0.47353846 -0.3202464 1.4265355 0.2825054 -0.60221905 0.346165 1.3256881 0.48482692 -0.7174589 -0.40111792 0.3467039 -0.62381154 0.6229444 0.14966081 0.07275176 0.020282121 0.49846658 -0.64082175 -0.32947642 0.5736787
LDLRAD1 0.02763487 -1.0341817 -0.7752813 -0.2107928 -0.1934999 -0.915233 0.5028838 -1.1765684 0.57444865 1.541081 -0.047359254 -0.9326559 -0.20480289 -0.8062293 0.89492536 1.2702651 0.8453738 -0.8810782 0.3299216 0.16013534 0.49024796 0.29590228 -0.85991305 1.1890668 -0.55100864 -0.80779076 0.21012835 -0.33873084 -0.97189605 2.1120992 0.28623134 -1.0004143 0.77029777 -0.23983625 -0.5772989 0.05629421 1.0369678 -0.11291159 0.92191356 -2.4497788 -0.27518865 0.2118541 -1.0296239 -1.1344279 -1.008591 -0.01039482 0.75173974 0.24445595 1.8042506 -0.40469143 -0.16542152 1.2945073 -0.9028095 1.8785093 0.86963254 0.9044599 1.1957422 -0.8903824 -0.3519545 -0.713754 -0.34116122 -1.2747772 -0.69479215 0.2757755 -0.7909588 -2.0266612 0.14355482 0.5010309 -0.9050624 0.07832851 -1.0588255 -1.3526238 -0.33518764 0.7718991 -0.022043161 0.9161434 -1.2548547 1.9607062 0.6007024 1.2477919 0.56106323 -0.31992343 0.014662065 3.6431906 -0.19237547 0.82838565 -0.94018203 -0.73476535 -0.9685536 -0.031567268 -0.9541476 1.512702 -0.2978521 0.7404018 1.5921845 -1.3271435 -0.47098225 -0.6364391 -1.2622697 1.4311008
PLPP3 1.0607309 -0.6308863 0.93677336 0.19235624 -0.32844785 -0.024112634 -0.08690413 -0.0045576347 -2.078706 1.1682186 -0.9592523 1.0071102 0.3939436 1.4323561 0.8689001 0.41632643 0.6261054 0.6865131 0.9380032 -0.58331907 -1.1035626 0.83170825 -1.1719337 0.85316116 -0.11273825 0.5235985 -0.17793545 0.5160647 -0.5377963 -0.38294226 0.58559847 0.5808597 -0.40021485 1.134907 0.72626054 1.4621435 -1.3240938 -0.9777908 -1.1499182 -1.9650974 -1.2013292 -0.5396625 -0.50748694 0.32167965 0.14479311 1.4784805 -0.13389122 0.85582566 1.3977538 0.9901464 -0.017216206 1.011787 0.32894394 0.17614552 0.8619646 0.10849504 0.3569541 -1.2354482 -0.7764244 -0.3950551 0.041290358 -0.31082147 -1.7250801 1.0808724 -0.17672145 0.105908714 -0.14469962 -1.0859761 0.601752 1.7922574 -0.35054407 -0.14021069 -0.2954312 -0.8637124 0.80684316 1.1040282 0.7774851 -0.43517384 -0.07686169 0.26586258 0.4440603 0.10877241 0.909182 -0.37116152 0.6484734 -0.11120502 0.048184533 0.87605786 -0.33189756 -0.87191826 0.15960589 -0.7841244 -1.5113767 -0.20304477 0.6280865 -1.0630645 -0.5193091 0.056674693 0.12188929 -0.23655474
TACSTD2 -0.2544395 -0.7883881 0.31320256 0.010333895 -0.25249952 0.46788245 -0.4842861 -0.79143006 -0.2830298 0.23521362 -1.7298932 0.21680753 0.36915258 0.7656936 -0.2289246 1.3592737 0.71130407 0.7121597 0.5880864 0.5692926 -1.2596258 0.34579957 -0.33129358 0.65250677 0.093989834 0.07814171 0.36829856 0.28999373 -0.23292111 0.16794693 0.09757066 -0.4841895 -0.5300373 -0.8078284 -0.27859676 0.23659429 -0.61595434 -1.2248452 0.43112606 -0.78156644 0.06566325 -0.9901204 -0.29948273 0.829837 -0.78808784 0.15798755 0.11414703 1.0488151 0.2104404 1.7269562 -0.27846628 0.4558361 -0.6336178 0.27514318 1.0184846 1.181449 0.6459064 -0.1954865 -0.24434908 0.5791921 0.8077597 -0.66025364 0.3252706 0.57384425 -0.93351674 -0.6931708 -1.005514 -0.065160826 -0.25051397 -0.2931805 -0.77823263 0.12066172 -0.33864567 1.1104835 -0.42810088 0.543171 -0.5632846 -1.5634806 0.6168687 0.09649161 -0.84796244 0.08592422 0.649489 0.17695768 -0.9574929 0.19796602 -0.10723031 0.0071264026 0.8165124 -0.5237072 -0.5077024 0.0740779 0.013170804 1.0295736 -0.5471177 -0.6982947 -0.50256664 -0.8534568 -0.3611184 0.1513528
FGGY -0.07752098 -0.9352723 -0.3021422 0.15984814 0.675982 1.1152401 1.3679762 0.1450682 -0.06739924 0.23018655 -0.72947705 0.38034797 0.3211761 -0.72477347 -0.651394 0.32173154 -0.5379573 1.1658207 -0.18173382 0.4558757 -0.6726119 -0.74757284 0.17707413 0.7463695 0.58759546 0.044395145 1.2504833 0.55095184 -0.3238861 1.2260903 -0.20224826 -0.3308694 -0.11474338 -0.2225041 0.4853465 -0.9896812 -0.26193458 0.17900299 0.661397 -0.29682368 0.39673686 -0.8968015 1.3663325 -0.75602525 -0.6216628 0.5226546 0.16655384 0.037136864 0.1777929 0.52700245 0.008496414 -0.32995895 -0.15242128 2.0883448 1.0803645 -0.047164172 0.9244383 0.23692791 -0.15619415 -0.5101709 0.5229318 -0.6666359 -0.7284503 2.008644 0.53387725 -0.6143637 -1.0921824 1.0173645 -0.44919297 0.6620971 -0.19746487 -0.55452543 1.3073695 -0.39828527 -0.35608178 -0.028069526 -0.9829208 0.03109526 0.67775154 1.3492912 0.29971203 -0.35692295 0.6412393 1.0502826 -0.49351698 1.0726525 0.6346635 0.4653881 0.54713607 -0.5113944 0.22309433 -0.016673498 -0.95781255 0.5081227 1.3106071 -0.044677395 -0.6201647 -0.18253097 -0.8036028 -0.3576833
KANK4 0.22041348 0.16760084 0.26852655 -1.4547487 0.8851931 0.5674922 0.9693661 1.5858257 -0.51616853 -1.7703485 0.7002903 1.1625142 -1.2240573 -1.2753726 -0.20429869 -0.18048176 1.0771565 0.33303934 -1.1451349 -0.6611715 -1.4703275 -0.9379022 0.2557796 1.1607038 -0.40798616 -0.012766023 1.1917982 0.35718843 -1.0965233 1.8669239 2.2828257 -0.12862739 -1.5287865 0.8028493 -0.17566703 1.0556923 0.69093674 -0.62274015 0.2075191 -1.0060828 0.24098833 0.11943848 -0.56675303 -0.11585507 0.4336942 1.3214592 -0.8332068 -1.3374821 1.714846 -0.32985276 -0.12898952 0.3296781 1.4212325 1.1979007 -0.722423 0.09488804 0.82041156 0.4860042 0.6255205 -0.78641105 0.49493614 -0.7159142 -0.093463086 -0.3670849 -1.1803955 -0.16112849 -1.0414721 1.5158333 -0.15615188 1.0658244 -0.096093595 0.13344643 -0.17034428 -0.7418079 0.58916277 -0.02603458 -0.9152642 0.5849432 0.504428 2.4496577 0.31262916 0.06788762 0.22401007 1.7722287 -1.2540786 -0.33240667 -0.11047808 0.10347349 -1.3249941 0.072780035 0.32458577 1.9711901 -0.36471438 0.043979682 0.7357391 -1.6591359 0.19126733 -1.5368171 -0.46500623 1.1362395
TCTEX1D1 0.85253894 1.535624 -0.30610338 1.3414679 2.140445 0.40187648 1.6365632 -1.7537088 -0.044407766 -3.0842605 -0.12242117 -1.3897287 -0.31171647 0.78576005 0.84313494 -0.548483 0.27397883 1.7186519 -1.2624929 1.4709576 0.9782318 0.45222825 1.4536622 2.4912996 0.19966021 2.2780402 -0.7947778 2.2805486 -0.308004 2.0978248 -0.68549186 1.0963819 0.44133145 0.8721699 -1.8357207 1.4176656 -0.8098249 1.8878492 2.390206 -2.3255177 -1.1290573 -1.3719949 -0.21828713 0.67151934 -1.4057013 1.0034169 1.3543838 -0.29982266 0.93131316 -0.11304346 0.41679567 -0.1856068 0.65786994 -2.5879958 -1.5068784 0.635869 1.9326423 -0.32633832 1.5788854 -0.25866786 -0.02823955 0.7850274 -1.4189475 -1.1791966 1.6769843 -0.17076418 -0.41564462 0.32144538 0.7394657 1.9095192 0.07303379 -2.0353074 -2.7266173 1.4179636 0.4343312 -0.57901365 -2.6706936 0.12431268 0.109274514 0.43563014 -0.28638938 -1.2065731 -1.2282145 0.3657792 0.3070328 1.2887762 1.0963032 2.8818936 -3.4033961 -0.32434836 -2.5638845 -0.81490946 0.19605069 0.21807647 -0.5676918 -1.0510849 0.58524007 0.8770436 -1.5811167 0.15907343
C1ORF141 2.2498138 2.3050494 1.173518 0.19281887 -1.1447114 2.226322 2.5877566 -2.7366936 0.45958006 -0.28777722 2.6555343 3.9898875 2.1912575 2.5663218 -0.13329127 -0.7216053 1.47451 -1.4584292 1.6883125 0.49404302 -0.93456066 0.7282576 1.4468094 3.0834646 -4.457576 -0.48323226 1.4076537 0.54679793 -4.986186 0.26681593 2.8191204 1.3441675 2.6131258 0.9895257 2.3635604 -0.5778253 -0.050124135 0.13235201 1.1788989 -1.937506 1.2099628 1.3855878 -0.13959765 0.516855 -1.5428118 1.3464698 0.5388041 -0.18218014 -2.1245966 1.0658914 2.8648195 1.6964433 3.3434393 -0.1517818 -1.5811621 1.455379 0.47203988 2.3842468 0.716028 1.9802828 0.6115746 0.66841274 -1.0335162 -1.1081623 -0.22400814 -0.92000794 -1.2299249 -0.36067778 -0.68301946 -0.9043053 1.5202537 0.13974985 -2.306451 1.5649929 2.7164671 -1.9045687 -0.34050742 0.7554576 -2.51894 -0.91829765 -2.0051854 0.14313723 -0.38760576 -2.8254924 -1.3626304 1.9490737 1.8773609 0.5232427 1.5480813 1.335372 -0.38865054 -1.0535713 1.6597003 3.324193 0.13040082 1.1694376 -0.17670321 -0.51804334 -2.1000602 1.7879376
GADD45A -0.72021735 -0.64085865 0.60581565 1.0880188 -0.33657253 0.20553593 0.055590726 -1.21769 -0.91168815 0.36076584 -1.6318306 -0.09634207 -0.041220617 0.21109606 -0.29846305 0.8511281 0.500093 0.20986038 0.015708353 0.26631156 -0.82962644 -0.85341156 -0.54153675 1.0503085 0.40738922 0.1669658 -0.34142688 0.11579554 0.047310885 0.1255428 -0.07912083 -0.13113125 -0.52344483 -0.22986439 0.34932598 0.02520315 -1.0082235 -0.6814117 -0.25466263 -0.8661682 0.2077398 -0.71590626 -0.3919474 -0.23663469 -0.33692196 0.46159247 0.6098622 1.6408969 -0.36028427 0.5126365 -0.57573146 -0.08276087 -0.56245834 0.95328355 0.59376955 0.9383365 0.04096828 -0.32637528 0.46871343 -0.6075848 0.25459144 -0.90572923 -0.37617302 0.9286851 -0.2577798 -0.7969193 -0.783373 -0.19752295 -0.058908854 -0.107310995 -0.2953596 -0.223733 -0.16194852 0.4547952 -0.55005395 0.06795915 -1.4417512 -0.08493027 0.68536705 0.8421141 -0.5424967 0.0761523 0.4584595 0.017651722 -0.8035968 0.16460831 0.90220296 0.40611157 0.4698674 0.011110803 0.26956236 -0.42799762 -0.8386595 0.60351086 0.249006 -0.6717519 0.09252063 -0.32254776 -0.14826182 -0.04443274
DEPDC1 0.14681041 0.65392613 2.5296338 -0.5905574 0.012546856 0.052960187 -1.788571 -1.0085622 1.6620265 1.3081136 -0.027613379 -0.18250574 0.14682871 0.34617773 0.047980145 -0.19654809 0.8615419 0.25031385 0.43852216 0.9524638 0.36857322 -0.24713445 -0.9755762 0.5148407 0.17410234 1.6462137 1.1836784 1.2482026 -1.686524 0.3219936 -1.3547275 -0.60158616 -0.18635774 0.42866728 -0.5627631 -0.09576933 0.64766806 0.51353645 1.4707727 -2.2426474 0.15865085 0.19950846 -1.1266074 0.19167091 0.5169597 0.8916887 -1.2483013 0.80760044 0.8407661 0.5788265 -0.47038615 -1.2427905 1.4040295 1.1393827 -0.47867137 -0.6311681 -0.17851177 -1.4685973 0.29665315 -2.331012 -0.22149684 -0.9320055 -1.9803392 2.1699119 0.16429305 0.7147242 -0.07738534 0.929786 -0.7371334 -0.4141947 0.47460192 -1.5936236 -1.8769218 -1.1281886 0.15389775 1.5366634 -0.6066497 0.94349045 0.07173627 0.44011292 0.7864445 1.1772047 -0.24353564 0.37457108 0.30970368 -0.35254413 -2.1373408 0.6614917 -1.1622318 2.2876818 1.2786813 -0.8256393 0.90033627 0.864617 -1.5997429 -0.786021 0.2989022 0.21863993 0.27159145 0.46244004
