2000 100
HES4 0.466457295 -0.60646114 0.0917464 -0.760804717 -0.24807759999999995 0.77880726 -0.833706795 0.755927875 -0.168014475 0.10557425 0.83318275 0.98224847 -0.126990285 -0.03987961499999999 -1.37278235 -0.7007162 -1.6489943 -0.014004125000000034 0.5440099825 0.06326370000000003 -0.25428629599999997 -1.5045285499999999 -0.13756872 -1.6320842500000001 0.269251366 -1.2127164750000001 0.3479704699999999 -0.354027125 0.5423024249999999 0.12751976999999998 -0.04844269999999995 0.49984169999999994 0.28010543 0.8506431 0.47863659999999997 0.09477159999999998 0.29134720999999997 0.005593849999999956 -0.295112895 -0.82766776 -0.13007772499999998 -0.20914154499999998 -0.231772475 0.46288027499999995 -0.350070905 -0.9649151250000001 1.18816202 -0.39484303499999995 1.119326525 -0.636432175 -0.4219236 -0.021973860000000005 -0.266352095 -0.80238917 -0.376507775 -0.9322846 0.293360315 0.60010458 -2.14560505 0.150132355 0.1351391 -1.2473037249999999 0.43244202 -0.27641298500000006 -1.1354139349999999 0.94831244 -0.7026785950000001 -1.38160285 0.13170084999999998 0.08455976999999998 0.07606732499999999 0.62475127 1.85766455 0.482608025 -0.005166299999999999 0.346363395 -0.39833956649999996 0.352210912 0.16816628500000003 -0.48037846500000003 -0.0676409 1.22631777 0.278695927 -1.01051327 0.445389825 -0.411904425 0.8763716899999999 -0.11869479999999999 1.3162112750000001 -0.26607733499999997 -0.38679083000000003 -0.57814931 0.14579495650000002 -1.66305045 -0.7883113700000001 1.10771812 -0.8331158 -0.51571332 0.5469525749999999 -0.9887564799999999
ISG15 1.2764731999999999 -0.05051713000000002 -0.020347049999999978 -0.013693619999999962 -0.542968945 0.176238415 -0.23506209 0.4148898855 0.35888007 0.2236232185 1.15765745 0.703529365 0.7610332 -0.8776648499999999 -0.8748749499999999 -0.00033908999999998635 -1.0081804 -0.46583664 0.18978705000000007 -0.12247399999999997 -0.7178394535 -0.36719697999999995 -0.878466685 -0.726843165 0.26372325 1.1557466349999999 -0.20136782499999997 -0.388948965 -0.11522062500000002 -0.6047937099999999 0.08799514999999997 0.30002552149999995 -0.6377488849999999 0.35612921215 0.019167010000000012 0.06414197299999999 0.002797385499999999 0.28707878 -0.24004581 -0.0208645999999999 -0.19544224500000001 0.5514879699999999 -1.060676515 0.346052865 -0.5080818585 0.19005705 0.48301314000000006 -0.23489882750000002 0.218324385 0.21394583 -1.05870525 -0.6954703999999999 0.05598384000000001 0.7313961 -0.639755525 -0.09712444999999997 -0.967535115 0.9307290699999999 -1.6964052 0.24666049 0.55156598 0.26184115 1.1014585000000001 -0.598751875 -0.8020919249999999 0.096877573 0.26400687 -0.23030959999999998 0.1641290245 0.16368529999999998 0.36393077500000004 0.43818859999999993 0.23200386 0.72351162 -0.186185465 0.9521376 -0.078107205 -0.92341413 -0.11931174999999997 -0.51887732 0.9719063649999999 0.9119816000000001 -0.1736887015 -0.67460475 0.250112724 -0.401769365 0.07566671999999997 0.430741935 -0.6701904999999999 -1.2013014499999999 0.7468348650000001 -0.037853075000000014 -0.0011914999999999842 -0.49317725 0.236058755 0.9290998 -0.19007906500000005 -0.11667014 -0.615726525 0.04695472999999997
MMP23B 1.15194175 -0.30389115 -0.38198670749999997 -1.4789699 0.175353775 0.90605958 -0.3505485775 0.38257827499999997 -0.529998228 -1.38024515 -0.057721490000000014 0.721768105 -0.474172875 -0.292705828 0.13768695150000002 -0.92411413 -0.7915235650000001 0.982459415 -0.9092304550000001 -0.5368780599999999 -1.2802936200000001 -1.136020925 0.6962205 -1.29014765 0.971622585 0.188084835 0.431916625 0.30624355000000003 -0.87115023 -0.8810147749999999 -0.07206425 -0.012027530000000008 -0.9999612 -0.6770203 -0.24098266000000002 -1.4702418000000002 0.32895797000000004 1.7659704500000002 0.16959622 -0.020056099999999993 1.021680635 -1.430340235 2.0280778 -0.91703485 0.7453640100000001 1.5946823 0.13999805 -1.00500935 0.794867785 0.34688478 -1.5897389999999998 0.010450199999999965 0.44131551 -0.20902180499999998 -0.7346941 0.39028619999999997 -0.60754617 0.2241990925 0.7459180240000001 0.08809539 -0.16097583999999998 -0.8767612 -0.8865404 -0.46169377 -1.60922625 -0.6817848950000001 1.0373546249999999 -0.96963272 -0.015270280000000025 -0.8795143 -0.27612357000000004 0.061880800000000014 0.310305375 0.5281126300000001 0.06389542499999995 -0.122351785 0.3370755 0.694384575 0.46061199500000005 -1.5006529 -0.6334248600000001 0.665595515 -0.99201109 -1.2873405299999998 0.20258442 0.04851223000000002 0.570625534 0.76172012 -0.3112439135 -0.34282413 0.8239438 -0.27810026500000007 0.18339590500000003 -0.16097974499999995 0.35520600199999997 -0.34572844999999996 1.7901481499999998 -1.2426214599999998 -0.041230799999999956 -0.751717135
CFAP74 1.0791538 -0.87896363 -0.62084256 -0.9983749 -0.65969117 1.10038335 -1.53532155 0.43752925 0.32052105999999997 -1.22576445 -0.07329043000000002 0.377065855 0.966617165 1.03616273 0.9305206800000001 0.04628103 -0.863499 0.7372681350000001 -0.63843885 -1.8340272 -0.459692495 -1.56546265 -2.22804935 -0.13461559999999997 -0.43064225 0.202247041 0.09844421000000003 1.8554785999999999 -0.45770641 -0.41258377 -0.17776751 0.397615433 -1.135338575 -0.25036454999999996 2.4868335000000004 -2.3267743999999997 0.24459316999999997 2.12351715 1.3470897 -1.82286335 0.48016675 0.5401991025 1.2767612 -1.159923217 0.08327046 -1.745304 1.97853965 0.6395712649999999 -0.13144523999999996 0.04752859499999999 1.0068942 -0.42895745 0.017786975000000038 -0.593975475 0.09490105000000001 0.5788841 0.261021135 0.8908764 -0.5249490800000001 1.4071021 1.06993725 -0.63050815 -0.20731195000000002 -1.06914453 -0.7270544050000001 -1.426751267 0.27636839999999996 -0.479399415 0.15884573000000002 -2.1055182500000003 0.248315915 0.010791095 0.234075015 1.00858459 1.3991395 1.03086881 1.0929062299999999 1.31212624 0.08321293999999999 -0.239553285 -0.285716195 1.8951685 -1.28272915 0.158671002 -0.3006169000000001 0.852535125 -1.361676395 0.04649260000000005 -0.44652265 -1.2577097 0.533281625 0.408829785 0.36574639999999997 -1.72246485 0.13418744999999999 -1.74088365 0.5054426399999999 -0.27053323500000004 -0.6914309 0.11485418
TP73 -0.287787315 1.21722655 -1.143468 0.34473839 -0.793655 0.040041925 -1.2912612 0.99523724 -0.697031215 -1.53446125 0.606223645 1.6316171 0.5212270800000001 -0.07591476 0.6323868699999999 -0.02358402499999998 -1.0042141 -1.099865385 -1.6169886500000001 -0.42198849 1.30898125 -0.46670542000000004 -2.5256753 -1.40984275 -0.9294187250000001 1.2802131 -0.814393865 1.6688665500000002 0.315635065 -0.13357674999999997 -0.750518375 1.324689 0.121522858 0.027189660000000004 2.336067 -1.487212 0.059776599999999985 1.2219668 -0.23640631499999998 -2.5725290999999997 0.535565885 -0.5517768949999999 -0.68437323 -0.628672275 1.2675578 0.43657340999999994 1.3633665 1.46903355 0.39293267 0.0018228900000000214 -0.22315803500000003 -0.51818918 -0.256607342 -0.33084151 0.429752719 -0.081351 -0.6143074700000001 1.8212804999999999 -0.4634074 1.30739635 0.41331497 -0.33208117 -0.07880622000000004 0.46850298999999995 0.14137536 -1.12223585 0.177625623 -0.87985016 0.78108563 -1.6391019 -0.4084282 1.1934646 1.1172317 -0.37779204499999997 2.00375555 -0.26111935 2.5118780000000003 1.76194265 -0.72538545 -0.9117379700000001 -0.12624977999999998 -0.008763639999999961 -1.4809689 -0.546839665 -0.94167802 0.9701406499999999 -1.73023895 -0.46155132000000004 0.590468055 0.218235643 0.10178537500000001 0.098991528 0.518715815 -1.11250525 -1.36751365 -1.01570483 0.658567075 0.5231082 0.72064465 -0.17867137
AJAP1 0.36641073 0.18662189999999995 -0.337961145 -0.27875828999999996 -2.0553259500000003 0.81058649 -0.6680479349999999 1.0470325 0.33493635 0.286716305 0.231914185 0.36770942 -1.2457104 0.39690470499999997 1.3169277799999999 1.8889553499999998 -2.0336684 -0.13903958 -0.75023844 0.30440943 0.624438104 -0.7458465000000001 0.069385065 -0.97462665 0.46536901 0.6114964491499999 1.0766939500000001 1.21288215 -1.8058906000000001 -1.6846279 -0.15861704999999998 -2.11457 0.942881615 -0.37477285 -1.315205613 0.44811827000000004 0.12197364999999999 0.99147667 -0.168138275 1.1634574999999998 -0.92069845 -1.49172682 0.79203085 0.023184490850000003 0.795599575 0.944181105 0.09034558999999998 -0.63436214 0.03271050500000001 0.9190769492499999 1.5987797499999998 -1.1584547 -1.479352773 0.9776912499999999 -0.6326076700000001 -0.568852405 -0.3473506135 1.5639299 -1.055867715 1.49890605 -0.35962609999999995 -1.2543655 0.41925444 -1.2639580499999998 -0.6261652449999999 -0.23765429500000002 0.9167897115 -1.00713764 0.7753225000000001 0.259249775 -0.043793769999999954 0.05068742635 1.63637075 0.473154125 -0.60453528 -0.43548511999999995 -0.372818515 1.6086493499999999 -0.32792826 -2.22963845 -1.2814749 -0.051787929999999996 0.146840765 -0.36381550000000007 1.2626852 0.79600246 0.8775721 0.68806244 -0.50242404 -1.7193397 -0.05837194999999995 0.28929378499999997 -0.338293225 1.2952975 -0.291832918 1.02218947 1.82199993 -0.203137495 0.379758315 -0.50365499
UTS2 1.22770997 1.2903995400000001 0.677171465 0.52961362 -0.324402115 1.95949915 0.31006600000000006 0.13872801499999998 -1.17582035 0.77499005 -0.7050783774999999 1.4134634 -0.31168294500000004 -1.1543687999999999 0.7862077000000001 -1.4778506999999999 -0.9319970849999999 -1.87390455 -1.13452905 -0.06596040499999997 2.5592053999999997 -0.703582 1.9433569 -0.85740072 -1.4755001349999999 1.43242585 -2.1164957 -0.40282600500000004 0.9149950499999999 -0.9153422000000001 0.7385696150000001 0.95156938 -0.9782944650000001 0.44858094999999987 0.06639895999999999 -1.22420641 1.2284095 0.06591424999999995 -0.177163752 -0.41384125000000005 -4.7214022 1.5813712 0.358815735 -0.6216563500000001 -2.2662738 0.8862769899999999 -1.0938978400000001 -3.13634255 2.3634104999999996 -0.24652893 0.4344882499999999 -1.1933571 -0.94423186 0.9549554475 -0.8076491699999999 2.4687728499999997 0.3537225 -0.30207870000000003 -0.055786594999999994 -1.8018261500000001 1.46979502 -0.06639570000000006 2.31078615 -0.13148052999999998 1.0663886391000001 -2.4674488500000002 1.1106178999999998 2.24116415 -0.47934984999999997 0.562242745 -0.37596528500000004 -0.56190438 1.11332155 1.4909943700000001 -1.4109625499999998 1.609483017 -2.6193134 0.22537627 -0.07401514999999992 1.6000311 -1.0847853349999999 0.88533335 -1.059290065 0.10716254999999997 2.84353035 0.50161497 1.01397386 -0.2695862499999999 -0.90520895 -0.8207795499999999 0.8183888500000001 -1.80044745 1.6560920000000001 0.72383746 -0.96487086 -0.04325455 -0.40770570000000006 0.4438090499999999 0.8686013499999999 0.77078465
ERRFI1 2.2238321 0.18480126 -0.9908877495 -0.7451529075 -0.06290756999999997 0.54519574 -0.71941009 0.644093025 -0.786354906 -0.27529681699999997 0.581155388 1.06415645 0.53683674 -0.57314237 -0.06519376 -0.8861173849999999 0.15842013000000002 0.02383429499999999 0.6076871499999998 -0.12569278000000006 0.12001229515 0.0515779135 0.061757222449999996 -1.02671445 0.09812405000000002 0.16610448500000002 -0.21573330000000002 0.47705708999999996 0.13946122500000002 -0.5369943 -0.36403558 0.8228743700000001 0.014606085000000046 -0.23767942499999997 -0.32710684 -0.72906642 -0.035714969999999985 0.5845453 -0.14566686699999998 -0.46398108000000005 -0.51723906 -0.73535924 0.28987578999999997 -0.0670039 0.41946973 -0.005929959999999984 -0.287324415 -0.06979737500000001 0.6707857500000001 -0.6331363400000001 -0.431568037 -0.09292145000000002 0.10268806 -0.570983585 0.606589795 -0.15791106915 -0.08721134000000001 0.634443325 -0.32988398 0.58906579 -0.81913933 0.5783114 -0.091727315 -1.7575641 -1.0524672499999999 0.1576169 0.60325265 -0.201000398 0.157488415 -0.406414895 0.11537974000000001 0.792885425 0.09524456499999999 0.50186095 -0.19718894999999997 0.31341624999999995 -0.01701201999999996 -0.37194848999999996 0.22197463950000001 -1.26292475 -0.50882413 0.400646935 -0.42295688499999995 -0.679876795 0.23632835000000002 -0.365112225 0.32029434 0.202233865 0.023349800000000004 -0.55137979 1.01926572 -0.40272928 0.5305184638 -0.56053177 -1.6272866499999998 0.454900975 0.435851725 -0.10983505000000005 0.5253597 0.151242765
RBP7 -1.2022941 2.9421652 -0.527907145 -0.061751885000000006 -2.1453819 1.10709647 -2.4074909499999997 -0.46857646999999997 -2.1146027 2.37998665 -0.29677284 0.143787705 -1.48583685 0.29015509 0.007842820000000028 -2.1223448 -0.62705615665 -1.28191469 1.8428011 -0.06525865000000003 -0.019015580000000004 -0.048938300000000046 -2.6909928499999998 1.22775085 -1.46877795 -1.4710586 0.75880382 -1.94168652 0.21404056500000002 -0.034893574999999954 -0.886296 1.6992791 -1.2331756 1.1258272550000001 0.31136728 0.37340017999999997 -1.94347925 1.13157082 -0.8872040499999999 0.329152435 1.3242187 -2.56550955 0.35551992 -1.4053622 1.7722099 0.82248295 2.9114549 -0.69859117 -0.14604646 -2.2853108 0.091523915 -0.446557705 -2.1499922 0.56089726 -0.484504165 -0.52209401 -0.15606704999999998 2.04323215 -2.09422005 -0.53977895 0.47047112 -3.2534807 0.39166381 -1.53292305 -2.4821743 0.322408555 -0.91683375 -2.3607669 0.149787665 2.4002176 0.501720653 -0.0944605775 1.54054845 -0.008690550000000019 0.59552825 -0.34137839999999997 0.43285136700000004 1.4800038350000002 -1.137292515 0.333299385 -1.0829031 1.2329439500000001 0.7074883700000001 -1.83614465 1.70514955 0.64871396 0.56989468 -0.27981376999999996 -0.33702904 -0.5584014 -1.59749805 0.59169288 1.974937965 -3.75248045 -2.4574311 1.013929615 -1.71336565 1.3718474 2.0024836 -1.7036699000000002
ANGPTL7 6.38423635e-08 -1.2769438532e-07 1.8472094500000002e-07 3.3216491e-07 -2.33998e-09 -1.3985764e-07 -1.487465175e-07 5.39401735e-08 3.7093339e-08 4.0789982499999994e-07 4.81081015e-07 -7.145402800000001e-07 -5.2233389999999994e-08 2.9198969e-07 -1.10412959e-07 2.13439435e-07 5.54745233e-08 1.4447283499999998e-07 -5.75008265e-07 -4.0308615499999997e-07 1.580235365e-07 -3.08011015e-07 -1.6585462575e-07 3.2385212499999996e-07 -1.1688661999999998e-07 -1.7692425e-07 4.2612572e-07 -6.120567699999999e-08 -3.87834555e-07 4.49949225e-08 -2.7825382999999996e-07 -3.9891352000000003e-07 -5.545812e-07 -3.915754499999999e-08 4.37911085e-07 -5.341621e-08 -2.29331545e-07 -7.0448420000000005e-09 -1.49599045e-07 5.115388e-08 -3.8281255e-07 -3.04981575e-07 1.518960225e-07 -5.805941999999999e-08 8.860059000000001e-08 2.70519165e-07 -4.5471677e-07 1.8953676999999997e-07 7.751299999999999e-08 -7.059093000000001e-08 3.24998875e-08 3.5929135500000003e-07 -1.34835786e-07 2.955303405e-07 2.4460338999999997e-07 1.5955811e-07 -1.0646885000000002e-08 8.9217022e-08 -4.5990659999999994e-07 1.37096593e-07 1.3512799e-07 -4.071661965e-08 3.3005500000000196e-09 -3.79303585e-07 4.2738511500000003e-07 -2.61032495e-07 -2.2113483499999998e-07 -4.13932525e-07 -1.299655e-07 6.789055500000001e-08 -2.24888795e-07 -8.8535635e-08 1.434728765e-07 -4.0848684499999996e-07 -2.234513675e-07 -1.605844e-07 1.5967164e-07 -4.1811811500000003e-07 3.13013905e-07 5.59956305e-08 -2.173059999999995e-09 -1.7411679999999975e-08 1.38569782e-07 -2.61047525e-07 2.7177583e-07 -2.18380955e-07 9.151372500000002e-08 4.3849239e-07 1.408746e-08 -4.1331225e-07 -5.2230487e-07 -3.3130597500000003e-07 -8.113066e-08 6.1122715e-08 2.7372104500000004e-08 3.2049063e-07 2.9559285e-07 -1.3970543000000002e-07 -1.6014915999999999e-07 3.9242198999999996e-08
DHRS3 0.326494325 -0.48651283 -0.56434804 0.202622625 -0.13676051 1.74569175 -1.10737905 -1.0058903 -0.71992254 -0.82225625 0.144083373 -0.378596205 -0.028976080000000015 0.374230795 -0.09778557499999999 0.23997858000000002 -0.864830675 0.6357605205 0.147384935 -1.311981425 -0.35046478999999997 -1.23708967 -0.23593532500000003 -0.92813507 0.246327185 -0.669965265 1.47831943 1.25971855 -0.4417437535 -1.3852083050000001 0.31176516 0.13004627000000002 -0.617695135 0.39479283000000004 -0.14164806 -0.51100737 -0.8162280599999999 0.57639875 0.43193526 0.0216151725 0.072387428 0.21122592999999995 0.60813591 -0.6924579200000001 -0.5827983499999999 0.7642128300000001 1.0802226799999999 -0.779814065 0.93149495 -0.51784775 0.54373505 -0.04622451999999999 0.602515935 -1.5735803499999999 -0.07240799999999997 0.53801955 -0.78724328 0.39163757 -0.789464345 0.49032925 -0.018883870000000004 -1.98740385 -0.3277673 -0.108361545 -1.0521223 -0.52099347 0.656565675 -1.4645709 0.129526495 -0.519137565 -0.073042225 0.13791682499999997 1.6508488 1.50613355 -0.3198813 0.311126785 -0.09365945999999999 1.64877165 -0.11673017 -0.6926237399999999 -0.648306265 1.49374315 -1.1080621499999999 0.026993304999999995 -0.612708935 -1.19779027 -0.349120335 0.10956207499999998 0.17177361500000005 -0.311444675 -0.19129024999999994 -1.099604375 0.75588112 -0.15596683499999997 0.14373993 -0.13357878825 1.41154575 -0.26024427499999997 0.766136135 -0.8226779399999999
C1ORF158 0.195545205 2.15611375 0.22547892499999994 -0.247960535 -1.6535248500000002 1.190715 -0.514093165 1.20927773 1.411850225 -1.40723555 0.12969235 1.178756675 -1.420877265 1.91505015 1.8399823999999998 -0.3820772 -2.53775525 0.09584075 -0.5384268600000001 0.79111433 2.20120335 -0.57510255 -1.70415395 -1.8499647000000001 -2.0834646 0.36838857999999997 1.2978674319999999 -0.05758323500000001 -0.26361473 1.212889065 0.993843885 -0.7670374499999999 0.29545791 -0.43788546500000003 3.555559 0.6798310169999999 -1.2099714499999998 2.7972856 1.1534519300000001 -1.4662163499999998 -2.8816829999999998 0.15425791149999998 2.2928643 -1.78766537 0.20808295999999998 0.13386851500000002 0.795392965 1.00834753 0.652581975 -0.10481359500000001 0.09285432500000002 -0.42024812 -0.6529173100000001 -0.12353717 -0.169561697 2.9164747 -0.553090015 1.7852763500000002 -1.530650635 -0.417828955 -0.99473507 -0.9313732499999999 0.696063625 -0.63634594 -2.25578145 -1.198397935 -0.667529675 -0.05658574000000002 0.33456244999999996 1.178159435 -1.6839620499999999 2.72660605 0.41464871000000003 0.7775815500000001 0.38584045 0.5578930500000001 -0.630992225 1.48400973 2.5376289 -0.83759297 0.7190461775 0.16421098 -2.23941325 -0.6967326 -0.884680685 0.639606435 0.46316802999999995 -1.19714945 -0.2874868 -1.050964 -0.8351486800000001 -0.500037305 0.186076955 -0.6237479659999999 -2.44562105 0.337450075 -0.093741037 -0.755077625 1.0377858 -0.7255695499999999
SRARP 1.9088221499999998 -0.9354673 0.80345035 -1.24999071 -1.7290763999999998 3.04559305 1.052564275 -0.9409872499999999 0.314241485 -2.1465587 -0.6740315 0.935429515 -2.356002 -3.5813068 0.08017924999999992 1.3368886 -2.5151761500000003 -0.505276885 1.6434034 -0.605262375 0.780012185 -2.5720027500000002 1.19786915 0.2726495 0.22804586999999998 1.7181977000000002 -3.97075855 0.11767425000000004 -0.09178975 -1.9931521699999997 -1.265218735 -0.33983438 -1.282080885 1.0495309400000001 1.47802795 -1.36328255 1.003528925 -0.579769615 -2.0253457 1.44899087 0.7960816900000001 -1.598149 1.0091863 -1.442907635 -1.5657785 0.443498035 -1.23043288 -3.30741735 0.65668304 1.07451501 -0.836931032 -0.47882107 -0.10178029500000002 -0.118954615 2.28472203 3.2151031999999997 -0.09850168000000001 -1.8142624 0.038692004999999995 -0.7179180000000001 2.0254820000000002 -0.009140449999999967 1.62102015 -0.21438089999999987 0.0036630750000000156 -0.29470115999999996 -1.1210474000000001 0.02679604599 -3.38589275 2.0651106905 0.13424143000000005 1.59617224 -0.43590249999999997 0.5804053650000001 1.8279702199999999 1.9194081 -0.15875109999999998 -0.235419692 -0.43746435 0.8148970499999999 3.03475 -0.55684065 -0.493700685 -3.51521655 -0.217828325 0.57464225 2.10078172 0.6302261 0.14274868000000002 -2.4349577499999997 2.24951065 -3.0694823 -0.39281217 2.18477325 -3.4629127 0.73718101 0.4249075 0.8573061 1.6156044 1.06336349
NBL1 1.15411205 0.18154371999999996 0.5824906400000001 -0.92058272 0.264645885 0.7523419299999999 -0.51004011 -0.24485325000000002 -0.021064250000000007 -0.38687322999999996 0.70560984 1.172056735 -0.236438855 0.131654135 0.3264198545 -0.4790547835 0.21064610000000006 -0.2191798375 0.10748970500000002 0.48376543499999997 0.81187163 -1.6953981 -0.020338594999999987 -0.06493976 0.5548579 -0.349146125 -0.048227135000000004 -1.104734415 0.8791532400000001 -1.0622925 -0.529042645 -0.03356228500000001 -0.397931415 0.08108064999999998 0.826310435 -0.41845441 -1.1848072 1.95033855 0.5919112000000001 -0.76079676 0.7739605605000001 -0.8430891249999999 0.3217634185 -0.21258291 -1.6436708 -0.7293220625000001 0.77116706 -1.131260025 0.18943606500000001 -1.42985695 0.06791080000000001 -0.48357078 -0.259188332 0.543767925 -0.3369253 -0.8931699 -0.906595705 1.0996078 0.059643375 -0.34320168 -0.042845800000000045 -1.7740797499999998 -0.31327046999999997 0.18908842999999997 -0.7371158200000001 -0.8388899999999999 0.65196203 0.4433353975 1.28420445 -1.3213723 0.194408197 0.226720335 1.379469225 0.17420945 0.41628925000000006 0.1588895 -0.964656585 0.556644855 1.9872733 -1.15002563 -1.032693925 1.7054137799999998 0.5656568735 0.25899785000000003 -0.576502831 -1.26573515 -0.381054905 1.0852779 0.761699125 0.49525555000000004 0.479633895 -0.34696350579999996 -0.09356175499999998 0.18502934499999998 -0.319776146375 -0.566206255 -0.127012465 0.60010543 -1.1323541000000001 0.22037095
PLA2G2A 0.7461315 0.46068570500000006 1.4257251 -0.22454555999999998 -0.45527682 0.15370127 2.2026051 -1.139447735 -0.8183086615 -0.16450388499999996 -0.871016 0.9231165499999999 -0.66607715 -0.5641255 0.654256895 -0.653914585 0.93907189 0.26705795000000004 0.8093592199999999 0.96647488 -0.086367585 -1.32490295 0.082616725 -0.38579217 0.21920604999999999 0.541104765 -0.2464561 -0.5380816500000001 2.4119542 -0.648425218 -0.6997660299999999 -0.16211441499999998 0.374561495 -0.021655109999999977 0.425317445 -1.1530448500000001 -1.2620803999999999 -0.297283445 -0.71206211 -0.64689863 1.16127875 -1.7340559999999998 -0.3865743715 -0.23952601499999998 -0.03811661999999999 0.7360351700000001 1.046772735 -0.46247713 -0.46327977 1.3415004000000001 -0.292429 -1.1210886 -0.20799108000000002 0.69918954 0.2287935585 0.299442335 -0.4009679465 0.29753814 -0.852782975 0.451624595 -0.20600025 0.243108475 -1.4059019 -0.87856366 -0.5562837749999999 -0.67871405 0.536742705 0.130611175 0.09389407999999999 -0.3546789735 -0.563798775 0.06012852499999999 1.183032115 -0.09759409500000002 0.98421684 -0.7489571349999999 0.608872835 -0.29661803 0.679056512 -1.30447943 0.165781835 1.09056645 -0.40531367 1.5927082000000001 1.3353190499999998 -2.01870095 -0.421154685 1.92401565 0.427492115 1.19319825 0.41258276499999996 0.18384085 0.112325128 0.424275195 -1.1859279 -0.200775508 -0.03892257999999999 0.72031 -0.03468076999999997 0.82661339
CAMK2N1 -0.269314465 0.3072458 -0.65415007 -0.10359795999999999 -0.006865375000000007 0.451334615 -0.32321265 0.33264127000000004 0.999398115 -0.8861495749999999 0.17271027 0.53940759 -0.40509134999999996 -0.31185685 -0.002085899999999974 2.013976 -0.4146182535 -0.27781 0.019920800000000016 -0.148416375 -0.40053602 -1.61134815 -0.34243032500000004 0.4044023849999999 -1.02602595 0.36782439 0.487103635 -0.9477327500000001 0.46522725 -0.13156407500000003 -0.984114625 0.29113147 -0.3710996 -0.92652269 -1.1225204100000001 -0.1998535 -1.06106305 -0.05022700000000002 -2.52442045 -0.08425947 -1.9012581499999999 -0.1384852145 -0.43815144500000003 -0.64025008 -0.797174045 0.21303525 1.4770375 -1.4492356 1.9128273999999998 1.10122485 -0.6090546855 0.006160275 0.8715220300000001 -0.44354636000000003 -0.09918874499999997 -0.28328658 -0.60759266 1.83390435 -1.11657605 0.43620534 -0.858298534 -0.47109678499999996 -0.8100596099999999 -0.28728935 -0.84960957 -0.8639148999999999 0.37842200000000004 -0.38313123000000004 -0.89506587 0.66169655 0.019065615000000008 1.73132945 0.1801166235 -0.649883065 0.028913960000000002 0.23934117000000002 -0.82760785 1.06066625 -1.439709 -0.916356174 -1.6357751999999999 0.558359265 0.39055178500000004 -0.5097892500000001 0.23738184999999998 -0.40295905000000004 -0.08841139999999997 -0.7002234991 1.65788125 -0.51411612 0.5709920500000001 -1.4057800500000002 1.58470045 1.3304382350000001 -1.5114721 0.07261440000000008 1.32696675 -0.25871860999999996 0.8575158500000001 -1.3220564385
SH2D5 -4.3799829999999974e-08 -2.1842668e-07 1.8424196999999993e-08 1.6220620149999998e-07 -8.556690000000001e-08 7.54052485e-08 6.1854065e-07 4.5840505500000005e-07 -1.349706485e-07 4.6403797500000003e-07 -2.0469993850000002e-07 1.422586999999999e-08 -6.2800588e-07 1.2709444000000002e-07 -2.1285067e-07 2.609392e-07 -2.2607308499999998e-07 -2.0032100000000155e-09 2.763201500000002e-08 -7.317665e-08 1.3635901999999998e-07 -1.0822787800000002e-07 4.472774e-07 -6.6375226e-07 1.0894516e-07 4.74415105e-07 9.344596500000001e-08 2.6137085e-07 7.930564e-08 -2.75887285e-07 1.527098525e-07 -2.9072184999999993e-08 1.7506494999999996e-07 2.55819595e-07 -2.70443755e-07 -7.00439035e-07 2.8437233749999995e-07 2.1268358499999998e-07 -2.0935480500000002e-07 -2.6042719999999996e-07 3.3004285999999995e-07 6.0688103e-08 -4.53855435e-07 1.761940625e-07 -2.85418905e-07 -1.7918338000000003e-07 -4.281325e-08 -2.3662100500000003e-07 -8.896615e-08 2.56357552e-07 -2.979625000000007e-09 9.2626145e-08 -2.1452800500000002e-07 9.100275000000003e-08 -1.56695827e-07 -3.0951382199999996e-07 -3.5095605000000003e-07 -8.128634e-08 3.33183807e-07 4.1960079999999986e-08 -4.235546385e-07 2.0152429999999953e-08 -2.428940000000002e-09 -8.480648850000001e-08 -3.106890175e-08 -1.204630125e-07 3.5664700000000045e-09 -1.9864965999999998e-07 1.7360893499999998e-07 4.8341045e-07 1.1472346699999999e-07 -2.6674346e-07 -8.4036583e-08 3.7369792e-07 2.9797039999999998e-08 1.9143046999999997e-07 1.7767784750000001e-07 -7.152748000000002e-08 -1.4990181499999995e-07 -1.7686157e-07 -1.7426551e-07 -2.16576835e-07 -4.338221e-08 -1.3774954000000002e-07 1.85001437e-07 4.1770161e-07 1.519834035e-07 2.5234600000000005e-08 -1.6023183000000002e-07 -2.0347188499999996e-07 -2.3363345e-07 -2.8919499999999957e-08 -1.3053447e-07 -3.51034685e-07 -9.095973000000002e-08 -4.46167285e-07 2.0945635000000007e-08 -2.2615480000000002e-08 4.38664805e-08 6.651701000000001e-08
ID3 1.9747951499999998 -0.924547899 -1.7807729499999998 -1.05751455 -0.9631032939999999 0.30251455000000005 -1.151714375 -0.04335650000000002 0.43407905 -0.31676815 0.701114235 1.6833227499999999 -0.32765115 2.10460865 -1.4090023999999999 -0.6413096349999999 -1.5112839 0.7017072199999999 -0.8402816500000001 -0.4907541000000002 -0.9456173800000001 -0.9026127 -0.8770550229999999 -0.08536897500000001 -0.633352775 0.008207350000000002 0.40372739999999996 -2.4718946 0.264086178 -0.16132060000000004 -0.21844955000000005 0.6812854 -1.74456365 1.0863105499999999 0.05240414999999998 -1.174619262 -3.6626718 2.83500625 -1.9733764 0.0022174099999999752 -1.3782741 -1.8895187 -0.6173132 -1.19574185 1.8544141 0.42720755 2.41190875 0.2819934375 2.349198755 -2.1723432 -0.593286995 -1.4826628 0.61021725 -1.38937554 -0.662565795 -0.73639581 -2.0775219000000003 0.6812554 -1.23451745 -0.5554344250000001 -1.50560487 -0.427656155 -1.588798125 0.492551295 -3.9791993 0.64231445 0.336610695 -0.1390035 -0.9292785299999999 -1.5878709500000001 0.144918537 2.8919862 1.1358418000000001 1.67269048 -1.4090786 0.052374699999999996 -0.9752925 0.94240806 -0.054571215000000006 -1.2436826399999998 -1.3985740999999998 0.9400705699999999 -1.5565017 -2.23704185 0.6825277999999999 -0.17584635 -0.97213045 -0.09204964999999998 0.19611030000000007 -1.156000385 -0.93074113 -1.030913 2.45136765 -1.5747599 -0.6095357585000001 3.2479598000000003 -0.5731189369999999 -0.17855241999999993 -0.21994807499999997 -1.93775335
RUNX3 -0.031597810000000004 -0.72900155 0.01908612500000001 -0.70212978 0.3343386175 -0.51685302 -1.3974806 0.300566795 -0.6083301649999999 -0.21800085 0.64727963 -0.739277541 -0.250991415 -0.265393005 0.13319782 0.1346286015 -1.6467193 -0.27267124 0.10804771000000002 0.24285716999999998 -0.027129600000000004 -0.965142465 -0.18963577 -0.59912553 -0.165809455 0.10988227 -1.9951389000000002 -0.4038447 0.29291738 -1.36212562 0.082354215 -0.27316206499999995 -0.66348673 -1.04762679 -0.7368227825 0.54429316 -0.410380185 0.3976697 0.32701415999999994 0.029850913150000002 -0.52766004 -2.1667669 -0.359900995 -1.2256078700000002 -0.40913655 -0.43121719999999997 -0.357306165 -0.697284985 -0.2774515375 -0.49340342 0.6931875999999999 -0.22394961500000002 2.3157685 -0.40740729 1.06389955 0.8959928699999999 -1.1373455 0.81062335 -1.2057849 1.13431408 0.0024457299999999793 -0.44126192999999997 -1.1748203 0.5884734300000001 -0.20754824 1.3834794000000001 -0.13967499 -0.522187 0.010529640000000007 0.191457934 1.120579875 1.37668035 0.82755858 0.53781345 -1.21867978 0.3850652865 -0.49991753 0.8372695474999999 0.07395431499999996 -0.048411015 0.723617765 0.392680665 0.984469625 -0.936508565 0.46165505000000007 -0.561286215 -0.5602031 -0.30232038499999997 0.244330516 -1.2808951 -0.9333156 0.59341034 0.980580785 1.97714845 -0.974159 -1.040932595 -0.266266925 0.11358861499999999 1.66672485 -0.45279967
STMN1 1.2740162499999999 -0.10789192 -0.68998988 -0.65518468 -0.370579135 0.38592538 -1.16837071 -0.127782735 -0.40631035000000004 -0.9618790500000001 0.54272316 -0.67377742592 0.29862765999999996 -0.8324311500000001 -0.18360608 -0.21338752500000002 0.238910495 -0.014635685000000002 0.41718324999999995 -0.9927759 -0.326114455 -0.42291456 0.687835035 -0.38095035 -0.3243785853 -0.60326217 -0.057956850000000004 -1.31665125 -0.10761867500000005 0.9668457500000001 0.215425446 0.14538053 0.33765691999999997 0.3505850635 0.5427624 -1.5349939 0.591437975 1.51310535 0.11954672999999996 -0.301070495 -0.435259825 0.16201929000000004 0.377842655 0.20071509499999998 -0.275432235 -0.0037919800000000004 1.1390392 -0.28358675 -0.5970600850000001 0.04604749500000001 -0.64589065 -0.39989059499999996 -0.12565094 0.29996926 0.661926335 0.6922132999999999 0.1949622375 -0.3253801 -0.45473822500000005 0.31106919499999997 -0.031834365999999996 -0.9558443000000001 0.56798285 -1.07212835 -0.6456824750000001 -0.14605424 -0.74244 -2.058989 -0.168002685 0.18087907499999997 0.50642306 -0.120841695 1.21889087 0.287551455 0.040480425000000014 -0.6055550999999999 -1.1273227000000001 0.03216483999999997 -0.33247629999999995 -1.1480253999999999 0.2850312 0.66394164 -0.93686972 -0.8937178 -0.310786555 -0.970417125 0.4331231 -0.44756390500000004 0.8604780675 0.08341479900000001 0.5039735 -0.835139015 0.31952728 -1.60167575 -0.48626547 0.584770675 0.41121091 -0.33964202 0.33759039 0.22309614500000002
CD52 0.059799675999999996 -0.653221693 -1.28048357 -0.18568640000000003 0.034181429 0.5810847450000001 -0.8407239 0.28297295 0.121232 0.626558015 1.2067594499999998 -0.002366869999999993 -0.027947090000000008 -0.9131997700000001 -0.3129067 -0.447118735 -0.8868406 -1.42751943 0.5764318500000001 0.683398735 0.668056435 -0.818008745 -0.8631551500000001 0.15448414500000002 0.1863283 -0.373650785 -1.42221185 -0.5254916000000001 0.48106567 -0.184114 -0.03865513500000001 -0.42237327999999996 -0.5096161725 -1.56474245 -0.314501465 -0.124085112 0.425537835 -0.4535411525 0.57715423 0.31529506500000004 -0.535436495 -0.2276759 -0.23230587500000005 0.20191793800000002 -0.40596062499999996 -0.494975928 0.32747342 -0.9516984350000001 0.47374057 -0.67039653 0.295983255 -0.6467872 -0.36582691 0.91329623 -0.015397104999999967 0.8141384 -0.30170969999999997 -0.2370183885 -0.8673321700000001 1.5616598000000002 0.012389405000000006 -0.19314386 0.55281545 0.5741612 -0.53862598 0.329312695 0.393407285 -0.1346262 -0.1543966325 0.03153198999999998 1.042834825 0.5350845399999999 0.52018734 0.1633389337 -0.781766085 -0.70345631 -1.03094492 0.662692355 -0.15409868499999999 -0.28964396 0.35980142000000004 0.24719205500000002 -0.055945095 -0.49545531499999995 0.40900497 0.364603255 -0.18607764 -0.2801291225 0.05529917000000001 -0.7634400299999999 0.23350703500000003 0.13273590000000002 1.3093095 1.158479675 -1.38764265 -1.0415216250000001 0.88912955 0.10722071 0.726434705 0.054157947000000005
SFN 0.466405223 0.05625161000000001 -0.255316815 -0.56772165 0.15032339 0.036025535 -0.461356245 0.40188342 0.549411435 -0.215627695 1.56031575 0.03058970000000001 -0.28367227500000003 -0.797054495 -1.14825455 -0.01656452 -0.55060438 1.4160477999999999 0.6060012300000001 -1.010670705 -0.336585405 -0.7459912275 0.404403105 -1.14257295 -0.88571806685 -0.13425218 -0.16054795 -0.384348845 -0.03244847499999998 -0.723026335 -1.30678725 0.88396497 0.13391774999999995 -0.29337205499999996 0.008795704999999987 0.26155165 1.219638 0.36491525 0.4931018425 -0.32906161 -0.201004715 0.465271235 1.9333471 -0.5764308775 -0.23761635 0.9780986250000001 0.49123237500000005 0.417689715 2.09137725 -0.2689744 -1.09056395 -0.203926705 -0.28826431500000005 -1.4063245 0.5986701999999999 -0.16609102350000002 -0.1384014 -0.14112703 -1.2229292 0.14603834 0.05327548 -1.320061925 0.641360125 -0.5948094174999999 -0.6572168700000001 -0.8044511999999999 1.33667316 -0.002753560000000002 0.404423315 -0.38236459 0.18775516 -0.169641025 1.37812395 0.13876813 -0.5946286534999999 -0.29564310000000005 -0.9630199 -0.44667038 -0.29677130500000004 -1.069884475 -0.6964975225000001 -0.06263798499999995 0.4834565 -1.2457408 -0.6866191150000001 -0.99005175 -1.1688844299999999 0.5746845500000001 1.06252565 -0.04075948500000001 0.23811770999999998 -0.5567311536499999 -0.38925164999999995 -0.68987637 0.29867491 0.687974915 0.6721488299999999 -0.412594115 0.50960591 -0.8657914600000001
TRNP1 1.4128558500000001 -0.15837006999999997 -1.16020445 0.13871946 -0.433325551 0.6528334849999999 -0.89611035 0.9212343000000001 0.8997727 -0.13657937000000003 -0.4969117249999999 0.902114375 -0.763586935 0.36480875 0.563570455 -0.87907121 -1.66348915 0.9831395 -0.16006963000000002 0.52660523 0.8478399000000001 -0.1007121265 -0.283724525 -0.79266949 -0.89095354 0.12024948500000002 0.8720578999999999 0.69572025 -0.701332015 -0.033700620000000014 0.58624813 0.26146857 -0.11045005349999999 -0.58743377 0.908406 0.1979754185 0.56162168 0.8133180449999999 0.891374393 -0.53898359 -0.41049148 -0.421540105 0.304804715 -0.20596356500000002 -0.004279795000000003 0.78204335 -0.577052335 -0.40567613 -0.0939301675 0.45174593500000004 -0.16295610500000002 -0.79902505 -0.02025977000000001 0.438270465 -1.216676025 0.765352735 -1.1355430000000002 0.70782225 -0.36512036000000003 0.77149529 -0.396709415 -0.028531486000000002 0.187806725 -0.66410428 -0.603907765 -0.9352711199999999 -0.38187963 -0.16312710749999998 0.5266199149999999 0.19040442000000002 -0.356517505 0.37870600000000004 -0.3954301375 0.5354126 -0.56733626 -0.35771729999999996 0.029735160000000004 0.723112515 0.1637635585 -0.68513654 0.47050753 -0.236440025 0.47770742499999996 0.26147698 0.42790307 -0.240351577 -0.711708385 -0.36558330000000006 0.65946807 1.0334104499999999 0.43247255500000004 -0.4715144 0.29171440000000004 -0.006180149999999995 0.30964908 0.143345513 -0.22589284575 -0.876290462 0.45771265 0.681649325
CD164L2 0.45165859500000005 1.04563833 0.8579637 -0.43841254 -0.410053965 -0.154715825 -0.82450805 2.1701668 1.5857138499999999 -1.4525759 -0.943316315 0.27871720000000005 -1.1331945 0.58594055 0.76980015 -0.42955672500000003 -1.46207533 -0.053613350000000004 -0.350884085 0.60120174 1.1956183 -0.74694324 -1.0900529 -0.660098355 -2.2189885 0.03460357500000001 -0.0968768327 1.4144348500000001 -0.024265759999999983 -0.74769736 -0.14124157999999998 -0.22831827999999998 1.17027475 -0.9637001 2.2527067499999998 -0.5557905700000001 0.9516350450000001 2.15906295 0.76492325 -0.7217073300000001 -0.6792852100000001 -0.80026475 1.6495917 -0.503500635 0.04968663000000001 -0.8133249499999999 0.32283933 0.8829622500000001 1.3182662 0.196463635 0.14419008499999997 0.5975356175 -1.15352186 1.2764334499999999 0.039281995000000014 0.64756665 -0.0847131605 1.2555591499999998 -0.39071557 0.34805317 1.6813729 -0.599921115 -0.436210455 0.6560879900000001 0.07302029999999998 -0.37648782999999997 -0.53105665 0.8169781 -0.409914315 -0.581817465 -0.6687213299999999 1.1310466 0.46817797 0.7243816 -0.378828166 -0.13841035000000002 -0.072252078 1.5507407999999998 0.20472831499999997 -0.67018884 0.686205875 0.08988987000000004 1.3552805 0.304514655 -0.16051943 0.058665350000000005 0.03664970000000001 -0.337810675 -0.50723855 -0.84394485 -0.3673324125 1.1868713499999999 -1.23496038 -1.4080838249999998 -0.534530025 0.0844297 -0.12764324 0.34990538499999996 -0.363527175 0.30665549999999997
IFI6 1.47657535 0.5360775249999999 -0.3947042425 -0.21612189999999998 -0.1993855 0.8512336300000001 -0.252161235 0.17297344999999997 0.22120378499999999 -0.21148886 0.38775125 0.3924558875 0.81191645 -0.50582039 -0.5250582825 -0.51633971 -1.13068955 -1.0063393999999999 0.088387 -0.500008 -0.3573246535 -0.407601165 -0.8227450350000001 -0.58482495 -0.30827059999999995 1.0156691 0.12766157500000003 0.07511223499999997 0.56943245 -0.129685 -0.41808326999999995 0.329353265 -0.376511215 0.24225893 0.159629625 -0.882773125 0.178969465 0.0341148 -0.0010565500000000033 0.278853815 -0.419791575 0.301839051 -0.43792649999999994 0.42926308999999996 -0.76632245 0.21426069999999997 0.86492835 -0.44293881999999996 1.0967514 0.171481289 -0.455289665 -0.87629195 0.085448307 -0.21527182499999997 0.158474885 0.6639429 -0.9811675799999999 0.06406347000000001 -1.80206235 -0.204411322 0.432357845 -0.32924268 0.48806986 -0.91730965 -0.823847165 -0.837164645 0.26372106500000003 -0.278993333 -0.331156085 -0.17699992999999997 -0.026569580500000002 1.27647708 0.142862767 1.16697665 -0.1648073 0.81181381 -0.757558325 -0.908163435 0.36199193 -0.6635667000000001 0.46639584999999995 1.1117297 -0.05985846 -0.43112332999999997 0.9878551280000001 -0.549556415 -0.33055365000000003 0.021280879999999988 -1.31575367 -1.18824785 0.48726153349999995 -0.10685772500000001 0.7588124949999999 -0.0656411445 -0.011481220000000014 0.46260173 -0.12151335000000002 -0.1205813825 -0.1308543815 -0.63798681
FABP3 0.35277622500000005 -0.35095884499999996 -0.47520235 -0.397093401 -0.47503522 0.108396075 0.069272692 0.40176670000000003 0.5116586 -0.88964808 0.680067 0.258245365 -0.52486299 0.12385313 -0.188930142 0.11774797099999999 -0.720614165 -0.65698838 0.030732690000000007 0.46163434999999997 -0.44503729000000003 -0.17033048 -0.328698155 -0.7940289 0.397977427 0.69430518 0.015891475000000016 -0.6102707 0.001179530000000012 -0.384434085 -0.53000463 0.14375199 -0.098132726 0.32344598 1.03116695 0.404130925 0.19858536200000002 -0.060767162 -0.15945144 0.10134849200000001 -0.161619167 -0.460336415 -0.24636489 0.37749136 0.394212835 0.39841768 -0.66747238 -0.72999265 0.0821212195 -0.698172475 -0.4392445025 -0.211013605 0.6757963499999999 -0.60095906 -0.349644965 -0.7448939750000001 -0.012028915000000001 0.2808485555 -0.39706204 1.106668085 -0.5501387099999999 -0.31783557949999997 -0.092020478 0.09784071 0.43519449050000003 -0.254353255 0.5314128 -0.93887285 0.692781235 -0.418290756 0.8140278999999999 -0.58031867 0.8353277699999999 0.05967159500000001 0.2843609475 0.325636927 0.485543145 0.6603698499999999 -0.50694566 -0.75009773 -0.225118315 -0.09651414749999998 0.9799477 -0.489990825 -0.05860851 -0.316673895 -0.583155385 0.471330955 -0.41030374000000003 -0.297512875 0.008834209999999995 0.35726425 0.58798965 0.36244153999999995 0.07369962499999999 -0.23019156999999998 -0.2035473 0.26412575 0.30518737 0.06557239999999999
SERINC2 0.8648351249999999 0.61521454 -0.36595015000000003 -0.1049644675 -0.11928728000000002 0.8844579 -0.22313655500000001 0.1153188 0.448945715 -0.01637472499999998 0.04295338 0.55065815 0.579562565 -1.08132325 -0.10568396499999999 0.048646894999999996 -0.156502566 -0.40962180000000004 0.23932705000000004 0.11394700499999999 0.9779669500000001 -0.7933635187 -0.45171142000000003 -0.8372421 -0.28075527 0.75662935 -0.336103875 -0.12957270000000004 0.124378655 -0.10620253000000002 0.25352891 -0.15537921500000001 -0.254961356 -0.117718935 0.23466122 -0.06743570999999998 0.571147795 0.20470937 -0.412923975 -0.378018825 -1.16033755 -0.060920548 -0.38575334899999997 -1.04933065 -0.5728001 -0.7690400799999999 0.5084296500000001 -0.43762613000000006 0.8632576000000001 -0.340070665 -0.4842524 -0.615245735 0.27719187 0.542518075 0.53363517 1.19158453 -0.14046282499999999 0.42799129999999996 -1.140581965 -0.122732483 -0.36715053400000003 -0.339455085 0.5631298 -0.39924041500000007 -0.80827092 -0.8373321 0.306653677 0.416379235 -0.30596027 0.6210803370000001 0.10151806549999999 0.85343145 0.47291975500000005 0.54297462 0.03896468250000001 0.77159641 -0.52959944 -0.5205785350000001 -0.133819973 -0.024688050000000017 -0.08648922999999997 0.268593725 0.56279449 0.01488394999999998 0.15561587000000004 -0.131896935 0.271211955 0.41841584899999995 0.009100150000000001 -0.77228573 0.969316025 -0.909690855 0.83998738 -0.12170495 -0.8382703499999999 -0.31769615500000004 0.280261645 -0.3683168 0.8754856234999999 -0.04168242
TINAGL1 1.07962165 0.1803309175 -0.4142390095 -1.864939525 -0.7218188999999999 -0.029915799999999937 -0.07283173500000001 0.44372476299999997 0.07391156 -0.406698855 1.050087 1.014615785 -0.15216107499999998 -0.77452755 -0.08274488499999999 0.536943275 -0.7010015999999999 -1.03293292 -1.6977921999999999 -0.24071800000000004 0.01934753 0.507434333 -0.2407928425 -0.8252205 -1.63222765 -1.1405332 0.22582488 -0.67850062 0.71330993 1.14329175 0.14107497500000002 0.060882381 -0.77305294535 0.04429230999999999 0.8494913 -1.199091475 0.74208177 0.963640565 -0.75898388 -0.22274322 -0.88050644 -0.32830324499999997 -0.390679625 -1.26453035 0.44548786500000004 0.39071989999999995 1.6392057500000001 -0.79013158 1.88530145 -0.14147624999999997 -0.485595325 -0.7435427425 0.570338787 -0.445189045 0.707245345 0.655504897 -1.3272931419999998 2.0582792 -0.30669888300000003 -0.5913906200000001 0.275767525 -0.92555683 0.726618985 -0.76941645 -0.96953073 -0.05966367 -0.14190647199999998 0.57308562 -0.42291577999999996 -1.0777448250000001 -0.961343785 0.50703155 0.049062719999999976 0.49580653499999994 0.24736365999999999 0.0805299475 -0.5088026 0.73542577 -0.33207374999999995 -0.771118025 -0.27186012000000004 0.9103898500000001 1.191282575 -0.5816278699999999 0.3074488 0.565869175 0.430736204 -0.5687158275 0.218220925 -0.66746167 -0.07854729999999999 -0.871316635 1.5564102000000002 0.11415518999999999 -0.149731245 0.34373429999999994 0.401867425 -0.0770031335 0.321315475 -0.96553725
CSMD2 -0.0625421875 -0.392319035 0.04197605999999998 -1.3445953 -1.61543805 0.12254635000000003 0.0025441499999999673 0.570700985 0.878390215 0.617778625 0.838884465 0.30869345699999995 -0.2308307175 -0.75280734 0.574012015 0.41062882500000003 -0.9451797 0.6827129494999999 -0.495982535 0.0728894 0.022877915 -0.9799373650000001 -0.233385002 -0.35697113 -0.583591275 0.12858188500000003 -0.8728451749999999 -1.0259054 -0.9942246299999999 -0.04337561000000001 -0.09815492 0.297300855 -0.750634936 0.1752700775 -0.249490325 -0.47670540499999997 -0.375268615 -0.76589454 -0.31828439999999997 -0.5142728025 -0.40250752 -0.40851897 -0.71500175 -0.69671038 -1.2311332 -0.139456635 0.57339536 -0.7791339500000001 0.500898715 0.673245505 0.13219300500000003 -0.14096957999999998 0.12901173 -1.11165275 -0.81329075 0.61041958 -1.01484935 -0.04223663000000001 -0.019785584999999994 0.18130601500000001 -0.42820078999999994 0.2889338225 0.430885855 -0.85262857 -0.798183915 -1.1699448499999998 0.09878206750000001 0.1382911765 -0.32265491 0.013761987 0.2985255265 -0.08930873500000003 0.387279965 -0.25631077999999996 -0.6313141950000001 1.3720409500000001 -1.49285763 0.6324884900000001 0.090741285 -0.41450566 0.29468973 -0.10457598499999998 0.29254673 0.046457525 0.71055453 -0.256665325 -0.88620465 -0.92494435 0.09227835499999999 -0.29694313 0.50078873 0.05141074999999995 -0.201373635 0.9224337250000001 -0.42201435 -0.113565705 -0.19910385000000003 -1.13591305 -0.299369845 -0.75129085
C1ORF94 -1.3974667299999999 -0.83157493 -1.9797075 -1.3331443 -0.4591809499999999 0.5589545055 -0.633960095 1.7047671 0.55336399 -0.42544333 0.19947496 -1.19377925 0.816304515 -1.6808617 -0.34099595000000005 -1.6642929000000002 1.231149465 -2.8680285999999997 -0.3336714700000001 0.41402117499999996 -0.83379828 -1.24327254 -0.837139175 2.9656560499999998 0.708789475 0.2822186 -0.584593515 1.51466775 -0.06240227499999995 0.053980174999999964 -0.7091783 -0.30895575000000003 0.0828121 -2.8077316999999997 1.33279732 0.38534233835 -1.44399525 2.2669422 1.01354042 0.11815825000000002 -0.730901 0.6926367600000001 -0.856354285 -0.39605350000000006 -2.62753175 -1.9936235 -0.062095059999999994 -0.653923602 1.18019155 -0.736091705 -1.6734421999999998 0.06016113000000001 -1.3586844 -0.44176591 1.196307477 -0.36695731 -0.813887035 1.432117775 0.015760355000000004 -0.27579716 -1.6392963999999999 -0.62833664 0.14499812500000003 -2.6807499000000004 -0.984859215 1.06142605 -0.6558531255 -1.9693221 1.4283551650000001 0.4787585 -1.2480753500000001 1.487074535 -1.33295405 -0.3617766 -1.0589346 1.7655224500000002 -1.8067190649999998 0.59545545 0.22578000999999998 -0.23569954999999998 0.8365543150000001 -1.79091675 0.391808935 -1.0098609585 -2.07445635 -1.9597516499999998 0.09758603500000002 -2.1417157 1.4456356750000001 0.33520325000000006 0.8577466749999999 -2.4372994 0.85218682 0.11547746 -0.37747582 -2.0408654 1.68914675 1.4629784 0.629786975 -0.58919345
GJA4 -1.6403853000000002 -0.56659209575 -1.21663835 -0.564049285 -1.44877225 0.49241412500000004 -1.033094965 0.236381998 -0.83525715 -0.674479335 0.40008251 1.57969685 -0.639024385 0.919122625 -1.3386714 -0.7838614749999999 -0.8178819799999999 -1.5886147 -1.20970105 -0.08723279 -0.96218342 -0.72122011 -1.11810447 0.17720564 -1.737637 -1.24413225 -1.3735751999999999 -1.17878815 0.3881235 0.4251109 1.05208335 0.4382900900000001 -2.4904049500000003 1.08678508 0.6317968650000001 0.36186388 -1.0331898499999999 -0.45876675 -1.5028644 1.96585385 0.440143815 -2.5428440500000002 -1.3935486 -1.760891775 0.61434471 0.468000055 0.94393207 -0.9400374 1.1562434000000001 -1.60909785 -0.8205495869999999 -1.36494129 -0.9871938 -0.47012536499999996 -0.80734178 -0.471022155 -1.2963484630000002 1.222947065 -1.54354215 0.669438185 -0.68498512 -2.6974119 -0.443145295 0.6776258749999999 -1.53566805 -0.16658887500000003 -0.70472527 -1.06263002 -0.44274847500000003 -0.795123055 0.95449585 0.65032186 1.342064535 -0.0711659385 -0.32496907500000005 0.887210515 0.56722761 0.7964394850000001 -1.92354445 -0.46067468 -0.39615457000000004 1.07412365 0.452508643 -1.6630457 0.6167722250000001 -0.98869505 -0.56461115 -1.1414354999999998 -0.398328155 -1.1007278 -1.22462605 0.2759307 1.6672334 -1.4722829 1.9113471 2.20309425 -0.05147211999999998 -1.41288377 1.2003216 -0.531957025
CLSPN 0.15720145000000002 0.383045105 -0.15024173 0.34778156000000005 -1.0645658 -0.361960807 -1.23601177 0.90509025 -0.54164055 -0.43584796000000003 0.499297165 0.12611080000000008 0.271465555 0.15458082500000003 -0.62705 1.3844998 -0.17124865 -0.24519015000000002 0.06858913 -0.71499038 0.8575398249999999 -0.966985085 1.3966596500000001 0.7723891 -0.18906134999999996 -0.18270134999999998 -0.16000153 -0.43158837000000005 1.70620715 0.280618325 -0.8749719499999999 1.94282085 -0.25097173 -0.53129407 1.7849952 -0.516570105 -0.436679225 1.851299435 -1.55743855 0.1769633045 -0.29969284999999996 -1.76302845 1.18678565 0.22230994 0.6018044499999999 0.89867985 -1.2458596499999999 0.08903422999999999 0.4079667 1.6824677499999998 -0.14918925000000005 -1.38915155 0.28124665000000004 -2.10290686 -0.043362843 0.06626296500000001 0.010056222500000003 -1.00093954 -0.029230295000000017 1.7289130999999998 -1.2820006750000001 -1.6789097499999999 0.83355845 0.84102703 -0.86910475 -1.5128080499999998 1.5469576 -1.47510813 -0.144908205 -0.014057499999999945 1.92956435 0.35747022500000003 1.7351324 1.2282195500000002 0.122881065 1.2397103 0.11752579449999999 0.29380517 -0.98602158 -1.15398375 -0.09047300000000003 -0.47509222500000003 1.28997075 0.28713962 -0.9103972 -0.33297725 -0.8869182 -0.030280749999999967 0.6823596470000001 -0.95659895 -0.65519405 -1.0908915 0.630373925 -0.273487665 -0.347261855 -0.036328849999999996 0.28004918 -0.7594676 0.69834325 -0.7382693
TEKT2 -0.1344775485 -0.314807605 -0.14232898700000002 -1.022519875 -1.01646295 0.200814795 -0.9248672 1.01769215 0.39850599999999997 -0.01327744000000003 0.034210204999999994 0.15234863999999998 -0.856356575 0.092581205 0.737322885 -0.22469393000000001 -0.9371449000000001 0.05770355999999999 -1.609561 0.46506587499999996 -0.24827482 -0.7777119635 -1.2457876749999999 -0.42278901999999996 -1.0310886 -0.8567947 -0.267985585 1.9405751000000002 -0.5772182299999999 -1.2399577 -0.063679135 0.6379927000000001 0.674213035 -2.1186065999999997 1.6663578499999998 -0.279077835 0.33545816500000003 1.7583891 1.10290793 -0.12622185000000002 -0.883096935 -1.49831045 2.3257175 -2.05784995 0.4909597135 -0.88364885 1.1453277 0.23737825499999998 0.234724525 -0.324361165 -1.359291 -1.21151322 -1.0959921499999998 0.508825125 0.669437785 -0.060439800000000043 -0.712742745 0.29603433 -0.609449635 0.26983859 1.07485585 -1.6128948 0.06197662500000001 -0.21548495 -0.75205128 -0.059644995000000034 1.65243015 -0.83835232 -0.62979119 -1.18588685 -0.625447595 1.09953562 0.6355249599999999 0.15974552499999994 0.015611649999999977 0.18392734 0.45557591500000005 1.136158875 1.24152785 -0.90501774 -0.67156083 1.1965729 -0.147510195 -0.012251614999999993 -1.31135835 0.378894425 -0.07965445500000001 0.03384971999999997 -0.7624453800000001 -1.2109441 1.1235718499999998 1.320178 -1.07642711 -1.37237385 -0.41247073000000006 -1.09970235 1.13172803 -0.52625213 0.6505768075 -0.358366745
ZC3H12A 0.510757775 0.60452755 -0.47540577 -0.6694059699999999 -0.41326395 1.0720241499999998 -0.812169965 0.678589865 0.16861414999999996 0.30653095 0.7225782000000001 0.5803337199999999 0.33449009499999993 -1.0141791 -0.36064443500000004 0.1364028625 -0.6082985750000001 0.29529064 0.3650765 -0.13488860000000003 0.10475225000000002 -0.250153555 0.034936270000000005 -0.6468572335 -0.75604636 -0.362308195 -0.9566368 -0.06639312000000003 -0.09146569999999998 -0.8957405500000001 0.02775155000000007 0.5481528 -0.655675825 0.28808041 -0.0516710065 -0.5901848999999999 0.15215003500000002 0.81554931 -0.43515527499999995 -1.4239424999999999 0.48488951 0.056628979999999995 -0.77473355 -0.16490014 -0.114223775 -0.516894955 0.004496235000000001 -0.20708912000000002 1.07249627 0.34423802000000003 -0.40784897 -0.357949745 0.46319003999999997 0.0021624049999999923 0.3286566725 -0.47108867000000004 -1.0754053 0.9260405 -0.9506232500000001 -0.07005808499999999 -0.570551155 -0.8007782999999999 1.0835041300000001 -0.7320407200000001 -1.11607424 0.02525105500000001 0.32972811 0.751225785 0.42870251 -0.38684007 -0.0565249199 -0.021614120000000014 0.262078368 0.358781935 -0.95423905 0.71712345 -0.05089761999999999 -0.08159884999999997 -0.328862765 -0.30189061500000003 0.23925072000000003 0.5923265799999999 1.3660160499999998 -0.9673908600000001 -0.10977341000000002 -0.81444765 0.7908793700000001 0.32032487 0.7538706049999999 -0.007488130000000037 0.774296665 -0.9626335 0.15652649000000002 0.23739748500000002 -1.30949735 0.02592161000000004 0.494780905 0.3386239905 0.52072653 -0.08983193499999997
DNALI1 -0.080415492 0.45395517500000004 -0.9620781999999999 -0.81804414 -0.808058835 0.06798684999999999 -0.9112085000000001 1.1185489 0.1951640485 0.03648164000000001 0.18800841499999998 -0.42112302 0.10106562499999999 -0.92123135 0.11893625000000002 0.11069616499999996 -0.12858958500000003 -0.3152662 -0.9968414250000001 0.419453015 0.044482683 -0.60521094 -0.30862443700000003 0.15314339000000002 -0.75310703 0.11559302749999999 -0.35904205 0.67084964 -1.2409082 -0.28784865 -0.41260593500000003 0.08230117 0.12781517999999997 -1.134733775 0.7040721000000001 -0.30437061 0.47817608 1.6928353999999999 0.12799547 -0.282468619 -0.55460845 -0.011010569999999997 0.9278833 -1.18290955 0.67408766905 -0.44346988500000006 0.357955765 0.85832607 0.021725470000000024 -0.048858885000000005 -0.465897585 -0.54318148 -0.699089 0.7775168 0.5196863715 0.255310995 -0.031417064999999994 0.009602100000000002 -0.7244457315 -0.36125591 0.484842942 -1.8132465 0.2640659725 -0.862836897 -0.87221518 -0.82823629 0.446979135 -0.1448508500000001 -0.4481699 -0.11184032499999996 -0.0424889085 0.637315345 0.2929007 0.32333464300000003 -0.146607775 0.49545759999999994 -0.414822633 -0.37775521 0.500447585 -0.96121884 0.3914509075 0.46957995750000003 0.01277136000000001 -0.16013052093 -0.960058265 -0.011776000000000009 -0.273411885 0.17822314999999997 0.12426045499999999 -0.642637945 0.8717753500000001 0.34014839 -0.3918033 -1.27076195 -0.344066625 -0.40477013500000003 0.34662062 -0.68301409 0.5750079100000001 -0.39490264999999997
RSPO1 0.07438974 0.082754035 0.283126145 -0.008117095000000005 -0.684721265 0.0037529149999999956 -0.0018630299999999878 0.008998100000000009 -0.50910452 -0.27230902 0.5232737 -0.23453314000000003 -0.242907185 -0.76216218 -0.10919354999999997 -0.33616869000000005 -0.532066835 -0.3103227 0.26770549999999993 -0.55834052 0.7627058099999999 -0.75861777 -0.200436265 -0.526271715 -0.6417258349999999 -0.08102073500000001 -1.03741847 -0.56698627 -0.43715375 0.7689847000000001 0.212490185 -0.13151639999999998 0.2251393 -0.8059647400000001 0.62707757 0.71951648 -0.23272967 -0.24522746 -0.6098113885 -0.34571436 -0.427284245 -0.42383149 -0.88651775 -0.16828747 0.15888743500000002 -1.03252445 0.055904930000000005 -0.4859195375 -0.11874172 -0.217425602 -0.678781485 -0.54683344 -0.147868438 -0.58180521 0.312366645 0.381493525 -0.22231541500000002 -0.136796045 -0.601902275 0.178857789 -0.79204058 -1.16376193 0.2098851325 -0.6113714499999998 -0.82150775 -0.677471775 0.1817795535 -0.702408285 0.12501984499999996 -0.267233317 0.021992807999999996 1.6126524 0.6386398950000001 0.04417336000000001 -0.347309965 0.6147641549999999 -0.96370245 0.60176937 0.669702665 -0.41938608 -0.04056715999999999 -0.43202276500000003 0.4318064725 0.085894375 -0.32709789349999996 -0.70570322 -0.39005061750000003 -0.6104934999999999 0.61285329 -0.09914943500000001 0.7735113 -0.31498112 0.62064105 -0.7505167 -0.8550875250000001 -0.42650248 0.347123567 -0.400894883 0.9014013900000001 -0.25751909
CDCA8 0.958598175 1.857174735 -0.72978765 0.6549531000000002 -1.76548835 0.0014293134999999995 -0.8399586 0.630764844 -0.8131785 -1.20370535 1.54997685 0.46732722499999996 -0.18503853499999998 -1.47260578 -0.6411690999999999 -1.2880609 -1.2494154 0.46817985 0.09152695500000002 -1.35384655 0.8817056999999999 -0.5153302500000001 2.1050708 0.641666855 -0.603067963 0.675901135 0.168327013 -2.4150159 -0.603656335 -0.024106055000000015 -0.664467385 2.2511561 0.9721509150000001 -0.687501115 -0.62812957 -1.4334828 -0.42558087 -0.41348209999999996 -0.806519835 -0.599723535 -1.65415645 -0.563459485 -0.74269867 -0.16607381999999998 1.03584868 -0.18404800500000001 1.3267338 -0.23622374999999995 0.56097696 -0.21347958 -0.27921163 -0.53061758 0.6644951299999999 -0.85990146 -0.15980634999999999 0.47116035 -0.875376335 -0.07630042499999998 -1.51549725 0.30020115 1.4320446 -1.08868725 0.737794225 -1.485387 -0.14105841 1.16535915 -1.7758085000000001 -1.56972895 0.06227571500000001 -1.025595065 0.49688541999999997 0.7644865000000001 0.665565685 -0.503171065 -0.3707493 0.19351040735 0.25187355 -0.420832533 -0.55112058 -2.18452315 -3.12492775 0.54432102 0.47716537000000003 -0.5507230999999999 -0.7941157400000001 -1.1108631999999998 0.14137205999999997 -0.64321777 -0.31694102 -0.3057666 -0.641666055 0.513726085 0.62275618 -0.847263825 -0.37118235 0.66368037 0.04503635 -0.24304206999999994 -1.1699497 -0.80985104
MYCL 0.64704655 0.317462855 -0.57610421 -0.551604705 -1.19469655 -0.63796535 -0.07709160884999999 0.43759641099999996 -0.18147952 -0.687421865 -0.38423643 0.546160655 -0.3552517785 -0.9581621 -0.2582238 -0.74233699 -0.83925725 -0.07957834999999999 0.162976385 -0.54307254 0.34365265 -0.13406122499999998 0.491864585 -0.08969849699999999 -0.43995057649999997 -0.455548105 -0.413836585 0.195561775 -0.130138195 -0.911393825 0.07752529999999999 0.3581732 -0.530416221 -0.536965535 0.43519043 -0.27762227500000003 -0.142295385 0.72996799 -0.48071685000000003 -0.8105556 -0.544612825 -0.8376431 0.06508589000000001 -0.685993625 0.0756113355 0.32754031 0.35060431000000003 -1.03095591 0.51392025 0.19266360500000002 -1.02860515 0.369809375 -0.7238878799999999 0.220858023 -0.30862016999999997 0.47440711999999996 -0.79532751 0.18330713999999998 0.88328293 0.039755065000000034 0.1385224 -0.666815505 -0.275460845 0.1789195 0.05131323 -0.39725315 0.84504015 0.15989493500000002 -0.38016001499999996 -0.44878170000000006 0.014993265000000006 0.36050505 0.5651896 -0.23848278500000003 0.7369045 0.10190727999999999 -0.98367625 0.55395545 0.10672442650000001 0.012076809999999993 0.40828228499999997 0.699293985 -0.23056239 -0.0601497125 0.57525981 -0.65075971 0.20929384 -0.672470585 0.461996235 -1.1002551 0.7086542650000001 0.16898976 0.8096247050000001 0.007557399999999992 -0.455367815 -0.342710215 0.136679178 -0.349347992 0.435464915 -0.68276092
COL9A2 0.19665302 -0.85042898 0.22838566500000002 -0.029119225 -0.7618963249999999 1.0292883000000002 -1.00296435 -0.0866999785 -1.16138465 -1.2932234 1.2938989 1.08706105 -1.44300965 0.2048545 1.9715044 0.481303095 -0.8562610800000001 0.4934857 -0.11786516 -0.03180252 1.16622497 -0.489365535 0.33059528499999996 -0.13712756999999998 -1.2004153 -0.38398551000000003 -1.77892415 -0.27004922 -0.57701371 0.40114245000000004 -0.64561165 0.46078935000000004 1.2678520500000001 -1.1398448 0.67322107 -0.252540575 0.95676228 1.8440577 1.13727865 0.5770769649999999 0.341268215 -0.790003535 -0.73409925 1.325892725 -0.07195653500000002 -0.55800307 1.2351752 -1.4146755 -0.23975595 -0.552144765 -1.3530753999999998 -1.6550788 0.7244138499999999 -0.57997058 0.7441746 -0.49245869 0.453758015 -0.6171075149999999 0.10399436999999997 1.311523325 -0.196986575 1.040536485 1.0712414 -0.26063315 0.74725469 -0.28674324500000004 0.266641585 0.04238407000000001 1.12467138 -0.21469709999999997 1.55633705 0.435876012 -0.15182429500000003 0.998273615 0.193052285 -1.4801332999999999 -1.58058165 4.40579775 -1.0306846649999999 -1.92348395 -0.38012421499999993 -0.299671635 1.17020748 -1.79210635 0.854486965 0.18590995500000002 -1.5807535700000002 -0.316959565 -0.2351284955 0.25770806 -0.2414380538 -0.46412874499999995 1.2877717 0.238939905 0.65532725 -0.23386033 1.32476975 -0.55001347 -0.85496125 -0.4995168
EDN2 1.55464145 -0.020815130000000015 -0.6240488 -0.8640003 -0.1615655475 0.49903908500000005 -0.78250672 0.178281255 0.18441566999999998 -0.749057725 -0.41010949999999996 0.002954619999999991 1.02249714 -0.870817 -0.306918095 -0.6867553 -0.63605091 1.0733864499999999 0.42354349999999996 -0.363131925 0.12639755000000003 0.823525515 -0.1535053585 -1.35796082 -0.42043024500000004 0.35528537 0.749740815 -0.82074483 -1.40478877 -0.40556430000000004 -0.7169454199999999 -0.11668020300000001 -0.0964718 -0.03682007000000004 0.48921727000000004 0.46409541000000004 -0.1716998575 0.0859993575 0.29430754000000003 -0.18679531 1.3822119899999998 -1.67730895 -0.293802739 -0.955807115 0.73317012 0.324449775 -0.81080885 -1.5687128000000001 -0.74352854 -0.171635565 0.26263325600000004 -0.549699675 1.05219055 -0.5009803749999999 0.23756407400000001 -0.81964175 0.26687644 0.349917785 -0.68147474 1.5428454500000002 -0.87745109 -1.06535166 0.17334222 0.542692325 -1.3405368 -0.0040677849999999904 0.793855265 -0.6464428 -1.2722223000000001 -1.0542787 1.02393405 1.34462105 1.26947225 1.12506664 0.46022120735 0.10016239999999998 -0.68912375 0.4361064250000001 -0.104962 -0.7990087100000001 0.26110694999999995 0.05507674000000001 -1.17479375 -0.1955001 -0.8604186 -1.3990363000000001 -0.8637829400000001 0.31214844 -0.182983 0.114901885 1.1654398 0.1814703825 0.55035355 1.37720967 -0.73276248 0.16867257500000002 1.9967498000000001 -0.21575843 1.577838525 -0.7848069500000001
SLC2A1 0.8334319800000001 0.7975153500000001 -0.42698468999999994 0.15764344500000002 -0.23862767799999998 0.69788475 -0.53925254 0.66651155 0.8374246949999999 -0.31917869 -0.13954429 0.8442837 0.46330229500000003 -1.165528465 0.44379634 -0.261396262 -0.62597642 0.12337198499999999 0.277152335 0.619629045 1.07625295 -0.500381485 -0.64443728 -1.28316775 -1.192562235 0.176807505 0.66086135 0.20078870000000001 0.26814512999999995 -0.279543235 -0.09261123999999998 0.29795845 -0.231271445 -0.434116065 0.705829795 -0.041792945 0.958868625 0.5956213699999999 -0.005859879999999998 -1.00727095 -1.0625677 -0.13516946999999999 0.49672755 -0.960830225 -0.7899750350000001 -0.4158305885 0.602134355 -0.29398831000000003 0.7194878250000001 -1.1531696999999999 -0.831395475 -0.0047960549999999935 -0.32658411500000006 -0.2572105225 0.712139955 1.0230264 -0.360167792 0.410801095 -0.77989585 0.08967409999999998 0.0895079325 -0.69452105 0.519662965 -0.180647525 -0.11527548499999998 -0.73307293875 0.4570242 0.5074346700000001 -0.5339925999999999 0.20958629999999995 -0.443169435 0.15759568000000002 0.106204935 0.3026042075 0.133977705 0.222930715 -0.722240655 0.35096513 -0.17910233500000003 -0.54542157 0.06342638999999997 -0.05331841000000001 0.7572879100000001 0.8057167 0.12027125000000005 -0.55463828 -0.675867725 -0.20453464999999993 -0.54046067 -0.9073583199999999 0.5613859325 -0.19121697999999998 0.50553969 -0.283249225 0.10224748 -0.365318385 0.5003021 -0.45917356 0.8220601500000001 -1.1533138200000002
FAM183A -0.65337885 -0.9392794 -0.7128031499999999 -0.132422135 -2.13695355 -0.09919225000000001 -1.5866093500000003 1.48571455 0.469342975 0.06855421499999999 1.07000357 -0.5285850200000001 -0.8704650349999999 -0.67853735 1.2858243 -0.23025173499999999 -2.2785538499999998 -0.03594130000000001 -1.8177229000000001 -0.38259146 -0.052199700000000016 -1.49041545 -0.699012365 -0.620253335 -0.6572850000000001 -0.96589145 -2.32030265 1.8636989 -0.517616705 -2.55179625 -1.16479612 0.7932507799999999 1.44069735 -1.10479553 0.08356137500000001 -1.33656765 -0.13928910725 2.5416689 1.98307895 -0.489675545 -1.210911695 -1.546613445 1.32521215 -1.23056404 -0.39368666500000005 1.069226325 2.2607804500000004 -0.86367075 1.8173029 0.7688034578999999 -0.702909885 -0.80479474 -0.734743385 0.49156877 -0.23809945000000005 0.151367525 -1.3605442 0.031317870000000025 0.09368951 1.97369395 1.1225102900000001 -2.1701035 -0.7802007000000001 -0.22277193000000003 -0.9796527000000002 -0.130806895 0.4888461 -1.17126855 0.16449835000000002 -0.19381914999999994 0.22510814999999995 1.7607070500000002 2.4839326 -0.28491977 -1.3684344050000001 0.51103765 -0.705185675 2.8928932 0.22715744999999998 -0.51182942 -0.45124930999999996 1.88830935 -0.2787055165 -1.64147579 -1.6188923000000002 -1.5470319650000002 -0.155933685 -1.2649873999999999 0.32795232 -1.57588768 1.3604093000000002 0.6016041649999999 -1.388740203 -0.30485213 -0.410180855 -1.14588585 2.2897251 -0.8570447515 0.14856349999999996 -2.3245525000000002
CFAP57 -0.17199128000000002 -0.5917567450000001 0.06035286000000001 0.30029431500000003 0.01945215 0.618114425 -0.8872844 1.59737065 0.8327129799999999 -0.8045588 0.2777424215 0.61365886 -0.28104131999999993 1.2940624500000002 1.48420947 0.005696470000000009 -1.7061737350000001 0.0189990575 -0.70084895 1.328456285 0.7888776150000001 -1.3385522 -3.09917155 -0.30596927 -0.536154875 0.72507905 -1.0816328 1.5260257750000001 0.30136058 -0.502305005 -0.889375315 0.584161165 0.689968225 -1.68603675 1.2905794 -1.8897791 1.1064991499999999 2.6620198999999998 0.82260715 -0.92847447 -1.1123886 -0.76896298 1.4815227 -1.5910387 0.13410223500000001 0.083018285 1.18214385 0.92134355 -0.276058855 0.354729795 -1.6254243499999999 -0.258772425 -0.823996175 1.7688084 -0.69542609 -0.15044512 -0.79388722 0.7504970830000001 0.4872386249999999 1.22199735 1.33567615 -0.51439239 -0.2555917 -0.12418875500000004 -0.950101105 -1.15421055 -0.60524555 -0.9865921999999999 -0.18868026 -0.371838495 1.01268735 1.7929254 1.7797733999999998 0.250809975 -0.69874945 -0.65105385 -1.199018935 2.4935959 -0.11842734499999999 -0.546553085 0.33673825 1.0243816749999999 -1.350675035 -1.33022255 -0.06276779 0.6551786980000001 -0.78584991 0.13614769999999998 -0.037499275 -0.47204486 -0.48235160999999993 1.4864742 -1.9065473800000001 -1.19405665 -0.289974505 -0.7706728 1.85638705 -0.92870803 -0.638135485 -0.28169235
TIE1 0.700951725 2.3552304250000002 -3.81793965 -3.1347467 -3.0383861000000003 -2.0915069500000003 -2.2990981 -1.24567134 -1.5143526500000002 -2.78113685 0.42659603999999995 1.8033891 1.205089025 1.1013070999999999 -1.26045232 -3.16732945 -2.7571549500000003 -0.46240386000000006 0.90451665 -0.9796230499999999 -1.95162838 -0.044187949999999976 0.072418545 -0.11147938999999998 0.02514549000000002 1.93021645 -2.77807805 -1.7046112999999998 -0.5993116905 -1.71717823 -0.897708365 2.1965415999999998 1.3325380500000001 1.77384035 -0.75682445 -0.58984575 -1.073143455 1.8074423999999998 -1.5245051005 -0.501655205 -2.38857645 -2.1327759 -1.5243091500000001 -2.57026265 0.5374290500000001 -1.8018356999999998 2.5687244 -0.44862559999999996 -1.27754707 -1.2238693999999999 0.13998938499999997 1.64227365 -1.12599171 0.759050193 1.81357405 -0.86002587 2.54159825 -0.245428368 -3.3908856 -1.4685863 -0.9067346250000001 0.4261599 0.08740305999999998 -2.55920085 1.8084839499999998 2.32520945 -3.7956239000000003 -3.9992723999999997 2.03526975 -0.2179568500000001 1.8664621000000001 1.72835985 0.70840445 -1.16155206 1.0688209 -0.95827175 0.910594835 -1.909013885 -2.9099225 -1.1262615999999999 -2.3132477 1.139096025 0.06539145499999999 -0.688163465 0.50975738 -1.8584382000000002 0.643161058 1.55816995 1.7886473 -2.0565520999999998 -1.8710035 0.659938605 2.33255725 -0.946457847 -0.8980703000000001 2.4469623 -1.6102235 -0.05304649499999997 0.28946268500000005 -0.97383045
CDC20 0.5136462425 -0.012162100000000009 -2.0421998 -0.8244943499999999 -1.8264984499999999 0.11488112 -1.3107755 -0.16515130000000006 0.51582675 -0.73824468 0.36580009999999996 0.37973715500000005 -0.72163935 -0.229480212 0.41869504999999996 -1.1861825 -1.6437384 0.7969506499999999 -0.682574435 -1.19762467 -0.5817355399999999 -0.538557925 0.8165411100000001 0.33152375500000003 -0.460765824 1.52163965 -1.42602885 -0.38407113 -1.92084565 -0.61825715 -1.0751178000000001 1.4321841499999999 -0.24684247000000004 -1.11618565 0.41836001 -2.06367205 -1.0423186000000002 2.3918132500000002 0.3767275 -1.0373494 -2.2505543500000003 0.015996824999999992 0.016796530000000004 -2.180293 -0.6593805885 -0.1483478075 0.52458279 -0.08035844999999997 1.431308365 -0.3561265 -0.8702877 0.41602531 0.030363799999999996 0.25100570749999995 -0.08109664999999999 0.5557517000000001 -0.8732016499999999 -0.8976450499999999 -0.158852385 0.97440505 -0.198399935 -2.38430845 -0.32102642499999995 -1.5183857500000002 -0.28566634 0.28252195 -1.22140525 -0.94710228 -0.111126435 -0.30793360000000003 1.14762815 -0.5782522299999999 0.77468545 -0.6648255249999999 0.2624466 0.2545132499999999 0.06813420000000003 -0.6190835400000001 -0.6904504469999999 -1.01285128 -1.6260341999999999 2.11156895 -1.8264706 -0.5815762 -1.529758 -1.296423235 -0.6129961349999999 -0.14166294999999995 -0.39489657499999997 -0.35357877 0.86825343 1.2893721 -0.17277834999999997 -0.6908497250000001 0.05053294999999999 -0.02635445000000003 -0.99956728 -1.45500675 -1.1886260800000001 -0.74783713
KIF2C 0.5735766 0.11128846999999997 -2.2132396 0.7219880599999999 -0.84879768 -0.68517107 0.060383695000000015 1.1258623 -0.45805766 -0.778386035 1.2939886999999999 0.21756189000000004 0.6510210330499999 0.1924531 0.22370237999999998 -0.34529239000000006 0.18895875 -0.30487608 0.235196315 -0.21407653 0.753256135 -1.40326015 1.60740165 1.235205665 -1.5763189 0.8525480799999999 -0.296329 -1.7616499 -1.143912595 -0.846218175 -0.5619776499999999 2.14527595 0.3393786999999999 0.541241355 -0.6560248449999999 -1.035951325 -0.700210815 0.528337865 -0.426223065 1.352616885 -0.85126657 -1.3513364 -0.42644472 -0.052339780499999995 0.272904465 1.002248685 -0.77514812 0.381158365 -0.11946751 -0.20366222 0.92931643 -0.5267690435 -0.30213539 -0.47207799349999996 -0.46299255500000003 0.7694654500000001 -1.2630527 1.352122475 0.445736315 0.7847561750000001 1.59016695 -1.475178 -1.68601895 -1.08283225 -0.91627781 -0.7631579245 -0.8010292999999999 -1.60359275 0.58149651 0.327349495 0.9653437235 1.41186905 1.115659225 -0.53375207 -0.5846592500000001 1.1786268249999998 -0.561654865 1.216364165 -1.25073038 -0.395864135 -0.963559075 -0.3992482500000001 0.37194594 -0.74964269 -0.7620704 -1.6274461 -0.666299485 -1.148387265 0.617135785 0.47835472 0.33846692 0.060258355000000006 0.09647390499999997 -2.1197371499999997 -1.4022334650000001 0.089749095 0.20799128000000003 0.13851775500000002 -0.173696559 -0.6136004150000001
PLK3 0.32906499 0.38619355 -0.39762634249999995 0.40588623 -0.9895062000000001 0.966476053 -0.267604345 0.35744001000000003 0.21887463 -0.06681496 0.52383897 0.392916425 -0.26134858962499996 -1.4969631 0.04094582499999999 0.11776969000000004 -0.219401065 -0.7267428499999999 1.00885114 0.386862735 0.685393155 -0.917772592 -0.08297728499999998 -0.8388433900000001 -0.404086225 0.8026719250000001 -0.74972485 -0.33667621000000003 -0.07916283500000001 -0.31784995 -0.0819947975 -0.459286765 0.14399291499999997 -0.173896385 0.9331395849999999 -0.6559511499999999 0.416857965 0.15521904999999997 -0.6229815350000001 -0.63893396 -0.7778575649999999 -0.1847802 0.24163908699999997 -0.59774212 -0.27649721 -0.12901068999999998 -0.069832541 0.41722605 0.18132811999999998 -0.07165659499999999 -0.517024865 0.27265833 -0.59331542 0.12332903 1.47972845 0.9983989 -0.11853266000000001 -0.37059763 -0.69513732 -0.43468944 -0.08105852499999999 -1.46691787 0.48109311 -1.3267037 -0.71464205 -1.2864133500000001 0.051080935 -0.3765950765 -0.06149618499999998 -0.35752436 -0.45224431 0.93630725 0.6055058 -0.47817136 0.38105458000000003 0.63715062 -1.2671168499999999 0.44256525 0.19151823599999998 -0.7646139750000001 0.30544467999999997 -0.4266363975 0.36393754 -0.8786239 -0.23502146 -0.18123589500000004 0.30189451 -0.06629221500000002 -0.317072275 -0.671642445 -0.134257845 -0.849643115 1.03310195 -0.23218793999999998 -1.29176605 0.232965575 0.799187975 -0.19471849600000002 0.7990133349999999 -0.27581963
TCTEX1D4 -0.318397725 -0.8811287099999999 -1.0251815199999998 -1.02878755 -0.27866729999999995 -0.14555826 0.05249138499999999 0.89526255 1.1701332500000001 -0.595238625 1.34149048 0.041314909999999996 -0.694657915 1.25178235 0.80471856 0.12779231 -0.76600966 -0.5063850999999999 -0.44005669000000003 0.7835652150000001 0.258369585 -0.8639839 -1.411662535 -2.0673107 -0.9823024300000001 -0.7527559349999999 -0.512827225 0.16445772999999997 0.07349728250000001 -1.27412925 -0.05557052500000004 0.9239118000000001 0.379991395 -1.204478825 0.24163369 -1.47911665 1.2254635 2.164377 0.051711400000000005 -0.8174401 -1.270189965 0.5972643049999999 0.77923425 -0.8895312499999999 -0.703892695 -0.47761005 1.47713045 0.014112761500000001 1.39031655 0.112814264 -0.011535627 0.1713328815 -1.0441042999999999 -1.1149101 -0.285752655 0.415921735 -0.36941576 0.544813585 0.17319312499999998 0.633467965 0.7071824 -2.3486723 -0.85890413 0.8113242700000001 -0.93743848 -0.39242344 1.18468317 -0.11969228500000001 0.37831345 -0.455064695 1.6495814 -0.24266695 0.6815616499999999 -0.963185615 -0.46990561999999997 -0.012418380000000007 0.08017269999999999 0.9291485899999999 0.9387637000000001 -0.024217729999999993 -1.11420345 1.6453932500000001 -0.498120385 0.728221985 -1.9518900000000001 -0.83021875 0.5275434999999999 -0.00021556500000002865 -0.31606323500000005 -0.868958765 0.036283455 1.6617581000000001 -1.49440708 0.0086368 -0.762880675 -0.766358675 1.03633675 -1.5405720999999999 -0.8057124499999999 0.07663014000000001
TSPAN1 -0.44867919999999994 0.59396402 1.180191875 -1.51838771 0.07945413500000001 -0.02402475500000001 -1.32065705 2.26806025 1.2388137000000001 -0.5867384 -0.16115472999999997 0.8546848499999999 -1.11828225 0.29392038 -0.4159199499999999 -1.057337025 -2.19273265 0.27902032 -0.98296745 0.81020375 1.2598733 -1.41518875 0.08231161000000001 0.50178526 -0.04453055 -0.110930308 -0.49107017000000003 -0.08889161999999998 0.8122233 -1.91130595 -0.91680615 -0.8408497 0.52698126 -2.2997678500000003 1.57642485 -0.949841475 0.994565725 2.99444085 0.44733777500000005 -0.40116552 0.46975235 -1.0797700300000002 -0.47157536 -0.6273433235 0.21598984 -1.93388095 1.4285100499999999 1.20231655 1.9414581499999999 0.21313651499999997 0.310171466 0.4830144 -1.3167060575 1.8816133499999999 0.69024828 -0.008356679999999991 -0.207389585 1.9054913500000001 -1.68257585 0.335712955 1.6631387750000002 -2.22252985 -0.24144844000000001 1.41212847 -2.2903321 0.17581812000000002 -0.406408735 0.319039325 -0.65277285 -1.140285185 -1.176363225 1.89049355 -1.5327233 0.19954839999999996 -0.16761629 -0.40098693 0.428949115 1.074496 -0.14599362500000002 -1.65041845 -0.43805966 -0.030142880000000004 0.68776788 -1.8663735 -2.03807635 0.495382895 -1.00020595 0.9096077150000001 -0.34593026000000004 -1.4278160850000001 0.986331865 -0.9497925 -1.36364285 0.97801573 -0.29477629699999996 -0.6255116199999999 0.9147871999999999 0.5433521649999999 -1.3595295 -1.262642927
RAD54L 0.623930535 -0.869579125 0.44081603 0.362702005 -1.0662089 -0.7463872500000001 -0.17078055499999997 0.8816217000000001 -0.095273705 -0.63240658 0.40463935 0.8337791999999999 -0.55955615 0.804284885 0.22732915 -0.8577471074999999 0.6445134 0.377743923 -0.64545626 -0.816505275 0.5700251 -1.229471515 -0.15407987 -0.15084301 -0.024448619999999976 -0.22101686999999998 -0.45666766 -0.552124925 0.16523379800000002 0.6415941900000001 -0.6018251 0.194983715 -0.86443615 -0.612563695 0.3486950999999999 -0.10060945500000001 0.32471528 -0.148520325 0.74450579 -0.615160825 1.01311071 -0.58570722 0.5949039300000001 -0.19260895 -0.5414954999999999 0.5353626899999999 0.610604915 -0.82779598 0.9656333 0.6594120800000001 0.12165295000000001 -1.156883 0.225227915 -0.83016253 0.04206620999999999 0.46500041000000003 0.7105771700000001 0.6913644800000001 -0.38578894 1.4714266500000002 -0.75440454 -0.5128102735000001 -0.60126701 0.3430809 0.502956155 -0.352309285 0.531056745 -0.58061266 0.13214931 0.03863597000000002 0.9401899 0.5504865725 0.637128225 0.8171967499999999 0.74769402 0.7589230250000001 0.358428805 0.8056819150000001 0.579370441 -0.08730731999999997 -1.09776765 -0.23372318 -0.92010165 -0.060398415 -0.55697997 0.30501441615 -0.34249 -0.31091649299999996 0.163831663 -0.18768586 0.15335189 -0.72261087 -0.159978968 -0.16403541500000002 -0.7644767450000001 -0.49035663 0.48903431999999997 -0.13481371 0.05531335300000001 -0.23025078
UQCRH 0.63280865 0.9619823 -0.7215662225 -0.0253786285 -0.29224067 0.851178515 -0.185598832 -0.106794635 -0.22971546999999998 -0.24216762499999997 -0.24895909 0.5491456 0.30252959 -1.0864932999999999 0.12051389999999998 -0.03210354 -0.332640069 -0.53230815 0.351535 -0.15932857500000003 0.776659765 -0.6838062199999999 -0.55244955 -0.71465494 -0.42797899699999997 0.7928309 -0.6475376850000001 -0.41794811499999995 -0.35502044 0.030511184999999996 0.06577496999999999 -0.38444097 -0.21200240999999997 -0.589831205 0.117400845 0.223323135 0.45488583000000005 0.17384055 -0.72074555 -0.165041035 -0.9085901000000001 0.009475810000000001 -0.290777933 -0.3150560265 -0.310499937 -0.70782755 0.27353811499999997 -0.6178705 0.21282636500000002 -0.7743447999999999 -0.129790425 -0.338419742 -0.31389158 0.670802685 0.6541130500000001 1.0075653 -0.19390715500000003 -0.16774803500000002 -0.81610595 -0.13454948700000002 -0.3700496155 -0.485496085 0.91182908 -0.252740315 -0.5767412000000001 -1.1932705000000001 0.35127513 0.590709 -0.19529969 0.34036112 0.18336228999999998 0.96374225 0.34097120200000003 0.28361167 0.174339935 0.6242689749999999 -0.8299012 -0.46731991 0.013056449999999997 -0.175740165 0.110209855 0.61805827 0.14454596 0.18194396499999999 0.282015035 -0.5154980849999999 -0.035197996349999996 0.294173831 0.111989065 -1.11998175 1.0810195 -0.50029188 1.13722182 -0.4373316 -0.67851745 -0.172497446865 0.14819526500000002 -0.52642513 0.4346321 0.235015705
CYP4B1 0.19480677000000002 0.605257455 -0.69623295 0.328511825 -0.22310998499999998 0.381657845 -0.149238285 0.336811125 0.41936386 -0.078138545 -0.021470085 0.610165065 -0.084271225 -0.67693102 -0.45652829500000003 -0.66881697 -0.328137555 -0.939449915 0.6352860650000001 0.10501656000000001 0.81523085 -0.44937273000000005 -0.22747025299999998 -0.025254730000000003 -0.548343755 0.05184873000000001 -0.510263565 0.08487343 -0.14722145050000002 0.09440195000000007 0.021693760000000006 -0.30371122 0.21503282 -0.9562716 0.780108825 -1.00938445 1.0252029249999999 0.3432687 0.10362740000000004 -0.08743282 -0.8199381 -0.114234915 -0.641801328 -0.6302833999999999 0.01178405385 -0.9387146749999999 -0.022172114999999992 -0.408809975 0.40223058 -0.25755565 -0.73403895 -0.46318771000000003 -0.25859593 1.1891053 0.4862911175 1.10976075 0.32253851499999997 0.29095342 -0.79015985 0.28716131650000004 0.03203213 -1.25432456 0.5206715 -0.8712507749999999 -0.47571102 -1.18598665 -0.25950157500000004 -0.11997595 -0.127312625 0.49888082499999997 0.102098905 0.865136575 -0.15527047500000002 0.6052667 0.23919434 0.30189154999999995 -0.939572975 0.039276100000000036 0.013833470000000014 -0.96478425 -0.07116566999999996 0.82488788 0.412912485 -0.10906840000000001 -0.38738927 0.582571173 0.118352458 0.753210175 -0.37851229000000003 -1.0427863 0.30985097 -0.13891041499999998 0.82914658 -0.05894289999999999 -0.68960454 -0.55032054 0.54603848 -0.33266834 0.853113645 0.183422485
PDZK1IP1 1.6109231 0.643824635 0.31889429999999996 -0.0154639325 0.56710724 0.47006297499999994 0.07200818719999999 0.56347636 -0.14051105000000003 -0.13060643500000002 0.419478843 0.6668779650000001 0.309497495 -0.71710911 -0.014685502 -0.13712000000000008 -0.49341259000000004 -0.015847184999999986 0.594026815 -0.701524775 -0.352029325 -0.27210625499999996 -0.45918611470000004 -0.589642325 0.4265581295 1.5089028999999998 0.692280875 -0.4031601 -0.34535941 0.75550945 -0.6577142 -0.2684246 -0.880787 -0.31977765 -0.29629301500000005 0.342719265 0.652942285 0.92224734 -0.019051495 -0.39174535 -0.189154558 0.063353315 -0.385134627 -0.318469791 -0.236998485 -0.3547607 -0.22967188000000002 -0.91646538 0.50432242 0.32998984 -0.568288805 -0.18529153499999998 0.45971691 0.65854549 0.7235807599999999 0.230499355 0.19528362 0.6562321 -1.4983761599999998 0.6664927199999999 -0.532854715 -1.181283 0.21403746 -1.2763662 -0.9594874600000001 0.455358115 -0.13546127 -0.49319902499999996 0.8919916299999999 0.48969813000000006 0.7762457700000001 1.221338375 0.43961814 0.970172175 -0.266575923 -0.1362027 -0.33195895 -0.68645659 -0.267187265 -0.38214755000000006 0.07019175000000011 0.89462305 0.0820096815 -0.6646657349999999 0.327407725 -0.613168115 0.13269969999999998 1.1902019 0.006331675000000009 0.16078165700000002 0.451571825 -0.71447185 0.53066271 -0.52720274 -0.41755030000000004 -0.50446087 0.7771884099999999 0.34360803 0.571380765 -0.626819335
STIL -0.24809472 -0.03942456 -0.707340005 -0.167285045 -0.979525435 -0.49683497 -0.45078817849999997 1.3922422700000001 0.408105375 -0.15742642499999998 -1.4126007 0.0013683999999999918 0.44476413000000004 0.21762228499999997 0.7140392799999999 -0.64864406 -0.21602765000000002 -0.137824668 -1.0460181 -0.57873401 -0.155103505 -1.4149232500000002 -1.3619257 0.14652084999999998 0.43857243 0.96400353 -0.018932749999999998 1.0612279 -1.5717758499999999 -0.292075545 -0.805116865 0.49740724999999997 0.41588695 -0.67088205 0.261701105 -0.754105038 -0.408910256 1.27463707 0.571751665 -0.27473394999999995 0.513085471 0.25480582999999996 1.073257065 -1.065699085 -1.10889071 -0.73696569 0.7725695 -1.1017073750000002 0.5723946799999999 0.072402315 0.203363035 -1.7883148 -0.49387023 0.3059529325 -0.67960489 -0.9559011 -0.236613138 0.431807722 0.54521285 0.45372352000000005 -0.4207820199999999 -0.84104285 -0.5243101 -0.11837315000000004 -0.4501772475 -0.43194796 0.47363007500000004 -1.482227575 1.08171872 -0.882512 0.669038825 1.9477573000000001 1.1819256999999999 -0.4069345 0.7426479899999999 1.1411938849999999 -0.5057921999999999 0.7991743 0.7414784 0.5630661 -0.8005186499999999 1.81390405 -1.8756009 -0.42090602499999996 -0.29941201500000003 -0.70584395 -0.7376155 -0.8460909849999999 -0.84439932 -0.35803065 1.23937595 0.28625172 -1.388973 -0.6998099799999999 0.029931595000000005 -0.90658765 0.92412735 -1.03318885 -0.3483043 -0.50950977
FOXE3 0.3013850305 1.913188013 -2.5633314499999997 -4.48868765 3.0339627800000004 -0.3045133 -6.178429700000001 3.60920135 1.5114022 1.6306062 -3.2214248000000003 -4.4164828499999995 -1.1619511500000002 -1.7137223000000001 -0.65056634 -2.01171532 1.8379005 -2.00068525 -1.593039875 -1.29813383 -3.6222502 -4.8620795999999995 -2.93796425 1.0118123 0.8111326999999999 -2.16355305 -1.5956724500000001 -0.15819799999999995 -0.10859769999999991 -5.3775525 -1.2006369000000001 -1.018331349 -2.6032471 -0.917263265 0.8834243 -6.457615199999999 3.29593325 2.9300461 4.4767825000000006 -1.07907515 -3.94733895 -1.6083814000000003 5.95998035 -0.33197393000000003 -5.45860865 0.27834035 2.6229245199999998 -1.4846949 0.2871944965 -0.8664069679999999 -0.05625439999999993 1.9086720000000001 -2.3892623 -1.98267125 2.60724985 0.156791923 2.8260544000000003 -1.12741425 -0.12794391 -1.1232063250000002 1.721292 -1.5358349500000001 3.8930955999999997 -2.64274465 1.462691747 -3.88905775 2.6602546499999997 -2.4810863000000003 1.38949718 -3.8613475999999998 -0.34024257950000003 0.34832838 2.358209945 -3.7545054 -3.9975950000000005 0.7220161999999999 -5.96786455 -1.4557053 0.6638807499999999 -1.11063475 -1.00100287 3.9346714 -5.204055 -3.30706225 2.04434388 -4.3261006 -5.3180797 -2.8604423999999997 -0.1787469 -0.24206417500000002 0.882193385 0.3578934 -2.70608535 -2.7483776 3.1401209999999997 -2.3806052425 1.1421766 1.8512678 2.18714005 8.28857835
CDKN2C 0.8597656499999999 0.398806 -0.904308475 0.2600747485 -0.8673708 0.04034391500000001 0.026434984999999994 0.69753415 0.552232699 -1.108672175 0.26458430499999996 -0.22410638500000002 1.04576915 -0.550017685 -1.5557568499999999 0.276649665 -0.156453924 0.609816615 0.526958665 -0.7617363699999999 0.331200455 -0.92947565 1.8553195 0.8365826599999999 -0.358426715 -0.5395942899999999 0.381556906 -0.8058002499999999 -0.5903406 -0.1565490715 -0.43273377749999997 0.9151798 0.525966835 -0.74320915 -0.2287156 -0.691257665 -0.5361017 0.5314041 0.42573251 0.11617897999999999 -0.03252507499999999 0.2589419 0.35558074 1.21709925 0.325098375 -0.108205615 0.27453595000000003 0.28844238499999997 0.18234561000000002 -0.13959550999999998 -0.30757373 -0.14928389749999998 0.0543675285 -0.04011995999999998 -0.3517611385 0.9344420099999999 -0.016772994 0.14276015499999997 0.30818884 0.659488347 0.296134045 -0.693615885 -0.15156598525 -0.490700915 0.11892668 0.03355044999999998 -1.1461122000000001 -1.5974650499999998 0.21945122000000003 -0.50918366 -0.02194625 0.61509344 0.6479296649999999 0.24908287 -0.268459781 0.49461135999999994 -1.282855 0.5832935100000001 0.08232542999999998 -1.0024742 0.35900969 0.7776194750000001 -0.0431264985 0.019945121500000003 -0.53739827 -1.255334065 -0.05390734500000001 -0.23033507000000003 0.437075785 -0.313482725 -0.138858475 -0.6823312500000001 -0.062188220000000016 -0.05167756999999999 -0.186855583 -0.25074419 0.72056102 -0.48868592999999994 -0.318805605 -1.1767482999999999
RAB3B 0.429451775 -0.26575788499999997 0.51588561 -1.145765625 0.0960061435 -0.17561506999999998 -0.390090675 1.4442663 1.5484414499999999 0.21804953 -0.628493565 0.47279757 1.41807205 -0.796108335 0.2979681 -1.0754489999999999 -0.798236283 -0.002396520000000013 0.38663824 -0.900452915 0.70829003 -2.9506250499999997 -2.50255035 -1.6001618 -0.82365181 1.1992142000000001 -2.3702045 1.8507772500000002 -0.125472045 -0.766589536 -1.309330915 -0.9737326 1.8747499 -1.12606734 1.71548305 -0.07247575815 0.41723861 1.0577089 -0.09133450499999998 -1.93788265 0.7951498180000001 0.10127741000000001 2.1342537 -2.0594632500000003 -0.914425755 -1.467882 1.4689157 1.08361585 4.0810963 -0.30232474 -1.6449497 0.8418363400000001 -0.32013382 0.5537990850000001 -0.59558004 -1.409778875 -1.3772545 0.980566305 0.57339322 -0.379714935 0.87946941 -0.8781932849999999 0.5219217549999999 -0.9584974850000001 -1.054830005 0.45719727 -0.379906435 0.365714875 -0.44791896499999995 -2.3172783 -0.47596186500000004 2.9467498 2.38655455 0.2874829649999999 -0.5194574115 0.7327858700000001 0.9013988905 -0.7829301000000001 1.9343241 0.68371363 -1.06364342 1.339600685 1.8047515 -0.7236895 -0.20892515 0.173121425 1.36773375 -0.9567300750000001 2.06994685 -1.0603189 1.07464985 1.822207025 -3.1815225 -2.6025214 -1.69070835 -0.664420425 0.583685655 -1.1864074815 -1.80145615 -0.857554785
SHISAL2A -0.5718127 0.6844593299999999 -4.1476945 1.1444464 0.09065994999999993 1.7828736500000002 1.5768984849999998 2.34448015 0.202826285 -1.73497195 1.53652955 -2.8134999499999997 0.189754455 -4.55643225 0.601619715 -1.0316371 2.34830755 -4.07736255 -1.2285827649999999 -1.1127821999999998 -1.6413712999999999 -2.18930425 0.56233608 2.8614017 1.2975373000000001 -0.756317 0.8162313499999999 2.58098995 -1.40279157 -1.435177695 -0.6549608585 0.7911701499999999 2.1339807 -0.514423817 1.0499277599999999 -1.58796225 0.7669966 5.64891625 -0.6064739 1.0526018 -2.14288355 1.2432568315 -0.5383302160000001 1.24018645 -4.2295131999999995 -2.2720723 -0.87499422 -0.43663315 0.11037392499999998 2.6591369 0.5575766550000001 -1.257989065 -6.438897600000001 0.8353710249999999 1.8761553 0.137731522 -3.93077055 2.061773 0.179692625 -1.83069615 -2.5533699 -2.4698388500000004 0.20796533 -3.31429595 -1.14837912363 2.2509302 -0.73374902 -3.6341577 2.45660325 0.7340594500000001 -0.80299813 1.991651915 1.3203917 -2.2904431499999998 -1.50581618 2.5455772000000003 -0.24229784 2.16567995 -2.61481675 1.259168965 2.4284805 -1.648501615 -2.1849087999999997 -2.1428212 -1.75968485 -3.805706 1.27934865 -3.72376135 0.784725415 0.02322499999999994 2.18567075 -3.45642915 -0.1920364 -1.9695169 -2.12408271 -3.27776195 6.400691350000001 2.65815245 2.0774011 1.51343825
DIO1 -0.002793340000000033 -0.708386305 -0.42160580000000003 -0.7531012749999999 -0.24762518500000003 0.077367222 -1.7155447000000001 0.320146975 0.88107735 -0.369256665 0.607161885 -0.81883641 0.1008224765 -0.9770889250000001 -0.796949545875 0.6886616400000001 -1.71829405 -1.17690663 -0.003125204999999992 1.2147306 0.102678767 -1.61964337 -0.36803183 -0.3320538335 -1.23716822 0.40783092 -1.22828365 -1.3322672500000001 -0.44553350999999997 -0.96737312 0.35034427 -0.6075472049999999 0.60514169 -0.81569555 -0.262323215 0.037327293500000004 -0.54745433 0.32261801 0.0835205 -0.1091132625 -0.12444929199999999 -0.498318875 -0.331711085 0.03950624500000001 -0.75636711 0.016969835000000003 0.08792377999999999 -1.79058025 0.941915425 -0.059876856000000006 0.29324242 -0.24697162499999997 0.953715825 0.500445125 -1.08602179 -0.0009363800000000144 -0.68319217 0.537213492 -0.712680995 2.33282875 -0.365423775 -0.52542517 0.52262395585 1.092252025 -0.045475404999999997 1.02662922 -0.0376610955 -1.5375429999999999 0.89851995 -0.421392785 0.53750793 0.90636606 1.01771045 0.264137005 -0.415185705 -0.596634125 0.07405862 0.82576131 -0.49869336 -1.06895132 -0.39537911000000003 -0.319975525 0.783963945 -0.05218848500000001 0.30791922 0.347951625 -0.62813957415 -0.25874089 0.51528315 0.227552455 -0.20439073 -0.295194625 0.893419465 0.495538235 -2.19399465 -0.8162625299999999 0.819176585 0.552911269 0.6589626399999999 -0.72306888
LDLRAD1 0.539260995 0.32915241650000004 -0.029615159999999998 -0.36753945 0.043364265000000006 0.388983525 -0.5320206 1.41813005 0.232299475 0.30393755 0.05166591000000001 0.717370235 0.49470192999999996 -0.33432757 0.560365075 -0.50683768 -1.26387305 -0.795572175 -0.06380962999999995 0.39885938499999996 -0.07187775500000002 -0.16741921999999998 -0.277658655 -0.55137978 -0.51893183 0.7406394 0.168885985 -0.27635196300000003 0.376544875 -0.7363937999999999 0.23520383 0.46842907999999994 -0.38230384349999996 -1.55902445 0.11564443599999999 -0.58644367 0.80559947 0.88660133 -0.2389059285 -0.9744751 -0.514250065 -0.37277938499999996 0.12540825 -0.34849883 0.04719900499999999 -0.17037704999999997 0.21231632000000003 -1.1467821 0.12877304999999997 0.37640561749999996 -0.28292476 0.7434759 -0.14953135000000006 1.02106255 0.1818261235 0.236242975 0.08048349999999999 0.6331007500000001 -0.5175148374999999 0.06844782 1.421977515 -1.601609625 -0.191887015 -0.74118226 -0.767454261 -1.43656175 1.04427225 -0.535815207 0.50722891 -0.7702827999999999 -0.10806015000000002 1.16160965 -0.812142885 -0.230815665 -0.37351024 0.6062985249999999 -0.9278865000000001 0.04114689999999993 0.63988545 -0.47461397499999997 -0.724709075 1.0288909 0.650638835 -0.543067275 -0.46371997000000004 0.41151198499999997 0.03061246 0.50366697 0.23717648499999994 -0.7502810150000001 0.663519025 -0.288236145 0.20459181999999998 0.04736018000000003 -0.43122135000000006 -0.53464725 0.7125029199999999 -0.30480626499999997 -0.093958875 -1.2499965
DHCR24 0.6961435250000001 0.9985131249999999 -0.869145404 0.258549385 -0.32808326 0.682517875 -0.647078245 0.85930642 -0.2348116 0.474581115 0.4511735 1.2181928850000001 0.34294807499999996 -1.00580047 -0.08786059999999998 0.270979225 -0.47226613 -0.77284523 0.801247475 -0.13515053 0.5041878550000001 -0.6819586750000001 -0.7055623200000001 -0.46047498 -0.6964220649999999 0.49747074 0.11297653500000002 -0.5071080457 -0.270145106 0.004978349999999965 -0.011763808 -0.205454715 -0.277678645 -0.36990753 0.14425613250000002 -0.04309237000000002 0.15675842 0.5335994 -0.15849273000000003 -0.188361035 -0.408015785 -0.19149466499999998 -0.36936026 -0.483901295 -0.51543709 -0.3509000500000001 -0.1145408 -0.51950462 0.25965474499999996 0.07196075000000002 0.2310104245 0.10132298499999999 -0.491146515 0.65864755 0.626363365 0.7868326999999999 -0.372757577 0.33570800705 -0.41577351 -0.06000399199999999 -0.223965035 -1.19117165 0.849269595 -0.7908018649999999 -0.555741705 -0.8489869800000001 0.274654835 0.07600717999999998 0.549616985 0.29705494 0.176202235 1.21270765 -0.21922947999999998 0.39268563999999995 0.45511478 0.07876890000000003 -0.0002786775000000012 -0.5595040099999999 0.19626656 -0.6201248725 -0.09458597499999999 0.9872927300000001 0.181217937 0.18348824999999996 -0.15420349 0.31293793999999997 0.24823886 0.301885455 0.52302135 -0.91106625 0.54344658 -0.18369642 1.1370244 -0.098745285 -0.806245765 -0.5808273500000001 0.35053944425 -0.15182039 0.52630476 -0.10361019000000002
TACSTD2 0.838320015 0.8164604 -0.10086667499999999 -0.7456177500000001 0.6651232499999999 -0.14865090000000003 -0.22497351999999998 0.408690237 -0.44250043 -0.22813451 0.21374409 0.1736220485 0.62327018 -1.27113407 0.049238313 -0.11396792 0.15610278500000002 -0.47271693 -0.1395962500000001 -0.255439415 0.14022613 -1.0315691500000002 -0.45971133999999997 -0.83702481 0.0017961200000000122 0.67114347 0.24830721499999997 -0.19117685 -0.274905685 -0.31326570000000004 -0.92465575 -0.29207717499999997 -0.07812455499999998 0.059294648000000005 0.452841 -0.23830421499999999 0.638062765 0.15761302 -0.36271384149999997 -0.32419858 -1.064659885 0.210318675 0.07333674999999995 -0.567406935 -0.90399025 0.15985672999999995 0.93820683 -0.4417921815 0.94476103 0.20605257999999999 -0.703660748 -0.6762281 0.10818992200000001 0.10089788499999999 1.10873715 -0.03772784000000001 0.7718039800000001 0.652655455 -1.4573988 0.037137886999999994 -0.044132905000000014 -0.229397 -0.12054684999999998 0.0126413955 -0.19701860999999998 -0.45999808 0.48913258 -0.276423625 -0.6356386900000001 0.32671626 0.024284479999999997 0.9623129749999999 0.6547296 0.959604305 -0.263926273 -0.38292160500000005 -0.69318948 -0.24586774499999997 -0.336314125 -0.59684945 0.060830949999999995 0.40245369 -0.96489622 -0.13759625000000003 0.29691111 -0.67169373 -0.464818566 0.6093820000000001 -0.32804925 -1.11721745 0.636838535 -0.39598535 0.413921525 -0.39879700500000004 -1.07162885 0.25584662 0.817041935 0.49997238 1.0776911999999998 0.084793745
C1ORF87 1.135695715 -0.28465227000000004 -0.05348674999999997 -0.533713135 -1.2132538599999998 1.3617926 -0.07027765800000002 0.55189197 0.253926815 -1.89133635 -0.023957775000000014 0.9057535 -0.44429691 0.211209325 0.80466685 -0.807612265 -1.4493331999999999 -0.44234175 -0.09145526500000001 -0.12397713999999999 1.5116752 0.32453465 -0.6228099899999999 -0.04772660200000001 -0.640567605 0.7044852749999999 0.25196565 2.04209485 -0.14594356500000003 1.178606795 -0.31145155 1.1539897000000001 0.10101996299999999 -0.9603540850000001 1.7619562000000002 -0.9455018749999999 1.26996965 1.5677334 0.84373091 -0.537931685 0.12570176 -0.1258446 -0.31526208299999997 -0.62673579 0.7072364 -0.7393132699999999 1.01730237 -1.35926035 0.80027245 0.095937996 -2.25324335 -1.26241403 -0.28597474500000003 0.459663925 -0.49289706499999997 0.020725119999999986 0.6838447999999999 -0.06415405299999999 -0.134745475 0.945111765 1.1676137 0.03348359000000001 0.65971121 -0.83146426 0.0026114250000000006 -0.9377781300000001 0.23632145999999998 0.407556523 0.444638357 0.2628641 0.8403561399999999 -0.023861275000000015 0.18757735000000003 0.869038 0.7425287 -0.8699206100000001 -1.2424544800000001 1.8130103499999999 -0.50931685 -0.6754822300000001 0.21503644999999993 -0.77574009 0.147275105 -0.64058812 0.81095065 -0.6694503700000001 -0.061348149999999935 0.747756275 -0.37362766999999997 1.08988375 0.698906385 -0.43996603 0.5483141349999999 -1.6165914 0.44755264250000004 -0.33168946050000003 0.34825184000000003 0.5375351180000001 -0.08474015000000001 0.399415765
NFIA 0.50979938 -0.17315389999999997 -0.16651599 -0.36917999 -0.6470522375 1.19011272 -0.44779083340000003 -0.203197667 -0.28912573350000004 0.009757719999999998 0.26438444 0.476523145 0.2101302 -0.95269615 0.5578736 -0.10693407999999999 -0.518758965 -0.638700095 0.20211205000000002 -0.584522297 0.25113735000000004 -0.3982908399999999 -0.143758963 -0.725151485 -1.190475025 0.325184685 -0.63461623 -0.4822851975 -0.19825843999999998 0.026845019999999997 0.7785929500000001 0.158749845 -0.5083966 -1.4666983 0.6235974975 0.12940389000000002 0.3995840825 0.14777619999999997 -1.1294501499999998 -0.3592818775 -0.600861495 -0.06785886 -0.453237325 -0.3763972 -0.09658155000000002 -0.9699269 0.302657645 -0.75001487 -0.3349965 -0.25089286 -0.75740734 -0.41012042249999997 -0.904441365 1.1906415 0.40808908499999996 0.5929212 -0.6061507749999999 0.362975705 -1.0351435 -0.20399316499999998 0.04515069499999999 -1.12687705 0.474070325 -1.21537765 -0.54054695 -1.004083875 0.579314025 -0.054987599999999914 -0.10390107000000004 -0.27141176 -0.08787014999999998 0.6989063924 -0.537702806 0.13980978500000002 -0.20236714349999999 0.69520789 -0.7119103849999999 -0.26768318 0.29399045 -0.3761884625 -0.151244795 0.45456657500000003 0.4000597 -0.29904130000000007 0.08842117999999999 0.10305451750000001 0.25100239999999996 -0.227242285 0.71188527 -0.62907589 1.07156315 -0.8595999799999999 1.08531373 -0.07772511000000001 -0.249366765 0.42350293 -0.006615490000000002 -0.5720175750000001 0.52659923 -0.11639703499999998
L1TD1 0.4953206055 -0.18074328499999998 -0.70042558 0.45915494 -0.797143375 -0.8812339499999999 -0.995489735 0.249698465 0.045513230000000016 0.14843887499999997 -0.1417962 0.245780835 -0.1825873025 0.1981258085 1.083741625 -0.19968423 0.21766785500000002 -0.5052644749999999 0.157474355 -0.260510764 -0.151701858 -0.23990929500000002 0.093214305 0.341674465 -0.67653098 0.05669215925 -0.131355 -0.68649147 -0.46276146 -0.57657146 -0.11405462500000002 0.011656175000000019 -0.63184257 -1.0149523299999998 0.021664249999999996 0.64782705 -0.24609284999999997 0.7416934150000001 -0.09903867350000001 -0.19527183 0.14234024 -1.78638715 0.084392422 0.24802939999999998 -0.7468356 0.004283715000000007 -0.36859955 -0.0027966600000000064 -0.242655495 0.21443426 0.302561642 -0.601615275 0.8305295699999999 -0.54891342 0.9918889500000001 0.42402246499999996 -1.436701 0.55681976 -0.8557439 0.91534805 -0.54241925 -0.99198255 -0.367676355 -0.10269189 0.49470426500000003 0.64493385 0.557228785 -0.64311025 0.33906468 -0.03926544999999998 1.142163635 0.373773125 0.3805818075 0.556108475 0.03307538 0.326792065 0.18022984675 0.8473814150000001 0.349826205 -0.6385734949999999 -0.03450686999999997 0.652447915 1.2755722999999999 0.059258025000000006 0.38715871999999996 -0.7948112300000001 0.08795383749999999 -0.969204375 0.143665355 -0.77872125 -1.19409085 0.712213011 1.45675555 0.13049895 -0.6933225000000001 -0.7830229000000001 -0.39518961599999997 0.267016767 0.5994998650000001 -0.01219031000000001
AK4 0.037360354 0.53740931 -0.3802276565 0.057919425 -1.0298935500000002 0.11219182500000001 0.661230835 0.430886255 0.3811935 0.12470882500000002 -0.380129755 1.090647885 -0.158196685 -0.307247105 -0.361614925 -1.29589925 -1.55466885 -0.44961388999999996 0.490040465 0.02604249 0.487773405 -0.62414767 -0.43490861000000003 -0.65263723 -0.9512607799999999 -0.01820814999999998 -0.6407956100000001 -0.4918821 0.3822681615 -0.385173575 -0.29210639 -0.1326726135 0.39852352 -0.2612641 0.2390678725 0.64836379 0.27525357 -0.056700635 -0.0010146249999999912 0.288039845 -1.278931 0.27631688000000004 -0.5331922 -0.335872095 -0.717074095 -0.8697758 -0.11828435999999998 -0.20620421500000002 1.1050228500000001 -0.25906358500000004 0.522133255 -0.94243265 -1.140206035 -0.0019654199999999955 0.4795451 0.28037128499999997 -0.7910513 0.0488460046 -0.617147865 -0.322140121 -0.0029345849999999896 -1.405600585 0.40357065999999997 -0.49325617000000005 -0.4655566750000001 0.302866655 0.143058095 -0.49821703500000003 -0.053589785 0.616099595 0.370668515 1.19467865 -0.009949839999999995 0.35370139 -0.7604989 0.3728940700000001 -0.37179753 0.48441692999999997 -0.3511174575 0.244238665 -0.6913298299999999 0.5319386 0.09821787500000001 -0.09213472 -0.20432411 -0.31957221 0.18460254 0.120922435 0.210844915 -0.98725882 0.9387801499999999 -0.94536045 0.270015117 -0.06835450900000001 -0.8181650500000001 0.035512024999999996 0.1314328 0.26966798000000003 0.7023442049999999 -0.563876155
TCTEX1D1 -0.19980401150000002 1.71662437 -1.2542655 -0.78015365 -2.5351672 0.361172665 0.4573823705 2.9770395499999998 -1.07268322 -1.1737289100000001 -0.6092461650000001 0.17149640000000005 -1.26172885 -1.86382625 0.2631240325 1.5226917 -2.51512725 -1.8160222 0.5857006 -1.3984309000000001 -0.10941289999999992 -0.30987788 -1.22187535 -2.0483608 -0.78028107 -0.33341784999999996 2.1723724 2.09340585 -1.73642795 2.76439202 -2.8617308 1.1564808500000001 1.97417745 -1.5637655499999998 1.36268885 1.6840496999999999 -1.1680656999999999 3.09532285 -0.47952865 -1.18039375 -0.05539633500000002 -0.0007896025000000001 3.24183265 0.6933489500000001 -0.11006719999999998 0.22380627 0.051162454999999996 -3.6303301 3.2297491000000003 -0.570849105 0.8533201800000001 -1.17837867 -1.9691612 -0.7559432150000001 1.3697751200000001 -0.4183433 0.26880807500000004 0.65809507 0.434464325 1.3635054 -1.87466035 -2.4102431 -1.5061677199999999 0.13908414999999996 -1.8260794000000002 -1.87700533 1.0808972 0.41093035 1.88619105 3.0741020499999996 -1.36539728 1.947617775 -0.30959726 -1.123837925 1.6220111 -0.17264614999999983 -2.49157095 1.011209535 -0.12803915999999999 -0.38608760000000003 1.5791297949999998 -0.83492495 -0.15746211000000002 0.0663524105 -0.9615506 -1.8307403 1.1840503 0.68392675 0.5142977205 -2.70566695 0.670098275 -0.26542257999999996 0.7283945199999999 -2.02894225 -2.8226953999999997 0.243582525 0.30523255000000005 0.1813274325 1.071251565 -1.1889371999999998
