2500 100
SAMD11 -0.6740324 1.3339243 -2.336598 -0.7779299 -1.3214458 0.969092 0.2970179 0.4388461 -0.27085862 1.3875932 -0.18260948 0.437433 0.14114718 0.8273897 0.5697103 -1.596456 0.69733137 1.27567 0.912019 1.4754579 0.5275382 -1.05114 1.7692761 0.5765422 -0.31566295 0.3223289 -0.7904118 1.3457932 -1.0704547 -0.9881333 0.20304298 -0.81744266 -0.86437595 -0.73068637 -0.7240079 0.14533782 -0.092438444 0.050427854 -1.2440392 0.32139596 -0.4412593 0.7399555 -0.082280196 -0.9411531 -0.5197037 -0.785439 0.56180406 -0.34256318 0.7560963 -0.74274975 1.0705196 -1.0723994 2.0410275 -0.28832728 0.60827965 0.40716562 0.5025995 0.32050914 0.11272781 0.42453247 0.7520066 -1.7036887 -1.0052115 -0.59062815 -0.4552686 -0.93456745 -1.0148275 1.1371322 -0.5681949 -0.12661679 0.17035586 -0.90677816 0.6913821 -1.3604099 0.9921499 -0.10257657 -1.7892761 -0.68350327 -0.43260565 0.179877 -1.3102568 0.16050011 -0.7552383 0.43593025 1.2006598 0.32600147 -0.3845433 0.9301623 -0.56264293 0.14293869 -0.09099827 2.0615206 -0.5309083 0.07193937 1.0611838 -0.8635237 -1.1936884 -1.6188223 0.6356315 0.25481644
HES4 -0.41733077 0.22418919 -0.44796094 0.08385433 0.26702467 -0.06217142 2.1996572 -0.54743624 -0.33870932 -1.1604013 -0.04688361 1.8316034 -0.431727 0.21222216 0.65859807 0.75495243 0.027566273 0.38008004 1.3240337 2.3864408 0.10909483 -0.9485164 1.5005113 0.3245839 -0.3183641 -0.005825733 -0.95353717 -0.2130524 -1.0282704 1.1747522 1.9299167 0.36889127 -0.042400114 -0.35824338 0.48566154 -0.102757506 -0.90929765 0.89460665 0.67884666 -0.30515847 -1.1816163 0.071871445 -0.47759143 0.5962354 -0.6744974 -0.42907688 -0.16622633 -0.8770804 -1.4024374 -0.16400549 0.43848762 -0.3960045 1.8700254 -0.48953187 -0.18929403 0.24176195 -0.45007628 -0.30973485 0.15610014 -0.12876496 0.25968212 -0.6594415 -1.2675564 -0.26385906 0.5750852 -0.15215096 -0.06549684 -0.12223119 1.4917016 0.19475096 0.18702069 -0.4407068 -0.18234706 0.06643912 -0.696275 0.20419322 0.26633376 -0.1160186 -1.1899587 0.08882522 -1.8594785 1.0477506 -0.36288047 -0.83354944 0.79041946 0.75041527 -0.64771116 1.1670629 -0.609198 0.8211326 0.810265 0.444441 0.03322164 1.794197 0.44635594 0.7085673 0.20052083 -0.28109416 -0.33274707 1.1637704
ISG15 0.42579368 -0.6964832 1.0139104 0.9079732 0.36744773 0.3257185 0.33616003 -0.20017955 -0.78112763 -1.010158 -0.46581623 0.43550077 1.1511378 -0.6939963 0.18878546 0.26361853 0.43299565 0.07470302 -0.46393025 0.6203781 1.3050356 0.26003933 1.119905 1.2646278 0.7470611 1.43638 0.3830375 -0.80269444 1.2081076 0.43092456 0.52176666 0.7389909 0.9262272 -0.034212694 1.0123096 -0.49767244 0.47011387 0.0600772 -0.08951869 -0.8547266 -1.3118256 -1.1212015 0.82379276 1.1239353 0.022008179 0.20227046 -0.54583156 -0.27141836 -0.16149424 0.39498246 0.45443428 -0.3294673 0.15164407 -1.107143 -0.07139822 -0.57558566 -0.426928 0.16652948 -0.33888033 0.5273299 0.11470041 0.1256925 -0.87842566 -0.67773026 0.13349015 -1.0258145 0.577649 0.54669863 0.76590955 -1.2021742 0.3137163 -0.9896178 -0.33474422 -0.53888243 -0.05433077 0.12980206 -0.2873215 0.32156026 0.3114477 -0.34272888 -1.1958156 0.21044452 0.5864852 -0.3262455 -0.4512981 -0.036522023 -0.9617314 -0.21667287 0.5416741 -0.020390393 -0.07987279 -0.1195815 0.4896601 0.023838924 0.0955024 0.05807079 0.7798712 -0.4451369 0.282861 1.6205161
RNF223 -0.7090657 0.41131726 0.6343193 0.14814496 -0.5860888 0.38442242 0.7896801 -0.57858235 0.46451622 0.19488582 -0.53989285 0.069841474 -0.43477997 0.3604971 0.91087425 0.03467665 -0.3577559 0.36346573 0.7963121 0.8049136 -0.82099664 0.36077988 -0.4678607 0.056434676 -0.9738538 -0.4010141 0.9643335 0.5673914 -0.34234497 0.45494214 -0.5088693 0.026436675 0.48168036 0.024038345 0.27934816 0.47752875 -0.33159757 -0.98818815 0.3119679 0.06350483 -0.6433966 -0.3361934 -0.43614897 -0.55000156 -0.24502735 0.5172823 0.066583365 -0.00013923783 0.9576658 0.051571697 0.10211882 0.2982263 0.5470597 0.40425843 0.41104588 0.04374691 0.21731594 0.51951426 -0.35152343 0.069798075 0.81623745 -0.6358591 -0.11885695 -0.15030277 0.19504476 0.7915622 0.55971825 0.63960105 -0.9364845 0.15833142 0.3362447 0.2644476 0.11090244 -0.020008469 -0.2663425 0.55249375 0.59249437 -0.2658792 0.8377617 0.174253 -0.26809883 0.5160628 0.1572483 0.16988876 -0.20332856 -0.23964614 -0.4248272 0.344144 -0.26560098 0.3420597 -0.18924044 -1.0103828 0.63029164 0.63188887 0.32577413 0.18664849 -0.5733595 -1.0419134 -0.33583045 1.0583881
TNFRSF4 -1.2137281 0.63149804 1.3117893 0.41702533 1.2071978 -0.63134056 0.8628215 -2.8009484 -1.1677521 1.39206 -1.2069926 -0.37357798 0.9555134 -1.2570599 1.1616746 0.9798429 1.2264932 -0.019912932 -0.5912952 -0.15227263 -2.1668096 0.5146203 -1.9531921 0.60899794 -2.0456033 0.6180027 0.3934736 1.0322385 -1.8165841 -1.036433 0.09555155 -1.1026219 -0.9120385 1.1047184 -0.34939894 1.0973841 1.4178821 -1.3115287 -1.1537317 -1.198304 -0.27967495 -0.6589809 0.010521287 -0.2783698 2.2287173 -0.13707545 -1.8112984 -1.4627596 1.9029254 -0.14011492 1.1872479 1.1407695 -0.8246865 0.18631397 -0.3940097 0.57311183 2.0691988 -1.2190256 -1.1186718 -1.4894773 -0.17810161 -1.211218 -2.0553503 1.0302473 0.56098664 0.4465512 -0.12501891 0.7214901 -0.69383097 -1.0833666 -0.67612505 0.7573328 0.9560624 -2.384933 -0.27032796 1.8906785 -0.036169395 0.8437999 1.0986782 0.047534943 0.8794233 -1.0397779 2.0151227 0.9350062 -1.9958974 0.02501145 -0.7926235 0.77676374 0.042582914 1.5143576 0.5599704 -0.16781929 1.4664409 1.868172 -1.7749429 -0.365356 -0.8425531 1.3979309 -0.18620327 -0.120496534
MXRA8 0.77441853 -0.49070615 0.0503193 -0.2752057 -0.45945114 1.7168382 2.0601258 -1.2232459 -0.6298641 1.2303114 -0.083784305 0.25330898 0.3280032 1.4263521 1.6474435 0.3950819 0.5515568 -0.67612886 2.575791 -0.68079025 -1.0317085 0.014425065 0.3662907 0.8760494 -2.37114 0.32238623 0.5567144 0.58890605 -2.4252582 0.5575187 -0.7291037 -0.10818368 1.2715422 0.102179214 -0.63865656 0.20017987 -0.16822827 -0.033367198 0.14245452 0.6708017 0.23247789 0.30102083 -1.0662304 1.221035 -0.5219123 0.44148687 0.22828677 -1.6929924 0.46696237 0.08324914 1.6654183 1.3584768 -0.7224743 -0.96499926 1.037985 0.9555815 0.43727073 1.0034056 -1.943683 -0.19489984 0.5903886 -3.4314034 0.50478923 -1.1470774 0.67782396 1.5511826 1.8787235 0.6169518 -1.083169 0.9817154 0.88529253 -1.3249521 -0.7438515 1.0752527 1.0333426 0.5773542 -0.39973927 0.13592431 -0.84812653 -1.5614841 -0.88426507 -0.22146194 0.22698501 -0.16860473 -1.649378 3.5060499 0.058125317 1.7172952 0.9103645 2.452483 0.30452096 1.0988731 1.1294732 0.9115184 0.08981505 0.23366599 -0.50738937 -2.4319706 0.23352475 1.0837758
ANKRD65 0.611319 -0.28214437 -0.036510788 0.58412004 -0.025139976 -0.25995693 0.9389048 -0.34690863 -0.25383678 -1.038305 -0.38998443 0.25814962 -0.28534982 0.10172724 0.9739441 -1.163784 -0.21432592 0.51559514 0.4625176 -0.33940113 0.27130225 0.7562791 1.567522 0.4193362 -0.51443017 0.5555287 -0.6329875 0.21602365 -0.3008209 0.37120587 -0.63462263 0.27387488 0.48889834 0.10537766 0.19302455 0.8047094 0.40560707 0.7511304 0.03783138 0.90449697 -0.9859802 -1.1098688 -0.009870058 -0.23427366 -0.70377964 0.5714391 -0.2775517 0.3635784 0.10699968 0.7295475 0.7098243 -0.049167976 1.3267341 0.6488211 -0.64759463 0.31366223 0.72021115 -0.15656236 0.57021564 0.45371148 -0.3994488 -0.29662022 0.09132693 0.9085048 0.33010167 0.4017666 -0.45249778 1.2164774 0.9241494 -0.8665165 -1.4338133 -0.6406655 -0.9330655 0.16641156 0.7185236 -0.5190115 -0.30966076 0.32863605 -1.2420594 -0.5277246 -1.1157596 -0.34794623 1.428517 -0.34135902 -0.22540975 1.2310323 -0.3553339 -0.1722391 -0.28388467 1.1005629 -0.73875785 0.5866796 1.5005711 0.5174484 -0.45190588 0.49899492 1.347927 -0.74158865 -0.57454145 0.8546406
VWA1 -0.23146671 -0.50864124 -0.22114846 -0.09489917 0.30889115 0.18009365 1.3501444 -0.62768865 0.06151007 -0.6904341 -0.27216366 0.42048642 -0.21403228 0.85917753 1.1879098 0.19892582 0.22791812 0.18129921 0.69014025 0.3885117 -0.2772734 0.06110707 0.41389042 0.9667778 -0.4206127 0.24069078 -0.19054835 0.19402836 -0.6046125 0.6892515 -0.18396197 0.15473297 0.24470189 -0.46251482 -0.24095617 0.4724577 -0.21324185 0.352255 -0.42051527 -0.49979618 -0.7576172 -0.3009098 -0.6958001 0.9219552 -0.5034715 -0.14119107 -0.40440816 -0.8740462 -0.53151625 -0.24660638 0.5586633 -1.0009732 1.2665114 0.4862273 -0.5921566 -0.51893747 0.89482236 1.0176327 0.41327548 0.36305836 -0.8207459 -0.1399674 -0.5202642 0.3264421 0.32817045 0.13319187 -0.47171146 0.15741435 0.6549325 -0.666768 0.05767002 -0.1399234 -0.5650768 0.47113526 0.31425476 -0.103317484 -0.09722727 0.3112617 -0.47878915 -0.2899239 -1.3362013 -0.5627664 1.2280504 -0.123617806 1.2293447 0.36217806 0.27889776 0.7657561 -0.33682838 1.2636538 0.0872017 0.73954993 1.0648882 0.61333436 0.7341488 0.32532677 -0.14920992 -0.78398 0.084789075 0.88837177
MMP23B -0.024594454 -0.19552618 -0.3720891 -0.7903539 0.4809746 0.20446585 1.7604684 -1.4665945 0.6424045 0.25066054 -0.04725382 1.1764692 -0.43693537 1.3972675 0.22490987 1.4564285 1.084995 -0.26833344 1.62653 0.075403795 0.42281857 -0.6236614 0.14308244 2.0471342 -2.12158 0.38241217 -0.38729233 0.43345162 -1.2245762 -0.9728919 -0.22238976 -0.45081407 1.3828222 -1.3384074 -1.0752163 0.15483136 0.004611652 0.09345191 0.57142437 0.15728499 -2.100163 -0.49085188 0.015001064 0.978683 -0.5393483 1.5793097 0.18666649 -0.03714295 -0.29052237 -0.3656965 0.51326185 0.66767013 1.3798846 -0.7771604 0.7832715 0.67853856 0.10586601 0.06418046 -1.1821126 -1.1395731 0.14592427 0.5925556 -0.13439621 -0.32713932 0.45638493 -0.9698939 0.8616084 -0.030776612 0.40559328 -0.56895 0.56015986 0.62591934 -0.6900246 0.7601569 1.082753 -0.41702542 -0.26959616 0.11621023 -1.9049854 -0.27187133 -0.30307004 0.94046724 0.41359106 -1.8165466 -0.26016647 1.3807487 0.3955368 1.3948089 -0.8962153 1.9134029 -0.060355283 0.3642932 -0.18318526 0.43379208 0.9128881 0.852652 0.077106245 -0.015965054 -0.38392234 0.66940004
HES5 -1.0560015 -2.5685523 -0.4232025 0.68464595 0.0050372467 1.980108 -3.044897 -0.5123997 0.7391233 -2.501337 -2.1964557 1.270862 0.06897985 2.7604558 -0.10884396 2.1059928 -0.4085612 1.7010195 0.3352442 0.36787882 -2.4894702 0.91753614 -0.8666432 0.8039005 -1.6710336 -2.354872 1.6430435 -0.39866284 -1.0136235 -0.09751009 0.330836 -1.6862135 -0.41465247 -1.8503122 -1.3634986 1.8931441 -1.1340322 0.28441373 -0.21863693 0.30025417 -0.77930665 -0.8489777 0.6742987 0.33069316 -1.0524164 -1.6586648 -0.011514853 -0.07023647 1.3148537 1.8127608 0.07265367 -0.8869338 0.44240177 -0.9840495 1.7639068 0.9897982 0.9065565 0.74933136 -0.30098227 0.19402358 -0.21870545 -0.029440368 -0.018872347 0.14871775 -0.8508515 -0.9473545 -0.7542063 1.0168428 0.12982544 -0.8628395 -2.454827 1.0726038 -1.5164522 0.85750085 -1.9324561 0.31619102 -0.8691198 -2.6788738 2.71603 0.52206516 0.6273433 0.92709005 -0.9429397 1.2440594 -2.2397704 -1.0212044 -0.70793194 0.045356255 1.9234048 -1.1583947 -0.33675194 0.23731934 0.42001253 3.277869 -0.758055 -0.80784506 -0.5247522 -0.26925853 -0.1830154 2.02943
AJAP1 1.0391748 -0.4366712 -0.75121075 -0.5918258 0.9348487 0.36798316 1.3381668 -0.22568698 0.5361467 -0.9069994 -1.8254135 0.660728 -1.9962641 1.699404 1.1521938 -1.1834862 -0.32762316 0.08834204 1.3987985 0.09652613 -0.677832 -0.17598365 -2.2519958 0.063872136 0.5717015 1.6151612 -1.7569853 0.6885775 -1.1446047 0.5417725 0.88832945 -0.33970395 -0.36306876 0.1507343 -0.28057876 -0.06395349 -0.53090125 0.71479285 1.1749904 1.2060957 -0.00049134344 -1.591738 -1.0074091 -0.42287987 1.0024697 0.86516273 0.49315068 -0.1866331 -0.08262987 -0.6446796 0.96340555 -0.060099214 0.709325 -1.3445518 0.10890667 1.3193955 0.7790369 -1.2687404 0.8998053 -0.19049516 0.12844826 0.28168204 0.7369967 -0.96880764 0.9310692 -0.17764583 -0.84846246 0.5983625 0.14559339 -0.2685039 0.08020406 -0.71800625 -1.1244775 -0.33404985 -0.2301173 0.6410624 0.84484947 1.7480351 -0.015343479 0.070520975 -1.039165 0.8397325 0.897727 1.6077886 -0.5304319 1.0740862 -0.9024254 0.014074145 -1.9532362 0.1690163 0.21524464 0.87194204 1.211515 0.054132294 0.9578377 1.4325513 -1.4928602 -0.45168817 1.0110452 1.378591
GPR153 -0.19635293 0.31657916 -0.5960923 -0.55912066 -0.29526305 -0.94751793 0.907558 -1.1848214 -0.9059696 1.0420966 0.03418381 -1.0494817 -0.2595533 0.5193363 0.7206658 -2.3014507 0.31012493 -0.35061297 0.62671167 0.54697305 -1.4825782 0.0041684113 0.12387514 1.1869198 -0.019632023 0.5744798 -0.23945063 1.3762358 -1.7385601 0.30735868 0.32457453 0.6251499 0.003186389 -1.1042486 -0.32205606 0.5401901 -0.71151465 0.9824855 0.6596001 -0.4164354 0.008502887 -1.108409 -0.94865775 -0.61909485 -0.5982319 0.49591365 -0.46703982 -0.119543634 -0.46718135 0.07568172 1.470259 0.7775791 1.2452 -0.8393324 0.101795845 0.96523106 0.7724238 0.51440156 -1.7991629 -0.2578858 -0.47952488 0.2782959 1.0413545 0.067978166 -0.26880056 0.20709 -0.1567398 0.9096262 -0.42554453 0.6318948 -0.29447478 0.443403 -0.93642235 -1.1971847 0.56007504 1.1070654 0.20405506 -0.50993174 0.14301437 -0.32640526 -1.4532887 0.240048 -1.0766737 0.44309634 -1.2001519 2.4532537 -1.0439997 1.3482089 -0.40879616 0.068004146 0.7090659 0.13148625 -0.47485477 0.8836455 0.7236754 0.09384621 -0.656378 0.31357262 0.62472296 -0.10327813
ESPN -0.13618039 -0.018846594 -0.44503966 -0.13419335 -0.648357 -0.09397862 0.8117506 -1.2004622 -0.19367321 0.4673363 0.5482891 -0.006903934 0.2924491 1.3796443 1.1151081 -0.5756129 0.6631132 0.42975253 0.7310096 0.7344481 -1.4118688 0.2830902 1.5417547 0.5225378 -1.2037427 -0.02124457 -0.19750391 -0.10823039 -1.7414976 0.4252545 0.27121955 1.281106 -0.16641334 -0.4660047 -0.101861246 1.7780244 -0.122499466 0.6737162 0.44812176 -0.8457722 -0.33149233 0.30095577 0.5320262 -0.18051702 -0.46402153 0.42192134 -0.46067765 0.31251076 -0.03862942 -0.07099873 0.43243837 -0.75007874 2.5689735 -0.74820846 -0.6587746 0.86990213 1.7843372 0.52373385 -0.47452262 -0.26405504 -0.030363439 -0.7106004 -0.0804185 -0.5980623 0.49684188 0.44008365 -0.37301427 0.9150826 0.1343388 -0.023143224 0.26755723 0.25074017 -0.6438231 -0.20843406 -0.16442983 -0.7179593 -0.70100737 -0.81041193 -1.4985306 -1.4160675 -0.99305063 -0.29741946 -0.30131724 0.198022 -0.1281376 1.5123744 0.18467896 0.12075581 -0.03313898 0.88955265 -0.14348783 0.17273945 0.5124829 0.9293504 0.07005818 -0.54174227 0.020976847 -0.6923307 0.15534618 0.86867946
UTS2 0.2556964 -0.8614774 0.92242724 -0.9238365 -2.441952 -0.30759653 1.0977101 0.7026814 0.60096234 -0.34175706 -1.7586966 -0.3951668 -0.44840765 -0.1262193 0.8571918 1.081474 0.64571697 0.10257445 -0.18698837 -0.0070960466 -0.71113765 0.23995222 -0.91920465 0.39192286 -0.28960094 1.0159651 -0.34515777 0.14661041 -0.37163103 0.6026766 1.1294363 -1.0475602 -0.3937805 -0.9006504 1.0142474 -0.018064838 0.08719799 -0.9252842 1.4014422 -1.804661 0.96994025 -1.8641086 -1.2562766 -0.35556823 0.7001813 0.58326733 -0.75251824 0.83378625 -0.055321172 0.4468215 -1.2799077 1.0022142 -1.3549706 1.164193 1.3942798 1.6656353 1.231767 0.38046405 -0.08700969 1.0125468 0.116675586 -0.4776949 0.37833294 -1.4400018 -0.22899929 -0.031992756 -0.109668314 1.0277439 0.3368651 0.059103947 0.8727439 0.28566048 0.9092099 -1.0160779 0.08905435 0.3500578 -0.32264435 -0.28846347 0.45761967 2.2717927 -0.79613143 -0.16449608 -0.07929848 -0.2563638 0.5860734 -0.31277528 1.7508032 -0.24938163 -0.5097886 -1.1360658 -0.8056941 1.8527317 -1.39675 1.0230138 -0.4755832 -1.4678993 1.6068405 -1.808423 -1.3094627 0.47373876
ERRFI1 -0.6677192 -0.30249992 -0.005719766 0.5056729 -0.6793434 -0.3962754 2.0292134 -0.39282387 0.034364633 0.37334535 -0.41712695 0.680077 0.7851331 0.0064510405 0.45669228 0.06199233 1.212683 0.5318806 -0.40047783 0.29472575 1.0124468 0.28307176 1.9891955 0.65273356 0.88345194 1.0457773 -0.07067034 0.33196425 -0.07911389 0.8786236 -0.08340911 0.009075283 0.15029423 -1.0316114 -0.30530977 1.1088762 0.2816028 -0.46101642 -0.3583813 -0.019199917 -2.585061 -0.90059036 0.45356905 0.5572523 -0.27106702 -0.09025502 -0.86040264 -1.9129018 -0.14915724 1.0268571 0.8369939 0.51746976 0.7378909 0.96957254 -0.13523005 0.35626715 0.3688511 1.2508295 0.057935428 -0.16132794 -0.49480113 0.34388137 -0.19178867 1.2712029 -0.29552537 -0.10874378 0.41808075 0.7924263 0.38953918 -0.22955011 -0.7177958 0.7625628 -1.851769 -0.33119088 1.1422641 -0.21263993 -1.3928329 0.6628566 0.18284193 -1.0308197 -0.9415154 1.3728275 0.60308015 -0.7589018 0.85905457 0.8058131 0.36427984 0.29825786 -0.031862978 0.92197585 -0.38960004 1.2618822 1.6508621 0.28818077 0.25126904 1.6706036 0.022988219 -1.3628583 0.40866524 -0.031984948
RBP7 1.2584729 0.30226776 0.7513483 0.42082226 0.2314374 0.05820418 0.45979083 1.4331477 -0.8125861 1.8297858 0.049429175 -0.0064723524 0.6118909 -1.0855494 -0.036284044 0.64967227 -0.40218663 -1.3368487 0.80624443 -1.0126762 -1.8048815 -0.66581523 -0.6677418 1.0527139 1.0234027 0.90148693 -0.37379023 0.61444086 -0.26203632 1.444675 1.7460849 -1.0090891 -1.1735168 0.14885142 0.3122125 1.6859286 -0.14267917 0.041544992 -0.06376558 -1.9739459 -1.69276 -0.089236856 0.100898884 -0.010895604 0.7517834 1.6652986 0.134767 0.29714513 -0.97080886 0.5797018 -0.27669692 0.48789638 -0.0005687362 0.1950687 1.1412628 0.4363922 1.0068828 -0.64768386 0.7524295 -0.9374443 -1.1834451 -1.9261209 -2.746491 -0.086172506 0.22308591 -1.0801679 0.33030358 1.4807937 1.2799938 1.5221566 0.040577073 0.9776063 0.078489184 0.3883394 -0.39190114 -0.5169076 -0.0856638 0.12642883 0.24311341 1.1359912 -0.3759683 -0.5148794 0.83611315 1.0943813 -1.2025406 -0.99751294 0.9772541 0.16986465 0.037409667 -0.35523245 0.59156066 -0.19714595 -0.09476453 1.1758711 -0.4933182 -1.1713033 0.7795968 -0.856518 0.40093458 0.8527774
ANGPTL7 -1.9562894 0.09213435 0.08108952 1.9822563 -0.43853462 0.21659736 2.2590032 -1.1295637 -0.24575049 1.338733 -1.3548061 -1.538239 -2.1941671 -0.5574277 -1.4840235 -0.15171094 -0.2862893 0.9023734 1.4181733 0.06943032 0.98630196 -1.048203 -1.0706662 1.9104986 -0.077489115 -0.23647465 1.614431 1.011381 0.58606577 0.1606425 2.2066321 -1.8855435 -0.8270221 0.9732565 0.4559133 -0.49713317 -0.8276799 -1.4108104 -0.86318564 0.035152398 0.65979064 0.14162251 -0.36332494 2.0605657 -1.1027987 -0.28566587 0.27417812 2.7259552 0.41720006 -0.9067441 -0.27167195 0.8628797 1.1220021 -0.528792 1.7015593 2.496434 1.7596005 -0.5624452 2.1905606 0.09580722 -0.9668437 -2.5026796 0.35573703 1.2069914 -0.28172493 -1.7311968 0.17210355 -1.8148054 -1.1375762 -0.8046587 -0.18727024 -1.4758433 0.202449 -2.4085968 -2.0249143 -0.86009 -0.7634381 -0.3946972 2.2258854 -0.3823042 -1.0537713 -0.64372313 -1.3118597 -0.844765 -0.08984493 -0.80641097 2.218684 -2.0356445 0.0004986738 -0.0074141407 -1.9641005 -1.004876 -0.3766999 1.5937971 0.040171072 -0.017707689 2.2090466 -1.020014 0.88282895 0.92508113
FBXO2 -0.1766751 -0.78093845 -0.4106824 -0.26962426 -0.4979654 0.5179148 1.9356396 -1.0398328 -0.4682941 0.030849464 0.72700566 0.7892599 0.12758261 0.7234775 0.42520902 0.09406009 0.6625653 0.86552393 1.6457558 -0.60680366 0.5682743 0.26869026 0.5521949 0.29941306 -1.5248147 0.84518176 -0.49773577 1.0912879 -1.1494089 0.09546108 -0.28320435 0.7711584 1.134145 -0.77665913 0.62711966 0.46873257 -0.64239377 0.33336797 -0.2174171 -0.24639666 -0.24916354 0.20617715 -0.493165 0.3246184 -0.3676388 -0.5650724 -0.7560623 0.16843739 -0.26164132 0.4072716 1.3633395 0.24270326 1.3852587 -0.26007664 -0.23955533 -0.008158824 0.73578274 -0.14100593 -0.19081886 0.42840937 0.3982635 -0.419935 -1.0728908 0.30837753 -0.49715558 0.44513115 -0.46821854 1.428213 0.8767353 -0.43848282 -0.05435337 -0.49085334 -1.0447068 0.096819185 1.300679 -0.4262387 -0.87211084 0.34618014 -1.3372796 -0.7732316 -0.4395618 0.0041040373 -0.65091777 -0.013836105 -1.7180281 1.9444469 0.49468648 0.5974318 -0.22528572 1.0544019 -0.11677925 0.3014882 0.71465915 0.98244447 0.3289468 0.95583457 -0.7110151 -0.92371005 0.14792664 0.25076023
NPPB -0.9822828 -1.1800286 -1.3366013 -0.64550793 -0.21115337 2.8563397 -0.8585914 -0.896407 -0.033360794 0.6478887 -0.68450516 3.3187637 -0.18283531 1.3772078 -0.8346009 1.4343472 -0.15587397 1.9520394 0.48421988 1.4898498 -1.8170775 2.047677 -0.51821923 -0.67024887 -0.340425 -0.7402279 0.17213015 -0.34869555 0.9993155 -0.088893265 -0.7200932 -1.7134898 -2.0162842 0.6947695 -1.7040151 1.4945647 -0.53328854 0.44580534 -1.7976415 -1.4449608 -0.6217791 -1.0450671 1.1231434 0.3684058 -0.5377448 -0.37379235 0.41542462 2.7854013 0.4928422 1.8403746 0.15396176 -1.0144323 0.23567294 -0.7734905 1.9464364 1.2574357 0.6850161 -0.26564285 -0.088792264 1.3313764 0.13306074 1.6602162 -0.31467676 2.7761059 0.5046759 0.6781438 -0.627409 1.5196059 -1.1914233 -1.3949633 -0.24210183 1.2521602 -2.0517411 0.42097864 -2.619129 0.39212024 0.77666813 -4.37278 2.628812 0.53094524 -0.52049804 1.4456351 1.6275729 0.92200243 -2.4358099 -0.8160189 -0.1690693 0.7379997 0.32842824 -0.5120542 -0.9676933 0.75314474 1.1791507 1.5961977 1.4038917 0.23626928 0.7978997 -0.7901382 -0.09687738 -1.3666064
VPS13D 0.285314 -0.41643164 -0.51028705 0.38978007 -0.09269817 -1.0578123 0.3190606 0.28390285 0.0004930015 -0.8436982 -0.57688123 -0.12451081 0.8475897 0.20570056 1.1348547 0.20358473 0.108914375 0.11027413 0.30751416 0.124300726 -0.0063710124 -0.42254433 -0.010279935 1.073407 0.50343204 0.9508848 0.367989 0.043118134 -0.7648011 0.82959545 0.4329626 0.9613687 0.116260186 -0.046719447 -0.032042008 -0.81680036 -1.0542097 0.90016687 -0.16503514 0.086280696 -1.2124689 -0.08392696 -0.2298526 0.20019381 0.52089244 0.01629753 0.022127056 -0.7642518 0.17894909 -0.47108743 -0.06431408 -0.5514618 0.46512246 -0.8993122 -0.6124457 0.2162837 0.21784759 0.32358253 0.5042143 0.02306372 0.36813244 0.8155856 -0.17855325 0.026006887 -0.56308335 0.074065834 -0.62403554 -0.12160718 0.32048455 -1.1953632 0.69151855 -0.9205016 -0.9899791 -0.67158395 -0.5713545 0.42289048 0.63758135 0.4260802 0.69005 0.02797444 -1.6991217 0.46555373 0.7106626 0.6408764 0.88088673 0.18621804 -0.48762432 -0.02229168 0.0029752352 -0.3552219 0.19603424 0.40803832 -0.029690022 0.24157748 0.6011282 0.33566555 -0.016878521 -0.9215013 0.17340556 0.48790523
DHRS3 0.7499592 -1.3171158 -1.4059947 -0.3034113 0.08003031 -1.0217793 1.708262 -1.3836076 -1.1273664 0.14409345 -0.6563493 -1.1863285 0.2621807 0.62222564 0.79321617 1.0199113 0.64823544 0.45015776 0.16828807 -0.43257493 0.15095909 -0.2605234 -0.19864553 0.98198265 0.084922716 0.829935 0.7974735 0.097144276 0.29076448 -0.5049701 -0.6226 0.91938484 -0.15580638 -0.40710673 -0.7848564 0.5465556 0.18691137 1.0746095 -0.47831643 0.43199164 -1.9152697 0.10945177 -1.1373553 0.2212418 -0.6578064 0.19153297 -0.7106524 -1.4624339 -0.04401934 0.044095334 0.17705141 -0.69100696 0.78688437 -0.0010091652 -0.20901552 0.10474082 0.41064924 1.3778335 0.52978456 -0.9824322 -0.580497 0.67797 -0.17020555 0.49150953 -0.5825692 -0.81016666 0.07527116 0.13989148 -0.0970976 -0.4627815 0.66137844 0.4090065 -2.5012057 -0.19827192 1.2727652 0.31105444 -0.34538117 0.5811144 0.65806 0.33471155 -2.1217282 0.33353505 0.9095843 -0.7939882 1.1940657 0.12417139 0.42595315 0.46437344 -0.5019922 0.26531163 0.28197122 1.6386184 0.45273152 0.04748107 0.85105705 0.9210183 -0.5884159 -0.16640125 0.27588165 0.26855767
C1ORF158 2.4686604 0.6847728 0.6650274 0.894611 -0.755701 1.6974895 0.08847425 -0.35406685 0.3627288 0.18041845 -1.0972391 0.14845012 0.54369646 -0.23957427 -1.729164 -0.9533246 0.21997462 0.20384409 -0.6368612 0.36139917 -1.8001697 1.1359143 0.02717956 1.7403502 -1.2532792 1.3426454 2.0577068 0.51579505 -1.1143142 0.88550276 0.70740306 1.2185979 2.4689503 -0.5806544 -0.2167785 0.57553625 -1.4078592 -0.771232 1.0885507 -0.90000886 1.0925431 -0.8272368 -0.4925261 0.6266629 -1.0420747 0.6093951 1.4794664 -0.51169336 -0.15696734 0.05991728 0.70999473 2.3622103 2.396156 0.27277088 0.2742569 0.810241 -0.12225556 0.020489885 0.95081294 -1.6854122 0.87521976 -0.94052035 0.120564595 0.40487248 -0.092816986 0.4284705 -0.38915354 0.8244446 -0.8281608 1.4779961 -0.8725634 0.09119603 -0.8254894 -0.6411546 0.809068 -0.6001493 -1.0143172 0.29602545 0.5310406 0.7036832 1.4273424 0.75669646 1.9517702 0.5458371 -2.1203096 -1.818619 0.5329853 0.41517353 0.42381442 1.3346738 0.19344692 2.540394 -2.1336014 0.19287135 -0.9381696 -2.3784568 -2.3477643 -1.4497482 -0.8621324 1.9386836
KAZN 0.8282444 -1.073004 -0.016035568 0.026769204 0.42865738 -0.382765 1.3412582 -0.6072252 -0.43294838 -1.837551 0.60217804 -0.019369999 -0.059298784 0.1189018 0.8612951 0.532352 0.684055 0.3645468 1.377683 0.84902394 0.46196896 -0.003909804 0.08586828 0.849592 -0.41151944 1.4852761 0.25328112 0.1598502 -0.12046485 0.041068774 0.061861724 0.6766423 1.069855 -0.40811557 0.10609949 -0.54805195 -0.26122114 0.48072085 -0.65764725 -0.28578037 -0.68646085 -0.29434666 -0.862504 0.8845192 -0.97043914 0.72033244 -0.14576262 -0.20526108 -0.767717 -0.4505534 0.8299479 -0.22028592 0.8036967 0.019056171 -0.51278406 -0.089181446 0.10080086 0.81304556 -0.056662567 0.27500317 -0.43156186 -0.05035443 -0.6523578 0.495831 -0.17075321 0.13633321 -1.0453722 0.45655778 0.9276752 -0.5774286 -0.35445774 -0.4665715 -1.2012854 0.13385136 0.15199094 0.415831 0.275845 0.67571723 -0.045870773 -0.0539475 -1.3619134 -0.3085212 0.84644425 -0.36785612 -0.6535515 0.15694797 -0.23066303 0.53432953 0.006648978 -0.30699146 -0.26076305 0.45994592 0.62930393 0.7137979 -0.2305318 1.0438643 0.15249239 0.22978938 -0.66657805 0.9954661
FBLIM1 0.2774091 0.39627302 -0.44948554 0.20860039 -0.26938224 -0.40589342 1.4459993 0.07733336 0.01722317 0.6221769 -0.042606067 1.0492877 0.51769763 0.1447418 0.2742813 -0.033267476 0.5385742 0.59190905 0.78317016 0.69633293 0.29868677 0.05111238 0.57578135 0.7718601 0.7208591 0.7182758 -0.35672855 0.19562438 1.0444055 1.1529632 0.7168954 0.027036164 -0.09496776 -0.64156204 -0.5476745 0.28565967 -1.1229663 -0.2306621 0.029774114 0.25117797 -1.6240735 -0.5483768 0.8015082 -0.690326 0.74280286 -0.100974806 -0.56975883 -0.3011108 0.7855958 0.053496502 -0.39162546 -0.51131284 1.1363134 0.04200039 -0.5538103 -0.5081858 0.30431336 0.799649 0.016390182 0.28578582 -0.078893475 -0.30092376 -0.5094423 0.2895842 0.409537 -0.14325891 1.1630628 0.04992077 0.68505305 -1.0353061 0.018263374 0.333126 -1.6537926 -0.12503655 0.2061495 -0.6395961 -0.4623225 -0.14466873 -0.44498965 -0.8805818 -1.927515 0.6714179 1.0374506 -0.003784726 -0.77677315 1.1091818 -0.5238565 0.36493853 0.41233793 0.6354238 0.6844079 0.7157097 0.21117477 -0.59880805 -0.43515298 -0.89733714 -0.06617966 -1.7213079 0.49940673 0.89765114
SRARP 1.0662261 -1.5780983 1.2238996 -0.14474827 -1.8239586 -0.46832085 -1.2425579 0.29837668 2.0541277 0.6980232 -4.4556103 -0.24196182 0.36238357 -0.49254572 2.0687141 2.3415825 1.3933662 2.0941553 1.696431 -0.45949507 -1.3015968 0.4934639 -0.841816 2.513809 0.45241344 0.21767898 0.64457875 1.2300572 -0.93965614 -1.7608144 2.5987616 1.0917139 -0.6805985 -1.7052392 1.6593679 -1.0675792 -0.17482758 0.19150445 1.7054836 -1.2842336 0.5350552 -3.7369807 -1.9352788 -1.0624981 1.0352856 1.7012357 0.8689181 -0.3737802 -0.89938366 2.2244213 -1.9803435 1.5944886 -0.88357824 3.6637795 2.1676269 2.1925673 -0.3659627 1.5706912 0.15670668 0.4539172 0.9115241 -3.4928453 0.5302996 -1.095906 0.49427718 -1.2405605 1.3714095 -0.034350194 2.5811265 -1.3244201 1.6554831 -0.89655876 -0.3658688 0.3593732 0.20578432 -1.2592672 -1.2720281 0.013613399 0.5022634 2.5677228 0.8638393 -0.8442662 -2.3242342 0.6457291 -1.4956701 -0.8434417 3.512364 0.16170727 0.26219988 -3.0915217 0.9454693 0.03562781 -1.4226303 2.8166993 -1.4536643 -2.1993868 1.8886249 -0.29143593 -1.5226556 0.5474084
MFAP2 -0.38729188 -1.1274443 -0.42660627 -0.031024322 0.13049154 0.4040066 1.6166054 0.06659562 0.1691999 0.31762654 0.20290108 1.5197775 0.29960132 0.9744761 0.88515717 -1.7387846 1.1661357 0.013751538 -0.25133812 0.40395492 -0.31915322 -1.1768892 0.20604658 0.97570467 -1.3989272 -0.2890853 0.3047268 0.91035765 -1.6917676 0.89740145 -0.036620103 1.0935419 0.3024709 -0.89878297 1.0347657 -0.07625185 -0.9398667 -0.18765476 -0.32136244 -0.04342044 -0.2974984 -0.10912028 -0.079486445 0.18894537 0.16807738 -0.34423077 -1.4385136 0.07159348 -0.31342623 -0.07582771 1.2126237 -0.3437921 2.2274613 -0.42884365 -0.1363461 0.75313276 0.61190474 0.08125507 -0.77351815 0.62643135 -0.29331785 -0.483717 -1.4765913 -0.8155921 -0.6909824 -0.22727267 0.20739102 0.8034208 0.59681743 -0.8204279 0.4945256 -1.0293953 -1.6360364 0.25397745 0.3375445 0.16628143 -0.5463686 -0.8546184 -1.4613256 -1.2075377 -1.5669398 0.015128052 0.25666285 -0.47537675 0.35773778 1.365819 0.5776812 0.82449806 -0.4484796 0.6563134 0.44945735 1.0068825 -0.5898551 0.60005236 0.24364318 0.29584622 0.23108901 -1.1335481 -0.62813234 -0.071945444
PADI1 -0.2402645 -4.91095 -0.0585244 -1.1809013 0.8003207 -0.65011036 -2.867147 -5.1310945 -4.207567 -0.27468672 -1.952596 -0.12919147 1.0146816 -1.5903599 -2.4654171 1.4538405 1.4523427 1.9927433 1.6783754 1.8707058 -0.94389427 1.232405 0.24928038 0.21485274 -0.8368556 -0.34438565 1.8246727 3.3318646 -1.5312208 -0.4429737 0.85425586 -2.144386 0.8890275 -2.798925 -0.38536736 1.7091112 -2.9327374 0.11837879 -0.5829238 -1.1842107 0.46446076 -0.5857419 -3.0980453 3.1241384 2.0016026 0.4955708 2.7433035 2.0700388 -0.71025276 1.8641863 -2.6853042 0.23285082 0.50610465 0.08769911 1.925396 3.5446153 0.28492227 2.008382 -0.18127953 -0.8597704 0.99518204 -1.7854121 -0.22432783 -0.041061632 -2.4969327 -0.1578158 -1.5433862 -4.0697017 0.9701384 -3.3021467 -2.5899553 -0.7447038 0.3723536 0.25183517 -1.6489421 -1.924234 -1.7313527 -2.914802 3.7448094 0.5578017 -2.3467567 -2.5765512 -0.4439613 -0.14132674 -1.1722734 0.49835894 1.1977975 -0.26777285 -0.4251845 -0.26563367 -2.469541 -1.9171827 -1.5737307 0.24317008 -0.9256493 -0.24458048 2.2899354 -0.91203916 0.9517813 -1.6611091
IGSF21 -1.2093028 0.21087803 3.7084017 2.8972821 -0.08323484 1.9413097 -0.26438993 -1.5680864 -0.5511995 0.049963664 0.5271473 0.6553307 -2.5859826 -0.7515653 -0.26485062 0.21828142 1.3846803 0.090436205 1.4966489 0.6738676 -1.0360376 -2.4991515 -0.99757725 0.36051658 0.63137156 0.454196 1.1812876 0.25375104 1.3954164 -0.57507724 -0.9616337 2.5502267 -1.5087534 -2.167297 1.9459112 1.1173383 -1.5794649 2.0944474 0.044318464 0.80103177 -1.0630537 -0.54451185 -0.8032618 -0.15890531 1.2986746 -0.1222007 0.9212342 0.998448 -1.1663815 0.9167029 0.026948594 0.756379 -0.35850856 1.2207459 -2.0871081 2.302942 0.5994768 0.4136521 -0.03224751 0.08115307 -0.14668773 0.2354374 0.039917696 -0.39792433 0.06510622 -0.60698223 -1.8129004 -0.83963025 -0.6438458 0.8735403 -0.045078665 1.736682 1.1137873 -0.87497795 1.9529189 -0.02684981 -1.2472615 0.9182872 0.2662259 -0.3252169 0.642927 -1.2224467 0.49112508 0.22531572 0.26654226 0.5315775 -0.4478186 -0.4780241 -0.3264739 -0.64730483 -0.8824175 -0.16205503 -0.059673328 0.12067626 -1.7205119 -0.6608427 -2.4638352 -0.98674667 0.60969687 -0.7266485
NBL1 1.0838317 -0.45985448 0.50353724 -0.46104074 -0.17108037 -0.24990188 2.27276 -1.2771101 -0.7283018 -0.97894657 0.56818 -1.4374084 -0.4706211 1.0754813 0.025784155 1.6699477 1.4496154 -0.33442822 0.68366694 0.5000705 0.39345875 -0.12907696 0.47126034 0.734013 -0.7720428 0.63084793 0.5463517 0.09063391 0.39771995 -1.2288436 -0.40272546 0.6880008 0.68344325 -0.09765736 -0.28834462 0.35396886 0.80923325 0.15038373 -1.0184935 -0.4227074 -0.5474586 -0.6272296 -0.39011276 1.6948045 -0.73255944 0.27861232 0.68093604 -1.3192651 -0.7407111 -0.06236317 -0.12214176 -0.59996986 0.83709764 -0.35126844 0.49656472 0.51668423 -0.4307391 0.05822707 -0.23971638 -0.7152553 0.7140592 0.21819851 -0.009153987 0.52592087 -0.16679458 0.2017671 -1.1241392 0.42116085 0.5452649 -0.2202111 0.9953344 -0.12446625 -0.18093866 -0.18670286 0.10944782 0.83365303 0.11289908 1.0069994 0.51033777 0.6574291 -1.1562785 0.35306486 0.87664145 0.8609926 -0.03643667 -0.17848961 -0.14785516 0.57917297 -0.55175173 -0.6701449 -0.05508077 -0.33845392 0.6615329 0.26314706 0.17556962 0.85989016 -0.35693905 0.3623206 -0.03455051 -0.2835781
RNF186 -0.44226685 -0.8226464 1.1890877 0.45044547 -0.5205662 0.6875333 -0.5906066 -1.1930388 -0.22129571 0.43366787 -1.0727837 -0.59249485 -0.16256887 -1.2033943 -0.057036325 0.7277585 0.11945209 1.0809517 0.19957912 0.7189261 0.003184693 -0.95331854 0.20956904 0.21778946 -0.0769376 0.7711938 1.2464817 0.9702529 0.0018128969 0.521521 -0.60503215 0.23681842 -0.65347296 -2.0136294 0.14746358 -0.7839613 -0.41097057 0.3645111 -0.30982956 -0.66811365 0.51010734 0.2802478 -0.9152909 0.27412292 0.023248393 0.8114249 1.0590684 1.4856104 -0.724334 -0.02190998 -1.1923896 0.06066385 -1.14862 0.29079977 -0.14943875 1.4712614 0.7750092 0.90923095 0.7490484 -0.12301571 0.5895066 -0.055226814 -0.100396566 -0.68662983 -0.43156537 -0.74088734 0.043033633 -0.64023864 0.16255614 -0.7859226 -0.15347193 -0.59841865 0.6245226 -0.44955343 0.26489797 -0.7871302 -1.2921025 -0.79318416 -0.24061584 -0.5541442 -0.059443984 0.46430433 0.3878424 -0.9888046 -0.22939137 0.17394853 0.19156393 -0.67029524 -0.24901222 0.057991136 -0.50090617 0.45204124 0.22221985 0.34139773 -0.8860917 -0.088947624 0.08846721 -0.20256297 0.85337543 -0.70895845
PLA2G2A 0.7006683 0.109632105 -0.22406383 -0.19118893 0.52418137 0.7979691 -0.5586839 0.068814345 1.1755822 0.71620786 0.6576617 -0.325706 0.43373597 0.098986894 -0.6883095 -0.5566482 1.901268 0.31110248 0.7917856 0.64580256 0.6386263 -0.92581034 0.022706565 0.48774582 -0.48402584 1.0814476 0.15325299 -0.25104654 0.40199825 0.32670674 0.11964134 -0.6336718 0.016748808 -0.7301987 0.71999615 -0.33409068 -0.0025205216 0.12242489 0.01676544 0.12968256 -0.629096 0.19529223 0.037049454 0.4739079 -0.7308587 0.36195835 0.12071869 -0.40637717 0.14045669 0.30458656 -0.12954848 0.33972523 0.42199105 0.21255328 0.5131287 0.55249256 0.4041356 -0.5672066 0.3481297 -1.4383003 -0.9825672 -1.4036112 -0.4727681 1.3962268 0.27955946 1.1415348 -0.56129915 0.26581714 -0.9927878 0.18179688 -0.47202274 0.36955693 0.8582221 -1.4782954 -0.49667165 0.6924278 -0.79372716 -0.05530525 0.5957018 -0.8709657 0.05170465 0.8316991 0.55762506 0.18270785 -0.8913948 -0.74494004 -0.32173133 0.8321791 0.5324992 -0.71371084 -0.1198946 -0.2224976 -0.5070274 0.021898024 -0.25843236 -0.34558716 0.60596263 -0.26743937 0.7564239 -0.22770022
CAMK2N1 -0.2736848 0.3523014 0.46071467 -0.87663114 1.0762669 -0.14503561 2.8603573 -1.6287637 2.5568519 -1.3751029 1.6985152 0.11698964 -0.74348694 -0.5600262 0.7041698 -0.7939305 0.056717895 -0.21482363 -0.112084664 1.4769479 -1.0734974 1.1688629 0.842633 1.5769522 0.34652978 -0.17118031 -0.6451149 1.556019 -0.7845194 2.036671 -0.02328916 1.1287707 2.0601945 -0.7578132 -2.42937 1.1035626 0.1236761 0.42189556 -0.8234889 -0.4947918 -1.0679355 -1.4611235 -0.4240216 1.442181 -2.6767955 0.14280562 -0.64067847 -0.39920968 -1.3837633 0.460441 -0.6550872 -0.080642305 1.4384211 1.4992008 -1.1065264 0.7592613 1.1807455 0.26953128 -0.25197437 1.9298538 -0.3089264 -2.1681046 -2.4862506 0.4477856 -0.9034306 0.83790284 0.75151354 -0.3322441 0.5841534 -1.7465245 0.47757837 1.5944947 0.0013546237 0.5990805 1.2690536 -0.34428796 -0.6719843 -0.43506077 0.28716028 -1.9762155 -1.0636848 0.6571808 -0.6595321 -0.28485978 0.23710255 -0.12551963 -0.93000156 1.4669086 -1.1610725 0.6352802 -0.51001453 -1.4100012 -0.30157936 -0.10209516 0.6980971 -0.42445832 0.029857945 -0.7537558 0.16994907 0.9447419
ALPL -0.8209663 -0.20509513 -1.2103838 -0.6063775 0.18458118 -0.17405313 0.53615123 -0.42592263 -0.15431558 -0.6835396 -0.44986066 -0.33242902 0.63816315 1.4425746 -0.657162 -0.50074166 0.5592531 0.19094776 0.66545576 0.013830214 -0.7570963 -0.58288187 -1.4247497 -1.6180512 -0.3450811 0.029157309 0.15248162 0.31018022 -0.7171593 0.036252536 -0.25031608 0.12862669 -0.35578957 -1.1872416 -0.1800884 0.5528907 -0.017755946 -0.5147306 -1.9352148 0.33155188 -0.5199602 -0.49379238 0.3582949 -0.8239763 0.899353 -0.061287515 -0.5711537 -0.79209983 0.9329293 -1.1061022 -0.54367584 0.2287632 2.0917745 1.0368594 0.45870438 0.25830102 1.4228673 -0.9857686 0.41071588 0.29659763 0.25654006 -1.2887498 -0.94727814 -1.3588082 0.22845277 0.005680053 0.29416096 0.5851229 0.031536266 -0.6697573 0.36902714 -0.20587333 -0.25176328 -0.09564078 -0.09228815 -0.32155696 -0.97375137 -0.058554385 0.027253734 -0.72133183 -0.6900997 -0.54372674 0.8114741 0.36687064 0.6319146 -0.030294497 0.1722382 0.4297618 -0.8608012 0.4588233 0.4684071 1.282606 0.51684695 0.33678254 -0.0051741614 -0.839066 -1.1904542 -0.094773486 -0.17797017 -0.0887443
RAP1GAP 0.8811915 -0.23612557 -0.34828824 0.6388072 0.8631921 0.43061036 1.1032536 -0.7778352 0.23267186 -0.27927884 -0.12140822 -0.8934039 -0.4034162 1.1455464 0.6725844 -0.26490253 0.251556 0.43040055 0.48408076 1.1811433 -0.34837875 -0.8086375 -0.25634244 0.542832 -0.4710109 1.2643341 -0.18964514 0.09540813 -0.10503707 0.007279891 0.17530851 0.73673004 -0.28588787 0.20478342 -0.523032 0.49074262 -0.7657966 0.8792188 -0.18153319 0.60109955 0.08325382 -0.25039032 -1.091279 0.8684797 -0.05221222 0.57430106 0.4678041 -1.1958449 0.26262355 0.0054334835 0.12349071 -1.1848936 -0.24745478 -0.5021742 -0.26180887 -0.90232134 -0.26195335 -0.2348318 1.4274421 0.58986956 -0.64136946 0.34135723 -0.52541256 0.20931612 0.03519698 -0.25842085 -0.17146218 0.34177428 0.95298046 -0.49033076 0.35011756 0.09533194 0.29285583 0.3633607 -0.49145463 -0.044291887 -0.07763015 0.34637043 0.016497657 1.0159141 -1.5836201 0.28890505 -0.13688482 0.69388694 0.21051548 0.16116744 -0.47609586 0.43084723 -0.76178735 -0.0768118 0.71022874 0.20688777 0.036532003 0.36303037 0.51671094 0.42364743 -0.20308767 -0.80284286 -0.5003887 0.91514957
HSPG2 0.36844835 -1.2995493 0.34392968 0.1667614 0.50959396 0.6663006 1.6593204 -0.55847025 0.14288267 -0.722534 0.059539646 0.28535497 0.80089676 0.24159616 0.9258151 0.68762547 0.76621085 0.28057373 0.35990503 -0.0037914817 0.7331608 -0.9246845 0.47097445 0.43214798 -0.44794014 -0.034315567 0.2831255 0.1282402 -0.22299448 0.079260685 0.25939536 0.5545184 1.1812385 -0.98679215 -0.18308339 0.593543 0.8043476 -0.38794062 -1.0106975 -0.45883915 -1.508574 -0.41527253 0.047228824 0.37200868 0.17892438 -0.0909335 -0.29047072 -0.12892464 -0.47913343 0.15004073 1.1681573 -1.3805227 1.742009 0.45434022 -0.6663945 0.02449691 0.9097 0.1615938 -1.2770522 -0.6136391 -0.15185127 -0.16003978 -0.75423247 -0.35210106 -0.41210306 -0.27445805 0.41628718 0.7356503 0.888818 -0.5878448 -0.13016537 -0.30551353 -0.5584312 0.7672809 0.35957697 -0.091558725 -0.26029557 -0.4627913 -0.50651026 -0.6766714 -0.55263484 0.14554437 0.9232955 -0.1671597 0.35176638 0.14148074 -0.22767958 1.0331109 0.22008118 0.32378227 -0.1671961 0.3407043 0.03557907 0.024480227 0.20135362 0.6048884 0.65647686 -0.80209535 -0.91344464 0.16777901
C1QA 0.16080973 0.1803323 -0.5782145 -0.5305308 -1.8558326 1.3708614 -0.4034236 0.9669029 -1.6018206 -2.2220452 -1.7607596 -0.30363348 -0.3480312 -2.1253197 1.9563161 -0.52011496 1.7456955 0.7209338 2.3928537 -1.5772538 -0.5145238 -1.0029198 -2.223412 0.68336606 -2.2425456 -0.7861074 1.2654572 -0.45275798 -0.56702834 2.2511523 3.1972785 1.4077382 -0.80406106 0.37204617 -0.81305605 -0.27941173 -1.6027073 1.8449947 0.719343 -2.4875383 -1.7659893 -1.537907 0.87074745 -1.9441805 -1.354239 3.3016899 -0.3611518 -0.70331895 1.4725243 0.47389874 3.0023685 0.124597065 1.4878192 1.7004842 -0.93933684 0.6050792 -1.9452276 -1.7618208 -0.8679691 -1.9701954 0.063891105 0.5676955 0.016358605 1.2744095 -1.2203541 0.5826274 3.3272352 0.4065826 -0.36261865 1.1158283 1.2440828 1.1649687 1.542997 -1.677209 -0.32306147 2.3767939 -4.632936 1.9315507 0.20016961 -0.6690916 -0.05606148 -1.0961858 4.3281164 1.2184286 -3.4390588 -3.4122572 0.41826576 -0.76701015 -1.9569386 0.68622446 0.718482 1.8718992 -3.8917122 0.100486375 -0.8106788 1.584876 -0.7885605 -2.0873566 2.6387177 1.9842216
C1QC -0.23229748 0.65062934 0.6934089 -0.23659699 -2.0021281 1.9544237 -0.401346 -0.38506258 -2.6153135 -1.4191943 -2.22059 -1.0040939 -0.9836258 -1.2938747 1.0587562 -0.9361172 2.731237 1.7237712 2.2276902 -1.1119792 -2.1625547 -1.7974951 -2.450059 0.89890116 -2.6950362 -0.22314338 1.0789964 -1.833275 -0.40473053 3.2032225 3.2384806 2.8120248 -1.3608081 0.9679361 -0.5053727 -0.10825363 -3.1066315 1.595764 1.3029896 -2.628936 -2.3078394 -3.1490722 0.4534051 -2.3105407 -1.1430244 2.210759 0.33226866 -0.63194233 1.8400128 -0.08685735 1.1329387 -0.3084367 1.6290821 2.642584 0.09482267 1.58848 -2.3709366 -2.3327732 -0.15889792 -2.6014023 1.62875 1.7536948 -0.36796504 0.75580066 -1.9220513 0.5261871 0.82358634 0.048997805 -0.7528844 1.8639662 0.4947123 1.6598772 0.5270967 -0.6037986 -0.46407798 -0.10903417 -3.536426 2.1536508 1.0332073 -1.3747689 -0.36925384 -0.5214369 5.637003 1.5087144 -3.2781525 -1.9164014 1.0063508 -0.8342444 -0.8316013 1.5932629 0.31419715 1.0329552 -5.123728 0.66500884 -0.66839325 2.1241145 -0.9274395 -1.9126728 2.4884145 1.6994972
C1QB -0.7538612 0.13904643 -1.3885455 0.119967036 -1.7116845 1.011661 -0.111237586 0.29763293 -2.4546402 -1.9904654 -0.6651459 -0.12109208 -0.69560546 -2.0936255 0.3785767 -0.02459675 2.194423 0.3090976 2.1104467 -0.63302153 -0.8211014 -1.7122315 -1.8064495 0.92637885 -2.6339808 0.2326099 0.92870164 -1.3604571 0.10298108 2.8428774 2.9141688 1.5742353 -0.3176578 0.780082 -1.2622141 -0.3634205 -1.4216936 2.587677 1.3023541 -1.5739896 -1.3512932 -1.4538448 1.5326192 -2.8279276 -0.7792535 2.0418327 -0.09232154 -0.2324417 1.7323759 0.5330335 2.565244 -0.59953064 1.736459 1.3241204 -1.0311195 1.1525135 -1.519902 -1.7087352 -0.97613746 -2.4021113 0.21522224 0.62386745 -0.31095773 1.6827666 -1.4008306 1.103374 2.4148712 0.9710776 -1.030347 1.452192 1.3039625 0.72091395 1.236417 -1.107197 -1.472568 1.5655116 -3.4739647 1.4565489 1.172069 -0.5519624 -0.63003796 -0.9166468 3.5807183 0.57191575 -2.8343122 -2.3011186 -0.33902085 -1.0650774 -1.0867853 0.19824558 -0.46370175 0.7207358 -3.155937 0.5121732 -0.5188407 1.3597956 -1.5633936 -1.7071617 1.8929266 0.9876427
ID3 0.77374893 -0.3925389 -2.030163 -0.5625572 0.4711683 -0.52633524 2.0568314 -0.50932795 -0.25056192 2.117599 0.18760918 -0.11687997 1.1613779 0.67062587 0.30587086 0.6937322 1.367484 0.24668403 -0.022657016 -0.27927768 1.5448428 -1.1735617 -0.45841905 1.2631384 -0.8953034 -0.5404946 -0.49816754 -0.5831738 -1.025424 -0.27585313 -1.1587659 0.4013794 -1.1367252 -0.5973983 -0.13836232 -1.6236761 -1.583884 -0.22410093 0.40010676 0.5225682 -1.7468766 -0.8011152 -0.1532279 -1.9535059 -1.6408322 -0.8060812 -0.27822363 -1.0602037 -0.17350762 -0.382985 1.6201645 1.5248294 1.0652723 -0.41869524 -0.9159947 1.6431465 1.6171716 1.4898913 1.335038 -0.6514461 0.5581599 -0.11297768 -3.2877076 -0.8108796 0.20968993 0.3590035 0.2962151 0.49295402 1.4396067 -0.41046783 1.2955369 0.40315846 -0.79599464 1.1154321 -0.09079898 0.53545266 -1.1236098 -0.9389218 0.054527923 -0.18187635 -2.238746 0.5437215 1.508273 0.12232972 1.0534148 1.1346748 -0.32304016 1.7996851 -0.9286643 1.0758829 1.2894149 1.6941152 -0.3375097 -0.18791905 -1.5595889 -0.507128 0.37508944 -1.5482597 1.8535179 1.9951118
RUNX3 -0.5440614 -0.031610843 -1.2396369 -0.2725936 0.83029956 0.030668322 1.7233094 -0.74918574 1.04402 -0.8732566 -1.1476061 -0.15410654 -0.2635085 -0.8939722 1.2164556 -0.5882413 0.41351056 -1.224229 1.1544105 -0.10389576 0.2890935 0.345098 -1.2257048 1.5823259 0.5064363 1.5062746 -0.58048075 4.078692 -1.875391 0.1995439 1.00017 -0.5519209 -0.14133722 0.78593373 -0.13939004 -1.7909576 -1.5732795 1.01992 -1.4076792 0.2292642 -0.05474948 -1.5982065 0.1691815 0.6966181 -1.2502735 -0.014871393 0.73504686 -0.11161131 0.04782346 0.12893571 0.5715719 -0.05200262 0.4617805 -0.54035604 -0.29629266 1.0862052 -0.17865862 -1.4604164 -1.9025639 1.9673706 1.0607989 -0.72438914 0.7335373 -0.4436536 -0.84708 -0.6049232 1.0365793 0.78978723 -1.0633781 -1.9034464 -0.3671573 -0.4418073 0.27553535 -0.37997356 1.2200965 -0.6814005 0.8291525 0.59572583 0.24952142 1.05444 -0.019413419 -0.7671815 0.030527353 0.22534631 -0.63286585 -1.167262 -2.2172854 1.0540617 -1.4945312 -0.3972293 1.4206839 -0.0605613 -0.55728126 1.3046701 0.18935028 -1.7410768 0.1924214 0.81053305 -0.08623035 1.7978493
STMN1 0.112579204 0.3076596 -0.41358128 0.7534567 -0.16178063 -0.34955984 0.6805655 -0.4084181 -0.42708364 -1.4228172 -0.4659671 0.25782746 0.3631398 0.30942556 0.36057127 0.3973091 -0.30268294 0.48013222 0.3659511 0.63257927 1.5615236 0.050115447 -0.08325181 -0.2325228 -0.34043303 -0.2471423 0.90183544 0.38670182 0.5002319 0.4353382 -0.16788599 -0.7737918 0.3578388 0.72927296 0.5431269 -0.55404145 -0.27198035 0.7328965 -0.94923633 0.013814319 -1.5273606 -0.8433448 -0.68956316 0.8277229 -0.1736703 0.1669286 -0.27835554 -1.3297065 0.014513064 0.08563284 0.98880726 -0.053319555 1.1178726 0.5893449 -0.758472 -0.11289057 0.8193789 -0.059108824 0.2366293 0.6962935 -0.6248374 0.17938718 -1.7115245 -0.2342335 -0.19676073 -0.103776515 -0.6414081 0.22088298 0.7022026 -1.0841758 0.06436498 -0.3641177 -2.0645397 -0.17961358 1.4734703 -0.1187742 -0.60167307 0.78383034 -0.8509929 -0.532895 -0.9554023 0.625315 1.0036951 -0.2679537 0.12367393 0.38583717 0.1657941 1.0116043 0.47007424 0.17298652 -0.7471799 0.37700933 0.3898532 1.2423655 -0.28137377 0.27048934 0.13353392 -0.9240282 -1.1903638 0.22484808
CD52 -0.056077294 0.6579937 -1.4133009 2.4166107 0.31788075 0.80638236 1.8508786 -0.69574857 -1.088568 0.3865191 -1.2421029 -0.793661 1.6123255 -1.333773 0.0926946 1.2177306 1.3771356 -2.648677 2.2160752 0.049498655 -2.302762 -0.75988364 -2.3547003 0.5411904 -0.6133558 1.932767 -2.7312603 1.8364226 -3.0354476 1.9469414 0.2948818 0.14521511 0.12705515 1.3065968 1.0833282 0.198333 -0.44011313 0.97816724 -2.1464236 -1.8600618 -1.9659119 -2.1340532 -0.101952836 -1.1367842 -1.8857353 1.971514 -0.34929907 2.52607 0.9865399 1.5125664 0.036309395 0.24788938 -0.02281178 0.9069709 3.7800627 1.5215712 -1.967908 -0.57588047 -0.94880855 -0.5810745 -1.6413054 1.0086806 -0.7520154 -0.41079545 -0.76560277 0.58799565 1.1616738 0.4005117 -0.6228468 -3.6045408 -2.3652756 -1.0383339 -0.77416384 -3.8201952 2.6339338 -0.44906852 2.3293366 0.28570336 3.592724 0.90019196 0.61287296 -0.14304912 -0.072668515 1.0088341 0.044332117 0.42944092 -2.625536 -0.28673455 -1.5418698 0.27262735 1.019323 -0.11516721 0.16713344 1.770552 0.3490405 -0.04293053 -2.017465 0.51574165 -2.394306 0.3726763
ZNF683 -0.53880554 3.0036585 1.5225241 1.2825882 -2.343424 0.4418068 0.11777606 -2.6639035 -4.974822 2.8151064 -0.75654614 3.4888983 -1.9546504 1.3596127 -0.24358417 -1.5070182 -1.2784489 0.94649625 0.86555773 0.0089046685 -0.8313807 4.2176666 -5.567216 5.1761007 1.0776376 1.390469 0.4801797 0.8662134 -0.6872986 0.107685715 0.13822922 0.42719474 -1.240545 -0.49234894 -2.1415327 -0.34351814 0.10979162 -2.6147282 -4.6027336 -1.7969525 -2.3199556 -3.7069604 4.9114537 1.479892 -0.79415745 1.9123567 -1.0745779 1.766946 -2.013611 -0.30921066 2.664484 -0.73370826 -2.8557148 2.3840654 6.971695 1.4128232 0.23822102 -4.4656434 -2.739274 -3.5185118 -2.1325529 -1.3488276 1.3596848 0.0022463768 -3.5909338 -3.149836 -2.4845233 -2.6595516 1.7305509 0.67562443 -0.6505047 -0.608147 -3.0819557 -4.026413 -1.7285752 0.62237763 -0.35907412 -4.08143 1.4185845 -1.5734152 -2.1361296 0.5120614 -0.9901276 1.4176525 1.8277459 2.191514 2.7356374 -1.8827168 0.8069956 -2.0716093 0.6582636 -4.307921 0.071282014 0.080941826 -3.170064 -4.0764413 -3.2999113 -3.4351075 -0.87850755 2.0525255
HMGN2 0.09393331 0.061883867 0.034818016 0.3399467 -0.6851959 -0.2005917 0.33871427 -0.58320326 -0.6301317 -1.2542738 -0.1269212 -0.05809673 0.5319923 0.3870384 0.24079366 -0.13842045 0.1754798 0.10603942 0.15932414 0.049252808 1.48162 0.52462095 0.8332853 0.19464594 -0.2743202 0.43406975 1.0825906 0.186213 0.8567201 0.42937943 -0.16812064 0.057588387 0.13009478 0.3562735 0.42946702 -0.43029872 0.4993201 1.0255612 -0.47728398 0.04240024 -1.1029792 -0.5548646 -0.61474496 0.8004732 -0.5636453 0.56485534 -0.564947 -0.7244947 -0.7772014 -0.078108154 0.52251583 -0.22450352 1.057478 0.30499473 -0.07464448 -0.4898737 0.81986094 0.3283962 0.117256686 0.71355957 -0.005372681 0.6452176 -1.3913755 0.5198685 -0.21585913 0.2063719 -0.82540053 0.33223787 0.4488266 -0.56283456 -0.13366276 -0.527818 -1.6478885 -0.5940989 0.5281926 -0.05628239 -0.3961966 0.7947479 -0.53667593 -0.4706465 -0.72154415 0.36229065 1.254989 -0.79357505 -0.31370917 1.0156742 -0.24745369 0.4895635 -0.06224558 -0.21601562 -0.8695133 0.36222944 0.7145313 1.3339999 -0.17077479 -0.23910573 0.34790188 -0.61565095 -0.673428 1.1201648
SFN 0.39237803 0.35169512 0.6261167 0.57949734 0.91334176 -0.40098688 2.1151462 -0.7611973 0.038096935 -0.6457886 -0.4978395 0.29481775 0.8329846 2.063481 0.10967694 0.34291786 1.1573364 1.0910275 1.1594936 1.9478816 0.18236825 0.07428702 0.9321933 1.5103221 -0.5022888 -0.10601919 -0.34525022 0.105066985 -1.1184568 0.9160885 -0.4707782 -0.54159135 -0.24364294 -0.88069236 -0.019615145 -0.49772024 0.5498908 0.17177854 0.1128527 -0.9854982 -0.323281 -0.9269705 -0.68197256 1.4365144 -1.3469199 0.8145021 0.6101826 -2.0554492 -0.47260976 -0.2772266 0.6436308 0.6358713 -0.023713214 -0.025064798 -0.06551637 0.6381253 0.2689615 0.46331507 -0.183091 -0.27802858 -0.6739605 0.73193955 -0.91971314 -0.94737446 0.89932543 -0.73434556 0.46532717 0.32263786 -1.3302188 0.7862334 -0.8501493 1.0891578 -1.0629838 0.25276998 0.8768472 0.96460617 -0.9418158 0.8925647 0.727563 -0.44096467 -1.2245506 1.3128492 0.5344791 -0.95160675 -0.109178334 -0.56967854 1.5528047 1.5327821 -0.20220928 0.87575114 0.7500158 0.29215857 1.9071866 -0.21311094 0.15053128 2.396554 -0.14867488 0.10515032 -0.36057538 0.32092673
IFI6 0.16262874 -0.4465074 1.220546 0.6537881 0.27841502 0.892992 1.1426567 -0.65406555 -0.34446824 -0.5294811 -0.64201677 0.01601198 -0.6243009 -0.4837584 0.3271045 0.075057425 0.6564009 -0.03353109 -1.4469267 0.1356826 1.2493834 0.42500862 1.5937687 0.7005903 -0.09913996 1.9146414 -0.1337766 -0.6267023 0.876943 -0.057708878 0.3556279 0.40817556 1.1240479 0.5088165 0.91712487 -0.09377771 0.858038 0.10122508 0.06797713 -0.081074275 -1.9577564 -1.1365298 0.96635973 1.1644932 -0.5460129 -0.0108742155 -0.5400155 -0.287297 -0.13845745 0.20704965 0.53614104 -0.5767899 0.42411444 -0.64001244 0.37600407 -0.40865296 -0.06794828 0.6470952 -0.3370804 0.5778839 0.76083636 0.4877287 -1.3242754 -0.2979705 0.0038629246 -0.7113411 0.061858244 0.4217425 1.6881311 -1.1362976 0.3818709 -1.0949175 -0.30039176 -0.7136546 -0.24253708 0.3783371 -0.9360835 0.57399404 0.104410015 -0.1722423 -1.8616579 0.10727668 0.9181392 -0.15970698 0.15289289 0.6807902 -0.86204374 -0.019966917 -0.07249626 0.19819315 -1.0396931 -0.101132005 1.0800565 0.10313831 0.24043068 -0.5069552 0.013800123 -0.38010892 0.8251009 1.3039178
LAPTM5 -1.5667905 1.5215124 -0.33067468 0.6873748 -0.4431404 0.48290882 1.3819937 -2.6821277 -1.9596784 -1.1706411 -1.2861036 0.4706926 0.6706688 -2.2909229 -2.268202 -1.3013808 1.0061812 0.9211722 2.981485 0.39304537 -0.46957037 -0.962162 0.2428883 -0.84619975 -1.183649 2.2155597 1.3481808 -0.7845431 -0.33113623 0.6709301 0.9359281 2.7251844 -2.2878919 0.14951672 -0.6439828 -0.98812526 -2.789828 1.6030773 0.6271407 -2.2215316 -1.8259925 -1.3515651 0.7435989 -0.939121 -1.3263663 0.9360434 -0.42477095 -0.062495586 2.484575 -0.49160048 2.341995 -1.0791739 0.9251463 1.8699821 2.4013853 1.4703172 -1.0540155 -0.2845329 -1.9310842 -0.96942806 0.4976225 1.0771554 -0.9086124 1.3750603 -0.16919667 1.4891504 1.8172671 -0.17857212 -2.5643113 -1.6816682 0.5429802 -0.22532408 0.22345094 -1.0739632 -0.5045858 -0.89378935 -1.9336725 1.2390134 2.0853157 -1.0574011 1.0676315 -1.0347939 2.1747792 0.48157692 0.2807612 -1.9139533 -1.6645921 -1.5353059 -2.5271251 1.088645 1.6747681 -0.601475 -1.866859 1.0348718 -1.2969235 2.5833726 -1.7841822 -2.2384791 0.013228965 1.201479
FABP3 0.4123409 -0.5906406 -0.74741715 -0.75943065 -0.88026494 -0.15677525 -0.468602 -0.5029125 0.19438761 0.021133771 0.24565677 -0.011180081 -0.12837218 0.83178306 0.74187356 -0.022337025 0.7462039 0.7374229 0.57588553 0.12862481 0.28653026 -0.7354259 -0.16180027 -0.01371855 -0.15570527 -0.24559781 -0.19175635 0.3289738 0.054575715 -0.28050005 0.84096813 1.8318967 -0.5169825 0.5725694 -1.1366212 0.206139 -0.5507287 -0.11787529 -0.24764538 0.2687802 -0.82784975 -0.17039107 0.42146406 -0.59497774 -0.24577521 -0.09239476 -0.08418785 0.03174965 1.7858561 -0.20456506 0.009296855 -0.6523989 1.347884 0.53671306 0.15630677 1.1095877 -0.06812061 -0.25031933 0.29596767 -0.5502236 1.3045274 -0.27428055 -0.33325025 -1.5503345 -0.7079609 -0.5119389 0.25003448 1.5162232 0.2680817 -0.27305472 -0.18552807 0.14402431 -0.1688796 -0.8413806 -0.63932776 0.13570262 -0.22278565 -0.32941872 -0.4813871 0.18306579 0.062453516 1.0341569 -0.037589356 0.48972097 1.4882596 0.32814038 1.0216906 0.33873674 -0.17381574 1.0727944 0.2179528 0.31211826 -0.30136448 -0.12244707 0.09464621 1.3605727 -1.151797 -1.6723955 0.27271557 0.90763056
SERINC2 1.0376792 -0.22577083 1.4651376 0.31588578 0.06659162 -0.5316641 1.6476552 0.9347726 0.19781923 -1.3766074 -0.12425807 0.106546655 -0.021205802 0.85816795 0.8876677 1.493254 1.762633 -0.1858648 -1.130944 0.5937909 1.0119218 0.4622955 0.6135757 1.2214241 -0.6536799 1.0575745 -0.8366507 -0.10361477 -0.5189317 -0.09099395 0.11499761 0.32022443 0.3985136 -0.71318686 -0.14219227 0.92452455 -0.57884544 0.108544074 -0.38844046 -0.27413046 -0.9316909 -1.5460448 0.7673802 0.5206735 0.17940532 0.52776676 0.60874844 0.24629758 0.20822388 -0.17168431 0.96126956 -0.9622381 0.40768543 0.5157299 -0.47513905 0.33819118 1.1754527 1.1233749 -0.70029944 0.65600944 0.2766585 0.08582859 0.24716765 0.6684329 0.26722112 -0.53943276 0.81342894 1.314886 1.2414804 -1.7008268 -0.09159153 -0.34272483 0.078967884 -0.47008285 -0.48421282 -0.37752742 -0.0035746526 1.2970277 0.06183874 -1.3376633 -0.31962243 -0.9165609 1.0644108 -0.4051191 0.19056758 0.6540962 1.3379251 1.5899603 0.43251726 1.679857 -0.74094373 -0.02268778 0.42432818 0.31014812 0.20674755 -0.4143548 0.18848413 -0.6606497 0.8607914 1.0895233
TINAGL1 0.55823857 -0.32284304 1.2447371 0.24030335 1.2678272 0.26248127 2.4358654 -1.3950775 0.29171956 -0.13072209 1.1235642 -0.46344763 0.43685386 -0.0888766 1.1955434 1.0047421 0.23974429 -0.7561244 0.30450845 0.84582675 0.19359148 -0.6151187 1.9560072 0.6476582 0.33563796 1.2048348 -0.19689314 -0.42996907 -0.5041251 -0.7270205 0.33706447 0.34996456 0.9205054 -0.5553172 -1.5003723 2.4724257 -0.4958839 0.56560963 0.7805531 -0.56458753 -1.8332953 -1.0546684 0.2897587 1.5315167 -1.6226034 0.2848671 -0.030154472 -0.31278616 -0.7377146 0.25356603 1.4333085 -1.2126267 1.4446673 0.47853345 1.2379166 -0.06176909 0.8859241 1.7409774 -0.07713965 0.35588694 -0.24218354 -1.6160722 0.9413811 0.67529106 -0.5622457 -0.34791166 1.6241189 0.3801449 1.6205138 -0.32971087 0.28706115 0.95876276 1.0818093 0.47456172 0.5357034 -0.083778515 -0.3110394 -0.38371152 -1.4347534 -1.3689536 0.023585891 1.0318389 0.68142456 0.78012466 0.9485413 -0.45990214 0.094329804 1.4938743 -0.14812095 1.5886403 -1.0618484 -0.08816437 -0.028921422 0.21429485 1.1051483 -0.109301284 0.063459225 -1.6446313 0.32350636 0.09153919
LCK -1.4412645 -0.8419119 -0.54177564 4.261013 -0.19135852 -2.3671434 0.8426485 -1.5630095 -0.9376274 0.1749508 -2.6111817 0.5809831 -0.05064843 -1.7206732 3.810194 -1.5366011 3.4806795 -1.5184749 2.1515193 -1.3033558 -1.7901477 0.69918805 -3.6815581 0.9872082 -1.6872592 0.9355939 -1.9623952 3.3697658 -0.21905342 2.2941947 0.53124183 -0.93552643 -0.82742584 1.3990672 -1.0653416 -0.9328189 1.2764727 1.1806439 -0.82630104 -2.3886695 -0.61244637 -0.384884 0.18323022 0.87603444 -0.21231045 0.74869204 2.2040071 -0.15273282 0.38996667 -1.2501614 0.20332101 0.28494272 -1.4101633 3.2683985 1.7377776 2.4576285 0.5625101 -1.0038683 0.19797482 -0.51442176 -0.20223095 -1.4992645 0.5703254 2.4678767 -2.427506 -3.562133 0.71103245 -0.7465121 -0.7738672 -2.9001522 -1.0543003 -1.5402453 -0.7942882 -2.6399527 1.0057696 3.334447 1.1883777 0.94800985 1.2345101 0.31943405 1.1518736 -0.6758157 -1.390871 0.17117153 1.9315724 0.12733959 -1.3450062 0.25923872 -1.449073 2.2977483 1.9126941 -1.2707984 0.45728368 1.47357 -2.138777 -2.344095 -0.1632027 0.6544016 -2.0753322 1.2311181
CSMD2 -0.8826934 0.37820083 1.0325574 0.10332099 0.47764292 0.43688962 -0.22367275 -0.9622372 2.000544 -0.058502853 -0.8225139 -0.7996735 -0.04532117 0.16841158 -0.47904518 -0.004593647 0.4463832 0.1666364 -0.6646416 0.9757969 -0.030835846 0.63817245 -0.3310157 0.38322997 -0.46036723 0.076871924 -0.121118136 0.097977236 -0.80786926 -0.12775756 0.22094122 -0.19126332 -0.88662046 0.28463995 -1.5599363 1.2913774 -0.6967289 0.22183953 -0.08575736 -0.5636463 -0.25496048 -1.1348628 -0.60578924 0.5322759 -1.2240045 0.048724905 -0.014915656 -0.3740169 -1.2679464 -0.12706067 0.7484595 0.87633675 0.597413 -0.12078044 -0.025818374 0.23255645 1.6630079 0.029633394 -0.059135467 -1.3625911 0.21227793 -0.044612966 -1.1102073 0.2416209 1.2429584 0.65361017 0.6856453 0.07664275 0.84661704 -0.672792 -0.3488107 -0.23976599 0.12981014 -0.22635539 -0.76044494 -0.5511431 0.810619 0.16316919 -0.32610846 -0.6176706 0.61568254 -0.849384 -0.209228 0.22021227 -0.07979631 -0.16551834 0.13057566 -0.028041296 -0.64150554 0.902416 1.0071802 -0.102463685 -1.0216854 -0.08614186 -0.1624158 -1.1811837 -0.46539786 0.022178255 0.785912 0.54231715
C1ORF94 0.5983535 -1.4022785 1.1028079 0.29663706 -1.3451809 -0.11768436 0.23305246 1.939777 -0.2758419 0.10159975 -1.2732123 0.22555913 -0.3351527 -0.9132522 0.7192478 1.30667 -0.6389426 0.08540568 0.5305852 -0.6223467 -2.1674528 0.31351528 0.13114162 1.0194232 -0.6233115 0.26379117 0.09467342 0.9334397 0.2558225 -0.38189915 -0.7598355 0.93988603 -1.0318755 -1.3332504 -0.8035607 0.7205327 0.5642968 -0.09753905 1.8561424 -2.6465886 -1.0349075 -1.2133677 -1.8905725 -0.07630074 1.6712935 0.8697304 0.77022564 0.262252 0.01805396 0.8689972 -1.0949291 0.94525576 -0.3087879 2.0152626 1.394111 1.2630483 1.4117045 -0.14961293 -0.9682044 -0.7793673 1.3676348 -1.0563437 -0.51887363 -0.28367436 1.1413916 -1.1870875 -0.81458056 -0.15622479 0.2327275 0.83648264 -0.6602324 -0.015870463 0.032995738 2.2768528 0.6358116 0.6121208 -1.5950086 -0.1744409 -0.70571655 1.9033533 -1.4114656 1.5591054 -1.2944957 1.2601254 -0.536554 0.48919183 1.3116487 0.45303783 -0.7986277 -0.7015737 0.19901551 0.17834042 -0.5398102 2.6663802 0.098130435 -2.0622966 0.10354967 -1.1477803 0.26422405 -0.09369468
GJA4 1.7236695 2.3657403 -0.10695679 -0.6808008 0.06281119 0.20558468 0.68965554 0.9342254 0.16862549 0.5292523 1.4376742 -0.60436195 0.41734707 -1.4978162 0.21354064 -0.11352059 0.06095227 -1.6412114 0.49146166 1.1905154 -1.0187777 -0.0905808 -1.2233311 0.7234303 1.242167 0.2244811 -0.8022495 2.9508343 0.2546375 1.0372404 1.6072083 -0.026971964 0.094890736 -0.9381443 -2.788165 0.6604727 -1.5216132 -0.41200602 -0.32662824 0.7025731 -1.1115543 -1.9992235 -0.59007055 -0.59522295 0.49256223 0.68320996 1.0979241 -0.0013723888 -0.6668109 1.1901207 -0.41943714 1.573644 0.66682154 -0.7236719 1.113901 2.000568 1.1755433 -1.3241143 0.035244 0.7840097 -0.7537582 -1.4756634 -0.6988243 -0.00469829 0.20864193 -0.020728491 -0.21622007 2.3922448 0.014385576 -0.6082165 1.1943022 0.986564 0.44892576 -1.3491871 -0.24438068 -1.1187606 -0.08264192 0.6649878 0.82967764 -1.2822087 0.43346646 0.5202407 2.1870136 0.75091124 -0.67453164 0.6067739 -1.3682045 1.7538457 -0.7374028 0.81730825 2.1966481 -1.1972231 -1.0454906 0.9200522 0.10384533 -0.31578305 -0.32120407 -0.7850384 1.3044577 0.86496615
CLSPN -0.092353165 -0.6000597 0.110552534 -0.34126306 -1.4719077 -2.212694 3.25722 -1.1332929 -0.8533186 -2.3130684 -0.23680829 -1.6898546 1.3705664 0.59062177 -0.6294825 -0.16774346 0.8055234 1.3741193 2.2472513 1.2325789 -0.39132506 -1.1603751 1.3516 0.2879893 0.13525899 -0.20393445 -0.42929944 -0.20928681 -0.20952064 0.31556234 0.19658399 -1.0840888 0.17531672 2.0612714 0.27302197 0.33440948 0.25328693 1.7447109 -3.2327833 0.21601008 -0.38506812 -2.295889 0.07316359 0.33657974 0.8952141 -0.0025398878 0.3869118 -1.1507621 0.8802495 0.64754003 -0.83920026 0.3154236 0.559652 0.58442116 0.82124263 2.0028281 -0.35957396 -3.051316 -0.8143117 -1.0610905 1.0177929 -0.0051182443 -0.26678985 -2.4594266 0.81879044 0.18515888 1.3133148 0.69549644 -1.525259 -0.1762953 -0.34012273 -0.79956025 -0.38140917 -0.7790918 -0.4116864 0.74080163 -0.6348166 0.6451206 0.67536545 0.6148482 0.8550243 -0.08417851 1.4938438 0.9316012 -0.5815581 0.10345545 -0.30910212 0.8976738 0.6307958 0.10954653 1.6322978 1.939321 3.4704626 0.1953524 -1.8813496 0.7602271 -0.18779424 -0.91424215 0.18638386 0.89190805
TEKT2 0.6716297 2.5871637 -1.4727764 0.27530763 0.6348396 0.5328996 -0.08850019 -0.3288337 0.9051785 -2.1087492 0.37354487 -0.7833502 0.23578201 0.36220738 -0.48972583 1.0706625 0.2502538 -1.7752659 -0.39690685 0.46253142 -0.011372791 0.1649134 0.7141139 0.33264035 -0.10891707 0.97121465 1.6055099 1.7332424 -1.2753924 -0.6972482 0.8502887 0.65292066 0.31212953 1.1936376 -0.6998396 1.6225216 0.81742823 -0.15076916 -0.089410946 -0.31967238 0.8229891 0.3579492 0.7533931 -0.81570095 -0.3366525 1.0332278 1.6759579 -0.67228097 -1.2803133 1.2506825 0.02856091 -0.043410584 0.51719725 -0.35649705 -0.07891856 2.3618586 0.51060206 0.41680285 1.7606628 -1.1092538 -0.17651728 0.12184704 -1.0595942 0.7390398 -0.34901485 -2.1054728 0.74589837 -0.6936302 -1.5888133 0.9112699 -0.2763463 -0.15150079 -0.4854297 0.14759657 1.5662608 -1.2589381 0.16170058 -0.8300386 -1.2218062 -0.8082614 0.6615689 -0.23070827 1.5244844 0.8146039 -1.0285357 2.0111659 0.35647687 1.7974386 -1.0284309 -0.11698118 -0.6134782 0.20499048 -0.0029312584 1.5227814 1.0340044 -0.56439275 -0.90362835 0.11364439 -1.3809456 0.71515626
EVA1B 0.46778125 -1.2054548 0.97680736 -0.24933386 0.96571815 0.10777634 2.6848338 0.08481819 -0.1463183 -0.14209384 0.080917604 0.29765645 0.5066937 0.9863458 0.9160952 0.93919164 0.73303163 -0.3421446 -0.12916996 0.380148 -0.031176254 -1.2973804 0.36258826 0.7225563 -0.49651185 0.9437805 -0.022804435 -0.0102058975 0.43401197 0.31805065 0.2824913 0.8715631 0.09465672 -0.63383347 -0.19596677 0.78692186 -0.9891116 0.4826843 -0.24282198 0.2895006 -1.0298678 -0.15073349 0.48780695 0.96219575 0.5110497 0.036976438 -1.2238854 -0.30871513 -0.08709766 0.5359423 0.2822695 -1.6244478 0.56226945 -0.3026476 0.056157116 -0.35964417 -0.0063348175 0.8443221 -1.0968282 -0.06908779 -1.1468847 -0.55922204 -0.20601583 0.3480009 -0.5236897 -0.6096155 1.7635357 -0.020142976 1.0734622 -1.1742392 0.264716 -0.4436324 0.2931731 0.51324916 0.90695995 1.2988827 -1.0239706 -0.19008921 -0.31634572 -0.9523155 -0.23150879 -0.37449142 0.8902274 -0.092533484 0.51117176 -0.15993296 0.024828773 1.6841607 0.12903163 1.104085 -0.16684252 0.4182807 -0.44313323 0.49756393 0.8956206 -1.0048951 -0.2553172 -0.47802737 0.29722324 0.6945199
ZC3H12A 0.99337 0.16671188 0.9683154 0.7061184 0.65552026 -0.09163596 1.3325806 -0.90111077 -0.72878647 -2.1689956 -0.3283156 -2.1031697 0.38036293 -0.3148183 0.118748665 -0.38222274 1.38949 -0.34792653 -0.32337987 -0.49542433 1.5884702 0.37802932 0.99323714 0.19823782 0.9164109 0.2570972 -0.6002038 0.7803329 -0.3797738 0.17280965 0.015930865 -0.07948557 -0.06692474 0.614073 -0.5364929 -0.011752487 0.12137535 0.3435017 -1.304757 -0.28712392 -0.9961282 -0.97808725 0.1948738 0.72646326 -0.5475696 0.0034670704 0.47904593 -0.2865346 -0.10251208 1.2686038 0.90497124 -0.53132373 0.3249916 1.5860709 0.6171738 1.5171331 0.75188607 -0.73846054 -1.2509819 0.71603376 -0.13245583 -0.29588667 -0.07104583 -1.2229663 0.7670465 0.6387381 0.92812574 0.2904728 -0.062373802 -0.65715975 -0.31328112 -0.7520555 0.20393352 0.59187937 1.1962488 -0.15688272 -0.6427687 0.31092414 1.0313952 0.916966 -0.12440534 0.030409545 0.17822549 0.11466335 -0.049961597 -0.72995925 -0.68214613 1.5383582 -0.15429783 -0.27352595 0.3451845 -0.008034467 1.0421535 1.014775 0.67686164 0.41074938 -0.1197492 0.9259867 -0.49396256 1.2002995
DNALI1 1.4740238 1.4546677 0.16219218 0.14559905 0.22137302 0.2387156 0.5311658 -0.39176127 0.269375 -1.5251861 -0.04455721 0.2781766 0.31108522 1.0793688 -0.6617146 0.8669609 1.0891632 -0.53185314 0.20449471 1.6066331 0.5975835 0.6379452 0.26041263 0.45170712 -0.76417685 0.23854107 -0.59476197 -0.08450237 -1.480184 -0.8319491 0.21249168 -0.0016284115 -0.16970253 -0.12474619 -0.96418965 0.6814992 0.686372 0.30966163 0.16509071 0.12235203 -0.332379 -1.0686694 0.4531434 -0.38501418 -1.1309123 0.9173207 1.342193 -0.6575347 -0.38791206 0.26393571 1.7140591 0.2062628 0.92373216 0.062089384 -0.861655 0.260232 1.6321875 0.23552041 1.5983809 -0.7409917 0.45403826 0.17855307 -0.40765652 0.6067019 0.08318366 -1.0829625 0.10169959 0.4456394 -0.7339496 -0.98756593 -0.5921064 -0.40139234 -0.029052244 -0.2017476 0.69121826 -1.851157 -0.15785582 0.35725376 -1.1976562 -0.3318231 -1.0990256 0.076356746 0.8609747 -0.01798785 0.19552019 0.34381267 0.0033318817 0.789742 -0.08144541 -0.08027291 0.13022 0.19416666 0.7311132 -0.024262408 0.13305321 -0.11755523 0.009982501 -0.44548658 -0.14537309 0.44875407
RSPO1 0.41878325 0.9926955 0.9729799 -0.044617273 0.63797706 -0.34336892 0.359115 0.10656263 1.2918422 -0.95066875 -0.34631598 0.29668576 0.515981 -0.80279094 0.9914836 -0.77499634 0.666231 1.2924023 -1.0656585 2.085584 0.11420684 -0.5177927 -0.11825776 0.58428854 0.5598867 1.3466629 -1.7115315 -0.1031641 -1.1930467 0.5640771 -0.009196557 0.12753792 -0.67842287 0.7870525 -1.1772004 1.8427458 -1.6206417 1.0406712 0.8843526 -1.1942854 -1.1786591 -0.9654349 1.4032495 -0.89376134 0.6384293 0.6700142 0.5232769 -0.037335236 -0.61444175 0.3293778 1.0795456 -0.7224228 0.8946491 -1.799894 -0.54492384 0.37328967 1.4878284 0.82826865 0.58515424 0.30255127 -0.37255162 -1.2379583 -0.26348448 -0.0025144736 1.1075082 -0.7402696 0.6714872 0.16471025 0.5727609 0.4440626 -1.0293108 -1.4811924 -0.04062061 -1.739705 -1.091343 0.483945 0.22991991 -0.39643145 0.5265603 -0.8877095 -1.2380702 -0.6515535 0.7885067 0.98706925 0.029186146 1.1428056 0.33250874 -0.18460734 0.71911436 0.5811294 0.8261397 0.51182663 -0.09693104 0.692849 -1.4030045 -0.13575305 -0.15348315 0.36269233 1.9745853 0.42497814
CDCA8 -0.061267782 -0.13592179 -0.48718095 0.7628651 -1.2464066 -0.89250886 1.2238215 -0.64607227 1.8792629 0.29604596 -0.5788801 -0.08140993 1.1313841 -1.5731039 -0.9009831 0.13827868 0.79108465 0.57396644 0.028470058 2.709045 0.03123469 -0.9117837 -0.36035466 -0.6098251 0.59894013 0.81728345 0.37078932 -1.194765 -1.942408 1.0826083 0.63388616 -1.0387404 -1.2413082 0.13196139 0.22681947 1.6932156 -1.7693446 1.3877461 -0.52499646 0.74865335 -1.610087 -1.1869991 0.53169334 0.15928447 0.7534351 -0.19004756 0.30584508 -2.2069674 0.034702707 0.5574739 0.24669853 0.3159627 0.11010624 0.2714473 0.34529912 -0.5081211 0.72951126 0.20414823 -0.6491118 0.46503437 0.30884856 0.44446754 -1.6901419 -0.22903071 -0.22746193 -1.0125842 0.70506287 -0.19334412 -1.2829369 -0.22013889 0.23911312 -0.35135013 -1.3822238 -0.8830542 -0.13712071 1.0985872 0.122602805 0.24019532 0.3545728 -0.13842762 -0.58105236 -0.076424375 1.2873769 -0.14968409 0.1582163 0.0067878463 -0.3241883 0.85254496 0.72391117 0.3365863 2.825082 0.2693098 1.8235829 -0.22004743 -0.22550239 -0.82816035 0.26052633 -1.0162618 0.5165373 0.7339121
MYCL 1.1335136 0.08637374 -0.8622444 1.381921 0.63069224 0.55543005 -0.8901706 -0.46088707 0.13456154 -0.30827096 -0.24124731 -0.84333247 0.18693352 -0.10259403 0.9510091 -0.155755 0.78846383 0.03774459 0.027619442 1.161017 1.82851 0.3366127 -0.014676228 1.2391489 0.19811064 0.9142225 -0.70790505 -0.06644024 -1.3852372 -0.8661526 -0.27652854 -0.14504918 -0.73243815 0.9129348 -0.33114955 0.2773046 0.03179554 1.07777 1.1691936 0.23013654 0.17851497 -0.41921836 0.0084733125 -1.1382755 -1.3013366 0.3488679 0.7112709 -0.6191783 -0.40501273 0.69462717 0.6972308 -0.49031073 2.0484369 -1.6945901 -0.69611496 1.1180212 1.3573564 -0.19348952 -0.15843235 -0.40302685 -1.0259789 -0.9799667 0.5312896 0.10943764 1.2693346 -0.7023468 0.26098055 0.72895825 -0.52425057 0.6730176 -0.35245606 -0.29918635 0.66090727 0.45802456 0.036267534 -0.6678112 -0.08491419 -0.20758569 -0.9065993 -0.09174357 -1.0783846 0.4268316 1.7661284 1.0465891 0.45018303 0.44759473 0.5780614 0.4098101 -1.2417196 -0.7820837 -0.8725682 0.27922055 -0.07997787 1.1896722 -1.4464413 0.033015333 0.22707795 0.35115868 -0.51718503 -0.045913618
COL9A2 1.3905096 0.6467638 -0.5943578 0.07611767 1.0892153 -0.17241976 1.1128224 -0.8671505 -1.0441617 -0.9732769 -0.7579279 -0.52450657 0.49415803 1.3500407 0.37725306 -1.0252203 -0.02477118 0.9254911 0.20169215 1.0592862 0.6757019 -0.6349315 -0.16378146 0.25077564 -0.5890944 -0.65491885 -0.049406305 0.050031506 0.13855942 1.0530372 -0.687859 -0.2849672 -1.501484 0.7759518 0.32796463 -1.0355105 -0.19704749 0.6291781 -1.1542308 -0.10525851 -0.488458 -0.34756947 -0.8759787 1.368617 -0.17226444 0.21539555 -0.19858776 -0.8952463 -0.43524897 -0.02591581 0.040605992 -0.396326 1.3515643 0.6736521 1.331733 0.54429156 0.9596959 -0.2717179 -0.1748055 -0.33328918 -1.0254754 -0.3446469 -0.4860486 -1.744958 0.6416452 -0.009130885 0.115893595 0.26814145 -1.1760004 0.0813494 0.31473345 -0.42918536 -0.11846379 0.5004554 1.3793627 0.79229957 0.30663574 -0.79099774 -0.6223709 0.2569463 -0.5066015 0.39900178 0.5126958 0.8801676 0.053026374 -0.57348406 0.6948038 1.626964 -0.43412843 -0.21668012 0.058486745 0.6459807 0.40569508 0.5138281 0.70305127 0.052712433 0.029560758 0.101608664 -0.10720631 1.0338004
CITED4 0.1401438 -0.23323412 0.8769811 0.118785016 -0.14477281 -0.7538987 1.4125515 -0.44172582 0.43211585 -1.0311643 -0.57667255 0.03698733 -0.39963323 0.55701035 1.2042271 1.6340464 1.5735067 -0.08732716 -0.12729426 0.39693558 1.2384505 0.8185856 0.4355131 1.151821 0.17294057 1.0360765 -0.5498825 -0.3908864 -0.17414424 0.2544142 0.6253838 0.32592732 0.13145009 -0.7462784 -0.24289645 0.55577064 -0.14752516 0.32238528 -0.30139378 -0.025242703 -0.73756087 -0.8312226 0.26053435 -0.00074419245 0.10972392 0.02949903 0.5819826 -0.9475173 -0.01430326 0.24047928 0.42928976 -0.64113104 0.26617175 0.36244988 -0.7788448 -0.3794399 0.048253763 1.3858111 0.40073973 -0.3244728 0.12003246 -0.19592887 -0.6323719 0.20840482 0.29281563 -0.2626882 0.13062191 0.9025089 0.9309902 -0.7541238 0.49023092 -0.36092606 0.015700193 -0.5508196 -0.46822822 -0.101002134 -0.4444629 0.86439615 0.14238007 -0.59469634 -1.2865669 -0.044059064 1.4941887 -0.89697075 0.3569491 -0.13990639 0.8554141 0.37750557 0.25317517 0.35801277 -0.8756416 -0.36320928 0.9615059 0.07616772 0.8247045 -0.6571168 0.10959211 -0.903766 -0.65285647 0.3727613
EDN2 0.20553951 -0.93398094 -0.44092715 0.40411758 -0.10648529 -2.3492696 -0.10129399 -0.42261848 0.8601021 -0.5159222 0.093897924 0.044464834 0.8087618 1.4819471 1.373813 -1.7918537 0.39369017 -0.41683868 0.42284608 1.5249511 -0.44111603 -0.07735275 0.014436588 2.7431748 1.7970729 0.97993845 -0.47530395 0.38279194 0.27700832 -0.1302243 -0.6197968 0.3279548 -0.28333637 -0.8334257 -1.4143513 -1.0769937 -1.7812685 -0.7659532 0.067571916 -0.25065035 -1.3556784 -1.3273994 0.8662234 -1.3588557 1.0528791 0.12133602 0.9827779 -2.1058946 0.87355655 -0.021168016 -0.13347752 -0.18311244 1.4242561 -0.5350108 -0.11945265 2.5852616 -0.03209482 0.71176124 1.0976664 0.21475568 -0.4563657 0.3634131 -1.4692589 -0.77400297 0.13605085 1.0795636 -1.1093162 0.005373923 -1.0992997 0.78531647 0.09222995 -1.4618165 -0.97447014 -0.02617873 -0.8636556 0.78442484 -0.24093415 -0.27361372 1.1644698 0.075722694 -1.1299723 0.0733027 1.0767958 -0.7535717 0.32521775 0.6436582 -0.4928273 0.4516808 -0.35504377 0.0379616 0.4476697 1.4643093 0.58207685 -0.45667785 0.21887358 1.0970207 -0.029157419 -0.7824706 0.18074496 1.3139017
SLC2A1 0.7261856 -0.087251045 -0.5245934 -0.45598748 -0.45291647 0.13533615 1.0636115 -0.20265974 -0.11195726 -1.2475919 -0.11574337 0.42347115 0.0125374375 0.79043925 0.6622985 -0.145939 0.6434413 -0.062352628 -1.0051088 1.0964057 0.21617289 0.54239285 0.98304677 1.010216 -1.0436528 0.37617472 -0.57816327 0.96571344 -0.057261538 0.462479 -0.23658296 0.33394882 0.028199207 -0.4736502 0.6141744 0.28764868 0.20047596 0.3108805 -0.54728365 -0.4671335 -0.9383046 0.24983193 -0.27277696 0.8845907 -0.23727804 -0.069890685 -0.12500744 -0.045267437 -0.88850456 0.44589868 0.85410887 -0.3839405 2.0592718 0.4655904 0.26133132 -0.0747087 0.9369662 0.60179687 0.36366403 -0.09605983 -0.41869155 0.1821136 0.00095958787 0.92921555 0.15917313 -0.71306986 -0.408958 0.50663835 0.33070835 -0.5070228 -0.08775371 -0.2538485 -0.73547035 0.29017934 0.6489328 -0.27951106 0.38545427 0.8185466 -0.8200283 -0.42179415 -1.3147314 -0.96590585 1.2324185 -0.5346877 0.116034195 0.6525962 0.16100408 0.6736552 -0.008381764 -0.21772358 -0.7063565 -0.33309752 0.7346576 0.7370986 0.22509728 0.3426836 -0.45092338 -0.039242536 0.38214585 0.81653726
FAM183A 0.8336612 3.4738274 -1.0226321 -1.2906667 0.29899463 -0.8661879 0.5221558 -0.27996323 2.6421175 -1.2910216 0.3503335 0.47922373 0.34586886 -1.2119316 -2.3198218 0.93417424 1.6733649 -1.8414793 0.4497636 0.73690385 -0.4415354 0.23649132 0.50625527 1.4435525 -1.6760961 0.69812334 2.0879178 0.29270878 -1.1753455 -1.8651643 0.9135257 1.5694014 0.70408475 1.2327822 -0.6947235 1.5764397 0.90257865 -1.0481594 -0.44860506 -1.0045308 0.40506145 -1.3029158 1.2050484 -1.5699832 -1.3407042 2.2481828 0.85372615 -1.1329014 -0.9862192 1.0848548 -1.6853951 0.47930944 0.83300793 0.6153396 -0.52724624 1.6666386 0.17318408 0.10800457 2.3687341 -1.8252618 0.59856427 -1.988573 -1.1487428 0.86366135 -0.5495793 -1.7458867 0.30286697 -0.34173897 -1.02047 -0.5132314 0.17032035 -1.0709692 -0.06631649 0.2609473 1.3238837 0.3239388 -0.6293043 -1.2755775 -1.0717714 1.0888649 0.76075757 0.4726585 2.1209986 0.2761501 0.18587461 1.5814226 1.7919846 1.5831954 -1.9328563 0.23549412 0.09028745 0.30144665 -0.6239116 0.42992958 0.7516257 -2.676489 -0.35270175 -1.4440004 -1.5529209 1.207705
CDC20 0.8666391 -0.17249401 -1.2213081 1.7797657 -0.5081639 -0.8504295 -0.44886294 -1.6115943 2.194071 -0.8326253 -0.4665204 -0.521119 -0.28950343 -0.24690507 -1.4881777 0.10681725 1.6093479 -0.15688059 -0.10159759 2.1173651 -0.40484408 -0.7751229 0.1673224 -0.016395444 -0.99135077 0.57313794 0.10263017 -1.0204707 -0.76438695 -0.2653035 0.2660144 0.7348901 -1.9072247 0.4754886 -0.6984844 1.2078155 -1.1073661 1.2457359 0.11672983 1.2136124 -0.21623375 -0.61754537 1.0351918 1.0195581 -0.80113184 1.0554063 0.7968212 -1.0779971 0.38323554 0.65755945 -0.09757461 0.67238444 1.4829036 0.6017537 -0.7045291 -0.2771446 1.7389839 -0.2224143 0.105169654 -1.3318708 -0.9539432 0.57047963 -0.68762505 -0.32734582 1.209389 -1.3064582 0.060499083 0.09155915 0.26672047 0.66479516 -0.9037517 -1.1222873 -0.25507274 0.43299738 0.93146557 1.2035686 0.43477806 0.5307208 -1.2885942 1.2638546 -1.4013 0.2667499 2.6784892 0.2148945 -0.95808977 1.6368781 -0.40039545 1.8896663 -1.8809909 -0.8512802 0.7343827 -1.6598338 1.7576538 0.26973388 0.027112499 -0.6903212 1.5631567 0.20218347 -0.7383675 0.10280101
ARTN 0.15217514 0.0073087164 0.0022361095 0.5819711 0.9162794 -0.4971165 1.2011777 -0.83841944 0.14068589 0.46243182 0.2511009 -0.07302414 -0.14177445 0.4925479 -0.34008506 0.04291582 -0.11004322 0.946634 -1.0995606 0.90745944 -0.7639197 0.51610535 0.36574915 0.4723266 -0.052072164 -0.9483353 0.28621218 0.47843394 -0.08975504 0.81816316 -0.6810452 0.0644317 -0.5931726 0.49777433 -0.4883093 0.7403643 0.2529592 -0.2936886 0.15779544 0.16787791 -0.6944109 -0.72425675 0.6737113 -0.75257653 -0.1946357 1.1858565 0.04861643 -0.045886733 0.13726392 0.60618764 -0.66157824 0.6986701 0.020652125 0.26083034 -0.37836698 0.4055094 -0.43872678 0.7822134 0.8179167 0.004856449 -0.6847417 -1.6245824 -0.51880825 -1.1649653 0.29115242 -0.37411338 0.31356204 0.9909856 0.004412452 0.46308157 -0.24826896 0.8066593 -0.2865244 0.9687271 0.8394083 0.7911648 0.42875028 -0.17142205 0.6326542 -1.0823548 -0.87630683 -0.40084732 0.58478564 -0.44979027 0.14480609 -0.24469222 -0.24216911 0.52608633 -0.1445595 0.32105306 0.29414165 -0.26478377 0.13054964 0.13712475 -0.82074964 0.7492597 -0.21778946 -0.61166763 0.6258042 1.0476652
KIF2C -0.12528786 -0.34419927 -0.6399314 0.8034041 -0.9466854 -0.80870223 1.8998177 -1.0797623 0.59504026 -0.7031916 -0.15313998 -0.15996538 -0.96445614 -1.116049 -0.7304969 0.12558492 -0.4335346 0.17952473 0.77840424 1.0720158 0.5189694 -2.3606672 0.08467149 -0.715408 1.2779224 1.6845888 0.35245377 -0.46765572 -2.819753 -0.44642362 0.83785945 -1.9014695 -0.6884968 1.2277818 -0.42444193 1.0840932 -1.4392071 2.5626285 -0.6601791 0.22950582 -0.95709944 -1.564215 0.06813786 0.51168627 -0.59277034 -0.28228304 0.6362818 -0.45631474 0.6177386 1.066125 0.10673479 0.38387978 -0.12280408 -0.14271472 0.13733985 -0.13689397 0.3443425 -1.2783353 -1.5618504 0.7292529 -0.5569937 -0.28684905 -0.73940945 -1.5534369 -0.58069336 -1.4939084 0.8543998 0.20496336 0.41505614 0.3762684 -1.1381528 -0.2785698 -0.44666287 -1.0115901 1.9855502 0.90188354 -0.58469176 -0.37705195 -1.2066388 0.45936292 -0.07225584 0.07076982 1.6727207 1.4619851 -0.24225016 0.05618532 -1.3990147 1.6201991 0.024750909 0.78619784 2.7942324 -0.19083424 1.3594478 0.853844 0.99445873 0.269006 0.55124503 -0.6405733 1.0709653 0.7320302
PLK3 -0.4179007 0.2137208 -0.012085318 0.7371724 0.27205348 0.0903389 1.2647407 -0.3976815 0.18885238 -1.2177297 -0.5602578 -0.0550827 0.9768535 1.1945679 0.531506 0.68732154 2.334942 0.20144142 -1.4771016 0.8402487 1.7754743 0.37936094 1.0759447 1.1316466 0.6091591 0.9544181 -0.19265057 -0.388267 -0.6496673 0.37257105 0.32606778 -0.5611835 -0.33289024 -0.41958058 0.21693364 1.0469686 0.018664349 0.89061624 -1.0262218 -1.0195383 -0.9183065 -1.3743714 -0.13084865 -0.25726515 0.0477883 1.1379665 0.0723507 -1.1548426 0.22354008 0.21199656 0.40436545 0.4384702 0.88816345 -0.24985793 -0.6187061 -0.638787 0.44165492 0.08126836 0.25866288 -0.15212049 -0.05678361 -0.5163083 0.14834873 0.12404515 0.40753132 -0.849314 1.1572444 0.7292724 -0.08507053 -0.06737661 0.72347283 -0.20624557 0.43510088 0.1888518 -0.89411426 -0.06791555 -0.34126762 0.04198973 0.26761264 -0.5291165 -0.9723765 -0.6063868 1.1950464 0.32872114 0.29770434 0.030539501 0.3561193 1.3683003 -0.111224934 0.09709627 -0.8280501 -0.49828175 0.7605775 0.4829949 -0.7790417 0.043634642 -0.22027422 -0.9679506 0.414996 0.6255651
TCTEX1D4 1.0738195 1.5264698 -0.1627123 -0.21994464 0.073346615 0.82376295 -0.15672933 -0.929121 1.4321113 -0.88246566 0.7471469 -0.3147275 0.007072535 0.57496125 -2.8485458 -0.48376814 1.0109216 -0.018701235 0.06623736 0.088117115 -0.36398387 -0.33577907 -0.626546 0.69710904 -0.7743041 0.32796943 0.780205 1.4834777 -0.868448 -0.6402009 -0.31599268 0.7117994 1.2799623 0.19518131 -0.27648947 1.5532335 -0.040613357 -0.74103695 0.26000825 -0.9758441 0.28034028 -0.33827275 0.76835924 -0.14162277 -0.93714976 0.38749543 0.6796724 -0.42485625 -0.5498582 -0.34484407 -0.34741464 0.9530631 0.68645185 -0.38350797 -0.79601705 0.23358153 -1.6953601 -0.396767 2.0644207 -0.8059384 -0.39268762 -0.3424714 -0.28741735 0.22814105 0.06472818 -0.518602 0.57998055 -0.49290094 -0.4117932 -0.0401972 -0.3844351 -0.8905175 -0.027017435 0.98658556 0.4829992 -0.30323005 -0.55892235 -0.23491438 0.854999 0.30013692 0.45765534 0.28761494 1.2818432 0.8446085 0.2763007 1.1147202 0.23395391 1.1171879 -1.3865002 0.23045586 -0.46688905 1.089202 -0.15284787 -0.50701386 0.2964317 -1.8783085 -0.34032804 -0.78138566 -0.3215076 2.5034852
NASP 0.14453709 0.06031424 0.20036034 0.6740793 -0.19843511 -0.57330173 0.7286146 0.062173594 -1.2807101 -1.7698005 -0.08181854 -0.6405907 0.62867963 0.6750754 0.15768634 -0.25687808 0.8675488 0.4353898 0.14543943 0.27655867 1.2079958 0.7360156 0.45454723 0.36646578 0.54966587 0.27102667 0.95746714 -0.2786698 0.39419442 0.41147214 0.16227 -0.17422841 -0.06834128 -0.047005877 0.4746457 -0.13328026 0.1346776 0.9084493 -0.6125191 -0.022696685 -1.1675501 -0.5984943 0.286527 -0.09129174 0.14677383 0.15814191 0.23387733 -0.98874694 -0.28181592 -0.12850708 0.16383463 0.2447875 0.80233496 0.26844758 -0.25968513 0.46379387 0.41188413 -0.41505325 -0.43803447 0.67929596 0.29967245 0.4985754 -1.1000674 -0.07498326 0.28871587 -0.038757216 -0.6467352 0.55149615 0.46327808 -1.4182928 -0.27295268 -0.705944 -1.3499523 -0.9312529 -0.014857174 0.12675056 -0.34588307 1.1285129 0.019602807 -0.9988921 -0.9294905 0.50793505 1.0348164 -0.70925444 -0.17848541 0.56618404 -0.14833976 0.8603117 0.103495724 0.08640005 -0.80984384 0.44167647 1.2594746 0.71762276 -0.11231182 -0.15065368 -0.050572023 -0.6312626 -1.1554911 0.7502328
TSPAN1 1.688683 -0.44986394 -0.03791789 -1.4093364 -0.3982545 -1.1592579 0.45832294 -1.6114888 0.09233825 -1.7063991 -0.25511062 -0.51005435 0.49636152 0.54933524 0.66581035 0.3058259 0.6365905 -1.1432189 0.576578 -0.65187955 0.30523044 0.7846921 -1.2184525 0.94450516 -0.23129293 1.1394119 1.0498987 0.8545476 -0.094368316 -0.4481941 -0.04297419 2.180872 0.20743728 -0.26130378 -0.8414482 2.073691 0.39393482 0.89002633 -1.4195342 0.00530872 0.2370703 -0.41218656 0.029205661 0.8368971 -1.1062527 0.12867245 -0.13849244 -0.029122539 -0.5409633 0.81189513 1.3388604 0.13609985 0.7226378 0.8992507 -0.9203684 1.0570211 0.34411865 0.77431 1.9502351 -0.82461464 -1.7143471 0.089490026 -0.5872691 -0.12694846 -0.9265111 -0.49975157 -0.23196869 1.7708843 -0.013665937 -0.20461424 -0.43345195 -0.37863332 -1.3085338 -0.42217994 2.613411 -0.19342987 0.5788117 -0.36130524 -0.5752806 0.10677186 -0.46033287 -1.4512964 0.15582368 1.0669708 -0.5015497 1.142964 0.49695492 1.2080779 0.4285299 -0.8140435 -0.39194325 -0.9295009 1.6447768 1.243387 2.5282238 2.4783688 -1.2009358 -0.34028307 1.0443184 2.0218625
LRRC41 0.570671 -0.23271233 -0.016896235 0.15781274 -0.15649147 0.3543791 1.7183229 -0.86146325 -0.64536476 -1.4444481 0.23538552 -0.14779754 0.3521261 0.7729509 0.14199789 -0.85177284 0.3408839 0.40333566 -0.9937583 0.884762 0.6896635 0.41077316 0.89394045 0.35125044 -0.81973886 0.23647013 0.2437934 0.5486879 0.13328348 0.22360788 0.04659112 -0.1328203 -0.22669218 -0.25063568 0.21013747 0.14339195 0.7478525 -0.24775542 -0.61046284 -0.46120822 -0.7964013 -0.82548636 -0.5462062 -0.31867927 -0.5370918 0.4781596 -0.8053898 0.2646385 -0.077378966 -0.0050105103 0.06475591 -0.032489363 1.3029764 0.54621726 -0.061685126 0.13581239 0.72459453 0.15655135 -0.07570686 0.7261885 0.06926526 0.11804084 -0.6434839 0.50761265 0.6896074 -0.11104024 -0.8845777 0.843124 0.6860197 -0.5643356 -0.084830515 -0.39822006 -0.66849095 0.54662704 -0.07386944 -0.039504535 -0.044577938 0.5062488 -0.5546414 -0.5421608 -0.93794906 -0.52817667 0.98974466 0.02764657 -0.042517733 0.596939 -0.6051199 0.02960077 -0.26406094 -0.70900506 -0.11465258 -0.01967343 0.85586655 0.3215826 -1.1703033 0.6274316 -0.1088378 -0.33460882 -0.083018504 0.79778403
UQCRH 0.39143136 -0.03198822 0.57764417 0.41082078 0.08654764 0.28006288 1.0935298 -0.824335 -1.1690905 -0.8402624 -0.35424143 -0.6886748 0.19653703 0.29104635 0.34998763 0.44684213 1.0549396 -0.32449144 0.55777526 -0.21817808 1.78101 0.8271866 0.23508218 0.43344837 0.39173132 1.1719774 0.7384279 -0.19770873 0.60197246 -0.39737067 0.8435707 0.37468252 0.10806187 -0.036170878 -0.23489046 -0.24600896 0.64879423 0.7700688 0.2124053 0.012551293 -0.83348674 -0.79870874 -0.3882143 0.31273165 -0.69217205 0.7939334 0.855036 -1.063718 -0.35013193 -0.31646734 0.19774887 -0.5701986 0.37910143 0.5859412 -0.9736013 -0.044453632 -0.11560269 0.52140987 0.2055251 0.7194559 0.020930765 0.2415865 -1.1194355 -0.25729212 0.26323357 0.41534704 -0.7447291 0.64431024 0.66016144 -1.3424067 0.21873492 -0.19262238 -0.7487174 -0.6084549 -0.055423338 0.08234499 -0.5547348 0.62192965 0.27387592 -0.16259724 -1.2993805 0.15450855 0.777189 -0.08588786 0.5604943 -0.36377186 -0.28552392 0.5719974 0.013873484 -0.64509803 -0.8414564 0.30790296 1.0856959 1.0160314 0.4813653 -0.10236751 -0.30325592 -0.2548697 -1.0061913 0.48415777
CYP4B1 1.9062723 0.46012533 0.7405166 1.0846782 0.8978588 -0.33457622 0.50388664 -0.46972895 -1.5523096 -2.5337036 -0.66498536 -1.270556 1.4276875 1.0888586 -0.30782312 0.7580673 1.4907426 0.33617646 -0.8014793 1.299322 2.0244303 0.5233395 0.73716754 0.59351504 0.5367536 2.3090062 -1.0972215 -1.0442897 -1.0938302 -0.90538704 0.33076152 0.11703223 -0.19481114 0.5226275 -0.62301016 1.876866 -0.8757154 1.2844272 -0.3910499 -0.89035827 0.28635478 -1.6445656 0.12215806 -0.5425271 0.19336712 -0.8113813 0.95336205 -0.34379786 0.32944793 -0.4556696 1.3192456 -0.9847088 0.47236297 0.002429477 -0.6746768 0.87976414 1.126319 0.4022793 -0.020172033 0.09285673 0.378154 -0.4828548 1.2497427 0.15750985 1.5464537 -1.4963627 0.361438 1.0574666 -0.3153428 -1.1197594 -0.3471589 -0.73258084 1.4375665 -0.1844153 0.049421865 -0.36192378 0.39908573 0.8080288 0.4558348 -0.08998455 -0.80972296 -0.1222657 1.2799135 1.5193585 0.066783525 -0.70153105 0.31451753 0.30219063 -0.4665995 -0.42549574 0.513515 0.3940793 1.6439624 -0.46441293 -0.30658984 -0.7782879 -0.7359854 -0.19819185 1.1113889 0.70295525
PDZK1IP1 0.9222189 -0.30790785 -0.17672774 -0.024531718 0.39800936 -0.59389764 0.5743665 -0.70162153 -0.89884764 -1.5107177 -1.2829008 -0.38032013 0.23881187 0.11579624 0.6750312 1.4564393 0.9116762 0.0139699085 0.42534673 0.54985917 1.0594923 1.1544784 -0.17211194 0.8572993 -0.037684407 0.6169475 0.083292924 0.15090637 0.21347792 0.07633376 0.23125081 0.20467038 0.25314027 -0.70716965 -0.12502539 -0.37824413 -0.53503114 0.62915874 -0.69640315 -0.6087892 -0.76047295 -0.42669073 0.1416548 0.03060727 -0.27344143 -0.5345756 0.9390435 -1.0283895 0.6754228 0.0047981427 0.58165395 0.2475293 0.018616756 0.039438892 -1.7930002 -0.50809675 -0.64208424 0.63949555 0.911279 -0.76547134 -0.3606673 0.15538566 -0.337096 -0.36108023 0.0047269296 -0.36380747 -0.84533995 0.4779394 0.6535158 0.3103999 0.7130711 -1.046304 -0.41964597 -0.61404854 -0.10836274 0.37929988 0.48544767 0.63523436 0.8697629 0.56746125 -2.137629 -0.063320525 1.6085087 -0.017436454 0.28587645 -0.42856878 0.0963986 0.28769395 0.09479269 0.2680462 -0.12815098 -0.6251589 1.3244966 0.2188998 0.519663 0.55805135 0.20919254 0.4251423 -0.2247324 0.096878424
FOXE3 1.059879 0.1181575 -0.08450492 -2.3370943 -1.4352479 -2.493702 -0.005699006 1.3248714 1.3078942 2.0195549 -0.052173276 -1.3857385 0.38502073 -1.605334 -3.2090821 4.3064837 2.1658306 0.0408342 3.8868399 -0.86618465 -1.1065319 -0.42441884 0.19600907 3.425237 1.4687028 -1.1783322 3.2283993 1.249518 0.6766409 1.9992863 -1.2852371 0.15305835 -1.7890254 2.7889411 -2.5869982 1.99271 3.2934434 -1.3497115 -0.13553551 -2.7141702 -1.5203757 -2.2641196 1.3940119 -1.0047973 -1.0786625 1.3873055 -1.1366789 3.128268 -1.6371027 -1.0549449 1.5341222 0.86006093 -3.7698376 -0.59463364 1.4134364 1.770183 3.0771532 -3.9116302 0.47418326 -0.95507747 2.5483296 -0.6084319 1.0692171 1.139472 -0.37713796 -4.6625156 -2.8885267 -1.5948062 0.76109856 0.4427736 -2.960291 1.184766 -3.0490532 3.9755304 -1.478845 4.8695765 -4.1236997 -1.15709 -0.44069293 -0.6091813 -5.050486 1.3821325 0.17838459 2.842578 0.11835523 2.581901 0.046666015 -2.8323636 1.4706064 0.99219745 1.2197168 -0.4289883 -1.534899 4.9947743 2.668723 -2.6505249 1.2401625 0.659772 -1.9507713 -1.8215404
CDKN2C -0.2347796 0.042298853 -0.0025640177 0.5217812 0.4153587 -0.1693536 0.56329 -2.4178903 -0.8317751 -2.2410185 0.1691517 -2.392764 0.8088802 1.2211128 -0.051056765 -0.38604343 -0.124535695 0.034841396 0.17612484 0.1445074 -0.06425297 -2.34968 0.8495031 0.06415406 -0.09800392 0.54332834 0.7193157 -0.46326825 -0.47988907 -0.20836195 0.7563336 -0.20489891 -0.6869097 -0.20799235 -0.9304675 0.05035588 0.5177652 0.39060295 -1.1653702 -1.1925832 -0.62371296 -1.4350176 -0.3501657 0.5814686 0.10109951 0.6814124 0.65260005 -1.6468452 1.4546932 1.2040681 -0.35132837 -0.1830986 0.5133574 0.8817974 0.87379396 0.39080608 0.74856734 -0.7349307 -0.23251268 -0.32203466 -0.7489782 0.86932164 0.12686926 -1.0419188 0.2426071 -0.45598486 0.19061437 -1.0800126 -0.78259796 0.34814367 -0.19937794 -0.75857717 0.018324222 -0.721068 0.14016733 0.71696717 -0.45563567 -0.03807527 -0.31468967 0.8994894 -0.79825467 -0.061017707 1.1028352 0.77334756 0.4402929 -0.34960675 -0.16113088 0.6800666 -0.55277705 0.40221244 2.1716492 0.022257201 2.11313 0.030149946 0.24882132 1.1817696 -0.06364637 0.6718873 -1.1029288 -0.50696784
DIO1 -0.19637638 -0.5437984 0.7833389 -0.14851524 0.79125184 -0.7965322 -0.4666153 0.12405282 1.4055023 1.0761123 -1.5702162 0.34995645 -0.18537183 -0.6297915 -0.100759305 0.26408753 0.382738 0.02578344 0.83623624 0.30401704 -0.18705234 -1.0109658 -0.9751925 1.002889 0.53358734 0.2840885 1.4258482 1.0205029 -0.119473316 0.14839019 -0.1526221 1.0189317 -0.094613045 0.32011485 -0.25539243 0.43732402 -0.23498362 0.6041405 0.21584728 -1.3274795 -0.7708984 -0.22667462 -0.90836334 -0.50943065 0.44656175 0.58590955 -0.4804591 -0.5147151 -0.79087925 1.6080523 -1.70518 -0.70028675 0.5898259 0.44235736 1.5333478 1.4427676 0.76972646 0.21290639 -0.1166117 -0.62549186 0.10674068 -0.92360115 -1.3614436 -0.34223506 0.48219034 0.28862265 0.34775954 0.27489826 1.2081474 -0.19148757 -0.21214858 -0.48538125 -0.20463723 -0.55143887 -0.34624046 -0.70214725 0.080030836 0.33276153 0.55974346 1.3947169 0.6667624 -0.5895537 0.2692682 0.57088894 -1.0855337 -0.70422167 0.805353 0.5655447 0.35695985 0.3897703 -0.4404308 -0.7864936 -0.8732964 0.84114534 -0.6285085 -1.0368177 0.49895096 -0.6674026 -0.78683126 0.6293541
LDLRAD1 0.23108217 1.2002999 0.6662141 0.49764803 0.9233507 -0.4590491 1.4180135 -1.2428095 0.94216865 -2.1539874 1.4504783 -1.0597769 -0.078498565 2.270493 0.004442376 1.1387491 2.1901174 -0.032467905 -1.421229 0.45014894 0.71814805 0.073088706 -0.2623998 0.73090434 0.49226215 -0.3900991 -0.34935609 2.0422595 -2.0841994 -1.2066691 -0.6005521 -0.46358645 -0.23392649 -0.26637813 -3.0630822 0.8327272 0.38487747 2.1800866 -0.57011044 -0.91908145 0.06974837 0.021239763 -0.58157194 -0.78521776 -1.6426682 0.5372717 0.9841621 -0.045385115 0.046178628 0.68799716 -0.04007156 0.14874496 -0.15109985 0.37573785 -1.030378 1.5760617 0.23629579 -0.45084006 1.7920958 -0.29430398 0.7026282 1.4853055 -1.0802429 0.17531502 -0.05371311 -1.9361507 -0.08405275 0.5523083 -0.48707858 0.5174243 -0.2591441 -0.10402518 0.54939693 -0.360677 0.82507944 -1.0801219 0.12984626 0.4937785 -0.48223475 0.13057657 0.6342594 -0.8068935 0.10319789 0.3445 0.077578194 0.24908079 -1.1008236 3.1065931 -1.6944593 0.87289935 -0.3869577 -0.22604455 -0.79328424 1.4411428 0.936791 0.86978924 -0.8501816 0.39441746 0.7863072 0.66367066
PLPP3 -0.8565537 0.56666887 -0.79362464 -0.06757637 0.44059035 -0.7369501 1.889191 -0.28859308 -0.6413677 -0.7125095 -0.8452571 -0.22599326 1.7163724 -0.2848418 1.3532872 -0.32448477 0.7389888 0.78704494 -0.092344016 0.9258229 -0.55540913 0.030312615 0.046164006 0.8144637 0.8178521 1.2618781 -0.30553392 -0.109386265 0.022569777 0.40455478 -0.46122718 -0.2575709 0.2009288 -1.990523 0.19369417 1.7815478 -1.2739823 0.6354955 -0.89974755 -0.32306826 -2.5483902 -0.37671885 0.5654973 0.87732434 0.038681168 1.6236966 -0.23770176 -0.22170852 0.6219714 0.7501256 -0.31263015 0.66958225 0.97468877 -1.4840623 0.13465202 -0.5919794 0.9780221 -0.07427809 -0.66673887 -0.31960014 -2.2295494 -0.54707783 -0.52820677 -0.359433 -0.12106265 -0.9468119 0.83375376 -0.37498608 0.32444364 -0.48051012 0.9529336 -0.93123204 -1.4575953 -0.0222991 1.4386524 0.8473528 -0.8199493 0.28373757 0.2669845 -0.6644025 0.4682858 -0.116070084 0.18710254 0.2486117 -0.1038599 -0.3459323 -0.052592658 1.2553228 1.1816688 0.9793028 0.62645316 0.33183017 -0.9677695 0.22122389 1.5157181 -0.57150143 -0.11307887 1.0126784 1.6357206 -0.29946113
TACSTD2 0.28899035 -0.72150207 -0.13517566 -0.028002627 0.11271586 -0.5211067 2.3145046 -0.13105184 -0.45709616 -1.2092739 0.35120246 0.5566082 0.04690568 0.77907574 0.8398553 1.054721 0.72629887 0.6004168 -0.32940632 0.6472149 0.3124343 0.573935 1.4576055 1.4491585 -0.62112856 1.0711192 0.35235307 0.2905433 -0.2838677 -0.2912873 -0.13976268 0.27916524 0.28797376 -0.101356536 0.27028996 0.3715697 -0.3377023 0.16524416 -0.3154631 0.36383143 -1.169031 -0.39173955 -0.24468896 0.49446192 -0.6817703 0.67348355 -0.7302465 0.026509868 -0.5982182 0.3638895 -0.039398838 -0.18940844 0.82288945 0.3673845 -0.19206361 -0.23174118 -0.36220932 0.7868866 1.0428889 0.35546443 -0.3668747 0.29954046 -0.4407107 1.2420404 -0.5449701 -0.5114265 -0.20244369 0.81660545 1.3997108 -0.99296296 -0.5155048 0.5333178 -0.5126245 0.5309682 0.81656414 0.2618804 -0.23589386 1.0959576 -0.54959905 -0.78461784 -0.98263764 0.24272862 1.219573 -0.15631886 0.14696035 0.1437875 -0.0098256385 0.3268626 -0.15431462 0.7501792 -0.48515582 0.13010757 0.65774804 0.5365336 -0.2981661 0.6888891 -0.06962569 -0.43850857 -0.31226042 1.008366
FGGY 0.8736455 -0.02922035 -0.549188 -0.4026249 -0.06760367 -0.37148473 1.1294104 0.33420482 -0.42752314 -0.5906412 0.107054986 1.3180417 1.0148814 0.1710967 -0.41380188 0.36056668 0.800634 0.84919244 -0.2439203 0.5610804 1.5596464 -0.48478404 0.3099688 0.3777212 -0.49789947 -0.30018157 -1.0526413 0.30931213 -1.5259469 -0.48189506 -0.2308138 1.0317672 -1.2640601 -0.5440069 -0.3605021 -0.031929445 0.11481858 0.95454425 1.0759469 -0.34292012 0.43854722 0.09290501 0.6678332 -0.7641794 -0.6380694 -0.5488687 0.46253893 -0.035199992 0.41322413 0.9041722 0.9844799 -0.6661652 1.3520961 0.21089572 -0.26664263 0.43941745 1.1759815 -0.17231344 1.5898279 -0.35636064 -0.25758985 -0.018302815 -1.3635219 0.20078716 0.08582209 -1.2602934 0.33649597 1.4933197 -0.7436146 -0.004577938 -0.42104515 -0.7094548 -1.2711741 -0.69750255 0.58419496 -0.7769592 -0.59951997 -0.12677813 -0.3667489 -0.7301321 -1.3761399 -0.98967093 0.74842036 -0.12890095 0.2210188 0.39967984 0.77870154 0.48334056 0.07605328 -0.28769022 0.22697283 0.39452717 0.13860284 0.2428801 -0.54410905 0.34098688 -0.5737602 -0.33730963 -0.048750736 -0.25311068
KANK4 0.03930824 1.2029969 -0.67789966 0.8468069 2.00608 1.3906226 -0.5819944 -0.79962575 0.76817054 -0.25429493 0.61924285 0.058415107 1.127372 0.82336867 -1.2906597 -0.6720854 1.0083058 -0.7777687 0.40399355 0.56411004 -1.2165788 -0.123726584 0.9427832 0.1733552 1.020657 -0.0036595254 0.33762947 1.3864907 -2.6060152 -0.3092922 0.77526116 -0.18764266 -0.8069181 -0.18043488 -2.2216334 0.51810503 -0.37731013 1.4679652 -0.095142275 -1.8681259 0.38429213 -1.0073153 -0.15902694 -0.5250498 -0.815578 1.3931019 1.0659078 -0.44260466 0.012575117 -0.07965387 1.671612 0.14969683 0.7643918 -0.9055933 -0.3663974 -0.15383619 1.1220629 -0.21581265 1.3500651 0.7560028 -0.15974875 -2.1668086 -0.6575644 -0.2140298 -0.20124234 -0.23849888 0.28110638 0.46039355 0.5250625 1.5858968 -0.42888665 0.09255896 -0.11080961 0.76639557 0.76856434 0.049195364 -1.7044045 1.0191334 -0.48523778 0.31109464 -0.65819144 -1.4552193 0.09529589 -0.26794997 0.47042626 0.18334942 0.67220175 0.7520656 -1.3234459 0.4539517 -0.1586168 0.12376785 0.048252888 -0.1978947 -0.5157411 1.0730995 -0.40327322 -1.6910726 0.095534794 -0.50290126
TCTEX1D1 1.2456515 -0.8449372 0.08551631 0.6878042 -0.03762339 2.3807437 1.3211731 0.19789685 -0.44561714 -0.6531138 -0.93001044 1.2662313 -2.9575846 -1.3874699 -0.7267021 -0.46810794 -0.54768807 2.140552 -0.36464378 -0.52864385 -0.6588548 -0.037338134 -1.0596647 1.977451 -1.5915158 0.82262313 0.45110738 1.2370478 -1.7700787 1.7058324 0.49616915 2.0833726 -0.9789719 -1.6586872 0.7055572 2.754715 0.74716955 -0.36154068 0.7451032 -3.4257112 -0.061134577 -1.9355533 -2.4960444 -1.8002745 0.82843566 0.264986 1.0382059 0.05488296 1.1237054 0.68599194 -2.149985 1.4477117 -0.56606555 0.53525126 0.2093999 -0.61897707 0.5734411 0.70780975 -0.0809568 -1.2035252 -1.0599811 -1.5546286 -0.20233683 0.55408204 0.13193773 -2.196787 -1.3958535 -0.93429446 -0.50718236 0.4207337 -1.96192 -0.6742138 -1.7807815 2.176705 -2.4070125 -0.26467577 -1.1019248 1.1660278 0.4649078 3.2155962 1.3138906 0.5001191 -0.73090464 2.367549 -1.2620445 0.5804278 2.30838 3.1961799 -2.6462626 0.28562707 -1.220935 1.4878062 -0.6021784 -0.66305244 0.75335634 -2.5946252 -0.08944749 -0.9713655 -1.0192623 0.9104253
C1ORF141 0.80466795 -3.772274 -1.1444132 0.9700975 4.5254426 3.436408 -1.8745925 -0.75104284 -0.7114545 0.021928098 1.9104537 0.30384356 -1.4244493 -0.2709867 -4.674156 2.849432 -0.58518606 2.5531282 0.83146966 1.1205081 -1.6577504 1.5340269 -0.5734261 1.6582366 1.5618039 -4.198798 1.9226797 0.9533926 -1.4163119 3.0954664 0.53343457 -2.0361168 -0.49847236 -0.87870413 -1.3723537 1.2321012 -0.1686671 0.49179396 -1.8004849 -1.359083 1.2238684 -1.8640552 0.247525 0.38701987 -0.7034262 2.163347 0.63403237 0.29739755 0.6956078 1.1323537 0.50459886 0.15244882 1.4565377 -2.9411044 1.1411643 1.1602544 -1.033546 1.9282441 0.26728553 0.3708214 1.9396201 1.7231799 2.4186306 3.0155704 -1.3904909 0.54604256 0.8226984 1.2361603 1.1431994 0.47451422 -1.0124147 1.206858 -1.3875599 1.8114394 -0.6330653 0.7886777 -3.4766285 -0.5937891 0.42009687 1.7515011 -0.08777212 0.3421877 0.41516545 1.6279683 -1.1948736 0.34738907 -0.9538587 -0.7346504 2.4160335 0.5659297 1.3342396 1.9007884 2.03996 4.223236 0.34328157 -2.7231412 -3.0819895 0.27244735 -1.2333493 1.9432955
GADD45A 0.26108837 -0.12216648 0.11671936 0.14684932 -0.105757385 -0.18240967 1.210399 -0.31840712 -1.1174608 -1.522422 -0.43086007 -0.3824855 0.20708856 0.54890776 0.30307835 0.8476847 1.3390678 0.49378094 0.018955119 0.8403764 1.7562014 -0.023923954 0.5049422 1.1122376 0.4483871 1.2828391 -0.41864082 0.062062643 0.55500716 -0.20353621 0.46280828 0.38921148 -0.083923295 0.09101106 -0.13339612 -0.082346454 0.09687846 0.46029305 -0.24835879 -0.14317249 -0.79677093 -0.4356057 -0.093177706 0.50465 -0.3983868 -0.045367874 -0.50287706 -0.55440444 0.25251544 0.48641747 0.5280804 -0.18288758 0.3359865 0.47789457 -0.22585893 0.075433865 -0.13245793 0.27163902 0.56928843 -0.10362822 -0.8989879 0.1906205 -0.65568936 0.23089166 0.7037136 -1.2996994 0.670014 0.62920487 0.7182893 -1.2380735 -0.15752399 -0.57732314 -0.75015664 0.17375945 0.5200056 0.053087384 -0.59503865 0.58882934 0.048514657 0.13843614 -1.0812223 -0.22682741 0.91214406 -0.21132648 0.07742197 0.2720197 0.069480404 1.0773603 0.14776868 -0.16344745 -0.31152883 0.16999327 0.8664069 0.020494703 0.4154009 0.21003295 -0.6709237 -0.14720203 0.14350384 0.71718055
DEPDC1 1.5854478 -1.6995187 -1.0757246 1.0843332 -1.6212379 -0.3159856 0.19624218 -0.9567913 2.1429207 -1.0201012 -0.16981184 -0.70932275 -0.77237403 -0.26363963 -2.3469248 -0.9211427 1.0948783 0.30639613 -0.06240847 1.8944631 -0.76608914 -2.3632236 -0.7807217 0.68768895 -0.5250459 0.33943787 -0.1002368 0.28180432 -2.1142101 0.023200829 -0.41721356 -0.43157804 -1.2140756 -0.06990073 -0.7124311 0.59770215 -0.29724523 2.1099935 -1.2858509 0.06986921 -1.4293615 -0.9941651 -0.83482397 1.1395959 -0.7174657 0.73410076 -0.43913442 -0.589508 -0.08065126 -0.54739577 -1.2237437 0.9246688 0.68160003 1.1663582 0.46792975 -0.53721046 -0.1347366 -0.514894 -1.5362839 0.01754625 -0.4772254 0.7053425 -0.6613783 -1.3470699 -0.09062318 -0.1795934 0.065919794 0.5283608 -0.7510009 0.32657185 0.48232052 -1.7798979 -0.16572532 0.15085837 0.31778783 1.3165222 1.0246037 -0.51676 -0.4222806 0.24458665 -0.3523221 -1.4081554 1.8714985 1.1942856 -0.75699735 0.114459686 -1.0573337 2.0078917 -1.8003006 0.32626626 2.0727015 -0.6645796 1.3230108 -0.27106896 0.849669 -0.97740316 1.0551686 0.39910397 1.2598132 0.9065161
