1000 100
TMEM176A 1.0679188 1.4020146 0.26698923 -0.8703599 1.273952 1.0667174 0.5170357 -1.3833876 0.30172312 0.27833602 1.1004407 -0.6372388 -0.7276393 -0.49104372 0.17115574 0.27020472 -1.025509 1.0161326 0.37816757 1.1999471 -1.3542069 -0.27285475 0.67350453 -0.14990531 0.7838783 0.89504427 0.49944362 -0.29541442 0.8045162 -0.112939596 -0.3088907 -0.013814244 0.54910564 0.1921023 0.75789446 0.09079378 0.3881453 1.3724874 -1.13208 0.03972801 1.1295892 -0.5896377 -0.5471719 -1.2332331 -0.43676645 -0.44567475 0.08473975 0.18754902 0.5683531 0.32445315 1.4574713 -0.6199721 0.354004 0.2419594 0.32894278 -0.5644982 -1.2670577 -0.37563223 -1.3840191 -0.27633196 -0.066519566 0.10190533 -0.754545 -0.37310696 0.34214526 0.37794337 -0.041221533 -0.31570005 0.64383584 0.9598132 -1.1623366 -0.08357741 0.67788273 0.21835399 0.107452564 -1.3817561 0.7964014 0.0693848 -1.5677549 0.19111328 1.0996956 -0.15180098 -0.12627812 -0.510342 -0.28025246 -0.7702128 -0.108274214 -0.5724324 -1.6571194 0.06753319 0.097482674 -0.20093904 0.09399479 -0.3053163 -1.2945753 0.40221298 0.9346273 -0.1253631 -0.33346084 0.2936845
ICA1 -0.31092507 -0.41696483 1.142568 -0.09410582 0.35255858 0.91955745 0.049955722 -0.1695911 0.025857717 0.54529214 1.0257572 0.78518087 -0.014303012 -0.8512406 -0.5903476 0.20675662 -0.49429676 -0.24904966 -0.46926397 0.64251137 -1.1651485 0.27133015 -0.9030239 0.42313558 0.019325614 0.6241928 0.8298598 -0.32301134 -0.21822278 0.4318678 0.015901139 -0.13210423 0.98901343 0.9794331 -1.0081286 0.12553565 0.012033864 -0.6920567 0.88716954 -0.2250363 2.344719 -0.6714845 -0.8227478 -0.21506651 0.32568985 -0.6954069 0.73824424 -0.45943776 0.9153956 0.91525805 -0.4600802 0.11056077 -0.6069644 0.63535553 -0.25114006 -1.0764056 -1.3523742 -0.32599148 -0.9413096 -1.4339352 -0.2825719 -1.8615413 0.53418237 0.7039352 0.8977919 0.16107443 -0.1411831 0.069487125 -0.9709947 -0.96930385 -0.42676243 -0.22163656 0.32531914 -0.668105 0.43519318 0.53201836 0.2372944 -1.0466808 -0.61947554 0.3901316 -0.20399874 -1.4706916 -0.59875906 -0.090160675 -0.093354665 -0.30783042 -1.2689337 -0.06821758 -2.4452744 -0.759312 0.13698184 1.8253087 -0.55743 -0.11443159 -1.5784571 0.6074317 1.2582966 0.7343865 0.61846834 0.27490333
CD38 0.021811154 0.018670991 0.0132781435 -1.9519745 0.5370387 1.5888722 0.36059433 -0.57272226 0.84017587 -0.3455655 0.71670765 -0.75717366 0.56517094 -0.9549474 1.3337485 1.0026507 -0.39702055 -0.5558514 -0.46994346 0.8033873 -0.59799427 -1.0992658 -0.5079103 -0.3915363 0.9804552 0.55900633 0.43539563 0.3443534 0.26521352 0.085467935 -0.6672168 1.2188085 1.0755843 1.5024394 -0.5611771 0.5847717 0.2827863 -0.087646805 -1.583564 -0.85575575 0.6408829 0.17792109 0.2909326 -0.24940877 0.90013987 -0.13674158 0.98261994 -0.14265853 0.7646474 0.042027265 1.379112 -0.89031667 0.12577206 0.78680223 0.9011051 -1.2345767 -0.98203295 0.23472117 0.23629846 -0.656243 0.33889678 -0.6130374 0.57960856 -0.40379485 -0.31079906 0.5730502 -1.0944915 0.73643905 -0.11312687 0.6503412 -0.49743268 -1.0206664 0.27229047 0.13427007 -0.528686 0.4401931 0.614847 -0.14307514 -0.109250456 -0.8721352 0.05433 -0.060364455 0.43808407 0.22311094 -0.6459249 -0.8756419 0.11076952 -0.44231817 -0.8370849 -0.21019094 0.96709794 0.7211963 -0.24061652 -0.735631 -0.027699219 -0.034709666 0.72083414 0.45132837 -1.0369407 0.61947924
PDK4 -0.41597655 1.0078322 0.902977 -0.1893129 0.72668266 1.4995555 0.45370167 -0.91269296 -0.56634295 0.60116756 0.7218945 -0.25044668 -0.95194685 0.050113443 0.51743156 0.92060256 -0.19272518 0.2623543 -0.43803668 1.5378094 -2.0736363 -0.16579051 0.17362304 0.009186627 0.37158573 0.2252348 0.9353241 0.029161403 -1.157656 0.6379027 -0.67238355 0.12056523 0.006012148 -0.33173844 -0.22392194 -0.34083596 -0.7034391 0.6330583 -1.7586253 0.8420937 0.85641056 -1.2124577 -0.40072292 -0.6638873 0.79515153 -0.7272548 -0.06090513 -1.1730344 1.729325 -0.32785833 0.16443177 0.6999972 0.781224 0.8102178 0.6716023 -0.37710637 -0.9469726 0.1705391 -0.8693007 -0.98456055 -0.41918588 -1.099948 0.38662836 -1.2122808 -0.20717053 0.46710968 -0.4321983 -0.22423859 -0.63146174 0.30853415 -0.9083376 -0.5935513 1.5467273 0.41347733 0.09267965 -0.9336988 0.50386614 0.5848618 -0.92109406 0.058104295 1.8742433 -0.47279492 -0.252313 -0.17628731 -0.79278976 -0.15984568 0.118496604 -1.7526877 -0.98297584 -1.162526 0.32109657 2.0370367 -0.37966126 -0.5457699 -0.5826552 -0.22511607 1.2209682 -0.3660532 -1.1892661 -0.56694406
MATK -0.34420818 -0.23684156 -0.7491709 -0.73795116 0.2413994 1.8090727 -0.34927967 -0.4094837 1.0108974 0.279562 -0.34974045 -1.1562338 0.092199884 -0.111597575 0.659432 -0.39109546 0.8819087 -0.6803715 -0.100325234 0.88563055 -0.6543502 -0.7211582 0.74791414 0.025933605 -0.0083079655 0.19547398 0.97839147 0.3342336 0.121842735 -0.009847526 -0.2779149 0.41237727 0.037577003 -0.074242786 -1.4622108 0.072420456 1.0903004 0.1670162 -1.1217554 0.7785015 0.38629764 -1.2577 -0.039352123 -0.8269328 0.9400116 -0.06803128 0.67597634 -0.11780332 1.4672524 -0.17273018 0.94407797 -0.13346682 1.2066431 0.20355701 0.3698196 0.8345247 -0.914123 -0.08152455 -0.18310939 -0.46219957 0.012265495 -0.4894134 0.47720408 0.18819238 0.42054316 0.7535373 -0.43997636 -1.0209898 -0.8943365 0.5955533 -1.4865583 0.3051928 0.7807408 -1.1276833 -0.7513814 -0.4758934 -0.7070651 0.69828105 -0.8461711 0.10168803 0.07020969 -0.27035007 -0.30427817 -0.84179574 -0.554377 0.5160687 -0.72296715 -0.06883419 -0.78146946 0.008195028 0.32969326 0.32746997 -0.63728 -0.48785344 -0.24416995 -0.3845093 1.3251373 0.1320985 0.79580504 1.0290549
CD79B 0.5427793 -0.020496061 0.5717204 -1.6603574 0.5684264 0.5868329 0.15800974 -0.36713013 0.60002106 -0.22126889 0.94470304 -0.5805753 0.59637564 -0.5515683 1.3914679 0.94063556 -0.31383088 -0.59429294 0.47995466 0.90027505 -1.1262888 -1.5152925 0.012176434 0.29116648 1.4240184 0.49918622 0.06047393 0.09634832 -0.0145704765 0.116676375 -0.30401397 0.21053189 0.11113379 1.3659275 -0.8844352 0.8683466 -0.5568464 -0.0071985614 -0.603948 -0.34791356 1.0547087 -0.1523516 0.9346193 -0.58742595 -0.25712508 -0.4511322 1.3384573 0.5965683 -0.119651645 0.42041603 1.4366823 -0.79372984 0.47902402 0.96541435 1.6017601 -0.611721 -0.9878891 0.010304005 0.56489897 -0.94072247 -0.42195955 -0.56086767 0.0375868 -0.2691504 -0.82442415 0.32682127 -0.6819794 0.36726934 -0.058055673 0.7079387 -0.8348249 -0.8247956 -0.3288303 -0.5579671 -0.23916398 -0.02016799 0.6839221 0.13531253 -0.23319578 -0.15816356 -0.2389223 0.15667811 0.36838147 0.15974589 -0.82989305 -0.5191606 0.44687757 -0.512502 -1.7727191 -0.133477 1.0018257 0.9472748 -0.016816089 -0.026290677 -0.32946697 -0.4309002 0.8282627 1.0661116 -1.3634965 0.55541575
IL32 0.9649611 -0.15601283 0.7995256 -1.1971992 0.93193024 1.2439616 -0.1564564 -1.0803771 0.5424033 0.44445026 1.3685738 -0.16695026 -0.17707299 -1.0488949 0.81193155 0.97635275 -0.4641407 -0.26803884 -0.68156034 1.3618207 -0.4079583 -0.34622702 0.28021735 -0.23066607 0.23177896 0.7137431 0.70469564 0.62633497 0.31547898 0.11056753 0.6191598 0.23723358 0.8947796 0.87771195 -0.2683668 0.35264584 0.3667183 -0.851778 0.23678416 -0.9485891 1.510716 -0.5995018 0.5152578 -0.6259528 1.4036269 -0.0023902343 0.72916913 -1.1272359 0.89088905 0.4854722 1.3651834 -0.56217283 0.31091288 0.6894846 1.3072835 -0.4413146 -0.6059593 -0.8077827 -0.004456998 -1.1108191 -0.5255306 -0.50898814 0.20089503 0.12770925 -0.33630353 0.6611614 -0.59190166 1.5134401 0.44394258 0.7792561 -0.81784576 -1.4108022 0.046364333 -0.7400797 -0.38771185 0.37558702 0.15177588 0.032546848 -0.8995675 -0.44080043 0.72173595 0.37973014 0.23171186 -0.399428 -0.23219271 -0.5596356 0.17753574 -0.09798646 -0.9695932 -1.153984 -0.041386392 0.6979367 0.37750182 -0.99217 -0.5733258 -0.4643929 1.5784166 1.0690635 -0.9440652 0.7569135
CD9 0.17539398 1.2049611 0.59592074 -1.4796019 1.1728028 0.45243704 -0.014549722 -1.4861526 0.2931875 0.086471654 0.9719745 -0.7377868 -0.25857595 -0.07925167 0.6751801 0.9009327 -0.27249786 -0.2810399 0.6934675 0.7542646 -0.459007 -0.25163367 0.43542477 -0.2006317 0.46620774 0.7438648 -0.07437525 0.44810995 -0.34354535 0.14995766 0.3905199 0.24759348 1.4263265 0.85674024 -0.55880904 0.7367261 0.4174534 0.82459617 -1.4294904 -0.59110594 0.3283988 -0.23957631 0.031839598 -0.46234462 0.8373407 -0.8952788 0.16892831 -1.3525769 0.70134425 0.35553822 0.39289683 -0.36146352 0.35836723 0.7590548 0.36562392 -1.1921864 -0.6319887 -0.6729906 -0.5798833 -0.68946445 -0.32640946 0.35063115 0.19163157 0.1920774 0.23156144 0.8286748 0.07511807 1.1374917 -0.34724027 0.14068098 -0.38969967 0.36227247 0.7641947 -0.12129815 -0.5908367 -0.18814832 1.2885736 0.09610377 -1.2750851 0.0046647545 0.7394388 -0.8861319 0.041265942 -0.79111063 -0.33487776 -0.437028 1.1426702 -0.42491278 -1.0185721 -0.5199939 0.9263555 0.7003448 0.77706164 -0.35334182 -1.6836555 -0.2464049 1.2369872 0.16714507 -0.44007137 0.24456154
STAB1 -0.05314775 0.07153851 1.2497636 -0.7531206 0.50352347 0.48044935 0.2254194 -1.1809777 0.26362702 0.98206633 0.99940443 -1.537559 -1.303929 -0.08338315 0.83376217 1.2722317 -1.1702644 -0.51236254 0.6108264 0.12179901 -1.2723719 -0.31436652 -0.70004755 0.2758418 0.3005203 0.12020536 0.65621096 1.0643378 -0.4766983 0.59841913 0.025092738 -0.06625735 1.1341751 0.066219725 0.12240084 0.12200935 -0.29877883 0.58074784 -0.8596773 0.0053910213 1.3886322 -0.93280596 -0.500957 -0.76068336 -0.08284198 0.20054461 0.22404762 -0.20855151 1.755317 -0.5857183 0.41825575 -0.18562056 0.48867533 0.050578374 -0.5163955 -1.1345382 -1.4314758 0.47571644 -0.62198913 -1.0399351 -0.08234804 -0.4926815 1.557575 -0.52977127 -0.31430304 1.1504321 0.6341483 -0.6783068 -0.092040524 0.15776095 -1.6148003 0.11239508 0.15536825 -0.28380036 0.1729652 -0.9798271 0.3192244 -0.6600984 -1.5791273 0.13019162 0.8411363 -0.7023755 0.0075647933 -0.5144221 -1.0708892 -0.07433351 -0.0011094069 -0.17271787 -1.1265581 -0.2839305 0.9741719 0.9709354 0.21725899 -0.67710954 -1.0377775 0.067530654 0.6619372 -0.3406494 -0.14610243 0.48835644
FYN 0.7693683 -0.28478032 0.31283745 -1.1585867 1.0851662 1.0602343 -0.31572136 -1.1288584 0.38596147 0.38868514 1.1385485 -0.24443035 -0.36089388 -0.6947306 0.90601766 1.683113 -0.13195048 -0.69241464 -1.1652265 0.87943983 -0.15810983 -0.3918679 0.19316615 -0.66790533 -0.07711292 0.55235314 0.9335463 0.6241167 0.04848175 0.4566324 0.07539817 0.028487649 0.4001447 0.76445186 0.030166134 -0.46991026 0.4662009 -0.5321902 -0.24148689 -0.8923806 1.4528306 -0.5198043 -0.23072833 -0.43758872 1.3739688 0.16018164 0.6296198 -0.24069272 0.7190743 0.5204796 0.59002143 -0.487413 0.7535516 1.0251732 0.6201286 -0.33099118 -0.7037409 -0.96916366 0.18058799 -0.67707664 -0.47550622 -0.6195463 0.2693601 0.44266766 0.3612891 0.47151345 -0.30396444 1.0146025 -0.8426003 0.72483313 -0.9770774 -1.2496262 0.00041509248 -0.7684491 -0.5986244 0.21407014 0.25011387 -0.39486897 -0.74199384 0.30721417 1.2538425 -0.28315336 0.09856769 -1.0140837 -0.40093562 -0.74049455 0.34898543 -0.09895551 -1.4059993 -0.9808864 -0.81917053 0.77615714 -0.25775 -0.61241233 -0.27148587 -0.5342898 1.2453349 1.1649735 -1.8483914 1.3116047
PLAUR 0.5389217 0.2809127 0.88333535 -0.58552337 0.84800583 1.3547484 0.2915427 -1.439049 1.4079479 0.98945314 0.6542365 -0.8220844 -0.6281343 -0.029237447 0.9372929 1.7660397 -0.7151127 -0.5953079 1.2477021 0.14854008 -0.7220837 -0.7593144 -0.60694075 -0.72920847 1.0777735 0.49075532 1.4619662 -0.10088457 0.24770984 0.55592686 0.046645433 -0.37691054 -0.16779432 0.5760209 -0.3554539 0.029060392 0.37009937 -0.73654085 -1.0413065 -0.43512142 0.79519993 -0.50650525 -0.29953113 -1.070227 0.112080775 0.01928088 0.9015228 0.7849311 0.9052239 0.12406846 0.31368232 -1.2308493 0.49345842 0.5911588 -0.31662312 -1.1730579 -1.4267355 -0.42582822 -0.514777 -0.9393385 -1.0370976 0.39882573 0.18910472 -0.24602659 -0.26064983 0.30675888 -0.87218237 -0.5446038 -0.29762143 1.3894069 -0.65820026 -0.5385117 0.27630392 -0.2307714 -1.3164613 -0.0945661 -0.20773456 -0.009602996 -1.514283 0.5084066 1.2808509 -0.19734338 -0.37481853 -0.023954377 0.14415601 -0.74885595 0.2993926 -0.38846797 -1.8727183 -0.96714145 0.74029124 1.0486771 -0.8941193 -0.64894 -1.1720854 -0.6538901 1.253844 1.4380924 -0.5426681 0.90088886
ZBTB32 1.1964167 -0.072554275 -0.2002863 -1.6105177 -0.8066501 0.026702149 0.46363208 0.4154964 -0.27585584 -0.020435307 0.83820426 -0.6280479 0.32967606 0.31493676 0.35298327 1.2566892 0.8469859 0.26247105 -0.15810846 -0.7792348 -0.68860716 0.46999183 -0.17968081 0.02081577 0.44006497 1.7151207 0.24857555 -0.117911875 -0.58202857 -0.31192034 0.13967237 -0.29750037 0.7280136 1.5551115 -0.6097945 0.05985492 -0.08322709 1.4042645 0.90874285 -0.8563803 1.5312744 -0.3423679 1.0025797 -0.5182522 0.6021645 -1.561908 -0.14982323 0.7532184 0.30815592 -0.22855327 -1.003959 1.5230218 0.45271876 0.85777694 0.8870393 -0.9341806 -0.6321746 -0.29189476 0.11625302 -0.1524265 -0.5367184 -0.5907728 1.1149037 -0.67318857 -0.029591396 -0.20268898 -0.15347801 0.078635424 1.5413997 0.23326656 -1.211531 -0.35779828 -0.27550107 -1.5473546 -0.9526719 -0.34520015 0.09051792 -0.049999192 -0.77496433 -0.6215962 0.17210726 -0.9487181 0.10862914 -0.58334345 -1.089871 -1.1938871 0.9286385 0.0379386 -0.48226598 -0.9675575 0.6247563 0.6000323 -0.42916456 -1.064432 0.20461021 0.25643313 1.7365938 1.1775075 0.5796178 -0.09018268
TYROBP 1.0086838 -0.24234927 1.3512069 -1.2264569 0.98051 0.74940485 1.0162086 -1.5449038 1.016051 0.038922764 0.6136667 0.03910292 -0.7240452 -0.5304627 1.3149822 0.6888672 0.33111966 -0.17962359 0.8482632 0.9266476 -1.1832733 -1.0709165 -0.6817699 -0.42014307 0.6335971 1.1134069 1.0669268 -0.03874408 -0.25801566 0.16563374 -0.30715004 0.16318153 0.5019466 1.0250734 -0.49115553 0.48091537 0.15547842 -0.54455686 -0.3490125 -1.1709476 0.89606225 -0.6744053 -0.63222575 -1.0864708 0.6880512 -0.017345903 0.30212808 -0.75032485 1.3868456 -0.61713433 0.9144441 -0.9364474 0.33185506 0.38464108 0.9063229 -0.32989722 -0.32783267 -0.8667149 -0.6082973 -0.707736 -0.41952658 0.37233773 0.08360908 0.38938347 0.27288795 0.54392713 -0.7671275 1.0038272 0.31255504 0.9088969 -1.047347 -0.08553354 0.83375615 -0.33920413 -1.0048231 -0.29871368 0.29609546 0.7968202 -1.5396942 0.8482071 0.8271633 -0.23942651 0.41663846 -0.55500543 0.06813992 -0.38206956 -0.3703184 -0.40776578 -1.5311993 -0.39696205 0.44077352 1.1962956 0.7955235 -0.95421994 -1.2110773 0.21180706 1.0798608 0.3423703 -0.93311536 0.82261103
CD22 0.78719705 -0.14137459 0.7772801 -0.6647306 0.8235002 -0.2188694 -0.31947336 0.053196926 0.5841734 -0.51566666 0.55820686 -0.74011904 -0.6254267 -0.20884721 1.1105273 0.75777036 -0.056784905 -0.99270326 0.38795087 0.90841186 -0.9459313 -0.30240512 1.0209525 0.85686964 0.20055972 -0.6942157 0.2942153 -0.006541308 -0.6194577 2.0292673 -0.86992353 -0.11994509 0.81177276 -0.1968389 -0.23593827 -0.2927637 -0.936813 0.2986132 0.12138089 -1.0290567 0.8740113 -0.81722057 0.2882072 -1.3772844 -0.09973597 -0.53045523 -0.9209108 0.8349381 -0.29263046 0.43073326 -0.040073033 0.5218706 0.029945882 -0.5470671 0.852866 -0.9122012 -2.5617616 -0.012116615 0.2259866 -0.99999946 -1.1730411 -1.1604155 -0.12930398 -0.35715067 -0.6073494 0.83062404 -0.59433806 0.26041788 -0.75673825 -0.06382936 -1.5266224 -0.115487956 0.828687 -0.028981455 -0.21961628 -1.2353665 0.39527306 -0.9442877 -0.7330249 -1.1092632 0.7576049 -1.0506839 -0.4672284 -0.50125855 -0.45151237 -0.91022855 0.35539067 -0.36761683 -1.6518112 0.4455615 1.3535689 1.7471578 -0.8517005 0.41381547 -1.5746439 1.3494589 0.74349576 0.75358695 -0.6465876 1.1413192
CD6 0.5902053 -0.19543876 0.7970761 -1.3798397 0.58344096 1.6783473 -1.0242699 -0.43996868 0.3521797 0.6684775 0.0037951618 -1.097941 -0.030693699 -0.16707772 0.37817463 1.0899899 -0.9643632 -1.3270377 -1.2081386 0.6649017 -0.3130482 -0.10430634 0.20890388 -0.22545706 0.7971849 0.9855467 0.7487813 0.6879931 0.7503147 1.57536 0.19505286 1.1111284 0.23850933 1.3624257 -0.40366328 0.1821092 -0.37665734 -0.37337032 0.17728554 -0.48456237 2.2400992 -0.99545276 0.08056863 -0.33744028 0.7892368 0.051571604 0.45396173 0.17535836 1.4547769 0.8221906 0.28111184 -0.40285817 1.0128726 0.41229275 0.6101591 -0.5103312 -0.25105056 -0.7019153 0.21403526 -0.9967171 -0.3517607 -1.3049263 -0.45264822 -0.029994773 -0.25911528 0.19111021 -0.5538925 -0.18904333 -0.67890286 1.4517003 -0.55427486 -0.7275261 -0.25793982 -0.68179584 -0.99043816 -0.14470482 0.48321536 0.16922203 -0.51059884 0.07987794 0.5537152 0.7499952 -0.15493746 -0.3205831 -0.19677666 0.14304216 0.1197551 -0.6742713 -0.46338934 -0.4016955 -0.5094343 -0.32662654 -0.32022557 -0.73424613 0.634507 -0.72832096 1.5856265 0.82949036 -0.28323573 1.2859361
SLC11A1 0.23390199 0.93694335 1.4790803 0.35315657 0.78454715 0.32818893 -1.0297254 -1.2372416 0.5559854 0.7626457 0.2575461 -0.92651296 -0.6612657 1.0501455 0.24128342 0.47013488 -0.86254 0.5443483 0.88905567 0.09031733 -1.0634745 0.38474247 -0.053100478 0.14857468 1.1747416 1.0391055 1.2127463 0.80461234 -0.5587532 0.16223133 -1.0862224 0.0065770755 0.6707921 -0.008457208 -0.036599476 -0.12165044 -0.08368625 0.25795856 -1.3556119 0.290086 1.0370897 0.13228346 -0.8929895 -1.5172067 0.9881518 -1.08899 0.6477043 -0.113395244 1.2726324 0.23057944 1.3356985 -0.420552 0.8091911 0.011621687 -0.12844992 -0.82691854 -1.4984328 -0.3433186 -1.3268764 -0.52721494 -0.41562468 0.12472932 0.68974257 0.5118699 0.49594206 0.56558186 -0.9939584 -0.28345004 -0.9035984 -0.26502246 -1.3099371 -0.020676322 0.85141295 -0.43585408 -0.07030305 -1.2861348 -0.6640701 0.105078265 -1.5882131 1.1701005 1.2533083 -0.5709138 -0.08035655 -0.527801 -0.32855323 -0.7101536 0.7947077 -0.92265964 -1.029362 -1.7660593 0.91359955 1.4956876 0.18753283 -0.10131532 -0.2614482 0.23287709 1.3096565 0.23501867 -1.4486798 1.2457234
CD74 0.94658476 0.8622776 -0.34906667 -2.0143416 2.0623188 1.5806217 1.4509145 -0.75224996 2.4326541 -0.25917864 1.2519457 -1.0721045 -1.0876876 -0.07902036 1.9858371 2.020823 -2.2270427 -0.8789895 0.23940155 0.71632606 0.114736915 -2.2855716 -1.1642385 0.380607 1.1598735 -0.31467253 0.6356035 -0.51068294 1.1836509 -0.24790846 -1.4544132 -0.20485036 1.4665381 0.46368337 -0.03000828 -0.33219483 0.3248169 -2.7669463 -0.7603046 -1.1825991 1.2659451 -1.1920387 -0.06120528 -1.4423857 3.308935 -0.37481993 -0.4556659 0.9228827 0.21258707 1.6549233 1.3236638 -0.47010845 0.26177707 1.0118134 0.5408096 -0.20536469 -0.5699518 -0.54377306 -1.3217682 -2.4620316 -0.22500655 -1.5536381 1.7916627 0.77622133 -0.5775716 0.7214911 0.09666912 1.4582975 0.41158065 0.7901065 -2.2533808 -0.28432494 -0.13124833 -0.020886812 -1.7294679 1.3544211 0.76901394 2.206374 -0.89130604 -1.257154 1.2549876 -0.28057453 -0.08542718 -0.75827944 0.7763115 -1.2062527 -1.0220563 0.15263166 -1.5336097 -2.2741594 1.0926223 1.6730244 1.5685934 -2.1894042 -0.07626097 -1.2519052 1.1284782 1.5363756 -1.458514 0.6325537
BIRC3 0.62054443 0.2221481 0.7563019 -1.1300542 0.35122618 1.7128488 0.69209874 -0.25561196 0.67817694 -0.2736407 0.52936476 -0.106191665 -0.34950742 -0.8080329 1.1807867 0.49644333 -0.9008979 -0.6665514 -0.54410136 1.3863941 -0.92038715 -0.6214055 0.18714322 -0.59973496 0.72142005 1.1314247 0.03055641 1.1970949 0.33581308 0.16250141 -0.074836925 0.30280182 1.1229991 0.7163905 -0.537849 0.99649614 0.15620308 -1.0436503 -0.8490719 -1.3604234 1.5822072 -0.71165794 0.29228264 -0.48104382 1.2762488 -0.070482366 0.21260925 -0.3425651 0.16955924 0.33397615 1.5739208 -1.0788772 0.490351 0.7843983 0.90281504 -1.2610184 -0.571413 -0.71975774 0.16362718 -1.6435035 0.22602706 -0.8619872 0.074786425 0.09736939 0.025734415 1.0543253 -0.53986806 1.0820925 -0.568558 1.6385748 -1.3033881 -1.0497304 0.5372535 0.5150868 -0.580427 0.37848473 0.31654447 -0.062985875 -0.91316915 -0.58911926 1.3103044 -0.1304996 1.0501508 0.2169336 -0.10178625 -0.30020002 0.48628116 -0.65647197 -1.160824 -1.5151204 0.92306215 0.6737732 -0.09825849 -1.292889 -0.32956687 -0.28126827 0.2161653 1.5310024 -0.7683875 0.9689985
SLAMF7 -0.019945882 0.58015597 -0.059948828 -1.7797902 0.6446747 1.3535137 0.87646765 -0.85494703 0.63066846 -0.20083714 0.6166672 -0.66050786 0.3566438 -0.8484256 0.727526 0.6563118 -0.26794225 0.06634172 0.056962077 1.1963329 -0.6549019 -1.3050628 -0.5855377 -1.0123339 0.60271364 0.96976346 -0.23288323 0.6585364 0.13559671 -0.16259386 -0.50812006 0.40932378 1.8965775 1.651841 0.43500477 0.87105376 -0.091742456 0.32249573 -1.7555269 -1.1321481 -0.12264689 0.064720005 0.38558906 -0.34656367 0.9036607 -0.45135581 1.230184 -0.20254329 0.32839078 0.048181668 0.9211877 -0.924046 0.7374237 0.82953537 0.87624323 -1.3201004 -0.63886887 -0.010174178 -0.15343906 -0.71297014 0.55736256 -0.5497217 0.6243224 0.051499672 0.23244789 1.2292466 -0.5700579 1.4125943 -0.90710133 0.7153323 -1.1938438 -1.1448274 0.3616117 0.31315088 -1.2193137 0.54104424 0.8742569 0.70281875 -0.5790759 -0.5749326 0.9494504 -0.2966882 0.87463564 -0.38801178 -0.5620577 -0.897863 -0.38399443 -0.30588603 -1.2557274 -0.20416632 0.7923293 0.9181096 -0.18667817 -0.8603946 0.02978627 -0.8872642 0.43903375 1.1222482 -0.31599236 0.8201149
SH2D2A 0.33909556 0.19189776 -0.09439316 -1.1030271 0.24501605 0.548861 -0.975371 -1.5575792 -0.051215954 0.79711026 0.980816 -0.87069696 0.085080445 -0.43803963 0.13005416 0.9180269 -0.64599377 -0.5668991 -0.7058544 1.0201323 -0.19380207 -0.37263638 -0.026524974 -0.048781987 -0.18655895 0.8414856 1.5113555 0.30499348 0.45096514 0.099489115 0.56229794 0.47470927 0.12478777 1.1524785 0.18545544 0.0027425566 1.0609437 -0.7136794 -0.78645813 -1.1700975 1.4445618 -0.40716332 0.87064546 -0.4617709 0.96391153 -0.064212315 0.35996008 -0.53832865 0.7523861 0.97347087 0.7786671 0.637088 0.99715847 0.42928544 0.86413115 -0.69012433 -0.70614773 -0.73002565 -0.39555374 -0.4989186 0.23203707 -0.20447291 0.46623868 -0.3981256 -0.156273 0.76413554 -0.4215288 -0.46918693 -0.6162419 1.0776308 -0.8007201 -1.742904 -0.4815251 -1.1498519 -0.28709692 -0.4153406 -0.9828247 0.2066897 -0.2893075 -0.4131754 0.5346513 0.2622897 0.24533674 -1.0224702 0.22079413 0.014506529 0.34606397 -0.18620855 -1.0714359 -0.27069357 -0.7522792 0.38885888 -0.16626784 -0.8031822 0.5027777 -0.63066626 0.4113111 1.0955969 -0.15858752 0.673473
IKZF2 -0.45079133 -0.8341366 1.118308 -0.84088236 -0.3912976 -0.32178494 1.0999429 -0.9837962 0.3936605 0.6340454 -0.25954568 -0.19923621 -0.6078572 0.726585 1.481438 1.0439366 -0.4819939 -1.3971113 -0.9465116 1.4735826 -1.4751097 -0.044813033 0.03747276 0.13301627 -1.0819768 1.0297483 0.30282447 0.6788368 0.03658166 0.84469974 0.25501028 1.2309501 2.027767 0.42218602 -0.68767476 0.72654283 1.7904745 0.25581148 0.04956924 0.3611272 0.6802578 -0.20769659 -0.27478263 -0.086542584 1.2584535 -0.6598864 0.70521766 -1.1854392 0.0237234 1.1099536 1.2934268 1.4126929 0.5098928 -0.73630154 -0.20388807 -0.032386802 0.30341896 -0.742643 -1.0423427 -0.80273587 0.17439526 -0.96203524 -0.3313417 -0.7624112 1.2225219 0.5709992 -0.90893877 -0.4433476 -1.3669384 0.67361975 -0.84579813 0.4720722 0.07238104 -1.1834099 -0.5687546 0.45889834 -0.13938557 -0.5034667 0.38589165 -0.37283015 -0.69796234 -1.0498538 1.164184 -0.47439808 -0.33189905 0.7174559 -0.357586 -0.66124356 -1.7166371 0.14481555 -0.54091364 -0.48455536 -0.25850463 -0.5140471 0.96010655 -0.37991863 1.0502009 1.1937416 -0.7246247 -0.041739292
GRN 0.27047604 0.19087738 0.5736589 -1.4833049 0.8794747 1.3741492 0.8281423 -1.0968372 0.9568496 0.055358164 0.96326125 -0.4742676 -0.39966798 -0.41768596 1.3553059 1.4230075 -0.60090077 -0.2950528 0.47112274 1.1109985 -0.45749795 -1.302898 -0.97598946 -0.6356609 0.5122704 0.41146472 0.66357106 0.4123215 -0.16172603 -0.2815291 -0.20837791 0.41956878 1.1515399 0.8777864 -0.27326706 0.08654831 0.37784463 -0.33800036 -1.0883745 -1.1016214 0.8670042 -0.11938334 0.5632251 -0.9116302 1.138858 -0.17235997 0.83197606 -0.2763036 0.6645514 -0.11663204 0.75267977 -0.92874825 0.25953895 1.2806756 1.1460477 -1.2454492 -0.89394736 -0.31739 -0.16517013 -0.9950941 -0.7124882 0.056523208 0.2952839 -0.5568816 0.08148963 1.1571239 -0.73821765 1.2581962 0.6064679 0.82403654 -1.21189 -0.5971904 0.5330148 0.09887502 -0.57891595 0.39677656 0.3365626 0.23611636 -1.4054092 0.04443776 0.9540619 -0.618593 0.5327936 -0.117303744 -0.032433413 -0.52470416 -0.101500414 -0.40394682 -1.3661345 -0.4548082 0.7663295 1.0674317 0.4885862 -0.91487974 -0.57896364 -0.4496841 0.9666797 1.1783156 -0.37789848 0.47152787
APBA2 0.4695376 -1.1394417 -0.09598861 -1.1944367 1.1701708 1.0009701 1.2215003 -0.2588323 0.6419224 0.56587416 -1.0923193 -0.7295648 -0.73146415 -0.28608066 -0.6400933 1.0881829 0.32495698 -0.9585449 -0.5569915 1.9030174 -1.106182 0.17177594 -0.8130126 -1.3772213 -1.1160089 0.23466891 0.22415505 0.42213047 0.011497583 0.88317597 -0.26450655 2.1639378 1.900001 1.7396793 -1.1558534 0.0335729 0.28109667 0.9743352 -0.4130554 0.1242445 0.26927236 0.6727761 -0.48329175 -0.5728403 -0.54509765 -1.2658883 0.56686634 0.5112695 1.540093 0.9420412 -0.5923731 0.14871128 1.5113595 -1.4909711 0.53076947 -1.5069535 0.91784954 0.071119525 -0.70115906 -0.015162011 -0.27654865 -0.2454933 1.5482321 1.3118973 1.1917806 -0.04282502 0.32424158 -0.041523382 -0.018410012 0.19363971 -1.8177016 0.35808074 -0.556345 -2.0849164 -0.42495057 -0.33838025 -0.8161215 0.4731867 -0.45532537 0.46212715 0.5932515 1.2822167 -1.0678446 -0.9368736 -0.67354614 -1.2212645 -0.65901047 -0.1488663 -1.0236772 0.028311247 0.6020832 1.7582362 0.4436884 -0.049640078 -0.6991685 0.08718169 -0.11950775 1.4634103 -0.5232475 0.67030174
MYOM2 -1.7261966 0.9565221 0.15006933 -1.226545 0.85969883 0.8040776 -0.5574031 -0.28280696 0.6282509 -0.22181384 -0.17332126 -1.3752853 0.7903934 -0.2646705 1.4134605 0.53083223 0.88632673 0.78740746 0.8470561 0.41060492 -2.0582488 0.19206512 0.5850843 -1.1270753 -0.8885921 1.8546386 0.17725696 0.46771908 -0.23275122 -0.27097908 -1.6994178 1.2809485 1.8958533 1.1203121 -1.125865 0.06045075 0.66299564 0.01106434 -0.8344415 0.3885371 0.0014664743 -1.9819543 -0.20171607 -0.8806197 0.99632365 -0.70718306 1.2534589 0.42531767 0.71576494 0.49473175 1.2623681 0.8953551 -0.070503846 -1.2816725 -0.3210472 0.49404836 0.07410928 0.1544136 0.17107992 -0.65708864 -0.36901855 -0.47774866 0.4873372 -0.7228855 0.5332822 0.63100004 -0.26588595 -0.84446806 -0.5094536 0.42157218 -1.5515662 0.0059402785 0.7297368 -0.7637121 -0.037787322 -1.0484194 -0.24964343 0.07406898 -0.014371732 1.0970322 1.2215997 0.6547022 0.9311902 -1.033055 -1.3076465 0.43799967 -0.6276182 -0.3265071 -1.7870973 0.041289754 -1.478451 0.36831158 -0.5035829 -0.29367173 0.70034444 -0.9444194 0.010852645 0.89359415 -0.22549166 0.8718585
VCAN 0.08067978 0.8463491 2.067999 -0.21903828 0.5544026 0.2212425 -0.09103254 -1.1487573 1.052539 0.59117514 -0.03136485 -1.1167173 -0.7658739 0.36548513 0.60950565 0.49440125 -0.7519184 -0.39591524 0.72692585 0.48794946 -0.73038346 -0.3200828 -0.5067062 -0.28823853 0.9079201 1.1439953 0.39609697 0.8813301 -0.5961744 0.5662522 -0.38679862 0.08662352 0.5314196 0.55321527 -1.2378331 0.7098982 -0.28834525 -0.38040483 -0.3133805 0.30472386 0.90691125 -0.19765201 -1.0220745 -1.895271 0.85209846 -0.31413734 0.141455 -0.40422443 1.1202877 0.3644709 0.14914404 -0.5537498 1.0713753 -0.0891936 -0.46522415 -0.08059802 -0.48526058 0.5230231 -0.61116326 -0.5466749 -0.6541329 -0.4820187 0.68259096 -0.16402106 0.16146502 -0.3417439 -0.45403305 -0.5756568 -0.76510143 -0.28776452 -0.8477559 0.0036492487 1.1176372 -0.96245056 -0.26223055 0.011414812 -0.7067387 -0.14258704 -1.2971452 1.4255214 1.1056587 -0.52428997 0.77788824 -1.4165864 -1.0901033 -1.5648507 -0.25256145 -0.29174578 -1.6038797 -0.39067027 0.43330735 1.3474836 -0.52982485 -0.32847926 -1.0686296 0.6574854 1.8109106 0.9139756 -0.6140478 0.44783786
MSR1 0.54994035 -0.34674227 1.4495298 -0.35953614 1.3591672 1.1331856 -0.068463616 -1.4980206 -0.3082424 0.25227195 0.18482071 -0.6714447 -2.2537215 0.25234863 1.1824787 0.8560177 -1.2974566 -0.26051316 0.22100134 -0.4746411 -0.66980153 -0.23432314 -0.05522184 -0.80375075 0.9592563 0.47588134 0.5079154 -0.4082607 -0.49742743 0.16193973 -0.17262535 0.79655427 0.3298927 0.7335795 -0.3869069 -0.20288749 0.45091817 0.6323256 -1.5980079 -0.029131327 0.7073774 -1.2150666 -0.7951701 -0.9155526 0.98899615 -0.36012188 0.43938515 -0.17896739 1.5703346 -0.66214246 0.75024027 -0.8472409 0.32581365 -0.32998884 -0.029107077 -0.49328488 -0.55951273 0.7505677 -0.7030809 0.009013526 0.15813969 -0.46965063 0.93097943 -0.96244264 0.18928434 1.3956047 -0.016541427 0.27169225 0.059587557 0.07738293 -2.4753704 -0.50935656 0.9445536 0.27806684 0.19902314 -0.26533347 -0.22449912 0.48523092 -1.2074898 0.917571 0.14178056 -0.7241415 -0.4434651 -0.23087737 -1.0825716 0.49041563 0.6386119 -1.6887405 -1.0079274 -0.8861948 0.29195628 1.2747346 0.037555687 1.1290839 -0.66037476 0.57304966 1.0542789 0.075852044 -0.3705072 1.1007531
CAPG 0.52706635 0.37735516 0.7719158 -0.94288915 0.79415894 0.9840795 -0.2052875 -0.9566369 1.2237239 0.49935198 1.1477207 -0.6493824 -0.7711294 -0.9440405 1.1772822 0.86188805 -0.050436623 -0.37627807 0.3101865 1.4137154 -0.784241 -1.0575334 0.1495643 -0.40842754 0.53081954 1.2165647 0.5953974 0.22845593 0.34103593 -0.18733074 0.27420464 -0.34763184 0.87955046 0.6982342 -0.08457682 0.09517312 0.17710027 -0.3426067 -0.5121015 -0.77956605 1.0490996 -0.17527501 0.2426878 -1.2438952 0.7281315 -0.1142553 0.47395715 -0.14332029 0.77909595 -0.00036468852 0.14765508 -0.84961647 0.1361768 0.86338145 0.9403704 -0.73483324 -1.056564 -1.1952252 -0.3754535 -0.9033175 -0.82591796 -0.3121516 0.02116123 -0.080720454 -0.3801698 0.81755084 -0.92401236 1.2191496 0.57598263 0.8949442 -0.84411544 -0.36608648 0.5571658 -0.042515334 -0.8453455 0.033349454 0.4755965 0.4058788 -1.596726 -0.22299328 0.4210389 -0.8322111 0.47804677 -0.2988462 0.10212819 -0.7241255 0.24768187 -3.8908285e-05 -1.2730845 -0.56687963 0.26400888 0.9605649 0.3762327 -0.5000994 -0.4605414 -0.79024297 1.2395173 0.80761313 -0.62643826 0.9770636
HERPUD1 0.53029424 0.45474035 0.2300889 -1.2786533 0.7464873 1.347591 0.22527763 -1.1410391 1.3852711 0.11759327 1.1778634 -0.6440128 -0.4087787 -0.58127624 1.6114264 0.97082365 -0.97602797 -0.42372453 -0.37239647 1.0418136 -0.11353498 -1.3636224 -0.25198394 -0.3643366 0.6477998 0.5065238 0.83040154 0.79365855 0.031445097 -0.112229206 0.019308574 0.26846737 1.4375072 0.93682617 -0.78046244 0.43747053 0.06917793 -0.6858594 -0.7815874 -1.4906435 0.9107842 -0.040863503 0.79061407 -0.6992715 1.5002146 -0.034724783 0.6711472 -0.31894246 0.38195315 -0.079299636 1.2870618 -1.3517529 0.60838366 1.5521479 1.1934341 -1.1034962 -0.7689042 -0.66486675 -0.5396638 -1.3241175 -0.5600689 -0.61218864 0.50029 0.0010015469 -0.0074299914 0.9828037 -0.722969 1.5822835 0.17836739 0.986826 -1.1611112 -0.64939886 0.33350548 0.21440035 -0.6422939 0.4636304 0.6610237 -0.325716 -1.3159887 -0.3269445 0.55253327 -0.363592 0.9513365 -0.3259101 -0.2490689 -0.7252711 0.048393875 -0.20388333 -1.2035753 -0.8195495 0.2624036 0.3057579 0.3862822 -1.0670264 -0.47716752 -0.42033228 0.68588054 1.3993073 -0.68152374 0.9284929
SYNE2 0.51790124 0.014734187 -0.042890187 -1.7092341 0.87803626 0.6974789 -0.2546485 -0.6997769 0.59018785 0.022825042 0.7142663 -0.6043181 0.19402707 -0.79478925 1.115065 0.43720627 -0.3795406 -0.87007886 -0.669858 0.7205215 -0.3002896 -0.93962204 -0.50837994 -0.38737777 0.29236662 0.69345677 0.67712265 0.7983127 0.8681647 0.47558904 0.18762247 0.39589465 1.5975372 1.3516904 -0.54186714 0.48739913 -0.19907016 -0.33136743 -0.84626734 -1.8607192 1.575813 -0.45222804 0.76453674 -0.19523232 1.0107793 -0.2905024 1.2004411 0.25015926 0.7778469 0.5316486 1.3652323 -1.161 0.6034232 0.7607977 1.4777801 -0.60573065 -0.30587605 -0.83103985 0.26608455 -1.3069463 -0.4588364 -0.6671465 0.44553304 -0.51947325 -0.23418574 0.7335451 -0.16884287 1.0471897 -0.04831778 0.55711764 -1.1578102 -1.2912518 -0.09106492 -1.0037643 -0.49188864 0.47819316 -0.053399585 -0.02572004 -0.5477676 -0.8447199 0.40167683 -0.18446445 0.2942448 -0.37496156 -0.06724168 -0.5339332 0.36698171 -0.28106797 -1.0367581 -1.042494 -0.38369307 0.95699245 -0.6483244 -0.90032154 0.11135069 -0.667115 1.1906447 0.86447847 -0.8993533 1.3338099
PRDM1 0.31295785 0.28091547 -0.073489524 -1.8417537 0.50961936 1.4723189 0.06744492 -0.8400576 1.1974573 0.09716996 0.8352023 -0.096481726 -0.1552087 -0.8602875 1.424129 0.97738504 -0.6302513 0.13461275 -0.44964465 1.3966061 0.1924021 -1.2217376 -0.14010173 -0.3322782 0.5014323 0.71807575 0.30239552 0.45008808 0.03921638 0.06546315 0.0400322 0.20629534 1.3042626 1.4079047 -0.7163144 0.28861052 0.122792736 -0.305797 -1.4415712 -1.02785 0.79975426 -0.013894571 0.4962904 -0.56849754 0.6993936 -0.2892819 0.77072513 -0.102081075 0.12985018 0.0038695422 1.2198762 -1.2514751 0.7987687 1.2624248 1.2183137 -0.8296757 -0.5537808 -0.39283413 -0.14090306 -0.45609006 0.08307578 -0.014551898 1.1617188 0.23256755 -0.4511747 0.8997715 0.03273873 1.0594356 0.13311358 1.0880648 -0.7324588 -1.0275174 0.057739846 -0.14622313 -0.5980147 0.42554256 0.23975295 -0.30716994 -0.46521264 -0.4643863 0.9257224 -0.08472041 0.65174705 -0.10334518 -0.5221077 -0.68308496 0.030715995 -0.7085035 -1.5229218 -0.74102956 0.24171625 0.20491517 0.029503258 -0.82086337 0.35787633 -0.61028576 0.7472651 1.0254942 -0.47142425 0.8044454
SLC2A3 0.7231579 0.39289573 0.5885138 -1.5663141 1.1472412 1.1131097 0.28077006 -1.0795275 1.0729036 0.4791669 0.98296475 -0.18810287 -0.58654934 -0.8658888 1.3305228 1.3373747 -0.36802104 -0.23857693 -0.7212151 1.0212935 -0.10588736 -0.90813094 0.229634 -0.8352745 0.12356572 0.84948367 0.792251 0.77520186 0.30673695 -0.09012575 -0.0417301 -0.5335923 0.93720496 0.46773902 -0.3327176 -0.24987683 0.5114422 -0.5213195 -0.46636382 -1.1010295 1.0372583 -0.0930128 0.24213658 -0.7377985 1.4424475 0.2924631 0.850117 -0.34040043 0.115643576 0.16678311 0.6570524 -0.8722302 0.5951065 0.98933566 0.8130638 -0.7223311 -0.8512626 -1.3976092 -0.0016986234 -1.2964542 -0.8894936 -0.5107627 0.41324475 0.56058574 0.052669324 0.9796907 -0.8226154 1.2057872 -0.050839536 0.76490563 -1.1979647 -0.96707785 0.386364 -0.4702645 -0.7696288 0.057133153 0.62219954 -0.12867795 -1.2698917 -0.115746714 0.57767785 -0.3640597 0.4531299 -0.5679495 -0.37258753 -0.7054204 0.28627783 -0.16273579 -1.4782495 -1.0581429 0.035766587 1.3919814 0.17937827 -0.47362435 -0.1309015 -0.7381756 0.9330877 0.9811434 -0.964642 1.2375602
CHI3L2 0.6740884 0.49927637 0.52192795 0.12711349 0.5871847 1.4056451 -0.69415283 -1.2327965 0.46814674 -0.2541135 -0.6194252 -1.4289389 0.2513319 0.08472211 0.29660422 0.59711534 0.70352477 -0.37895265 -0.87178147 0.3824808 -0.2350193 -0.057986867 -0.43184873 0.6832966 0.53583443 -0.7673765 -0.56140155 0.22016531 0.16210948 0.2336699 0.6372573 0.10530018 0.76586974 1.4299936 -0.47592235 0.56200576 0.119056284 0.9332677 0.22644553 -0.44505093 0.41033328 -0.4719582 1.1047208 -1.3337283 0.6723111 -0.86974794 1.1731288 1.0750302 -0.31962192 0.7168999 0.3487083 0.80458564 0.6307189 -0.7328832 0.51528823 0.059864294 0.15438068 0.28197977 0.99944973 -0.8814981 -0.92951447 -0.14165214 0.32821298 -0.09707739 -0.054670133 -0.71859753 -1.1259465 0.33468738 -0.16773376 1.6468923 -0.8789332 -0.6361039 0.8232704 -1.468999 -0.6762903 -1.258838 -0.5925341 -0.05145829 0.032391537 0.10036005 -0.092842124 -0.4344105 -0.7692214 -0.91176915 -0.17054951 0.44298956 -0.8082613 -1.2443619 -1.8887336 -0.20695703 1.7548931 0.47187772 -0.47304767 1.0707575 0.14185348 0.075443156 0.5768145 0.5657212 0.24743445 1.2034694
SPI1 0.17698221 -0.20423937 0.38186806 -1.1646323 0.7347645 0.48965052 0.46688974 -1.0079036 0.7788591 -0.15145122 0.6440136 -0.55578053 -0.47587064 -0.45022967 1.1505586 0.5945759 -0.12852089 -0.011192007 0.6088894 0.8569775 -0.7563105 -0.84765077 -0.6017373 0.17942154 0.427763 0.5290069 -0.11046969 -0.36174825 0.093087345 -0.698828 -0.35119575 0.26963472 0.73460895 -0.055834275 -0.44234413 0.83674747 0.48206732 0.7166499 -1.0111082 -0.51912796 0.97158355 -0.82991415 0.12340623 -1.1617235 -0.35485494 -0.3376836 -0.12838365 -0.57999223 0.7398117 -0.21440123 1.0603075 -0.7649379 0.009745132 0.932142 0.32286862 -1.1600124 -0.5429946 -0.071676224 -0.35926443 -0.48957285 -0.14656664 0.32222643 -0.54009414 -0.4575906 -0.711216 0.8436335 -1.06444 0.69977653 -0.30786973 1.1412417 -1.0853323 -0.33737 0.35918668 0.095900014 -0.3464919 -0.175045 0.83733314 0.568159 -1.0891234 0.40534797 0.6807141 -0.9769055 0.15536627 -0.9441695 -0.12549017 -1.1187812 0.31452867 -0.525942 -0.8856864 0.037608985 0.6775625 0.6949764 -0.4076977 -0.8432024 -1.5541975 0.39066076 1.379098 -0.09271739 -0.84907347 0.12454447
STAG3 1.037275 -0.2657588 -0.14704391 -1.2112148 1.465924 0.43461147 -1.2608364 -0.84736466 0.1687598 -0.19048344 0.1108379 -1.0479194 0.15884857 -0.07654643 0.8511722 0.39556465 0.04367015 -1.3160576 -0.06929577 0.40831074 -0.7052755 -0.15411696 0.3470694 -0.9941615 -0.26307735 1.3708546 1.0113525 0.4843402 0.47079295 0.38716555 0.29963014 0.729766 0.82794523 0.46413603 0.15189801 0.5039149 0.112653784 0.3086335 -0.5923878 -1.4678934 0.886999 -0.44881132 -0.00647124 -0.34632954 0.49534047 -0.4192909 1.7658857 0.71488434 0.5603407 0.8240836 0.28344193 -0.6628367 1.1464114 -0.3239187 0.7927865 0.08176444 -0.12968163 -1.1755704 0.034723923 -0.57295054 0.3045785 -0.926407 0.121022016 -0.6433351 0.30385745 0.8068903 -0.27593192 1.1039085 -0.7056106 -0.28560555 -1.0174716 -0.615231 0.11478484 -1.3912858 -1.3100823 0.081330776 -0.5136391 0.6842289 -1.3605006 -1.0678416 -0.0673174 0.10143778 0.41018078 -0.036122557 -0.03865693 -0.04508873 -0.31624395 -0.4158933 -0.3540579 -0.21894898 0.65825444 1.0685225 -0.21523154 -0.6739471 -0.047140688 -0.6406551 0.5748846 0.27248305 -0.13107374 1.4646086
CLEC2D 0.88432413 -0.20510405 -0.029252844 -1.503264 0.7442261 0.9274824 -0.82302076 -0.65417254 0.74191445 0.2180774 0.8304422 -0.20838805 -0.18271409 -0.63347596 1.3716655 1.1916311 -0.44025958 -0.7300607 -0.68578756 0.61734277 -0.3705495 -1.1131074 -0.09515263 -0.48453626 0.255089 0.25817797 0.7745536 1.1807939 0.30933937 0.5732868 0.5526995 -0.17260757 1.1890022 0.821371 -0.3508987 0.42976433 -0.009491853 -0.67652774 -0.09211793 -1.5739017 1.1833901 -0.5290908 0.06789565 -0.49236012 0.8212971 0.08511681 0.41894442 0.04474228 0.5657241 0.52163684 0.76509345 -0.95493144 0.2556773 0.93180263 1.2846147 -0.98918295 -0.6964025 -0.7519077 -0.17521155 -0.866038 0.03517093 -0.6185847 0.6253383 -0.1944843 0.30861866 0.7976511 -0.54179496 1.0464581 -0.24120986 0.80407155 -1.1604296 -1.152767 -0.12851879 -0.60130817 -0.6704534 0.35340717 0.2276107 -0.29500827 -1.1422142 -0.10404449 1.1462358 -0.45913187 -0.03212539 -0.4901259 -0.6198017 -0.6051008 0.60074 0.0006837088 -1.5044236 -0.6851842 -0.123359025 0.80050355 0.01848313 -0.93256176 0.25887784 -0.72731954 0.5572074 1.375846 -1.1060708 1.3064789
RORA 0.1738084 0.14960994 0.33056635 -1.8053046 0.8952618 1.2083658 0.1842855 -0.4520008 0.083678685 0.5191481 0.372415 -0.48474884 -0.45576245 -1.1127542 0.84794164 0.48635986 -0.2775909 -0.71573424 -1.1170084 0.47033486 -0.250032 -0.45584473 -0.17255697 -0.87246627 0.12973505 0.42886296 0.51097894 0.71573925 0.49154088 0.76302 0.16129017 -0.05240635 1.2445338 0.8166787 -0.9669374 0.10990318 -0.10339148 0.025860114 -1.3936174 -1.4205524 1.1138676 -0.68852115 1.2474102 -0.38002628 0.89307356 -0.5352084 0.78989464 0.22781777 1.2324826 1.3062316 1.5722493 -1.3515754 0.8735034 0.6173724 1.62508 -0.35602927 0.37376127 -0.7705058 0.61282325 -1.1349202 -0.6738555 -0.9595907 0.8821834 -0.4070239 -0.006004995 0.29046243 -0.00813515 0.56431645 0.053959634 -0.07559728 -0.24220155 -1.7633784 0.10544799 -0.55940455 -0.6050102 0.3404889 0.8758459 0.39629313 -1.3331678 -1.1081462 0.72529733 0.69638157 -0.29457358 -0.06964158 -0.29886788 -0.95077175 -0.059196506 -0.26616228 -2.0564935 -0.5176656 -1.0644245 0.0778705 -0.80904925 -0.92787945 0.2623499 -1.3024336 1.2949703 0.45874313 -0.15774408 0.8474362
TCOF1 0.08487784 0.79081 0.08550408 -1.7778833 0.96331805 1.3473105 0.026467714 0.006833707 0.3516634 -0.37301347 0.67477065 0.13476354 0.1275699 -1.2831205 0.8443333 0.9021582 -0.58737785 -0.1682953 0.5793526 1.6788231 0.06963209 -0.3958288 -0.30426943 -0.3169339 0.042707376 0.49592704 0.38770533 -0.33160374 0.6819546 0.056864202 -0.10042899 -0.1878513 0.74427617 0.8572326 -0.3885124 0.6109694 0.09667752 0.30879316 -1.0709429 -0.6838823 1.1799294 -0.14563273 0.20893078 -0.23471919 1.1817164 0.03853675 1.2850503 -0.25155273 1.1357661 0.008933628 0.982872 -0.72929126 -0.059156377 1.441606 0.35194594 -1.0098832 -0.8512595 -0.20255913 0.80726624 -0.48279417 -0.22715393 -0.87583303 -0.2012403 -0.20271246 -0.13131194 0.3595861 -0.035658047 0.22711915 -0.33186197 0.6582616 -1.0262537 -0.92942834 0.6912142 -0.1080114 -0.4870312 0.18599975 0.56212187 -0.14916116 -0.79773104 0.06591533 0.47573215 -0.552826 0.24902563 -0.22975129 -0.4239693 -0.07715902 -0.46078664 -0.6141203 -1.3436022 -0.50517786 0.48011866 1.6130495 -0.7115254 -1.0445052 -0.98761773 -0.63468695 0.70666355 0.5216796 -0.32798553 0.4328765
TFRC 0.4720972 0.7310279 0.14974037 -1.300866 0.7336376 1.994189 0.3585508 -0.84578365 0.8897535 0.45091572 0.8006346 -0.62645364 -0.46499947 -0.09755765 0.67631274 0.99966705 -0.68078935 -0.3787513 0.09096804 1.3445317 -0.31728336 -1.2660519 -0.5308701 -0.4708175 0.45521912 0.40172553 0.5608962 0.28647432 0.13007185 0.2363996 0.28478405 -0.28745562 0.9221187 0.6228335 -0.4351832 0.39715025 -0.27087227 -0.32386824 -0.8945392 -1.0104719 1.7698816 -0.5356829 -0.077978216 -0.43402642 0.53505105 0.24572843 1.0293195 -0.14234237 1.1903708 -0.067210704 0.68252796 -0.57002914 0.37302154 1.0610442 0.3958364 -0.4317227 -0.5281911 0.08488418 -0.049060334 -1.5950556 -0.7477462 -0.36680028 0.9013561 -0.5420653 -0.18817134 0.7449121 -0.50742984 0.34920892 0.42239234 0.64937556 -0.93920666 -1.1249957 0.7360494 0.28696695 -0.4722048 -0.87829524 0.7211364 -0.3375731 -1.168975 0.26700714 0.8459629 -0.41934004 -0.75603795 0.07370201 -0.4612827 -0.24410056 -0.12604249 -0.6379005 -1.0044497 -0.7211617 0.88400024 1.4823636 0.13904552 -0.7962136 -0.08915684 -1.3241043 1.0075682 1.6432834 -0.2842603 1.3088202
FCGR2B 0.060034882 -0.114224106 0.5169451 -0.8225987 1.0175781 1.079901 0.5137928 -1.6636142 0.7684088 -0.25861537 1.1120275 -0.6951024 -0.029493077 -1.090617 0.7788465 0.78521717 -0.57917273 -0.12560423 0.7269035 -0.037596785 -0.26095438 -0.7810425 -0.20195228 0.026575524 0.24144238 1.0776893 -0.122566834 -1.2778021 0.17152773 0.1308344 -0.5060524 0.40658367 1.2706289 0.40145984 -1.2036009 0.33938974 0.07224285 0.7212793 -2.0519748 -0.5964046 0.74717957 -0.0042767953 0.6468502 -1.182478 -0.56579524 -0.40515846 0.58335763 0.33094558 0.65056545 -0.40283254 0.9847896 -0.70312244 -0.095323525 1.0031042 0.7106446 -0.80077004 -0.24503173 -0.3044208 0.43284184 -1.1585974 0.39433533 0.42115125 0.4833963 -0.3355974 -0.8107751 0.8164697 -0.7263842 0.3699476 0.46669576 0.30838132 -1.3674335 -0.33108354 0.8387368 -0.27704257 -0.45753622 0.14920038 1.1013836 0.039463155 -0.882758 0.108461395 0.16247086 -0.8034642 0.4538552 -0.29831204 -0.28336316 -1.0623821 0.4012401 -0.7998332 -1.7463813 -0.37324998 0.068136334 0.5804481 -0.09834937 0.029645454 -0.6581135 0.3575561 0.95623505 0.2801668 -0.5394235 0.4908065
PTGS2 0.43871412 0.93212664 1.0481807 0.29154366 0.6201006 0.7439024 0.81664455 -0.9291013 0.947576 -0.3938086 0.23961648 -0.90698904 -0.73759925 -0.5963391 0.45391366 0.77562565 -0.6642804 -0.6211601 -0.3444593 0.49156308 -1.4099054 -1.0402973 0.6038119 -0.18062136 -0.51096 1.0469495 1.0179697 -0.031026939 -0.22694711 -0.03344534 -0.8086511 0.82842493 0.37351084 -0.009826894 -0.64736634 -0.04354251 0.9306527 0.18638207 -0.5743937 0.39713353 0.734824 -0.6396529 -1.5051934 -2.6592393 0.7572536 -0.08561628 -0.09850249 -0.12721013 0.95355326 -0.41654232 0.040124893 0.23442888 0.27120352 0.17599484 -0.6390522 -0.2652645 0.6104127 -1.0350672 -0.42703322 -0.108584374 -0.4620953 -1.4068363 0.21883008 0.14478052 -0.4891322 0.7004311 -0.34888375 0.3642045 0.5615308 0.7298248 -1.0688843 -0.15064913 0.17174855 -0.5164785 -1.2851045 -0.13867953 0.234888 -0.2236993 -1.185759 1.204395 0.9229302 -1.4145235 -0.1144001 -0.7317501 -1.3667296 -0.36435 0.055943266 -0.82539946 -0.76156116 -0.5698477 0.23102301 1.6355401 -1.7319847 0.37962776 -1.0282491 -0.17094609 1.1874868 -0.32533973 -0.9034417 0.05002522
TXK 0.46643767 0.80319005 0.70802975 -0.6243305 0.6304861 0.32440776 0.78836954 -0.4988336 1.2667252 0.9535813 0.7793378 -1.2808051 -0.2057284 -1.1257744 0.9362494 0.51095366 -0.094364055 -1.2232862 -0.26176757 1.1112691 -0.27667114 0.60148627 -1.0773915 -0.42662024 -0.95773834 -0.25485677 1.0920299 0.36805794 -0.8356866 0.9593184 -0.24133287 1.571677 1.6232651 0.8351913 -1.1585683 -0.9201214 1.0477479 1.1207715 -0.82587725 -1.2837074 0.97937506 -0.92803 -1.331499 0.28082678 0.117439955 -0.69140154 0.25867093 1.3390481 0.48641992 0.7509739 0.43291175 0.34766108 1.9422565 -0.30118054 1.7242758 0.30512282 0.18599556 -1.4401411 0.58324486 -0.9596489 -0.5846497 -1.6080503 0.930058 0.21855296 0.5673521 1.1353685 0.6373433 -1.3135573 -1.1462724 -0.40960184 -1.0383241 -0.016267745 -0.04001593 -0.6135706 -0.706167 0.83247036 -0.0063907816 -0.76199514 -0.9268758 -0.051719464 2.016263 -0.063291974 -0.12937553 -1.1356523 -0.3227425 -0.24363247 -0.24231416 -0.52057225 -1.4031773 -0.28281364 -1.1253676 0.3576798 -0.52413565 -0.39609608 -0.11558938 0.7826742 1.2897396 0.20856225 0.4707809 1.2863727
FSCN1 0.9859608 -0.7960437 1.2068087 0.00131445 1.1700727 1.937683 0.91429526 -0.41070825 -0.3607927 0.038898602 -0.10722299 0.47283044 -0.39029467 -0.8779242 0.16175763 0.6002053 0.34991965 -0.12185084 0.2373387 0.8668688 -2.793813 -0.8030272 0.53182584 -0.61914676 0.3876873 0.01375989 0.057050776 0.4629645 -0.35071176 0.07039882 0.15030016 -0.027538469 -0.29294333 0.035454337 -0.26436132 1.4964614 0.65755737 0.525736 -0.97408724 -0.3298651 0.09476885 -0.9999347 -1.1473308 -1.4773763 0.78607434 -0.6839452 -0.2632082 -1.0686227 0.048731565 1.0791272 0.94793785 -0.21638243 -0.067778565 -1.0057008 -0.028237015 -0.86378914 -0.7112452 -1.133061 -0.35147226 -0.8907544 1.1194712 -0.5560424 -0.66147995 -0.10398515 0.4077866 0.46288398 -0.33743614 0.8016136 -0.64283276 0.5615689 -1.7929983 -0.4290919 -0.83182263 0.6473014 -0.3968219 0.14403564 0.09771108 0.71642524 -1.8207314 1.2198427 0.4415018 -1.0247359 0.17486401 -0.466956 0.25966358 -0.29828128 0.14199768 -0.04984562 -1.0079254 0.115332216 0.9522607 0.5289626 0.16370295 -0.81220007 -0.4274425 0.2939861 0.13648324 0.623611 -0.7211948 0.67287916
ACTB 1.2058256 0.97051245 -0.18026781 -2.2475317 2.0865684 1.563007 1.1305809 -0.6212496 2.433899 -0.30354682 1.1186936 -0.9611142 -0.89862293 -0.31319705 2.0816252 1.8238498 -2.1929486 -0.63154125 -0.030252157 0.90694034 0.3871191 -2.0155952 -0.80006695 0.33235967 1.4596306 -0.092599474 0.43644547 -0.3327734 1.3592917 -0.28797445 -1.4805177 -0.10751076 1.3888731 0.45396447 -0.2179818 0.01989165 0.0375754 -2.686385 -0.29255652 -1.3379799 1.456548 -1.143411 0.13849546 -1.3466119 3.2849402 -0.14560544 -0.65685165 0.5335553 0.03322476 1.878869 1.820834 -0.6750446 0.28980148 1.0694461 0.6478946 -0.16892506 -0.6046041 -0.67700016 -1.129557 -2.510068 0.050832562 -1.6240724 1.7586468 1.0272053 -0.70124835 0.6629655 0.27484435 1.5628378 0.25187963 0.7190222 -2.0326436 -0.39163762 -0.2997008 -0.16449976 -1.7175883 1.186209 0.60549605 1.9575744 -0.6799733 -1.5815489 1.3408037 -0.0576649 -0.28118083 -0.94816846 0.8014498 -1.2244533 -0.7357962 0.25678486 -1.3092291 -2.409216 1.2405239 1.444782 1.3056941 -2.0492187 -0.00775778 -1.2796061 1.0477843 1.3585465 -1.7600046 0.8082152
CST7 0.6555536 0.29691446 0.28012267 -1.1996326 0.5665652 1.0196377 -0.3348614 -0.92996764 0.65988684 0.5439378 0.9588119 -0.44919133 -0.1062008 -0.93782115 1.2333186 1.2090149 -0.04625425 -0.27491388 -0.31035748 1.3543236 -0.22223535 -0.3973248 0.25701636 -0.8855329 -0.6328076 0.56339496 0.97283095 0.77324545 0.67516047 0.019024603 -0.044354063 0.17674805 0.79503274 0.6805453 0.2654163 -0.121764034 0.95114726 -0.6986936 -0.33600572 -1.1091485 1.2926078 -0.88960564 0.077456295 -0.8357242 1.5087827 -0.23475462 0.35098368 -0.67076063 0.6157181 0.046677716 1.575926 -0.3739311 0.40444893 0.78639007 0.6651858 -0.33016416 -0.77331144 -1.0756949 0.08501742 -0.842067 -0.13238446 -0.57378286 -0.10895885 0.2429303 -0.14752151 1.2352288 -0.7558435 1.0065646 -0.07380509 1.2679679 -0.8868599 -1.2343575 0.101886734 -0.7599595 -0.85951954 0.40974894 0.34994024 -0.26375085 -0.94415534 -0.11273448 0.9937239 -0.124587186 0.26024607 -0.8965899 -0.42357337 -0.30475083 -0.17922835 -0.1459248 -1.6329052 -0.7454945 -0.17278318 0.928996 0.203947 -0.8626636 -0.116350144 -1.0937002 0.9436289 1.2030172 -0.64762795 1.2434582
LAMP3 0.038479343 1.0075395 1.591442 -1.0495598 0.09495305 2.460767 0.6419059 -0.881853 -0.15888807 -1.2367153 -0.32311434 0.42923284 0.044272337 -0.77350384 -0.7444731 -0.5392697 -0.2509805 0.74781644 -0.5154079 1.2505044 -1.3050411 -0.7409714 -0.4025721 -0.8627032 1.167568 0.6778488 -0.85539603 0.53687 0.1989841 0.01252118 -0.29871368 -0.65256566 0.003520212 0.53724915 0.35615763 1.4322344 0.87295425 0.8096545 -1.7656637 0.3674643 1.7893169 -1.0368407 -0.18887955 -0.9242608 0.2605274 -0.27590665 -0.7783737 -0.029362056 0.14580455 0.49889517 0.17237543 0.6269118 -0.11113433 -0.7701661 0.22930871 -1.3467546 -0.79917556 -0.3540927 0.2865134 -1.986045 1.3017864 -1.0339063 -0.53147244 1.084914 0.21988118 0.38863513 0.2489427 0.017167825 -1.0300748 1.1110713 -1.3833691 -1.6736652 0.62868625 1.3967521 -0.56587684 -0.17093612 0.27083114 0.8285093 -1.4925768 1.221583 1.7421227 -0.47375518 0.45585102 0.3523714 0.050260752 -0.41916773 0.5547375 -1.2651454 -1.2373345 -0.14747751 0.8698966 0.34700274 -0.58165354 -2.4611366 -0.427095 0.26350787 -0.46437728 1.7603834 -0.04408623 0.21991906
ITM2A 0.4909246 -0.10329423 -0.39049044 -2.6901772 0.59378827 0.95387447 -0.72879237 -0.9909267 0.6141301 1.1580504 0.9795446 -0.92141044 -0.36643848 -0.04922854 1.391217 0.08031017 -0.6578667 -1.2239672 -0.8339362 0.7100053 -0.7609711 -0.50654835 0.43147188 0.0025051269 0.6383148 0.34201244 0.9926191 0.76990414 0.2793344 0.9278439 0.19228472 0.68676 1.3711675 1.6614122 -0.66107976 0.3032829 0.045701396 -0.3804091 -0.5155399 -1.5156698 2.1109693 -0.35340616 0.16073151 -0.24520898 0.9765118 -0.47026533 0.15992685 0.70243144 0.70122665 0.7894552 1.2551459 -1.0637788 0.64053476 0.58237815 1.7191433 -0.7982331 -0.95440245 -0.8021229 -0.41962993 -1.2188226 0.12627755 -0.61198974 0.028141076 0.59889716 0.10989752 -0.004894804 -0.29371613 1.0335325 -0.6213166 0.65882975 -0.91868806 -1.2572628 -0.30678877 -0.40413323 -0.8484464 1.1656653 -0.16122355 -0.60087067 -0.12814619 0.28685907 1.0041156 -0.40780494 -0.5470967 -0.10101949 -0.8369965 -0.2482262 0.9342549 -0.46659008 -0.7829857 -1.0852269 -0.17378938 0.78805476 0.025296882 -0.5622103 -0.08985576 -1.2334154 1.0805252 1.6908779 -0.9268008 0.8797252
SESN1 0.38698074 0.37110737 -0.0030545876 -1.6791114 0.77425796 1.447162 0.20661856 -0.68374276 0.13256247 0.5413315 0.37242737 -0.7142853 -0.22379884 -0.13549854 0.20920113 0.6466712 -0.74324864 -0.33313745 -1.0209395 1.002393 -0.60187757 -0.9470215 -0.06918894 -1.1018236 0.73711413 0.6979611 -0.2766806 0.61972415 0.34832954 1.306332 -0.16110618 -0.01302256 1.7624974 0.24632442 -0.90569204 0.49941954 -0.24655326 0.5019706 -1.4078598 -1.196136 0.9357875 -0.25677362 0.36189738 -0.65693194 0.5495426 0.29928607 0.8208508 -0.019400995 1.0013077 0.5670858 -0.21930625 -1.132187 0.93240005 1.0580173 1.1187831 -0.8371395 -0.40998605 -1.082395 -0.43280274 -1.1992451 -0.43483773 -0.35321033 0.9143586 -0.50629526 0.017970143 0.8346029 -0.2613582 0.1894855 0.050901804 0.11807369 -0.92178965 0.23907156 1.0747906 -0.10929935 -1.3769115 -0.29573315 1.3760047 0.23183857 -1.6848714 -0.4665677 1.5276315 -0.43395618 0.008085489 -0.3254139 0.15660359 -0.41739094 -1.1459014 -0.6953647 -1.3758874 -0.14725313 -0.97401065 0.39936507 -0.6453278 -1.3492672 0.2888435 -0.31227168 0.76137227 0.86617136 -0.060042456 0.9623409
HSP90AA1 0.52988833 0.31450048 0.5226426 -1.2578759 0.9792516 1.3919247 0.4300917 -1.0934525 1.4225321 0.18267746 1.220052 -0.67996955 -1.0924718 -0.81058246 2.0839753 1.004934 -1.1180742 -0.5297355 -0.8325285 1.2411078 0.32717797 -1.5383416 -0.23092164 -0.7652044 0.68521327 0.5582053 0.80676585 0.9369477 -0.05934862 0.079512775 0.2720861 0.61899215 1.4260663 1.0402397 -1.1733304 0.22561146 0.14676559 -1.0433198 -0.5282147 -1.891846 0.5936921 -0.8171943 0.478857 -0.8422654 1.7177173 0.1322551 0.45611364 -0.52224535 0.83626276 0.45923233 1.6781197 -1.3853855 0.9625787 1.5042105 1.1908283 -0.9191134 -0.6717909 -1.0882244 -0.31056997 -1.2436782 -0.8281016 -0.8793469 0.5938757 0.41696388 0.0414694 1.572962 -0.6197354 1.6424325 0.0354666 1.1168422 -0.9984288 -0.85655844 0.7031956 0.18940067 -0.59393626 0.6030876 0.1455274 -0.03527929 -1.6185184 -0.6931983 1.1439139 -0.021245178 1.052278 -0.015074024 0.37306038 -0.57964236 -0.22968374 0.24773072 -1.8721844 -1.2140257 0.056158766 0.7594117 0.22620703 -1.504404 -0.5175596 -0.822462 1.1097554 0.99068236 -0.49040315 1.063513
TCF7 0.2552024 -0.41090932 -0.3145738 0.26839513 0.57976276 0.6333988 0.39672184 -0.49179068 0.15279697 0.28959194 0.10163423 -0.09337781 0.21822065 -0.8335133 -0.41746044 1.3744599 -0.26721573 -0.74372756 0.5573098 1.3549495 -1.0307646 -0.23847531 0.54580414 -0.4816112 -0.584249 0.8488497 -0.035684273 -1.1588577 -0.24256116 0.41750708 0.25156957 0.47338748 -0.1667573 0.8762404 -0.49952987 -0.099945076 0.7117402 0.5368239 0.09991353 -1.1259687 1.7429076 -0.77278763 0.36891434 -0.43764305 0.39013213 -0.6816333 1.5793896 -1.0150863 0.80110955 0.62131804 0.17096747 0.34834582 0.6534485 0.41511732 -0.0038065903 -0.4543455 0.30053076 -0.6529362 -0.23492922 -0.6833809 0.78715146 -1.7561961 0.6498992 0.057594977 0.76175576 0.122473516 0.00791558 -0.19442403 -0.38423392 0.6035592 -1.4666752 -1.63914 0.2193569 -0.11921144 -0.36478415 0.7752695 -1.3119596 0.3160402 -0.16590737 0.011378777 -1.1976428 -1.0896261 -0.3728906 0.15195437 0.17492956 -0.60688794 -0.08599381 0.35526603 -2.5660713 -1.3806744 -0.50896657 1.0666146 -0.10194876 0.053761337 0.1259789 -0.49713507 0.68881994 0.5651549 -0.4963871 1.0517141
MEF2C -0.41265887 0.09440239 -0.5024963 -1.2345601 0.6314947 0.6363995 0.620938 -1.0390676 0.9154864 -0.32994798 0.45468223 -0.62459683 -0.08298569 -1.0880151 0.542537 0.6115894 -0.3230747 -0.45488903 0.6847848 1.1509949 -1.1045197 -1.0739387 -0.71585035 -0.42738828 0.37420887 0.66998327 -0.021980848 -0.24019347 0.2916883 0.5445208 -1.0594047 -0.2811858 0.66251856 0.9300442 -0.5908528 0.4238031 -0.3043149 0.00566384 -1.9221319 -0.52167165 0.60011804 -0.036420327 0.6004345 -1.4034758 0.16992281 -0.83887005 0.25412345 0.08453869 0.44672725 -0.21997085 0.8771274 -0.45686695 0.0043319473 1.2442666 1.3333696 -1.3742802 0.025940444 -0.0060574394 0.4538575 -0.23868659 -0.6876689 -0.31216496 0.11574156 -0.16601737 -0.78345627 0.70204544 -0.7965731 0.64046496 0.025291834 0.4759256 -1.4393047 -0.56540745 0.74783313 0.070416726 -0.7815849 0.60356957 0.6725422 0.11820408 -1.291008 -0.0861759 0.17756097 -1.0197324 0.66763 -0.30170956 -0.3080589 -1.1792759 -0.071428716 -0.584151 -2.073758 -0.084641926 0.7417217 1.1559532 -0.27607328 -0.65439796 -0.55036676 0.15858257 0.6053352 0.4658583 -0.566929 -0.38575894
FCN1 0.28542966 0.10343722 1.1871605 0.369808 0.18338248 0.5725648 0.8025439 -1.7279534 1.1942472 -0.2263069 0.47330508 0.6934519 -0.46606943 -1.2367777 1.4589903 1.057931 -1.1464657 -0.29977116 0.6652776 0.48667338 -1.2788703 -0.37218156 -0.025615321 0.49962026 0.90535635 0.2839037 -0.11039127 0.43610415 -0.88094294 -0.23345259 -0.28098026 -0.3510109 -0.13951607 0.8977205 -0.48441234 0.16122027 0.57789314 -0.06927932 -1.6212608 -0.30043724 0.77856815 -1.062822 -0.33982494 -1.4234053 -0.79787475 0.41739604 0.25780258 -0.24254997 1.4164178 0.63691163 1.102354 0.61334425 0.30858412 0.46501654 0.15892549 -0.45164058 -0.64033514 0.06072133 -0.69693017 -0.55867755 -0.010716096 -0.43352297 0.6349029 -0.25247115 -0.70303166 0.8244751 -0.7893318 -1.3417457 -0.44979724 0.7839813 -1.3149735 -0.94899905 0.9023359 -0.6498743 0.76452345 -0.6894009 0.22825871 0.3538742 -1.0257449 0.8180428 0.70360947 -0.29362676 -0.011115288 -1.0170931 -0.4156612 -1.1962143 0.32189962 -0.6265961 -0.49370095 -0.17166209 -0.29822087 1.6480268 -0.7827626 0.20205933 -0.8937568 -0.2160329 1.454331 0.20699762 -0.7590337 0.07991225
FTL 0.5614941 0.59076834 -0.20425913 -1.9657611 1.9321007 1.2638162 1.1267298 -1.1633922 2.1980646 0.115790494 0.8902329 -0.90816873 -1.3077877 -0.06732107 2.2818282 1.9638554 -1.9890124 -0.58630234 0.4493901 0.7061634 -0.06893715 -2.0006142 -0.9835431 0.6858449 1.9431169 0.05097805 0.47924143 -0.66051453 1.0713639 -0.26014245 -1.0563349 0.31803975 1.2485827 0.45672494 -0.12843 -0.2855123 0.042472627 -2.4890373 -0.5204478 -1.2767528 1.1084725 -1.5268201 0.055398427 -1.6367636 2.8011372 -0.37759078 -0.51851106 0.31949168 0.12452535 1.9456757 1.5861208 -0.6126762 0.33161393 1.2261397 0.61500776 -0.34175926 -0.7669088 -0.5531462 -1.0411445 -1.9997797 0.0006671458 -1.0018336 2.1012177 0.54356307 -0.78729886 1.1064024 0.27432573 1.0461634 0.57535475 0.5171421 -1.9734856 -0.1995059 -0.034786936 0.009709874 -1.5033227 1.151204 0.8622102 2.3388782 -0.869723 -1.5653583 1.3730866 -0.34795588 -0.4992599 -1.0861398 0.93892115 -0.8456728 -0.925426 0.45914045 -1.128843 -2.5538146 1.1075959 1.4368696 1.7571938 -1.8308591 -0.4424971 -1.0321816 1.4872789 1.047893 -1.6680542 0.6168045
SIRPG 1.0807954 -1.454344 0.3616025 -2.1317148 -0.2918446 1.0439478 -0.40749308 -0.97620326 0.4490183 1.1622188 0.3298049 -0.7504475 0.11073404 0.6321642 0.04145103 0.9614769 -0.5954725 -0.3812837 -0.045815133 1.6102145 -1.0335811 -0.14409389 1.043445 -0.3429419 0.56664056 0.8797414 0.23986062 -0.12357917 0.6678016 1.4798204 0.5275234 0.71125746 0.9083799 1.6059318 -0.029900696 -0.20458956 -0.15250398 0.11280014 -0.5233973 -0.47105497 1.0024958 -0.35467705 0.82854646 -0.73627496 0.91801447 0.8832432 0.80178577 -0.15703934 1.3296508 0.82900554 0.31508192 0.14742613 0.45641312 -0.4090049 0.18663946 -1.2194569 0.7383255 0.6219054 -0.20780028 -0.9289874 0.58977234 -0.8734884 0.93181396 0.25154173 1.3506888 -0.5630575 -0.52346116 0.47746542 -0.7601397 0.5563859 -0.96710384 -1.37672 -0.13214839 -1.9100194 -1.5514275 0.1753558 0.3805356 -0.021659376 0.2798391 0.86140287 0.68143904 0.517158 0.44695836 -0.015543751 -1.0885412 -0.10525213 -0.051724993 0.8911266 -0.8312326 -0.6944599 -0.81646883 0.5953255 -0.6804865 -0.35024667 -0.35949412 -0.8501227 0.2748813 1.5671257 -0.22331215 0.5314839
LAG3 0.9163032 -0.6312466 0.724969 -1.5502176 -0.22906032 0.7596047 -0.59284264 -0.9184964 0.4713337 0.032452084 0.3150859 -0.58061117 0.5382241 0.28600538 0.3826073 0.48656034 -0.14419712 -0.14946982 0.13986637 0.6940652 -0.109045655 -0.21010263 0.49650082 -0.22169356 0.3423583 1.0060911 1.3080622 0.38103306 -0.11806555 0.14097218 0.50336814 1.221664 -0.23608263 0.28945196 -0.060544513 0.43052432 1.1447442 0.06964338 -0.2945142 -1.4190437 1.120329 -0.7123534 0.58043796 -0.889902 0.7717699 -0.723153 0.37962705 -1.5975287 0.6849341 0.23967205 -0.0023361028 0.65462214 0.9875263 0.79897094 -0.14657818 -0.9243377 -0.40650716 -1.137057 -0.6365097 0.6144433 1.0741261 -0.45949408 0.07610989 -0.9060607 -0.81557167 -0.07331157 -0.18349984 0.12928173 -0.3423248 0.4332145 -1.6273719 -1.3993973 -1.133736 -0.48704252 -0.33394986 0.9859832 -0.14412257 -0.6033162 0.36422217 -0.18998 1.4730021 0.6879017 -0.27523637 -0.3292866 0.49978942 0.07059506 -0.5620048 -0.30797806 -1.3134186 0.043009873 0.10923785 0.17157336 -0.21072288 -1.0790863 0.44689426 -1.1531928 1.4643914 1.5571928 0.4811733 0.095488705
RGS1 0.61537164 0.46152285 -0.11559235 -1.6086032 0.87293303 1.7484989 0.23123008 -1.1684685 1.7215936 0.55381495 1.2763053 -0.6291919 -0.8236295 -0.44599223 1.5897636 1.095634 -1.2148163 -0.27512667 -0.875584 1.2844133 -0.21924587 -1.5287957 0.113006994 -0.52444327 -0.04565957 0.57782954 0.8895719 1.0231245 0.43383425 0.076907635 -0.24074404 -0.08884237 1.438956 1.1520917 -0.69495654 0.42061305 -0.20155549 -1.5636594 -0.6452851 -1.5371238 1.1229451 -0.21075812 0.6634198 -0.80945647 1.7931236 0.23171924 0.44486132 -0.49330187 0.442676 -0.1451572 1.348751 -1.3784622 0.6137213 1.6168648 1.1910423 -0.88877463 -0.8784721 -0.72783357 -0.57091737 -1.1447264 -0.68899363 -0.6129186 0.7311436 0.12329537 0.103914134 1.2563154 -0.44032946 1.7016046 0.10288932 1.3617162 -1.4482951 -0.75935906 0.45396826 0.068619855 -0.8228169 0.39816248 0.5232791 -0.5148921 -1.3135278 -0.32089412 0.8059084 -0.12352962 0.8588289 -0.51937246 -0.29676694 -0.3154747 0.050207615 -0.42123207 -1.3831216 -0.8656774 0.40865782 0.76966107 0.37653032 -0.6433486 -0.38568816 -0.8028884 1.0053082 1.6210195 -0.816374 1.0789131
ICAM1 0.34970015 0.28988725 0.6168309 -0.7440021 0.9170018 0.9601589 0.82092637 -0.3071746 1.0553579 0.667339 0.41117027 -0.4033884 0.10881355 -0.4482466 0.8403344 0.39750075 -0.4992391 -0.16726014 0.23309684 0.96637666 -1.2962028 -0.34415093 -0.24121942 -0.71176696 0.93997514 0.8723651 0.4821012 0.0253645 0.05769383 0.29130477 -0.71834135 0.09392573 1.157137 0.65344226 0.08174527 0.90027696 -0.18552418 -0.29359913 -1.536683 -1.142455 0.77795523 0.102431424 0.24470907 -0.87163275 0.8589972 -0.57928944 0.53796065 -0.577459 0.5568689 -0.327639 0.18090819 -1.013629 0.6299485 1.1868707 0.22476685 -1.9636558 -0.49549165 -0.5670761 -0.1647733 -1.5652483 -0.42435235 0.13595206 0.27568898 0.3145854 0.7827485 0.8280253 -0.8769203 0.74985373 -0.5127832 0.23695791 -1.1898642 -0.59201276 0.105567165 -0.022744736 -0.79826397 0.15307726 1.1188259 0.20920518 -1.2926228 -0.17715624 0.38326436 -0.2488282 -0.32650325 -0.8626694 -0.2088125 -0.38469797 -0.37031353 -0.4823101 -1.0166646 -0.39324924 0.9870048 1.058886 0.3471561 -0.6217734 -0.6655977 -0.7597296 0.66435117 1.025022 -0.12626089 1.2072989
LYZ 0.34501532 -0.32551056 0.17748554 -1.059947 0.9606697 1.2610561 0.8451062 -1.4586226 0.81726235 0.40434453 2.0214143 -0.50037813 -0.72982943 -0.44376758 1.3769817 1.4824077 -1.1536674 -0.41560665 0.5775406 0.87447137 -0.80532694 -0.7079015 -0.88788056 -0.3268953 1.4842939 0.5547355 1.402285 -0.05403814 0.10870987 -0.43916583 -0.1517818 -0.28452888 0.76237905 1.1777157 0.09144759 0.03989021 0.711511 -0.6371354 -1.2558427 -1.2096792 0.36645734 -0.2578679 0.28930783 -2.0873137 0.831076 -0.44008225 1.212912 0.50590587 0.5574829 -0.0486575 1.101623 -0.91992736 0.85147196 0.28564176 0.44448426 -0.8675737 -0.40015772 -0.80282784 -0.8804472 -1.5850344 -0.77975434 -0.13452467 0.12564223 0.12753628 -0.10669398 1.0740939 -1.1480695 0.78995544 0.11242351 1.4474634 -0.5958764 -1.086837 1.3774499 -0.53900087 -1.1133194 0.15989532 -0.13402009 0.21059598 -1.369585 0.69809705 0.9412899 0.50254804 0.70324236 0.57108593 -0.10283086 -1.0943264 -0.44738838 -0.9027148 -1.4227855 -0.39327595 1.215227 1.6766729 -0.3822967 -1.1944923 -1.041895 -0.8529582 0.941744 1.1871369 0.055510428 0.88672584
CD200 -1.0563989 -0.4700393 -0.26600242 -1.6121842 0.39613268 1.632686 0.102108985 0.80324703 -1.0924399 -1.2963564 1.2776223 0.0013065342 0.1354112 -1.4151206 -0.6439833 -0.22707601 -1.6865891 -0.96732426 0.14776102 1.2093042 -2.3299809 -0.71885717 0.7470559 -1.190475 1.5260633 1.3149614 0.667247 0.29166728 -0.572207 1.0202513 0.57716936 -0.05804876 -0.48375037 1.3148032 -1.0038997 1.7792809 0.42314398 0.36913627 0.45666695 -1.6211448 2.4425547 -0.6044836 0.33167228 -0.8356405 0.1768864 -1.1067638 1.5268853 -0.8732211 -0.18543787 0.38505724 -0.19182539 -0.1920794 0.42373386 -0.03247785 -0.08185738 0.04368424 -1.5582186 -1.878676 -0.29772887 -1.6123668 2.2972944 -1.8098458 -1.4104804 -0.11386482 0.48452032 -0.17553817 1.4182357 -0.1770807 -1.0088955 0.6729707 -1.4207405 -1.0779467 0.009021759 -0.35195792 -1.2382126 1.0258511 0.22567223 -0.006591393 0.4281821 0.47273248 0.7014622 0.05287583 -1.5507404 0.9451669 0.006043634 1.3348753 -1.1278199 -1.3142521 -0.3906514 -1.5474397 1.4411138 2.0062091 -0.6174528 -1.0260236 -0.35827702 -0.52214956 0.017138647 0.3419523 -0.3709001 -0.5156379
CLSPN 0.030001637 -0.12789424 0.81593627 -0.49370304 1.0982952 0.99501306 -0.20678613 -1.2983831 1.0337324 0.73531497 0.48194557 -0.7864175 0.65554434 -1.1890552 0.9478223 0.99731857 -0.5131386 -0.16068015 0.42417952 0.22584173 -0.11640396 -0.45889905 -0.17579415 -0.6756888 0.5676089 0.05596094 1.0899402 0.5655436 0.66052043 -0.047347568 0.7189426 0.49865 0.26646125 0.16230112 -0.4055094 0.40201136 -0.44448048 0.035520315 -0.9579534 0.58406526 0.604121 -0.6194361 -0.14559883 -0.57784903 0.18747036 0.5442224 0.45181745 0.008180822 0.9271345 -0.063746184 0.28687298 0.47802725 0.34988913 0.648561 0.018142868 -1.2757578 -0.60968196 -0.771155 -0.124760106 -0.95872855 0.07530599 -1.3440826 0.83362234 -0.7513406 0.20781972 0.047990587 0.3864379 -0.1929796 -0.98675114 0.51620907 -0.8752512 -0.98040813 0.68115973 0.14307061 -1.5325447 -0.69192433 -0.045356803 -0.15289079 -0.44550678 -0.49632937 0.0069732144 0.25573313 -0.09093334 -1.0379593 -0.23608363 -0.4137783 0.26718336 -0.27369174 -1.8834678 0.5258958 0.9416888 0.37036005 -0.38544124 0.038283642 0.011519367 -0.7611362 0.8215837 0.0054390077 0.5484723 -0.120947145
CREM 0.08426593 0.29073343 0.16475913 -1.2651834 0.9717068 1.3867174 0.17754133 -1.156314 0.9956743 0.33495033 0.8801333 -0.57181484 -0.7915355 -0.43915743 1.3545917 1.0922476 -0.70461583 -0.35353255 -0.6384032 1.1665366 -0.37605014 -0.8584702 -0.07082275 -0.6356823 0.19562343 1.0469357 0.5602295 0.67991894 0.51607573 0.028387861 0.2006188 0.19581787 1.0567802 1.1337092 -0.30964822 0.01687129 0.10033381 -0.7970626 -0.3683899 -1.3757375 1.0641663 -0.49138966 0.6511718 -0.41127834 1.305539 0.16398707 0.43019968 -0.58189315 0.45320392 0.29150325 1.0772316 -0.95241755 0.296996 1.3263229 0.7765954 -1.1759516 -0.58152395 -0.45018768 -0.14936088 -0.97276706 -0.7288695 -0.4158478 0.47874585 -0.33748454 -0.18670486 1.21693 -0.6338735 1.3990316 0.15920718 1.0481539 -1.1761705 -1.1307328 0.45803615 -0.5031029 -0.77531105 0.030246412 0.3850545 0.121046625 -1.2954477 -0.31111214 0.37840587 -0.17225449 0.5376316 -0.6203131 -0.19400638 -0.120869115 0.07639488 0.027994653 -1.0288731 -1.1958911 0.29604852 0.7119278 0.26882973 -0.6736217 -0.29212973 -1.0376436 0.72294 1.1167953 -0.84781295 1.0214682
TREM2 0.5613031 0.6251758 -0.010748799 -0.6650727 1.8846343 1.1226095 0.15369886 -1.3822267 0.2683625 0.78948873 0.6231883 -0.77663565 -1.7810395 0.66159254 0.09163671 -0.3237901 -0.71675235 1.365812 0.1324781 -0.12929489 -0.8492715 -1.2332599 0.4918453 -0.50810397 -0.15518299 0.5064435 0.45352304 0.62191504 0.21307138 -0.37598205 -0.024586875 0.7365226 0.8172997 0.28003544 -0.8195668 -0.13071594 -0.04022974 0.9654146 -1.6153002 0.6965495 -0.2198473 -1.0577385 -0.38790998 -1.6311108 0.043583147 0.4766491 0.60086757 0.016444553 1.9321574 0.92216504 1.3142002 -0.5034401 0.5850298 -0.4520111 -0.009388599 -0.8757267 -0.65054375 0.5263469 -1.197468 -0.5136057 0.088837884 -0.32298073 0.56734043 -0.24745978 -0.4890404 1.0507886 0.39580345 -0.33394742 -0.31012723 0.55742747 -1.5556031 -0.75326407 -0.096889965 -0.0172567 -0.5346734 -1.3518113 0.16010197 0.22220637 -0.9219623 0.3256984 0.83272773 -0.35306078 -0.3167077 -1.0186495 0.13443248 0.79669243 0.13248226 0.04496091 -1.7629905 0.12818223 0.7157505 0.8962356 -0.13276646 0.56203717 -0.36264253 1.0910338 0.6200314 -0.22433817 0.48388335 0.96707916
GADD45B 0.1646363 -0.059112847 0.50263906 -0.6189353 0.59735614 1.3503346 0.29085255 -1.0241379 1.0581399 0.087079555 0.5418202 -0.71069354 -0.74094224 -0.32589906 1.530807 0.53864276 -0.4186932 -0.5097319 0.08953088 1.0416232 -0.6140094 -1.1006374 -0.28047213 -0.41085398 0.46946338 0.69639695 0.5734109 0.10818944 -0.08138167 0.11434624 -0.3293668 0.660565 1.2945671 0.618812 -0.62612385 0.21656707 0.6779201 -0.8593808 -1.1128583 -1.339315 0.9476175 -0.28009087 0.13856833 -0.9270907 0.85712105 -0.28802618 0.6618085 -0.41785684 0.3791743 -0.052732762 0.48212537 -1.0728207 0.60305953 1.1861907 0.90175873 -1.3007501 -0.6072183 -0.2960617 -0.46248147 -0.96727103 -0.7797887 -0.1830263 0.7014543 -0.12458411 0.047925323 0.8923101 -0.507396 1.0036049 0.4843206 0.7350302 -1.4294133 -1.1169866 0.18368086 0.3590302 -0.12024599 0.6121416 0.4230467 -0.090974785 -1.0316347 -0.21423598 0.95701003 -0.58459795 0.790967 -0.25070736 0.005541803 -0.17726836 -0.108785905 -0.313573 -1.3028595 -0.5687072 0.80750626 0.97182953 0.34446937 -0.77250236 -0.5630128 -0.24310327 0.9007692 1.1617821 -0.8248026 1.204941
DERL3 0.010211152 -0.13704741 -0.36282298 -2.0327787 0.103994414 0.50418866 0.2062124 -1.3582748 0.15302718 0.12648731 0.18818699 -0.6240516 0.8290741 -1.1816686 1.2148201 1.252984 -0.25813648 -0.16312923 0.1473367 0.408667 -0.84629816 -0.9768334 -0.05937876 0.19823399 1.2099643 1.1192642 0.87145436 -0.22158663 -0.1398085 -0.4787125 -0.6505647 0.40439835 1.089094 1.3777709 -0.7100223 0.3408571 0.0055656 0.27969965 -1.367185 -0.33296964 0.62220836 -0.018228682 0.44792706 -0.22324526 0.071172915 -0.6404628 0.35752466 -0.19939293 0.20760442 0.4441976 1.3024205 -0.32388076 0.86288744 1.4208053 1.5365231 -1.1118233 -0.2899998 0.23730324 0.449383 -0.70507777 0.39487612 -0.98334104 0.42769244 -0.21723065 -0.45176092 0.15150224 -0.4786425 0.32503474 -0.71176225 0.34929663 -1.0817671 0.10687545 0.4486862 0.5814906 -1.341273 0.28293613 0.7881669 -0.29051983 -0.39534414 -0.6215397 -0.30089694 -0.43309286 0.9411242 0.5357099 -0.7515888 -0.5513255 -0.058897857 -0.42718372 -0.35127792 0.14892279 1.7190049 0.30712524 -0.7486401 -0.9273483 -0.9620482 0.7296849 0.43291548 0.91918755 -0.7035506 -0.34685293
OSM 1.0983515 0.15631856 1.1306605 0.41541487 0.8728299 1.1185088 0.26374775 -1.5562389 1.6467258 0.51427877 1.0233986 -0.76180744 -1.0616117 0.4655626 0.29498297 0.71322256 -1.4286613 -0.01202117 0.97989476 -0.078174725 0.2652706 0.11301529 0.37401938 0.07413666 -0.09501178 0.5659852 0.62548465 -0.35790092 0.01540249 0.8844376 -0.28573954 0.6882943 0.59324986 0.38384327 -0.61343545 -0.60392886 0.25080785 0.4492206 -1.2237487 0.6894521 1.3490403 -0.6509928 -1.2674936 -1.8311213 0.64869934 0.22093824 0.52158815 0.72116345 0.08698663 -0.4622838 0.36985365 -0.48125714 0.45451117 0.5609166 -1.1002489 -1.182096 -0.73421866 -0.107729934 -1.1047025 -0.33804724 -0.28590003 -1.8221145 -0.21770169 -0.19104832 0.21195358 0.40922657 -0.56369466 -0.7486207 -0.27632174 1.4151206 -1.7853845 -0.4630311 0.8026001 -0.61041975 -1.8138688 -0.58823305 0.48517618 -1.3490205 -0.39114606 0.59867716 0.86031836 -1.5820112 0.6912212 -0.0057120877 -0.65107244 0.2477044 0.7808518 -0.9222358 -0.9151132 -0.8061535 -0.057588387 0.96439505 -0.9528982 -0.28138188 0.26161194 -0.028723652 0.8938473 0.42577925 -0.19296314 1.2813737
LGALS2 0.028867561 0.6571857 1.6026328 -0.25005624 1.2472975 1.7248709 0.9023665 -1.032767 0.40952867 -0.47459567 0.009914456 -0.19228098 0.06696104 -0.783704 0.12723444 0.30442366 -1.0252606 -0.16864398 -0.31161982 -0.3137062 -0.1144675 -0.21989273 0.13667095 -0.6046142 0.10132952 0.0014210136 0.8870436 -0.3821899 -0.23248273 0.32499373 -1.1457368 0.26271206 -0.073852815 1.6373607 -0.18608026 -0.02729143 0.76070195 0.005879887 -1.2011297 0.63870794 1.0005745 -0.4087157 -0.73705703 -0.9222081 0.6028279 -0.4971411 -0.11088994 -0.09151691 1.5512455 -0.5785559 0.49337554 -0.4020903 0.1928532 -0.23557977 0.08951247 -0.6667849 -0.5187166 0.23433527 -0.20562674 -0.5523883 -0.7324822 -1.1670202 -0.79694927 0.17049707 -0.59675086 0.44914025 -0.60317117 -0.2304944 -0.4005282 1.424907 -1.4987481 -0.45646903 0.2366101 0.82159245 -0.20600626 -0.1534864 0.28312784 0.6896183 -1.2079912 1.1670868 1.4290822 -0.26596367 0.4284911 -0.12566242 -0.21060443 -1.0524344 -1.0186172 -0.47819823 -0.79784817 0.6995971 1.0875837 0.7759652 -1.7871194 -0.4033001 -1.1183956 -0.16888869 0.9166161 0.5251714 -0.9091725 0.62608665
LGALS1 0.29786313 0.13743283 0.5772094 -1.1064011 0.9753868 0.85733706 0.04867043 -0.88555455 1.3410432 0.36215466 1.3234086 -0.34763288 -0.5814437 -0.75933367 1.428281 0.64156944 -0.6617348 -0.44637847 -0.03651099 1.0400441 0.14796366 -1.1653979 -0.19168961 -0.2681212 0.9061925 0.68791294 1.1036882 0.80016 -0.015624352 -0.7218355 0.26757997 0.32532138 0.9876452 0.88049906 -0.6969527 0.6974089 0.43951166 -0.8756022 -0.32868388 -0.96124387 0.97238976 -0.25484356 0.16878457 -1.2596757 1.1647159 -0.5198471 0.1502031 -0.65241694 0.2890451 -0.12964557 0.72332895 -0.7359973 0.29587355 1.1687012 1.443599 -0.806769 -0.91806346 -0.34580252 -0.51596814 -0.8744455 -0.8312235 -0.65465236 0.18395826 -0.0070112813 -0.18558694 0.7307716 -0.8705164 1.2691245 0.36019424 0.7650989 -0.78431517 -0.50059444 0.2901965 0.36537126 -0.10119431 0.120671205 0.14294814 0.23068681 -1.4052719 -0.08960889 0.6642251 -0.30342832 0.89375365 -0.3230054 0.017291633 -0.8173372 -0.20388274 0.012673089 -1.1764592 -0.64518803 0.9071682 0.1268111 0.21022044 -1.2580552 -0.9074425 -0.42860392 1.3098987 1.0876828 -0.563896 0.72367746
CENPM -0.05425888 -0.5922305 -0.112512805 -1.2761098 0.43046972 0.76477385 -0.6286317 -0.91082865 0.29464656 0.9364186 0.9756638 -0.51472604 0.70252335 -1.1801425 1.4426762 1.2791932 -0.891808 0.02935226 0.47120437 1.0056452 0.0127246 -0.73340017 0.5330269 -0.19480523 0.56852114 0.37629604 0.5683735 0.3334338 0.71392703 -0.0245984 1.2233264 -0.019360078 0.62677264 0.40271226 -0.3481446 0.48153976 -0.0009660599 -0.054663572 -0.86006457 0.012495768 1.7510829 -0.41337797 0.15919648 0.030182973 -0.026329366 -0.62009823 0.446757 0.26431933 0.50908786 0.031889092 1.1076021 -0.3356255 -0.020176452 0.6337394 1.316503 -0.53895855 -0.4827257 -0.9911892 0.20256656 -0.74985325 -0.67200834 -1.1532395 0.7589227 -0.06996708 0.26920146 -0.416875 -0.14587353 0.8271582 -0.80520874 0.76011056 -1.2334085 -0.40386447 0.92207724 -0.5839879 -0.7768262 -0.016628753 0.18621035 0.18742393 -0.6429048 -0.45863837 -0.2005561 -0.19146806 0.20573881 -0.058908023 -0.1733028 -1.2999945 -0.15172756 -0.070560016 -0.69526976 0.44228503 1.6376913 0.9398777 -0.06514633 -0.2692209 -0.801868 -0.20346344 -0.10554708 0.0803696 -0.34559602 -0.10826134
XBP1 0.7538266 0.6493063 0.02158858 -1.3737093 0.63609356 0.7584895 0.5383944 -0.9761762 1.6436058 0.002176324 0.87703496 -0.63833255 0.21383493 -0.6472323 0.86797833 0.87269807 -0.60223734 -0.877487 -0.25187883 0.88477325 -0.30834734 -1.1678448 -0.52158636 -0.28212932 0.7906402 0.51180756 0.8841497 0.23933508 -0.2887094 0.12128667 -0.11005441 0.9181566 1.1021458 1.0943147 -0.75714576 0.9276131 0.27131334 -0.6011687 -0.81525636 -1.3565838 0.9364519 -0.14836714 0.5974247 -0.81956315 1.3598369 -0.57018566 0.65105444 -0.7399633 0.7276577 0.30263197 1.6322149 -1.2188191 1.0209588 1.4605806 1.1931186 -1.1222548 -0.89717764 -0.7073644 -0.0759812 -1.0698056 -0.11764522 -0.77038497 0.579405 -0.4754424 -0.17659411 0.73090804 -1.0364527 1.3082471 -0.09024164 0.45417666 -0.7487812 -0.39326206 0.22917192 0.099797174 -0.5358994 0.6351332 0.56258994 -0.27123076 -1.2258232 -0.724272 0.4683653 -0.6248671 1.1022246 -0.3087376 -0.5994904 -0.9074026 0.086710416 -0.23061177 -0.4981003 -0.4152914 0.7153632 0.4462771 0.34273353 -0.4695203 -0.4386773 -0.024619646 0.90409076 0.8018516 -0.63134474 0.8272324
TIMP3 0.06316617 0.32500952 -0.05470161 -0.3427796 0.8841401 0.9545068 0.5301835 0.44294408 1.5145371 0.7231674 0.4832596 -0.57499534 -0.84778756 -0.07415112 0.13847159 -0.37834868 -1.0831946 -1.2709605 0.235827 1.0284281 -1.3860799 -0.58919704 1.3594182 0.72720337 0.33772433 -0.082404576 1.5364751 0.14252456 -1.1265119 0.1334063 0.22340624 1.1257787 1.0212181 0.40490192 0.739153 -0.1879141 0.7255811 0.78083414 -0.5820018 0.53710765 0.2735378 0.05471154 -0.37461415 -0.65385044 0.82693225 -0.28222102 -0.8716649 -0.31695524 0.57676214 1.1084061 -0.48461875 -0.04082727 -1.0447 -0.62704957 1.20908 0.45555004 -0.73277056 0.28953835 -0.6665946 0.2140494 -0.5238581 -1.4469972 0.2200067 -0.11359988 -0.77349436 0.6379504 0.13966978 0.19916391 -0.49807513 0.3115611 -0.09437807 -0.20587854 0.9980914 -0.3254248 0.11812295 -1.7045949 0.24368374 0.2537036 -2.1677926 0.3337466 0.14168437 -1.9046239 -0.15375194 -0.56926125 -0.34264117 0.7460815 0.5570418 -0.9616096 -0.54462504 -0.08384011 0.31400287 0.044219207 -0.8434377 -0.005888595 -0.8197266 1.0018989 1.066541 -0.3091106 -0.70694023 1.1596894
HMOX1 -0.4141691 0.4787691 1.5317245 -0.8622954 1.0133775 1.3125417 0.35434628 -0.8251162 1.2086397 0.41407332 0.09368138 -0.4415679 -1.2702245 -0.25234437 1.1700168 0.5992997 -0.10102031 -0.040315926 0.3332919 0.8545872 -1.2221344 -0.82105374 -0.12454943 -0.24346715 0.43720728 0.4041359 1.0765449 -0.60414714 -0.13290958 -0.13013019 -0.38074443 0.39772448 0.4978165 0.4392792 0.056844905 0.23213598 0.3252132 0.08373606 -0.859978 -0.19521084 0.62043345 -0.46033612 -0.39019525 -1.3382215 0.22597599 -0.15066966 0.3426007 -0.52945113 0.72636145 0.8839196 0.46910432 -1.0315434 0.36538213 0.8179155 1.124366 -1.2361152 -1.5153986 -0.28187418 -0.436594 -0.87720585 -1.2433971 -0.46837226 0.49776495 -0.22381133 -0.1845034 0.02029507 -0.5427891 -0.09910162 -0.32590425 0.43617332 -0.3979831 -1.2575821 0.18351176 0.5094501 -0.43104202 0.18247458 0.3952931 0.28728607 -1.3934064 0.9654421 0.61965275 0.119096786 0.076134205 -0.30205306 0.40988603 -0.19601613 -0.30325863 -0.41861433 -1.1940888 -0.5260382 0.41355523 0.17237249 -0.1805511 -1.2119577 -1.3484975 0.33618444 1.3344386 0.60432273 -0.5421015 0.490658
APOBEC3H 0.75562316 -0.25539386 1.8259974 -1.5121459 -0.19167398 0.6337649 -0.5584232 0.15138246 -0.11192076 0.2551794 0.37499762 -0.55800796 0.9809884 0.01439701 0.24045129 0.8882385 -0.19403917 -0.428021 -1.3275759 0.8517065 -1.144278 -0.32982132 -0.11866533 -0.3405805 0.56998736 1.0988513 1.8521711 -0.06659793 0.9448144 1.2045133 1.2430093 0.18925846 -0.85343874 2.1375117 -0.22731283 0.5216535 0.4507552 0.14044999 -1.9248854 -0.06488196 0.95057935 -0.77797836 0.3653179 -0.12663409 0.21155629 0.5840737 0.3789751 0.17871995 0.4610019 0.021159163 0.67330134 0.24253236 0.93980646 -0.7822333 0.78975755 -0.17860079 -0.52595156 0.013302902 -0.12946115 -0.642482 -0.033477966 -0.15696293 0.8538379 -0.6649701 0.09216825 -0.98897177 0.07130574 0.6092373 -1.106238 1.1707535 0.36014068 -0.8664978 -0.46252903 -0.3425347 -0.1463804 -0.81734115 0.7437571 0.60438794 0.28407302 -0.0072744833 0.7834421 -0.49375498 -0.41627136 -1.4337064 -0.38583562 -0.14943464 -0.5452274 -0.25022623 -1.325796 0.054538846 0.23097603 0.2348357 0.51388204 -0.19791166 -0.38007933 -1.031636 -0.9954076 0.4354852 0.6099096 -0.0784102
IL2RB 0.64688253 -0.482848 0.29421067 -1.5688899 1.3674308 1.0162125 -0.33683068 -0.930073 0.389264 1.2941492 0.37706915 -0.948921 -0.098302506 -0.4468131 0.32335997 1.1219 -0.2006721 -0.7391877 -0.4763154 0.951681 -0.19249748 0.3431938 -0.25088185 -0.2685163 -0.5522163 0.6216338 0.8803635 -0.15376279 0.15587574 0.25053552 0.0069684247 0.8290027 0.9647466 1.0585148 0.076690346 -0.1717727 0.23900022 -0.4998992 0.005377362 -0.8226727 0.7386635 -0.4380513 0.28328627 0.077452086 0.9036208 -0.68694293 0.41257158 -0.058023643 0.881468 0.43411326 1.1236354 -0.32902247 0.6952836 0.44026655 0.7999959 -0.8194819 -0.17087464 -0.9761565 0.5239225 -0.9877822 -0.8567723 -0.9083058 0.06664672 -0.708926 -0.34809196 0.72764647 -0.1597458 0.5787047 -0.61689556 0.1695034 -1.3048439 -1.7726794 -0.88193196 -1.2223464 -1.0962301 0.68618304 -0.52376455 0.015786905 -1.048195 -0.7108763 0.99653566 0.5170835 -0.16746388 -0.96890956 -0.40283695 -0.17246622 0.3380037 -0.7237999 -1.0264075 -0.09857974 -0.8918678 0.5273758 -0.2941634 0.09877318 0.11884069 -0.6272182 1.2614038 1.2148526 -0.6023445 1.2508357
CTSG 0.30691808 0.55814725 1.8197767 -1.0155324 -0.27744037 -1.0219339 -0.3762844 -0.051510226 0.6990252 1.6732225 -0.73869854 -0.65406877 -0.13688058 -0.09659911 -0.6316042 1.4072847 0.33984116 -1.828637 1.1301233 1.89254 -1.8648534 0.70878595 0.44245803 1.0998021 0.31453925 1.498659 2.3997805 0.79690665 -1.6018355 0.29774374 -0.8037662 0.70052564 1.5645398 0.24523407 -0.16674459 0.8066688 0.5013077 0.29633045 -1.4906635 1.0611509 0.791551 -0.07796301 1.2733843 0.9183007 0.9977252 -1.1210865 -2.0683205 0.69064754 1.724255 0.58008033 -0.94198054 -1.0143219 -0.5931171 -1.1628463 -1.1412452 -0.15604663 -1.3085946 0.22275624 -1.4235072 -1.1107917 -0.18077782 -1.6754892 -0.10641032 0.26131672 0.6761334 0.54423237 0.9848735 1.5397528 -0.57960105 -0.66830367 -0.28450793 0.4027393 -0.12703232 -0.07711416 0.122383624 -2.4971778 0.561874 -1.6318502 -0.4305318 -0.4595115 1.7732888 -2.5603015 0.029045982 -0.37146243 0.76554126 -1.52307 -0.8012497 0.06945855 -2.2310057 -0.69919693 -0.5293079 1.1967425 -1.6977239 0.97245204 -1.2561575 0.48801374 1.5840588 0.49397585 -0.53250283 0.07504268
GZMH 1.1523874 -0.38245082 -0.17961329 -1.2593684 1.195844 0.35859942 0.3359688 -1.6316042 0.78863734 -0.16775003 0.15178251 -0.5787126 0.29575065 -1.9373555 0.2760403 0.37323236 0.90533245 -0.81497586 -0.67886895 0.88409793 -0.6636162 -0.43619287 -0.7197485 -0.7623943 0.5393578 0.960675 0.69787556 1.2074156 0.52144796 0.6995254 0.4144657 0.59395665 1.9129908 1.2647035 0.23423894 -0.78298795 0.88094956 0.09788676 -0.60365593 -0.35643616 0.863969 -1.3991829 -0.112465784 -0.86315846 0.47055724 -0.14571223 1.350895 0.58210593 0.9879781 -0.09134805 0.44894862 0.57232547 1.5107807 -0.25580993 0.7326393 0.06504377 -0.4463523 -0.99842227 0.35820603 -1.4774178 -0.90144473 -1.0509768 0.18216932 0.16053015 -0.17404348 0.8003221 0.010393379 0.2530646 -0.16625729 1.0442239 -0.98988175 -0.9303205 -0.25010216 -1.8641752 -0.68993 -0.22042483 -0.6850894 0.5314634 0.057041798 -0.07251811 1.6285357 0.7449309 -0.22169732 -0.75736713 0.21269223 -0.60813457 -0.7365798 -0.2552385 -0.9896481 -0.08312732 -0.17435673 1.5493468 -0.23825815 -1.1307567 -0.36408725 -0.37193087 0.9789561 0.59895384 -0.424841 1.1737653
GZMB 0.9983542 -0.5504633 0.12336138 -1.6003866 0.575772 1.2849385 -0.16899565 -2.541664 0.80742246 -0.29500443 0.9892443 -0.27514246 0.38600478 -1.4533299 1.1472858 0.72079694 0.19964357 -0.27459264 -0.4314479 1.5140381 -0.32882145 -0.18678121 -0.3730584 -0.98704416 0.15367864 1.2134684 1.160753 1.0251361 0.085250214 0.029680125 -0.37179723 0.91169786 1.0532081 1.3839492 0.22875282 -0.021693384 1.2476505 0.09910027 -0.7129776 -1.8324934 0.46184486 -0.8851032 0.5262354 -0.18163593 0.95434296 -0.37975755 0.7841776 0.0066049322 0.8148157 0.7081652 0.5625951 -0.18261088 0.7918002 0.453164 0.7314267 0.11248171 -0.4026771 -0.4530755 -0.2472122 -0.48394972 -0.15673517 -1.1065631 0.9641535 -0.22314247 -0.35366476 1.0008664 -0.41879022 1.3775321 0.3174672 0.9928063 -1.3225465 -0.6892754 -0.48241046 -0.99749005 -1.548232 0.022897556 -0.35695088 0.5689826 -0.85388964 0.4705125 1.5733211 0.44825393 0.47028306 -0.63988966 0.29872736 -0.74670035 -0.2981373 -1.134465 -0.92259693 0.14301197 0.49349394 0.7827465 -0.15205543 -1.9218299 -0.2893246 -1.189283 0.19596136 0.09424965 -0.54637575 0.81406754
LGMN -0.38549504 -0.15354821 0.17012662 -1.4575821 0.5646312 1.73297 -0.005402653 -1.0722685 0.22666655 0.31343284 0.45629442 -0.40489978 -1.3299975 0.14939518 0.70337284 1.2030652 -0.5378482 -0.17305319 0.6187415 0.6790156 -1.0816791 -1.5396006 -0.9029416 -0.78452665 0.3858432 0.32367697 0.27990767 -0.45472398 -0.9103737 0.42785898 0.010525491 0.5087723 1.3502525 0.73911744 -0.76163924 -0.42400974 0.38005444 -0.26842624 -2.0767217 -0.91272086 0.7360758 -1.097926 -0.032758325 -0.7515971 0.4923014 -0.042269528 0.08309659 -0.3513447 1.0910708 0.42490208 -0.16273318 -0.75128955 -0.11851332 1.0109745 0.6101377 -2.1335905 -1.0436635 -0.08769126 -1.5270627 -0.8489237 -1.5307885 0.106071144 0.90400285 -0.99950117 0.42181918 1.0465438 -0.7460846 0.80173224 -0.5275449 0.33035877 -2.1622403 -0.5128424 -0.09709806 0.73032075 0.11829211 0.22949173 0.75059545 0.74313337 -1.0089824 0.22664927 0.2539346 -0.58554983 0.68574345 -0.73142326 0.22229873 -0.76447415 0.114882484 0.0077889785 -1.1809499 0.26156572 1.1237354 1.138608 -0.42027137 -0.53274494 -0.6737338 -0.7941912 1.122962 0.72914714 0.016626084 1.2127087
TCL1A 1.9900047 0.29369277 0.56787753 -0.51677305 0.48972812 -0.21981335 0.24602777 -0.7475679 0.0018477838 -1.1096218 0.42284662 -0.971288 0.85139155 0.13731146 0.8655054 0.5253794 0.04771632 -1.4472951 -0.9639049 1.0349773 -1.3311231 -0.110798925 0.2259853 0.39717355 -0.56715775 -0.9252216 -0.1276904 0.30630043 -1.3996559 -0.16756004 0.06820986 0.9885475 0.22952043 0.23056895 -0.3951305 0.75846183 -0.2696326 0.8097185 0.94313043 -0.71741545 0.5983641 -0.9784224 1.271474 -1.6958077 -0.2704085 0.109814085 0.4024824 1.3782847 -0.3676213 0.47794795 1.5042464 0.2608179 -0.374479 0.14703548 0.33742696 0.34560755 -0.6206076 0.59372306 0.41650492 -0.09009008 0.3193412 -0.17500485 0.184324 -0.5132879 -1.2198241 0.6427604 -0.88908935 -0.102912225 -0.95897907 1.0783645 -1.3710712 -0.82303876 0.96379447 -0.22122306 -0.8849564 -1.6877515 0.26321274 0.1632376 -1.1178398 -0.025645157 -0.57275146 -0.26026553 -0.035351668 -0.32522097 -0.11798262 -0.24321692 -0.36279312 -0.58656424 -3.3036475 0.53029287 1.5432714 1.333159 -0.40984133 -0.56606525 -1.1392905 0.4529192 -0.43302536 -0.48140013 -1.2719455 0.42679012
NFKBIA 0.29680583 0.5080759 0.56991947 -1.1530442 0.74408424 1.250716 0.5668227 -0.9141182 1.6642098 0.23713838 1.182443 -0.43712547 -0.68438786 -0.57183903 1.8977704 1.0260195 -0.8114011 -0.39401183 -0.29321173 1.3857664 -0.45994017 -0.95074093 -0.12048767 -0.5388649 0.6195592 0.89767295 0.89831597 0.9640569 0.03596435 0.23594198 -0.28247896 0.2790459 1.0417626 0.9081988 -0.7683331 0.41162616 0.18548597 -1.2675452 -0.6585813 -1.3059461 1.0644139 -0.0048375023 0.7583053 -0.8953987 1.5684853 -0.12840186 0.19770147 -0.4576835 0.3702182 -0.11514822 1.2844534 -1.2678767 0.60342884 1.29503 0.9289134 -0.9484449 -0.5090106 -0.7554637 -0.49109447 -1.3982787 -0.7516869 -0.47949225 0.399474 -0.06741678 -0.10940849 1.1960359 -0.54737115 1.4651618 0.09239828 1.4161494 -0.86563724 -0.7953617 0.2586611 0.32419845 -0.68241525 0.23914497 0.61036843 -0.07780025 -1.0660763 -0.5342317 0.727605 -0.64773756 0.6838362 -0.5191008 -0.4362506 -0.41671458 0.13577525 -0.304081 -1.058882 -1.3301451 0.48726454 0.7120303 0.2521383 -0.69180095 -0.3791232 -0.7506699 1.2315571 1.3909906 -0.5812817 1.3612475
PLTP -0.58934855 -0.5097514 0.075129844 -1.5890263 0.9447145 0.7819356 0.20093209 -1.0838721 0.6072861 0.20756379 0.42027712 -0.2293702 -0.7368955 -1.1000751 1.3370439 0.8991553 -0.6048388 0.094864905 0.54256916 0.23334993 -0.7329163 -0.87467784 -0.06989154 -0.46472427 1.0387998 0.738689 0.28371462 -0.17702813 -0.5254428 -0.06463395 -0.39468038 -0.30671567 1.2957615 0.7353124 -0.3792548 0.120299295 -0.22482905 0.7196682 -1.515269 -0.7440896 0.38055286 0.3040648 0.21358645 -0.35119864 -0.47002542 -0.064549856 1.0134746 -0.5797905 0.510547 -0.04117978 0.52827734 -0.849993 0.5052966 0.37995532 1.2350535 -0.65342987 -0.74759173 0.76349384 -0.47445932 -1.0660732 0.32850316 0.12537088 1.0253143 -0.41170412 0.21975969 0.6611819 -0.5735292 0.26806772 -0.5767116 0.09444498 -1.1207815 -0.83752465 0.8014504 0.1664056 -0.67269385 -0.14031386 0.52018577 0.5076071 -1.1475323 -0.4112137 -0.36506104 -0.16696931 -0.12138609 -0.3241835 -0.8190131 -0.33986014 -0.19212788 -0.5303461 -1.0729754 -0.44617647 1.058478 0.46365857 -0.61796814 -0.617435 -0.78598136 -0.12392248 0.97096556 0.49502707 -0.782479 0.7052049
MMP9 0.15570845 -1.173992 1.1775548 -0.930937 0.96282524 0.22851923 -0.13541831 -1.8686877 2.1688402 0.7512347 0.44217056 -0.016970612 -1.2158612 -0.35031924 -0.1612366 0.15802155 -0.92046106 0.40537313 1.0295725 0.6100885 -0.88410735 0.12801477 0.5894238 0.4291545 0.21028295 0.44633648 -0.17959367 0.106880836 0.4523491 -1.0709378 -0.12546586 0.15071592 0.7851148 0.14060582 -1.198536 -0.6943669 0.1668292 1.0769056 -0.20060965 1.0793566 -0.3492539 0.12822297 -0.57326674 -1.253471 0.18908414 -0.42675608 -0.61528105 -0.85040396 1.0390378 0.787834 1.0179005 -0.18354322 0.49584848 0.32161692 -0.133466 -1.2031144 -0.50560904 -0.30681443 -0.8727228 -0.67781085 -0.5256484 -1.3382022 0.1869279 -0.23571709 -1.0458385 0.7013991 -1.2809968 0.14702566 -0.9375532 -0.03880181 -1.4378234 -0.68898606 0.15678515 -0.43553558 0.12968786 -0.48065302 -1.168265 1.2354665 -1.1132057 0.0029177493 0.7849345 -0.18014146 0.55778587 -0.29133546 -0.3952327 -0.4673228 0.20636497 0.098239645 -1.3634746 -0.011778101 0.54897594 0.9984029 -0.65682274 -0.7078653 -1.2934309 0.5981276 1.4922582 -0.06848535 0.57788503 -0.10143995
CD40 0.09676834 0.14417921 0.29558116 -1.761798 0.5892104 0.37663296 0.38522208 -0.6459542 0.2540476 -0.8069396 0.4308316 -0.5854708 0.6083375 -1.0881959 0.58807945 0.72176653 0.17252994 0.057343103 -0.13133095 0.94336194 -1.0153124 -0.71112233 0.1575316 -0.85573095 1.2730724 0.058861677 -0.27094963 0.008155243 -0.7082632 0.66707635 -0.2873396 -0.30044618 1.0940062 0.12109663 -0.019357415 1.5889685 -0.045260746 0.8842502 -0.8232094 0.0693041 1.3243575 0.003239261 0.22477417 -1.4976435 -0.26299775 -0.75824577 0.17661668 -0.21524112 -0.075773805 0.5077114 1.5019908 -1.3074635 -0.3623221 -0.37638676 0.7158642 -1.8296492 -0.858211 -0.29110697 0.8386911 -1.2113109 0.114886165 -0.37605962 -0.3940619 -0.3160593 -0.5191158 0.92603284 -0.7442776 0.6795482 -0.23577507 0.754934 -1.8253422 -0.25706217 -0.28181338 0.30053613 -0.8067332 -0.0030584699 0.8578377 0.4105472 -0.050631665 -0.13541412 0.24264555 -0.48410225 0.41661552 0.008378687 0.12632771 -1.2735138 -0.34856167 -0.61239076 -1.2519284 -0.0005657849 1.95618 1.0174657 0.0016313307 -0.979529 -1.1259876 0.16451618 0.6276915 0.106607966 -0.16606945 0.18545906
SLA2 0.48972312 -0.60744435 -0.38185695 -0.7715018 0.65355176 1.4806122 -1.0583221 -0.75103277 -0.17414083 0.8126668 0.643115 -0.3593705 -0.01076304 -0.48905832 0.57251626 1.3874056 0.08382357 -0.78959334 -0.9279146 1.0058436 -0.513752 -0.16290829 -0.07711121 0.43670872 0.5122827 0.48829064 0.31154588 1.2092072 0.12225618 0.59916943 -0.40872583 0.38329932 0.9145492 0.7424755 -0.26368934 0.31143695 0.314562 0.009084746 -0.50237375 -0.6309208 1.2230618 -0.44660696 -0.050510902 -0.57625246 1.2158872 0.033679787 1.0781969 0.30201516 0.5788985 -0.36786017 0.23572539 -0.51172316 0.6953916 0.7502372 0.28760672 -0.74267614 -1.3964858 -0.040722083 -0.25911626 -0.7072048 0.45262498 -1.0761479 0.08389982 -0.95159364 0.41313457 0.45988753 0.04769344 0.3977766 -1.1620554 0.68380225 -1.5198734 -1.6982374 -0.049106047 -0.6415351 -0.7625986 0.21896046 -0.6079806 -0.23114695 -1.0628011 0.4420475 0.6607752 -0.50123817 -0.26166585 -0.9600246 0.06291834 -1.1442704 0.100322664 -0.17549665 -0.6074565 0.023099845 -0.588842 0.45277727 0.48718888 -1.026714 0.3163612 -0.42218974 0.9939691 1.31408 -0.5344947 0.95726454
CTSZ 0.38203514 -0.27614275 -0.24129048 -1.2102686 0.7222458 0.42961794 0.3426292 -0.7514257 0.65374905 -0.06171663 0.8707069 -0.30706683 -0.1680383 -0.8849013 1.392643 0.89200616 -0.42935318 -0.0043908176 0.6656186 0.4106483 -0.805533 -0.65631557 -0.3759199 0.145229 1.1038461 0.9901742 -0.20106833 0.22906612 0.11429284 -0.71520424 0.10613655 0.04245437 0.8762572 0.5875706 -0.45854363 0.77210045 0.3132571 0.5218883 -0.92138827 -0.28293392 0.6041878 0.120264076 0.21247795 -1.3338155 -0.5446601 -1.0305421 -0.38116664 -1.1013451 0.13722977 0.5479237 0.5581962 -1.0066377 -0.07574772 0.84074545 0.14200096 -1.0434465 -0.38367522 0.023591181 -0.23077136 -0.7832159 -0.3171872 -0.19895956 0.19705737 -0.27960816 -0.7304828 0.44900158 -0.44696513 0.9149058 0.5199333 0.8273264 -0.34559512 -0.88884217 -0.17318644 0.7403924 -0.07589571 0.00840666 0.12287149 1.0625361 -0.67002267 0.22484349 0.76290774 -0.68023604 0.06083757 -0.68878347 -0.13433366 -0.41615197 0.9090856 -0.24146926 -0.47230387 0.2854323 0.77897274 -0.09296636 -0.4026764 -1.2368296 -1.4770325 0.59055597 1.2605481 0.16565375 0.03802779 0.27180672
CST3 0.43757066 -0.15867382 0.79632485 -1.4060969 1.6761909 1.12984 0.7630528 -1.8602883 1.1193357 0.20168607 1.959469 -0.684528 -0.7607336 -0.14356086 1.3677741 1.6728371 -0.6608081 -0.61175627 0.90987843 0.90429324 -1.2400223 -0.64109147 -0.9693824 -0.6165328 0.447673 0.5354602 1.0772892 -0.08550156 0.21281095 -0.5967416 -0.58600587 0.101289384 0.5905059 1.2124076 -0.10189485 0.29354453 1.1256871 -0.3317736 -1.0509149 -1.5169547 0.41473985 -0.5748367 0.347543 -1.0711085 1.1795099 -0.3109633 0.6375712 -0.4894891 1.0026917 -0.357449 0.5726835 -0.948559 0.15923399 0.9755534 1.2597374 -0.7249599 -1.0943248 -0.6233538 -0.6908076 -0.8464751 -1.2784948 0.045373186 0.017538147 0.3065807 0.29306334 0.54202825 -0.9800567 1.1484178 0.016799048 1.2516043 -1.1904838 -0.39706257 0.6521403 -0.12375341 -0.9950618 0.4060815 0.4203227 0.58165514 -1.5203741 0.4360234 0.51361054 -0.6003692 0.8053889 -0.08949905 -0.5163579 -0.88565004 0.021925049 -0.4499892 -1.5837866 -0.37486893 0.7301096 1.1285695 0.674911 -1.294109 -0.795898 -0.6474151 1.0895804 1.0779142 -0.18284185 1.1618354
PIM2 0.23227687 0.37034625 -0.09209487 -1.3985462 0.7186023 0.7450546 0.7077671 -1.0329816 0.8773861 -0.23134938 0.7305698 -0.9009237 0.31102723 -0.36216587 0.86625916 1.0110316 -0.7961648 -1.1287897 -0.6110819 1.108438 -0.40467456 -1.1058537 -0.39530167 -0.5016724 0.3837305 0.7530162 0.6747635 0.65815747 -0.17822419 0.024904147 -0.33715 0.4887193 1.3220503 0.93869174 -0.55216694 0.38753963 0.028164586 -0.591745 -0.843243 -0.85257035 1.2893922 -0.20340168 0.5558485 -0.49832916 1.4388279 -0.2266887 0.54425716 -0.6043389 0.60066605 -0.2236358 1.2499855 -0.6361486 0.8852862 1.5057262 1.3270161 -1.2553333 -0.98620933 -0.44495004 -0.27879658 -1.3580773 -0.20653123 -0.943753 0.14995384 -0.48492357 -0.16358648 0.37701336 -0.7989301 1.5212361 -0.3493534 0.578053 -0.8671198 -0.83842385 0.08638004 0.20896353 -0.99110246 0.5522385 1.0936476 -0.27580285 -0.73733544 -0.88788694 0.5619131 -0.22894074 1.3983281 -0.35549825 -0.49987403 -0.0078412695 0.55142367 -0.68866885 -0.6722504 -0.524251 0.04247808 0.56213355 0.24647494 -0.71877974 -0.1564862 -0.26578337 0.639715 1.5446154 -0.6617216 1.0235252
CD40LG 0.38374442 0.24329078 0.18172406 -1.8361166 -0.017565278 -0.8289312 -0.8157511 0.3241751 0.9536239 0.28400302 1.2275231 -0.5715729 -0.33460748 0.40520754 -0.98275 1.6856328 0.07793888 -0.064097315 -0.6728949 1.5019845 0.38250196 -0.84806997 1.0616531 -2.0222578 -0.63766146 1.2220505 -0.51331425 -0.5004079 0.22743101 1.7758448 0.4362232 0.2335622 -0.6173504 0.85970336 -1.4096055 0.75240976 0.4036362 1.0811943 -0.73780715 0.2848017 0.8389882 -0.49896234 1.179464 -0.8121096 1.3093164 0.29157987 1.3256795 -0.404267 1.2322888 1.5593454 1.5036837 0.79430246 0.390185 -1.121849 1.5234543 -0.27645996 0.4641797 -1.7804843 -0.065956704 -0.62138724 -0.26193506 -1.291468 0.4528519 -0.64105815 0.5099722 -0.12771921 0.12617268 0.2011458 -0.25251156 -0.3010894 -0.63196427 -0.8146017 0.3512782 -0.6912895 -1.7064805 -0.29932043 -0.5741855 0.7554116 -0.50865537 -1.3339807 0.009163585 -0.25485656 0.44314533 0.4552027 0.09171676 -0.0726017 0.27349207 0.11280104 -0.91153 -0.41123766 -0.98850584 1.5574902 -1.7129937 -0.31182653 0.46698058 -0.7034115 1.6039796 1.3189194 0.13814323 0.6507187
TIMP1 0.3026063 -0.09658801 0.98801917 -1.241278 0.9154874 0.87989986 0.91591257 -1.2049426 1.20543 0.29081357 1.1565702 -0.40509146 -0.9719221 -0.508224 1.2601231 0.9244614 -0.5014227 -0.1810148 0.45232674 0.90935373 -0.23061857 -0.6974149 0.07511557 -0.46570385 0.8830672 0.71893454 0.5845412 0.48050687 -0.13391908 -0.23945385 0.51790327 0.54477084 0.77075446 0.29694209 -0.6424115 -0.09419472 0.217145 -0.5830029 -0.9148547 -0.87167436 0.9334202 -0.21797489 0.069118254 -1.4671665 0.70645124 -0.95788133 0.28561732 -0.32570606 0.42637038 0.3658255 0.7353694 -1.1003715 0.56948256 1.0085421 0.9219449 -1.4266057 -1.1194495 -0.75639457 -0.7862815 -1.0114523 -0.55636317 0.025217285 0.31114486 -0.032048706 -0.37172177 0.7944839 -0.5978346 1.0985107 0.19127734 0.4769725 -0.8465153 -0.58661896 0.7081714 0.013745296 -0.16370322 0.19205256 0.19854137 -0.33194712 -1.2629418 0.56975496 0.6710894 -0.1688895 0.7914148 -0.36850625 0.0477117 -1.1331002 0.2105877 -0.3688232 -0.874308 -0.9571089 0.77773225 0.4598772 0.39195624 -1.5890069 -0.64338326 -0.37389657 1.8281136 0.73723483 -0.94283545 0.9197865
GLA 0.1090385 0.2794196 0.73564166 -1.5644025 0.06151481 1.8840148 -0.11533924 -0.5698251 0.72402227 0.045490876 0.31904602 -0.7714693 -0.19289687 -0.45181194 0.9647991 1.556377 -0.6170438 -0.1238496 0.13256979 1.0196563 -0.37374452 -1.6613286 -0.45212764 -0.20953532 0.46355307 0.8588503 0.36819613 -0.4040535 0.36371082 -0.087209925 -0.9630737 0.73913753 1.7185595 0.9956922 -0.19831862 -0.15349823 0.19864926 0.33301938 -1.4674345 -0.38885057 1.2125114 -0.3432747 0.20990747 -0.03322813 0.32539263 -0.06555362 1.0851803 -0.39420906 0.626066 -0.1563544 0.11692068 -0.8325744 -0.15388961 1.0643293 1.0185934 -1.6276526 -1.4099416 -0.14087781 0.041623387 -1.2942349 -0.6543597 -0.7701869 0.91622376 -0.22103666 -0.07601991 1.0440044 -1.2622333 0.6743516 0.7602088 0.5515912 -1.2085795 -0.4697989 0.57234114 0.6490703 -0.20338885 0.27911732 0.7547808 0.4086475 -0.8578315 0.4013365 0.8768064 -0.56755996 0.27316892 0.35702935 -0.19084075 -0.23829976 0.014762177 -0.5901948 -1.4327332 -0.40756702 0.9807107 1.2529145 0.059905194 -0.38907954 -0.6135632 -0.425566 0.43546808 0.4499605 -0.641268 0.7987303
NDFIP2 0.75693494 1.1753255 0.4633538 -0.3684201 1.0558734 1.1428713 -0.72941846 -0.81949747 -1.2803679 0.7272987 1.2131153 -0.39941964 1.4844079 0.042419966 -0.18116954 1.3224266 -0.58661956 -1.6609086 -0.41761795 0.3410289 -0.3775201 -0.4013362 -0.37997037 0.36969727 0.46160358 1.3346591 0.9605708 -1.3908705 0.18973708 -0.030160947 -0.88935477 1.9368628 -0.102863066 1.0059425 -0.34876657 1.1416821 0.36478084 0.10576403 -0.0079539595 -0.9464661 2.2167022 0.40999264 1.1045307 0.5295402 -0.1644623 -1.8428663 0.65806365 -1.0208305 0.6977821 0.5899164 -0.33351153 -0.5260542 0.5765618 0.6135018 0.7905102 -0.22199996 -1.4498599 -1.177731 -0.44990775 -1.223755 -1.0757595 0.32449302 0.39887005 -0.60948837 0.07815607 -0.17768018 -0.13842244 0.096640505 -0.17843567 0.06426879 -1.2012699 -0.799053 0.2773323 -0.09428781 -0.008437657 -1.0059521 -0.8382616 0.48257256 -0.71461076 -1.2798101 -0.61484843 0.0172743 -0.33477417 -0.9275824 -0.6995446 -0.48399895 0.12551783 -0.30922824 0.9611868 0.4589144 -0.48095298 0.8842017 0.80832136 -0.5004025 0.23778093 -1.7056451 0.66041094 0.7337221 -0.069652304 1.0266162
TNFSF13B 0.17584755 -0.11345749 0.41996312 -1.2502217 0.16233754 1.0195253 0.72688824 -0.954669 -0.17409244 -0.15453202 0.605524 -0.48121396 -1.4772727 -0.7794115 1.0819141 1.8020657 -0.6114278 0.0312952 0.9868057 1.1842223 -0.08188529 -0.7525188 1.0410823 -1.1158042 0.4619547 0.6687372 0.19286472 0.052176036 -0.51956785 0.4350432 0.43863735 -0.15974177 0.33069634 1.218007 0.94527036 -0.2574307 0.08115109 0.48282942 -1.1064111 -0.978766 0.78404784 -0.8751273 0.45961243 -0.86942273 0.44521 -0.20279253 0.06719525 -0.5634628 0.6717719 0.75258774 0.82513714 -0.3469465 0.18592058 1.2523286 -0.29412803 -1.1026932 -0.7069574 -0.27210373 -0.35691303 -0.9041482 0.18782994 -1.1833671 0.15570894 -0.37875 0.046179432 0.8632761 -0.10522925 0.03622673 -0.32310137 0.32574615 -0.83787894 -0.18312258 0.8606413 -0.44742796 -1.2729765 -0.0019707046 0.12175332 0.6119048 -1.0607283 1.6046792 0.93300414 -0.585197 0.18765457 0.51068586 0.7095961 -0.12380311 0.28869465 -0.25748503 -1.1710738 0.1367191 0.018096108 0.5539429 -0.5265818 -0.9768946 -0.86330986 -0.15682793 0.98304224 0.19493127 -0.1737873 0.52451855
